<?xml version="1.0"?>
<opencv_storage>
<Classifier type_id="opencv-ml-svm">
  <svm_type>C_SVC</svm_type>
  <kernel><type>RBF</type>
    <gamma>5.0625000000000009e-001</gamma></kernel>
  <C>3.1250000000000000e+002</C>
  <term_criteria><epsilon>1.1920928955078125e-007</epsilon>
    <iterations>100000</iterations></term_criteria>
  <var_all>1000</var_all>
  <var_count>1000</var_count>
  <class_count>5</class_count>
  <class_labels type_id="opencv-matrix">
    <rows>1</rows>
    <cols>5</cols>
    <dt>i</dt>
    <data>
      1 2 3 4 5</data></class_labels>
  <sv_total>104</sv_total>
  <support_vectors>
    <_>
      0. 1.99999996e-002 0. 0. 0. 0. 0. 0. 0. 0. 0. 0. 0. 0. 0. 0. 0. 0.
      0. 0. 0. 0. 0. 0. 0. 0. 0. 0. 0. 0. 0. 0. 0. 0. 0. 0. 0. 0. 0. 0.
      0. 0. 0. 0. 0. 0. 9.99999978e-003 0. 0. 0. 0. 0. 0. 0. 0.
      9.99999978e-003 0. 0. 0. 0. 0. 9.99999978e-003 0. 0.
      9.99999978e-003 0. 0. 0. 0. 0. 0. 0. 0. 0. 0. 9.99999978e-003 0.
      0. 0. 0. 0. 0. 0. 0. 9.99999978e-003 0. 0. 0. 0. 0. 0. 0. 0. 0. 0.
      0. 0. 0. 0. 0. 0. 0. 0. 0. 0. 0. 0. 0. 9.99999978e-003 0. 0. 0. 0.
      0. 9.99999978e-003 0. 0. 0. 0. 0. 0. 0. 0. 0. 0. 0. 0. 0. 0. 0. 0.
      0. 0. 0. 0. 0. 0. 0. 0. 0. 1.99999996e-002 0. 0. 0. 0. 0. 0. 0.
      9.99999978e-003 0. 0. 9.99999978e-003 0. 0. 0. 9.99999978e-003 0.
      0. 9.99999978e-003 0. 0. 0. 0. 0. 0. 0. 0. 0. 0. 0.
      9.99999978e-003 0. 0. 0. 9.99999978e-003 0. 0. 0. 0.
      9.99999978e-003 0. 0. 0. 0. 0. 0. 0. 9.99999978e-003
      9.99999978e-003 0. 0. 0. 1.99999996e-002 0. 0. 0. 0. 0. 0. 0. 0.
      0. 0. 9.99999978e-003 0. 0. 0. 0. 0. 0. 0. 0. 0. 0. 0. 0. 0. 0. 0.
      0. 0. 0. 0. 0. 0. 0. 9.99999978e-003 0. 0. 0. 0. 0. 0. 0. 0. 0. 0.
      0. 0. 0. 0. 0. 0. 0. 0. 0. 0. 0. 0. 0. 0. 9.99999978e-003 0. 0. 0.
      0. 0. 0. 0. 0. 0. 9.99999978e-003 0. 0. 0. 0. 0. 0. 0. 0. 0. 0. 0.
      0. 0. 0. 0. 0. 0. 0. 0. 0. 0. 0. 0. 0. 0. 0. 9.99999978e-003 0.
      9.99999978e-003 9.99999978e-003 0. 0. 0. 0. 0. 0. 0. 0. 0. 0. 0.
      9.99999978e-003 0. 0. 0. 0. 0. 0. 0. 0. 0. 0. 0. 0. 0. 0. 0. 0. 0.
      0. 0. 0. 0. 0. 0. 0. 0. 0. 0. 0. 0. 0. 0. 0. 0. 0. 0.
      9.99999978e-003 0. 0. 0. 0. 0. 0. 0. 0. 9.99999978e-003 0. 0. 0.
      0. 0. 9.99999978e-003 0. 0. 0. 0. 0. 0. 0. 0. 0. 0. 0. 0. 0. 0. 0.
      0. 0. 0. 0. 0. 0. 0. 0. 0. 0. 0. 0. 0. 0. 0. 0. 0. 0. 0. 0. 0. 0.
      0. 0. 9.99999978e-003 0. 0. 0. 9.99999978e-003 0. 0. 0. 0. 0. 0.
      0. 0. 0. 0. 0. 0. 0. 0. 0. 0. 0. 0. 0. 0. 0. 9.99999978e-003
      9.99999978e-003 0. 0. 0. 0. 0. 9.99999978e-003 0. 0. 0. 0. 0. 0.
      0. 0. 0. 0. 0. 0. 0. 0. 0. 0. 0. 0. 0. 0. 9.99999978e-003 0. 0. 0.
      0. 0. 0. 0. 0. 0. 0. 0. 0. 0. 0. 0. 0. 0. 0. 0. 0. 0.
      9.99999978e-003 0. 9.99999978e-003 0. 0. 0. 0. 0. 0.
      9.99999978e-003 0. 0. 0. 0. 0. 0. 0. 0. 0. 0. 0. 0. 0. 0. 0. 0. 0.
      0. 9.99999978e-003 0. 0. 0. 9.99999978e-003 0. 9.99999978e-003 0.
      0. 0. 0. 0. 0. 0. 0. 0. 0. 0. 0. 0. 0. 0. 9.99999978e-003 0. 0. 0.
      0. 9.99999978e-003 0. 0. 0. 0. 0. 0. 9.99999978e-003 0. 0. 0. 0.
      0. 0. 0. 0. 0. 0. 0. 1.99999996e-002 0. 0. 9.99999978e-003 0. 0.
      0. 0. 0. 0. 0. 0. 0. 0. 0. 0. 0. 0. 0. 0. 0. 0. 0. 0. 0. 0. 0. 0.
      9.99999978e-003 0. 0. 0. 0. 0. 0. 0. 0. 0. 9.99999978e-003 0. 0.
      0. 0. 0. 0. 0. 0. 0. 0. 0. 0. 0. 0. 0. 0. 0. 0. 0. 0. 0. 0. 0. 0.
      0. 0. 0. 0. 0. 0. 0. 0. 0. 0. 0. 0. 0. 0. 0. 0. 0. 0. 0. 0. 0. 0.
      0. 0. 0. 0. 0. 0. 0. 0. 0. 9.99999978e-003 0. 0. 9.99999978e-003
      0. 0. 0. 0. 0. 0. 0. 0. 0. 0. 0. 9.99999978e-003 9.99999978e-003
      0. 0. 0. 0. 0. 0. 0. 0. 0. 0. 0. 0. 0. 0. 0. 0. 0. 0. 0. 0. 0. 0.
      0. 9.99999978e-003 0. 0. 0. 0. 0. 0. 0. 0. 0. 0. 0. 0. 0. 0. 0. 0.
      0. 0. 9.99999978e-003 0. 0. 0. 0. 0. 0. 0. 0. 0. 0.
      1.99999996e-002 0. 0. 0. 0. 9.99999978e-003 0. 0. 0. 0. 0. 0. 0.
      0. 0. 0. 9.99999978e-003 0. 0. 9.99999978e-003 0. 0. 0. 0. 0. 0.
      0. 0. 9.99999978e-003 0. 0. 0. 0. 0. 0. 0. 9.99999978e-003
      9.99999978e-003 0. 0. 0. 0. 0. 0. 9.99999978e-003 0.
      9.99999978e-003 0. 9.99999978e-003 0. 9.99999978e-003 0. 0. 0. 0.
      0. 0. 0. 0. 0. 0. 0. 0. 0. 0. 0. 0. 0. 9.99999978e-003
      9.99999978e-003 0. 0. 0. 0. 0. 9.99999978e-003 0. 0. 0. 0. 0. 0.
      0. 9.99999978e-003 0. 0. 0. 0. 0. 0. 0. 0. 0. 0. 9.99999978e-003
      0. 0. 0. 0. 9.99999978e-003 0. 0. 0. 0. 0. 0. 0. 0. 0.
      9.99999978e-003 9.99999978e-003 0. 0. 0. 0. 0. 0. 0. 0. 0. 0. 0.
      0. 0. 0. 0. 0. 0. 0. 0. 0. 0. 0. 0. 0. 0. 0. 0. 9.99999978e-003 0.
      9.99999978e-003 0. 0. 0. 0. 0. 0. 0. 0. 0. 0. 0. 0. 0.
      9.99999978e-003 0. 0. 0. 0. 9.99999978e-003 0. 0. 0. 0. 0. 0. 0.
      0. 0. 0. 0. 0. 0. 0. 0. 0. 0. 0. 0. 0. 0. 0. 0. 0. 0. 0. 0. 0. 0.
      0. 0. 0. 0. 0. 0. 0. 0. 0. 0. 0. 0. 0. 0. 0. 9.99999978e-003 0. 0.
      9.99999978e-003 9.99999978e-003 0. 0. 0. 0. 0. 0. 0. 0. 0. 0. 0.
      0. 0. 0. 0. 0. 0. 0. 0. 9.99999978e-003 9.99999978e-003 0.
      9.99999978e-003 0. 0. 0. 9.99999978e-003 0. 0. 0. 0. 0. 0. 0. 0.
      0. 0. 0. 0. 0. 0. 0. 0. 9.99999978e-003 0. 0. 0. 0. 0. 0. 0. 0. 0.
      0. 9.99999978e-003 9.99999978e-003 0. 0. 9.99999978e-003 0. 0. 0.
      1.99999996e-002 0. 0. 9.99999978e-003 0. 0. 0. 0. 0. 0. 0. 0. 0.
      0. 0. 0. 0. 0. 9.99999978e-003 9.99999978e-003 0.</_>
    <_>
      0. 1.16279069e-002 0. 0. 0. 0. 0. 1.16279069e-002 0. 0. 0. 0. 0.
      0. 0. 0. 0. 1.16279069e-002 0. 0. 0. 0. 0. 0. 0. 0. 0. 0. 0. 0. 0.
      0. 0. 0. 0. 0. 0. 0. 0. 0. 0. 0. 0. 0. 0. 0. 1.16279069e-002 0. 0.
      0. 0. 0. 0. 0. 0. 0. 0. 0. 0. 0. 0. 0. 0. 0. 0. 0. 0.
      1.16279069e-002 0. 0. 0. 0. 0. 0. 0. 0. 0. 0. 1.16279069e-002 0.
      0. 0. 0. 0. 0. 0. 0. 0. 0. 0. 0. 0. 0. 0. 0. 0. 0. 0. 0. 0. 0. 0.
      0. 1.16279069e-002 0. 0. 0. 0. 0. 0. 0. 0. 0. 0. 0. 0. 0. 0. 0. 0.
      1.16279069e-002 0. 0. 0. 0. 0. 0. 0. 0. 0. 0. 0. 0. 0. 0. 0. 0. 0.
      0. 0. 0. 0. 0. 0. 0. 0. 0. 0. 0. 0. 0. 0. 0. 0. 0. 0. 0. 0.
      1.16279069e-002 0. 0. 0. 0. 0. 0. 0. 0. 0. 0. 1.16279069e-002
      1.16279069e-002 0. 0. 0. 0. 0. 0. 0. 0. 0. 1.16279069e-002 0. 0.
      0. 0. 0. 0. 0. 0. 0. 0. 0. 0. 0. 0. 0. 0. 0. 0. 0. 0. 0. 0. 0. 0.
      0. 0. 1.16279069e-002 0. 0. 0. 0. 0. 0. 0. 1.16279069e-002 0. 0.
      0. 0. 0. 0. 0. 0. 0. 0. 0. 0. 0. 0. 0. 0. 0. 0. 0. 0. 0.
      1.16279069e-002 0. 0. 0. 0. 0. 0. 0. 0. 1.16279069e-002 0. 0. 0.
      0. 0. 0. 0. 0. 1.16279069e-002 1.16279069e-002 0. 0. 0.
      1.16279069e-002 0. 0. 1.16279069e-002 1.16279069e-002 0. 0. 0. 0.
      0. 0. 0. 0. 0. 0. 0. 0. 0. 0. 0. 0. 0. 0. 0. 0. 0. 0. 0. 0. 0. 0.
      0. 0. 2.32558139e-002 0. 0. 0. 0. 0. 1.16279069e-002 0. 0. 0. 0.
      0. 0. 0. 0. 0. 1.16279069e-002 1.16279069e-002 0. 0. 0. 0. 0. 0.
      0. 0. 0. 0. 0. 0. 0. 0. 1.16279069e-002 0. 0. 0. 0. 0. 0. 0. 0.
      1.16279069e-002 1.16279069e-002 0. 0. 0. 1.16279069e-002 0. 0. 0.
      0. 0. 0. 0. 0. 0. 0. 1.16279069e-002 0. 0. 0. 0. 0. 0. 0. 0. 0. 0.
      0. 0. 0. 0. 1.16279069e-002 0. 0. 0. 0. 0. 0. 0. 0. 0. 0. 0. 0. 0.
      0. 0. 0. 0. 0. 0. 0. 0. 0. 0. 0. 0. 1.16279069e-002 0. 0. 0. 0. 0.
      0. 0. 0. 0. 0. 0. 0. 0. 0. 0. 1.16279069e-002 1.16279069e-002 0.
      1.16279069e-002 0. 0. 0. 0. 0. 0. 0. 0. 0. 0. 0. 0. 0. 0. 0. 0. 0.
      0. 0. 0. 1.16279069e-002 0. 1.16279069e-002 0. 0. 0. 0. 0. 0. 0.
      0. 0. 0. 0. 0. 0. 0. 1.16279069e-002 0. 0. 0. 0. 0. 0. 0. 0. 0. 0.
      0. 0. 0. 0. 0. 0. 0. 0. 0. 0. 0. 1.16279069e-002 0. 0. 0. 0. 0. 0.
      0. 0. 0. 0. 0. 0. 0. 0. 0. 0. 0. 0. 0. 0. 0. 0. 0. 0. 0. 0. 0.
      1.16279069e-002 0. 0. 0. 0. 1.16279069e-002 0. 0. 0. 0. 0. 0. 0.
      0. 0. 1.16279069e-002 0. 0. 0. 0. 0. 0. 0. 0. 0. 0. 0. 0. 0. 0. 0.
      0. 0. 0. 0. 0. 1.16279069e-002 0. 1.16279069e-002 0. 0. 0. 0. 0.
      1.16279069e-002 0. 0. 0. 0. 0. 0. 0. 0. 0. 0. 0. 0. 0. 0. 0. 0. 0.
      0. 0. 0. 0. 0. 0. 0. 0. 0. 1.16279069e-002 0. 0. 0. 0. 0.
      1.16279069e-002 0. 0. 0. 0. 0. 0. 0. 0. 0. 0. 0. 0. 0. 0. 0. 0.
      3.48837227e-002 0. 0. 0. 0. 0. 0. 1.16279069e-002 0. 0. 0. 0. 0.
      0. 0. 0. 0. 0. 0. 0. 0. 0. 0. 0. 1.16279069e-002 0.
      2.32558139e-002 0. 0. 0. 0. 0. 0. 0. 0. 0. 0. 0. 0. 0. 0. 0. 0. 0.
      0. 0. 0. 0. 0. 0. 0. 0. 0. 0. 0. 0. 0. 0. 0. 0. 0. 1.16279069e-002
      0. 0. 0. 0. 1.16279069e-002 0. 0. 1.16279069e-002 0. 0. 0. 0. 0.
      0. 0. 0. 0. 0. 0. 0. 0. 0. 0. 0. 0. 0. 0. 0. 0. 0. 0. 0. 0. 0. 0.
      0. 0. 0. 0. 0. 0. 1.16279069e-002 0. 0. 0. 0. 1.16279069e-002 0.
      1.16279069e-002 0. 0. 0. 0. 0. 0. 0. 1.16279069e-002
      1.16279069e-002 0. 0. 0. 0. 0. 0. 0. 0. 0. 0. 1.16279069e-002 0.
      0. 0. 0. 0. 1.16279069e-002 0. 0. 0. 0. 0. 0. 0. 0. 0. 0. 0. 0. 0.
      1.16279069e-002 0. 0. 0. 1.16279069e-002 0. 0. 0. 0. 0. 0. 0. 0.
      0. 0. 0. 1.16279069e-002 0. 0. 0. 0. 0. 0. 0. 0. 0. 0. 0. 0. 0. 0.
      0. 0. 0. 0. 0. 0. 0. 0. 1.16279069e-002 0. 0. 0. 0. 0. 0. 0. 0. 0.
      0. 0. 1.16279069e-002 0. 0. 0. 0. 0. 0. 0. 0. 0. 0. 0. 0. 0. 0. 0.
      0. 0. 0. 0. 0. 0. 0. 0. 0. 0. 0. 0. 0. 0. 1.16279069e-002 0. 0. 0.
      0. 0. 0. 0. 0. 0. 0. 0. 0. 1.16279069e-002 0. 0. 0. 0. 0. 0. 0. 0.
      1.16279069e-002 0. 0. 0. 0. 0. 0. 0. 0. 0. 0. 0. 0. 0. 0. 0. 0. 0.
      0. 0. 0. 0. 0. 0. 0. 0. 0. 1.16279069e-002 0. 0. 0. 0. 0. 0. 0. 0.
      0. 0. 0. 0. 0. 0. 0. 0. 0. 0. 0. 0. 0. 0. 0. 0. 0. 0. 0. 0. 0. 0.
      0. 1.16279069e-002 0. 0. 0. 0. 0. 0. 0. 0. 0. 0. 0. 0. 0. 0. 0. 0.
      0. 0. 0. 1.16279069e-002 0. 0. 1.16279069e-002 0. 1.16279069e-002
      0. 0. 0. 1.16279069e-002 1.16279069e-002 0. 0. 0. 0. 0.
      1.16279069e-002 0. 0. 0. 0. 0. 0. 0. 0. 0. 0. 0. 0. 0. 0. 0. 0. 0.
      0. 0. 0. 0. 0. 0. 0. 0. 0. 0. 0. 0. 0. 0. 0. 1.16279069e-002 0. 0.
      0. 0. 2.32558139e-002 0. 0. 0. 0. 0. 0. 0. 0. 1.16279069e-002 0.
      0. 0. 0. 0. 0. 0. 0. 0. 1.16279069e-002 0. 0.</_>
    <_>
      0. 0. 0. 0. 1.40845068e-002 0. 0. 0. 1.40845068e-002 0. 0. 0. 0.
      0. 0. 0. 0. 0. 0. 0. 0. 0. 0. 0. 0. 0. 0. 0. 0. 0. 0. 0. 0.
      1.40845068e-002 0. 0. 0. 0. 0. 0. 0. 1.40845068e-002 0. 0. 0. 0.
      0. 0. 0. 0. 0. 0. 0. 0. 0. 0. 0. 0. 0. 0. 0. 1.40845068e-002 0. 0.
      0. 0. 0. 0. 0. 0. 0. 0. 0. 0. 0. 0. 0. 0. 0. 0. 0. 0. 0.
      1.40845068e-002 0. 0. 0. 0. 1.40845068e-002 0. 0. 0. 0. 0. 0. 0.
      0. 0. 0. 0. 0. 0. 0. 0. 0. 1.40845068e-002 0. 0. 0. 0. 0. 0. 0. 0.
      0. 0. 0. 0. 0. 0. 0. 0. 0. 0. 0. 0. 0. 0. 0. 0. 0. 0. 0. 0. 0. 0.
      0. 0. 0. 0. 0. 0. 0. 4.22535203e-002 0. 0. 0. 0. 0. 0. 0. 0. 0. 0.
      0. 0. 0. 0. 0. 0. 0. 0. 0. 0. 0. 0. 0. 0. 0. 0. 0. 0. 0. 0. 0. 0.
      1.40845068e-002 0. 0. 0. 0. 0. 0. 0. 1.40845068e-002 0. 0. 0. 0.
      0. 0. 1.40845068e-002 0. 0. 0. 0. 0. 0. 0. 0. 0. 0. 0. 0. 0. 0. 0.
      0. 0. 0. 0. 0. 0. 0. 0. 0. 0. 0. 0. 0. 0. 0. 0. 0. 1.40845068e-002
      0. 0. 0. 0. 0. 0. 0. 0. 0. 0. 0. 0. 0. 0. 0. 0. 0. 0. 0. 0. 0. 0.
      0. 0. 0. 0. 0. 0. 0. 0. 1.40845068e-002 0. 0. 0. 0. 0. 0. 0. 0. 0.
      0. 0. 0. 0. 0. 0. 0. 0. 0. 0. 0. 0. 0. 0. 0. 0. 0. 0. 0. 0. 0. 0.
      0. 0. 0. 0. 0. 0. 1.40845068e-002 0. 0. 0. 0. 0. 0. 0. 0. 0. 0. 0.
      0. 0. 0. 0. 0. 0. 0. 0. 0. 0. 0. 0. 0. 0. 0. 0. 0. 0. 0.
      1.40845068e-002 0. 0. 0. 0. 0. 0. 0. 0. 0. 0. 0. 0. 0. 0.
      1.40845068e-002 0. 0. 0. 0. 0. 0. 0. 0. 0. 0. 0. 0. 0. 0. 0. 0.
      1.40845068e-002 0. 0. 0. 0. 0. 0. 0. 0. 0. 0. 0. 0. 0. 0. 0. 0. 0.
      0. 0. 0. 1.40845068e-002 0. 0. 0. 0. 0. 0. 0. 0. 0. 0. 0. 0. 0. 0.
      0. 0. 0. 0. 0. 0. 0. 0. 0. 0. 0. 0. 0. 0. 0. 0. 0. 0.
      1.40845068e-002 0. 0. 0. 0. 0. 0. 0. 0. 0. 0. 0. 0. 0. 0. 0. 0. 0.
      0. 0. 0. 0. 0. 0. 0. 0. 0. 0. 0. 0. 0. 0. 0. 0. 0. 0. 0. 0. 0. 0.
      0. 0. 0. 0. 0. 0. 0. 0. 0. 0. 0. 0. 0. 0. 0. 0. 0. 0. 0. 0.
      1.40845068e-002 0. 0. 0. 0. 0. 0. 0. 0. 0. 0. 0. 0. 0.
      1.40845068e-002 0. 0. 0. 0. 0. 0. 1.40845068e-002 0. 0. 0. 0. 0.
      0. 0. 0. 0. 0. 0. 0. 0. 0. 0. 0. 0. 0. 1.40845068e-002 0. 0. 0. 0.
      0. 1.40845068e-002 0. 0. 0. 0. 0. 0. 0. 0. 0. 0. 0. 0. 0.
      1.40845068e-002 0. 0. 0. 0. 0. 0. 0. 1.40845068e-002 0.
      1.40845068e-002 0. 0. 0. 0. 0. 0. 0. 0. 0. 0. 0. 0.
      1.40845068e-002 0. 0. 0. 0. 0. 0. 0. 0. 0. 0. 0. 0. 0. 0. 0. 0. 0.
      0. 0. 0. 0. 1.40845068e-002 0. 0. 0. 0. 0. 0. 0. 0. 0. 0. 0. 0. 0.
      0. 0. 0. 0. 0. 1.40845068e-002 0. 0. 0. 0. 0. 1.40845068e-002 0.
      0. 0. 0. 0. 0. 0. 0. 0. 0. 1.40845068e-002 0. 0. 0. 0. 0. 0. 0. 0.
      0. 0. 1.40845068e-002 0. 0. 0. 0. 0. 0. 0. 0. 0. 0. 0. 0. 0. 0. 0.
      0. 0. 0. 0. 0. 0. 0. 0. 0. 0. 0. 0. 0. 0. 0. 0. 0. 0. 0. 0. 0. 0.
      0. 0. 0. 0. 0. 0. 0. 0. 0. 0. 0. 0. 0. 0. 1.40845068e-002
      1.40845068e-002 0. 0. 0. 0. 0. 0. 1.40845068e-002 0. 0. 0. 0. 0.
      0. 1.40845068e-002 0. 0. 0. 0. 0. 0. 0. 0. 0. 0. 0. 0. 0. 0. 0.
      1.40845068e-002 0. 0. 0. 1.40845068e-002 0. 0. 1.40845068e-002
      1.40845068e-002 0. 0. 0. 0. 0. 0. 0. 0. 0. 0. 0. 0. 0. 0. 0. 0. 0.
      0. 0. 0. 0. 0. 0. 0. 0. 0. 0. 0. 1.40845068e-002 0. 0. 0. 0. 0. 0.
      1.40845068e-002 0. 0. 0. 0. 0. 0. 0. 0. 0. 0. 0. 0. 0.
      1.40845068e-002 0. 0. 1.40845068e-002 0. 0. 0. 0. 0. 0. 0. 0. 0.
      0. 0. 0. 1.40845068e-002 0. 1.40845068e-002 1.40845068e-002
      1.40845068e-002 1.40845068e-002 0. 0. 0. 1.40845068e-002
      4.22535203e-002 0. 0. 0. 0. 0. 0. 0. 0. 0. 0. 0. 0. 0. 0. 0. 0. 0.
      0. 1.40845068e-002 0. 0. 0. 0. 0. 0. 0. 0. 0. 0. 0. 0. 0.
      1.40845068e-002 0. 0. 0. 0. 0. 0. 0. 0. 0. 0. 0. 0. 0. 0. 0. 0. 0.
      0. 0. 0. 0. 0. 0. 1.40845068e-002 0. 0. 0. 0. 0. 0. 0. 0. 0.
      1.40845068e-002 0. 0. 0. 0. 0. 0. 0. 0. 0. 0. 0. 0. 0. 0.
      1.40845068e-002 0. 0. 0. 0. 0. 0. 0. 0. 0. 0. 0. 0. 0. 0. 0. 0. 0.
      1.40845068e-002 0. 0. 0. 1.40845068e-002 0. 0. 0. 1.40845068e-002
      0. 0. 0. 0. 0. 0. 0. 0. 0. 0. 0. 0. 0. 0. 0. 0. 0. 0. 0. 0. 0. 0.
      0. 0. 0. 0. 0. 0. 1.40845068e-002 0. 0. 0. 0. 0. 0. 0.
      1.40845068e-002 0. 0. 0. 0. 0. 0. 0. 0. 0. 0. 0. 0. 0. 0. 0. 0. 0.
      2.81690136e-002 0. 0. 0. 0. 0. 0. 0. 0. 0. 0. 0. 0. 0. 0. 0. 0. 0.
      0. 0. 0. 0. 0. 0. 0. 0. 0. 0. 0. 0. 0. 0. 0. 0. 0. 0. 0. 0. 0. 0.
      1.40845068e-002 0. 0. 0. 0. 0. 1.40845068e-002 0.</_>
    <_>
      0. 1.28205130e-002 0. 0. 0. 0. 0. 0. 0. 0. 0. 0. 0. 0. 0. 0. 0. 0.
      0. 0. 0. 0. 0. 0. 0. 1.28205130e-002 0. 0. 0. 0. 0. 0. 0. 0. 0. 0.
      0. 0. 0. 0. 0. 1.28205130e-002 0. 0. 0. 1.28205130e-002
      2.56410260e-002 0. 0. 0. 0. 0. 0. 0. 0. 0. 0. 0. 0. 0. 0. 0. 0. 0.
      0. 0. 0. 1.28205130e-002 0. 0. 0. 0. 0. 0. 0. 0. 0. 0. 0. 0. 0. 0.
      0. 0. 0. 0. 0. 0. 0. 0. 0. 0. 0. 0. 0. 0. 0. 0. 0. 0. 0. 0. 0. 0.
      0. 0. 0. 0. 0. 0. 0. 0. 0. 0. 0. 0. 1.28205130e-002 0.
      1.28205130e-002 0. 0. 0. 0. 0. 1.28205130e-002 2.56410260e-002 0.
      0. 0. 0. 0. 0. 0. 0. 0. 0. 0. 0. 0. 0. 0. 0. 0. 0. 0. 0. 0. 0. 0.
      0. 0. 0. 0. 0. 0. 0. 0. 0. 0. 0. 0. 0. 0. 0. 0. 1.28205130e-002 0.
      0. 0. 0. 0. 0. 0. 0. 0. 0. 0. 0. 0. 1.28205130e-002 0. 0. 0. 0. 0.
      0. 0. 0. 0. 0. 0. 2.56410260e-002 0. 0. 0. 0. 0. 0. 0. 0. 0. 0.
      1.28205130e-002 0. 0. 0. 0. 0. 0. 0. 0. 0. 0. 0. 0. 0.
      1.28205130e-002 0. 0. 0. 0. 0. 0. 0. 0. 0. 0. 0. 0. 0. 0. 0. 0. 0.
      0. 1.28205130e-002 0. 0. 0. 0. 0. 0. 0. 1.28205130e-002 0. 0. 0.
      0. 0. 0. 0. 0. 0. 0. 0. 0. 0. 0. 0. 1.28205130e-002 0. 0. 0. 0. 0.
      0. 0. 0. 0. 1.28205130e-002 0. 0. 0. 0. 0. 0. 0. 0. 0. 0. 0. 0. 0.
      0. 0. 0. 0. 0. 0. 0. 0. 0. 1.28205130e-002 0. 0. 0. 0. 0. 0. 0. 0.
      0. 0. 0. 0. 1.28205130e-002 0. 0. 0. 0. 0. 0. 0. 0. 0. 0. 0. 0. 0.
      0. 0. 0. 0. 0. 0. 0. 0. 0. 0. 0. 0. 0. 0. 0. 0. 0. 0. 0. 0. 0. 0.
      0. 0. 0. 0. 0. 0. 0. 0. 0. 0. 0. 1.28205130e-002 0. 0. 0. 0. 0.
      1.28205130e-002 0. 0. 0. 0. 0. 0. 0. 0. 0. 0. 0. 0. 0. 0.
      1.28205130e-002 0. 0. 0. 0. 1.28205130e-002 0. 0. 0. 0. 0. 0. 0.
      0. 0. 1.28205130e-002 0. 0. 0. 0. 0. 0. 0. 0. 0. 0. 0.
      1.28205130e-002 0. 0. 0. 0. 0. 0. 0. 0. 0. 0. 0. 0. 0. 0. 0. 0. 0.
      0. 0. 0. 0. 0. 1.28205130e-002 0. 1.28205130e-002 0. 0. 0. 0. 0.
      0. 0. 0. 1.28205130e-002 0. 1.28205130e-002 0. 0. 0. 0. 0. 0. 0.
      0. 0. 0. 1.28205130e-002 0. 0. 0. 0. 0. 0. 0. 0. 0. 0. 0. 0. 0. 0.
      0. 0. 0. 0. 0. 0. 1.28205130e-002 0. 0. 1.28205130e-002 0. 0. 0.
      0. 0. 0. 0. 0. 0. 0. 0. 0. 0. 0. 0. 0. 0. 1.28205130e-002 0. 0. 0.
      0. 0. 0. 0. 0. 0. 0. 0. 0. 0. 0. 0. 0. 0. 0. 0. 0. 0.
      1.28205130e-002 0. 0. 0. 0. 0. 0. 0. 0. 0. 0. 0. 0. 0. 0. 0. 0. 0.
      0. 0. 0. 1.28205130e-002 0. 0. 0. 0. 0. 0. 0. 0. 0. 0.
      1.28205130e-002 0. 0. 0. 0. 0. 0. 0. 0. 0. 0. 0. 0. 0. 0. 0. 0. 0.
      0. 0. 0. 0. 0. 0. 0. 0. 0. 0. 0. 0. 0. 0. 0. 2.56410260e-002 0. 0.
      0. 0. 1.28205130e-002 0. 0. 0. 0. 0. 0. 1.28205130e-002 0. 0. 0.
      0. 0. 0. 0. 0. 1.28205130e-002 0. 0. 0. 0. 0. 0. 0. 0. 0. 0. 0. 0.
      0. 1.28205130e-002 0. 0. 0. 0. 0. 0. 0. 1.28205130e-002 0. 0.
      1.28205130e-002 0. 0. 0. 1.28205130e-002 0. 1.28205130e-002 0. 0.
      0. 0. 0. 0. 0. 0. 0. 0. 0. 0. 0. 0. 0. 0. 0. 0. 0. 0. 0. 0. 0. 0.
      0. 0. 0. 0. 0. 0. 0. 0. 0. 0. 0. 0. 0. 0. 0. 0. 0. 0. 0. 0. 0. 0.
      0. 0. 0. 0. 1.28205130e-002 0. 0. 0. 0. 0. 0. 1.28205130e-002 0.
      0. 0. 0. 0. 0. 0. 0. 0. 0. 0. 0. 0. 0. 0. 0. 0. 0. 0. 0. 0. 0. 0.
      0. 0. 0. 0. 1.28205130e-002 0. 0. 0. 0. 0. 0. 0. 0. 0. 0. 0. 0. 0.
      0. 0. 0. 0. 0. 0. 0. 1.28205130e-002 0. 0. 0. 0. 1.28205130e-002
      0. 0. 0. 0. 0. 0. 0. 1.28205130e-002 0. 1.28205130e-002 0. 0. 0.
      0. 0. 0. 0. 0. 0. 0. 0. 0. 0. 0. 0. 1.28205130e-002 0. 0.
      2.56410260e-002 0. 0. 0. 0. 0. 0. 0. 0. 0. 0. 0. 0. 0. 0. 0. 0. 0.
      0. 0. 0. 0. 1.28205130e-002 0. 0. 0. 0. 0. 0. 0. 0. 0. 0. 0. 0. 0.
      1.28205130e-002 0. 1.28205130e-002 0. 0. 0. 0. 0. 0. 0. 0. 0. 0.
      0. 0. 0. 0. 0. 0. 0. 0. 0. 0. 0. 0. 1.28205130e-002 0. 0. 0. 0. 0.
      0. 0. 0. 0. 0. 0. 0. 0. 0. 0. 0. 0. 0. 0. 0. 0. 0. 0. 0. 0. 0. 0.
      0. 0. 0. 0. 1.28205130e-002 0. 0. 0. 1.28205130e-002 0. 0. 0. 0.
      0. 0. 0. 0. 0. 0. 0. 1.28205130e-002 0. 1.28205130e-002 0. 0. 0.
      0. 0. 0. 0. 0. 0. 0. 0. 0. 0. 1.28205130e-002 0. 0.
      1.28205130e-002 0. 0. 0. 0. 0. 0. 0. 0. 0. 0. 1.28205130e-002 0.
      0. 0. 0. 0. 0. 0. 0. 0. 1.28205130e-002 0. 0. 0. 0. 0. 0. 0. 0.
      1.28205130e-002 0. 0. 0. 0. 0. 1.28205130e-002 0. 0. 0. 0. 0.
      1.28205130e-002 0. 0. 0. 0. 0. 0. 0. 0. 0. 0. 0. 0. 0. 0. 0. 0.
      1.28205130e-002 0. 0. 0. 0. 0. 0. 0. 0. 0. 0. 0. 0. 0. 0. 0. 0. 0.
      0. 0. 0. 1.28205130e-002 0. 0. 0. 0. 0. 0. 0. 0. 0. 0. 0. 0. 0. 0.
      0. 0. 0. 0. 0. 0. 0. 0.</_>
    <_>
      0. 0. 0. 0. 0. 0. 0. 0. 0. 0. 0. 0. 0. 0. 0. 0. 0. 0.
      8.92857183e-003 0. 0. 0. 0. 0. 0. 0. 0. 0. 0. 8.92857183e-003 0.
      0. 0. 0. 0. 0. 0. 0. 0. 8.92857183e-003 0. 0. 0. 0. 0.
      8.92857183e-003 0. 0. 0. 0. 0. 0. 0. 8.92857183e-003 0. 0. 0. 0.
      0. 0. 0. 0. 0. 0. 0. 0. 0. 0. 0. 8.92857183e-003 0. 0. 0. 0. 0.
      8.92857183e-003 0. 0. 0. 0. 0. 0. 0. 0. 0. 0. 8.92857183e-003 0.
      0. 0. 0. 0. 0. 0. 0. 0. 0. 0. 0. 0. 0. 0. 0. 0. 0. 0. 0. 0. 0. 0.
      0. 0. 0. 0. 0. 0. 0. 0. 0. 0. 0. 0. 0. 0. 0. 0. 0. 0. 0. 0. 0. 0.
      0. 0. 8.92857183e-003 0. 0. 0. 0. 0. 0. 8.92857183e-003 0. 0. 0.
      0. 0. 0. 0. 0. 0. 0. 0. 0. 0. 0. 0. 0. 0. 0. 0. 0. 0. 0. 0. 0. 0.
      0. 0. 0. 8.92857183e-003 0. 0. 8.92857183e-003 0. 8.92857183e-003
      0. 0. 0. 0. 0. 0. 0. 0. 0. 0. 0. 0. 0. 0. 0. 0. 0. 0. 0. 0. 0. 0.
      0. 0. 0. 8.92857183e-003 0. 0. 0. 0. 0. 0. 0. 8.92857183e-003 0.
      0. 8.92857183e-003 0. 0. 0. 0. 0. 0. 0. 0. 0. 0. 0. 0. 0. 0. 0. 0.
      0. 0. 0. 0. 0. 0. 0. 0. 0. 0. 0. 0. 0. 0. 0. 8.92857183e-003 0. 0.
      0. 0. 0. 0. 0. 0. 0. 0. 0. 0. 0. 0. 0. 8.92857183e-003 0. 0. 0. 0.
      0. 0. 0. 1.78571437e-002 0. 0. 0. 0. 0. 0. 0. 0. 0. 0. 0.
      8.92857183e-003 1.78571437e-002 0. 0. 0. 0. 0. 0. 0. 0. 0. 0. 0.
      0. 0. 0. 0. 0. 0. 0. 0. 0. 0. 0. 0. 0. 0. 0. 0. 0. 0. 0.
      1.78571437e-002 0. 0. 0. 0. 0. 0. 0. 8.92857183e-003 0. 0. 0. 0.
      0. 0. 0. 0. 0. 0. 0. 0. 0. 0. 8.92857183e-003 0. 0. 0.
      8.92857183e-003 0. 8.92857183e-003 0. 0. 0. 0. 0. 8.92857183e-003
      0. 0. 0. 0. 0. 0. 0. 0. 0. 0. 8.92857183e-003 0. 0. 0. 0. 0. 0. 0.
      0. 0. 0. 0. 0. 0. 0. 0. 8.92857183e-003 0. 0. 0. 8.92857183e-003
      0. 0. 0. 0. 0. 0. 0. 0. 0. 0. 0. 0. 0. 0. 0. 0. 0. 0. 0.
      8.92857183e-003 0. 8.92857183e-003 0. 0. 0. 0. 0. 8.92857183e-003
      0. 0. 0. 0. 0. 0. 0. 8.92857183e-003 0. 0. 8.92857183e-003 0. 0.
      0. 0. 0. 0. 0. 0. 0. 0. 0. 8.92857183e-003 0. 0. 8.92857183e-003
      0. 0. 0. 0. 0. 0. 0. 0. 0. 0. 0. 0. 0. 0. 0. 0. 0. 0. 0. 0.
      8.92857183e-003 0. 0. 0. 0. 0. 0. 2.67857164e-002 0. 0. 0. 0. 0.
      0. 0. 8.92857183e-003 8.92857183e-003 0. 8.92857183e-003 0. 0. 0.
      0. 0. 0. 8.92857183e-003 0. 0. 0. 0. 0. 0. 0. 0. 0.
      8.92857183e-003 0. 8.92857183e-003 0. 0. 0. 0. 0. 0. 0. 0. 0.
      8.92857183e-003 0. 0. 0. 0. 0. 0. 0. 8.92857183e-003 0. 0. 0. 0.
      0. 0. 0. 8.92857183e-003 0. 0. 0. 8.92857183e-003 0. 0. 0. 0. 0.
      0. 0. 0. 0. 0. 0. 0. 0. 0. 8.92857183e-003 0. 0. 8.92857183e-003
      0. 0. 0. 0. 0. 0. 0. 0. 0. 0. 0. 0. 0. 0. 8.92857183e-003 0. 0. 0.
      0. 0. 0. 0. 0. 0. 0. 8.92857183e-003 0. 0. 0. 0. 8.92857183e-003
      0. 0. 0. 0. 0. 0. 8.92857183e-003 0. 0. 0. 0. 0. 0. 0. 0. 0. 0. 0.
      0. 0. 0. 0. 0. 0. 0. 0. 0. 0. 0. 0. 0. 0. 0. 0. 0. 0. 0. 0. 0. 0.
      0. 0. 0. 0. 0. 0. 0. 0. 0. 0. 8.92857183e-003 0. 0. 0. 0. 0. 0. 0.
      0. 8.92857183e-003 0. 0. 0. 0. 0. 0. 0. 0. 0. 0. 0. 0.
      8.92857183e-003 0. 0. 0. 0. 0. 0. 0. 0. 0. 0. 0. 0. 0. 0. 0. 0. 0.
      1.78571437e-002 0. 0. 1.78571437e-002 0. 0. 0. 8.92857183e-003 0.
      0. 0. 0. 0. 0. 0. 0. 0. 0. 0. 0. 0. 0. 0. 0. 0. 8.92857183e-003
      8.92857183e-003 0. 0. 0. 0. 0. 8.92857183e-003 0. 0. 0. 0. 0. 0.
      0. 8.92857183e-003 0. 0. 0. 0. 0. 0. 0. 0. 0. 8.92857183e-003 0.
      0. 0. 0. 0. 0. 0. 0. 0. 0. 0. 0. 8.92857183e-003 8.92857183e-003
      0. 0. 0. 8.92857183e-003 0. 0. 0. 8.92857183e-003 0. 0. 0. 0. 0.
      0. 0. 0. 0. 0. 8.92857183e-003 0. 0. 8.92857183e-003
      8.92857183e-003 0. 0. 0. 0. 0. 0. 0. 0. 0. 0. 0. 0. 0. 0. 0. 0. 0.
      0. 0. 0. 0. 0. 0. 0. 0. 0. 0. 0. 8.92857183e-003 0. 0. 0. 0. 0. 0.
      8.92857183e-003 0. 0. 0. 0. 0. 0. 0. 0. 0. 0. 8.92857183e-003 0.
      0. 0. 0. 0. 0. 0. 0. 0. 0. 0. 0. 0. 0. 0. 0. 0. 8.92857183e-003 0.
      8.92857183e-003 1.78571437e-002 0. 0. 0. 0. 8.92857183e-003 0. 0.
      8.92857183e-003 8.92857183e-003 0. 0. 0. 0. 0. 0. 0. 0. 0. 0. 0.
      8.92857183e-003 0. 0. 0. 8.92857183e-003 8.92857183e-003 0. 0. 0.
      0. 0. 0. 8.92857183e-003 0. 0. 0. 0. 0. 0. 0. 0. 0. 0. 0. 0. 0.
      8.92857183e-003 0. 0. 0. 0. 0. 8.92857183e-003 0. 0. 0. 0. 0. 0.
      0. 8.92857183e-003 0. 0. 0. 0. 0. 0. 0. 0. 0. 0. 0. 0. 0. 0. 0. 0.
      0. 8.92857183e-003 0. 0. 8.92857183e-003 0. 0. 0. 0. 0. 0.
      8.92857183e-003 0. 0. 0. 0. 0. 0. 0. 0. 8.92857183e-003 0. 0. 0.
      0. 0. 0. 8.92857183e-003 0. 0. 0. 0. 0. 0. 0. 0. 0. 0. 0. 0. 0. 0.
      0. 0. 0. 0. 8.92857183e-003 0. 0. 0. 0. 0. 0. 0. 0. 0. 0. 0. 0. 0.
      0. 0. 8.92857183e-003 0. 0. 0. 0. 0. 1.78571437e-002 0.
      8.92857183e-003 0. 0. 0. 0. 0. 0. 0. 8.92857183e-003
      8.92857183e-003 0. 0. 0. 0. 0. 0. 0. 8.92857183e-003 0. 0. 0.
      8.92857183e-003 0. 0. 0. 0. 0. 0. 8.92857183e-003 0. 0. 0. 0. 0.
      0. 0. 0.</_>
    <_>
      0. 0. 0. 0. 0. 0. 0. 0. 0. 0. 0. 0. 1.42857144e-002 0. 0. 0. 0.
      1.42857144e-002 0. 0. 0. 0. 0. 0. 0. 0. 0. 0. 0. 0. 0. 0. 0. 0. 0.
      0. 0. 0. 1.42857144e-002 0. 0. 0. 0. 0. 1.42857144e-002 0. 0. 0.
      0. 1.42857144e-002 0. 0. 1.42857144e-002 0. 0. 0. 0. 0. 0. 0. 0.
      0. 0. 0. 0. 0. 0. 0. 0. 0. 0. 0. 0. 0. 0. 0. 0. 0. 0. 0. 0. 0. 0.
      0. 0. 0. 0. 0. 0. 0. 0. 0. 0. 0. 0. 0. 0. 0. 0. 0. 0. 0. 0. 0. 0.
      0. 0. 0. 0. 0. 0. 0. 0. 0. 1.42857144e-002 0. 0. 0. 0. 0. 0.
      1.42857144e-002 0. 0. 0. 0. 0. 0. 0. 0. 0. 0. 0. 0. 0. 0. 0. 0. 0.
      0. 1.42857144e-002 0. 0. 0. 0. 0. 0. 0. 0. 0. 0. 0. 0. 0. 0. 0. 0.
      0. 1.42857144e-002 0. 0. 0. 0. 0. 0. 0. 0. 0. 0. 0. 0. 0. 0. 0. 0.
      0. 0. 0. 0. 0. 0. 0. 0. 0. 0. 0. 0. 0. 0. 0. 0. 0. 0. 0. 0. 0.
      1.42857144e-002 0. 0. 0. 0. 0. 0. 0. 0. 0. 0. 0. 0. 0. 0. 0. 0. 0.
      0. 0. 0. 0. 0. 0. 0. 0. 0. 0. 0. 0. 0. 0. 0. 0. 0. 0. 0. 0. 0. 0.
      0. 0. 0. 0. 1.42857144e-002 0. 0. 0. 0. 0. 0. 0. 0. 0. 0. 0. 0. 0.
      0. 0. 0. 0. 0. 0. 0. 0. 0. 0. 0. 1.42857144e-002 0. 0. 0. 0. 0. 0.
      0. 0. 0. 0. 0. 0. 0. 0. 0. 0. 0. 0. 0. 0. 1.42857144e-002 0. 0. 0.
      2.85714287e-002 0. 0. 0. 0. 0. 0. 0. 0. 0. 0. 0. 0. 0. 0. 0.
      1.42857144e-002 0. 1.42857144e-002 0. 0. 0. 0. 0. 0. 0.
      1.42857144e-002 0. 0. 0. 1.42857144e-002 0. 0. 0. 0. 0. 0. 0. 0.
      0. 0. 0. 0. 0. 0. 0. 0. 0. 0. 0. 0. 0. 0. 0. 0. 0. 0. 0. 0. 0. 0.
      0. 1.42857144e-002 1.42857144e-002 0. 0. 0. 1.42857144e-002 0. 0.
      0. 0. 0. 0. 0. 1.42857144e-002 1.42857144e-002 0. 0. 0. 0. 0. 0.
      0. 0. 0. 0. 0. 1.42857144e-002 0. 0. 0. 0. 0. 0. 0. 0. 0. 0. 0. 0.
      0. 0. 0. 0. 0. 0. 0. 0. 0. 0. 0. 0. 0. 0. 0. 0. 0. 0. 0. 0. 0. 0.
      0. 0. 0. 0. 0. 0. 0. 0. 0. 0. 0. 0. 0. 0. 0. 0. 0. 0. 0. 0. 0. 0.
      0. 0. 0. 1.42857144e-002 0. 0. 0. 0. 0. 0. 0. 0. 0. 0. 0. 0. 0. 0.
      0. 0. 0. 0. 0. 0. 0. 0. 0. 0. 0. 0. 0. 0. 0. 0. 0. 0. 0. 0. 0. 0.
      0. 0. 0. 0. 0. 0. 0. 0. 0. 0. 0. 0. 0. 0. 1.42857144e-002 0. 0. 0.
      0. 1.42857144e-002 0. 0. 0. 0. 0. 0. 0. 0. 0. 1.42857144e-002 0.
      1.42857144e-002 0. 0. 0. 0. 0. 0. 0. 1.42857144e-002 0. 0. 0.
      1.42857144e-002 0. 0. 0. 0. 0. 0. 0. 0. 0. 0. 0. 0. 0. 0. 0.
      2.85714287e-002 0. 0. 0. 2.85714287e-002 0. 0. 0. 0. 0.
      1.42857144e-002 1.42857144e-002 0. 0. 0. 0. 0. 0. 0. 0. 0. 0.
      1.42857144e-002 0. 0. 0. 0. 0. 0. 0. 0. 0. 0. 0. 0. 0. 0. 0. 0. 0.
      0. 0. 0. 0. 0. 0. 0. 0. 0. 0. 0. 0. 0. 0. 0. 0. 0. 0. 0. 0. 0. 0.
      0. 0. 0. 0. 1.42857144e-002 0. 0. 0. 0. 0. 0. 0. 0. 0. 0.
      1.42857144e-002 0. 0. 0. 0. 0. 0. 0. 0. 0. 0. 2.85714287e-002 0.
      0. 0. 0. 0. 0. 0. 0. 0. 0. 0. 0. 0. 0. 0. 0. 0. 0. 0. 0.
      2.85714287e-002 0. 0. 0. 0. 0. 0. 0. 0. 0. 0. 0. 0. 0.
      1.42857144e-002 0. 0. 0. 0. 0. 0. 0. 0. 0. 0. 0. 0. 0. 0. 0. 0. 0.
      0. 0. 0. 0. 0. 0. 0. 0. 0. 0. 0. 0. 0. 0. 0. 0. 0. 0. 0. 0. 0. 0.
      0. 0. 0. 0. 0. 0. 0. 0. 0. 0. 0. 0. 0. 0. 0. 2.85714287e-002 0. 0.
      0. 0. 0. 0. 0. 0. 0. 0. 0. 0. 0. 0. 0. 0. 0. 0. 0. 0. 0. 0. 0.
      1.42857144e-002 0. 0. 0. 0. 0. 1.42857144e-002 0. 0. 0. 0.
      1.42857144e-002 0. 0. 0. 0. 0. 0. 0. 0. 0. 0. 0. 0. 0.
      1.42857144e-002 0. 0. 0. 0. 0. 0. 0. 0. 0. 0. 0. 0. 0. 0. 0. 0. 0.
      0. 0. 0. 0. 2.85714287e-002 0. 0. 0. 0. 0. 0. 0. 0. 0. 0. 0. 0. 0.
      0. 0. 0. 0. 0. 0. 0. 0. 0. 0. 0. 0. 0. 0. 0. 0. 0. 0.
      1.42857144e-002 1.42857144e-002 0. 0. 0. 0. 1.42857144e-002 0. 0.
      0. 0. 0. 0. 0. 0. 0. 0. 0. 0. 0. 0. 0. 0. 0. 0. 0. 0. 0. 0. 0. 0.
      1.42857144e-002 0. 0. 0. 0. 0. 1.42857144e-002 0. 0. 0. 0. 0. 0.
      0. 0. 0. 0. 0. 0. 0. 0. 1.42857144e-002 0. 0. 0. 0. 0.
      1.42857144e-002 0. 0. 0. 0. 0. 0. 1.42857144e-002 0. 0. 0. 0. 0.
      0. 0. 0. 0. 0. 0. 0. 0. 0. 0. 0. 0. 0. 0. 0. 0. 0. 0. 0. 0.
      1.42857144e-002 0. 0. 0. 0. 0. 0. 0. 0. 1.42857144e-002 0. 0. 0.
      1.42857144e-002 0. 0. 0. 1.42857144e-002 0. 0. 0. 0. 0. 0. 0. 0.
      0. 0. 0. 0. 0. 0. 0. 1.42857144e-002 0. 0. 0. 0. 0. 0. 0. 0. 0. 0.
      0. 0. 0. 0. 0. 0. 0. 0. 0. 0. 0. 0. 0. 0. 0. 0. 0. 0. 0. 0. 0. 0.
      0. 0. 0. 0. 0. 0. 1.42857144e-002 0. 0. 0. 0. 0. 0. 0. 0. 0. 0. 0.
      0. 0. 0. 1.42857144e-002 0. 0. 0. 0. 0. 0.</_>
    <_>
      0. 1.53846154e-002 0. 0. 0. 0. 0. 1.53846154e-002 1.53846154e-002
      0. 0. 0. 0. 0. 0. 0. 0. 0. 0. 0. 0. 1.53846154e-002 0. 0. 0. 0. 0.
      0. 0. 0. 0. 0. 0. 0. 0. 0. 0. 0. 0. 0. 0. 0. 1.53846154e-002 0. 0.
      0. 0. 0. 0. 0. 0. 0. 0. 0. 0. 0. 0. 0. 0. 0. 0. 0. 0. 0. 0. 0. 0.
      0. 0. 0. 0. 0. 0. 0. 0. 0. 0. 0. 0. 0. 0. 0. 0. 0. 0. 0. 0. 0. 0.
      0. 0. 0. 0. 0. 0. 0. 0. 0. 0. 0. 1.53846154e-002 0. 0. 0. 0. 0. 0.
      0. 1.53846154e-002 0. 0. 0. 0. 0. 0. 0. 0. 0. 0. 1.53846154e-002
      1.53846154e-002 0. 0. 0. 0. 0. 0. 0. 0. 0. 0. 0. 0. 0. 0. 0. 0.
      1.53846154e-002 0. 0. 1.53846154e-002 0. 0. 0. 0. 0. 0. 0. 0. 0.
      0. 0. 0. 0. 0. 0. 0. 0. 0. 0. 0. 0. 0. 0. 0. 0. 0. 0. 0. 0. 0. 0.
      0. 1.53846154e-002 0. 0. 1.53846154e-002 0. 0. 0. 0. 0. 0. 0. 0.
      1.53846154e-002 0. 0. 0. 0. 0. 0. 0. 0. 0. 0. 0. 0. 0. 0. 0. 0. 0.
      0. 0. 0. 0. 0. 0. 0. 0. 0. 0. 0. 0. 0. 0. 0. 0. 0. 0. 0. 0. 0. 0.
      0. 0. 0. 0. 1.53846154e-002 0. 0. 0. 0. 0. 0. 0. 0. 0. 0. 0. 0. 0.
      0. 0. 0. 0. 0. 0. 0. 0. 0. 0. 0. 0. 0. 0. 0. 0. 0. 0. 0. 0. 0. 0.
      0. 0. 0. 0. 0. 0. 0. 1.53846154e-002 0. 0. 0. 0. 0. 0. 0. 0. 0. 0.
      0. 0. 0. 0. 0. 0. 0. 0. 0. 0. 0. 0. 0. 0. 0. 4.61538471e-002 0. 0.
      0. 1.53846154e-002 0. 0. 0. 0. 0. 0. 0. 0. 0. 0. 0. 0. 0. 0. 0. 0.
      0. 0. 0. 0. 0. 0. 0. 0. 0. 0. 0. 0. 0. 0. 0. 1.53846154e-002 0. 0.
      0. 0. 0. 0. 0. 0. 0. 0. 1.53846154e-002 0. 0. 0. 0.
      1.53846154e-002 0. 1.53846154e-002 0. 0. 0. 0. 0. 0. 0. 0.
      1.53846154e-002 0. 0. 1.53846154e-002 0. 1.53846154e-002 0. 0. 0.
      0. 0. 0. 0. 0. 0. 0. 0. 0. 0. 0. 0. 0. 0. 0. 0. 0. 0. 0. 0. 0. 0.
      0. 0. 0. 0. 0. 0. 0. 0. 0. 0. 1.53846154e-002 0. 0.
      1.53846154e-002 0. 0. 0. 0. 0. 0. 0. 0. 0. 0. 0. 0. 0. 0. 0. 0. 0.
      0. 0. 0. 0. 0. 0. 0. 0. 0. 0. 0. 0. 0. 0. 0. 0. 0. 0. 0. 0. 0. 0.
      0. 0. 0. 0. 0. 0. 0. 0. 0. 1.53846154e-002 0. 0. 0. 0. 0. 0. 0. 0.
      0. 0. 1.53846154e-002 0. 0. 0. 0. 0. 0. 1.53846154e-002 0. 0. 0.
      0. 0. 0. 0. 0. 0. 0. 0. 0. 1.53846154e-002 0. 0. 0. 0. 0. 0. 0. 0.
      0. 0. 0. 0. 0. 0. 0. 0. 0. 1.53846154e-002 0. 0. 0. 0. 0. 0. 0. 0.
      0. 0. 1.53846154e-002 0. 0. 0. 0. 0. 0. 4.61538471e-002 0. 0. 0.
      0. 0. 0. 0. 1.53846154e-002 0. 0. 0. 0. 0. 0. 0. 0. 0. 0.
      1.53846154e-002 0. 0. 0. 0. 0. 0. 0. 0. 0. 0. 0. 0. 0. 0. 0. 0. 0.
      0. 0. 0. 1.53846154e-002 0. 0. 1.53846154e-002 0. 0. 0. 0. 0. 0.
      0. 0. 0. 0. 0. 0. 0. 0. 0. 0. 0. 0. 0. 0. 0. 0. 0. 0. 0. 0. 0. 0.
      0. 0. 0. 0. 0. 0. 1.53846154e-002 0. 0. 1.53846154e-002 0. 0. 0.
      0. 0. 0. 0. 0. 0. 0. 0. 0. 0. 0. 0. 0. 0. 0. 0. 0. 0. 0. 0. 0. 0.
      0. 0. 0. 0. 0. 1.53846154e-002 0. 0. 0. 0. 0. 0. 0. 0. 0. 0. 0. 0.
      0. 1.53846154e-002 0. 0. 0. 0. 0. 0. 0. 0. 0. 0. 0. 0. 0.
      1.53846154e-002 0. 0. 0. 0. 0. 0. 0. 0. 0. 0. 0. 0. 0. 0. 0. 0. 0.
      0. 0. 0. 0. 0. 0. 0. 0. 0. 0. 0. 0. 0. 0. 0. 0. 0. 1.53846154e-002
      0. 0. 0. 0. 1.53846154e-002 0. 0. 0. 1.53846154e-002 0. 0. 0. 0.
      1.53846154e-002 0. 0. 0. 0. 0. 0. 0. 0. 0. 0. 0. 0. 0. 0. 0. 0. 0.
      0. 0. 0. 0. 1.53846154e-002 0. 0. 0. 0. 0. 0. 0. 0.
      1.53846154e-002 0. 0. 0. 0. 0. 0. 0. 0. 0. 0. 0. 0. 0. 0. 0. 0.
      1.53846154e-002 0. 1.53846154e-002 0. 0. 0. 0. 0. 0. 0. 0. 0. 0.
      0. 0. 0. 0. 0. 0. 0. 0. 0. 0. 0. 0. 0. 0. 0. 0. 0. 0. 0. 0. 0. 0.
      0. 0. 0. 0. 1.53846154e-002 0. 0. 0. 0. 0. 0. 0. 0. 0. 0. 0.
      1.53846154e-002 0. 0. 0. 1.53846154e-002 0. 0. 0. 0. 0. 0. 0. 0.
      0. 0. 0. 0. 0. 0. 0. 0. 0. 0. 0. 0. 0. 0. 0. 0. 0. 0. 0. 0. 0. 0.
      0. 0. 0. 0. 0. 0. 0. 0. 0. 0. 0. 0. 0. 0. 0. 0. 0. 0. 0. 0. 0. 0.
      1.53846154e-002 0. 0. 0. 0. 0. 0. 0. 0. 0. 0. 0. 0. 0. 0.
      1.53846154e-002 0. 0. 0. 0. 0. 0. 0. 0. 0. 0. 0. 0. 0. 0. 0. 0. 0.
      0. 0. 0. 0. 0. 0. 0. 0. 0. 0. 0. 0. 0. 0. 0. 0. 0. 0. 0. 0. 0. 0.
      0. 0. 1.53846154e-002 0. 0. 0. 0. 0. 0. 0. 0. 0. 0.
      1.53846154e-002 0. 0. 0. 0. 0. 0. 0. 0. 0. 0. 0. 0. 0. 0. 0. 0. 0.
      0. 0. 0. 0. 0. 0. 0. 0. 0. 0. 0. 0. 0. 0. 0. 1.53846154e-002 0. 0.
      0. 0. 0. 0. 0. 1.53846154e-002 0. 0. 0. 0. 0. 0. 0. 0. 0.
      1.53846154e-002 0. 0. 0. 0. 0. 0. 0. 0. 0. 0. 0. 0. 0. 0.</_>
    <_>
      0. 0. 0. 0. 1.03092780e-002 0. 0. 0. 1.03092780e-002 0. 0. 0. 0.
      0. 0. 0. 0. 0. 0. 0. 0. 0. 0. 1.03092780e-002 0. 0. 0. 0. 0. 0. 0.
      0. 0. 0. 0. 0. 0. 0. 0. 1.03092780e-002 0. 0. 0. 0. 0. 0. 0. 0. 0.
      0. 0. 0. 1.03092780e-002 0. 0. 0. 0. 0. 0. 0. 0. 0. 0. 0. 0. 0. 0.
      1.03092780e-002 1.03092780e-002 0. 0. 0. 0. 0. 0. 0. 0. 0. 0. 0.
      0. 0. 0. 0. 0. 0. 0. 0. 0. 0. 0. 0. 0. 0. 0. 0. 0. 0. 0. 0. 0. 0.
      0. 0. 0. 0. 0. 0. 0. 0. 0. 0. 0. 0. 0. 0. 0. 0. 0. 0.
      1.03092780e-002 0. 1.03092780e-002 0. 1.03092780e-002 0. 0. 0. 0.
      0. 0. 1.03092780e-002 0. 0. 0. 0. 0. 0. 0. 0. 0. 0. 0. 0. 0. 0. 0.
      0. 0. 0. 0. 0. 0. 0. 0. 0. 0. 0. 0. 0. 0. 0. 0. 0. 0. 0. 0. 0. 0.
      0. 0. 0. 0. 0. 0. 0. 0. 0. 0. 1.03092780e-002 0. 0. 0.
      1.03092780e-002 0. 0. 0. 0. 0. 0. 1.03092780e-002 0.
      1.03092780e-002 0. 0. 0. 0. 0. 0. 0. 0. 0. 0. 0. 0. 0. 0. 0. 0. 0.
      0. 0. 0. 0. 0. 0. 0. 0. 0. 0. 0. 0. 0. 0. 0. 0. 0. 0. 0. 0. 0. 0.
      0. 0. 0. 0. 0. 0. 0. 0. 0. 0. 0. 0. 1.03092780e-002 0. 0. 0. 0. 0.
      0. 0. 0. 0. 0. 0. 1.03092780e-002 0. 0. 1.03092780e-002 0. 0. 0.
      0. 0. 0. 0. 0. 0. 0. 0. 0. 0. 0. 0. 0. 0. 0. 0. 0. 0. 0. 0. 0. 0.
      0. 0. 0. 0. 0. 0. 0. 1.03092780e-002 1.03092780e-002 0. 0. 0. 0.
      0. 1.03092780e-002 0. 0. 0. 0. 0. 0. 0. 0. 0. 0. 0. 0. 0. 0. 0.
      1.03092780e-002 0. 0. 0. 0. 0. 0. 0. 0. 0. 2.06185561e-002 0. 0.
      0. 0. 0. 0. 0. 0. 0. 0. 0. 0. 0. 0. 0. 1.03092780e-002 0. 0. 0. 0.
      0. 0. 1.03092780e-002 0. 0. 0. 0. 0. 0. 0. 0. 0. 0. 0. 0. 0. 0. 0.
      0. 1.03092780e-002 0. 0. 0. 0. 0. 0. 0. 0. 0. 0. 0.
      1.03092780e-002 1.03092780e-002 0. 0. 0. 0. 0. 0. 0. 0.
      1.03092780e-002 0. 0. 0. 1.03092780e-002 0. 0. 0. 0. 0. 0. 0. 0.
      0. 0. 0. 0. 0. 0. 0. 0. 0. 0. 0. 0. 0. 0. 0. 0. 0. 0. 0. 0. 0. 0.
      0. 0. 0. 0. 0. 0. 0. 0. 0. 0. 0. 0. 0. 0. 0. 0. 0. 0.
      1.03092780e-002 1.03092780e-002 0. 0. 0. 2.06185561e-002
      1.03092780e-002 0. 1.03092780e-002 0. 1.03092780e-002 0. 0. 0. 0.
      0. 0. 0. 0. 0. 0. 0. 0. 0. 0. 0. 0. 0. 0. 0. 1.03092780e-002 0. 0.
      2.06185561e-002 0. 0. 0. 0. 0. 0. 0. 1.03092780e-002 0. 0. 0. 0.
      0. 0. 1.03092780e-002 0. 0. 0. 0. 0. 0. 0. 0. 0. 0. 0. 0. 0. 0.
      1.03092780e-002 0. 0. 0. 0. 0. 0. 0. 0. 0. 0. 0. 0. 0. 0. 0. 0. 0.
      0. 0. 0. 0. 0. 0. 1.03092780e-002 0. 0. 0. 1.03092780e-002 0. 0.
      0. 0. 0. 0. 0. 0. 0. 0. 0. 0. 0. 0. 0. 1.03092780e-002 0. 0. 0. 0.
      0. 0. 0. 0. 0. 0. 0. 0. 0. 0. 0. 0. 0. 0. 0. 0. 0. 0. 0. 0.
      1.03092780e-002 0. 0. 0. 0. 0. 0. 0. 0. 0. 0. 0. 0. 0. 0. 0. 0. 0.
      0. 0. 0. 0. 0. 1.03092780e-002 1.03092780e-002 0. 1.03092780e-002
      0. 0. 0. 0. 0. 0. 0. 0. 0. 0. 0. 0. 0. 0. 0. 0. 0. 0. 0. 0.
      1.03092780e-002 0. 0. 0. 0. 0. 0. 0. 0. 0. 1.03092780e-002 0. 0.
      0. 0. 0. 0. 0. 0. 0. 0. 1.03092780e-002 0. 1.03092780e-002 0. 0.
      0. 0. 0. 0. 0. 0. 0. 0. 0. 0. 0. 0. 0. 0. 0. 0. 0. 0. 0. 0.
      1.03092780e-002 0. 0. 0. 0. 0. 0. 0. 0. 0. 0. 0. 0. 0.
      1.03092780e-002 0. 0. 0. 0. 0. 0. 0. 0. 0. 1.03092780e-002 0. 0.
      0. 0. 0. 0. 2.06185561e-002 0. 0. 1.03092780e-002 0. 0. 0. 0. 0.
      1.03092780e-002 0. 0. 1.03092780e-002 1.03092780e-002 0.
      1.03092780e-002 0. 1.03092780e-002 0. 0. 0. 0. 0. 0. 0. 0. 0. 0.
      1.03092780e-002 0. 0. 0. 0. 0. 0. 1.03092780e-002 0. 0. 0. 0. 0.
      1.03092780e-002 0. 0. 0. 1.03092780e-002 1.03092780e-002 0. 0. 0.
      0. 1.03092780e-002 0. 0. 0. 0. 0. 0. 0. 0. 0. 0. 0. 0. 0. 0. 0. 0.
      0. 0. 0. 0. 0. 0. 0. 0. 0. 0. 0. 0. 0. 1.03092780e-002 0. 0. 0.
      1.03092780e-002 0. 0. 0. 0. 0. 0. 0. 0. 0. 1.03092780e-002 0. 0.
      0. 0. 0. 0. 0. 0. 0. 0. 0. 0. 0. 0. 1.03092780e-002 0. 0. 0. 0. 0.
      0. 0. 0. 0. 0. 0. 0. 0. 0. 0. 0. 0. 0. 0. 0. 0. 0. 0. 0. 0. 0.
      1.03092780e-002 0. 0. 1.03092780e-002 0. 0. 0. 0. 0. 0. 0. 0. 0.
      1.03092780e-002 0. 0. 0. 0. 0. 0. 1.03092780e-002 0. 0. 0. 0. 0.
      0. 0. 0. 1.03092780e-002 0. 0. 0. 0. 0. 0. 0. 0. 0. 0. 0. 0. 0. 0.
      0. 0. 0. 0. 0. 1.03092780e-002 0. 0. 0. 0. 0. 0. 0. 0. 0. 0. 0. 0.
      0. 0. 1.03092780e-002 0. 0. 0. 0. 0. 1.03092780e-002
      2.06185561e-002 0. 1.03092780e-002 0. 0. 0. 0. 0. 0. 0. 0. 0. 0.
      1.03092780e-002 0. 1.03092780e-002 1.03092780e-002 0. 0. 0. 0. 0.
      0. 0. 0. 0. 0. 0. 0. 0. 1.03092780e-002 0. 0. 0. 0. 0. 0. 0. 0. 0.
      0. 0. 0. 0. 0. 0. 0. 0. 0. 0. 0. 0. 0. 0. 0. 0. 0. 0.
      1.03092780e-002 0. 0. 0. 0. 0. 0. 0. 0. 0. 0. 1.03092780e-002 0.
      1.03092780e-002 0. 0. 1.03092780e-002 0. 0. 0. 0. 0.
      1.03092780e-002 0. 0. 0. 0. 0. 0. 0. 0. 0. 0. 0. 0. 0.
      1.03092780e-002 0.</_>
    <_>
      0. 0. 0. 0. 1.04166670e-002 0. 0. 0. 0. 0. 0. 0. 0. 0. 0. 0. 0. 0.
      0. 0. 0. 1.04166670e-002 0. 0. 0. 0. 0. 0. 0. 0. 0. 0. 0. 0. 0.
      1.04166670e-002 1.04166670e-002 0. 0. 0. 0. 1.04166670e-002 0.
      1.04166670e-002 0. 0. 0. 0. 0. 0. 0. 0. 0. 0. 0. 0. 0. 0. 0. 0. 0.
      0. 0. 0. 1.04166670e-002 0. 0. 0. 0. 0. 0. 0. 1.04166670e-002 0.
      0. 0. 1.04166670e-002 0. 0. 1.04166670e-002 0. 0. 0. 0. 0. 0. 0.
      0. 0. 0. 0. 0. 0. 0. 1.04166670e-002 0. 1.04166670e-002 0. 0. 0.
      0. 1.04166670e-002 0. 0. 0. 0. 0. 0. 0. 1.04166670e-002 0. 0.
      1.04166670e-002 0. 1.04166670e-002 0. 0. 0. 0. 0. 0. 0. 0. 0. 0.
      0. 0. 0. 0. 0. 0. 0. 0. 0. 0. 0. 0. 0. 0. 0. 0. 0. 0.
      1.04166670e-002 0. 0. 0. 0. 0. 0. 0. 0. 1.04166670e-002 0. 0. 0.
      0. 0. 0. 0. 0. 0. 0. 0. 0. 0. 0. 0. 0. 0. 0. 1.04166670e-002 0. 0.
      0. 0. 0. 0. 0. 0. 0. 0. 0. 0. 0. 0. 1.04166670e-002 0. 0. 0. 0. 0.
      0. 0. 0. 0. 0. 0. 0. 0. 0. 0. 0. 0. 0. 0. 0. 0. 0. 0. 0. 0. 0. 0.
      0. 1.04166670e-002 0. 0. 0. 0. 0. 0. 0. 0. 0. 0. 0. 0. 0. 0. 0.
      1.04166670e-002 0. 0. 0. 0. 0. 0. 0. 0. 0. 0. 0. 0. 0. 0. 0.
      1.04166670e-002 0. 1.04166670e-002 0. 0. 0. 0. 0. 0. 0. 0. 0. 0.
      0. 0. 1.04166670e-002 0. 1.04166670e-002 0. 1.04166670e-002 0. 0.
      0. 0. 0. 0. 0. 0. 0. 0. 0. 0. 0. 0. 0. 0. 0. 1.04166670e-002 0. 0.
      0. 0. 0. 0. 0. 0. 0. 1.04166670e-002 0. 0. 0. 1.04166670e-002 0.
      0. 0. 0. 0. 0. 0. 0. 0. 0. 0. 0. 0. 0. 0. 0. 0. 0. 0.
      1.04166670e-002 0. 0. 0. 0. 0. 0. 1.04166670e-002 0. 0. 0. 0. 0.
      0. 1.04166670e-002 0. 0. 0. 0. 1.04166670e-002 0. 1.04166670e-002
      0. 1.04166670e-002 0. 0. 0. 0. 0. 0. 1.04166670e-002 0.
      1.04166670e-002 0. 0. 0. 0. 0. 0. 1.04166670e-002 0. 0. 0. 0.
      1.04166670e-002 0. 0. 0. 0. 0. 0. 0. 0. 0. 0. 0. 0. 0. 0.
      1.04166670e-002 0. 0. 0. 0. 0. 0. 0. 0. 0. 0. 0. 0. 0. 0. 0. 0. 0.
      1.04166670e-002 0. 0. 0. 0. 1.04166670e-002 0. 0. 0.
      1.04166670e-002 0. 0. 0. 0. 0. 0. 0. 0. 0. 0. 0. 0. 0. 0. 0. 0. 0.
      0. 0. 0. 0. 1.04166670e-002 0. 0. 0. 0. 0. 1.04166670e-002 0. 0.
      0. 0. 0. 0. 0. 0. 0. 0. 0. 0. 0. 0. 0. 0. 0. 0. 0. 0. 0. 0.
      1.04166670e-002 0. 0. 0. 0. 0. 0. 0. 0. 0. 0. 0. 0. 0. 0. 0. 0. 0.
      0. 1.04166670e-002 0. 0. 0. 0. 0. 1.04166670e-002 0. 0. 0. 0. 0.
      0. 0. 0. 0. 0. 0. 0. 0. 0. 0. 0. 0. 0. 0. 0. 0. 0. 0.
      1.04166670e-002 2.08333340e-002 0. 0. 0. 0. 0. 0. 0.
      1.04166670e-002 0. 0. 0. 0. 0. 0. 1.04166670e-002 0. 0. 0. 0. 0.
      0. 0. 0. 0. 3.12500000e-002 0. 0. 0. 0. 0. 1.04166670e-002 0. 0.
      0. 0. 0. 0. 0. 0. 0. 0. 0. 0. 0. 0. 0. 0. 0. 0. 0. 0.
      1.04166670e-002 0. 0. 0. 0. 0. 0. 0. 0. 0. 0. 0. 0. 0.
      1.04166670e-002 0. 0. 0. 0. 0. 0. 0. 0. 0. 0. 0. 0. 0. 0. 0. 0. 0.
      0. 0. 0. 0. 0. 0. 0. 0. 0. 0. 0. 0. 0. 0. 0. 1.04166670e-002 0. 0.
      0. 0. 0. 0. 0. 0. 0. 0. 0. 0. 0. 0. 0. 0. 0. 0. 0. 0. 0.
      1.04166670e-002 0. 0. 0. 0. 0. 0. 1.04166670e-002 0. 0. 0. 0. 0.
      0. 0. 0. 0. 1.04166670e-002 0. 0. 0. 0. 0. 0. 0. 0. 0. 0. 0. 0. 0.
      0. 0. 0. 0. 1.04166670e-002 0. 0. 0. 0. 0. 0. 0. 0. 0. 0. 0. 0. 0.
      0. 0. 0. 0. 1.04166670e-002 0. 0. 0. 0. 0. 0. 0. 0. 0. 0. 0. 0. 0.
      0. 0. 0. 0. 0. 0. 0. 1.04166670e-002 0. 0. 0. 0. 0. 0.
      1.04166670e-002 0. 0. 0. 0. 0. 1.04166670e-002 0. 0. 0. 0. 0. 0.
      0. 0. 0. 0. 0. 0. 0. 1.04166670e-002 1.04166670e-002 0. 0. 0.
      1.04166670e-002 0. 0. 0. 0. 0. 0. 0. 0. 0. 0. 1.04166670e-002 0.
      0. 0. 0. 0. 0. 0. 1.04166670e-002 0. 0. 0. 0. 0. 0. 0. 0. 0. 0. 0.
      0. 0. 0. 0. 0. 0. 0. 1.04166670e-002 0. 0. 0. 0. 0. 0.
      1.04166670e-002 0. 0. 0. 0. 0. 0. 0. 0. 0. 0. 0. 0. 0.
      1.04166670e-002 0. 0. 0. 0. 0. 0. 0. 0. 0. 1.04166670e-002 0. 0.
      0. 0. 0. 0. 0. 1.04166670e-002 0. 0. 0. 0. 0. 1.04166670e-002 0.
      0. 0. 0. 0. 0. 0. 0. 0. 0. 0. 0. 1.04166670e-002 0.
      1.04166670e-002 0. 0. 0. 0. 1.04166670e-002 0. 0. 0. 0. 0. 0. 0.
      0. 0. 0. 0. 0. 0. 0. 1.04166670e-002 0. 0. 0. 0. 0. 0. 0. 0. 0. 0.
      0. 0. 1.04166670e-002 1.04166670e-002 0. 0. 0. 0. 0.
      1.04166670e-002 0. 0. 0. 1.04166670e-002 0. 0. 0. 0. 0. 0. 0. 0.
      0. 0. 0. 0. 0. 0. 0. 0. 0. 0. 0. 0. 0. 0. 0. 0. 0. 0. 0. 0. 0. 0.
      0. 0. 0. 0. 0. 0. 0. 0. 0. 0. 0. 0. 0. 0. 0. 0. 0. 0. 0. 0. 0. 0.
      0. 0. 0. 0. 0. 0. 0. 0. 0. 0. 0. 0. 0. 0. 0. 0. 0. 0. 0. 0. 0. 0.
      0. 0. 0. 0. 0. 0. 1.04166670e-002 1.04166670e-002 0. 0. 0. 0. 0.
      0. 0. 1.04166670e-002 0. 0. 0. 0. 0. 0. 2.08333340e-002 0.
      1.04166670e-002 0. 0. 0. 0. 0. 0. 0. 0. 0. 0. 0. 0.
      1.04166670e-002 0. 0. 0. 0. 0. 0. 1.04166670e-002 0. 0. 0. 0. 0.
      0.</_>
    <_>
      0. 0. 0. 0. 0. 0. 1.09890113e-002 1.09890113e-002 0. 0. 0. 0. 0.
      0. 0. 0. 0. 0. 0. 0. 0. 0. 0. 0. 0. 0. 0. 0. 0. 0. 0. 0. 0. 0. 0.
      0. 0. 0. 0. 0. 0. 0. 0. 0. 0. 0. 0. 0. 0. 0. 0. 0. 0. 0. 0. 0. 0.
      0. 0. 0. 1.09890113e-002 1.09890113e-002 0. 0. 0. 0. 0. 0. 0. 0.
      0. 0. 0. 0. 0. 0. 0. 0. 0. 0. 0. 0. 0. 0. 0. 1.09890113e-002 0. 0.
      0. 0. 0. 1.09890113e-002 0. 1.09890113e-002 0. 1.09890113e-002 0.
      0. 0. 0. 0. 0. 0. 1.09890113e-002 0. 0. 0. 0. 0. 0. 0. 0. 0. 0. 0.
      0. 0. 0. 0. 0. 0. 0. 0. 0. 0. 1.09890113e-002 0. 0. 0. 0. 0. 0. 0.
      0. 0. 0. 1.09890113e-002 1.09890113e-002 0. 0. 0. 0.
      1.09890113e-002 0. 0. 0. 0. 0. 0. 0. 0. 0. 1.09890113e-002 0. 0.
      0. 0. 0. 0. 0. 0. 0. 1.09890113e-002 0. 0. 0. 0. 1.09890113e-002
      0. 0. 1.09890113e-002 0. 0. 1.09890113e-002 0. 0. 0. 0. 0. 0. 0.
      1.09890113e-002 1.09890113e-002 0. 0. 0. 0. 0. 0. 0. 0. 0.
      1.09890113e-002 0. 0. 0. 0. 0. 0. 0. 0. 0. 0. 0. 0. 0. 0. 0. 0. 0.
      0. 0. 0. 0. 0. 0. 0. 0. 0. 0. 0. 0. 0. 0. 0. 0. 0. 0. 0. 0. 0. 0.
      0. 0. 0. 0. 0. 0. 0. 0. 0. 0. 0. 0. 0. 0. 0. 0. 0. 0. 0. 0. 0. 0.
      0. 0. 0. 0. 0. 0. 0. 0. 0. 0. 1.09890113e-002 0. 0. 0. 0. 0. 0. 0.
      1.09890113e-002 0. 0. 0. 0. 0. 0. 0. 0. 0. 1.09890113e-002 0.
      1.09890113e-002 1.09890113e-002 0. 0. 1.09890113e-002 0. 0. 0.
      1.09890113e-002 0. 0. 0. 1.09890113e-002 0. 0. 1.09890113e-002 0.
      0. 0. 0. 0. 0. 0. 0. 0. 0. 1.09890113e-002 1.09890113e-002
      1.09890113e-002 0. 0. 0. 0. 0. 0. 0. 0. 0. 0. 0. 0. 0.
      1.09890113e-002 0. 0. 0. 0. 0. 0. 0. 1.09890113e-002 0. 0. 0. 0.
      0. 0. 0. 0. 0. 0. 0. 0. 0. 1.09890113e-002 0. 0. 1.09890113e-002
      1.09890113e-002 0. 0. 0. 1.09890113e-002 0. 0. 0. 0. 0. 0. 0. 0.
      0. 0. 0. 0. 0. 0. 0. 0. 0. 0. 0. 1.09890113e-002 0. 0. 0.
      1.09890113e-002 0. 0. 0. 0. 0. 0. 0. 0. 0. 0. 0. 0. 0. 0. 0. 0. 0.
      0. 0. 0. 0. 0. 1.09890113e-002 0. 0. 0. 0. 0. 0. 0. 0. 0. 0. 0. 0.
      0. 0. 0. 0. 0. 0. 0. 0. 0. 0. 0. 0. 0. 0. 0. 0. 0. 0. 0.
      1.09890113e-002 1.09890113e-002 0. 0. 0. 0. 0. 0. 0. 0. 0. 0.
      1.09890113e-002 0. 0. 0. 0. 0. 0. 0. 0. 1.09890113e-002 0. 0. 0.
      0. 0. 0. 0. 0. 0. 0. 0. 0. 0. 0. 1.09890113e-002 0. 0. 0. 0. 0. 0.
      1.09890113e-002 0. 1.09890113e-002 0. 0. 0. 0. 0. 0. 0. 0. 0. 0.
      0. 0. 0. 0. 0. 0. 0. 0. 0. 1.09890113e-002 0. 0. 1.09890113e-002
      1.09890113e-002 0. 0. 0. 0. 0. 0. 0. 0. 0. 0. 0. 0. 0. 0. 0. 0. 0.
      0. 0. 0. 1.09890113e-002 0. 0. 0. 0. 0. 0. 1.09890113e-002 0.
      1.09890113e-002 0. 0. 0. 0. 0. 0. 0. 0. 0. 0. 0. 1.09890113e-002
      0. 0. 0. 0. 0. 0. 0. 0. 0. 0. 0. 0. 0. 0. 0. 0. 0. 0. 0. 0. 0. 0.
      0. 0. 1.09890113e-002 0. 0. 0. 0. 0. 0. 0. 0. 0. 0. 0. 0. 0. 0. 0.
      0. 0. 0. 0. 0. 0. 0. 0. 0. 0. 0. 0. 0. 0. 0. 0. 0. 0. 0. 0. 0. 0.
      0. 0. 1.09890113e-002 0. 0. 0. 0. 0. 0. 1.09890113e-002 0.
      1.09890113e-002 0. 0. 0. 0. 0. 0. 0. 0. 0. 0. 0. 0. 0. 0. 0. 0. 0.
      0. 0. 0. 0. 0. 0. 0. 0. 1.09890113e-002 0. 0. 0. 0. 0. 0. 0. 0. 0.
      0. 0. 0. 0. 0. 0. 0. 0. 0. 0. 0. 0. 0. 0. 0. 0. 0. 0. 0. 0. 0. 0.
      0. 0. 1.09890113e-002 0. 0. 0. 0. 0. 0. 0. 0. 1.09890113e-002 0.
      0. 1.09890113e-002 0. 0. 0. 0. 0. 0. 0. 0. 0. 0. 0. 0. 0. 0. 0. 0.
      0. 0. 0. 0. 0. 0. 0. 0. 0. 0. 0. 0. 0. 1.09890113e-002 0.
      1.09890113e-002 0. 0. 0. 0. 0. 0. 0. 0. 0. 0. 0. 0. 0. 0. 0. 0. 0.
      0. 0. 0. 0. 0. 0. 0. 0. 0. 0. 0. 0. 0. 0. 0. 0. 0. 1.09890113e-002
      0. 0. 0. 0. 0. 0. 0. 0. 0. 0. 0. 0. 2.19780225e-002 0. 0. 0. 0. 0.
      1.09890113e-002 0. 0. 0. 0. 0. 0. 1.09890113e-002 0. 0. 0. 0.
      1.09890113e-002 0. 0. 1.09890113e-002 0. 0. 0. 0. 0. 0. 0. 0. 0.
      0. 0. 0. 0. 0. 0. 0. 0. 0. 0. 1.09890113e-002 0. 0. 0. 0. 0. 0. 0.
      0. 0. 0. 0. 0. 0. 0. 0. 0. 0. 0. 0. 0. 1.09890113e-002 0. 0. 0. 0.
      0. 0. 0. 0. 0. 0. 0. 0. 0. 1.09890113e-002 0. 1.09890113e-002 0.
      1.09890113e-002 0. 0. 0. 0. 0. 0. 0. 0. 0. 0. 0. 1.09890113e-002
      0. 0. 2.19780225e-002 1.09890113e-002 0. 0. 0. 0. 0.
      1.09890113e-002 0. 0. 0. 0. 0. 0. 0. 0. 0. 0. 0. 2.19780225e-002
      0. 0. 0. 0. 0. 0. 0. 0. 0. 0. 0. 0. 0. 0. 0. 0. 0. 1.09890113e-002
      1.09890113e-002 0. 1.09890113e-002 0. 0. 0. 0. 0. 0. 0. 0. 0. 0.
      0. 0. 0. 0. 0. 0. 0. 0. 0. 0. 0. 0. 0. 0. 0. 0. 0. 0. 0. 0. 0.
      1.09890113e-002 0. 0. 0. 0. 0. 0. 0. 0. 0. 0. 0. 0. 0. 0. 0. 0. 0.
      0. 0. 0. 1.09890113e-002 0. 0. 0. 0. 0. 0. 0. 0. 0. 0. 0. 0. 0. 0.
      0. 0. 0. 0. 0. 0. 0. 0. 0. 0. 0. 0. 0. 1.09890113e-002 0. 0. 0. 0.
      0. 0. 0. 0. 0. 0. 0.</_>
    <_>
      0. 0. 0. 0. 0. 0. 0. 0. 0. 0. 0. 0. 0. 0. 0. 0. 0. 0. 0. 0. 0. 0.
      0. 0. 0. 0. 0. 0. 0. 0. 0. 0. 0. 0. 0. 0. 0. 0. 0. 0. 0.
      1.49253728e-002 0. 0. 1.49253728e-002 0. 0. 0. 0. 0. 0. 0. 0. 0.
      2.98507456e-002 0. 1.49253728e-002 0. 0. 0. 0. 0. 0. 0. 0. 0. 0.
      0. 0. 0. 0. 0. 0. 0. 0. 0. 1.49253728e-002 0. 0. 0. 0. 0. 0. 0. 0.
      2.98507456e-002 0. 0. 0. 0. 0. 0. 0. 0. 0. 0. 0. 0. 0. 0. 0. 0. 0.
      0. 0. 0. 0. 0. 0. 0. 0. 0. 0. 0. 0. 0. 0. 1.49253728e-002 0. 0. 0.
      0. 0. 0. 0. 0. 0. 0. 0. 0. 0. 0. 0. 0. 0. 0. 0. 0. 0. 0.
      2.98507456e-002 0. 0. 0. 0. 0. 0. 0. 0. 0. 0. 0. 0. 0. 0. 0. 0. 0.
      0. 0. 0. 0. 0. 0. 0. 0. 0. 0. 0. 0. 0. 0. 0. 1.49253728e-002 0. 0.
      0. 0. 0. 0. 0. 0. 0. 0. 0. 0. 0. 0. 0. 0. 0. 0. 0. 0. 0. 0. 0. 0.
      0. 0. 0. 0. 0. 0. 0. 0. 0. 0. 0. 0. 0. 0. 0. 0. 0. 1.49253728e-002
      0. 0. 0. 0. 0. 0. 0. 1.49253728e-002 0. 0. 0. 0. 0. 0. 0. 0. 0. 0.
      0. 0. 0. 0. 0. 1.49253728e-002 0. 0. 0. 0. 0. 0. 0. 0.
      1.49253728e-002 0. 0. 0. 0. 0. 0. 0. 0. 0. 0. 1.49253728e-002 0.
      0. 0. 0. 0. 0. 0. 0. 0. 0. 0. 0. 0. 0. 0. 0. 0. 0. 0. 0. 0. 0. 0.
      0. 0. 0. 0. 0. 0. 0. 0. 0. 0. 0. 0. 0. 0. 0. 0. 0. 0. 0. 0. 0. 0.
      0. 0. 0. 1.49253728e-002 0. 0. 0. 0. 0. 0. 0. 0. 0. 0.
      1.49253728e-002 0. 0. 0. 0. 0. 0. 0. 0. 0. 1.49253728e-002 0. 0.
      0. 0. 1.49253728e-002 0. 0. 0. 0. 1.49253728e-002 0. 0. 0. 0. 0.
      0. 0. 0. 0. 0. 0. 0. 0. 0. 0. 0. 0. 0. 0. 0. 0. 0. 0. 0. 0. 0. 0.
      0. 1.49253728e-002 0. 0. 0. 0. 0. 0. 0. 0. 0. 0. 0. 0. 0. 0. 0. 0.
      0. 0. 1.49253728e-002 0. 0. 0. 0. 0. 0. 0. 0. 0. 0. 0. 0. 0. 0. 0.
      0. 1.49253728e-002 0. 0. 1.49253728e-002 0. 0. 0. 0. 0. 0. 0. 0.
      0. 0. 0. 0. 0. 0. 0. 0. 0. 0. 0. 0. 1.49253728e-002 0. 0. 0. 0. 0.
      0. 0. 0. 0. 0. 0. 0. 0. 0. 0. 0. 0. 0. 0. 0. 0. 0. 0. 0. 0. 0. 0.
      1.49253728e-002 0. 0. 0. 0. 0. 0. 0. 0. 0. 0. 0. 0. 0. 0. 0. 0. 0.
      0. 0. 0. 0. 0. 0. 0. 0. 0. 0. 0. 0. 0. 0. 0. 1.49253728e-002 0.
      1.49253728e-002 0. 0. 0. 0. 0. 0. 0. 0. 0. 0. 1.49253728e-002 0.
      0. 0. 0. 0. 0. 0. 0. 0. 0. 0. 0. 1.49253728e-002 0. 0. 0. 0. 0. 0.
      0. 0. 0. 0. 0. 0. 0. 0. 1.49253728e-002 0. 0. 0. 0. 0.
      1.49253728e-002 0. 0. 0. 0. 0. 0. 0. 0. 0. 0. 0. 0.
      1.49253728e-002 0. 0. 0. 0. 0. 0. 0. 0. 0. 0. 0. 0. 0. 0. 0.
      1.49253728e-002 0. 0. 0. 0. 0. 1.49253728e-002 0. 0. 0. 0. 0. 0.
      0. 0. 0. 0. 0. 0. 0. 0. 0. 0. 0. 0. 0. 0. 0. 0. 0. 0. 0. 0. 0. 0.
      0. 0. 0. 0. 0. 0. 0. 0. 0. 0. 0. 0. 0. 0. 0. 0. 0. 0. 0. 0. 0. 0.
      0. 0. 0. 0. 0. 0. 0. 0. 0. 0. 0. 0. 0. 0. 0. 0. 0. 0. 0. 0. 0. 0.
      0. 0. 0. 0. 0. 0. 0. 0. 0. 0. 0. 0. 0. 0. 0. 1.49253728e-002 0.
      1.49253728e-002 0. 0. 0. 0. 0. 0. 0. 0. 0. 0. 0. 0. 0. 0. 0. 0. 0.
      0. 0. 0. 0. 0. 0. 0. 0. 0. 0. 0. 0. 0. 0. 0. 0. 0. 0. 0. 0. 0. 0.
      1.49253728e-002 1.49253728e-002 0. 0. 0. 0. 0. 0. 0. 0. 0. 0. 0.
      0. 0. 0. 0. 0. 0. 1.49253728e-002 0. 1.49253728e-002 0. 0.
      1.49253728e-002 0. 1.49253728e-002 2.98507456e-002 0. 0. 0. 0. 0.
      0. 1.49253728e-002 0. 0. 0. 0. 0. 0. 0. 0. 0. 0. 0. 0. 0. 0. 0. 0.
      0. 0. 0. 1.49253728e-002 0. 0. 0. 0. 0. 0. 1.49253728e-002 0. 0.
      0. 0. 0. 0. 0. 0. 0. 0. 0. 0. 1.49253728e-002 0. 0. 0.
      1.49253728e-002 0. 0. 0. 0. 0. 1.49253728e-002 0. 0. 0. 0. 0. 0.
      0. 0. 0. 0. 0. 0. 0. 0. 0. 0. 0. 0. 0. 1.49253728e-002 0.
      1.49253728e-002 0. 1.49253728e-002 0. 0. 0. 0. 0. 0. 0. 0. 0. 0.
      0. 0. 0. 2.98507456e-002 0. 0. 0. 0. 0. 0. 0. 0. 0. 0. 0. 0. 0. 0.
      0. 0. 0. 0. 0. 0. 0. 0. 0. 0. 0. 0. 1.49253728e-002 0. 0. 0. 0. 0.
      0. 0. 0. 0. 0. 0. 0. 0. 1.49253728e-002 0. 0. 0. 0. 0. 0. 0. 0. 0.
      0. 0. 0. 0. 0. 0. 0. 0. 0. 0. 0. 0. 0. 0. 0. 0. 0. 0. 0. 0. 0. 0.
      0. 0. 1.49253728e-002 0. 0. 0. 0. 0. 0. 0. 0. 0. 0. 0. 0.
      1.49253728e-002 0. 0. 0. 1.49253728e-002 0. 0. 0. 1.49253728e-002
      0. 0. 0. 0. 0. 0. 0. 0. 0. 0. 0. 0. 0. 0. 0. 0. 0. 0. 0. 0. 0. 0.
      1.49253728e-002 0. 0. 0. 0. 0. 0. 0. 0. 0. 0. 0. 0. 0. 0. 0. 0. 0.
      0. 0. 0. 0. 0. 0. 0. 0. 0. 1.49253728e-002 0. 0. 0. 0. 0. 0. 0. 0.
      0. 0. 0. 0. 0. 0. 0. 0. 0. 0. 0. 0. 0. 0. 0. 0. 0. 0. 0.
      1.49253728e-002 0. 0.</_>
    <_>
      0. 0. 0. 0. 0. 0. 0. 0. 1.16279069e-002 0. 0. 0. 0. 0. 0. 0. 0. 0.
      0. 0. 0. 0. 0. 0. 0. 0. 0. 0. 0. 1.16279069e-002 0. 0. 0. 0. 0. 0.
      0. 0. 0. 0. 0. 0. 0. 1.16279069e-002 0. 0. 0. 0. 0. 0. 0. 0. 0. 0.
      0. 1.16279069e-002 0. 0. 0. 0. 0. 0. 0. 0. 0. 0. 0. 0. 0. 0. 0. 0.
      0. 0. 0. 0. 0. 0. 0. 0. 0. 0. 0. 0. 0. 0. 0. 0. 0. 0. 0. 0. 0. 0.
      0. 2.32558139e-002 0. 0. 0. 0. 0. 0. 1.16279069e-002 0. 0. 0. 0.
      0. 0. 0. 0. 0. 0. 0. 0. 0. 0. 0. 0. 0. 0. 0. 0. 0. 0. 0. 0. 0. 0.
      0. 0. 1.16279069e-002 0. 0. 0. 1.16279069e-002 0. 0. 0. 0. 0. 0.
      0. 0. 0. 0. 0. 0. 0. 0. 0. 1.16279069e-002 1.16279069e-002 0. 0.
      0. 0. 0. 0. 0. 0. 0. 0. 0. 0. 0. 0. 1.16279069e-002 0. 0.
      2.32558139e-002 0. 0. 0. 0. 0. 0. 0. 0. 1.16279069e-002 0. 0. 0.
      0. 0. 0. 0. 0. 0. 0. 0. 0. 0. 0. 0. 0. 0. 0. 0. 0. 0. 0. 0. 0. 0.
      0. 0. 0. 0. 0. 0. 0. 0. 0. 0. 1.16279069e-002 0. 0. 0. 0. 0. 0. 0.
      0. 0. 0. 0. 0. 0. 0. 0. 0. 0. 0. 0. 0. 0. 1.16279069e-002 0. 0. 0.
      1.16279069e-002 0. 0. 1.16279069e-002 0. 0. 0. 1.16279069e-002 0.
      0. 0. 0. 0. 0. 0. 0. 0. 0. 0. 0. 0. 0. 0. 1.16279069e-002 0. 0. 0.
      0. 0. 1.16279069e-002 0. 0. 0. 0. 0. 0. 0. 0. 0. 0. 0. 0. 0.
      1.16279069e-002 0. 0. 0. 0. 0. 0. 0. 0. 0. 0. 0. 0. 0.
      2.32558139e-002 0. 1.16279069e-002 0. 0. 0. 0. 0. 1.16279069e-002
      0. 0. 0. 0. 0. 0. 0. 0. 0. 0. 0. 0. 0. 0. 0. 0. 0. 0. 0. 0. 0. 0.
      0. 0. 0. 0. 0. 0. 0. 0. 1.16279069e-002 0. 0. 1.16279069e-002 0.
      1.16279069e-002 0. 0. 1.16279069e-002 0. 0. 2.32558139e-002 0.
      2.32558139e-002 0. 0. 0. 0. 0. 0. 0. 0. 0. 0. 0. 0. 0. 0. 0.
      1.16279069e-002 0. 0. 0. 0. 0. 0. 0. 0. 0. 0. 0. 0. 0. 0. 0. 0.
      1.16279069e-002 0. 0. 0. 0. 0. 0. 0. 1.16279069e-002 0. 0. 0. 0.
      0. 0. 0. 0. 2.32558139e-002 0. 0. 0. 1.16279069e-002 0. 0. 0. 0.
      0. 1.16279069e-002 0. 0. 0. 0. 0. 0. 0. 0. 0. 0. 0. 0. 0. 0. 0. 0.
      0. 0. 0. 0. 0. 0. 0. 0. 1.16279069e-002 0. 0. 0. 0. 0. 0. 0. 0. 0.
      0. 0. 1.16279069e-002 0. 0. 0. 0. 0. 0. 0. 0. 0. 0. 0. 0. 0. 0. 0.
      0. 0. 0. 0. 0. 0. 0. 3.48837227e-002 0. 0. 0. 0. 0. 0. 0.
      1.16279069e-002 0. 0. 0. 0. 0. 0. 0. 0. 0. 0. 1.16279069e-002
      1.16279069e-002 0. 0. 0. 0. 0. 0. 0. 0. 0. 0. 0. 0. 0. 0. 0. 0. 0.
      0. 0. 0. 0. 0. 0. 1.16279069e-002 0. 0. 0. 0. 0. 0. 0. 0. 0. 0. 0.
      0. 0. 0. 0. 1.16279069e-002 0. 0. 0. 0. 0. 0. 0. 0. 0. 0. 0. 0. 0.
      0. 0. 0. 0. 1.16279069e-002 1.16279069e-002 1.16279069e-002 0. 0.
      0. 0. 0. 0. 0. 0. 0. 0. 0. 0. 0. 0. 0. 0. 0. 0. 0. 0. 0. 0. 0. 0.
      0. 0. 0. 0. 0. 0. 0. 0. 0. 0. 0. 0. 0. 0. 0. 0. 0. 1.16279069e-002
      0. 0. 0. 0. 0. 0. 0. 0. 0. 0. 0. 1.16279069e-002 0. 0. 0. 0. 0. 0.
      0. 0. 0. 0. 0. 0. 0. 0. 0. 0. 0. 0. 0. 0. 0. 0. 0. 0. 0. 0. 0. 0.
      0. 0. 0. 0. 0. 0. 0. 0. 0. 0. 0. 0. 0. 0. 0. 0. 0. 0. 0. 0. 0. 0.
      0. 0. 0. 0. 0. 0. 1.16279069e-002 0. 0. 0. 0. 0. 0. 0. 0. 0. 0. 0.
      0. 0. 0. 0. 0. 0. 0. 0. 0. 0. 0. 0. 0. 0. 0. 0. 0. 0. 0. 0. 0. 0.
      1.16279069e-002 0. 0. 0. 0. 0. 0. 1.16279069e-002 0. 0. 0. 0. 0.
      0. 0. 0. 0. 0. 0. 0. 0. 0. 0. 0. 1.16279069e-002 0. 0.
      2.32558139e-002 0. 1.16279069e-002 0. 1.16279069e-002 0.
      1.16279069e-002 0. 0. 0. 0. 0. 0. 0. 0. 0. 0. 1.16279069e-002 0.
      0. 0. 0. 0. 0. 0. 0. 0. 0. 0. 0. 0. 0. 0. 0. 0. 0. 0. 0. 0. 0. 0.
      0. 0. 0. 0. 0. 0. 0. 0. 0. 0. 0. 0. 0. 0. 0. 0. 0. 0. 0. 0. 0. 0.
      0. 0. 1.16279069e-002 0. 0. 0. 0. 0. 0. 0. 0. 0. 0. 0. 0.
      1.16279069e-002 0. 0. 0. 0. 0. 0. 0. 0. 1.16279069e-002 0.
      1.16279069e-002 0. 0. 0. 0. 0. 0. 0. 0. 0. 0. 0. 0. 0. 0. 0. 0.
      1.16279069e-002 0. 0. 0. 0. 0. 0. 0. 0. 0. 0. 0. 0. 0. 0. 0. 0. 0.
      0. 0. 0. 0. 0. 0. 0. 0. 0. 0. 0. 0. 0. 0. 0. 0. 0. 0.
      1.16279069e-002 0. 0. 1.16279069e-002 0. 0. 0. 0. 0. 0. 0. 0. 0.
      0. 0. 0. 0. 1.16279069e-002 0. 0. 0. 0. 0. 0. 0. 1.16279069e-002
      0. 0. 0. 0. 0. 0. 0. 0. 0. 0. 0. 0. 0. 0. 0. 0. 0. 0. 0. 0. 0. 0.
      0. 0. 0. 0. 0. 0. 0. 0. 0. 0. 0. 0. 0. 0. 0. 0. 0. 0. 0. 0. 0. 0.
      0. 1.16279069e-002 0. 0. 0. 0. 0. 0. 0. 0. 0. 1.16279069e-002 0.
      0. 1.16279069e-002 1.16279069e-002 0. 0. 0. 0. 0. 0. 0. 0. 0. 0.
      0. 0. 0. 0. 0. 0. 0. 0. 0. 0. 0. 2.32558139e-002 0. 0.
      1.16279069e-002 0. 0. 0. 0. 0. 0. 1.16279069e-002 0. 0. 0. 0. 0.
      0. 0. 0. 0. 0. 0. 1.16279069e-002 0. 0. 0. 0. 1.16279069e-002 0.</_>
    <_>
      0. 0. 0. 0. 1.07526882e-002 0. 0. 0. 0. 1.07526882e-002 0. 0. 0.
      0. 0. 0. 0. 0. 0. 0. 0. 0. 0. 0. 0. 0. 0. 0. 0. 0. 0. 0. 0. 0. 0.
      0. 0. 0. 0. 0. 1.07526882e-002 0. 0. 0. 0. 0. 0. 0. 0. 0. 0. 0. 0.
      0. 0. 0. 0. 0. 0. 0. 0. 0. 0. 0. 0. 0. 0. 0. 0. 0. 0. 0. 0. 0. 0.
      1.07526882e-002 0. 1.07526882e-002 0. 0. 0. 0. 0. 0. 0. 0. 0. 0.
      0. 0. 0. 0. 0. 0. 0. 1.07526882e-002 0. 0. 0. 0. 0. 0.
      1.07526882e-002 0. 0. 0. 0. 0. 0. 0. 0. 0. 0. 0. 2.15053763e-002
      0. 0. 0. 0. 0. 0. 0. 0. 0. 0. 0. 0. 0. 0. 0. 0. 1.07526882e-002 0.
      0. 0. 0. 0. 0. 0. 0. 2.15053763e-002 0. 0. 1.07526882e-002 0. 0.
      0. 0. 0. 0. 0. 0. 0. 0. 0. 0. 0. 0. 0. 0. 0. 0. 0. 0. 0.
      1.07526882e-002 0. 0. 0. 0. 1.07526882e-002 0. 0. 0. 0. 0. 0. 0.
      0. 0. 0. 0. 0. 1.07526882e-002 0. 0. 0. 2.15053763e-002 0. 0. 0.
      0. 0. 0. 0. 0. 0. 0. 0. 0. 0. 0. 0. 0. 1.07526882e-002 0. 0. 0. 0.
      0. 0. 0. 0. 0. 0. 0. 0. 0. 0. 0. 0. 0. 0. 0. 1.07526882e-002 0. 0.
      0. 0. 0. 0. 0. 1.07526882e-002 0. 0. 0. 0. 0. 0. 0. 0. 0. 0. 0. 0.
      1.07526882e-002 0. 0. 0. 0. 0. 0. 0. 0. 0. 0. 1.07526882e-002 0.
      0. 1.07526882e-002 0. 1.07526882e-002 0. 0. 0. 0. 1.07526882e-002
      0. 0. 0. 0. 0. 0. 0. 0. 0. 0. 0. 0. 0. 0. 0. 0. 0. 0. 0. 0. 0. 0.
      0. 1.07526882e-002 0. 0. 0. 0. 0. 0. 0. 0. 0. 0. 0. 0. 0. 0. 0.
      1.07526882e-002 0. 0. 2.15053763e-002 1.07526882e-002 0. 0. 0. 0.
      0. 0. 0. 0. 0. 0. 0. 0. 0. 0. 0. 0. 1.07526882e-002 0. 0. 0. 0. 0.
      0. 1.07526882e-002 0. 0. 0. 0. 0. 1.07526882e-002 1.07526882e-002
      0. 0. 0. 0. 0. 0. 1.07526882e-002 0. 0. 0. 0. 0. 0. 0. 0. 0. 0. 0.
      0. 0. 0. 0. 0. 0. 0. 0. 0. 0. 0. 0. 0. 0. 0. 1.07526882e-002 0.
      1.07526882e-002 1.07526882e-002 1.07526882e-002 0. 0.
      1.07526882e-002 0. 0. 0. 0. 0. 0. 0. 0. 0. 0. 0. 0. 0. 0. 0. 0. 0.
      0. 0. 1.07526882e-002 0. 1.07526882e-002 0. 0. 0. 0. 0. 0. 0. 0.
      0. 0. 0. 0. 0. 0. 0. 0. 0. 0. 1.07526882e-002 0. 0. 0. 0. 0. 0. 0.
      0. 0. 0. 0. 0. 0. 0. 0. 0. 0. 0. 0. 0. 0. 0. 0. 0. 0. 0. 0. 0. 0.
      0. 0. 0. 0. 1.07526882e-002 0. 0. 0. 0. 0. 0. 0. 0. 0.
      1.07526882e-002 0. 0. 0. 0. 0. 0. 0. 0. 0. 1.07526882e-002 0. 0.
      0. 0. 0. 0. 0. 0. 0. 1.07526882e-002 0. 0. 0. 0. 0. 0. 0. 0. 0. 0.
      0. 0. 0. 0. 0. 0. 0. 0. 1.07526882e-002 0. 0. 0. 0. 0. 0. 0. 0. 0.
      0. 0. 0. 0. 0. 1.07526882e-002 0. 0. 0. 0. 0. 0. 0. 0. 0. 0. 0. 0.
      1.07526882e-002 0. 0. 0. 0. 0. 1.07526882e-002 0. 0. 0. 0. 0. 0.
      0. 0. 0. 1.07526882e-002 0. 0. 0. 0. 0. 0. 0. 0. 0. 0. 0. 0. 0. 0.
      0. 1.07526882e-002 0. 0. 0. 0. 0. 1.07526882e-002 0. 0. 0. 0. 0.
      0. 0. 0. 1.07526882e-002 1.07526882e-002 0. 0. 0. 0. 0. 0. 0. 0.
      0. 0. 0. 0. 0. 0. 0. 0. 0. 0. 0. 0. 0. 0. 0. 0. 0. 0. 0. 0. 0. 0.
      0. 0. 0. 0. 0. 0. 0. 0. 0. 0. 0. 0. 0. 0. 0. 0. 0. 0. 0. 0. 0. 0.
      0. 0. 1.07526882e-002 0. 0. 0. 0. 0. 0. 0. 0. 2.15053763e-002 0.
      0. 0. 0. 0. 0. 0. 0. 0. 0. 0. 0. 0. 0. 1.07526882e-002 0. 0. 0. 0.
      0. 0. 0. 0. 0. 0. 0. 0. 0. 0. 0. 0. 0. 0. 0. 0. 0. 0. 0. 0. 0. 0.
      0. 0. 0. 0. 0. 0. 0. 0. 0. 0. 0. 0. 0. 1.07526882e-002 0.
      1.07526882e-002 0. 0. 0. 0. 0. 0. 0. 1.07526882e-002 0. 0. 0. 0.
      0. 0. 0. 0. 0. 0. 0. 0. 0. 0. 0. 0. 0. 0. 0. 0. 0. 0. 0. 0. 0.
      1.07526882e-002 0. 0. 0. 0. 0. 0. 0. 1.07526882e-002 0. 0. 0. 0.
      0. 0. 0. 0. 0. 0. 0. 0. 0. 0. 0. 0. 0. 0. 0. 1.07526882e-002 0. 0.
      0. 0. 0. 0. 0. 0. 0. 0. 0. 0. 0. 0. 0. 0. 0. 0. 0. 0. 0. 0. 0. 0.
      0. 0. 0. 0. 0. 0. 0. 0. 1.07526882e-002 0. 0. 0. 0. 0. 0. 0. 0.
      1.07526882e-002 0. 0. 0. 0. 0. 0. 0. 0. 0. 1.07526882e-002 0. 0.
      0. 0. 0. 0. 0. 0. 0. 0. 2.15053763e-002 0. 0. 0. 0.
      1.07526882e-002 0. 0. 0. 0. 1.07526882e-002 3.22580636e-002 0. 0.
      0. 0. 0. 0. 0. 0. 0. 0. 0. 0. 0. 0. 0. 0. 0. 0. 0. 0.
      1.07526882e-002 0. 0. 0. 0. 0. 0. 0. 1.07526882e-002 0. 0. 0. 0.
      0. 0. 0. 0. 0. 0. 0. 0. 0. 0. 0. 0. 0. 0. 1.07526882e-002 0. 0. 0.
      0. 0. 0. 0. 0. 0. 0. 0. 0. 0. 0. 0. 1.07526882e-002 0. 0.
      1.07526882e-002 0. 0. 0. 0. 0. 0. 0. 0. 0. 0. 0. 0. 0. 0. 0. 0. 0.
      1.07526882e-002 0. 0. 0. 0. 0. 0. 0. 0. 0. 0. 0. 2.15053763e-002
      0. 0. 0. 0. 0. 0. 0. 0. 0. 0. 0. 0. 0. 0. 0. 0. 0. 0. 0. 0. 0. 0.
      1.07526882e-002 0. 0. 0. 0. 0. 0. 2.15053763e-002 0. 0. 0. 0. 0.
      1.07526882e-002 0. 0. 0. 0. 0. 0. 0. 0. 0. 0. 0. 1.07526882e-002
      0. 1.07526882e-002 0. 0. 0. 0. 0. 1.07526882e-002 0.
      1.07526882e-002 0. 0. 0. 0. 0.</_>
    <_>
      0. 0. 0. 0. 1.49253728e-002 0. 0. 0. 0. 0. 0. 0. 0. 0. 0.
      2.98507456e-002 0. 0. 0. 0. 0. 0. 0. 0. 0. 0. 0. 0. 0. 0. 0. 0. 0.
      0. 0. 1.49253728e-002 0. 0. 0. 0. 0. 0. 0. 0. 0. 0. 0. 0. 0. 0. 0.
      0. 0. 0. 1.49253728e-002 0. 0. 0. 0. 0. 0. 0. 0. 0.
      1.49253728e-002 0. 0. 0. 0. 0. 1.49253728e-002 0. 0. 0. 0. 0. 0.
      0. 0. 0. 0. 0. 0. 1.49253728e-002 0. 0. 0. 0. 0. 0. 0. 0. 0. 0. 0.
      0. 0. 0. 0. 0. 0. 0. 0. 0. 0. 0. 0. 0. 0. 0. 0. 0. 0. 0. 0. 0. 0.
      0. 0. 0. 0. 0. 0. 0. 0. 0. 0. 0. 0. 0. 0. 0. 0. 0. 0. 0. 0. 0. 0.
      0. 0. 0. 0. 1.49253728e-002 0. 0. 0. 0. 0. 0. 0. 0. 0.
      1.49253728e-002 0. 1.49253728e-002 0. 0. 0. 0. 0. 0. 0. 0. 0. 0.
      0. 0. 0. 0. 0. 0. 0. 0. 0. 0. 1.49253728e-002 0. 0. 0. 0. 0.
      1.49253728e-002 0. 0. 0. 0. 1.49253728e-002 0. 0. 0. 0. 0. 0. 0.
      0. 0. 0. 0. 0. 0. 0. 0. 0. 0. 0. 0. 0. 0. 0. 0. 1.49253728e-002 0.
      0. 0. 0. 0. 1.49253728e-002 0. 0. 0. 0. 0. 0. 0. 0. 0.
      1.49253728e-002 0. 0. 0. 0. 0. 0. 0. 0. 0. 0. 0. 0. 0. 0. 0. 0. 0.
      0. 0. 0. 0. 0. 0. 0. 0. 0. 0. 0. 0. 0. 0. 1.49253728e-002 0. 0. 0.
      0. 0. 0. 0. 0. 0. 0. 0. 0. 0. 0. 0. 0. 1.49253728e-002 0. 0. 0. 0.
      0. 0. 0. 0. 0. 0. 0. 0. 0. 0. 0. 0. 0. 0. 1.49253728e-002
      1.49253728e-002 0. 0. 1.49253728e-002 0. 0. 0. 0. 0. 0. 0. 0. 0.
      0. 0. 0. 0. 0. 0. 0. 0. 0. 0. 0. 0. 1.49253728e-002 0. 0. 0. 0. 0.
      1.49253728e-002 0. 0. 0. 0. 0. 0. 0. 0. 0. 0. 0. 0. 0. 0. 0. 0. 0.
      0. 0. 0. 0. 0. 0. 0. 0. 0. 0. 0. 0. 0. 0. 0. 0. 0. 0. 0. 0. 0. 0.
      0. 0. 0. 0. 0. 0. 0. 0. 0. 0. 0. 1.49253728e-002 0. 0. 0. 0. 0. 0.
      0. 1.49253728e-002 0. 0. 0. 0. 0. 0. 0. 0. 0. 0. 1.49253728e-002
      0. 0. 0. 0. 0. 0. 0. 0. 0. 0. 0. 0. 0. 0. 0. 0. 0. 1.49253728e-002
      0. 0. 0. 0. 1.49253728e-002 0. 0. 0. 0. 1.49253728e-002 0. 0. 0.
      0. 0. 0. 0. 0. 0. 1.49253728e-002 0. 0. 0. 0. 0. 0. 0. 0. 0. 0. 0.
      0. 0. 0. 0. 0. 0. 0. 0. 0. 0. 0. 0. 0. 0. 0. 0. 0. 0.
      1.49253728e-002 0. 0. 0. 0. 0. 0. 0. 0. 0. 0. 0. 0.
      1.49253728e-002 0. 0. 0. 0. 0. 0. 0. 0. 0. 0. 0. 0. 0. 0. 0. 0. 0.
      0. 0. 0. 0. 0. 0. 0. 0. 2.98507456e-002 0. 0. 0. 0. 0. 0. 0. 0. 0.
      0. 0. 0. 0. 0. 0. 1.49253728e-002 0. 0. 0. 0. 0. 0. 0. 0. 0. 0. 0.
      0. 0. 0. 0. 0. 0. 0. 0. 0. 0. 0. 0. 0. 1.49253728e-002 0.
      1.49253728e-002 0. 1.49253728e-002 1.49253728e-002 0. 0. 0. 0. 0.
      1.49253728e-002 0. 0. 0. 0. 0. 0. 0. 0. 0. 0. 0. 0. 0. 0. 0. 0. 0.
      0. 0. 0. 0. 0. 0. 0. 0. 0. 0. 0. 0. 0. 0. 0. 0. 0. 0. 0. 0. 0. 0.
      0. 0. 0. 0. 0. 0. 0. 0. 0. 0. 0. 0. 0. 0. 0. 0. 0. 0. 0. 0. 0. 0.
      0. 0. 0. 0. 1.49253728e-002 0. 0. 0. 0. 0. 0. 0. 0. 0. 0. 0. 0. 0.
      0. 0. 0. 0. 0. 0. 0. 0. 0. 0. 0. 0. 0. 0. 0. 0. 0. 0. 0. 0. 0.
      1.49253728e-002 0. 0. 0. 0. 1.49253728e-002 0. 0. 0. 0. 0. 0. 0.
      0. 1.49253728e-002 0. 0. 0. 0. 0. 0. 0. 0. 1.49253728e-002
      1.49253728e-002 0. 0. 0. 0. 0. 0. 0. 0. 0. 0. 0. 0. 0. 0. 0. 0. 0.
      0. 0. 0. 0. 0. 0. 0. 0. 0. 0. 0. 0. 0. 0. 0. 0. 0. 0. 0. 0. 0. 0.
      0. 1.49253728e-002 0. 0. 0. 0. 1.49253728e-002 0. 1.49253728e-002
      0. 0. 0. 0. 0. 0. 0. 0. 1.49253728e-002 0. 0. 0. 0. 0. 0. 0. 0. 0.
      0. 0. 0. 0. 0. 0. 0. 0. 0. 0. 0. 0. 0. 0. 0. 0. 0. 0. 0. 0. 0. 0.
      0. 0. 0. 0. 0. 0. 0. 0. 0. 0. 0. 0. 0. 0. 0. 0. 0. 0.
      2.98507456e-002 0. 0. 0. 0. 0. 0. 0. 0. 0. 0. 0. 0. 0. 0. 0. 0. 0.
      0. 0. 0. 0. 0. 0. 0. 0. 1.49253728e-002 0. 0. 0. 0. 0. 0.
      2.98507456e-002 0. 0. 0. 0. 0. 1.49253728e-002 0. 0. 0. 0.
      1.49253728e-002 0. 0. 0. 0. 0. 0. 0. 0. 0. 0. 0. 0. 0. 0. 0. 0. 0.
      0. 0. 0. 0. 0. 0. 0. 0. 0. 0. 0. 0. 0. 0. 0. 0. 0. 0. 0. 0. 0. 0.
      0. 0. 0. 0. 0. 0. 0. 0. 0. 0. 0. 0. 0. 0. 0. 0. 0. 0. 0. 0. 0. 0.
      0. 0. 0. 0. 0. 0. 0. 0. 0. 0. 0. 0. 0. 0. 0. 0. 1.49253728e-002 0.
      0. 0. 0. 1.49253728e-002 0. 1.49253728e-002 0. 0. 0. 0. 0. 0. 0.
      0. 1.49253728e-002 0. 0. 0. 0. 0. 0. 1.49253728e-002 0. 0. 0.
      1.49253728e-002 0. 1.49253728e-002 0. 0. 0. 0. 0. 0. 0. 0. 0. 0.
      0. 0. 0. 0. 0. 0. 0. 0. 0. 0. 0. 0. 0. 0. 0. 0. 0. 0. 0.
      1.49253728e-002 0. 0. 0. 0. 0. 0. 0. 0. 0. 0. 0. 0. 0. 0. 0. 0. 0.
      0. 0. 0. 0. 0. 0. 1.49253728e-002 0. 0. 0. 0. 0. 0.</_>
    <_>
      0. 0. 0. 0. 0. 0. 0. 0. 0. 0. 0. 0. 0. 0. 0. 0. 0. 0. 0. 0. 0. 0.
      0. 0. 0. 0. 0. 0. 0. 0. 9.99999978e-003 0. 9.99999978e-003 0.
      9.99999978e-003 0. 0. 0. 0. 0. 9.99999978e-003 0. 9.99999978e-003
      0. 0. 0. 9.99999978e-003 0. 0. 0. 9.99999978e-003 0. 0. 0. 0. 0.
      0. 0. 0. 0. 0. 0. 0. 0. 0. 0. 0. 0. 0. 0. 9.99999978e-003
      9.99999978e-003 0. 0. 0. 0. 0. 0. 0. 0. 9.99999978e-003 0. 0. 0.
      9.99999978e-003 0. 0. 0. 0. 0. 0. 0. 0. 0. 0. 9.99999978e-003 0.
      0. 0. 0. 0. 0. 0. 0. 0. 0. 0. 0. 0. 0. 0. 9.99999978e-003 0. 0.
      9.99999978e-003 0. 0. 0. 0. 0. 0. 0. 0. 0. 0. 0. 9.99999978e-003
      0. 0. 0. 0. 0. 0. 0. 0. 0. 0. 0. 0. 0. 0. 0. 0. 0. 0. 0. 0. 0. 0.
      1.99999996e-002 0. 0. 0. 0. 9.99999978e-003 0. 0. 0. 0. 0. 0. 0.
      0. 0. 0. 0. 0. 0. 0. 9.99999978e-003 1.99999996e-002 0. 0.
      9.99999978e-003 0. 0. 0. 0. 0. 0. 0. 0. 9.99999978e-003 0. 0. 0.
      0. 0. 0. 0. 0. 0. 0. 0. 0. 0. 0. 0. 0. 0. 0. 0. 0. 0. 0. 0. 0. 0.
      0. 0. 0. 0. 0. 0. 0. 9.99999978e-003 0. 0. 0. 0. 0. 0. 0. 0. 0. 0.
      0. 0. 0. 0. 0. 0. 0. 0. 0. 0. 0. 0. 0. 0. 0. 0. 0. 0. 0. 0. 0. 0.
      0. 0. 0. 9.99999978e-003 0. 0. 0. 0. 0. 9.99999978e-003 0. 0. 0.
      0. 0. 0. 0. 9.99999978e-003 9.99999978e-003 0. 0. 9.99999978e-003
      0. 0. 9.99999978e-003 0. 0. 1.99999996e-002 0. 0. 0. 0. 0. 0. 0.
      0. 0. 0. 0. 0. 9.99999978e-003 0. 0. 0. 0. 0. 0. 0. 0. 0. 0. 0. 0.
      0. 0. 0. 0. 9.99999978e-003 0. 0. 0. 9.99999978e-003 0. 0. 0. 0.
      0. 0. 0. 0. 0. 0. 0. 0. 0. 0. 0. 0. 0. 9.99999978e-003 0. 0. 0. 0.
      0. 0. 0. 0. 0. 0. 0. 0. 1.99999996e-002 9.99999978e-003 0. 0. 0.
      0. 0. 0. 9.99999978e-003 0. 0. 0. 0. 0. 0. 0. 0. 0. 0. 0. 0. 0. 0.
      0. 0. 0. 0. 0. 0. 0. 0. 0. 0. 0. 0. 0. 0. 0. 9.99999978e-003 0. 0.
      0. 0. 0. 0. 0. 0. 0. 0. 0. 0. 0. 0. 0. 0. 0. 0. 0. 0.
      9.99999978e-003 0. 0. 0. 0. 0. 0. 0. 0. 0. 0. 0. 0. 0. 0. 0. 0. 0.
      0. 0. 0. 0. 0. 0. 0. 0. 0. 0. 0. 0. 0. 0. 0. 0. 0. 0.
      1.99999996e-002 0. 0. 0. 0. 0. 0. 0. 0. 0. 0. 0. 0. 0. 0. 0. 0. 0.
      0. 0. 0. 0. 0. 9.99999978e-003 9.99999978e-003 9.99999978e-003 0.
      0. 0. 0. 0. 0. 0. 0. 0. 0. 0. 0. 9.99999978e-003 0. 0. 0. 0. 0. 0.
      0. 0. 0. 0. 0. 0. 9.99999978e-003 0. 0. 9.99999978e-003 0. 0. 0.
      0. 0. 0. 0. 0. 0. 0. 0. 0. 1.99999996e-002 0. 0. 0. 0. 0. 0. 0. 0.
      0. 0. 0. 0. 0. 0. 0. 0. 0. 0. 0. 0. 9.99999978e-003 0. 0. 0. 0. 0.
      0. 0. 0. 0. 0. 0. 0. 0. 0. 0. 0. 0. 0. 0. 0. 0. 0. 0. 0. 0.
      9.99999978e-003 0. 0. 0. 0. 0. 0. 0. 0. 0. 0. 0. 9.99999978e-003
      0. 0. 9.99999978e-003 0. 0. 0. 0. 1.99999996e-002 0. 0. 0. 0. 0.
      0. 0. 0. 0. 0. 0. 9.99999978e-003 0. 0. 0. 9.99999978e-003 0. 0.
      9.99999978e-003 0. 0. 0. 0. 0. 0. 0. 0. 0. 0. 0. 0. 0. 0. 0. 0. 0.
      0. 0. 0. 0. 0. 0. 0. 0. 0. 0. 0. 0. 0. 0. 0. 0. 0. 0. 0.
      1.99999996e-002 0. 0. 0. 0. 0. 0. 0. 9.99999978e-003 0. 0. 0. 0.
      0. 0. 9.99999978e-003 0. 0. 0. 0. 9.99999978e-003 0. 0. 0. 0. 0.
      0. 0. 0. 0. 0. 0. 0. 0. 0. 9.99999978e-003 0. 0. 0. 0. 0. 0. 0. 0.
      0. 0. 0. 0. 9.99999978e-003 0. 0. 0. 0. 0. 0. 0. 0. 0. 0. 0. 0. 0.
      0. 0. 0. 0. 0. 0. 0. 0. 0. 0. 0. 0. 0. 0. 0. 9.99999978e-003 0. 0.
      0. 0. 0. 0. 0. 0. 0. 0. 0. 0. 0. 0. 0. 0. 0. 0. 0. 0. 0. 0. 0. 0.
      9.99999978e-003 0. 0. 0. 0. 0. 0. 0. 0. 0. 0. 0. 9.99999978e-003
      0. 0. 0. 0. 0. 0. 0. 0. 0. 0. 1.99999996e-002 0. 0.
      9.99999978e-003 9.99999978e-003 9.99999978e-003 9.99999978e-003 0.
      0. 0. 0. 9.99999978e-003 0. 0. 0. 0. 0. 0. 0. 0. 0. 0. 0. 0. 0. 0.
      0. 0. 0. 0. 0. 0. 0. 0. 0. 0. 0. 0. 9.99999978e-003
      9.99999978e-003 0. 0. 9.99999978e-003 0. 0. 0. 0. 0. 0. 0. 0. 0.
      0. 0. 0. 0. 9.99999978e-003 0. 0. 0. 0. 0. 0. 0. 9.99999978e-003
      0. 0. 0. 0. 0. 0. 0. 0. 9.99999978e-003 0. 0. 0. 0.
      1.99999996e-002 0. 0. 0. 0. 0. 0. 0. 0. 0. 0. 0. 9.99999978e-003
      0. 0. 0. 0. 0. 9.99999978e-003 0. 0. 0. 0. 0. 0. 0. 0. 0. 0. 0. 0.
      0. 0. 0. 0. 0. 0. 0. 0. 0. 0. 0. 0. 9.99999978e-003 0. 0. 0.
      9.99999978e-003 0. 0. 0. 0. 0. 9.99999978e-003 0. 0. 0. 0. 0. 0.
      0. 0. 0. 0. 9.99999978e-003 0. 0. 0. 0. 0. 0. 0. 0. 0. 0. 0.
      9.99999978e-003 0. 0. 0. 0. 0. 0. 9.99999978e-003 0. 0. 0. 0. 0.
      0. 0. 0. 0. 0. 0. 0. 0. 0. 0. 0. 9.99999978e-003 9.99999978e-003
      0. 0. 0. 0. 0. 0. 0. 1.99999996e-002 0. 0. 0. 0. 0.
      9.99999978e-003 0. 0. 0. 0. 0. 0. 0. 0. 0. 0. 0. 0. 0. 0. 0. 0. 0.
      0. 0. 0. 0. 0. 0. 0. 0. 0. 0. 0. 0. 0. 0. 0. 0. 0. 0. 0. 0. 0. 0.
      9.99999978e-003 0. 0. 0. 0. 0. 0. 0. 0. 0. 0. 0. 0. 0. 0. 0. 0.</_>
    <_>
      0. 0. 0. 0. 0. 0. 0. 0. 1.29870130e-002 0. 1.29870130e-002 0. 0.
      1.29870130e-002 0. 0. 1.29870130e-002 0. 0. 0. 0. 0. 0. 0. 0. 0.
      0. 0. 0. 0. 0. 0. 0. 0. 0. 0. 0. 0. 0. 0. 0. 1.29870130e-002 0. 0.
      0. 0. 0. 0. 0. 0. 0. 0. 0. 0. 2.59740259e-002 0. 0. 0. 0. 0.
      1.29870130e-002 0. 0. 0. 0. 0. 0. 0. 0. 0. 1.29870130e-002 0. 0.
      0. 0. 0. 0. 0. 0. 0. 0. 0. 0. 0. 0. 0. 0. 0. 0. 0. 0. 0. 0. 0. 0.
      0. 0. 0. 0. 0. 0. 0. 1.29870130e-002 0. 0. 0. 0. 0. 0. 0. 0. 0. 0.
      1.29870130e-002 0. 0. 0. 0. 0. 0. 0. 0. 0. 0. 0. 1.29870130e-002
      0. 0. 0. 0. 0. 0. 0. 1.29870130e-002 1.29870130e-002 0. 0. 0. 0.
      0. 0. 0. 0. 0. 0. 0. 0. 0. 0. 0. 0. 0. 0. 0. 0. 0. 0. 0. 0. 0. 0.
      0. 0. 0. 0. 0. 0. 1.29870130e-002 0. 0. 0. 0. 0. 1.29870130e-002
      0. 0. 0. 0. 0. 0. 0. 0. 0. 0. 0. 0. 0. 0. 1.29870130e-002 0. 0. 0.
      0. 0. 0. 0. 0. 0. 0. 0. 0. 0. 0. 0. 0. 0. 0. 0. 0. 0. 0. 0. 0. 0.
      0. 0. 0. 0. 0. 0. 0. 0. 0. 0. 0. 1.29870130e-002 0. 0. 0. 0. 0. 0.
      0. 0. 0. 0. 1.29870130e-002 0. 0. 0. 1.29870130e-002 0. 0. 0. 0.
      0. 0. 0. 0. 0. 0. 0. 0. 0. 0. 0. 0. 0. 0. 0. 0. 0. 0. 0. 0. 0. 0.
      0. 0. 0. 0. 0. 0. 1.29870130e-002 0. 1.29870130e-002 0. 0. 0. 0.
      0. 0. 0. 0. 1.29870130e-002 0. 0. 0. 0. 0. 0. 0. 0. 0.
      1.29870130e-002 0. 0. 0. 0. 0. 0. 0. 1.29870130e-002 0. 0. 0. 0.
      0. 1.29870130e-002 0. 0. 0. 0. 0. 1.29870130e-002 0. 0. 0. 0. 0.
      0. 0. 0. 0. 0. 0. 0. 0. 0. 0. 0. 0. 0. 0. 0. 0. 0. 0. 0. 0. 0.
      1.29870130e-002 0. 0. 0. 1.29870130e-002 0. 0. 1.29870130e-002 0.
      0. 0. 0. 0. 0. 1.29870130e-002 0. 0. 0. 0. 0. 0. 0. 0. 0. 0.
      1.29870130e-002 0. 0. 0. 0. 0. 0. 0. 0. 0. 0. 0. 0. 0. 0. 0. 0. 0.
      0. 0. 0. 0. 0. 0. 0. 1.29870130e-002 0. 0. 0. 0. 0. 0. 0. 0. 0. 0.
      0. 0. 0. 0. 1.29870130e-002 0. 0. 0. 1.29870130e-002 0. 0. 0. 0.
      0. 0. 0. 0. 0. 0. 0. 0. 0. 0. 0. 0. 0. 0. 0. 0. 0. 0.
      1.29870130e-002 0. 0. 0. 0. 0. 0. 0. 0. 0. 0. 0. 0. 0. 0. 0. 0. 0.
      0. 0. 0. 0. 0. 0. 0. 0. 0. 0. 0. 0. 0. 1.29870130e-002 0. 0. 0. 0.
      0. 0. 0. 0. 0. 0. 0. 0. 0. 0. 0. 0. 0. 0. 0. 0. 0. 2.59740259e-002
      0. 0. 0. 0. 0. 0. 0. 0. 1.29870130e-002 0. 0. 0. 0. 0. 0. 0. 0. 0.
      0. 0. 0. 0. 0. 0. 0. 0. 0. 0. 0. 0. 0. 0. 0. 0. 0. 0. 0. 0. 0. 0.
      0. 0. 0. 1.29870130e-002 0. 0. 0. 0. 1.29870130e-002
      1.29870130e-002 0. 0. 0. 0. 0. 0. 0. 0. 0. 0. 0. 0. 0. 0. 0. 0.
      1.29870130e-002 0. 0. 0. 0. 1.29870130e-002 0. 0. 0. 0. 0. 0. 0.
      1.29870130e-002 0. 0. 0. 0. 2.59740259e-002 0. 0. 0. 0. 0. 0. 0.
      0. 0. 0. 0. 0. 0. 0. 0. 0. 0. 0. 0. 0. 0. 0. 0. 0. 0. 0. 0.
      1.29870130e-002 0. 0. 0. 0. 0. 0. 0. 0. 0. 0. 0. 1.29870130e-002
      0. 0. 0. 0. 0. 0. 0. 0. 0. 0. 0. 0. 0. 0. 0. 0. 0. 0. 0. 0. 0. 0.
      0. 0. 0. 0. 0. 0. 0. 0. 1.29870130e-002 0. 0. 0. 1.29870130e-002
      0. 0. 0. 0. 0. 0. 0. 0. 0. 0. 0. 0. 0. 0. 0. 0. 0. 0. 0. 0. 0. 0.
      0. 0. 0. 0. 0. 0. 1.29870130e-002 1.29870130e-002 0. 0. 0. 0. 0.
      0. 1.29870130e-002 0. 0. 0. 0. 0. 0. 0. 0. 0. 0. 0. 0.
      1.29870130e-002 0. 0. 0. 0. 0. 0. 0. 0. 0. 0. 0. 0. 0. 0. 0. 0. 0.
      0. 1.29870130e-002 0. 0. 0. 0. 0. 0. 0. 0. 0. 0. 0.
      1.29870130e-002 0. 0. 0. 0. 0. 0. 0. 0. 0. 0. 0. 0. 0.
      1.29870130e-002 0. 0. 0. 0. 0. 0. 0. 1.29870130e-002 0. 0. 0. 0.
      0. 0. 0. 0. 0. 0. 0. 0. 0. 0. 0. 0. 0. 1.29870130e-002 0. 0. 0. 0.
      0. 0. 0. 0. 0. 0. 0. 0. 0. 1.29870130e-002 0. 0. 0. 0. 0. 0. 0. 0.
      0. 0. 0. 0. 0. 0. 0. 0. 0. 0. 0. 0. 0. 0. 0. 0. 0. 1.29870130e-002
      0. 0. 0. 1.29870130e-002 0. 0. 0. 0. 0. 0. 0. 0. 0. 0. 0. 0. 0. 0.
      0. 0. 0. 0. 0. 0. 0. 2.59740259e-002 0. 0. 0. 0. 0. 0. 0. 0. 0. 0.
      0. 1.29870130e-002 1.29870130e-002 0. 0. 0. 0. 0. 0. 0. 0. 0. 0.
      0. 0. 0. 0. 0. 0. 0. 0. 0. 1.29870130e-002 1.29870130e-002 0. 0.
      0. 0. 0. 0. 1.29870130e-002 0. 0. 0. 0. 0. 0. 0. 1.29870130e-002
      0. 0. 0. 0. 0. 0. 0. 0. 0. 0. 0. 0. 0. 0. 0. 0. 0. 0. 0. 0. 0.
      1.29870130e-002 0. 0. 0. 0. 0. 0. 0. 0. 0. 0. 0. 0. 0. 0. 0. 0. 0.
      0. 0. 0. 0. 0. 0. 0. 0. 0. 0. 0. 0. 0. 0. 0. 0. 0. 0. 0. 0. 0. 0.
      0. 0. 0. 0. 0. 0. 0. 0. 1.29870130e-002 0. 0. 0. 0. 0. 0.
      1.29870130e-002 0. 0. 0. 0. 0. 1.29870130e-002 0. 0. 0. 0. 0. 0.
      0. 0. 0. 0. 0. 0. 0. 0. 0. 0. 0. 0. 0. 0. 0. 0. 0. 0. 0. 0. 0. 0.
      0. 0. 0. 0. 1.29870130e-002 0.</_>
    <_>
      0. 0. 0. 0. 2.17391308e-002 0. 0. 0. 2.17391308e-002
      2.17391308e-002 0. 0. 0. 0. 0. 0. 0. 0. 0. 0. 0. 0. 0. 0. 0. 0. 0.
      0. 0. 0. 0. 0. 0. 0. 0. 2.17391308e-002 0. 0. 0. 0. 0. 0. 0. 0. 0.
      0. 0. 0. 0. 0. 0. 0. 0. 0. 0. 0. 0. 0. 0. 0. 0. 0. 0. 0. 0. 0. 0.
      0. 0. 0. 0. 0. 2.17391308e-002 0. 0. 0. 0. 0. 0. 0. 0. 0. 0. 0. 0.
      0. 0. 0. 0. 0. 0. 0. 0. 0. 0. 0. 0. 0. 0. 0. 0. 0. 2.17391308e-002
      0. 0. 0. 0. 0. 0. 0. 0. 0. 0. 0. 0. 0. 0. 0. 0. 0. 0. 0. 0. 0.
      2.17391308e-002 0. 0. 0. 2.17391308e-002 0. 0. 0. 0. 0. 0. 0. 0.
      0. 0. 0. 0. 0. 0. 0. 0. 0. 0. 0. 0. 0. 0. 2.17391308e-002 0. 0. 0.
      0. 0. 0. 0. 0. 0. 0. 4.34782617e-002 0. 0. 0. 0. 0. 0. 0.
      2.17391308e-002 0. 0. 2.17391308e-002 0. 0. 0. 0. 0. 0. 0. 0. 0.
      0. 0. 0. 0. 0. 0. 0. 0. 0. 0. 0. 0. 0. 0. 0. 0. 0. 0. 0. 0.
      4.34782617e-002 0. 0. 0. 0. 0. 0. 0. 0. 0. 0. 0. 0. 0. 0. 0. 0. 0.
      0. 0. 0. 0. 0. 0. 0. 0. 0. 0. 0. 2.17391308e-002 0. 0. 0. 0.
      2.17391308e-002 0. 2.17391308e-002 0. 0. 0. 0. 0. 0. 0. 0. 0. 0.
      0. 0. 0. 0. 0. 2.17391308e-002 0. 0. 0. 0. 0. 0. 0. 0. 0. 0. 0. 0.
      0. 0. 0. 0. 0. 0. 0. 0. 0. 0. 0. 0. 0. 0. 0. 0. 2.17391308e-002 0.
      0. 0. 0. 0. 0. 0. 0. 0. 0. 0. 0. 0. 0. 0. 0. 0. 0. 0. 0. 0. 0. 0.
      0. 0. 0. 0. 0. 0. 0. 0. 0. 0. 0. 0. 0. 0. 0. 0. 2.17391308e-002 0.
      0. 0. 0. 0. 0. 0. 0. 0. 0. 0. 0. 2.17391308e-002 0. 0. 0. 0. 0. 0.
      0. 0. 0. 0. 0. 0. 2.17391308e-002 0. 0. 0. 0. 0. 0. 0. 0. 0. 0. 0.
      2.17391308e-002 0. 0. 0. 0. 0. 0. 0. 0. 0. 0. 0. 2.17391308e-002
      0. 0. 0. 2.17391308e-002 0. 0. 0. 0. 2.17391308e-002 0. 0. 0. 0.
      0. 0. 0. 0. 0. 0. 0. 0. 0. 0. 0. 0. 0. 0. 0. 0. 2.17391308e-002 0.
      0. 0. 0. 0. 0. 0. 0. 0. 0. 0. 0. 2.17391308e-002 0. 0. 0. 0. 0. 0.
      0. 0. 0. 0. 0. 0. 0. 0. 0. 0. 0. 0. 0. 0. 0. 0. 0. 0. 0. 0. 0. 0.
      0. 0. 0. 0. 0. 0. 0. 0. 0. 0. 0. 0. 0. 0. 0. 0. 0. 0. 0. 0. 0. 0.
      0. 0. 0. 0. 0. 0. 0. 0. 0. 0. 0. 0. 0. 0. 0. 0. 0. 0.
      2.17391308e-002 0. 0. 0. 0. 0. 0. 0. 0. 2.17391308e-002 0. 0. 0.
      0. 0. 0. 0. 0. 0. 0. 0. 0. 0. 0. 0. 0. 0. 0. 0. 0. 0. 0. 0. 0. 0.
      0. 0. 0. 0. 0. 0. 0. 0. 0. 0. 0. 0. 0. 0. 0. 0. 0. 0. 0. 0. 0. 0.
      0. 0. 0. 0. 0. 0. 0. 0. 0. 0. 2.17391308e-002 0. 0. 0. 0. 0. 0. 0.
      0. 0. 0. 2.17391308e-002 0. 0. 0. 0. 0. 0. 0. 0. 0. 0. 0. 0.
      2.17391308e-002 0. 0. 0. 2.17391308e-002 0. 0. 0. 0. 0. 0. 0. 0.
      0. 0. 0. 0. 0. 0. 0. 0. 0. 0. 0. 0. 0. 0. 0. 0. 0. 0. 0. 0. 0. 0.
      2.17391308e-002 0. 0. 0. 0. 0. 0. 0. 0. 0. 0. 0. 0. 0. 0. 0. 0. 0.
      0. 0. 0. 0. 0. 0. 0. 0. 0. 0. 0. 0. 0. 0. 0. 0. 0. 0. 0. 0. 0. 0.
      0. 0. 0. 0. 0. 0. 0. 2.17391308e-002 0. 2.17391308e-002 0. 0. 0.
      0. 0. 0. 0. 0. 0. 0. 0. 0. 0. 0. 0. 0. 0. 0. 0. 0. 0. 0. 0. 0. 0.
      0. 0. 0. 0. 0. 0. 0. 0. 0. 0. 0. 0. 0. 0. 0. 0. 0. 0. 0.
      2.17391308e-002 0. 0. 0. 0. 0. 0. 0. 0. 0. 0. 0. 0. 0. 0. 0. 0. 0.
      0. 0. 0. 0. 0. 0. 0. 0. 0. 0. 0. 0. 0. 0. 0. 0. 0. 0. 0.
      2.17391308e-002 0. 0. 0. 0. 0. 0. 0. 0. 0. 0. 0. 0. 0. 0. 0. 0. 0.
      0. 0. 0. 0. 0. 0. 2.17391308e-002 0. 0. 0. 0. 0. 0. 0. 0. 0. 0. 0.
      0. 0. 0. 0. 0. 0. 0. 0. 0. 0. 0. 0. 0. 0. 0. 0. 0. 0. 0. 0. 0. 0.
      0. 0. 0. 0. 0. 0. 4.34782617e-002 0. 0. 0. 0. 0. 0. 0. 0. 0. 0. 0.
      0. 0. 0. 0. 0. 0. 0. 0. 0. 0. 0. 0. 0. 0. 0. 0. 0. 0. 0. 0. 0. 0.
      0. 0. 0. 0. 0. 0. 0. 2.17391308e-002 0. 0. 0. 0. 2.17391308e-002
      0. 0. 0. 0. 0. 0. 0. 0. 0. 0. 0. 0. 0. 0. 0. 0. 0. 0. 0. 0. 0. 0.
      0. 0. 0. 0. 0. 0. 0. 0. 0. 0. 0. 0. 0. 0. 0. 0. 0. 0. 0. 0. 0. 0.
      0. 0. 0. 0. 0. 0. 0. 0. 0. 0. 0. 0. 0. 0. 0. 0. 0. 0. 0. 0. 0. 0.
      0. 0. 0. 0. 0. 0. 0. 0. 0. 0. 0. 0. 0. 0. 0. 0. 0. 0. 0. 0. 0. 0.
      0. 0. 0. 0. 0. 0. 0. 0. 0. 0. 0. 0. 0. 0. 0. 0. 0. 0. 0. 0. 0. 0.
      0. 0. 0. 0. 0. 0. 0. 0. 0. 0. 2.17391308e-002 0. 0. 0. 0. 0. 0. 0.
      0. 0. 0. 0. 0. 0. 0. 0. 0. 0. 0. 0. 0. 0. 0. 0. 0. 0.</_>
    <_>
      0. 0. 0. 0. 0. 0. 0. 0. 0. 0. 0. 0. 0. 0. 0. 0. 0. 0. 0. 0. 0. 0.
      1.23456791e-002 0. 0. 0. 1.23456791e-002 0. 0. 0. 0. 0. 0. 0. 0.
      0. 0. 0. 0. 0. 0. 0. 0. 0. 1.23456791e-002 0. 0. 0. 0. 0. 0. 0. 0.
      0. 0. 0. 0. 0. 0. 0. 1.23456791e-002 0. 1.23456791e-002 0. 0. 0.
      0. 0. 0. 0. 1.23456791e-002 0. 0. 0. 0. 0. 0. 0. 1.23456791e-002
      0. 0. 0. 0. 0. 0. 0. 0. 0. 1.23456791e-002 0. 0. 0. 0. 0. 0. 0. 0.
      0. 0. 0. 0. 0. 0. 0. 0. 0. 0. 0. 0. 0. 1.23456791e-002 0. 0. 0.
      1.23456791e-002 0. 0. 0. 0. 0. 0. 0. 0. 0. 0. 0. 0. 0. 0. 0. 0.
      1.23456791e-002 0. 0. 0. 0. 0. 0. 0. 0. 0. 1.23456791e-002 0. 0.
      0. 0. 0. 0. 0. 0. 0. 0. 0. 0. 0. 0. 0. 0. 0. 0. 0. 0. 0. 0. 0. 0.
      0. 0. 0. 0. 0. 0. 0. 1.23456791e-002 0. 0. 0. 1.23456791e-002 0.
      0. 0. 0. 0. 0. 0. 0. 0. 0. 0. 0. 0. 0. 0. 0. 0. 0. 0. 0. 0. 0. 0.
      0. 1.23456791e-002 0. 0. 0. 0. 0. 0. 0. 0. 0. 0. 0. 0. 0.
      1.23456791e-002 0. 0. 0. 0. 0. 0. 0. 0. 0. 0. 0. 0. 0. 0. 0. 0. 0.
      0. 0. 0. 0. 2.46913582e-002 0. 0. 0. 0. 0. 0. 0. 0. 0. 0. 0. 0. 0.
      0. 0. 0. 1.23456791e-002 0. 0. 0. 1.23456791e-002 0. 0. 0. 0. 0.
      0. 1.23456791e-002 0. 1.23456791e-002 0. 0. 0. 0. 0. 0. 0. 0. 0.
      0. 0. 0. 0. 0. 0. 0. 0. 0. 0. 0. 0. 0. 1.23456791e-002 0. 0. 0. 0.
      0. 0. 0. 0. 0. 0. 0. 0. 0. 0. 0. 0. 0. 0. 0. 0. 0. 0. 0. 0.
      1.23456791e-002 0. 0. 0. 0. 0. 0. 0. 0. 1.23456791e-002 0. 0. 0.
      0. 0. 0. 0. 0. 0. 0. 0. 0. 0. 0. 0. 0. 0. 0. 0. 0. 0. 0. 0. 0. 0.
      0. 1.23456791e-002 0. 0. 0. 0. 0. 0. 0. 0. 0. 1.23456791e-002 0.
      0. 0. 0. 0. 0. 0. 0. 0. 0. 0. 1.23456791e-002 0. 0. 0. 0. 0. 0. 0.
      0. 0. 0. 1.23456791e-002 0. 0. 1.23456791e-002 0. 0. 0. 0. 0. 0.
      0. 0. 0. 0. 0. 1.23456791e-002 0. 0. 0. 0. 0. 0. 0. 0. 0. 0. 0. 0.
      0. 0. 0. 0. 0. 0. 0. 1.23456791e-002 0. 0. 0. 1.23456791e-002 0.
      1.23456791e-002 0. 0. 0. 0. 0. 0. 0. 0. 0. 0. 0. 0. 0. 0. 0. 0. 0.
      0. 0. 0. 0. 0. 0. 0. 0. 0. 0. 1.23456791e-002 0. 0. 0. 0.
      1.23456791e-002 0. 0. 0. 0. 0. 0. 0. 0. 0. 0. 0. 0. 0. 0. 0. 0. 0.
      0. 0. 1.23456791e-002 0. 1.23456791e-002 0. 0. 0. 0. 0. 0. 0. 0.
      0. 2.46913582e-002 0. 0. 0. 0. 1.23456791e-002 0. 0. 0. 0.
      1.23456791e-002 0. 0. 1.23456791e-002 0. 0. 0. 0. 0. 0. 0. 0. 0.
      0. 0. 0. 0. 1.23456791e-002 0. 0. 0. 0. 1.23456791e-002
      1.23456791e-002 0. 0. 0. 0. 0. 0. 0. 0. 0. 0. 0. 2.46913582e-002
      0. 0. 0. 0. 0. 0. 0. 0. 0. 0. 0. 0. 0. 0. 0. 0. 0. 0. 0. 0. 0. 0.
      0. 0. 0. 0. 0. 0. 0. 0. 0. 0. 0. 0. 0. 0. 0. 0. 1.23456791e-002 0.
      0. 0. 0. 0. 0. 0. 0. 1.23456791e-002 0. 0. 0. 0. 0. 0. 0. 0. 0. 0.
      0. 0. 0. 0. 1.23456791e-002 0. 0. 0. 0. 0. 0. 0. 0. 0. 0. 0. 0. 0.
      0. 0. 0. 0. 0. 0. 1.23456791e-002 0. 0. 0. 0. 0. 0. 0. 0. 0. 0. 0.
      0. 0. 0. 0. 0. 0. 0. 0. 0. 0. 0. 0. 0. 0. 1.23456791e-002 0. 0. 0.
      0. 0. 0. 0. 1.23456791e-002 0. 0. 0. 0. 0. 0. 0. 0. 0. 0. 0. 0. 0.
      0. 0. 0. 0. 0. 0. 0. 0. 0. 0. 0. 0. 1.23456791e-002 0. 0. 0. 0. 0.
      0. 0. 0. 0. 0. 0. 0. 0. 0. 0. 0. 0. 0. 1.23456791e-002 0. 0. 0. 0.
      0. 0. 0. 0. 0. 0. 0. 0. 0. 0. 0. 0. 0. 0. 0. 0. 0. 0. 0. 0. 0.
      1.23456791e-002 0. 0. 0. 0. 0. 0. 0. 0. 0. 0. 0. 0. 0. 0. 0. 0. 0.
      0. 0. 0. 0. 0. 0. 2.46913582e-002 0. 0. 0. 1.23456791e-002 0. 0.
      0. 0. 0. 0. 0. 0. 0. 0. 0. 0. 0. 0. 0. 0. 0. 0. 0. 0. 0. 0. 0.
      1.23456791e-002 0. 0. 0. 0. 0. 0. 0. 0. 0. 0. 0. 0.
      1.23456791e-002 0. 0. 0. 0. 0. 0. 0. 0. 0. 0. 0. 0. 0. 0. 0. 0. 0.
      0. 0. 0. 1.23456791e-002 0. 0. 1.23456791e-002 0. 0. 0. 0. 0.
      1.23456791e-002 0. 0. 0. 0. 0. 0. 0. 0. 0. 0. 1.23456791e-002 0.
      0. 0. 0. 0. 1.23456791e-002 0. 0. 0. 0. 0. 0. 0. 0. 0. 0. 0. 0. 0.
      0. 0. 0. 0. 0. 0. 0. 0. 0. 0. 1.23456791e-002 0. 0. 0. 0. 0. 0. 0.
      0. 0. 0. 0. 0. 0. 0. 0. 0. 0. 0. 0. 1.23456791e-002 0. 0. 0. 0. 0.
      0. 0. 0. 0. 1.23456791e-002 0. 0. 0. 1.23456791e-002 0. 0. 0. 0.
      0. 0. 0. 0. 0. 1.23456791e-002 0. 0. 0. 1.23456791e-002 0. 0. 0.
      0. 0. 0. 0. 0. 0. 0. 0. 0. 0. 0. 0. 1.23456791e-002 0. 0. 0. 0. 0.
      0. 0. 0. 0. 0. 0. 1.23456791e-002 2.46913582e-002 0. 0. 0. 0. 0.
      0. 0. 1.23456791e-002 0. 0. 0. 0. 0. 0. 0. 0. 0. 0. 0.
      1.23456791e-002 0. 0. 0. 0. 0. 0. 0. 0. 0. 0. 0. 0. 0. 0. 0. 0. 0.
      0. 0. 0. 0. 0. 0. 1.23456791e-002 0. 0. 0. 0. 0. 0. 0. 0. 0. 0. 0.
      0. 0. 0. 0. 0. 1.23456791e-002 0.</_>
    <_>
      0. 0. 0. 0. 0. 0. 0. 1.23456791e-002 1.23456791e-002 0. 0. 0. 0.
      0. 0. 0. 0. 0. 0. 0. 0. 0. 1.23456791e-002 0. 0. 0. 0. 0. 0. 0. 0.
      0. 0. 0. 0. 0. 0. 0. 0. 0. 0. 0. 0. 0. 0. 0. 1.23456791e-002 0. 0.
      0. 0. 0. 0. 0. 0. 0. 0. 0. 0. 0. 0. 0. 0. 0. 0. 0. 0. 0. 0. 0. 0.
      0. 0. 0. 0. 0. 0. 0. 0. 0. 0. 0. 0. 0. 1.23456791e-002 0. 0. 0. 0.
      0. 0. 0. 0. 0. 0. 0. 1.23456791e-002 0. 0. 0. 0. 0. 0. 0. 0. 0. 0.
      0. 0. 0. 0. 0. 0. 0. 2.46913582e-002 0. 0. 0. 0. 0.
      1.23456791e-002 0. 0. 0. 0. 1.23456791e-002 0. 0. 0. 0. 0. 0.
      1.23456791e-002 0. 0. 1.23456791e-002 0. 0. 0. 0. 0. 0. 0. 0. 0.
      0. 0. 0. 0. 0. 0. 0. 0. 0. 0. 1.23456791e-002 0. 0. 0. 0. 0. 0. 0.
      0. 0. 0. 0. 0. 0. 0. 0. 0. 0. 0. 0. 0. 0. 1.23456791e-002 0. 0.
      1.23456791e-002 0. 0. 0. 0. 0. 0. 0. 0. 0. 0. 0. 0. 0. 0. 0.
      1.23456791e-002 0. 0. 1.23456791e-002 0. 0. 1.23456791e-002 0. 0.
      0. 0. 0. 0. 0. 0. 0. 1.23456791e-002 0. 0. 0. 0. 0. 0. 0. 0. 0. 0.
      0. 0. 0. 0. 0. 0. 0. 0. 0. 0. 0. 0. 0. 0. 0. 0. 0. 0. 0. 0. 0. 0.
      0. 0. 0. 0. 0. 0. 0. 0. 0. 0. 0. 1.23456791e-002 0. 0. 0. 0. 0. 0.
      0. 0. 0. 0. 0. 0. 0. 0. 0. 0. 0. 1.23456791e-002 0. 0. 0. 0. 0. 0.
      0. 0. 0. 0. 0. 0. 0. 0. 0. 0. 0. 0. 0. 0. 0. 0. 0. 0. 0. 0. 0. 0.
      0. 0. 0. 0. 0. 0. 0. 0. 0. 0. 0. 0. 0. 0. 0. 0. 0. 0. 0. 0.
      1.23456791e-002 0. 0. 0. 0. 0. 0. 0. 0. 0. 1.23456791e-002 0. 0.
      0. 0. 0. 0. 0. 0. 0. 0. 0. 0. 0. 0. 1.23456791e-002 0. 0. 0. 0. 0.
      0. 1.23456791e-002 0. 0. 1.23456791e-002 0. 0. 0. 0. 0. 0. 0. 0.
      0. 0. 0. 0. 1.23456791e-002 1.23456791e-002 0. 0. 0. 0. 0. 0. 0.
      0. 1.23456791e-002 0. 0. 0. 1.23456791e-002 0. 0. 0. 0. 0. 0.
      1.23456791e-002 0. 0. 0. 0. 0. 0. 0. 0. 0. 1.23456791e-002 0. 0.
      0. 0. 0. 0. 0. 0. 0. 0. 0. 1.23456791e-002 1.23456791e-002 0. 0.
      0. 0. 0. 0. 0. 0. 1.23456791e-002 0. 0. 0. 0. 0. 0. 0. 0. 0. 0. 0.
      0. 0. 0. 1.23456791e-002 0. 0. 0. 0. 0. 0. 0. 0. 0. 0. 0. 0. 0. 0.
      0. 0. 0. 0. 0. 0. 0. 0. 0. 0. 1.23456791e-002 0. 0.
      1.23456791e-002 0. 0. 0. 0. 0. 0. 0. 0. 0. 0. 0. 0. 0. 0. 0. 0. 0.
      0. 0. 0. 0. 0. 0. 0. 1.23456791e-002 0. 0. 0. 0. 0. 0. 0.
      1.23456791e-002 0. 0. 0. 0. 0. 0. 0. 0. 0. 0. 0. 0. 0. 0. 0. 0. 0.
      0. 0. 0. 0. 0. 0. 0. 0. 0. 1.23456791e-002 0. 0. 0. 0. 0. 0. 0. 0.
      1.23456791e-002 0. 1.23456791e-002 0. 0. 0. 0. 0. 0. 0. 0. 0. 0.
      1.23456791e-002 1.23456791e-002 0. 0. 0. 0. 0. 0. 0. 0. 0. 0. 0.
      0. 0. 0. 0. 0. 0. 0. 0. 0. 0. 0. 0. 0. 0. 0. 0. 0. 0. 0.
      1.23456791e-002 0. 0. 0. 0. 0. 0. 0. 0. 0. 0. 2.46913582e-002 0.
      0. 0. 0. 0. 0. 0. 0. 0. 0. 0. 0. 0. 0. 0. 0. 0. 0. 0. 0.
      1.23456791e-002 0. 0. 0. 0. 0. 0. 0. 0. 0. 1.23456791e-002 0. 0.
      0. 0. 0. 0. 0. 1.23456791e-002 0. 0. 0. 0. 1.23456791e-002 0.
      1.23456791e-002 0. 0. 0. 0. 1.23456791e-002 0. 0. 0. 0. 0. 0. 0.
      0. 0. 0. 0. 0. 0. 0. 0. 0. 0. 0. 0. 0. 0. 0. 0. 0. 0. 0. 0. 0. 0.
      1.23456791e-002 0. 0. 0. 0. 0. 0. 0. 0. 0. 0. 0. 0. 0. 0. 0. 0. 0.
      0. 1.23456791e-002 0. 0. 0. 1.23456791e-002 0. 0. 0. 0. 0.
      1.23456791e-002 0. 0. 0. 0. 0. 0. 0. 1.23456791e-002 0. 0. 0. 0.
      0. 0. 0. 0. 0. 0. 0. 0. 0. 0. 0. 0. 0. 1.23456791e-002 0. 0. 0. 0.
      0. 0. 0. 0. 0. 0. 0. 0. 0. 0. 1.23456791e-002 0. 0. 0.
      2.46913582e-002 0. 0. 0. 0. 0. 0. 0. 0. 0. 0. 0. 0. 0. 0. 0. 0. 0.
      0. 0. 0. 0. 0. 0. 0. 0. 0. 0. 0. 0. 0. 0. 0. 0. 0. 0. 0. 0. 0. 0.
      0. 0. 0. 1.23456791e-002 0. 0. 0. 0. 0. 0. 0. 0. 0. 0. 0. 0. 0. 0.
      0. 0. 0. 0. 0. 0. 0. 0. 0. 0. 1.23456791e-002 0. 0. 0. 0. 0. 0. 0.
      0. 0. 0. 0. 0. 0. 0. 0. 0. 0. 0. 0. 0. 0. 0. 0. 0. 0. 0. 0. 0. 0.
      0. 1.23456791e-002 0. 0. 0. 0. 0. 0. 1.23456791e-002 0. 0. 0. 0.
      0. 0. 0. 0. 0. 0. 0. 0. 0. 1.23456791e-002 0. 0. 0. 0. 0. 0. 0. 0.
      0. 0. 0. 0. 0. 0. 0. 0. 0. 0. 0. 0. 0. 1.23456791e-002 0. 0. 0. 0.
      1.23456791e-002 0. 0. 1.23456791e-002 0. 0. 0. 0. 0. 0.
      1.23456791e-002 1.23456791e-002 0. 0. 0. 0. 0. 0. 0. 0. 0. 0. 0.
      0. 0. 0. 0. 0. 0. 1.23456791e-002 1.23456791e-002 0. 0.
      1.23456791e-002 0. 1.23456791e-002 0. 0. 0. 0. 0. 0. 0. 0. 0. 0.
      0. 0. 0. 0. 0. 0. 0. 0. 0. 0. 0. 0. 0. 0. 0. 0. 0. 0. 0. 0. 0. 0.
      0. 0. 0. 0. 0. 0. 0. 0. 0. 0. 0. 1.23456791e-002 0. 0. 0. 0. 0. 0.
      0. 0. 0. 0. 0. 0. 0. 1.23456791e-002 0. 0. 0. 1.23456791e-002 0.
      1.23456791e-002 0. 0. 0. 0. 0. 0.</_>
    <_>
      0. 0. 0. 0. 0. 0. 0. 0. 9.43396240e-003 0. 0. 0. 0. 0. 0.
      9.43396240e-003 0. 0. 0. 0. 0. 0. 0. 0. 0. 0. 0. 0. 0. 0. 0. 0. 0.
      0. 0. 0. 0. 0. 0. 0. 0. 0. 0. 0. 1.88679248e-002 0.
      9.43396240e-003 0. 0. 0. 0. 0. 0. 0. 0. 0. 0. 0. 0. 0. 0. 0. 0. 0.
      0. 0. 0. 0. 0. 0. 0. 0. 0. 0. 0. 0. 0. 0. 0. 0. 0. 0. 0. 0. 0. 0.
      0. 0. 0. 0. 0. 0. 0. 0. 9.43396240e-003 0. 0. 0. 0. 0. 0. 0.
      9.43396240e-003 0. 0. 0. 0. 0. 0. 0. 0. 9.43396240e-003 0. 0. 0.
      9.43396240e-003 0. 0. 0. 0. 9.43396240e-003 0. 0. 0. 0. 0.
      9.43396240e-003 9.43396240e-003 0. 0. 0. 0. 0. 9.43396240e-003 0.
      0. 0. 0. 0. 0. 0. 0. 0. 9.43396240e-003 0. 0. 0. 9.43396240e-003
      0. 0. 0. 0. 0. 0. 0. 0. 0. 0. 0. 0. 0. 0. 0. 0. 0. 0. 0. 0. 0.
      9.43396240e-003 0. 0. 0. 9.43396240e-003 0. 0. 0. 0. 0. 0. 0. 0.
      0. 0. 0. 0. 0. 0. 0. 0. 0. 0. 0. 0. 0. 0. 9.43396240e-003 0. 0. 0.
      0. 0. 0. 0. 0. 0. 0. 0. 0. 0. 0. 9.43396240e-003 0. 0. 0. 0. 0. 0.
      0. 0. 0. 0. 0. 9.43396240e-003 0. 0. 0. 0. 0. 0. 0. 0. 0. 0. 0. 0.
      0. 0. 0. 0. 0. 9.43396240e-003 0. 0. 0. 0. 0. 0. 9.43396240e-003
      0. 0. 0. 0. 0. 0. 0. 0. 0. 0. 0. 0. 0. 9.43396240e-003 0. 0. 0. 0.
      0. 0. 0. 0. 0. 0. 0. 0. 0. 0. 0. 0. 9.43396240e-003 0. 0. 0. 0. 0.
      0. 0. 0. 0. 0. 0. 0. 0. 0. 0. 0. 0. 0. 0. 0. 0. 0. 9.43396240e-003
      0. 0. 0. 0. 0. 0. 0. 0. 0. 0. 0. 0. 0. 0. 0. 0. 0. 0. 0. 0. 0.
      9.43396240e-003 0. 0. 9.43396240e-003 0. 0. 0. 0. 0. 0. 0. 0. 0.
      0. 0. 0. 1.88679248e-002 0. 9.43396240e-003 0. 0. 0. 0. 0.
      9.43396240e-003 0. 0. 0. 9.43396240e-003 0. 0. 9.43396240e-003 0.
      0. 0. 0. 0. 0. 0. 0. 0. 0. 0. 0. 0. 0. 0. 0. 0. 0. 0. 0. 0. 0. 0.
      0. 9.43396240e-003 0. 0. 0. 0. 0. 0. 0. 0. 0. 0. 0. 0. 0. 0. 0. 0.
      0. 0. 0. 0. 0. 0. 0. 9.43396240e-003 0. 0. 0. 0. 0. 0. 0. 0. 0. 0.
      0. 0. 0. 0. 0. 0. 0. 1.88679248e-002 0. 0. 0. 0. 0. 0. 0. 0. 0. 0.
      0. 0. 0. 0. 0. 0. 0. 0. 0. 0. 0. 0. 0. 0. 0. 0. 0. 0. 0. 0. 0. 0.
      0. 0. 0. 0. 9.43396240e-003 0. 0. 9.43396240e-003 0. 0. 0. 0. 0.
      0. 0. 0. 0. 0. 0. 0. 0. 0. 2.83018872e-002 0. 0. 0.
      9.43396240e-003 2.83018872e-002 0. 0. 0. 0. 9.43396240e-003 0. 0.
      0. 0. 9.43396240e-003 0. 0. 0. 0. 0. 0. 0. 0. 0. 0.
      1.88679248e-002 0. 0. 0. 0. 0. 0. 0. 0. 0. 0. 0. 0. 0. 0. 0. 0.
      9.43396240e-003 9.43396240e-003 0. 0. 0. 0. 0. 0. 0. 0. 0. 0.
      9.43396240e-003 0. 0. 0. 0. 0. 0. 0. 0. 0. 0. 0. 0. 0. 0. 0. 0.
      9.43396240e-003 0. 0. 0. 9.43396240e-003 0. 0. 0. 0. 0. 0. 0. 0.
      0. 0. 0. 0. 9.43396240e-003 0. 0. 0. 0. 0. 0. 0. 0. 0. 0. 0. 0.
      9.43396240e-003 0. 9.43396240e-003 9.43396240e-003 0. 0. 0. 0. 0.
      0. 0. 0. 0. 0. 0. 0. 0. 9.43396240e-003 0. 0. 0. 0. 0. 0. 0. 0. 0.
      0. 0. 0. 0. 0. 0. 0. 0. 0. 9.43396240e-003 9.43396240e-003 0. 0.
      0. 0. 0. 0. 0. 0. 0. 0. 0. 0. 0. 0. 0. 0. 0. 0. 0. 0.
      9.43396240e-003 0. 0. 0. 0. 0. 0. 0. 0. 9.43396240e-003 0. 0. 0.
      0. 0. 9.43396240e-003 0. 0. 0. 0. 9.43396240e-003 0.
      1.88679248e-002 0. 9.43396240e-003 9.43396240e-003 0. 0. 0. 0. 0.
      0. 0. 0. 9.43396240e-003 0. 0. 0. 0. 0. 0. 0. 0. 0. 0. 0. 0. 0. 0.
      0. 0. 0. 0. 9.43396240e-003 0. 0. 0. 1.88679248e-002 0. 0.
      9.43396240e-003 0. 9.43396240e-003 0. 9.43396240e-003 0. 0. 0. 0.
      0. 0. 0. 0. 0. 0. 0. 0. 0. 0. 0. 0. 0. 0. 0. 0. 0. 0. 0. 0. 0. 0.
      0. 0. 0. 0. 0. 0. 0. 0. 0. 0. 0. 0. 0. 0. 0. 9.43396240e-003 0. 0.
      0. 0. 0. 0. 0. 0. 9.43396240e-003 0. 0. 0. 0. 0. 0. 0. 0.
      9.43396240e-003 0. 0. 0. 0. 9.43396240e-003 9.43396240e-003 0. 0.
      0. 0. 0. 0. 0. 0. 9.43396240e-003 0. 0. 0. 0. 0. 0.
      1.88679248e-002 0. 0. 0. 0. 0. 0. 0. 0. 0. 0. 0. 0. 0. 0. 0. 0. 0.
      0. 0. 0. 0. 0. 9.43396240e-003 0. 0. 0. 0. 0. 0. 0. 0. 0. 0.
      9.43396240e-003 0. 0. 0. 0. 0. 0. 0. 0. 0. 0. 0. 0. 0. 0. 0. 0. 0.
      9.43396240e-003 0. 0. 0. 0. 0. 0. 0. 0. 0. 0. 9.43396240e-003 0.
      0. 0. 0. 0. 0. 9.43396240e-003 0. 0. 0. 0. 0. 0. 0. 0.
      9.43396240e-003 0. 0. 0. 0. 0. 0. 0. 0. 0. 0. 0. 0. 0. 0. 0. 0. 0.
      0. 0. 0. 0. 0. 0. 0. 0. 0. 9.43396240e-003 0. 0. 0. 0. 0. 0. 0. 0.
      9.43396240e-003 0. 0. 0. 0. 0. 0. 0. 9.43396240e-003 0. 0. 0. 0.
      0. 0. 0. 0. 0. 0. 0. 0. 0. 0. 0. 0. 0. 0. 0. 9.43396240e-003 0. 0.
      0. 0. 0. 0. 0. 0. 9.43396240e-003 0. 0. 0. 9.43396240e-003 0. 0.
      1.88679248e-002 0. 9.43396240e-003 0. 0. 0. 0. 0. 0. 0. 0. 0. 0.
      0. 9.43396240e-003 0. 0. 0. 0. 0. 0. 0. 9.43396240e-003 0. 0. 0.
      0. 0. 0. 2.83018872e-002 0. 0. 0. 0. 0. 0. 0. 0. 0. 0. 0. 0. 0. 0.
      0. 0. 0. 0. 0. 0. 0. 0. 0. 0. 0. 0. 9.43396240e-003 0.</_>
    <_>
      0. 0. 0. 0. 7.14285718e-003 0. 0. 7.14285718e-003 0. 0. 0. 0. 0.
      0. 0. 0. 0. 0. 0. 0. 0. 7.14285718e-003 0. 0. 0. 0. 0. 0. 0. 0. 0.
      1.42857144e-002 0. 1.42857144e-002 0. 0. 0. 0. 0. 0. 0.
      7.14285718e-003 0. 0. 0. 0. 7.14285718e-003 0. 7.14285718e-003 0.
      0. 0. 0. 0. 0. 0. 7.14285718e-003 0. 0. 0. 0. 0. 7.14285718e-003
      0. 0. 0. 0. 0. 0. 0. 0. 0. 0. 0. 0. 0. 0. 0. 0. 0. 0.
      7.14285718e-003 0. 0. 0. 0. 0. 0. 0. 0. 0. 0. 7.14285718e-003
      7.14285718e-003 0. 0. 0. 0. 0. 0. 1.42857144e-002 0. 0. 0. 0. 0.
      0. 0. 0. 7.14285718e-003 7.14285718e-003 0. 0. 0. 0. 0. 0. 0. 0.
      0. 0. 0. 0. 0. 0. 0. 0. 0. 0. 0. 0. 0. 0. 0. 0. 0. 0. 0. 0. 0. 0.
      0. 0. 0. 0. 0. 0. 0. 0. 0. 0. 0. 0. 0. 0. 0. 0. 0. 0. 0. 0. 0.
      7.14285718e-003 0. 7.14285718e-003 0. 7.14285718e-003 0. 0. 0. 0.
      0. 0. 0. 0. 0. 0. 7.14285718e-003 7.14285718e-003 0. 0. 0. 0. 0.
      0. 0. 0. 0. 0. 0. 0. 0. 0. 0. 0. 0. 0. 0. 0. 0. 0. 0. 0. 0. 0. 0.
      0. 7.14285718e-003 0. 0. 0. 0. 0. 0. 0. 0. 0. 0. 0. 0. 0. 0.
      7.14285718e-003 0. 0. 0. 0. 0. 0. 0. 0. 0. 0. 0. 0. 0. 0. 0. 0.
      7.14285718e-003 7.14285718e-003 0. 0. 0. 0. 0. 0. 0. 0. 0. 0. 0.
      7.14285718e-003 0. 0. 0. 0. 0. 7.14285718e-003 0. 0. 0. 0. 0. 0.
      0. 0. 0. 0. 0. 0. 0. 0. 0. 0. 0. 0. 0. 0. 7.14285718e-003
      7.14285718e-003 0. 0. 0. 0. 0. 0. 7.14285718e-003 0.
      7.14285718e-003 7.14285718e-003 1.42857144e-002 0. 0.
      7.14285718e-003 0. 0. 0. 0. 7.14285718e-003 0. 0. 0. 0. 0. 0. 0.
      0. 7.14285718e-003 0. 1.42857144e-002 0. 0. 0. 0. 0. 0. 0.
      7.14285718e-003 0. 0. 0. 0. 0. 0. 0. 0. 0. 7.14285718e-003 0.
      7.14285718e-003 0. 7.14285718e-003 0. 7.14285718e-003 0.
      7.14285718e-003 0. 7.14285718e-003 0. 0. 7.14285718e-003 0. 0. 0.
      0. 7.14285718e-003 0. 0. 0. 0. 0. 0. 0. 0. 7.14285718e-003 0. 0.
      0. 0. 0. 0. 0. 0. 0. 7.14285718e-003 0. 0. 7.14285718e-003 0. 0.
      0. 0. 1.42857144e-002 0. 0. 0. 0. 0. 0. 0. 0. 0. 0. 0. 0.
      7.14285718e-003 0. 0. 7.14285718e-003 0. 0. 0. 0. 0. 0. 0. 0. 0.
      0. 0. 0. 7.14285718e-003 0. 0. 0. 0. 0. 7.14285718e-003 0. 0. 0.
      0. 0. 0. 0. 0. 0. 0. 0. 0. 0. 0. 7.14285718e-003 0. 0. 0. 0.
      7.14285718e-003 0. 0. 7.14285718e-003 0. 0. 0. 0. 0.
      7.14285718e-003 0. 0. 0. 7.14285718e-003 7.14285718e-003 0. 0. 0.
      0. 0. 7.14285718e-003 0. 0. 7.14285718e-003 0. 0. 0. 0. 0. 0. 0.
      0. 0. 0. 0. 0. 0. 0. 0. 0. 0. 0. 0. 0. 0. 7.14285718e-003 0. 0. 0.
      0. 0. 0. 0. 0. 0. 0. 0. 0. 0. 0. 7.14285718e-003 0. 0. 0. 0. 0. 0.
      0. 0. 0. 0. 0. 0. 0. 0. 0. 0. 0. 0. 0. 0. 0. 0. 0. 0. 0. 0. 0. 0.
      0. 0. 0. 7.14285718e-003 0. 7.14285718e-003 0. 0. 0.
      7.14285718e-003 0. 0. 0. 0. 7.14285718e-003 0. 0. 0. 0. 0. 0. 0.
      0. 7.14285718e-003 0. 0. 0. 0. 0. 0. 0. 7.14285718e-003 0.
      1.42857144e-002 0. 7.14285718e-003 0. 0. 0. 0. 0. 0. 0. 0. 0. 0.
      0. 0. 0. 0. 7.14285718e-003 0. 0. 0. 0. 0. 7.14285718e-003 0. 0.
      0. 0. 0. 0. 0. 0. 0. 0. 0. 0. 0. 0. 7.14285718e-003 0. 0. 0. 0. 0.
      0. 0. 0. 0. 0. 0. 0. 0. 0. 0. 0. 0. 0. 0. 0. 0. 7.14285718e-003 0.
      0. 0. 0. 0. 0. 0. 0. 7.14285718e-003 0. 0. 0. 0. 0. 0. 0. 0. 0.
      7.14285718e-003 0. 0. 0. 0. 0. 0. 0. 0. 0. 0. 0. 0. 0. 0. 0. 0.
      7.14285718e-003 0. 0. 0. 0. 0. 0. 0. 0. 0. 0. 0. 7.14285718e-003
      0. 7.14285718e-003 0. 0. 0. 0. 0. 0. 0. 0. 0. 0. 0. 0. 0. 0. 0. 0.
      0. 7.14285718e-003 0. 0. 0. 0. 0. 0. 0. 7.14285718e-003 0. 0. 0.
      0. 7.14285718e-003 0. 0. 0. 0. 0. 0. 0. 7.14285718e-003
      7.14285718e-003 0. 0. 0. 0. 0. 0. 0. 0. 7.14285718e-003
      7.14285718e-003 0. 0. 0. 0. 0. 0. 7.14285718e-003 0.
      7.14285718e-003 0. 0. 0. 0. 0. 0. 0. 0. 0. 0. 0. 0. 0. 0. 0. 0. 0.
      0. 0. 0. 0. 0. 0. 0. 0. 0. 0. 2.14285720e-002 7.14285718e-003 0.
      0. 0. 0. 0. 0. 0. 0. 0. 0. 0. 0. 0. 7.14285718e-003 0.
      7.14285718e-003 0. 0. 0. 0. 0. 0. 0. 7.14285718e-003 0. 0. 0. 0.
      0. 0. 0. 0. 1.42857144e-002 0. 7.14285718e-003 7.14285718e-003 0.
      0. 0. 0. 7.14285718e-003 7.14285718e-003 0. 7.14285718e-003 0. 0.
      7.14285718e-003 0. 0. 0. 0. 0. 0. 0. 0. 0. 0. 0. 0.
      7.14285718e-003 0. 7.14285718e-003 0. 0. 0. 0. 7.14285718e-003
      7.14285718e-003 0. 0. 0. 0. 0. 0. 0. 0. 0. 0. 7.14285718e-003 0.
      0. 0. 0. 0. 0. 0. 0. 0. 0. 0. 0. 0. 0. 0. 0. 0. 0. 7.14285718e-003
      0. 0. 0. 0. 0. 0. 0. 0. 0. 0. 0. 0. 0. 0. 1.42857144e-002 0. 0. 0.
      0. 0. 0. 0. 0. 7.14285718e-003 7.14285718e-003 0. 0. 0.
      7.14285718e-003 0. 0. 0. 0. 0. 0. 0. 7.14285718e-003 0. 0. 0. 0.
      0. 0. 0. 0. 0. 0. 0. 0. 0. 7.14285718e-003 0. 0. 7.14285718e-003
      0. 0. 0. 7.14285718e-003 0. 0. 0. 0. 0. 0. 0. 0. 0. 0. 0. 0. 0. 0.
      7.14285718e-003 0. 7.14285718e-003 7.14285718e-003 0. 0. 0. 0. 0.
      0. 0. 0. 0. 7.14285718e-003 0. 0. 0. 0. 0. 0. 0. 0. 0.
      7.14285718e-003 0. 0. 0. 0. 0. 0. 0. 0. 0. 0. 0. 0. 0.
      7.14285718e-003 0. 7.14285718e-003 0. 0. 7.14285718e-003 0. 0. 0.
      0. 7.14285718e-003 0. 0. 0. 0. 0. 0. 7.14285718e-003 0.
      7.14285718e-003 0. 7.14285718e-003 0. 7.14285718e-003 0. 0. 0. 0.
      0. 0. 0. 0. 0. 0. 0. 0. 0. 0. 0. 0. 0. 0. 0. 0.</_>
    <_>
      0. 0. 0. 0. 0. 0. 0. 0. 0. 0. 0. 0. 0. 0. 0. 1.31578948e-002 0. 0.
      0. 0. 0. 0. 0. 0. 0. 0. 0. 0. 0. 0. 0. 0. 0. 0. 0. 1.31578948e-002
      0. 0. 0. 0. 0. 0. 0. 0. 0. 0. 0. 0. 0. 0. 0. 0. 0. 0. 0. 0. 0. 0.
      0. 0. 0. 0. 0. 0. 0. 0. 0. 0. 0. 0. 0. 0. 0. 0. 1.31578948e-002 0.
      0. 0. 0. 0. 0. 0. 0. 0. 0. 0. 0. 0. 0. 0. 0. 0. 0. 0. 0. 0.
      1.31578948e-002 0. 0. 0. 0. 0. 0. 0. 0. 0. 0. 0. 0. 0. 0. 0. 0. 0.
      0. 0. 0. 0. 0. 1.31578948e-002 0. 0. 0. 0. 0. 0. 0. 0. 0. 0. 0. 0.
      0. 0. 0. 0. 0. 0. 0. 0. 0. 0. 0. 1.31578948e-002 0. 0. 0. 0. 0. 0.
      0. 0. 1.31578948e-002 0. 0. 0. 0. 0. 0. 0. 0. 0. 0. 0. 0. 0. 0. 0.
      0. 0. 0. 0. 0. 0. 0. 0. 0. 0. 1.31578948e-002 0. 1.31578948e-002
      0. 1.31578948e-002 0. 0. 0. 0. 0. 0. 0. 0. 0. 0. 0. 0. 0. 0. 0. 0.
      0. 0. 0. 1.31578948e-002 0. 0. 0. 0. 0. 0. 0. 0. 0. 0. 0. 0. 0. 0.
      0. 2.63157897e-002 0. 0. 0. 0. 0. 1.31578948e-002 0. 0. 0. 0. 0.
      1.31578948e-002 0. 0. 0. 1.31578948e-002 1.31578948e-002 0. 0. 0.
      0. 0. 0. 0. 0. 0. 0. 0. 0. 0. 0. 0. 0. 0. 0. 0. 0. 0. 0. 0. 0.
      1.31578948e-002 0. 0. 0. 0. 0. 0. 0. 0. 0. 0. 0. 0. 0. 0. 0. 0. 0.
      0. 0. 0. 0. 0. 0. 0. 0. 0. 0. 0. 0. 0. 0. 0. 0. 0. 0. 0. 0. 0. 0.
      1.31578948e-002 0. 1.31578948e-002 0. 0. 0. 0. 0. 0. 0. 0. 0. 0.
      0. 0. 0. 0. 0. 0. 0. 0. 0. 0. 1.31578948e-002 0. 0. 0. 0. 0. 0. 0.
      1.31578948e-002 0. 0. 1.31578948e-002 0. 0. 0. 0. 0. 0. 0. 0. 0.
      0. 0. 0. 0. 1.31578948e-002 0. 0. 0. 0. 0. 0. 0. 0. 0. 0. 0. 0. 0.
      0. 0. 0. 0. 0. 0. 0. 0. 0. 0. 1.31578948e-002 0. 0. 0. 0. 0.
      1.31578948e-002 0. 0. 0. 0. 2.63157897e-002 0. 0. 0. 0. 0. 0. 0.
      0. 0. 0. 0. 0. 0. 1.31578948e-002 0. 0. 0. 0. 0. 0.
      1.31578948e-002 0. 0. 0. 0. 0. 1.31578948e-002 0. 0. 0. 0. 0. 0.
      0. 0. 0. 0. 0. 1.31578948e-002 0. 0. 0. 0. 0. 0. 0. 0. 0. 0. 0. 0.
      0. 1.31578948e-002 0. 0. 0. 0. 0. 0. 0. 1.31578948e-002
      1.31578948e-002 0. 0. 0. 0. 0. 0. 0. 2.63157897e-002 0.
      1.31578948e-002 0. 0. 0. 0. 0. 0. 0. 0. 1.31578948e-002
      1.31578948e-002 0. 0. 1.31578948e-002 0. 0. 0. 0. 1.31578948e-002
      0. 0. 0. 0. 0. 0. 0. 0. 0. 0. 0. 0. 0. 0. 0. 0. 1.31578948e-002 0.
      0. 0. 0. 0. 0. 0. 0. 0. 0. 0. 0. 0. 0. 0. 0. 0. 0. 0. 0. 0. 0. 0.
      0. 1.31578948e-002 0. 0. 0. 0. 0. 0. 0. 0. 0. 0. 0. 0. 0. 0. 0. 0.
      1.31578948e-002 0. 1.31578948e-002 1.31578948e-002 0. 0.
      1.31578948e-002 0. 1.31578948e-002 0. 0. 0. 0. 0. 0. 0. 0. 0. 0.
      0. 0. 0. 0. 0. 0. 0. 0. 0. 0. 0. 0. 0. 0. 0. 0. 0. 0. 0. 0. 0. 0.
      0. 0. 0. 0. 0. 0. 0. 0. 1.31578948e-002 1.31578948e-002 0. 0. 0.
      0. 0. 0. 0. 0. 0. 0. 0. 0. 0. 1.31578948e-002 0. 0. 0. 0. 0. 0. 0.
      0. 0. 0. 0. 0. 0. 0. 0. 0. 0. 0. 0. 0. 0. 0. 0. 0. 0. 0. 0. 0. 0.
      0. 0. 0. 0. 0. 0. 0. 0. 0. 0. 0. 0. 0. 0. 1.31578948e-002 0. 0. 0.
      0. 0. 0. 0. 0. 0. 0. 0. 0. 0. 0. 0. 0. 0. 0. 0. 0. 0. 0. 0. 0. 0.
      0. 0. 0. 0. 0. 0. 0. 0. 0. 0. 0. 0. 0. 0. 0. 0. 1.31578948e-002 0.
      0. 0. 0. 0. 0. 0. 0. 0. 0. 0. 0. 0. 0. 0. 0. 0. 0. 0. 0. 0. 0. 0.
      0. 0. 0. 0. 0. 0. 0. 0. 0. 0. 0. 0. 0. 0. 0. 0. 0. 0. 0. 0. 0. 0.
      0. 0. 0. 0. 0. 0. 2.63157897e-002 0. 0. 0. 0. 0. 0. 0. 0. 0. 0. 0.
      0. 2.63157897e-002 0. 1.31578948e-002 0. 0. 0. 0. 0. 0. 0. 0. 0.
      0. 0. 0. 0. 0. 0. 0. 1.31578948e-002 0. 0. 0. 0. 0. 0. 0. 0. 0. 0.
      0. 0. 0. 0. 0. 0. 1.31578948e-002 0. 0. 0. 0. 1.31578948e-002 0.
      0. 0. 0. 0. 0. 0. 0. 0. 0. 0. 0. 0. 1.31578948e-002 0. 0. 0. 0. 0.
      0. 0. 0. 0. 0. 0. 0. 1.31578948e-002 0. 0. 0. 0. 0. 0. 0.
      1.31578948e-002 0. 0. 0. 0. 1.31578948e-002 1.31578948e-002 0. 0.
      0. 0. 0. 0. 0. 0. 0. 0. 0. 0. 0. 0. 0. 0. 1.31578948e-002 0. 0. 0.
      0. 0. 0. 0. 0. 0. 0. 0. 0. 0. 0. 0. 0. 0. 0. 0. 0. 0. 0. 0. 0. 0.
      1.31578948e-002 0. 0. 0. 0. 0. 0. 0. 0. 0. 0. 0. 0. 0. 0. 0. 0. 0.
      0. 1.31578948e-002 0. 0. 0. 0. 0. 0. 0. 0. 0. 0. 0. 0.
      1.31578948e-002 0. 0. 0. 0. 0. 0. 0. 0. 0. 0. 0. 0. 0. 0.
      1.31578948e-002 0. 0. 0. 0. 0. 0. 0. 0. 0. 0. 0. 0. 0. 0. 0. 0. 0.
      0. 0. 0. 0. 0. 0. 0. 1.31578948e-002 0. 0. 0. 0. 0. 0.
      1.31578948e-002 0. 0. 0. 0. 0. 0. 0. 0. 0. 0. 0. 0. 0. 0. 0.
      1.31578948e-002 0. 0. 0. 0. 0. 0. 0. 0. 0. 0. 0. 0.
      1.31578948e-002 0. 0. 0. 0. 0. 0. 0. 0. 0. 0. 0. 0. 0. 0. 0. 0. 0.
      0. 0.</_>
    <_>
      1.02040814e-002 0. 0. 0. 0. 0. 0. 0. 0. 0. 0. 0. 0. 0. 0. 0. 0. 0.
      0. 0. 0. 0. 1.02040814e-002 0. 0. 0. 0. 0. 0. 0. 0.
      1.02040814e-002 0. 0. 0. 0. 0. 0. 1.02040814e-002 0. 0. 0.
      1.02040814e-002 1.02040814e-002 0. 0. 0. 1.02040814e-002 0. 0. 0.
      0. 0. 0. 0. 1.02040814e-002 1.02040814e-002 0. 1.02040814e-002 0.
      0. 0. 0. 0. 0. 0. 0. 0. 0. 0. 0. 1.02040814e-002 0. 0. 0. 0. 0. 0.
      0. 0. 0. 0. 0. 0. 0. 1.02040814e-002 0. 0. 0. 0. 0. 0. 0. 0. 0. 0.
      0. 0. 0. 0. 0. 0. 0. 0. 0. 0. 0. 0. 0. 0. 0. 0. 0. 0. 0. 0. 0.
      1.02040814e-002 1.02040814e-002 0. 0. 0. 0. 0. 0. 0. 0. 0. 0. 0.
      0. 0. 0. 0. 0. 0. 0. 0. 0. 0. 1.02040814e-002 0. 0. 0. 0. 0. 0. 0.
      0. 0. 0. 1.02040814e-002 0. 0. 0. 0. 0. 0. 0. 0. 0.
      1.02040814e-002 0. 0. 0. 1.02040814e-002 0. 0. 0. 0.
      2.04081628e-002 0. 0. 2.04081628e-002 0. 0. 0. 1.02040814e-002 0.
      0. 0. 0. 0. 0. 1.02040814e-002 0. 0. 0. 0. 0. 0. 0. 0. 0. 0. 0. 0.
      0. 0. 0. 0. 0. 0. 0. 0. 0. 1.02040814e-002 0. 0. 0. 0. 0. 0. 0. 0.
      0. 0. 0. 0. 0. 0. 0. 0. 0. 0. 0. 0. 0. 0. 0. 0. 0. 0. 0. 0.
      1.02040814e-002 0. 0. 0. 0. 0. 0. 0. 0. 0. 1.02040814e-002 0. 0.
      0. 0. 0. 1.02040814e-002 0. 0. 0. 0. 0. 0. 0. 0. 0. 0. 0.
      1.02040814e-002 1.02040814e-002 0. 2.04081628e-002 0. 0. 0. 0. 0.
      0. 0. 0. 0. 0. 0. 0. 0. 0. 1.02040814e-002 0. 0. 1.02040814e-002
      0. 0. 0. 0. 0. 0. 0. 0. 0. 0. 0. 0. 0. 0. 0. 0. 1.02040814e-002
      1.02040814e-002 1.02040814e-002 0. 0. 0. 0. 0. 0. 0. 0.
      1.02040814e-002 0. 0. 0. 0. 0. 1.02040814e-002 0. 0. 0. 0. 0. 0.
      0. 0. 0. 0. 0. 0. 0. 0. 0. 0. 0. 0. 0. 0. 0. 0. 1.02040814e-002 0.
      0. 0. 0. 0. 0. 1.02040814e-002 0. 0. 0. 0. 0. 0. 1.02040814e-002
      0. 0. 0. 0. 0. 0. 0. 0. 0. 0. 0. 0. 0. 0. 0. 0. 0. 0. 0. 0. 0. 0.
      0. 0. 0. 0. 0. 0. 0. 0. 0. 0. 0. 0. 0. 0. 0. 0. 0. 0. 0. 0. 0. 0.
      0. 0. 0. 0. 0. 0. 0. 0. 0. 0. 0. 0. 0. 0. 0. 1.02040814e-002 0. 0.
      0. 0. 0. 0. 0. 0. 0. 0. 0. 0. 0. 0. 0. 0. 0. 0. 0. 1.02040814e-002
