<?xml version="1.0"?>
<opencv_storage>
<my_svm type_id="opencv-ml-svm">
  <svm_type>C_SVC</svm_type>
  <kernel><type>LINEAR</type></kernel>
  <C>1.</C>
  <term_criteria><epsilon>2.2204460492503131e-016</epsilon>
    <iterations>1000</iterations></term_criteria>
  <var_all>500</var_all>
  <var_count>500</var_count>
  <class_count>2</class_count>
  <class_labels type_id="opencv-matrix">
    <rows>1</rows>
    <cols>2</cols>
    <dt>i</dt>
    <data>
      -1 1</data></class_labels>
  <sv_total>1</sv_total>
  <support_vectors>
    <_>
      1.38337379e-002 -4.06305045e-002 1.93557143e-002 3.11126467e-003
      2.55030077e-002 -6.97830183e-005 -9.26441327e-003 -1.18946452e-002
      -2.28824629e-003 3.64244804e-002 8.22920538e-003 3.05701308e-002
      -4.22035232e-002 2.70617213e-002 3.37151065e-002 -2.12758295e-002
      1.31710405e-002 -8.25359579e-003 -1.28377439e-003 8.05134419e-003
      4.22914252e-002 4.35620360e-002 -1.23627915e-003 -2.78098304e-002
      -2.80270856e-002 3.49191576e-002 4.01763804e-002 3.59054953e-002
      -4.54195589e-002 3.14393118e-002 7.27052093e-002 -2.28490680e-002
      3.00094904e-003 1.19628361e-003 -7.05210201e-004 4.15394939e-002
      5.19150868e-003 -1.09165549e-001 -1.18259601e-002 3.41541655e-002
      -6.83157006e-003 -4.18875506e-003 2.17548609e-002 -8.19223654e-003
      5.81765249e-002 -2.00203843e-002 -1.39053799e-002 2.12952718e-002
      -8.24043434e-003 -4.81395400e-004 2.65737548e-002 -2.05740426e-002
      1.79442931e-002 4.56518270e-002 1.30430348e-002 -1.26892542e-002
      -1.91821977e-002 3.19839716e-002 -1.80426091e-002 5.04255388e-003
      1.64102092e-002 2.14442406e-002 2.77801789e-002 -1.63474353e-003
      -3.44717577e-002 1.33738387e-002 2.73249410e-002 5.64276055e-003
      -3.83485518e-002 -2.15333700e-003 9.25502274e-003 1.44533496e-002
      -1.00732995e-002 -6.04778044e-002 -4.54809368e-002
      -1.62443686e-002 2.43715644e-002 4.89617065e-002 -5.94725891e-004
      -6.75571791e-004 -7.21124327e-003 -1.31009631e-002
      -9.29739734e-004 9.91757680e-003 3.89404297e-002 6.65319106e-003
      -7.97417597e-004 2.68706791e-002 3.24722193e-002 -2.09330432e-002
      -6.14170963e-003 1.90692972e-002 2.55628936e-002 3.25202979e-002
      2.32332982e-002 3.70511599e-002 -2.90822168e-003 -2.25189906e-002
      -3.17146890e-002 -8.24692324e-002 6.73261937e-003 4.84504104e-002
      3.54035571e-002 6.18434213e-002 5.22556994e-003 -2.56020706e-002
      -4.74576373e-003 4.20970507e-002 -9.06532351e-003 2.58573219e-002
      -1.08999005e-002 -3.00540049e-002 5.39981388e-003 -2.65051592e-002
      3.38243321e-002 -2.76883803e-002 -3.90252634e-003 -1.75546687e-002
      3.74046601e-002 2.77412571e-002 -6.96952082e-003 -2.73905210e-002
      -1.47673534e-002 -1.22790048e-002 -4.14847024e-002 1.15660578e-002
      1.73183344e-003 3.12251505e-002 1.54893938e-003 -1.73006789e-003
      -2.40939446e-002 2.77224975e-003 9.57805105e-003 7.87874870e-003
      2.06199922e-002 6.96772635e-002 -3.07576042e-002 4.95131081e-003
      -1.47953108e-002 1.11124590e-002 -5.54289185e-002 4.35400056e-003
      -1.35022439e-002 9.70167760e-003 3.56388022e-003 -2.01396625e-002
      -1.39918756e-002 4.20941226e-002 5.22481464e-003 3.61789130e-002
      1.90817825e-002 -4.51134890e-002 5.64999320e-003 5.30839246e-003
      1.71723645e-004 8.08810722e-003 -3.98233496e-002 -3.17170843e-002
      -1.77352075e-002 -9.72553249e-003 -1.19680457e-003 1.10351611e-002
      -6.33024275e-002 6.29357295e-003 2.20848005e-002 -7.48754945e-003
      5.36315143e-003 1.93338655e-002 1.52136823e-002 2.25689057e-002
      5.30869253e-002 -1.20762002e-003 -3.15790884e-002 3.60456435e-003
      -1.11846963e-003 2.04802062e-002 -2.50339205e-003 1.71652175e-002
      2.06962116e-002 -1.22686150e-003 -6.51021674e-003 -4.34102044e-002
      5.18274382e-002 3.33678424e-002 4.78634436e-004 2.83330157e-002
      3.88788455e-003 7.77650799e-004 1.25723053e-002 1.45777510e-002
      1.69269647e-002 3.20112042e-004 5.09447269e-002 -5.37038371e-002
      -3.08450107e-002 6.83638314e-003 -1.12060541e-002 -2.08291621e-003
      -1.63818225e-002 2.02492923e-002 2.60194298e-002 -7.59528764e-003
      -5.91827594e-002 7.45971315e-003 -4.05108295e-002 -1.06079103e-002
      1.50493579e-002 3.65448892e-002 -3.84899438e-003 -3.25266421e-002
      2.79787276e-002 -4.33256663e-002 4.26605530e-002 -7.82877393e-003
      1.50941452e-002 -4.17567976e-002 -2.94704251e-002 1.37660550e-002
      -1.54390568e-002 3.89451869e-002 5.26462076e-003 2.75568087e-002
      -3.83270383e-002 -5.67510631e-003 1.25890365e-002 5.82041778e-002
      -1.55460602e-002 5.26871439e-003 -2.22999081e-002 -3.20576578e-002
      1.02886232e-003 4.47783172e-002 2.94404365e-002 -1.30839059e-002
      -2.44187340e-002 -1.40956603e-002 1.67719722e-002 3.36338319e-002
      4.58276086e-002 1.92149524e-002 3.99813578e-002 -3.01928911e-002
      -2.57418957e-002 3.27002592e-002 -4.74886559e-002 1.01649792e-004
      1.40572404e-002 1.36474241e-002 -2.02107169e-002 -3.15535418e-003
      2.61617149e-003 -9.40136760e-002 7.36808032e-003 -3.83105241e-002
      5.00666536e-002 -3.77372955e-003 1.62622333e-002 4.38943729e-002
      3.52789555e-003 -3.94169241e-002 -3.10276411e-002 6.35285536e-003
      1.09202648e-002 -3.85894179e-002 -3.86961624e-002 3.04021072e-002
      1.00596035e-002 -7.12808501e-003 -2.76200715e-002 2.94576883e-002
      1.04312999e-002 3.54074165e-002 1.06371483e-002 5.18895127e-003
      1.48827117e-002 1.40920803e-002 1.02269193e-002 6.49619382e-003
      -3.78282815e-002 -3.95806618e-002 1.67416204e-002 6.04181271e-003
      9.57547408e-003 -3.59831490e-002 -3.89276743e-002 -4.39066887e-002
      5.29962068e-004 3.38168466e-003 3.93856131e-002 1.48757203e-002
      -4.63612713e-002 1.73171628e-002 -1.57336816e-002 -1.06592607e-002
      -2.19479967e-002 -7.67291263e-002 2.52374895e-002 -1.78768262e-002
      4.21726629e-002 1.28132859e-002 2.93793473e-002 5.42876497e-003
      1.49736525e-002 -2.09124405e-002 7.15620117e-003 3.71353365e-002
      6.07795967e-003 2.89804786e-002 2.87513603e-002 -3.46314386e-002
      -2.83959135e-002 -2.19981279e-003 -3.55162993e-002 1.31355235e-002
      2.09363215e-002 -1.84658021e-002 -3.12552154e-002 -4.02202532e-002
      -5.21911085e-002 -2.83840131e-002 -3.20723429e-002
      -6.84194639e-003 -1.11185890e-002 1.37290573e-002 2.13674586e-002
      -2.44803447e-002 -1.03199529e-002 2.95051746e-002 2.24297284e-003
      2.40752622e-002 1.58886239e-002 -5.82138337e-002 3.55684082e-003
      5.44644035e-002 -5.75599773e-003 3.63494013e-003 8.66833958e-004
      1.64938811e-002 1.18527282e-002 -4.09514643e-003 -5.44232987e-002
      3.11205871e-002 -6.69145025e-004 -3.51280607e-002 -1.98490545e-002
      2.84584593e-002 2.70789936e-002 -1.47322342e-002 4.42617387e-002
      -1.32402184e-003 -6.50650039e-002 -2.85904687e-002 6.88365707e-003
      6.93072053e-003 2.86383256e-002 3.72974426e-002 -2.34501790e-002
      1.16437161e-002 7.08308024e-003 -2.17479672e-002 2.31023654e-002
      -1.12168323e-002 -4.85462993e-002 -7.57021643e-003
      -2.27281032e-003 4.44349088e-002 -6.11616895e-002 3.62373516e-002
      -1.55504327e-002 2.06008479e-002 -4.43862024e-004 2.10619830e-002
      -1.00678056e-002 1.36312190e-002 -2.17294004e-002 -3.06416973e-002
      -2.25266237e-002 2.16835663e-002 1.86816230e-002 1.56487804e-003
      1.74080562e-002 -4.40646382e-003 -4.22319919e-002 -4.45163948e-003
      -7.29248375e-002 2.88934708e-002 2.65697297e-002 -3.09860632e-002
      3.30384746e-002 5.33400513e-002 8.92504212e-003 -1.11693321e-002
      -6.53026765e-003 6.83534145e-003 -5.15573286e-002 -4.78430018e-002
      9.53254383e-003 1.83245037e-002 3.52828391e-002 2.98444200e-002
      -2.53593717e-002 5.52709065e-002 1.68531332e-002 3.34763415e-002
      2.83917971e-002 1.24861719e-003 1.62715483e-002 3.37280915e-003
      2.15794202e-002 -2.71282084e-002 -7.55861849e-002 -3.67022939e-002
      -3.08851115e-002 -5.48825152e-002 -1.91844516e-002 1.13318516e-002
      8.29711917e-006 8.51970538e-003 -3.70648690e-002 -9.09100007e-003
      -2.43777297e-002 9.20310989e-003 -6.38241321e-002 -3.99439596e-002
      -2.53360718e-003 2.52859388e-002 -1.20677218e-001 4.47702892e-002
      5.00112176e-002 3.34204063e-002 -1.66002698e-002 4.84789535e-002
      4.31578197e-002 -1.62781551e-002 -2.12017726e-002 1.95616875e-002
      4.79984656e-002 -9.25797317e-003 -2.05200072e-002 -2.64913663e-002
      1.01620331e-002 4.01963219e-002 -8.07256810e-003 2.30309721e-002
      1.68894082e-002 -2.51199473e-002 -2.33382601e-002 3.07710525e-002
      2.06311811e-002 4.29002047e-002 -6.30334094e-002 3.22009549e-002
      -1.03880642e-002 -2.09111888e-002 4.64577116e-002 -2.04647444e-002
      -2.54588928e-002 -7.71384463e-002 5.21188369e-003 -2.16945037e-002
      -1.32056959e-002 -1.65034574e-003 1.11928834e-002 1.67022776e-002
      -2.73430068e-002 -6.48239106e-002 -2.43203752e-002
      -2.64713615e-002 -1.69477928e-002 3.83059420e-002 3.63212340e-002
      -6.25795946e-002 3.95322545e-003 4.80746217e-002 8.34627450e-003
      2.46940758e-002 -7.27053583e-002 -9.91934724e-003 -4.94645815e-003
      -2.27894690e-002 2.31372118e-002 1.32258506e-002 4.50633056e-002
      -1.80708990e-002 -5.95542428e-004 -2.18262896e-002
      -2.03676093e-002 2.94933794e-003 6.85091305e-004 -4.75601703e-002
      1.66172571e-002 5.40147303e-003 2.30965409e-002 2.78269835e-002
      -3.57604623e-002 -9.42941755e-003 1.13366572e-002 2.36060582e-002
      -3.51709984e-002 -1.44131491e-002</_></support_vectors>
  <decision_functions>
    <_>
      <sv_count>1</sv_count>
      <rho>-9.9923898944850886e-001</rho>
      <alpha>
        1.</alpha>
      <index>
        0</index></_></decision_functions></my_svm>
</opencv_storage>
