<?xml version="1.0"?>
<opencv_storage>
<my_svm type_id="opencv-ml-svm">
  <svm_type>C_SVC</svm_type>
  <kernel><type>LINEAR</type></kernel>
  <C>1.</C>
  <term_criteria><epsilon>2.2204460492503131e-016</epsilon>
    <iterations>1000</iterations></term_criteria>
  <var_all>500</var_all>
  <var_count>500</var_count>
  <class_count>2</class_count>
  <class_labels type_id="opencv-matrix">
    <rows>1</rows>
    <cols>2</cols>
    <dt>i</dt>
    <data>
      -1 1</data></class_labels>
  <sv_total>1</sv_total>
  <support_vectors>
    <_>
      -1.25634791e-002 1.75959095e-002 -1.56872775e-002 3.37205920e-003
      1.34917069e-002 -7.16364980e-002 6.31042337e-003 4.51181829e-002
      -2.93608359e-003 1.84225682e-002 -5.41143911e-003 1.82786174e-002
      -1.23182340e-002 -1.72635205e-002 -2.47200411e-002 2.83908807e-002
      -2.87079271e-002 2.57474575e-002 9.28606000e-003 -3.75287496e-002
      -8.52352977e-002 -3.69521976e-002 9.96386982e-004 2.72310004e-002
      2.95946375e-002 -1.72364712e-002 2.75068954e-002 -1.91364903e-002
      7.99929351e-002 -5.52604441e-003 2.97643915e-002 -1.62486378e-002
      1.43266385e-002 3.36824469e-002 5.35677299e-002 -2.63612233e-002
      3.90089229e-002 -2.46346798e-002 -5.25638135e-003 6.74391612e-002
      -1.07847701e-003 -7.01141404e-003 7.47832528e-004 5.44597879e-002
      -1.81994420e-002 -1.75032970e-002 -4.86598874e-004 1.79829448e-002
      4.73996215e-002 -6.41100062e-003 -9.67636297e-004 4.06042449e-002
      -4.45501395e-002 -1.21052815e-002 -1.49824945e-002
      -6.52720407e-003 9.93468240e-003 3.13941687e-002 6.36305138e-002
      -9.71685443e-003 5.24466224e-002 -1.40977255e-003 1.96077023e-002
      7.73496740e-003 2.67334878e-002 -1.94316581e-002 -5.17238341e-002
      -5.53589500e-003 9.71762370e-003 2.79619005e-002 -1.04216076e-001
      -9.73266549e-003 1.01151653e-002 5.67634404e-002 7.07430579e-003
      -1.90056805e-002 -4.08048108e-002 2.25532539e-002 -2.09157579e-002
      1.74202956e-002 3.63215767e-002 3.04856226e-002 1.36965588e-002
      3.37351975e-003 -2.63305679e-002 -4.72909361e-002 -5.16607016e-002
      -1.26415044e-002 1.29622556e-002 5.20489970e-003 -1.73743069e-002
      6.06779866e-002 -1.56819057e-002 -5.34575880e-002 -1.30907958e-003
      -2.84283776e-002 4.41395193e-002 7.63438828e-003 1.88034168e-003
      -3.30033638e-002 -7.86399245e-002 -5.05040213e-002
      -3.52228470e-002 2.06555966e-002 -2.90271523e-003 -5.49453683e-003
      -2.54610321e-003 6.23899745e-004 6.20762398e-003 -1.56278647e-002
      1.76877473e-002 3.59699540e-002 -1.07795134e-001 -5.37998788e-002
      -7.48783574e-002 1.34230619e-002 2.41002347e-003 5.61921950e-003
      1.57678518e-002 1.73139740e-002 2.24718582e-002 3.44291665e-002
      -4.07232307e-002 2.05477830e-002 3.09740920e-002 1.10286120e-002
      1.86037589e-002 -1.18071530e-002 -4.80847433e-004 -1.62591077e-002
      1.20058367e-002 -2.96307299e-002 -1.20799942e-002 8.67325068e-003
      5.81582002e-002 -2.24021543e-002 4.90518585e-002 -4.89359349e-003
      -3.30371372e-002 -1.02381753e-002 1.91007648e-002 1.63134057e-002
      1.29408091e-002 2.24207845e-002 -5.07558025e-002 3.75029184e-002
      -2.38826908e-002 -5.08301631e-002 5.87699469e-003 -2.36276239e-002
      -4.29665186e-002 -1.85442939e-002 3.11252028e-002 -1.69224720e-002
      3.57707813e-002 -2.44359728e-002 5.50756492e-002 5.73102981e-002
      7.07014725e-002 -9.42601636e-003 5.76042803e-003 3.14011239e-002
      2.03785915e-002 4.42984775e-002 1.07178725e-002 2.77486593e-002
      1.61397289e-002 1.97495054e-002 -5.44728599e-002 2.40244437e-002
      1.79851018e-002 -3.07069216e-002 7.72425672e-003 -1.22672081e-001
      -5.21876030e-002 1.24360323e-002 6.00377657e-003 -9.02738073e-004
      2.16480009e-002 -1.34138130e-002 2.22054310e-002 1.35325100e-002
      -2.64561083e-002 -3.15754898e-002 4.00958247e-002 -3.58936959e-003
      5.20037441e-003 -9.91511419e-002 -8.40998255e-003 -1.87090039e-002
      -6.64937422e-002 1.59090627e-002 -2.91468780e-002 1.61876027e-002
      1.54763658e-003 -1.32212266e-002 -2.71461084e-002 4.43665721e-002
      1.06447535e-002 -6.64402172e-003 2.42129434e-002 6.86793495e-003
      2.78669000e-002 -4.78201397e-002 4.03596126e-002 -4.16280404e-002
      5.31789735e-002 1.81873497e-002 6.53292192e-003 2.57355459e-002
      -2.34486512e-003 -2.54177246e-002 -5.74275665e-002 2.69356389e-002
      -2.95321234e-002 1.01140840e-002 -6.25736415e-002 4.10850458e-002
      -2.33969670e-002 -5.40472493e-002 -2.30182465e-002 1.42555488e-002
      2.58581154e-002 7.22544640e-002 -1.08500188e-002 -9.11289454e-002
      -2.39747353e-002 1.59023013e-002 1.36673478e-002 -1.48576414e-002
      -1.29166981e-002 6.23335280e-002 -4.17162739e-002 8.86949990e-003
      -3.44187696e-003 8.43048468e-002 1.04804887e-002 -6.44458979e-002
      -3.35240960e-002 -2.01419517e-002 1.03806751e-002 2.08029943e-003
      1.91124473e-002 -1.78716388e-002 2.10454855e-002 3.35909687e-002
      -2.56180596e-002 1.76220853e-002 7.55655020e-003 3.34215984e-002
      -1.79544613e-002 6.03061020e-002 6.30081445e-002 9.15776566e-002
      1.33081456e-003 4.34940076e-003 1.87049061e-002 -1.25292569e-001
      -1.70558486e-002 2.42357366e-002 -1.03837308e-002 1.85470060e-002
      -9.06310324e-003 3.69421989e-002 2.16206834e-002 1.49301589e-002
      5.90345375e-002 -4.65853103e-002 -2.35546809e-002 -3.41047384e-002
      3.24531086e-002 8.74153152e-002 -4.74405214e-002 2.81892307e-002
      -1.16031328e-002 -1.31014697e-002 3.09847761e-002 1.88757647e-002
      2.81696245e-002 2.16395408e-003 -4.14110273e-002 4.08855379e-002
      5.12971031e-003 -1.34176137e-002 6.68234304e-002 2.42551509e-002
      3.46321054e-002 -3.32545117e-002 -2.28500869e-002 2.40319706e-002
      4.59731631e-002 -7.32089132e-002 -1.43740168e-002 7.04671070e-003
      -3.26079875e-002 -2.23795921e-002 -3.60884815e-002 5.26259877e-002
      -3.96951325e-002 1.54937822e-002 -2.26138402e-002 -1.11982577e-001
      -2.23666783e-002 -4.89453599e-002 1.12072369e-002 9.71663836e-003
      1.30386669e-002 6.33305358e-003 1.90262664e-002 -4.29308452e-002
      2.37425342e-002 -1.03745591e-002 4.51064110e-002 -8.36142078e-002
      4.07686308e-002 -6.95498381e-003 2.27230880e-002 1.90417061e-003
      3.17720361e-002 1.64655168e-002 3.99832577e-002 3.93022522e-002
      1.58851948e-002 -3.50809544e-002 1.10700037e-002 2.00506244e-002
      2.72052400e-002 2.56996527e-002 -1.32603198e-002 3.03240474e-002
      2.52339505e-002 8.25243667e-002 3.10792532e-002 2.28628945e-002
      3.56593877e-002 1.67677552e-002 -7.16046896e-003 1.83668919e-002
      -4.52775955e-002 3.55074415e-003 1.59580447e-002 -8.45000986e-003
      -2.04580445e-002 7.64022989e-004 1.74249504e-002 -1.46069983e-002
      -1.23144528e-002 1.84123572e-002 -5.28058559e-002 2.72826869e-002
      -5.31147383e-002 3.29086035e-002 -2.01732330e-002 -4.84436797e-003
      -1.36184925e-002 -3.54272798e-002 1.93268321e-002 -3.22367437e-002
      -5.06611988e-002 -1.15470774e-002 1.54171539e-002 -5.78103820e-003
      6.69239014e-002 6.06666729e-002 -1.13444282e-002 -9.41453353e-002
      2.29778886e-002 -6.11559860e-002 3.02439220e-002 -4.91843931e-002
      -6.01114109e-002 -2.20743921e-002 2.46005580e-002 -8.34618881e-002
      -6.39314356e-004 -1.60051528e-002 -1.78147405e-002
      -1.12598836e-001 6.78444805e-004 2.50872523e-002 -6.56376034e-002
      5.46932667e-002 -5.25018424e-002 -2.02270094e-002 3.69854569e-002
      2.82976795e-002 1.28783623e-003 1.40994471e-002 -3.72882336e-002
      -3.93578298e-002 4.46539558e-002 1.26490043e-003 2.85667144e-002
      1.96132604e-002 -1.90057382e-002 -4.87862788e-002 1.04403516e-004
      2.43939813e-002 1.83882788e-002 -8.19164291e-002 -1.71202701e-002
      -7.44008794e-002 1.29559347e-002 8.14189669e-003 -6.37508780e-002
      -1.44662391e-002 -3.89281567e-003 -4.45183218e-002 2.59249024e-002
      1.67524423e-002 -5.45720942e-002 2.24479344e-002 6.49551824e-002
      3.01438887e-002 4.06215973e-002 -4.72032744e-003 1.37787289e-003
      -2.25038156e-002 7.42957816e-002 3.50930132e-002 1.99070144e-002
      -2.29644272e-002 7.02980813e-003 -3.71114537e-002 -1.88917574e-002
      -3.76297608e-002 -1.66802462e-002 6.29467238e-003 -1.86014909e-003
      -1.75688919e-002 -1.10473984e-003 -4.06100899e-002
      -6.77214786e-002 -1.10170040e-002 7.28021860e-002 7.18105212e-003
      8.31399858e-002 -5.36873704e-003 -2.26902310e-002 -9.87746287e-004
      -8.58885888e-003 1.64525285e-002 -4.37588766e-002 3.44928689e-002
      -4.19600355e-003 3.20359208e-002 1.14850216e-002 7.55419433e-002
      1.69740636e-002 5.30965850e-002 -3.51599082e-002 -9.64399613e-003
      -5.32578155e-002 3.15113179e-002 -5.80279827e-002 7.93492701e-003
      -1.55519471e-002 -1.58701499e-003 1.54970791e-002 -2.74065621e-002
      2.13992279e-002 -1.34919249e-002 2.54931524e-002 -1.99992908e-003
      1.92691479e-002 -1.16277533e-002 3.85011621e-002 -2.64353640e-002
      -3.80946472e-002 -6.67786505e-003 -1.54928910e-002 1.39723094e-002
      3.53078134e-002 1.07589494e-002 3.67827304e-002 2.57186498e-002
      4.89498563e-002 -7.52752498e-002 3.32296155e-002 -1.47788525e-002
      -6.64568972e-003 4.60633636e-002 -3.41320336e-002 1.24776196e-002
      -3.59167978e-002 3.03452276e-002 -2.93434355e-002 -5.70385111e-003
      5.71411885e-002 -1.62244793e-002 3.95494662e-002 -3.86945009e-002
      3.94881982e-003 3.16562839e-002 -9.72408429e-003 -4.64422368e-002
      5.98015115e-002 1.34073934e-002 3.01151890e-002 -2.04887870e-003</_></support_vectors>
  <decision_functions>
    <_>
      <sv_count>1</sv_count>
      <rho>-9.9858708812036701e-001</rho>
      <alpha>
        1.</alpha>
      <index>
        0</index></_></decision_functions></my_svm>
</opencv_storage>
