<?xml version="1.0"?>
<opencv_storage>
<my_svm type_id="opencv-ml-svm">
  <svm_type>C_SVC</svm_type>
  <kernel><type>LINEAR</type></kernel>
  <C>1.</C>
  <term_criteria><epsilon>2.2204460492503131e-016</epsilon>
    <iterations>1000</iterations></term_criteria>
  <var_all>500</var_all>
  <var_count>500</var_count>
  <class_count>2</class_count>
  <class_labels type_id="opencv-matrix">
    <rows>1</rows>
    <cols>2</cols>
    <dt>i</dt>
    <data>
      -1 1</data></class_labels>
  <sv_total>1</sv_total>
  <support_vectors>
    <_>
      -1.05206445e-002 1.77920666e-002 9.00334865e-003 -5.98107371e-003
      -6.48063514e-003 5.93094900e-002 1.61643252e-002 5.16990572e-003
      2.37812325e-002 -4.91018631e-002 4.46990468e-002 7.21884705e-003
      1.69740394e-002 -3.35158966e-002 1.80700533e-002 2.90537123e-002
      3.77550721e-002 4.97492217e-002 1.50334472e-002 3.40798274e-002
      2.76014470e-002 2.93008815e-002 1.74908862e-002 2.36642305e-002
      7.66788935e-003 -1.60820596e-002 8.73671845e-003 -2.95639448e-002
      -5.75765641e-003 4.48050424e-002 1.08421920e-002 3.27577405e-002
      -1.65522583e-002 -1.23488288e-002 -1.08276708e-002
      -2.75606429e-003 -5.22429794e-002 2.49725562e-002 -1.36345653e-002
      -7.55771473e-002 3.42974700e-002 4.95777326e-003 1.07860873e-002
      -3.79082672e-002 -2.90482305e-002 -1.56279281e-002
      -3.05627119e-002 2.03693565e-002 -2.08478048e-002 -3.03778402e-003
      -1.14101088e-002 3.07791084e-002 -1.81877036e-002 4.69097914e-003
      -1.96501650e-002 -7.39767822e-003 -2.55438536e-002
      -3.20403911e-002 3.34522426e-002 2.35426705e-002 1.97817665e-003
      1.89420357e-002 -6.15023123e-003 2.74628848e-002 -8.80470313e-003
      1.77033711e-002 2.17147507e-002 1.45312548e-002 1.38457213e-002
      -1.31871225e-002 2.74815597e-002 -5.43358549e-002 5.48863076e-002
      3.53014166e-003 -6.83729909e-003 5.13617694e-002 1.00599816e-002
      -4.39188629e-002 -3.26381810e-003 4.66237136e-004 1.16151143e-002
      -2.36644391e-002 2.13680882e-002 5.20509994e-003 3.02994940e-002
      7.38663375e-002 2.99121272e-002 -3.62030044e-002 -4.46033776e-002
      -1.28324898e-002 -1.52660767e-002 -9.94148999e-002
      -3.39130796e-002 -3.89881060e-003 -1.37687102e-002
      -4.73464988e-002 -1.21280700e-002 2.22592410e-002 9.03212558e-003
      -3.04361898e-003 -6.35059224e-003 3.16392221e-002 -8.83561466e-003
      1.55447330e-002 2.44117808e-002 -3.14607881e-002 2.51970366e-002
      -3.05209290e-002 1.00204023e-002 1.29904943e-002 -1.31995669e-002
      7.21850619e-003 2.19797045e-002 3.31022292e-002 -8.46287049e-003
      4.50266004e-002 1.35240220e-002 1.54950907e-002 2.60701589e-002
      -3.35271768e-002 -1.25622302e-002 3.79396118e-002 -2.99893562e-002
      1.50571382e-002 4.35924046e-002 -3.78279388e-002 -7.56181404e-003
      -2.68099587e-002 2.32135016e-003 2.37178709e-003 2.73963716e-002
      -1.00860978e-003 2.83503849e-002 -2.01966949e-002 -4.74473350e-002
      -4.42309817e-003 4.57645766e-002 -3.05408668e-002 1.25974398e-002
      7.30110332e-003 -2.99419388e-002 -6.45288229e-002 -9.96586750e-004
      2.66034529e-003 2.28926763e-002 9.45514999e-003 -2.01926776e-003
      -6.14578603e-003 8.85172654e-003 -7.25497678e-003 7.49620935e-003
      2.58752261e-003 -2.24390179e-002 1.23668741e-002 -4.61504273e-002
      -2.15482693e-002 2.88932230e-002 2.64619431e-003 -1.41097978e-002
      -2.98601855e-002 9.57788085e-004 2.43421812e-002 5.76593839e-002
      -4.93558124e-004 2.86345370e-002 -6.04230911e-003 3.22587229e-002
      3.80915566e-003 3.47507372e-002 -9.38655715e-003 -1.81147661e-002
      1.23845125e-002 1.71023477e-002 -3.52638494e-003 6.44089561e-003
      1.44878402e-002 -1.24751450e-002 -2.52836826e-003 1.32757276e-002
      -3.88203445e-003 -1.59418024e-002 -7.80327991e-003 4.70721014e-002
      -4.43180427e-002 2.49007456e-002 9.22411401e-003 3.92361768e-002
      3.58079299e-002 -1.09177763e-002 2.40557864e-002 3.60858627e-002
      -6.10350678e-003 6.49667205e-003 3.54562625e-002 1.76109746e-002
      -1.61991571e-003 -1.24989906e-002 4.84286016e-003 8.72496516e-003
      -1.46683808e-002 -1.40818779e-003 -4.84279543e-002 1.16326194e-002
      2.46590916e-002 1.15125754e-003 1.31231612e-002 -5.60591780e-002
      6.99155324e-004 1.64134968e-002 -1.76908448e-002 -4.58236746e-002
      1.39965285e-002 4.25234437e-002 -3.42614911e-002 3.01735569e-002
      -8.01456627e-003 3.70349176e-002 1.42940311e-002 2.66278367e-002
      -2.06384528e-002 -5.17647266e-002 -3.09885908e-002
      -1.29390312e-002 4.22522146e-003 -9.38706771e-002 4.65764850e-002
      -1.24561600e-003 4.12422698e-003 -2.15959381e-002 2.86332071e-002
      1.76741369e-002 -2.44807024e-002 4.18954901e-002 9.16443858e-003
      -3.07822712e-002 7.00594764e-003 2.11545974e-002 -2.46582832e-003
      5.09232245e-002 4.14768159e-002 -4.40112464e-002 -8.33209045e-003
      2.38061734e-002 7.79299205e-003 -3.32651250e-002 1.09158559e-002
      1.33657567e-002 -8.91638454e-003 4.02848469e-003 8.82601086e-003
      -4.88113463e-002 9.31611750e-003 -1.06307954e-001 8.14495515e-003
      -3.25885527e-002 -7.01725762e-003 3.82787324e-002 -3.62736024e-002
      5.78763010e-003 2.75075026e-002 1.87087115e-002 -1.92904212e-002
      7.88597669e-003 -4.63171229e-002 -3.17225326e-003 4.48388979e-002
      -2.38849353e-002 3.86203616e-003 8.25268310e-003 5.92760183e-003
      -4.47862707e-002 -2.37912890e-002 -9.70797706e-003
      -9.19388421e-003 4.24142405e-002 4.27834084e-003 1.16437012e-002
      2.93986257e-002 3.73748913e-002 6.28090464e-003 2.13858336e-002
      -2.65317746e-002 -4.16895226e-002 6.04918180e-003 -5.50331362e-002
      -2.04895865e-002 -4.54971269e-002 3.55266826e-003 2.33955327e-002
      -1.25271324e-002 1.49471033e-002 2.05473471e-002 1.78263541e-002
      -2.01529432e-002 1.51281962e-002 -1.75837521e-002 7.01415306e-003
      -9.19587445e-003 -3.92726846e-002 -5.50146699e-002 2.33940482e-002
      8.24640598e-003 -5.72927147e-002 2.33074836e-002 -2.69070957e-002
      3.41991521e-002 4.50955816e-002 1.57539640e-002 1.34861935e-002
      3.22851799e-002 -1.32186129e-003 -4.16703662e-003 -4.56351452e-002
      -8.23486969e-003 -9.50692128e-003 -7.40639167e-004
      -1.06492974e-002 5.72005147e-003 1.06393441e-003 -2.98905215e-004
      -7.54873920e-003 -1.16514517e-002 1.77005474e-002 2.68394058e-003
      -3.91146317e-002 1.24158263e-002 -5.96529916e-002 -3.56048010e-002
      -3.25818844e-002 -7.14864805e-002 1.29107544e-002 1.42856482e-002
      1.38538210e-002 5.96372643e-003 4.00676541e-002 1.94194950e-002
      -5.50735779e-002 3.53699364e-002 2.81006489e-002 2.17239838e-002
      2.21044887e-002 -5.94539102e-003 -1.19586466e-002 2.06703357e-002
      3.35971341e-002 1.88464194e-003 -1.60095636e-002 -2.68993005e-002
      -1.24498811e-002 2.49561854e-005 1.58713777e-002 4.14816178e-002
      5.19649461e-002 -1.53626790e-002 -2.33678371e-002 -8.38487502e-003
      1.94255989e-002 3.57929803e-002 4.55089025e-002 -3.28058451e-002
      -3.34274508e-002 2.63524465e-002 -3.68073098e-002 -3.56477797e-002
      -1.66496579e-002 4.70285863e-002 7.59304967e-003 -1.02615599e-002
      -4.27975543e-002 1.29992515e-002 7.96741899e-003 -5.12960143e-002
      -3.93830799e-002 -1.29308952e-002 2.52607949e-002 1.90571472e-002
      -1.33879087e-003 2.18564384e-002 1.15691742e-003 -1.34543050e-002
      2.79482622e-002 3.22483815e-002 2.12959219e-002 6.15564967e-003
      1.49349933e-002 1.25138853e-002 -1.41772265e-002 1.13920989e-002
      -1.12010669e-002 2.46855654e-002 1.02927443e-004 2.14552656e-002
      -1.03013022e-002 -4.01775166e-002 2.63967440e-002 2.97176652e-002
      8.88968571e-005 -3.08132693e-002 7.66790332e-003 1.84103064e-002
      -2.06064731e-002 -6.28594756e-002 -5.92780821e-002
      -2.25827899e-002 2.16343030e-002 -2.16079541e-002 3.76324914e-002
      -1.14557473e-002 -7.53821433e-002 -4.74607721e-002
      -6.77158684e-003 1.61583610e-002 -4.37752306e-002 1.15082040e-002
      -9.66541655e-003 1.70494262e-002 -2.01648865e-002 3.25107062e-003
      -3.84144075e-002 1.10415788e-002 3.71882543e-002 9.14008822e-003
      4.28505540e-002 6.34224340e-002 -2.58120634e-002 -1.04548060e-003
      4.56052795e-002 -3.54466625e-002 -2.22919323e-002 2.08634268e-002
      -4.81154257e-003 -8.79422389e-003 -5.47254644e-002 1.42272934e-002
      3.87616735e-003 -2.54334207e-003 8.71957163e-004 2.36735251e-002
      2.21268795e-002 2.32769344e-002 -1.19633581e-002 -2.06269734e-002
      3.00457571e-002 -1.51111204e-002 1.08730712e-003 -3.05497590e-002
      5.96720772e-003 -3.87644768e-002 -9.41308513e-002 1.54472282e-002
      3.82303596e-002 4.34825383e-002 -8.69562291e-003 1.10057099e-002
      2.45870790e-003 2.88931057e-002 3.04170921e-002 2.37245951e-002
      -3.14378627e-002 2.60981079e-002 2.02217065e-002 1.38129049e-003
      1.13958540e-005 3.13340453e-003 -2.74617132e-002 1.57320090e-002
      3.53601612e-002 2.86839399e-002 1.30765289e-002 -2.71140337e-002
      -1.88740212e-002 1.28874788e-002 -4.75803241e-002 -4.79690805e-002
      2.23361645e-002 2.66438490e-003 4.45816219e-002 1.55147295e-002
      -7.95278978e-003 -7.19972998e-002 -2.94913687e-002
      -5.15455715e-002 -9.62028280e-003 -2.36276798e-002
      -9.44898557e-003 -3.73710990e-002 -2.44802330e-002 4.55751928e-004
      -2.04049628e-002 2.54956149e-002 -1.09487586e-002 -4.58208797e-003
      1.07348466e-003 -3.56303602e-002 -1.35731818e-002 2.87596714e-002
      3.95381190e-002 1.20046763e-002 4.96847406e-002 1.05829316e-003</_></support_vectors>
  <decision_functions>
    <_>
      <sv_count>1</sv_count>
      <rho>-9.9895235711756436e-001</rho>
      <alpha>
        1.</alpha>
      <index>
        0</index></_></decision_functions></my_svm>
</opencv_storage>
