<?xml version="1.0"?>
<opencv_storage>
<my_svm type_id="opencv-ml-svm">
  <svm_type>C_SVC</svm_type>
  <kernel><type>LINEAR</type></kernel>
  <C>1.</C>
  <term_criteria><epsilon>2.2204460492503131e-016</epsilon>
    <iterations>1000</iterations></term_criteria>
  <var_all>500</var_all>
  <var_count>500</var_count>
  <class_count>2</class_count>
  <class_labels type_id="opencv-matrix">
    <rows>1</rows>
    <cols>2</cols>
    <dt>i</dt>
    <data>
      -1 1</data></class_labels>
  <sv_total>1</sv_total>
  <support_vectors>
    <_>
      3.20929248e-004 1.91015359e-002 4.59053600e-003 2.48869006e-002
      -2.42351349e-002 2.40227790e-003 2.29405072e-002 -2.58831214e-002
      9.26934835e-003 -2.55646557e-002 -1.32869063e-002 2.40341600e-004
      -5.11694886e-003 5.64522482e-002 -1.65160710e-003 -1.56658217e-002
      -1.96045302e-002 -4.73993681e-002 -4.18140963e-002
      -1.38883619e-002 -2.06120797e-002 -3.05318888e-002
      -2.81795524e-002 -3.39482203e-002 5.52267395e-003 -4.57114242e-002
      -9.94645283e-002 9.13250435e-004 2.19671428e-002 -9.18505490e-002
      6.78976392e-003 -8.61179084e-003 2.09450293e-002 -9.45880730e-003
      4.14638557e-002 7.93128274e-003 2.14451440e-002 4.12370376e-002
      5.09972461e-002 -5.22106029e-002 -1.33754872e-003 2.15443852e-003
      3.40603739e-002 -5.85544296e-002 3.81165892e-002 2.17217132e-002
      3.48111615e-002 -3.38727720e-002 -1.20166689e-002 -4.02160035e-003
      3.42254266e-002 2.38704588e-002 5.37880044e-003 3.51560558e-003
      2.16248948e-002 3.84490564e-002 1.86330508e-002 2.35581286e-002
      -7.65187740e-002 -6.22877665e-002 -6.63251281e-002 2.23587779e-003
      -4.25494388e-002 -3.55495792e-003 2.10154280e-002 -6.07666820e-002
      2.37152018e-002 2.25238109e-004 3.20687145e-002 3.60495597e-002
      3.77597995e-002 2.06884947e-002 -6.80142418e-002 6.55912142e-003
      8.50834511e-003 -1.02919117e-002 -4.22041900e-002 6.64670393e-003
      3.02562490e-002 6.23840187e-003 8.61364324e-003 -7.78670050e-003
      -4.30128723e-002 -2.02069664e-003 2.53292844e-002 -6.96017519e-002
      -6.43432187e-003 5.76643506e-003 -2.64382958e-002 -1.40898069e-002
      2.49463553e-003 4.44748364e-002 -1.25184264e-002 1.15668382e-002
      3.07897339e-004 -9.11794417e-003 1.61992460e-002 3.58807296e-002
      9.93737485e-003 8.24919194e-002 3.12434528e-002 1.84069332e-002
      3.84483002e-002 -1.35829240e-001 -2.61749178e-002 6.78332299e-002
      9.23601259e-003 -1.26397964e-002 1.49145247e-002 -4.58002575e-002
      1.12337098e-002 1.01018641e-002 2.32889242e-002 1.59750301e-002
      -2.22380217e-002 -1.56097580e-002 1.28458887e-002 7.89099466e-003
      -1.18072834e-002 1.92553606e-002 4.92748863e-004 -3.10418755e-002
      3.62486914e-002 -3.42750014e-003 -3.90020236e-002 -4.89409501e-003
      4.32939036e-003 -3.18830047e-004 -9.71236674e-004 -9.22817551e-003
      1.09167676e-002 9.72368289e-003 -1.85291581e-002 1.82620191e-003
      -6.05610348e-002 2.18220353e-002 -3.12510654e-002 4.89107519e-002
      -1.34419156e-002 -9.21707321e-003 1.94845013e-002 1.90660954e-002
      -5.03915958e-002 -3.46000567e-002 3.31123173e-002 -4.23502065e-002
      -9.14260559e-003 1.42088300e-003 8.43802933e-003 -1.30393691e-002
      -2.84667332e-002 1.08389333e-002 -2.79515213e-003 -1.44089609e-002
      2.22126432e-002 2.41486132e-002 -3.06262523e-002 2.03447305e-002
      -1.48006687e-002 3.53092961e-002 5.08386269e-003 -3.07492819e-002
      -6.07550144e-003 3.59947188e-003 -1.31416060e-002 -4.29060645e-002
      8.07078555e-004 4.16447129e-003 -7.91203603e-003 -6.46142941e-003
      -6.81658043e-003 -1.97957475e-002 3.09328064e-002 1.66042875e-002
      3.74658480e-002 -1.34418746e-002 1.49122467e-002 1.24037955e-002
      1.52301583e-002 -2.92641222e-002 -8.96645710e-003 -8.66862573e-003
      1.52293546e-002 3.22243087e-002 2.60526258e-002 -1.34356238e-003
      -1.10849096e-002 4.96431328e-002 3.14309844e-003 -4.29974273e-002
      4.26072581e-003 1.16377464e-002 1.23817706e-002 -1.38153024e-002
      1.98952537e-002 4.64681312e-002 -1.19000394e-002 -3.88016254e-002
      3.40256244e-002 -6.58640116e-002 -2.63456884e-003 7.87691271e-004
      1.38967652e-002 -3.07087954e-002 -7.37734046e-003 1.24151912e-002
      3.57132778e-002 1.44235464e-003 -2.96695698e-002 1.70823727e-002
      -3.38921178e-004 4.56246501e-003 -5.20507358e-002 -3.25072519e-002
      -3.35830706e-003 1.81817431e-002 -8.29138607e-003 -6.08663633e-002
      -8.07987584e-004 3.16258222e-002 2.30559614e-002 -7.11153001e-002
      1.36492634e-002 -6.58241883e-002 4.69627604e-002 -5.71028218e-002
      2.22096331e-002 2.41807629e-005 2.89508514e-002 2.76632095e-003
      1.79923996e-002 -1.97362080e-002 -3.89904268e-002 -4.65433337e-002
      4.00982536e-002 -9.24488157e-002 -8.03617109e-003 1.08014271e-002
      1.92729669e-004 -5.69628924e-003 1.07564749e-002 4.11477499e-002
      -2.25681588e-002 -2.94701420e-002 1.31351687e-002 4.14675940e-003
      2.69136820e-002 -1.68728046e-002 1.26861874e-003 1.55725190e-003
      6.00419752e-003 3.00271735e-002 2.72345953e-002 3.31801586e-002
      6.00816775e-003 3.14326510e-002 -2.06712708e-002 5.11921644e-002
      2.95870826e-002 -1.30007248e-002 -2.62955222e-002 3.57259326e-002
      1.86310858e-002 2.68757180e-003 2.94113457e-002 -5.72293904e-003
      -4.27572615e-002 -1.80946011e-002 2.98053250e-002 -2.04419848e-002
      2.41507199e-002 -7.57313669e-002 2.86683962e-002 1.33616757e-002
      2.52224263e-002 -1.12827402e-002 1.68135129e-002 3.61824073e-002
      -7.47707766e-003 -2.54923524e-003 3.29419784e-002 -1.72649173e-003
      3.71178314e-002 1.84291787e-002 4.95309830e-002 2.05525290e-002
      2.56258808e-002 2.22540423e-002 -2.00324152e-002 -4.06120112e-003
      -5.68284802e-002 -1.42603908e-002 -7.57980794e-002 2.54552923e-002
      -1.39430165e-003 7.10563064e-002 2.93019731e-002 -2.55122241e-002
      -3.21324579e-002 6.30178675e-003 -2.40672063e-002 -1.02111576e-002
      1.36763975e-002 -1.60132535e-002 5.59813716e-003 1.02328816e-002
      -2.10070629e-002 -3.45804319e-002 -8.56019743e-003 1.71155762e-002
      3.92417051e-003 2.13506110e-002 1.82372406e-002 1.52880736e-002
      1.26404455e-002 3.35341431e-002 -2.93107261e-003 3.19294482e-002
      -1.96346436e-002 5.97016886e-003 -4.25880216e-002 3.07595171e-002
      5.54299215e-003 -3.70444655e-002 3.20622809e-002 -3.31703748e-004
      5.90557382e-002 2.60166940e-003 2.86851451e-002 7.95050245e-003
      -8.37967992e-002 2.05492601e-003 -4.74844500e-003 -3.49530764e-002
      -1.27133578e-002 -6.65970007e-003 1.92619972e-002 -4.61594202e-002
      -2.25765035e-002 -2.26444807e-002 2.98471656e-003 -6.37781480e-003
      4.83061792e-003 2.79973838e-002 -6.39002696e-002 -3.52764614e-002
      1.01602096e-002 1.16299251e-002 -3.41494307e-002 -3.42438519e-002
      2.47282945e-002 -7.72366524e-002 -6.35701790e-002 3.87185393e-003
      1.78445689e-002 -4.40961942e-002 -5.50538413e-002 -2.17894465e-002
      1.76621322e-002 -3.60420533e-003 2.62379535e-002 9.16662160e-003
      2.00418271e-002 2.02644579e-002 -9.42543801e-003 1.18715530e-002
      -1.17106400e-002 3.31097655e-002 3.82075049e-002 3.44345719e-002
      6.07644208e-003 2.89317239e-002 -7.86490832e-003 3.93470265e-002
      -5.46827354e-002 2.40228176e-002 -1.80646044e-003 2.27473546e-002
      3.25762630e-002 1.04787052e-002 2.06151102e-002 -9.13379118e-002
      2.35365378e-003 3.59326787e-002 -1.82613824e-002 -5.39891832e-002
      -2.42449287e-002 -3.19350213e-002 -2.04851236e-002
      -1.38641829e-002 -4.95331176e-002 -1.08871125e-002
      -2.35679653e-002 3.01576816e-002 -1.87861938e-002 3.51237040e-003
      1.22383563e-002 2.27043461e-002 9.54458397e-003 -4.17730259e-003
      1.72958467e-002 3.93765643e-002 4.01314683e-002 -2.97124907e-002
      2.53894962e-002 5.54695837e-002 2.83337589e-002 -2.15567742e-002
      1.48294540e-002 3.28644216e-002 5.59679493e-002 1.38880275e-002
      1.50789507e-002 1.53847914e-002 -3.88949811e-002 -2.77896654e-002
      5.00207441e-003 -4.82990220e-003 5.27626760e-002 1.56833846e-002
      -1.17078973e-002 1.51661700e-002 -1.82199981e-002 -3.97630818e-002
      1.76079944e-002 -8.67032073e-003 1.17502898e-001 -2.65920311e-002
      1.52347935e-002 -2.35029906e-002 -1.40838055e-002 2.45126546e-003
      3.71384323e-002 -1.21295741e-002 -2.74075363e-002 -2.79244147e-002
      -6.61017932e-003 2.58773868e-003 4.98847663e-002 1.47222048e-002
      1.54038649e-002 -9.69424751e-003 -2.79390439e-002 -2.23047156e-002
      -1.88184250e-002 -3.34940739e-002 9.04901884e-003 -3.28730904e-002
      3.71069834e-002 -8.42657909e-002 4.63282317e-003 9.96284653e-003
      -2.52698315e-003 1.05721271e-002 5.05389320e-003 -4.74245753e-003
      -2.12090672e-003 1.24092270e-002 1.17491772e-002 4.20243256e-002
      -2.48261243e-002 1.40127400e-002 -1.65568665e-002 -3.46466945e-003
      2.10663732e-002 1.19782025e-002 2.10041869e-002 3.41233425e-002
      -1.25893054e-003 4.00974154e-002 -1.90110051e-003 4.91985008e-002
      5.61744645e-002 -2.24538315e-002 -1.57768708e-002 -2.07352657e-002
      -2.11762115e-002 3.18758637e-002 2.31879624e-003 7.74713755e-002
      -2.72965012e-003 3.60865593e-002 1.28865000e-002 3.24194296e-003
      5.19378763e-003 4.33223508e-002 2.46181842e-002 -2.54157260e-002
      -6.00265479e-003 4.13336530e-002 3.56065365e-003 5.68748750e-002
      -3.31090353e-002 -7.29610212e-003 2.75338627e-003 1.99919622e-002
      -5.47488220e-002 -1.10686375e-002 -1.40312742e-002 2.12864671e-002</_></support_vectors>
  <decision_functions>
    <_>
      <sv_count>1</sv_count>
      <rho>-1.0000007044432169e+000</rho>
      <alpha>
        1.</alpha>
      <index>
        0</index></_></decision_functions></my_svm>
</opencv_storage>
