<?xml version="1.0"?>
<opencv_storage>
<my_svm type_id="opencv-ml-svm">
  <svm_type>C_SVC</svm_type>
  <kernel><type>LINEAR</type></kernel>
  <C>1.</C>
  <term_criteria><epsilon>2.2204460492503131e-016</epsilon>
    <iterations>1000</iterations></term_criteria>
  <var_all>500</var_all>
  <var_count>500</var_count>
  <class_count>2</class_count>
  <class_labels type_id="opencv-matrix">
    <rows>1</rows>
    <cols>2</cols>
    <dt>i</dt>
    <data>
      -1 1</data></class_labels>
  <sv_total>1</sv_total>
  <support_vectors>
    <_>
      1.33711966e-002 -5.78140095e-003 2.22601672e-003 5.15524298e-003
      8.45972355e-003 3.00364774e-002 -1.37478989e-002 3.92380729e-003
      -3.43799894e-003 3.89330201e-002 -4.82686609e-002 -5.58101088e-002
      2.70018894e-002 -2.48178057e-002 -6.33468553e-002 -7.26463692e-003
      -2.82413345e-002 -1.39013380e-002 5.77131193e-003 4.22204612e-003
      -2.77168024e-002 6.09824341e-003 -2.22028024e-003 1.71102118e-002
      -2.19874328e-005 2.66244244e-002 -2.41149459e-002 5.80952363e-003
      -2.83278618e-002 4.30938303e-002 -7.63781890e-002 -6.61877031e-003
      -6.29328331e-003 2.55000200e-002 -4.37814854e-002 -1.45673344e-003
      -2.20197979e-002 -1.12236496e-002 2.28474149e-003 9.25122015e-003
      -4.06889431e-003 -7.48213707e-003 -9.37087461e-002 4.82321791e-002
      -4.83158380e-002 2.29708049e-002 1.85565185e-002 -4.50866995e-003
      9.34206357e-004 2.98449397e-002 -1.48204295e-002 -5.55357300e-002
      1.85088348e-002 1.68230310e-002 1.11740492e-002 -1.81512274e-002
      2.37014890e-002 -1.74133908e-002 1.64430391e-003 2.84875706e-002
      -2.87621226e-002 -2.43124831e-003 6.75642863e-004 -8.12187791e-002
      1.74243432e-002 3.80585492e-002 1.46764088e-002 2.63177399e-002
      -9.58166551e-003 -3.49833518e-002 6.52998080e-003 9.89757944e-003
      1.26663325e-002 -1.25320489e-002 6.45669596e-003 1.07562367e-003
      4.56757247e-002 -2.40286998e-002 -4.12512794e-002 -1.45855201e-002
      -3.27246003e-002 -7.50968605e-003 2.63168640e-003 1.35388356e-002
      -9.77280363e-002 3.59668173e-002 3.75810191e-002 1.70712359e-002
      3.69214155e-002 1.88473016e-002 2.45794822e-002 8.18991661e-003
      2.23398451e-002 -6.46704342e-003 -1.33145368e-002 2.26879232e-002
      -1.44290389e-003 6.76612463e-003 7.05109816e-003 5.20811304e-002
      2.89954878e-002 -3.11253779e-002 -2.11342517e-002 2.21794061e-002
      6.29708497e-003 6.30659983e-004 1.09726656e-002 2.04112660e-002
      -4.77783121e-002 3.31488289e-002 -1.81703623e-002 -2.76101218e-003
      1.31768091e-002 -1.23367049e-002 3.94774340e-002 -5.83471358e-003
      3.03072808e-003 9.64981504e-003 -7.07415342e-002 4.83669993e-003
      -1.72236972e-002 2.73160357e-002 1.26189273e-002 -8.39875825e-003
      2.78283358e-002 4.91475593e-003 -7.19767064e-003 2.45819770e-004
      1.46400407e-002 5.73582649e-002 7.77236698e-003 5.59707498e-003
      1.71380527e-002 2.30593476e-002 6.30152300e-002 -8.80616754e-002
      -1.65207759e-002 -3.52604650e-002 1.89769063e-002 -3.63983735e-002
      2.18165498e-002 2.69747898e-002 3.61642502e-002 1.45587325e-002
      -3.06665879e-002 3.07929795e-002 5.15408814e-002 2.18289159e-002
      -7.85827786e-002 2.74851695e-002 -2.24346016e-003 5.32505438e-002
      -2.69803614e-003 7.45243300e-003 3.78921046e-003 1.69953164e-002
      -1.52085908e-002 -8.31635948e-003 -2.92348932e-003 2.47289930e-002
      9.47780535e-003 -2.62235571e-002 -8.10669456e-003 -5.18943630e-002
      -2.74259094e-002 2.30950192e-002 -2.76765097e-002 -3.52761499e-003
      9.30426759e-004 -1.90902017e-002 -4.52118292e-002 1.31377680e-002
      -6.11797161e-002 3.51406261e-002 -1.20743914e-002 -1.53941177e-002
      3.45170498e-002 -8.20031688e-002 -2.95685250e-002 4.44638394e-002
      1.72187071e-002 1.03842821e-002 -9.74203423e-002 -1.44964103e-002
      -1.02797687e-001 -2.42404155e-002 -4.62522916e-002 1.10312121e-003
      1.75766982e-002 2.54517701e-002 -1.27457455e-003 -1.46012241e-002
      6.78047864e-003 1.03712259e-002 -9.51313414e-003 -2.61244178e-002
      3.09367590e-002 -1.07369926e-002 -5.18060923e-002 2.06485689e-002
      -2.18044426e-002 3.49278823e-002 1.52184330e-002 -8.38210527e-003
      1.55650666e-002 1.92625523e-002 -3.21594216e-002 -4.63086851e-002
      1.96711905e-002 4.09286842e-003 1.25560565e-002 2.93069594e-002
      -1.90936420e-002 8.28354526e-003 -8.62029474e-003 8.00887030e-003
      5.08820526e-002 -2.32704449e-003 -3.84673825e-003 -2.65430901e-002
      1.91449858e-002 4.24066745e-002 2.60841139e-002 4.59101424e-003
      4.50040400e-002 -1.31128347e-002 1.87483113e-002 1.19096730e-002
      5.86467702e-003 -2.00307602e-003 -1.09003000e-002 -3.89104337e-002
      -2.27224175e-002 -9.85140726e-003 -1.20074293e-002
      -3.48183364e-002 -1.71716213e-002 -3.57673280e-002
      -7.53715634e-002 -4.39153872e-002 -2.53598928e-003 8.04416742e-003
      2.71684453e-002 1.68762691e-002 5.61314039e-002 2.81268591e-003
      -1.78399254e-002 8.32698029e-003 3.62059325e-002 1.58686731e-002
      4.09683473e-002 -1.51138091e-002 2.11126041e-002 -8.32962841e-002
      -3.17103695e-003 7.37109105e-004 -3.60084809e-002 1.76051650e-002
      1.35725318e-003 1.12890881e-002 3.93964350e-002 -8.45283270e-002
      1.12694232e-002 7.36642629e-002 -5.99542027e-003 -8.48276019e-002
      -1.42593030e-002 4.83347923e-002 2.15326026e-002 8.85568187e-003
      -1.82931516e-002 2.71658693e-002 2.17032358e-002 -4.65077721e-002
      -6.72614649e-002 2.91722119e-002 -2.78091487e-002 -6.51144162e-002
      -7.65841408e-003 1.96291972e-002 -4.95645404e-002 -1.03714634e-002
      -1.61175858e-002 8.96754023e-003 -3.20357829e-002 2.74964720e-002
      -3.46131367e-003 2.79309563e-002 -3.16299149e-003 -2.23760121e-002
      2.25507468e-002 5.84009141e-002 5.39584234e-002 5.56337822e-004
      1.78190805e-002 5.50271720e-002 -6.72975788e-004 -1.09462626e-002
      2.75876969e-002 6.30041910e-003 -2.52653752e-002 7.62255490e-002
      1.17639964e-002 5.79130128e-002 2.13901848e-002 -1.00593463e-001
      -3.70167904e-002 -3.24234813e-002 -5.42982761e-003 9.47085209e-003
      8.87037814e-003 -8.99677351e-003 2.80832909e-002 2.94212382e-002
      -3.72554883e-002 -2.57994886e-002 1.22279013e-002 1.16329845e-002
      1.47903087e-002 -7.83487875e-003 1.73013210e-002 -4.59766202e-002
      -1.45577146e-002 1.76742934e-002 -1.23676965e-002 -1.10442415e-002
      -1.01689519e-002 -2.84692720e-002 -7.16045266e-003
      -8.63570895e-004 3.26541848e-002 -2.36678775e-002 -3.49883251e-002
      -2.74874344e-002 -2.95230541e-002 -2.90749408e-002 3.10000908e-002
      6.81529928e-004 2.25617876e-003 -2.11166844e-004 1.90788385e-004
      -4.99521792e-002 -8.09997320e-003 -4.97812731e-003 1.83744524e-002
      -1.05235772e-002 -1.42379943e-002 5.16569288e-003 2.27731429e-002
      3.66517752e-002 5.65126725e-002 3.51640023e-002 2.58285664e-002
      3.32574137e-002 6.05453365e-003 2.11376939e-002 5.27762696e-002
      3.19888145e-002 4.13129926e-002 -1.22223655e-002 -3.71104293e-002
      -5.25925569e-002 1.46915372e-002 2.13289298e-002 1.30028557e-002
      -2.53005866e-002 3.02588195e-002 -5.50676184e-003 -3.12514491e-002
      -6.14579022e-003 1.62598621e-002 2.55178083e-002 4.44665402e-002
      3.68847884e-002 5.44064492e-002 -5.50674042e-003 2.28719898e-002
      1.64508708e-002 -2.87743937e-002 -3.37772397e-003 1.13872625e-002
      7.98921380e-003 6.63744509e-002 -9.15922411e-003 1.76067520e-002
      1.03254393e-002 1.02350172e-002 -2.91900733e-003 2.41989386e-003
      7.08296942e-003 1.33537548e-002 2.10087765e-002 7.64724286e-003
      -2.83509865e-003 -1.22202653e-002 5.75735345e-002 6.46242872e-004
      -4.00557816e-002 -6.93468302e-002 2.96220854e-002 2.94015650e-003
      2.52187904e-002 1.39107797e-002 1.47547526e-003 3.79401669e-002
      -1.74802504e-002 -2.13420708e-002 4.90759201e-002 -1.40938209e-002
      2.31062379e-002 5.23471758e-002 -4.51391377e-003 -1.43746464e-002
      -2.21007061e-003 9.99711640e-003 -2.50567645e-002 2.68466435e-002
      2.89910156e-002 -4.31781262e-002 -2.18806043e-002 -3.32297967e-003
      -3.69258672e-002 3.75712626e-002 3.11584622e-002 2.29568016e-002
      6.82899356e-003 -4.12482657e-002 1.56400148e-002 3.83713543e-002
      -1.69971045e-002 4.04274501e-002 -3.63825448e-002 6.79235384e-002
      3.24414037e-002 -9.79381613e-004 1.21049946e-002 -9.47281122e-002
      -4.39643767e-003 -1.71531998e-002 -1.90908462e-002
      -1.94004849e-002 -2.44673982e-004 3.83590744e-003 -2.20399015e-002
      1.55073721e-002 2.63360403e-002 -7.44713377e-003 -2.56215483e-002
      7.38963904e-003 -4.32567187e-002 2.19022240e-002 -9.23053548e-002
      5.29939495e-002 -1.96489077e-002 -1.41422767e-002 7.54933059e-003
      1.19954431e-002 6.15897104e-002 5.82578499e-003 -1.33984415e-002
      -7.46421609e-003 -1.46435164e-002 -2.16511730e-003
      -1.73351336e-002 4.68804967e-003 2.99199466e-002 -4.47106361e-002
      -3.51467915e-002 5.85423112e-002 -3.95372212e-002 8.83531873e-004
      5.04864678e-002 -4.11728732e-002 4.32884544e-002 -5.46970405e-002
      -2.48594433e-002 -3.40001751e-003 2.41027102e-002 -2.16167122e-002
      5.65579310e-002 1.76617578e-002 -2.68709008e-002 -8.69369507e-003
      1.37521541e-002 1.81425270e-002 -4.45309561e-003 4.10466804e-004
      1.42934471e-002 4.67926217e-003 1.72649417e-002 -3.75797227e-002
      -1.55974375e-002 -4.38716821e-003 3.86272604e-003 2.33131684e-002
      1.04484465e-002 -2.13696901e-002 1.80270970e-002 -1.18673511e-003
      -1.10066207e-002</_></support_vectors>
  <decision_functions>
    <_>
      <sv_count>1</sv_count>
      <rho>-9.9861017363445337e-001</rho>
      <alpha>
        1.</alpha>
      <index>
        0</index></_></decision_functions></my_svm>
</opencv_storage>
