<?xml version="1.0"?>
<opencv_storage>
<my_svm type_id="opencv-ml-svm">
  <svm_type>C_SVC</svm_type>
  <kernel><type>LINEAR</type></kernel>
  <C>1.</C>
  <term_criteria><epsilon>2.2204460492503131e-016</epsilon>
    <iterations>1000</iterations></term_criteria>
  <var_all>2000</var_all>
  <var_count>2000</var_count>
  <class_count>2</class_count>
  <class_labels type_id="opencv-matrix">
    <rows>1</rows>
    <cols>2</cols>
    <dt>i</dt>
    <data>
      -1 1</data></class_labels>
  <sv_total>1</sv_total>
  <support_vectors>
    <_>
      -4.83509758e-003 8.76263902e-003 -1.49063102e-003 6.79329410e-003
      4.90983257e-005 6.48640736e-004 -4.31243144e-003 -2.17274297e-003
      -8.67770892e-003 1.68746861e-003 6.12339191e-003 8.47354438e-003
      -2.14554146e-002 4.26164363e-003 -2.36511533e-003 -1.12162251e-002
      1.25875734e-002 8.64449982e-003 9.78076179e-003 -8.78132973e-003
      -1.61775725e-003 1.44061036e-002 -1.65722258e-002 3.04324343e-003
      -3.45430858e-002 1.08377645e-002 3.02366298e-002 1.41234044e-002
      -1.51451146e-002 -1.15586873e-002 3.90463397e-002 1.69801507e-002
      -6.27797097e-003 3.04332729e-002 -7.16436002e-003 -2.56100961e-004
      2.37408793e-003 1.48722797e-003 2.27024406e-003 -2.71101203e-002
      -1.34089915e-002 2.62883045e-002 1.15538472e-002 -2.79443879e-002
      4.09772024e-002 1.36456583e-002 1.08735468e-002 1.83689073e-002
      1.34561574e-002 2.56148865e-003 -1.34624410e-002 -2.15404411e-003
      -2.85925856e-003 9.75206867e-003 -6.69820001e-005 -2.46117022e-002
      6.32653432e-003 1.88708883e-002 -2.10119318e-002 9.82329994e-003
      5.80602419e-003 -4.05603787e-003 3.69505468e-003 -1.69069078e-002
      -4.63192686e-002 -3.22991796e-002 2.58540530e-002 2.46325675e-002
      -4.61203605e-003 -4.82125179e-004 -1.55211817e-002 1.14064990e-002
      -9.56488866e-003 -5.42644598e-002 -2.68689822e-002
      -1.23701803e-002 1.72256101e-002 1.13025745e-002 -9.96093266e-003
      6.45352481e-003 -2.05806307e-002 1.93597004e-002 3.36999795e-003
      5.67597942e-003 -9.09365946e-004 -1.17186923e-003 5.07155014e-003
      4.19962034e-003 3.27476091e-003 -1.80851482e-002 4.18026792e-003
      -7.68622337e-003 3.57856438e-003 1.57705359e-002 1.48711717e-002
      7.52671680e-004 -3.32235312e-003 2.33607292e-002 4.45884001e-003
      -2.85181534e-002 5.91532467e-003 1.98293719e-002 -5.21034002e-003
      -8.86388775e-003 -9.88077652e-003 -4.47869152e-002 5.55189699e-003
      3.04298699e-002 -4.23344225e-002 2.65157912e-002 9.30978172e-003
      -2.98574916e-003 -7.38383550e-003 2.91510689e-004 8.25997163e-003
      -6.50263485e-003 -2.84537096e-002 -1.16959838e-002
      -5.33326855e-003 2.51069777e-002 -1.71338825e-003 7.84213282e-003
      7.14572566e-003 1.17034577e-002 3.04834004e-002 -6.23350451e-003
      -8.92632175e-003 4.89770807e-003 -1.10875405e-002 1.76437804e-003
      -4.28049330e-004 9.57485754e-003 -6.61524653e-004 4.00245888e-003
      6.02572411e-003 1.21384533e-002 9.76013485e-003 -1.01586990e-002
      -1.91123206e-002 -1.33520076e-002 -3.04704402e-002 5.78791695e-003
      1.24451835e-002 1.80791994e-003 -7.96810351e-003 -1.00387260e-002
      1.93560421e-002 1.26737552e-002 3.29384441e-003 2.34654243e-003
      2.26965938e-002 -3.63699421e-002 8.12916178e-003 -9.21257678e-003
      1.21228145e-002 6.75408030e-003 -1.07415812e-002 5.66820521e-003
      -2.27001905e-002 5.71915554e-003 6.74681040e-003 2.46883486e-004
      -1.76923256e-002 -1.67920123e-004 1.77351758e-004 -1.45265870e-002
      -9.41203628e-003 -2.35689301e-002 3.58219072e-003 8.00183602e-003
      2.24204343e-002 1.77444201e-002 -7.67775578e-003 -2.43905541e-002
      -6.66254619e-003 1.04430495e-002 -1.51413474e-002 4.18453431e-003
      -4.91341227e-004 -3.74410697e-003 3.96535592e-003 7.51205673e-003
      5.74967219e-003 2.23117098e-002 1.28009357e-002 4.48675593e-003
      -3.30914464e-003 1.21298805e-002 7.30730407e-003 7.97871035e-003
      2.98237540e-002 -5.44141745e-004 1.81802874e-003 -1.62933080e-003
      -3.68187623e-003 1.76562835e-002 -9.42715071e-003 1.20066834e-004
      -3.87951806e-002 1.71437673e-002 8.58400669e-003 6.55805413e-003
      -2.74277162e-002 5.69530716e-003 -1.81833524e-002 -5.24743274e-003
      3.80367227e-003 1.37538137e-003 9.24358610e-003 1.34596387e-002
      -8.34328879e-004 -3.50086438e-003 -8.41079094e-003
      -5.82265249e-003 4.76911524e-003 -4.19066148e-003 -7.91131798e-003
      9.82069597e-003 4.52865940e-003 -7.17936689e-003 1.74150406e-003
      1.76294870e-003 -3.42561537e-003 2.57843873e-003 -3.70344077e-003
      1.54205074e-003 1.05610490e-003 -1.92861836e-002 -6.07336918e-003
      -1.09427972e-002 4.57725860e-003 3.66865210e-002 4.09626606e-004
      2.22327542e-002 6.06409600e-003 1.62402689e-002 1.80276372e-002
      8.26091040e-003 1.83525600e-003 8.46209470e-003 1.38019454e-002
      -1.69929937e-002 1.59036517e-002 2.48457454e-002 7.16390135e-003
      -1.60976332e-002 -1.62060998e-004 1.45076739e-003 -1.31448507e-002
      -9.46403760e-003 -2.59017944e-003 -2.11896077e-002 4.73145349e-003
      1.95191577e-002 7.27339694e-003 -9.17602703e-003 -1.59833264e-002
      -5.18112502e-004 -2.25617029e-002 -2.50989087e-002
      -1.89435147e-002 9.40806884e-003 -7.72133004e-003 3.07226111e-003
      -3.92629066e-003 9.28542204e-003 1.23512540e-002 -1.27346767e-003
      -1.93555318e-002 1.18673891e-002 -4.67348518e-003 2.13403925e-002
      1.84416119e-002 -9.23787989e-003 8.36284645e-003 1.28231244e-002
      -3.43664957e-004 4.96004475e-004 4.62269731e-004 -1.62268372e-003
      -7.63937132e-003 6.14174455e-003 1.19772414e-002 -3.08253411e-002
      -2.42981166e-002 1.92620102e-002 -6.11610152e-003 -3.69858593e-002
      3.72092077e-003 -8.34371080e-004 -3.82062234e-002 1.62378829e-002
      8.62471666e-003 1.90064497e-002 2.28042854e-003 -2.09226795e-002
      2.14387849e-002 -8.92889872e-003 2.67486344e-003 -1.27227893e-002
      1.14288321e-002 2.89262086e-002 1.90448053e-002 1.66597757e-002
      2.11875029e-002 1.51927897e-003 1.73798241e-002 -1.21811517e-002
      2.42004124e-003 -2.90440526e-002 -1.17841531e-002 1.09169325e-002
      -1.20518799e-003 1.17704421e-002 2.44518872e-002 1.24083494e-003
      -2.62073446e-002 2.69639469e-003 4.46209311e-003 4.63849725e-003
      -9.26832203e-003 -1.72112882e-003 1.10160839e-002 -5.01750095e-004
      9.93303489e-004 -1.15618473e-002 -1.53154777e-002 7.99991190e-003
      1.58645343e-002 -7.62086594e-003 5.42128365e-003 -2.05090493e-002
      -3.34130414e-002 1.37563515e-002 -1.27422428e-002 -1.07839576e-003
      4.64341277e-003 -1.88825175e-003 -2.93459516e-006 1.73539370e-002
      -6.93514338e-003 -1.14011783e-002 -1.28164347e-002
      -1.15345735e-002 -9.50032193e-003 8.69133696e-003 1.67368632e-002
      3.71519336e-003 3.52917612e-002 -1.16198277e-002 -4.35196124e-002
      -1.10783428e-002 2.75336695e-003 1.13131488e-002 5.09342458e-003
      -6.41594594e-003 3.88037832e-003 1.60029363e-002 -2.15190426e-002
      5.24094212e-004 7.06710899e-003 3.69948195e-003 -6.01977706e-002
      -1.47532811e-002 1.30142400e-003 4.32053814e-003 -1.35159837e-002
      1.71209592e-002 3.98745667e-003 -1.53361040e-003 1.62083283e-002
      -5.74383838e-003 -2.32092049e-002 -8.90220236e-003
      -3.06453090e-003 -4.08189632e-002 -1.34593900e-002 1.29024917e-002
      2.27886462e-003 -8.22082366e-005 -3.59729584e-003 1.16052227e-002
      -4.86833462e-003 1.65063310e-002 1.43575389e-002 2.04886566e-003
      1.18804183e-002 -6.92075118e-003 1.19688297e-002 6.41820906e-003
      7.54051143e-004 -1.86136104e-002 4.56437981e-003 -1.10739758e-002
      8.71300790e-003 -4.74775136e-002 -1.58541519e-002 -1.34246564e-002
      7.73734087e-003 1.64686721e-002 -4.50637899e-002 2.03615297e-002
      4.40709665e-003 -1.92088110e-003 2.99481209e-002 1.77752785e-002
      -7.04510778e-004 2.39239596e-002 1.24609191e-002 -3.43923084e-002
      -8.69248714e-003 -3.18140052e-002 1.43798804e-002 1.59614924e-002
      -9.33076069e-003 9.69827641e-003 4.03784961e-003 -7.85087992e-004
      -9.87370126e-003 -2.48065814e-002 -1.38772819e-002
      -9.64116771e-003 -3.51431668e-002 -3.51527855e-002
      -9.32746381e-003 7.71055976e-003 -9.75097194e-002 1.38763981e-002
      9.17381421e-003 2.52549653e-003 -1.44824283e-002 1.29598714e-002
      1.48599381e-002 8.75105895e-003 -3.10314179e-004 2.42863931e-002
      1.87163905e-003 5.01829153e-003 6.13305485e-003 -8.14391579e-003
      4.74165240e-003 1.81883965e-002 -8.77159368e-003 1.86981822e-004
      3.09379841e-003 -1.38051137e-002 -1.38153825e-002 7.27769826e-003
      8.65229033e-003 2.18832288e-002 -3.73474285e-002 -1.93349328e-002
      1.04692457e-002 4.04805737e-003 3.33402716e-002 6.12229342e-003
      -6.56703894e-004 -2.20073778e-002 -5.53600444e-003
      -1.17606949e-003 -1.64047871e-002 -3.87151679e-003
      -8.10471643e-003 9.19963291e-004 1.24088861e-002 -3.03951353e-002
      -2.32149791e-002 -1.77727360e-002 1.54322525e-002 -8.63274559e-003
      1.06888600e-002 1.06681064e-002 7.89781008e-003 2.88673211e-003
      7.73838349e-003 4.83252062e-003 -5.60240773e-003 4.73771896e-003
      1.46435422e-003 1.37606477e-002 6.77717524e-003 1.08328518e-002
      1.31045971e-002 -2.78019123e-002 6.54175272e-003 1.20018814e-002
      3.09796701e-003 1.01092802e-002 -1.06313741e-002 -4.40180767e-003
      5.47891250e-003 -2.34941244e-002 1.82388742e-002 -3.49246850e-003
      -5.76328114e-003 3.44705256e-003 -5.27482666e-003 4.79673501e-003
      5.62681071e-003 -2.41623330e-003 2.31112354e-002 2.73514236e-003
      -2.13103415e-003 -5.46417618e-003 -2.95353103e-002
      -8.53928458e-003 1.55837100e-003 -3.99614051e-002 3.68849607e-004
      9.33565758e-003 -4.82389191e-003 -1.67274531e-002 7.90934637e-003
      7.67512154e-003 -2.63111144e-002 -2.30174083e-002 1.76694132e-002
      2.01728009e-002 1.54189561e-002 -1.90100679e-003 1.20771918e-002
      -3.53503623e-003 1.93814666e-003 1.14190755e-002 1.23298047e-002
      -1.38332285e-002 -1.08094960e-002 9.65509098e-003 9.45255626e-003
      -2.73546707e-002 5.40822791e-003 -2.67337076e-002 -1.15292361e-002
      9.97811183e-003 -9.29375552e-003 -7.88495596e-003 2.33104024e-002
      -2.08860822e-002 -3.39049310e-003 9.56239086e-003 7.59514794e-003
      -8.46416783e-003 5.74106211e-003 1.34211751e-002 6.56488072e-003
      2.02292902e-003 -5.85006140e-002 2.44061952e-003 -2.17843335e-002
      -1.46737769e-002 -1.00064902e-002 2.84894439e-003 8.04884732e-003
      -1.72282588e-002 -1.25318614e-003 -9.00087226e-003
      -2.75098695e-003 1.15989884e-002 1.82440132e-002 -9.14441887e-003
      5.33289742e-004 -1.02644060e-002 1.04973940e-002 9.42291319e-003
      1.76233221e-002 1.19496984e-002 -6.90169027e-003 4.51873615e-003
      -3.47400866e-002 8.19088798e-003 -1.28612667e-002 -1.96410939e-002
      2.37031979e-003 8.31131451e-003 -1.11887017e-002 2.97049899e-003
      7.46858027e-003 2.32684892e-003 -2.98443157e-003 -6.05942262e-003
      1.19404001e-002 3.82792717e-003 4.30644676e-002 -2.51088571e-002
      7.00582284e-003 -5.85443992e-003 -9.65921860e-003 -8.77665635e-003
      -1.26501778e-002 2.79722586e-002 5.23111736e-003 -4.88881432e-002
      1.06781349e-003 -1.02848373e-002 8.45554750e-003 5.16979583e-003
      3.30748199e-003 3.69669957e-004 -1.04745170e-002 8.87491833e-003
      -3.87044367e-003 5.70467953e-003 5.72848257e-005 3.96660576e-003
      1.25997281e-002 -1.09895002e-002 -6.76349178e-003 4.81276307e-003
      6.40487438e-003 -1.63789038e-002 1.29374606e-003 -2.17555966e-002
      -2.17416044e-002 4.05326951e-003 7.11213052e-003 1.11872368e-002
      -1.50820625e-003 -9.38775577e-003 1.83553472e-002 -3.87053974e-002
      -1.13155292e-002 -6.25401363e-003 2.21526399e-002 -2.44751526e-003
      6.41232915e-003 -4.40524053e-003 2.24605910e-002 5.83746424e-003
      7.99059868e-003 -7.24083185e-003 7.51711475e-003 3.80048938e-002
      1.02151167e-002 -6.27820706e-003 -5.66947181e-003 -1.05930464e-002
      1.32360763e-003 1.30102970e-002 6.06194930e-003 7.53352605e-003
      1.35593796e-002 -1.02388421e-002 1.14051756e-002 -3.97286937e-003
      -2.31685434e-002 -3.72935133e-003 -1.59149542e-002 6.25489396e-004
      -6.84379018e-004 3.51185095e-003 5.66167198e-003 9.87087470e-003
      -1.10815726e-002 -3.41229956e-003 -1.44227513e-003 2.05502775e-003
      2.08231416e-002 1.75716355e-002 1.34938648e-002 2.71758437e-003
      1.36657255e-002 -1.06213270e-002 -6.07362995e-003 1.20405396e-002
      9.13780648e-003 1.98847838e-002 4.86339955e-003 1.13533903e-002
      9.02579073e-003 5.85708348e-003 6.53091446e-003 1.73565466e-003
      -4.25938377e-003 -3.12645454e-003 6.19011605e-003 -1.55620882e-002
      2.53103767e-003 1.28568336e-002 -5.90689899e-003 1.10374065e-002
      -1.14818858e-002 -3.08345421e-003 -3.91087756e-002
      -3.65501037e-005 -1.82073098e-002 1.23643810e-002 -3.61147104e-003
      1.91399623e-002 4.38622758e-003 9.67808720e-003 -1.77185182e-002
      1.50007661e-002 1.57490857e-002 5.11020795e-003 1.28429476e-002
      1.84976496e-002 -2.80855261e-002 7.46269152e-003 7.85267795e-004
      3.18331271e-003 3.18786449e-004 -1.23728532e-002 4.00948077e-002
      -2.38980283e-003 3.82139045e-003 -8.21079407e-003 -3.45475785e-002
      8.89134035e-003 1.34363035e-002 -1.13046113e-002 2.43410021e-002
      -6.43366948e-003 2.02645175e-002 1.54807745e-002 -1.43448059e-002
      -6.05554599e-003 -1.99461430e-002 -2.39215512e-003
      -2.16404838e-003 -2.46848613e-002 -1.01755895e-002 2.35916879e-002
      -1.10092796e-002 7.48489471e-003 -1.64462477e-002 -1.06435521e-002
      -1.30024794e-002 4.00042220e-004 -1.32355615e-002 9.11794696e-003
      -4.91858758e-002 -2.57820240e-003 1.52030392e-002 2.61229966e-002
      1.34197544e-004 -9.62031027e-006 6.25812309e-003 1.48884850e-002
      2.60883407e-003 4.17240383e-003 1.11635514e-002 -5.86914830e-003
      4.08547977e-003 8.51658732e-003 -2.18573660e-002 -3.69849242e-002
      1.53732095e-002 -1.73424333e-002 -1.04025127e-002 2.60592625e-003
      -1.56167487e-004 -1.12284329e-002 2.30574459e-002 1.20211467e-002
      -1.19417198e-002 -2.39690556e-003 -3.35785486e-002
      -4.73157561e-004 5.12064388e-003 1.97666395e-003 1.12083629e-002
      1.38439275e-002 -4.01149649e-004 -2.32386943e-002 1.24504026e-002
      -3.72149758e-002 3.46119776e-002 -4.77169780e-003 7.02765025e-003
      9.77073330e-003 5.62480511e-003 7.41099520e-003 1.56780835e-002
      1.15404306e-002 7.58210139e-004 -1.40805971e-002 1.30455781e-004
      -1.41439037e-002 -8.68303515e-003 1.35129606e-002 -1.54739432e-003
      4.00370546e-003 2.70177168e-003 -3.18568461e-002 1.94993578e-002
      1.06094126e-003 1.00988364e-002 -1.16518680e-002 3.32055800e-003
      -1.28252269e-003 2.15383004e-002 -7.28108222e-003 -5.25656436e-003
      2.89067789e-003 1.66743491e-002 -1.53671820e-002 -1.27738551e-003
      1.38441881e-003 6.52330182e-003 -1.48579367e-002 3.06402892e-002
      7.18714483e-003 1.90392733e-002 1.59957241e-002 -8.52110796e-003
      -1.77121998e-004 6.34419965e-003 1.75332278e-002 -1.08057521e-002
      1.07480939e-002 4.12537903e-003 -1.92902163e-002 -3.27883987e-003
      1.82715394e-002 3.35350037e-002 6.95472863e-003 -7.69477012e-003
      1.12389158e-002 3.70629970e-003 5.76407043e-003 7.55294983e-004
      -5.75732393e-003 -2.41213460e-002 1.84177868e-002 2.07547508e-002
      -5.26250666e-003 -2.42101867e-002 -6.96477771e-004
      -2.19165105e-002 1.21786501e-002 -7.44805159e-003 4.45451587e-003
      -1.44241238e-002 5.67157101e-003 1.40342265e-002 -3.34953777e-002
      -2.29319115e-003 5.20692766e-003 1.85689516e-002 -5.82429254e-003
      3.37363640e-003 4.82941186e-003 1.31046996e-002 -1.20288192e-003
      -1.85083449e-002 3.10265517e-004 1.22322980e-002 2.01367717e-002
      3.26642767e-002 1.30934045e-002 2.29276698e-002 3.19449860e-003
      -3.25319842e-002 8.26644991e-003 7.42317468e-004 5.25957439e-003
      -1.64420158e-002 -4.40603821e-003 -3.83058540e-003
      -1.13743348e-002 3.57115595e-003 2.05617379e-002 1.99175673e-003
      9.58314538e-003 1.29458215e-002 -8.19268823e-003 -3.75561509e-003
      4.98335389e-003 5.64579014e-003 1.15135834e-002 -4.31233039e-003
      1.32178888e-002 -1.74326207e-002 6.16839435e-003 -4.66081721e-004
      -9.41178855e-003 -4.63663181e-003 -1.46959433e-002 6.66048797e-003
      -4.12937161e-003 -8.47148523e-003 1.28676631e-002 -2.17274334e-002
      1.20164249e-002 -1.33666992e-002 2.13509472e-003 6.02664892e-003
      -2.52735848e-003 -1.88878260e-003 3.07609886e-002 1.84888132e-002
      2.17397790e-002 -3.22001614e-002 -1.49795450e-002 -3.87899252e-003
      -3.79153760e-003 -3.25718671e-002 -1.03320424e-002 5.42441010e-003
      1.85801852e-002 2.64636073e-002 -1.53338872e-002 3.43348039e-003
      -4.12781723e-002 1.25845391e-002 5.30448277e-004 1.78713743e-002
      -5.43089435e-002 9.10099968e-003 7.51829566e-003 -3.39051499e-003
      3.97685030e-003 -1.34304329e-003 4.59159445e-003 1.26576312e-002
      -1.49197755e-002 -1.42058618e-002 3.66417691e-003 3.86966538e-004
      9.90099180e-003 -8.49839114e-003 1.56010669e-002 -1.45092839e-002
      -2.45187934e-002 7.98187032e-003 9.55028646e-003 1.22814095e-002
      7.97698461e-003 -2.18563266e-002 3.09296441e-003 1.11654811e-002
      2.16603819e-002 8.13226216e-003 9.30623803e-003 -2.90405867e-003
      -4.68705548e-003 -3.34599265e-003 1.60034169e-002 1.87244208e-003
      1.82420872e-002 -3.58616281e-003 -2.14724839e-002 9.99958720e-003
      -9.70011204e-003 8.16014688e-003 8.11635051e-003 9.64105874e-003
      -1.03942752e-002 -8.52136686e-003 1.01883383e-002 -8.79020989e-003
      1.40382955e-002 -6.46956405e-003 4.54864232e-003 3.62445251e-003
      -6.72340440e-003 -2.80906167e-003 -1.03105260e-002 1.27803339e-002
      1.19073354e-002 1.56500395e-002 -5.97039796e-003 -2.35062116e-003
      3.77596152e-004 -8.39895662e-003 4.27990733e-003 1.30349561e-003
      -2.56795753e-002 2.49836151e-003 1.02865193e-002 9.49769188e-003
      5.31159714e-003 6.55922049e-004 6.08213153e-003 2.28710864e-002
      -8.63523036e-003 -8.35076254e-003 1.69858113e-002 5.78776514e-003
      -1.32976212e-002 1.91627014e-002 -9.86192003e-003 -1.12037575e-002
      4.51366231e-003 8.71500466e-003 2.74789101e-003 8.25791853e-004
      -1.04725373e-003 -7.04033813e-003 1.45631088e-002 -1.83767788e-002
      -3.96541692e-002 -5.21307392e-003 -1.03370165e-002
      -7.13208131e-003 3.79533996e-003 1.30992867e-002 8.15313030e-003
      5.05971024e-003 7.02280039e-003 2.82267146e-002 -7.05568679e-003
      2.11592261e-002 1.00134555e-002 7.65570998e-003 5.01200557e-003
      1.16910320e-002 -7.39412941e-003 -2.13371944e-002 1.25878565e-002
      -3.30158621e-002 -1.56837888e-002 5.93256531e-003 5.78781869e-003
      2.19272673e-002 1.68813039e-002 -1.76309012e-002 1.40603827e-002
      4.40836139e-003 7.83365592e-003 -6.19206065e-003 1.31772039e-002
      7.82032090e-004 8.56445823e-003 3.35132778e-002 1.50400490e-004
      -1.09111201e-002 2.70092604e-003 8.99104867e-003 -7.22447177e-003
      1.01605346e-002 -5.80893923e-003 1.59547962e-002 -2.05357969e-002
      -1.70293811e-003 6.37370488e-003 1.16813369e-002 -3.39870900e-003
      -3.34293721e-003 -4.59243916e-003 -1.33598596e-003 2.57374858e-003
      -3.55238025e-003 -2.86144530e-003 5.01751900e-003 -6.56735292e-003
      2.37300675e-002 1.59467775e-002 2.34660208e-002 1.85018070e-002
      5.76907815e-003 2.80309618e-002 8.98860302e-003 4.20082733e-003
      -2.18787361e-002 -1.76984873e-002 -1.26582216e-002 1.36753619e-002
      7.11729843e-003 1.21711269e-002 3.28323618e-003 9.53673664e-003
      7.22863059e-003 -2.14960929e-002 8.27043317e-003 -5.15012909e-003
      1.92418545e-002 -4.64414340e-003 2.83746812e-002 -1.32572977e-002
      4.52390546e-003 -3.18351411e-003 -1.28902122e-002 3.36328964e-003
      -5.36109088e-003 1.50165278e-002 -1.45435948e-002 -2.26419400e-002
      -5.46849379e-003 4.97047044e-003 4.82324976e-003 3.87351238e-003
      -1.54433558e-002 2.04695575e-002 1.35788266e-002 2.38466635e-003
      -1.19303549e-002 -1.49451280e-002 9.04724002e-003 -1.88346636e-002
      -2.44399253e-002 -1.04875711e-003 1.29956985e-002 -8.83593131e-003
      1.15888072e-002 -1.15941148e-002 -1.25386135e-003 -3.11084632e-002
      7.04580592e-003 8.43655225e-003 1.64967030e-003 1.51591059e-002
      2.22540777e-002 -2.88475603e-002 7.41917547e-003 1.58284348e-003
      1.29817287e-002 6.37148693e-003 4.26848093e-003 3.83409765e-003
      4.64156084e-003 2.06006933e-002 4.36990615e-003 1.13712009e-002
      -1.79228396e-003 1.07817436e-002 2.55279243e-003 5.26927365e-003
      7.70791713e-003 1.10923322e-002 1.56742625e-003 1.97955989e-003
      -1.85451389e-003 -6.76786760e-003 1.17823752e-002 2.70749070e-003
      -1.92244183e-002 -2.39965934e-002 2.03523859e-002 -1.63679067e-002
      5.97148575e-003 -1.02042705e-002 -9.82361194e-003 6.06706087e-003
      -8.74056481e-003 1.09542711e-002 8.87509156e-003 -2.29569478e-003
      -8.81985296e-003 6.35683362e-004 1.38692334e-002 1.92347728e-002
      1.25669898e-003 -3.78411287e-003 -5.51463617e-003 -1.04507580e-002
      -6.24167407e-003 1.30193308e-002 -2.54350225e-003 1.27605246e-002
      -1.86841041e-002 1.67603977e-002 1.73232295e-002 8.27173819e-004
      2.72110174e-003 -1.65140387e-002 6.92147063e-003 -8.45456088e-004
      -2.03987155e-002 3.59862531e-003 1.09048728e-002 -6.38311682e-003
      -4.63558845e-002 -2.00718772e-002 -1.05803425e-003
      -1.01784496e-002 8.51633400e-003 1.73273147e-003 2.72241905e-002
      4.36517643e-003 1.33349206e-002 -2.34126225e-002 -4.07724595e-003
      2.80609867e-003 -4.00482193e-002 4.33899881e-003 -8.28291383e-003
      -5.65348566e-003 -1.05332946e-002 -2.81419605e-003 2.04870221e-003
      9.52828303e-003 2.83097979e-002 1.16747338e-002 1.04155280e-002
      1.22662187e-002 -4.14507873e-002 1.42121071e-003 4.46846616e-003
      -6.94172876e-003 1.46497935e-002 -7.38251721e-003 -3.11860861e-003
      -1.11451130e-002 7.83593860e-003 -1.01624662e-003 -7.31979916e-003
      2.41378509e-002 1.06587438e-002 8.78535584e-003 -3.04969791e-002
      1.52853020e-002 -1.79775804e-002 4.32341639e-003 9.14335251e-003
      1.37980445e-003 -1.57283107e-003 -2.14853697e-002 -1.59480739e-002
      6.71794079e-003 2.27903221e-002 1.17478073e-002 1.06883785e-002
      1.13769099e-002 1.31980339e-002 -1.42042921e-003 2.15822570e-002
      1.08116027e-002 -3.98835819e-003 2.27718186e-002 2.02632360e-002
      1.17435027e-002 9.95996525e-004 -2.47101076e-002 -3.60149778e-002
      9.82287806e-003 -5.63991535e-003 6.52822573e-003 -3.52349458e-003
      -5.90244215e-003 3.57096754e-002 -2.15704534e-002 2.34573372e-002
      1.69327110e-002 -1.59664322e-002 1.35274529e-002 -9.96670779e-003
      -7.56231276e-003 -1.48002830e-004 1.36913667e-002 2.36839894e-002
      -2.88254512e-003 1.18655106e-003 -3.10238474e-003 -1.79600287e-002
      6.40381302e-004 1.00074746e-002 -2.00468153e-002 -1.09469728e-003
      -3.30184796e-003 -2.69098300e-002 -1.04847713e-004 8.74384074e-004
      -3.42738163e-003 2.13065185e-003 -2.66404282e-002 1.05440803e-003
      -6.17287471e-004 1.34399428e-003 -4.46785726e-002 -6.97130943e-003
      -5.45979245e-003 -3.63506679e-003 5.37964003e-003 6.47026580e-003
      -1.07228057e-002 3.51631374e-004 -8.80357251e-003 3.02640209e-003
      9.11440048e-003 6.85489597e-003 -2.53948048e-002 1.55236451e-002
      -1.89339761e-002 2.53374670e-002 1.26332995e-002 -1.05353829e-003
      -3.42759374e-003 4.08834033e-003 -2.79721525e-003 -3.50078708e-003
      9.71488375e-003 2.31778305e-002 2.11022561e-004 1.17273582e-002
      4.46330989e-003 1.88904516e-002 1.00573162e-002 8.98419321e-003
      -1.34303058e-002 -6.32135710e-003 2.48892745e-003 1.46258529e-002
      1.24837179e-002 -9.94148105e-003 -8.35584244e-004 3.11651006e-002
      -1.25945648e-002 -9.63137299e-003 4.73791547e-003 6.95718499e-003
      -9.67947487e-003 -8.12872720e-004 1.25802029e-002 1.30550493e-003
      -7.82683119e-002 -9.97967273e-003 3.40123149e-003 2.44609192e-002
      6.85255835e-003 6.52579917e-003 1.00808740e-002 -8.05564877e-003
      3.33830388e-003 -6.79959217e-003 2.67829630e-003 -2.82366332e-002
      -1.92073844e-002 -2.92359211e-004 -1.25082145e-002
      -1.32938968e-002 5.16858301e-004 1.51369600e-002 -1.27399759e-002
      9.71367676e-003 1.02211081e-003 -6.56775851e-003 9.84516367e-003
      5.44533948e-004 -2.22663395e-003 8.24250374e-003 -1.91091467e-002
      -2.09537009e-003 1.00334603e-002 -1.96574200e-002 -1.04154344e-003
      1.02288602e-002 1.24107173e-003 1.67109147e-002 -2.95662656e-002
      -4.13299352e-002 2.02664398e-002 -1.49204917e-002 1.96546293e-003
      -4.51749424e-003 -8.03527609e-003 1.99404191e-002 1.25267031e-002
      -1.55502474e-002 -7.07426853e-003 1.57176703e-002 -4.62843943e-003
      1.33794372e-003 -2.09905743e-003 4.29489138e-003 -1.95555221e-002
      1.79488305e-003 -1.36052193e-002 1.31661277e-002 -6.16727397e-004
      1.21248234e-002 2.14383821e-003 -1.32922558e-002 6.88099535e-004
      1.93906464e-002 1.19304154e-002 -1.11020450e-002 2.09590606e-003
      7.19604548e-003 5.33183292e-003 1.13167353e-002 -2.87577999e-003
      6.39528921e-003 2.60408339e-003 1.81433372e-002 -7.29528954e-004
      7.99062662e-003 3.01783788e-003 1.40295448e-002 1.00225285e-002
      6.41239388e-003 2.49237958e-002 3.43873585e-003 9.86234937e-003
      -6.65451912e-003 -7.32076215e-003 1.13917270e-003 -3.28621380e-002
      1.07320743e-002 1.13621568e-002 -2.39972603e-002 5.56262629e-003
      9.73616354e-003 -2.37494707e-002 -3.71346436e-003 9.59976017e-003
      7.16831069e-003 1.72033273e-002 -1.67357940e-002 4.07667737e-003
      7.82963005e-004 -2.32581776e-002 6.46038260e-003 -9.55155212e-003
      1.33492937e-002 5.85995568e-003 9.86507814e-003 -8.29376932e-003
      -2.18497720e-002 -1.67906180e-003 -2.00804308e-004 1.89233683e-002
      -3.18238139e-002 4.90898266e-002 -2.59380806e-002 2.72171898e-003
      1.15186060e-002 7.14725303e-003 9.92348045e-003 1.20309144e-002
      4.74781217e-003 8.56267475e-003 1.04944315e-002 8.44121724e-003
      1.16016548e-002 -2.88951420e-003 1.24362279e-002 -2.85594462e-004
      1.81557797e-003 6.79719402e-003 -2.19093300e-002 9.20198113e-003
      1.53438270e-003 1.91822331e-002 3.70181887e-003 -1.17166732e-002
      7.94153195e-003 -1.11023262e-002 3.95168643e-003 -1.13826497e-002
      2.98204995e-003 -8.01172480e-003 9.11948364e-003 5.78176277e-003
      1.67223178e-002 4.54474194e-003 4.16264450e-003 -1.83709580e-002
      9.28912964e-003 2.10575853e-002 7.44732236e-003 -4.19628900e-003
      -1.07609881e-002 1.38653452e-002 1.13708088e-002 -1.55069702e-003
      -7.01487064e-003 -2.68178731e-002 -9.23279207e-003 1.18427826e-002
      -2.08468847e-002 1.21433288e-002 1.60273083e-003 8.99336673e-003
      1.33569520e-002 -1.57598797e-002 -1.18777959e-003 7.78664020e-004
      -3.71529954e-003 -4.59500402e-003 2.25906796e-003 -1.20944306e-002
      1.41096087e-002 -1.36869093e-002 -4.91992012e-003 1.55587122e-002
      7.89571030e-004 -2.22049933e-002 -4.42154240e-003 1.33642526e-002
      -2.20000674e-003 9.24133137e-003 -1.61905773e-003 4.18802490e-003
      -2.60308012e-002 8.44757538e-003 1.21127740e-002 1.46532934e-002
      1.11245420e-002 1.43872397e-002 -1.36471633e-002 7.73086725e-003
      -2.20474601e-003 -5.87909948e-003 1.41119277e-002 -1.31367566e-002
      -3.92953819e-003 -2.22123936e-002 2.35230736e-002 1.12695480e-002
      1.42439660e-002 2.11182982e-004 -2.04733443e-002 -6.19674884e-002
      9.75338090e-003 1.10981753e-003 9.12441127e-003 -4.70936764e-003
      -5.99699502e-004 4.18619299e-003 1.90492645e-002 6.76433463e-003
      -1.83105096e-002 -1.52549315e-002 -4.04671626e-003
      -1.36407781e-002 6.55569974e-003 -2.86563635e-002 -8.57636239e-003
      -4.82202806e-002 -8.43938719e-003 9.72429349e-004 -2.71462044e-003
      2.99267340e-002 2.14878656e-002 -1.56641230e-002 2.98601817e-002
      8.53300444e-004 2.09404877e-003 9.70679522e-003 -1.76488527e-003
      -1.83443516e-003 2.25023609e-002 9.35093686e-003 -8.95341858e-003
      -8.89845937e-003 -3.16257589e-002 -4.20618095e-002 1.11787366e-002
      4.82428307e-003 -4.51785028e-002 4.60633077e-003 7.37089838e-004
      -4.93964553e-003 1.15586910e-002 -1.80384014e-002 -1.55977663e-002
      -3.79219139e-003 -1.00326976e-002 -1.74541492e-002 3.08068679e-003
      -4.42499993e-004 -3.40596744e-004 -2.62716468e-002
      -2.16649249e-002 8.37121252e-003 8.78614280e-003 -2.32258458e-002
      2.05923859e-002 1.12226363e-002 6.91951625e-003 -2.12635193e-002
      1.19196847e-002 -5.72679052e-003 6.27757329e-003 5.79567440e-003
      1.57688372e-002 -2.15238985e-003 -1.08116660e-002 -2.35762298e-002
      -1.40427575e-002 -3.92493270e-002 1.12705739e-005 -5.86199388e-003
      -1.75833311e-002 -2.02818657e-003 -1.15147252e-002
      -1.63961258e-002 1.25409132e-002 -2.90850457e-002 -1.10924533e-002
      1.58006120e-002 1.97551735e-002 -3.28095593e-002 2.05577328e-003
      -1.93653256e-002 -1.67443939e-002 7.86779216e-004 1.72413141e-002
      1.59885325e-002 -1.97771494e-003 -6.68634335e-003 5.08359075e-003
      6.26354292e-003 3.27390805e-002 -1.09303715e-002 -2.63643581e-002
      1.10995742e-002 6.51370222e-003 -2.62381732e-002 1.01654390e-002
      1.02285519e-002 -1.35840941e-002 -3.14030121e-003 7.88476318e-003
      -7.94157269e-004 6.23609871e-003 1.51786152e-002 1.73900854e-002
      -1.15874074e-002 -1.19769759e-003 1.33484872e-002 -3.55502889e-002
      1.24703059e-002 -9.44022555e-003 3.37819452e-003 3.78643721e-003
      4.49818792e-003 1.08600166e-002 -3.35953035e-003 -2.19267253e-002
      2.55371374e-003 -3.65231885e-003 4.34734160e-003 -5.50926477e-003
      1.50235472e-002 -1.15033519e-003 1.26647279e-002 5.04145678e-003
      -7.93960784e-003 2.89402436e-003 3.70891392e-003 -3.13677592e-004
      -7.20394449e-003 -3.86177353e-003 1.07872970e-002 2.76555605e-002
      -1.17858462e-002 -1.49168950e-002 -1.21497959e-002
      -4.71056718e-003 1.69297047e-002 -1.26613928e-002 -4.70904214e-003
      5.55118779e-003 -2.33456120e-002 9.48454544e-004 -1.08748907e-002
      1.73943471e-002 -1.31326374e-002 3.32719507e-003 -9.99175571e-003
      -3.12624723e-002 2.58279662e-003 8.57874006e-003 -2.00257432e-002
      -1.82319118e-003 1.38190426e-002 3.33448546e-003 -2.00448260e-002
      -2.49871332e-003 7.34460540e-003 -1.37352543e-002 1.43073257e-002
      7.89384078e-003 -6.79040328e-002 -5.69839403e-003 9.88852326e-003
      4.07160912e-003 -6.99300552e-003 -3.53706419e-003 -1.35408305e-002
      1.23694548e-002 3.33849387e-003 -2.30519567e-002 1.23942774e-002
      9.00498562e-005 -2.10680645e-002 1.33372087e-003 2.05607004e-002
      -3.62178474e-003 1.06568178e-002 -2.43966817e-003 1.33180106e-002
      1.08559877e-002 -1.26223564e-002 -2.86189746e-003 1.26836132e-002
      2.12729909e-003 4.65554558e-003 8.27684812e-003 2.45571192e-002
      6.47560274e-003 1.31355422e-002 -1.54710608e-002 -3.06263356e-003
      8.69294163e-003 1.89159531e-002 4.55902964e-002 -3.57567854e-002
      5.67992963e-003 1.10982982e-002 2.58151907e-002 -6.28920738e-003
      -7.55430060e-003 1.56054879e-002 -9.34846234e-003 -1.55222146e-002
      1.43996754e-003 1.72375590e-002 -2.73726461e-003 1.65471639e-002
      -1.15390995e-003 -9.26713459e-003 5.30429557e-003 1.70888249e-002
      -1.52692810e-004 4.35097935e-003 1.54917210e-003 2.17848960e-002
      -3.35659570e-004 -7.65391439e-003 4.86404286e-004 -7.85059948e-003
      -7.93707557e-003 6.44659577e-003 -1.48733044e-002 -1.30493231e-002
      -2.30422243e-002 -1.60391163e-002 -6.07397594e-003
      -4.43699304e-003 2.08091252e-002 -1.92459505e-002 -5.91057993e-004
      1.88416410e-002 2.27376521e-002 8.83479044e-003 1.33067686e-002
      5.59688639e-003 8.51709582e-003 7.83045590e-003 2.47254362e-003
      2.47478187e-002 4.41135745e-003 2.05678400e-002 -4.90636146e-003
      7.13749463e-003 2.55262293e-003 -3.04929120e-003 1.33487405e-002
      9.75279044e-003 -4.30775201e-003 9.27963760e-004 -1.03792921e-002
      -3.12926667e-003 1.90391410e-002 -1.72233675e-004 1.08436178e-002
      5.83730219e-003 2.46525779e-002 -7.18136271e-003 7.83038139e-003
      -9.22102667e-003 -8.65819491e-003 1.91437639e-002 -8.32672417e-003
      -1.13286413e-002 1.06834983e-002 9.70679522e-003 -2.99051893e-003
      3.41066048e-002 1.76966563e-002 1.22053921e-002 2.12194957e-003
      2.62681339e-002 4.44035837e-003 2.07128190e-002 -2.52657314e-003
      8.15731753e-003 2.65345238e-002 8.23258888e-003 -9.82316583e-003
      -1.88655630e-002 6.37927139e-003 2.21440685e-003 1.90008674e-002
      -7.50442827e-003 -1.03467405e-002 1.11966273e-002 -1.09493285e-002
      1.57354083e-002 2.19471124e-003 9.53129865e-003 -3.03694746e-003
      4.48976131e-003 1.53150754e-002 4.41497797e-003 9.70923901e-003
      -1.03941197e-002 -6.27641985e-003 -1.62620414e-002
      -1.35332281e-002 1.82132758e-002 1.03075709e-002 2.37265583e-002
      -3.39248255e-002 -5.75505057e-003 5.32835908e-003 9.14794626e-004
      -1.02590797e-002 -1.19808679e-002 7.20801670e-003 6.82274986e-004
      -1.75970781e-003 -5.21874288e-003 -2.48271152e-002 7.72377709e-003
      -3.67398304e-003 -1.02180056e-002 -1.31050935e-002 8.73361342e-003
      -1.64355768e-003 5.01136854e-003 -1.34363919e-002 8.19037016e-003
      1.38496757e-002 -1.49433874e-002 1.64530687e-002 -4.51064995e-003
      -2.56072134e-002 -9.29177646e-003 -1.72177069e-002 6.73842197e-003
      2.40973593e-003 4.15671384e-003 -1.42562436e-002 -1.19221080e-002
      -8.71224608e-003 -2.16320641e-002 2.09878036e-003 -7.39675295e-003
      6.99444534e-003 9.69091710e-003 -2.32041385e-002 1.84635911e-002
      3.07407435e-002 1.12167411e-002 -7.59464502e-003 -1.37496056e-004
      2.24432182e-002 1.24834366e-002 7.51494337e-003 6.16372842e-003
      -3.53880525e-002 -2.45087384e-003 1.09473439e-002 1.17155686e-002
      -4.41138968e-002 1.28615247e-002 -1.02396738e-002 4.57635382e-003
      -9.81493760e-003 -1.49004115e-002 1.58871654e-002 5.21181663e-003
      2.10007261e-002 -1.00021241e-002 -8.27768294e-004 1.27068302e-002
      1.08386325e-002 -6.47406373e-003 -4.74376464e-003 3.56228207e-003
      -1.16267083e-002 -9.52763855e-003 6.67757262e-003 -1.41752046e-002
      9.40241572e-003 1.78131252e-003 1.33135943e-002 -8.62404890e-003
      4.62895725e-003 -2.03480711e-003 6.00845693e-003 -1.23174591e-002
      1.02107809e-003 -4.75387461e-002 1.22294435e-002 -1.43618172e-003
      -1.30784661e-002 2.02144086e-002 -4.18786285e-003 -7.85379577e-003
      1.38845947e-002 7.95091782e-003 -1.31291954e-003 3.27687245e-003
      3.86915728e-003 -4.78635123e-003 -1.21441428e-002 5.87292295e-003
      -5.99034131e-003 -7.82006793e-003 7.45924609e-003 -1.12286108e-002
      -3.48187773e-003 4.36790579e-004 3.87334102e-003 -3.60156521e-002
      -9.57337767e-003 9.14868712e-003 6.16625929e-003 1.37992529e-003
      -1.46888634e-002 -1.10805817e-002 7.71564292e-003 -1.05788838e-002
      -2.33631004e-002 1.54847447e-002 -3.26364604e-003 2.09238641e-002
      -1.10834762e-002 7.13120820e-003 -1.11216977e-002 -1.53891724e-002
      -4.22591381e-002 -1.29420962e-002 -2.61983704e-002 5.09973476e-003
      6.82689250e-003 2.12038364e-002 -2.46985629e-002 9.66683868e-003
      1.21259820e-002 8.28703493e-003 -8.62496599e-005 2.39710473e-002
      -3.52503941e-003 -1.28127551e-002 -5.43859322e-003 7.99682271e-003
      1.10628633e-002 2.36615781e-002 -2.63960240e-003 -2.31177732e-002
      -2.04186607e-002 2.05567828e-003 -3.33988806e-003 1.11760758e-002
      2.33460348e-002 4.84160287e-003 -5.44783426e-003 -4.86766063e-002
      3.68000095e-004 8.81424826e-003 6.71768154e-004 2.11166088e-002
      1.01673335e-003 -2.68552825e-003 1.76272038e-002 5.62193757e-003
      1.74427181e-002 5.25463885e-003 7.80623686e-003 -1.72168985e-002
      -1.32383080e-002 -9.70732793e-003 6.01802766e-003 -2.07768311e-003
      6.63225492e-003 -7.69503135e-003 2.35675257e-002 -9.46594984e-004
      -2.33168975e-002 3.27349477e-003 -9.66719817e-003 2.95100734e-002
      -3.44194248e-002 2.79388428e-002 8.55286792e-003 1.18622009e-003
      9.30547342e-003 9.17438231e-003 -1.06883990e-002 -1.19994553e-002
      2.09025503e-003 1.36434811e-003 0. 1.11866621e-002 2.09962181e-003
      -2.35503037e-002 -1.46523938e-002 -8.83792806e-003 1.53448549e-003
      -2.67903379e-004 -1.86396539e-002 5.53188752e-003 6.93026790e-003
      2.32456112e-003</_></support_vectors>
  <decision_functions>
    <_>
      <sv_count>1</sv_count>
      <rho>-9.9810261060454519e-001</rho>
      <alpha>
        1.</alpha>
      <index>
        0</index></_></decision_functions></my_svm>
</opencv_storage>
