<?xml version="1.0"?>
<opencv_storage>
<my_svm type_id="opencv-ml-svm">
  <svm_type>C_SVC</svm_type>
  <kernel><type>LINEAR</type></kernel>
  <C>1.</C>
  <term_criteria><epsilon>2.2204460492503131e-016</epsilon>
    <iterations>1000</iterations></term_criteria>
  <var_all>2000</var_all>
  <var_count>2000</var_count>
  <class_count>2</class_count>
  <class_labels type_id="opencv-matrix">
    <rows>1</rows>
    <cols>2</cols>
    <dt>i</dt>
    <data>
      -1 1</data></class_labels>
  <sv_total>1</sv_total>
  <support_vectors>
    <_>
      3.06933820e-002 9.85299703e-003 -7.66639085e-003 5.60590206e-003
      -1.36712557e-002 -2.39982996e-002 1.29853282e-003 1.57805774e-002
      -4.49417951e-003 7.78664090e-003 -1.13560352e-002 5.43170935e-003
      -6.95932237e-003 -2.54497696e-002 -8.58742092e-003
      -1.23346422e-003 -2.64948849e-002 6.96489587e-003 1.39990775e-002
      -3.74359894e-003 -1.52350478e-002 -5.12098952e-004 1.36079425e-002
      -8.72275559e-004 -4.15167771e-003 -1.17144007e-002 3.48213799e-002
      -2.63862237e-002 -8.26709066e-003 -2.61915289e-002 1.39110209e-002
      1.09500682e-003 -2.33099773e-003 2.46289652e-002 -7.82931631e-004
      2.16897414e-003 3.37669551e-002 8.66055954e-003 6.51458045e-003
      9.76399053e-003 -1.81120355e-002 -8.36167671e-003 -5.31806797e-003
      2.26707337e-003 5.56898443e-003 -1.18861441e-002 -2.70017539e-003
      -7.82072358e-003 1.33159366e-002 -7.29738316e-003 -9.24998522e-003
      1.34402830e-002 -2.66841147e-003 -7.93341920e-003 -4.40800143e-003
      2.41987145e-004 -1.41115012e-002 1.49448346e-002 2.29776632e-002
      -4.06091148e-003 1.67180952e-002 1.74318030e-002 1.15146721e-002
      2.62665190e-002 2.36110166e-002 8.94554146e-003 -4.51354682e-002
      -2.43606232e-002 1.32934079e-002 -1.85979402e-003 -4.93680350e-002
      -1.61815826e-002 8.66578019e-004 3.31926197e-002 5.94103476e-003
      9.37926117e-003 -2.41126735e-002 2.19732220e-003 1.25083132e-002
      -1.86718777e-002 8.16870946e-003 -2.80250981e-002 7.12166913e-003
      1.55751109e-002 -1.95889845e-002 -2.93118763e-004 -2.71158889e-002
      -1.18130678e-002 1.35861561e-002 1.40788620e-002 -1.44144669e-002
      2.15939432e-003 1.02606341e-002 -3.45691331e-002 -1.26635255e-002
      1.48040131e-002 5.05870953e-003 -4.34309663e-003 6.69174595e-003
      -2.01747790e-002 7.61037366e-003 2.25178036e-003 -3.96649679e-003
      1.47388391e-002 -1.85167007e-002 8.50282144e-003 9.66643728e-003
      -5.56616345e-003 -2.72917505e-002 8.84599052e-003 -3.97625705e-003
      2.27262583e-002 -1.08046401e-002 -2.55034771e-002 -1.77708250e-002
      1.34005572e-003 4.69274772e-003 2.45075841e-002 1.14686554e-002
      6.86662178e-003 6.91628363e-003 7.52185984e-003 -2.10333560e-002
      6.32506097e-003 3.69709730e-002 1.97327486e-003 7.65443034e-003
      -1.09236790e-002 -4.59873769e-003 -1.41778411e-002 3.35730147e-003
      -1.93611849e-002 -8.24731495e-003 -2.92095332e-003 7.52577931e-003
      -1.80499852e-002 -1.07394215e-002 -2.05988958e-002
      -1.82677507e-002 1.88883916e-002 1.69620605e-003 2.58149318e-002
      -2.45219916e-002 -8.08679406e-003 -2.80744839e-003 4.11604252e-003
      -2.18711793e-002 -3.42920870e-002 0. 7.16998614e-003
      -5.59436716e-002 5.60546946e-003 7.08230212e-003 1.77577585e-002
      2.38032136e-002 1.30110681e-002 1.37656340e-002 -8.49214196e-003
      2.65356842e-002 -6.50929380e-003 4.42868145e-003 8.54350161e-003
      2.98080873e-002 1.60953775e-002 8.38179793e-003 1.28843365e-002
      1.62601117e-002 5.54663595e-003 3.57259251e-003 5.35709457e-003
      -1.03691006e-002 -6.02807254e-002 1.16689494e-002 1.70598626e-002
      -1.35670612e-002 -1.78606994e-003 1.22716627e-003 -2.24130368e-003
      3.17802019e-002 4.24657762e-003 1.57592837e-002 1.17083397e-002
      2.25226488e-002 5.22396760e-003 -1.97812896e-002 2.38964637e-003
      -1.60960052e-002 -9.93413292e-003 -1.78827830e-002
      -7.13962642e-003 -3.36333364e-002 3.90815083e-003 -4.32214588e-002
      1.95500404e-002 1.47510553e-003 -1.03757530e-002 -6.32963609e-003
      1.27460109e-002 1.21079963e-002 -3.32958177e-002 9.24393535e-004
      1.85856887e-003 1.31722894e-002 -3.58230434e-002 -1.00575690e-003
      -4.56012180e-003 -1.35651371e-002 1.95811074e-002 -5.07526053e-003
      1.05069047e-002 2.49164016e-003 -3.34039629e-002 3.17716040e-002
      1.26957428e-002 3.05050798e-002 1.02673937e-002 -3.16829886e-004
      3.51811349e-002 -6.76377153e-004 -2.92905122e-002 -8.07362236e-003
      2.23097391e-002 9.67813097e-003 4.43979725e-003 1.18213808e-002
      -1.97477322e-002 -7.79788755e-003 1.10951113e-002 -9.78197437e-003
      1.07192276e-002 1.42757613e-002 4.40292023e-002 -1.92601196e-002
      2.20140652e-003 -2.34791469e-002 2.97019836e-002 3.18045611e-003
      -3.02735018e-003 2.32783221e-002 -2.24009040e-003 1.12320874e-002
      -1.78162940e-002 -1.29368100e-002 -1.69544965e-002 2.12603481e-003
      1.23431925e-002 -1.05749909e-002 -1.68109052e-002 4.14810423e-003
      6.48207869e-003 -2.56073065e-002 8.49951804e-003 9.85177932e-004
      3.39138955e-002 3.34520219e-003 -2.38837842e-002 3.68786720e-003
      -3.70339374e-003 2.62034386e-002 -2.99228006e-003 2.07970720e-002
      -3.33552286e-002 2.35766508e-002 2.69433875e-002 -2.07152963e-002
      1.59795415e-002 1.25337755e-002 -1.84746645e-002 -1.18095390e-002
      -1.54412342e-002 2.32226718e-002 4.39999253e-002 -4.83694449e-002
      1.56435017e-002 3.28283175e-003 4.36389493e-003 1.38436342e-002
      3.97028513e-002 5.05086174e-003 2.05157627e-003 -8.60055350e-003
      -1.83142126e-002 1.37297483e-002 -8.19702819e-003 2.88683940e-002
      1.82302739e-003 3.78586049e-003 1.14567736e-002 -7.52132433e-003
      8.69005639e-003 1.50449583e-002 -6.76371902e-002 1.36340503e-002
      -4.70447727e-003 -2.94918660e-003 -5.90778142e-003
      -1.69248488e-002 1.04439547e-002 1.03702853e-002 4.18832898e-002
      -1.72225870e-002 1.59617327e-002 -2.14340840e-003 5.38777653e-003
      -3.36963194e-003 -1.62859317e-002 -4.82081930e-004 1.89577378e-002
      2.88943993e-003 -2.04572063e-002 1.80719942e-002 1.68958232e-002
      1.06140589e-002 -2.57697375e-003 7.46781519e-003 -4.50526095e-005
      8.20712745e-003 1.44966925e-002 -6.61526714e-003 -2.93800514e-002
      2.65633371e-002 -1.32695623e-002 -1.40636321e-002 1.39944367e-002
      -7.56331114e-003 8.02467391e-003 9.33852699e-003 2.36084554e-002
      -2.70164311e-002 5.98445302e-003 4.97657526e-003 2.84671504e-002
      -8.43814202e-003 1.05019594e-002 8.71284492e-003 1.86219756e-002
      -2.07975432e-002 -1.73541196e-002 9.87159554e-003 1.20242191e-002
      -2.50261277e-002 1.07489768e-002 -4.05549109e-002 2.01363843e-002
      1.26440153e-002 -2.51994412e-002 -5.05527016e-003 -2.76546855e-003
      -5.43263480e-002 -4.54838574e-003 -2.42818929e-002 1.93582531e-002
      6.73431996e-003 -1.67643826e-003 7.79825170e-003 1.14885923e-002
      2.51119938e-002 -3.19595523e-002 -5.62296901e-003 -1.39557943e-002
      3.98926763e-003 -5.29839378e-003 -1.45304929e-002 1.64604187e-002
      -1.78109147e-002 -1.27576152e-002 9.89996456e-003 -2.11447757e-002
      6.14507450e-003 -1.20261533e-003 -5.29451482e-002 7.34768668e-003
      2.25803144e-002 -1.26761077e-002 -1.04903225e-002 6.44894841e-004
      1.30689815e-002 -6.13351427e-002 1.50485279e-003 6.23741932e-003
      1.65339988e-002 1.06180748e-002 -7.55839143e-003 2.30967421e-002
      -5.88986184e-003 -4.54632333e-003 1.35609685e-002 2.74613569e-003
      -3.29854153e-002 -1.33479862e-002 7.02460390e-003 6.43208297e-003
      -1.97036732e-002 -3.50812566e-003 3.26459506e-003 9.99560859e-003
      4.93591884e-003 1.30884554e-002 2.31669601e-002 -6.86744377e-002
      4.71724197e-003 1.82295032e-003 1.20842550e-002 1.41350674e-002
      -2.95132324e-002 -2.69588828e-002 2.33546421e-002 -9.45289247e-003
      -2.43963674e-002 1.42090637e-002 -1.08174849e-002 2.67152824e-002
      1.06569435e-002 -1.52338604e-002 3.01492289e-002 2.52226498e-002
      3.45968129e-003 1.07373046e-002 1.65850706e-002 6.42592134e-003
      1.91696541e-004 -4.39019725e-002 -3.37816309e-003 -3.40648298e-003
      5.32166567e-004 -1.12498039e-002 5.25503419e-002 -2.11911928e-003
      8.66417214e-003 -1.79734477e-003 1.27556436e-002 -1.03241885e-002
      -1.85971707e-002 2.81265862e-002 1.20343691e-004 4.95401211e-003
      3.22370194e-002 -6.66964334e-004 2.97350832e-003 5.56084327e-003
      7.93911051e-003 1.18450647e-004 -2.64576618e-002 -5.79853076e-004
      1.09656318e-003 1.87292546e-002 1.33004431e-002 7.76985614e-003
      -1.50683196e-003 2.73387190e-002 -1.27574569e-002 -2.50602830e-002
      -1.20586529e-002 9.40629840e-003 -3.72170322e-002 2.45385547e-003
      5.94605599e-003 2.00997461e-002 7.06828025e-004 -1.26444604e-002
      1.63920801e-002 -4.16660495e-003 2.41750032e-002 -1.52039360e-002
      1.61638635e-003 -4.72821994e-003 1.55459819e-002 -1.09034097e-002
      -1.09226145e-002 7.78201595e-003 2.45665410e-003 2.47023371e-003
      4.77646757e-003 4.75605670e-003 1.25772096e-002 -1.21424685e-003
      1.63592249e-002 -7.72829279e-002 -1.02251051e-002 -2.43182248e-003
      -2.65365131e-002 -3.50128324e-003 -1.77629795e-002 3.12337112e-002
      -1.31813819e-002 2.34852429e-003 -5.47577217e-002 1.48946764e-002
      2.59132758e-002 1.24361850e-002 2.70666629e-002 -9.26132873e-003
      -1.06338002e-002 1.48759875e-002 -4.93919244e-003 -1.03541035e-002
      -3.46326753e-002 -1.02247298e-002 5.21604577e-003 -3.74184898e-003
      2.41147596e-002 9.83682368e-003 6.10912498e-003 2.95872567e-004
      -1.80562865e-002 2.47115288e-002 2.35252194e-002 2.17060577e-002
      -2.75819432e-002 1.84469856e-002 -1.33635169e-002 2.21473072e-003
      -4.00913646e-003 -1.07219126e-002 1.70523450e-002 1.71991847e-002
      -4.03925702e-002 -4.36859578e-002 -5.28631359e-003 1.18867662e-002
      2.01102030e-002 2.84251291e-002 2.22855713e-002 2.06371453e-002
      1.65364845e-003 4.86946059e-003 4.04567970e-003 4.17816779e-003
      -1.45779399e-003 1.82687752e-002 -1.73585571e-003 3.07634231e-002
      -3.78668122e-003 1.05423536e-002 6.51483750e-003 6.76214928e-003
      -9.19155485e-004 1.73466187e-002 4.26964834e-003 1.39322253e-002
      3.16443443e-002 6.05559256e-003 -2.89803762e-002 2.04883311e-002
      -2.78422199e-002 1.56436930e-003 1.83844268e-002 -2.72682644e-002
      2.62425351e-003 -7.87356030e-003 3.15156840e-002 2.31652725e-002
      -5.32600237e-003 1.37316966e-002 -1.53429098e-002 -4.27486673e-002
      -1.04793068e-002 -1.60898846e-002 -2.64440905e-002
      -6.30548447e-002 8.03786621e-004 1.53812976e-003 4.04171925e-003
      4.00287192e-003 -2.93355789e-002 -4.72910143e-003 -3.50151490e-003
      1.27429236e-003 3.79343261e-003 -1.36079872e-002 2.06528064e-002
      3.05942539e-002 2.15151161e-002 -2.60234624e-002 4.82596131e-003
      4.27799299e-003 -5.12798969e-003 -9.82693676e-003 1.56907756e-002
      1.05415960e-003 -1.80921964e-002 2.63438933e-002 -2.41027083e-002
      7.95753952e-003 -2.01109126e-002 1.21754901e-002 -4.06508381e-003
      2.30049081e-002 2.04702448e-002 2.82421429e-002 1.25350151e-003
      3.35656255e-002 -3.18109915e-002 2.95558758e-002 -1.05622755e-002
      -2.95986771e-003 -2.43774783e-002 -7.18399696e-003 1.10729979e-002
      -9.84063605e-004 1.26213459e-002 4.15998138e-002 -1.50461551e-002
      2.90116033e-004 3.95050365e-003 -3.02772950e-002 -5.54806693e-003
      -3.18840854e-002 -9.85671394e-003 -7.03841634e-003
      -7.05983723e-003 -1.35045862e-002 1.76115260e-002 2.60479748e-003
      -1.12173930e-002 -1.10136904e-002 -9.51121934e-003 2.21880730e-002
      1.98156089e-002 -2.26406823e-003 -1.98282748e-002 -1.77692547e-002
      -1.03784027e-003 -9.75354947e-003 2.38278788e-002 1.80509929e-002
      1.01464689e-002 1.24017717e-002 -4.67510475e-003 1.09859919e-002
      -2.73441267e-003 -2.12673955e-002 2.96661368e-004 2.15118006e-002
      -1.64346229e-002 8.18966050e-003 8.75171088e-003 -1.91701706e-002
      1.69961359e-002 1.79334860e-002 -2.34437790e-002 1.25222290e-002
      -1.35135874e-002 6.39491761e-003 -1.56666785e-002 1.84554998e-002
      1.05859507e-002 -6.27289042e-002 -1.56464651e-002 -1.12072192e-002
      2.41167471e-003 -4.76802373e-003 -1.01830354e-002 2.33460255e-002
      9.00921132e-003 1.77759305e-002 6.53910311e-003 1.42019044e-003
      -5.21418592e-003 -2.10267399e-002 -1.87903568e-002
      -1.27372309e-003 5.85868373e-004 -1.46725979e-002 -3.53050046e-002
      1.41265383e-002 4.09834692e-003 2.55350098e-002 2.66570877e-003
      -3.72839198e-002 -2.00110041e-002 -4.87823375e-002 1.18410746e-002
      9.96195804e-003 4.28855233e-003 -1.30716367e-002 -1.60955042e-002
      1.36654554e-002 4.36029444e-003 -5.58046252e-003 2.15450227e-002
      2.31335349e-002 3.14861536e-002 2.00105272e-002 1.26067512e-002
      3.80433374e-003 -1.33178532e-002 5.54788392e-003 1.52526703e-003
      -8.70022550e-003 8.93347990e-003 -1.13470200e-003 1.16297072e-002
      1.20740654e-002 -3.68893109e-002 5.23273041e-003 1.44874044e-002
      -1.17613617e-002 1.60487816e-002 1.96286640e-003 1.51558910e-002
      -2.45122313e-002 -1.24684554e-002 6.62118755e-003 1.47250853e-002
      8.82368255e-003 2.89624110e-002 1.53877344e-002 -1.25124520e-002
      7.27802515e-003 -9.49425437e-003 -1.13784447e-002 5.92331868e-003
      -2.39190599e-003 -1.93621090e-003 -3.87415243e-003 1.24066696e-002
      -1.62675977e-002 2.15221685e-003 2.34169140e-002 1.20635532e-005
      1.31083727e-002 1.51825673e-003 -3.22275721e-002 3.40548367e-003
      1.41036967e-002 4.04580217e-003 1.77380582e-003 9.89077147e-004
      -3.31597961e-002 -6.93205104e-004 5.65214874e-003 1.33822393e-002
      -7.48681230e-003 -4.72732447e-003 1.12065272e-002 -3.74438763e-002
      -5.91064012e-003 -2.44320952e-003 -5.20124659e-003 1.85053144e-003
      -7.81738665e-003 -3.98479402e-002 -1.26046883e-002 6.58421312e-003
      2.43239943e-002 -2.90574394e-002 6.84514875e-003 8.13624728e-003
      3.59477475e-003 1.29881725e-002 1.49225304e-002 -5.94424382e-002
      8.77206121e-003 -2.19669007e-002 1.03961034e-002 -1.79005146e-003
      7.19565665e-003 -3.81028326e-003 2.95456592e-003 -1.59356147e-002
      1.75309591e-002 4.42426745e-003 5.29258251e-002 -2.71666329e-002
      2.38848645e-002 3.85225844e-003 -1.35931578e-002 5.21822600e-003
      4.69260756e-003 4.54284763e-003 7.77994376e-003 1.13879796e-002
      4.02924558e-003 -1.06700733e-002 -5.72883245e-003 7.52533646e-003
      1.91117860e-002 6.69155875e-003 -9.60560050e-003 4.18536812e-002
      1.80917643e-002 2.73915455e-002 7.17939436e-003 9.14077333e-004
      8.51724180e-004 9.31045972e-004 -1.60260629e-002 -6.40783506e-003
      -1.86044499e-002 -2.84331329e-002 -1.25336945e-002 4.44854749e-003
      -1.74444483e-003 -4.47985716e-003 2.61508161e-003 -4.09697033e-002
      6.43789768e-003 -6.30764244e-003 1.39595456e-002 -3.27313095e-002
      2.36990806e-002 -2.19188780e-002 -3.06288269e-003 3.17762117e-003
      1.25941653e-002 -9.11661703e-003 -3.85545604e-002 -2.86631808e-002
      1.94296818e-002 9.91008524e-003 -1.17797544e-002 -1.03060527e-004
      1.87218245e-002 2.53760088e-002 -4.41094255e-003 3.19842026e-002
      3.70860174e-002 -3.03479787e-002 -8.23083706e-003 3.71701986e-004
      8.28201883e-003 -6.01223111e-003 -1.63885765e-003 -2.73232665e-002
      2.02210154e-003 -2.67641786e-002 2.03664359e-002 -1.03497030e-002
      5.96299581e-003 -2.19184952e-003 8.14935751e-003 1.38481474e-002
      -1.92022920e-002 1.28358053e-002 1.29454769e-002 6.79085148e-004
      5.51167037e-003 -1.74584910e-002 -4.74247662e-003 8.63515027e-003
      -1.48417009e-002 1.16643216e-002 -1.56632457e-002 -4.27601021e-003
      1.95943341e-002 1.83057450e-002 1.70627311e-002 -1.54344249e-003
      -4.10457887e-002 1.05228154e-002 9.77907982e-003 8.00030027e-003
      6.49673981e-004 -1.01044606e-002 5.42995706e-003 8.44120421e-003
      -1.14924076e-003 -1.99251529e-002 -1.65052637e-002
      -7.03956373e-003 1.09696910e-002 -1.46091403e-002 -4.28356091e-003
      -2.71954783e-003 -4.36634617e-003 2.51209852e-003 9.46151093e-003
      4.32159519e-003 6.96467562e-003 -1.10899555e-002 1.65968668e-003
      1.39565021e-002 -8.19869898e-003 8.58773757e-003 1.55072687e-002
      -9.48975049e-003 1.13207893e-002 1.06022405e-002 2.27441955e-002
      1.19474558e-002 -7.75436638e-003 1.30871590e-003 6.06526155e-003
      -1.35881193e-002 -2.81442478e-002 -2.28830874e-002 1.20987445e-002
      -1.27021009e-002 -1.68662407e-002 -2.53947042e-002 2.61354190e-003
      3.09076253e-003 2.17375136e-003 2.03553289e-002 -1.41129903e-002
      8.90794396e-003 1.37164199e-004 -6.99619949e-003 1.01001337e-002
      -1.00579159e-003 -1.15426760e-002 -1.53555209e-002 8.26826133e-003
      1.65519062e-002 8.60669930e-003 8.51206016e-003 -3.52648944e-002
      1.06993839e-002 1.38379103e-002 1.95334889e-002 -4.56889719e-003
      -3.86517942e-002 1.62330419e-002 3.12605090e-002 1.09646460e-002
      -8.40321823e-004 6.93737017e-003 2.94308132e-003 -3.65653075e-002
      -1.50335897e-002 3.68433185e-002 -3.41019337e-003 2.86091497e-004
      2.57900711e-002 1.00471657e-002 5.57314139e-003 8.77972785e-003
      -6.48055167e-004 1.11360718e-002 -2.80238688e-002 -1.46150673e-002
      -6.60666730e-003 6.10510958e-003 1.08877607e-002 1.99872106e-002
      -2.92543974e-003 -5.91358077e-003 2.55465582e-002 -2.40557585e-002
      -1.41356362e-003 1.08984411e-002 2.57161278e-002 -2.99234129e-003
      1.38867777e-002 6.67196978e-003 -1.76330563e-002 6.12523640e-003
      -8.71432386e-003 7.46842986e-003 -1.56075805e-002 2.29061153e-002
      -1.30030178e-002 2.09285397e-004 1.27995154e-002 -9.03427824e-002
      -4.72064642e-003 -4.47805086e-003 -4.20686463e-003 1.85677633e-002
      -4.19828184e-002 7.21084746e-003 -1.75089277e-002 -1.86987892e-002
      2.22629905e-002 -1.35086069e-004 1.30496230e-002 1.07756397e-003
      3.37574189e-003 -1.46369627e-002 -2.62639741e-003 -7.46783474e-003
      1.20977759e-002 -1.95688847e-003 -3.48418541e-002 1.45207869e-003
      4.20061573e-002 -1.78636126e-002 2.69748177e-002 7.78317684e-003
      -4.89304261e-003 5.60981408e-003 -2.60334299e-003 -3.48771835e-004
      1.54404715e-002 -2.09642630e-002 -1.81914903e-002 2.10083444e-002
      -3.86754284e-003 -5.79382246e-003 1.86047032e-002 1.02745397e-002
      6.59281993e-003 1.16092134e-002 -1.98628064e-002 1.32308081e-002
      -1.34580806e-002 -1.62205962e-003 -9.42494720e-004 4.25912300e-003
      -9.12794098e-003 2.21155374e-003 1.07209729e-002 -9.43477498e-004
      1.01793557e-002 2.19347607e-002 6.68849237e-003 -2.20658281e-003
      2.03214702e-003 -2.04282831e-002 1.94568820e-002 -2.37944140e-003
      2.81946687e-003 1.92380161e-003 -2.25292202e-002 1.95506476e-002
      -1.67664420e-002 -3.16200294e-002 -2.70487387e-002 2.25339774e-002
      -8.33115075e-003 -2.52914950e-002 -1.07803289e-002
      -1.96094364e-002 -1.11366250e-003 5.74289076e-003 7.49182841e-003
      -3.36862891e-003 -2.06654351e-002 1.24118794e-002 -5.24465414e-003
      1.07728019e-002 -1.54609350e-003 1.20284399e-002 -1.57533996e-002
      3.26370518e-003 1.19072264e-002 -4.03686659e-003 -6.08967734e-004
      1.41351363e-002 -2.84990203e-003 -1.44768236e-002 -1.88831091e-002
      -2.63531953e-002 -1.69944379e-003 -8.41000490e-003
      -3.22076539e-003 -5.06583191e-002 -4.13386617e-003
      -1.10341068e-002 -1.77605469e-002 -1.45961829e-002
      -1.38769606e-002 -5.95410168e-003 1.01980912e-002 1.22201222e-003
      1.28382363e-003 -2.66233198e-002 -1.50881410e-002 4.52387147e-003
      7.99671095e-003 -2.97376281e-003 -7.98683520e-003 6.00775611e-003
      7.40494020e-003 4.68309550e-003 -9.69058834e-003 4.21501547e-002
      -1.16614737e-002 3.57771479e-003 -3.59899439e-002 5.39754797e-003
      1.62091181e-002 4.46800096e-003 -3.68472449e-002 -1.37654571e-002
      -6.89446228e-003 -1.26315770e-003 1.31590748e-002 1.61590073e-002
      2.14758068e-002 2.13669240e-003 1.26537764e-002 -1.92606617e-002
      3.94270197e-003 -8.85758083e-003 -1.56752281e-002 -3.51584703e-003
      4.31247149e-003 -1.83331233e-003 1.42405825e-002 3.97123309e-004
      -3.75156477e-002 -1.64153439e-003 6.46605203e-003 1.57021936e-002
      -2.31804955e-003 2.99999118e-002 2.00163592e-002 2.74717398e-002
      -1.45192607e-003 1.87930875e-002 -3.00678163e-004 3.84848118e-002
      3.75215407e-003 -1.32825477e-002 1.65623091e-002 8.41988064e-003
      -1.75102288e-003 8.70857388e-003 -4.50138040e-002 1.76494406e-003
      8.00379366e-003 -1.48828607e-002 -1.68000534e-002 2.66231298e-002
      5.51274838e-003 -1.11844074e-002 1.37631800e-002 -1.79801049e-004
      8.19509011e-003 1.34705324e-002 6.87016547e-003 9.85416304e-003
      -2.64118407e-002 3.73076438e-003 -4.01698146e-003 6.56982744e-003
      2.08209623e-002 5.46460319e-003 1.28353667e-002 1.82951558e-002
      1.65680908e-002 -5.00916364e-003 -3.60896648e-003 1.31085562e-002
      2.02553011e-002 -2.50451602e-002 -7.47957779e-003 1.73826469e-003
      -2.78808866e-002 -2.34800000e-002 2.42552124e-002 5.54107781e-003
      -9.11921170e-003 7.62741361e-003 2.21063904e-002 6.12670439e-004
      5.44861378e-003 1.39528820e-002 2.29212549e-002 9.56004951e-003
      7.32296100e-003 1.35767069e-002 -3.21121290e-002 -9.95923672e-003
      -1.76854653e-003 1.60582326e-002 2.79974919e-002 -6.34667045e-003
      -4.59535327e-003 1.89800560e-003 2.71932203e-002 -2.33412138e-003
      -2.98354193e-003 8.37577134e-003 2.59650755e-003 1.11960964e-002
      1.62494592e-002 6.82041096e-003 -8.49618576e-003 -4.31129988e-003
      4.26489860e-003 1.82582941e-002 -4.60122526e-003 3.64638073e-003
      7.13437516e-003 -8.08320998e-004 -7.83042610e-003 8.38115439e-003
      1.56326313e-002 -3.11942538e-003 -2.23466400e-002 4.50336654e-003
      9.88187734e-003 7.92297628e-003 1.18718110e-002 8.64399318e-003
      -5.04824426e-003 2.03520842e-002 -1.15075372e-002 -2.37682881e-003
      -5.48660196e-003 1.44307455e-002 1.11583192e-002 2.17326963e-003
      1.01906406e-002 1.77715924e-002 -5.26152644e-003 5.11581684e-003
      1.23442523e-002 1.38321398e-002 5.56251733e-003 1.04414467e-002
      6.96862291e-004 5.72685990e-003 -1.77227519e-002 1.65997306e-003
      -8.24191794e-002 -3.54246013e-002 -4.04496156e-002
      -4.18374315e-003 -6.62146136e-003 1.86281744e-002 -5.86933037e-003
      -1.43176522e-002 4.30364441e-003 2.14627367e-002 2.28280900e-003
      -1.36897579e-004 -2.07518591e-004 1.86870731e-002 -1.42954485e-002
      -3.16051138e-003 -4.98475833e-003 -1.35210287e-002 1.41463149e-002
      9.50434804e-003 6.01213705e-003 7.94988405e-003 -9.97723080e-003
      6.61042519e-003 1.58374812e-002 -1.79552212e-002 6.66106958e-003
      1.20857693e-002 1.96483098e-002 -6.20335434e-003 -2.14362703e-002
      6.12453138e-003 2.38468256e-002 2.04563662e-002 1.46875635e-003
      1.23785390e-002 1.01168063e-002 6.72869966e-004 5.29657491e-003
      1.93118677e-002 2.78615765e-003 1.84265077e-002 1.92150902e-002
      1.09126754e-002 1.64289004e-003 1.10067604e-002 -6.89159962e-004
      7.22515304e-003 7.57641206e-003 1.09622313e-003 -1.69528481e-002
      -1.41547399e-003 1.23759173e-002 5.72113274e-003 6.92203641e-003
      5.80590265e-003 2.59849569e-003 -1.88014172e-002 -2.05932232e-003
      7.70266540e-003 2.44523585e-002 7.04144733e-003 1.82146300e-002
      1.35587472e-002 -4.01684940e-002 1.53220268e-002 1.36486655e-002
      -5.98364417e-003 6.42190734e-003 -1.77243706e-002 -2.02907734e-002
      4.81275050e-003 1.87408160e-002 1.05515243e-002 -1.88791696e-002
      -4.69699409e-003 -7.43417675e-003 -1.35507835e-002
      -7.90605962e-004 -2.41428148e-003 9.55243595e-003 -1.42714679e-002
      -5.54230181e-004 1.17783854e-002 7.55297579e-003 -2.61785369e-002
      3.51441931e-003 -1.22734141e-002 1.67952739e-002 -8.13371409e-003
      -5.18800644e-003 1.40949115e-002 8.69462173e-003 1.55243706e-002
      -3.26011330e-002 -2.26860549e-002 -1.38353358e-003 5.77097805e-003
      -9.53403208e-003 -6.64959196e-003 5.03183762e-003 1.33503107e-002
      -7.21509219e-004 -1.07262358e-002 5.86444605e-003 -1.13147218e-003
      3.02029704e-003 -1.47307501e-003 1.28264371e-002 2.30713356e-002
      1.37883406e-002 -1.53962953e-003 9.88038443e-003 1.74978897e-002
      3.66254523e-002 3.73884547e-003 -2.20591910e-002 5.06737409e-003
      2.05117818e-002 -1.14926593e-002 1.25448117e-002 8.40016548e-003
      -5.17830951e-003 -3.67909577e-003 1.62096396e-002 -2.32489072e-002
      5.61368559e-003 -2.09503085e-003 -1.67692788e-002 1.70116946e-002
      1.56357279e-003 1.55901955e-002 -1.92738065e-004 7.42748205e-004
      -1.34289851e-002 2.90478077e-002 2.82602524e-003 -6.96409401e-003
      1.39806867e-002 -8.69370811e-003 2.01602634e-002 2.10891999e-002
      1.42135713e-002 1.44168185e-002 -3.53776626e-002 1.59540512e-002
      -4.47451770e-002 1.14154937e-002 3.32379341e-002 1.06387027e-002
      1.56106343e-002 7.65964855e-003 -2.16618516e-002 2.80307169e-004
      4.06004209e-003 -3.27721089e-002 1.15595479e-002 -4.40911390e-003
      7.67699815e-003 -6.58418844e-003 4.03979514e-003 -1.51965942e-003
      -3.88569012e-002 1.11289211e-002 -2.11439747e-002 9.43550281e-003
      1.69077888e-002 3.12199397e-003 -1.45769808e-002 1.06393695e-002
      1.46812689e-003 -4.13621124e-003 -3.24963182e-002 -4.68425453e-003
      -1.30682476e-002 9.38355364e-003 5.16753783e-003 1.99615490e-002
      1.59299448e-002 1.81751829e-002 1.88462716e-003 -4.29390976e-003
      -1.72265910e-003 -8.41075089e-004 3.97476600e-003 2.05751285e-002
      3.22826323e-004 -2.08057780e-002 1.98735781e-002 -1.18050687e-002
      -1.00669963e-002 -1.30181173e-002 4.25096042e-003 2.94258189e-003
      8.35843477e-003 -1.12702381e-002 -2.92765745e-003 -5.50042419e-003
      -7.94672780e-003 8.48292280e-003 1.35947922e-002 1.98651981e-002
      -3.81088466e-003 -5.46746664e-002 3.72066610e-002 4.92645912e-002
      -1.76859065e-003 1.09069059e-002 -3.28744836e-002 1.83589710e-003
      -3.90298734e-003 5.37085999e-003 2.24408531e-003 6.76569901e-003
      1.55404489e-002 -1.07244002e-002 6.02065725e-003 8.71711597e-003
      -8.89915228e-003 -1.84705611e-002 4.78442945e-003 1.74781606e-002
      1.48897236e-002 -1.01560671e-002 9.35327355e-003 -1.49017032e-002
      7.94355199e-003 -2.41573155e-003 -3.04379896e-003 2.95839459e-002
      -1.40277576e-002 1.07568642e-002 5.70490910e-003 1.58260725e-002
      8.59476998e-003 -3.22443456e-003 -1.08498642e-002 -3.26183289e-002
      3.91962891e-003 1.26162928e-003 -2.50000861e-002 2.92567592e-002
      -4.77805873e-003 2.18644552e-002 -1.17351615e-003 -5.44054154e-003
      5.95390517e-003 -8.88517965e-003 -2.72333194e-002 -9.00655705e-003
      2.55097705e-003 -1.74177738e-004 1.52198812e-002 -1.14976075e-002
      -9.75739025e-003 9.85588413e-003 -1.60258617e-002 1.02480529e-002
      2.23421752e-002 1.78880673e-002 -1.25651583e-002 -3.54022533e-003
      1.40544400e-003 1.07531436e-002 1.68498680e-002 1.15586836e-002
      -1.70790750e-004 -1.23811848e-002 8.34825449e-003 9.74299666e-003
      1.50091143e-003 -1.74291786e-002 1.24664120e-002 2.76414212e-003
      1.47918090e-002 1.11733451e-002 2.59775668e-002 -1.21625438e-002
      -4.52008247e-002 7.67231965e-003 1.05189933e-002 -4.24930640e-002
      -4.43980768e-002 2.56420998e-003 -1.75932527e-003 3.30031710e-003
      7.75153236e-003 4.59895004e-003 -1.55045260e-002 7.79132301e-004
      -5.37225790e-002 -6.12275787e-002 3.47959995e-003 6.37704693e-003
      1.41614005e-002 9.55698639e-003 1.40953641e-002 1.58345867e-002
      2.31970791e-002 8.04668944e-003 7.42427679e-003 -1.54710666e-003
      -5.88981882e-002 6.16537733e-003 -1.29284654e-002 2.75988877e-002
      2.30819192e-002 9.99920163e-003 2.91060898e-002 9.93201882e-003
      -7.72150466e-003 7.47426739e-003 -4.65052128e-002 -8.57684854e-003
      8.85644183e-003 -7.48698711e-002 1.11148218e-002 1.33714918e-002
      -3.40542309e-002 1.52536444e-002 1.20656192e-002 -4.04892676e-003
      2.25588270e-002 1.87603217e-002 -2.68058497e-002 -1.76840508e-003
      7.88935088e-003 -8.60091485e-003 4.80672996e-003 1.91659704e-002
      1.31456228e-002 6.85324334e-003 -3.89669527e-004 8.86494294e-003
      -8.43770523e-003 -6.87886262e-003 -3.23681273e-002 9.41266958e-003
      2.47286260e-003 1.61651410e-002 -2.11003032e-002 2.14550761e-003
      -7.98470573e-005 3.12380819e-003 -3.66395377e-002 7.72463041e-004
      1.83150414e-002 2.04064115e-003 2.45713089e-002 -8.07674695e-003
      -3.13604344e-003 -3.32724713e-002 -1.28676360e-002 3.99851846e-003
      -4.99059679e-003 -2.08407585e-002 1.77959795e-003 2.72433534e-002
      5.77015337e-003 1.27246585e-002 1.78713456e-003 9.64854565e-003
      1.38939349e-002 4.17571608e-003 1.17364312e-002 1.38255162e-003
      7.92378280e-003 1.77931026e-004 2.61399969e-002 1.92535073e-002
      -1.47744948e-002 -9.62984003e-003 1.19252196e-002 -4.65479476e-004
      -9.67074558e-003 1.92995295e-002 -1.31815290e-002 1.43866232e-002
      1.91492811e-002 -6.05127914e-003 1.57404505e-002 1.09085976e-003
      3.18131084e-003 2.08150633e-002 4.95602668e-004 1.00331204e-002
      -5.78204654e-002 -1.48021886e-002 1.58174746e-002 -1.91813149e-002
      5.55609120e-003 -6.06695935e-003 2.13960162e-003 1.55983167e-003
      -4.86943405e-003 -1.36476560e-002 -4.02443204e-003
      -4.22697514e-003 -1.56938434e-002 -1.40594272e-002
      -6.87537249e-004 -6.85070641e-004 1.60479045e-003 7.94697553e-003
      -9.25250072e-003 9.95462853e-003 -1.05908858e-002 -1.67416446e-002
      -1.31241279e-002 -6.17695227e-003 -6.16003247e-003 1.10867042e-002
      5.21351909e-003 5.23631973e-003 -6.64431304e-002 -5.96574787e-003
      -1.68276869e-003 1.38499513e-002 -7.15924650e-002 -4.47544642e-002
      1.14338910e-002 -1.81038249e-002 2.06788518e-002 2.02993732e-002
      1.88892509e-003 -1.34764612e-002 8.85974616e-003 3.06274295e-002
      -1.22401435e-002 1.22676427e-002 -1.51575804e-002 -1.07974820e-002
      7.42458366e-003 1.07058119e-002 -6.62639691e-003 1.10152503e-002
      1.10473782e-002 1.68632809e-002 1.28552003e-003 1.10162785e-002
      5.68851456e-003 -6.74171466e-003 -6.06955774e-003 3.99722625e-003
      2.02394053e-002 -3.70643027e-002 2.45490596e-002 6.40498288e-003
      8.25015828e-003 8.35755095e-003 4.96972911e-003 1.09502077e-002
      8.92493036e-003 -9.52280220e-003 8.37789755e-003 -1.18617481e-003
      1.76590625e-002 1.40807182e-002 -2.89464444e-002 -9.19768587e-003
      1.60518312e-003 2.19027195e-002 2.47552153e-002 1.46033580e-003
      -4.46516927e-003 -1.75223569e-003 1.06353359e-002 2.59988965e-003
      1.92123710e-003 -1.94598902e-002 6.51765382e-003 -3.65513712e-002
      4.89769620e-004 1.00482479e-002 1.59959085e-002 -1.62959825e-002
      -4.14057868e-003 1.41516402e-002 -6.08546566e-003 1.66740641e-002
      3.71128647e-003 7.06219813e-003 -1.74261183e-002 3.98579910e-002
      -1.19731659e-002 -1.65082817e-003 -7.50525296e-003 1.83271747e-002
      -6.67065906e-004 -2.89634541e-002 2.20789593e-002 3.38219083e-003
      5.48137724e-003 2.87820287e-002 -2.73233596e-002 3.37263406e-003
      3.76508432e-003 5.75540541e-003 7.52974162e-003 -2.62259282e-002
      4.80342284e-003 -2.10026037e-002 -1.86228787e-003 9.66486894e-003
      -1.21533545e-002 -1.86453853e-002 -1.27055477e-002 2.11035479e-002
      1.47772795e-002 5.32478467e-003 1.58513559e-003 -5.98333292e-002
      7.62581313e-003 7.14680878e-004 2.90208552e-002 2.05936562e-002
      -5.41633181e-002 1.42784845e-002 8.44332390e-003 4.83752508e-003
      2.07402278e-002 -7.21713435e-003 8.89653619e-003 -3.81526048e-003
      3.72291841e-002 2.57469993e-003 1.36209698e-002 -3.19437645e-002
      5.79764741e-003 -2.73800269e-002 5.05666481e-003 1.10116424e-002
      -2.90501248e-002 -2.12805700e-002 -9.50691930e-004
      -2.69032805e-003 8.55134800e-003 -1.00949630e-002 2.95610297e-002
      -1.15621528e-002 -1.84960756e-002 -1.84772220e-002 3.14242742e-003
      5.49123809e-003 7.90440012e-003 -6.72774215e-004 1.45161962e-002
      6.44023204e-003 -1.90016925e-002 8.30576848e-003 -7.58217974e-003
      4.05262224e-003 6.11756695e-003 -1.12247514e-002 -1.51678892e-002
      -1.65460967e-002 1.07163629e-002 -2.39923857e-002 1.10363821e-002
      4.77302773e-003 -1.56355221e-002 7.55787920e-003 1.09933419e-002
      9.97569412e-003 -3.87926549e-002 2.07782201e-002 2.07960955e-003
      -2.27109273e-003 -7.65304547e-003 6.55151147e-004 6.38302322e-003
      -3.53632215e-003 -3.57075110e-002 1.25707164e-002 -3.82911740e-003
      8.42075516e-003 -2.99987663e-003 -8.49547610e-003 2.78179701e-002
      1.28895091e-002 -1.08740991e-003 -1.68608204e-002 5.04972506e-003
      -2.26476393e-003 2.75143441e-002 7.77261937e-003 3.48849059e-003
      -2.96099056e-002 -3.21391001e-002 -6.56450586e-003 7.01434677e-004
      1.05767278e-002 9.93736205e-004 3.05333431e-003 -4.33487026e-003
      1.53896539e-002 -1.08858943e-002 -2.30792183e-002 3.25555285e-003
      7.43392156e-003 -7.65567925e-003 -4.67707543e-003 2.21058242e-002
      -1.06284032e-002 -5.03722318e-002 -1.18197426e-002 1.25788962e-002
      1.88884325e-002 -6.46905915e-004 1.41709438e-002 -1.77255068e-002
      -4.83441819e-003 6.36438234e-003 1.06829042e-002 3.22871492e-003
      -1.03122564e-002 1.23398108e-002 2.23455895e-002 -4.73952591e-002
      -5.79831153e-002 -3.60926799e-002 -2.07181703e-002 1.37277916e-002
      1.60921384e-002 -2.09340509e-002 8.50075949e-003 1.55204982e-002
      -1.04628215e-002 -6.81026792e-003 5.89679414e-003 2.45681731e-003
      1.41629064e-003 7.50003383e-003 -2.10130215e-002 -4.54096170e-003
      -9.78774275e-004 -4.81174065e-005 -9.63402074e-003
      -2.76553575e-002 -4.69891448e-003 1.19400686e-002 1.38928983e-002
      -4.68328502e-003 -1.50864405e-004 -3.82080115e-003
      -1.98175311e-002 8.01347941e-003 6.02469227e-005 1.02333687e-002
      1.54133011e-002 -5.48844552e-003 -3.20598707e-002 5.14070562e-004
      -1.91955306e-002 -1.44999241e-002 1.69467051e-002 7.44141580e-004
      8.08041543e-003 -8.19888338e-003 6.66525820e-003 -1.37980003e-002
      -8.61834642e-003 -2.57093483e-003 1.38615053e-002 2.29797103e-002
      1.20178629e-002 -5.24145272e-003 1.39538366e-002 7.69396871e-003
      2.05719541e-003 -1.07076541e-002 -9.49385460e-004 4.02134610e-003
      1.17226143e-003 -2.60799844e-002 -9.38152056e-003 -2.98754014e-002
      -8.89915414e-003 -5.10935159e-003 1.17991921e-002 2.57615675e-003
      1.69569273e-002 2.37010326e-002 5.38236322e-003 2.24975310e-002
      1.97694153e-002 -2.81333784e-003 1.35533791e-002 -2.28971429e-003
      -7.55923707e-003 9.97042097e-003 7.80566921e-003 -3.20469514e-002
      1.50781227e-002 -2.98646949e-002 -2.14877352e-002 6.89590001e-004
      3.41073552e-004 5.74180100e-004 -6.99414760e-002 1.68195087e-002
      -1.80167481e-002 -5.16851339e-003 -1.79889402e-003 1.41539134e-003
      -9.56747402e-003 9.57324076e-003 1.27310101e-002 1.88368540e-002
      6.03844412e-003 1.22949909e-002 -3.53211761e-002 -1.30350888e-002
      -7.94377271e-003 8.04372772e-004 3.11047514e-003 3.90369445e-004
      -7.13727297e-003 1.06665678e-002 1.82641782e-002 7.75705557e-003
      -9.69281420e-004 -5.82014322e-002 1.32429358e-002 -9.66193154e-003
      3.34346271e-003 8.89778044e-003 2.35825758e-002 4.54043830e-003
      -6.39990941e-002 8.48505925e-003 -9.49732494e-003 -5.90120582e-003
      -1.49480058e-002 7.53693189e-003 -3.26726958e-003 1.66636128e-002
      3.99127416e-003 1.06474496e-002 1.42539088e-002 -6.87729940e-003
      1.08503038e-002 4.16344823e-003 -1.46502927e-002 4.81985742e-003
      -3.99190094e-003 1.17836064e-002 2.38400679e-002 1.33169182e-002
      -2.01284047e-002 -7.47178402e-003 9.52098984e-004 -1.50676975e-002
      2.83964374e-003 -1.48621304e-002 -7.91940186e-003 8.50134587e-004
      4.71126894e-003 1.27892597e-002 1.37678469e-002 -1.28204376e-002
      -2.99168169e-003 1.19562517e-003 1.19045060e-002 1.29673607e-003
      -1.26383482e-002 8.92527960e-003 1.67579316e-002 2.17660144e-002
      -4.39810660e-003 -5.65021448e-002 -5.47010638e-002 6.53799332e-004
      1.70525499e-002 1.22058345e-002 1.34396134e-002 1.38335964e-002
      1.81915648e-002 2.30657309e-003 -1.48303481e-002 0.
      1.24654295e-002 9.31406114e-003 6.57443795e-003 9.37838014e-003
      -1.92508241e-003 -3.68639007e-002 6.01654779e-003 -7.44080031e-003
      -9.85143473e-004 1.54783251e-002 -5.49036870e-003</_></support_vectors>
  <decision_functions>
    <_>
      <sv_count>1</sv_count>
      <rho>-9.9830544693161793e-001</rho>
      <alpha>
        1.</alpha>
      <index>
        0</index></_></decision_functions></my_svm>
</opencv_storage>
