<?xml version="1.0"?>
<opencv_storage>
<my_svm type_id="opencv-ml-svm">
  <svm_type>C_SVC</svm_type>
  <kernel><type>LINEAR</type></kernel>
  <C>1.</C>
  <term_criteria><epsilon>2.2204460492503131e-016</epsilon>
    <iterations>1000</iterations></term_criteria>
  <var_all>2000</var_all>
  <var_count>2000</var_count>
  <class_count>2</class_count>
  <class_labels type_id="opencv-matrix">
    <rows>1</rows>
    <cols>2</cols>
    <dt>i</dt>
    <data>
      -1 1</data></class_labels>
  <sv_total>1</sv_total>
  <support_vectors>
    <_>
      -5.71328308e-003 5.27912239e-003 9.79957730e-003 -1.75841916e-002
      -6.15855120e-003 1.69397648e-002 2.05094405e-002 3.03704850e-003
      1.59376431e-002 3.50794313e-003 1.06229819e-002 7.86773581e-003
      9.81108285e-003 7.62922317e-003 9.23000462e-003 1.07551590e-002
      1.96715463e-002 2.62376461e-002 9.36049328e-004 2.44556684e-002
      -2.28817444e-002 1.01520196e-002 6.24004845e-003 5.32850949e-003
      1.39550352e-002 -3.37807313e-002 2.22948436e-002 -1.20526990e-002
      9.62721556e-003 2.07035989e-002 -1.98903996e-002 2.41977489e-003
      -9.20421910e-003 -2.72823535e-002 1.56510323e-002 -4.74537868e-004
      -3.75929326e-002 -1.28740249e-002 -8.76765139e-003
      -1.17977820e-002 3.10861375e-002 -9.43498407e-003 -1.69284493e-002
      -6.93282578e-003 -3.58175375e-002 -3.30052758e-003 3.39415111e-003
      8.10914673e-003 -1.64012723e-002 1.05216056e-002 3.19872126e-002
      1.90407261e-002 -5.57318656e-003 -7.84980226e-003 -5.48603991e-003
      8.40571988e-003 7.45446747e-003 -1.29575869e-002 1.74472909e-002
      -5.64265356e-004 1.84740580e-003 1.20107727e-002 -1.61128528e-002
      2.81530079e-002 1.90541917e-003 1.73913501e-002 1.12141808e-002
      -8.93852953e-003 1.87151216e-003 1.97536461e-002 2.72075161e-002
      -5.12044728e-002 -2.05258242e-004 -3.73155315e-004
      -4.57791751e-003 1.99470744e-002 -2.79582432e-003 2.10239924e-003
      5.72813302e-003 -4.85555828e-003 1.23988427e-002 -8.39543808e-003
      2.54869158e-003 -2.65047364e-002 2.19552778e-002 4.02799323e-002
      7.33044418e-003 -1.46686016e-002 5.96773811e-003 -1.11945430e-002
      -1.77263340e-003 -4.88845166e-004 -1.78826675e-002 1.52777284e-002
      3.44362552e-003 -6.77201618e-003 -4.75706486e-003 -1.24748973e-002
      -4.21868404e-003 -7.95970045e-005 1.94870273e-003 2.03117616e-002
      -8.97893589e-003 -1.38952928e-002 9.64961201e-003 1.96517375e-003
      1.38145844e-002 -1.92444213e-002 1.82240326e-002 -1.17805256e-002
      -1.53609011e-002 -3.32725211e-003 8.64910334e-003 1.17730973e-002
      -1.93035267e-002 5.92783652e-003 -3.48868687e-003 1.61136650e-002
      1.20571675e-002 -1.36734750e-002 7.80382892e-003 -6.02362386e-004
      3.99274565e-003 4.75001242e-003 1.55526409e-002 -1.12280417e-002
      4.99178376e-003 -9.41189285e-003 -2.40964559e-003 1.44883115e-002
      6.29194081e-003 1.27498033e-002 1.92236099e-002 -3.16741760e-003
      -9.10886656e-003 1.06419185e-002 1.32621946e-002 1.11627877e-002
      1.54131092e-002 -7.18737161e-003 -2.09778454e-002 -3.35391425e-002
      7.08372891e-003 -1.32473307e-002 2.30210945e-002 2.03162692e-002
      -3.95484176e-003 1.28046318e-003 7.40874792e-003 3.05950432e-003
      9.14462190e-003 -1.29474048e-003 5.23413625e-003 1.33561874e-002
      -4.62334342e-002 -2.76379045e-002 4.69469139e-003 9.04069562e-003
      -1.80150326e-002 -1.44320577e-002 -6.57630991e-003 5.86919999e-003
      5.76572865e-003 -6.02078857e-004 3.21542541e-003 -5.39451977e-003
      -2.55801226e-003 -1.76707804e-002 -5.21245238e-004 1.46931214e-002
      -2.29782425e-002 2.16951314e-002 3.66995460e-003 8.74581095e-003
      6.24744082e-003 8.43951013e-003 -4.35376423e-004 6.39686268e-003
      -9.98749211e-003 1.81310140e-002 -1.07931830e-002 -6.15300192e-003
      8.00725073e-003 -2.79625766e-002 3.84576130e-003 -1.00362638e-003
      2.81200390e-002 8.22477415e-003 4.35896497e-003 1.52374536e-003
      1.31555926e-002 -9.88080539e-003 1.94007729e-003 1.52628403e-003
      -8.62360001e-003 1.15923015e-002 -5.75717073e-003 1.68045750e-003
      1.21380268e-002 4.37447429e-003 -9.19307396e-003 -6.91324519e-003
      8.32511671e-003 9.22060478e-003 -3.66538973e-003 -9.46743414e-003
      -9.09666345e-003 -1.11005241e-002 -1.24752801e-002 7.04511302e-003
      -2.08180817e-003 1.16610504e-003 1.89431454e-003 -1.34745352e-002
      -9.13055707e-003 -1.55146960e-002 -2.04192521e-003
      -1.22550642e-003 -1.15567446e-003 2.13197563e-002 -1.80850010e-002
      -2.47492846e-002 -6.65958272e-003 1.77752990e-002 -2.23086122e-002
      9.03426204e-003 -2.72304825e-002 1.61169618e-002 -7.61069881e-004
      1.59924310e-002 -5.44561073e-003 2.01274063e-002 -2.85711070e-003
      -1.26530873e-002 -2.45020296e-002 8.04580376e-003 3.53415799e-003
      5.77861723e-003 -3.23682325e-003 2.17811000e-002 -9.87112243e-003
      1.06009953e-002 -5.87345380e-003 -9.34339873e-003 -1.32711406e-003
      1.47423334e-002 -1.28425155e-002 4.24400577e-003 4.93304757e-003
      -8.99449270e-003 2.41199532e-003 -1.07133742e-002 -1.57669280e-002
      6.65694335e-003 -1.61455758e-002 2.11105477e-002 3.70322261e-003
      1.20624737e-003 6.79159909e-003 1.26546472e-002 5.72611061e-005
      1.23698881e-003 -2.04297062e-002 -1.84223112e-002 4.21448471e-003
      -3.57199856e-003 6.94594486e-003 9.48966015e-003 -3.32800997e-003
      -2.11688485e-002 -2.14827731e-002 -1.16988197e-002 1.51539594e-002
      1.63724367e-002 1.55222770e-002 1.48048112e-002 -2.13066489e-003
      1.89817846e-002 2.15299502e-002 3.72739625e-003 -3.95593513e-003
      -5.58735512e-004 6.10041944e-003 2.48514470e-002 -1.06854923e-002
      -1.93338152e-002 6.32214174e-003 8.33872985e-003 2.39104824e-003
      8.56358092e-003 1.90425087e-002 -4.53464640e-003 1.44795571e-002
      -6.93799881e-003 1.51397297e-002 -1.36416461e-002 1.08323544e-002
      3.89383174e-003 -1.92749966e-002 -2.35799178e-002 1.50651531e-002
      -7.13940011e-003 1.04629435e-002 -1.44499056e-002 -1.01427566e-002
      1.05386265e-002 1.15319015e-002 1.37849171e-002 -4.12620284e-004
      1.89193152e-002 1.30613511e-002 1.10950205e-003 1.70251019e-002
      -1.89350713e-002 2.17181109e-002 4.88382205e-003 -2.96048890e-003
      7.60359876e-003 3.62806109e-004 -1.63864170e-003 -2.24706419e-002
      -4.19233479e-002 8.62213224e-003 1.23070255e-002 -2.13840716e-002
      -8.71903449e-003 -2.87828129e-003 -9.97168478e-003
      -4.19081096e-003 -3.15635093e-002 8.69539566e-003 2.56611779e-002
      1.57150738e-002 -6.71585929e-003 1.37047572e-002 -3.50867677e-003
      -1.47221861e-002 -1.90019410e-003 1.88187696e-002 1.46889584e-002
      -8.65615811e-003 -1.06749525e-002 8.11463688e-003 1.82656273e-002
      3.28338635e-003 6.28243433e-003 -1.18651586e-002 -4.27666027e-003
      -2.44145980e-003 1.27071440e-002 -2.34902298e-004 -9.47993156e-003
      9.74422321e-003 1.32621210e-002 1.10142995e-002 -1.88662186e-002
      1.78660511e-003 1.67761091e-002 1.61664858e-002 -1.09518738e-002
      2.02952954e-003 9.97728016e-003 -1.53401578e-002 -6.19870201e-002
      2.04611616e-003 1.92464292e-002 4.70687589e-003 7.26953056e-003
      7.18319498e-004 1.07672885e-002 2.59116525e-003 2.55432352e-003
      2.60534436e-002 4.16950230e-003 2.89653782e-002 -6.77045854e-003
      -3.45084327e-003 1.10417083e-002 -4.55538789e-003 3.43423919e-003
      3.26930452e-003 8.22018553e-003 2.22826619e-002 -1.62082799e-002
      -3.53311212e-003 2.19722502e-002 -3.05818003e-002 -6.15687983e-004
      1.19665079e-003 -4.86451987e-004 -1.42167276e-003 1.09640751e-002
      3.42902578e-002 5.12976525e-003 -1.02450792e-002 9.30882804e-003
      -1.01360760e-003 -6.50621764e-003 -2.91058738e-002 1.25825396e-002
      -7.73802726e-003 -9.73665789e-002 -2.50820667e-002 6.64748345e-003
      8.48475937e-003 -1.12237802e-004 -1.23045873e-004 -1.10935532e-002
      -8.95528868e-003 4.21267701e-003 -3.89792514e-003 2.29326934e-002
      -2.80655101e-002 5.35043981e-003 -2.92736553e-002 3.22245737e-003
      -1.36996778e-002 -2.73594796e-003 -2.75769942e-002 2.09850799e-002
      2.99171228e-002 1.18040843e-002 3.77661809e-002 2.51084194e-002
      8.30797106e-003 1.34391617e-002 4.05548364e-002 -7.95092341e-003
      -3.77830938e-002 -1.69786084e-002 2.10916996e-002 1.27091389e-002
      -2.75393333e-002 -4.38259728e-003 1.37134930e-002 -1.66232139e-002
      1.51174525e-002 -1.25559757e-003 8.85679387e-003 5.44313621e-003
      -2.15988737e-002 -1.39665389e-002 1.42336776e-002 -1.88505906e-003
      2.05127941e-003 -2.48937448e-003 -2.02295166e-002 -1.53378779e-002
      -1.94837190e-002 1.88330207e-002 1.32277766e-002 2.30481103e-002
      -1.69438515e-002 7.54431402e-003 -9.69961565e-003 4.28151898e-003
      1.54385380e-002 1.35806184e-002 -8.16586800e-003 2.31959000e-002
      6.35332195e-003 4.97892080e-003 9.46107227e-003 1.94339105e-003
      -2.20502857e-002 -7.89940637e-003 -1.29017734e-003 9.96115152e-003
      7.08775455e-003 5.21505577e-003 -1.60539076e-002 -4.34331782e-003
      -1.91876851e-002 2.33293255e-003 4.58817836e-003 -5.17716259e-003
      2.90518021e-003 4.48318012e-003 6.05577463e-003 -2.02980321e-002
      -2.84006959e-003 -2.03081616e-003 -1.74928978e-002
      -1.60460714e-002 -6.98289834e-003 -1.27081107e-002 6.87532779e-003
      -9.55691561e-003 9.61771421e-003 1.77530833e-002 -6.92968210e-003
      6.77514262e-003 2.36583501e-003 7.95021001e-003 1.64746437e-002
      -3.69366840e-003 1.35649545e-002 7.29629654e-004 1.34568999e-003
      5.82249137e-003 -3.55578214e-002 8.09253007e-003 1.49750095e-002
      -1.04117079e-003 2.45729741e-003 2.82262824e-002 -2.04076013e-003
      7.58667337e-003 -1.51152292e-003 -7.91756157e-003 -1.25536192e-002
      5.45628322e-003 -1.19341007e-002 8.96860845e-003 1.70659479e-002
      7.35394936e-003 8.06016382e-003 1.38662132e-002 -4.55101533e-003
      2.15305667e-003 1.11924922e-002 -1.59747656e-002 1.86350625e-002
      -4.85410867e-003 4.36399225e-003 4.01731534e-003 -6.65917119e-004
      -6.81901409e-004 8.66178423e-003 -1.13558080e-002 -1.36033110e-002
      9.42778680e-003 1.47544462e-002 -5.35952765e-003 -7.33319204e-003
      1.96958967e-002 -1.58135165e-002 1.42766861e-002 3.84503137e-003
      -2.31924951e-002 -1.06272968e-002 -1.61228534e-002
      -2.73265876e-004 -1.07570626e-002 5.69554698e-003 8.17229319e-003
      8.88419431e-003 1.14282612e-002 2.16709897e-002 9.00884625e-003
      3.70594859e-003 -1.47345278e-003 1.45477224e-002 2.92249676e-003
      -4.52446053e-003 -1.87895249e-003 2.70785745e-002 5.57472417e-003
      -5.54564921e-003 2.36567315e-002 -3.76288756e-003 -1.76786259e-002
      -2.83984076e-002 -2.39868015e-002 6.22232677e-003 -1.09818010e-002
      8.71250033e-003 7.34183565e-003 1.71132866e-004 1.24577386e-002
      -1.33690890e-002 6.66640559e-003 -9.52298753e-003 1.22643542e-003
      -4.54940926e-003 -1.06397811e-002 -2.19750479e-002 6.73399633e-003
      6.11416157e-003 1.03457095e-002 2.54208688e-003 1.35677466e-002
      -1.31594101e-002 -4.49804915e-003 -5.42417215e-003
      -2.93271546e-003 1.41256920e-003 3.00496304e-003 4.67083976e-003
      -2.17353944e-002 -2.50015277e-002 2.31310483e-002 9.57709737e-003
      1.26459319e-002 1.69834457e-002 -2.52017770e-002 9.10136662e-003
      -1.07065011e-002 -4.86891018e-003 -8.07113294e-003 1.53499013e-002
      2.65878229e-003 2.48324946e-002 1.29998953e-003 -8.31010565e-003
      7.83860311e-003 -2.01846845e-002 1.09823076e-002 -3.15829879e-003
      3.72703746e-002 1.58257633e-002 -4.67020972e-003 5.54048317e-003
      3.84092517e-003 -2.06374694e-002 1.38988649e-003 -7.46440329e-003
      -5.55610843e-003 -3.37255225e-002 -1.50417932e-003 4.18091379e-002
      3.00751720e-003 -2.89295409e-002 4.57393518e-003 -7.30174035e-003
      -1.73231829e-002 -7.36294128e-003 -2.65790313e-003 1.39313797e-002
      2.18908489e-003 9.37620737e-003 -1.83152258e-002 -1.12557998e-002
      -7.50912400e-003 1.54154915e-002 1.72320735e-002 9.58645833e-004
      7.70026585e-003 -3.16610467e-003 -1.81426480e-002 -6.84376480e-003
      -3.90863605e-002 -1.14315497e-002 1.18644061e-002 1.34738283e-002
      1.27809094e-002 2.19362346e-003 2.80456934e-002 1.21335005e-002
      1.05107026e-002 -1.11465454e-002 4.83027846e-003 5.61393658e-003
      -3.77368578e-003 1.95796061e-002 -1.88764557e-002 2.98433763e-004
      -2.37752553e-002 -2.52071973e-002 -7.86542776e-004
      -4.26307274e-003 3.98719497e-003 -1.47287138e-002 1.96839441e-002
      1.38864771e-003 -1.24312127e-002 -2.42367070e-002 -2.11509168e-002
      -2.22153943e-002 -1.17369872e-002 6.63521001e-003 1.31144999e-002
      1.59242400e-003 -2.73146876e-003 4.68166918e-003 5.23650739e-003
      1.04970327e-002 -5.44552365e-003 -7.67858932e-003 -1.54284034e-002
      -3.49440263e-003 2.76208809e-003 -7.59074558e-003 -2.19714101e-002
      -3.30885057e-003 2.68989033e-003 2.93336785e-003 3.40565084e-003
      1.24790461e-003 -2.03906186e-002 2.55816616e-003 9.13490367e-005
      -1.27573181e-002 6.98467530e-003 2.22074240e-002 -2.14396045e-003
      -3.12760286e-002 1.72578059e-002 7.74304103e-003 -2.28047697e-003
      2.42967624e-003 1.16600506e-002 -1.25290928e-002 1.31340558e-002
      2.18875916e-003 1.48924859e-002 1.73568316e-002 3.57695296e-003
      1.29175652e-002 -9.13350319e-004 -2.23516785e-002 1.72338001e-002
      -1.11681763e-002 2.88252290e-002 1.69884581e-002 -4.65365499e-003
      -1.01971952e-002 2.78006657e-003 5.69643686e-003 8.37171730e-003
      6.04937971e-003 -8.63495097e-003 -3.95655865e-004 6.09207340e-003
      7.55031919e-003 -3.70018301e-003 -1.58889648e-002 1.15586659e-002
      1.46447001e-002 1.55090485e-002 1.45671871e-002 -1.54397935e-002
      -2.02568192e-002 -1.06164413e-002 -1.14551932e-002 4.03386634e-003
      3.02765425e-003 -6.22196170e-003 7.47461338e-004 8.28995090e-003
      -1.40563315e-002 1.33536290e-002 1.90492589e-002 7.82162044e-003
      1.56552121e-002 6.52351556e-003 -1.59186795e-002 1.25521300e-002
      5.34463907e-003 -5.44869667e-003 1.36383856e-002 1.06471693e-002
      1.47975795e-002 -6.46864902e-003 1.32636633e-002 -9.91781242e-003
      -4.62603057e-003 -2.86697429e-002 -2.00293735e-002
      -6.73808623e-003 2.64436919e-002 1.49384625e-002 8.55751894e-003
      -3.35281412e-003 1.19070429e-002 1.69201307e-002 7.78977713e-003
      1.07946377e-002 7.15802098e-003 -2.32094396e-002 -9.98472795e-004
      8.66134651e-003 -2.58574765e-002 -1.71333402e-002 -3.86395585e-003
      2.43751816e-002 -4.97550098e-003 -1.21531086e-002 9.78958234e-003
      1.08691752e-002 1.96274873e-002 9.40547418e-003 -1.62994191e-002
      1.09334979e-002 1.01589952e-002 2.59627635e-003 -4.87453910e-003
      -4.32584202e-003 -5.03832567e-003 -1.97186810e-003 4.94112168e-003
      -2.24762061e-003 1.77305413e-003 -3.05581260e-002 1.68899554e-004
      8.50328433e-005 1.02918595e-002 1.13704614e-002 -1.80728007e-002
      -2.01286077e-002 -1.29232481e-002 -1.80265214e-003 1.72278378e-002
      -1.69395134e-002 9.31905303e-003 3.29900975e-003 -1.60243325e-002
      1.80478860e-002 8.71758629e-003 -6.23443443e-003 1.51883448e-002
      -4.95219277e-003 1.35216918e-002 -1.51143102e-002 1.43836066e-003
      -1.42524503e-002 -4.95919734e-002 -6.33769203e-003 5.46878949e-003
      7.86257163e-003 -7.37357605e-003 2.31708046e-002 -3.18714231e-003
      1.53435776e-002 -9.92303807e-003 -5.54406596e-003 7.88503420e-003
      -4.34181765e-002 4.20709187e-003 1.61506180e-002 7.35053374e-003
      1.73898637e-002 -3.15920357e-003 1.28300972e-002 -1.24207269e-002
      -2.11235099e-002 -1.51886828e-002 5.19218948e-003 1.08416779e-002
      3.33385705e-003 2.97994423e-003 -7.93864578e-003 -4.67953179e-003
      1.29830688e-002 2.42283524e-004 2.78750006e-002 -1.99024957e-002
      -3.78896818e-002 1.13881789e-002 9.52599104e-003 9.45637585e-004
      -9.11381841e-003 1.02827176e-002 2.33594142e-002 -4.32246272e-003
      -1.42613668e-002 1.26286428e-002 1.63173471e-002 3.14394687e-003
      5.90879237e-003 -5.97822247e-003 -1.84524562e-002 -9.74477269e-003
      6.31153863e-003 -2.51942426e-002 7.39511056e-003 1.84692070e-002
      1.95671823e-002 -5.78827877e-003 -1.26874950e-002 -1.25712703e-003
      1.35753322e-002 -1.09842271e-002 7.83526711e-003 -1.83046069e-002
      1.02763213e-002 -7.03666685e-003 6.77645812e-003 2.53639906e-003
      8.26178212e-003 2.90092286e-002 -8.52212496e-003 1.14496262e-003
      -1.30856112e-002 8.36967304e-003 -1.68737937e-002 3.48952669e-003
      1.97273847e-002 -2.58007143e-002 -2.63484120e-002 -1.97206978e-002
      -1.79599579e-002 1.60110369e-002 7.56550767e-003 -3.78710241e-003
      -1.22562489e-002 6.06463943e-003 2.53090332e-003 1.97876357e-002
      -3.94238066e-003 -2.30794959e-002 1.36156287e-002 7.90289883e-003
      1.08089829e-002 -2.32072882e-002 -3.76117096e-005 -4.70286468e-003
      -4.06974275e-003 1.62014235e-002 -3.39299776e-002 -9.91418958e-003
      3.00017302e-003 8.23263172e-003 5.28516434e-003 2.28188615e-002
      -8.52351170e-003 1.77094582e-002 3.85903101e-003 -2.16255002e-002
      2.25531571e-002 1.03048887e-002 -9.03050043e-003 2.19573453e-003
      9.71076265e-003 9.31757595e-003 9.96595342e-003 -3.93796787e-002
      -6.60429848e-003 4.69811773e-003 -5.65693667e-003 -1.00311683e-002
      1.76885296e-002 -1.53381964e-002 -2.33928580e-002 2.62985518e-003
      -8.18188675e-003 -1.09102977e-002 -9.05814208e-003 4.99052182e-003
      -3.26845958e-003 -7.19089620e-003 -1.23526221e-002
      -3.08804810e-002 1.48736304e-002 -3.82348173e-003 1.02055036e-002
      1.96145065e-002 -4.79230331e-003 -1.02389057e-003 1.13067147e-003
      1.32359629e-002 -5.81034971e-003 1.94494752e-003 4.94223088e-003
      1.58527941e-002 7.08211539e-003 -1.40071157e-002 4.22658771e-003
      2.32586404e-003 -1.77371260e-002 4.62603420e-002 -1.20068267e-002
      -1.77120138e-003 -2.43559666e-002 -1.84567589e-002
      -6.05669152e-003 -2.25406932e-003 1.83278217e-003 -6.92681468e-004
      -7.71834608e-003 6.51841238e-003 1.00346310e-002 -8.99549481e-003
      -1.47814176e-003 9.34132282e-003 -6.55721594e-003 -4.29641455e-002
      8.69789720e-003 2.45218258e-002 -1.41174877e-002 -1.24102703e-003
      2.47237105e-002 -1.85108988e-003 -9.09828953e-003 -7.85883050e-003
      1.79789979e-002 1.31773418e-002 -1.04083149e-002 2.35406589e-003
      8.95868056e-003 4.57344198e-004 -2.13720114e-003 -7.04406714e-003
      3.09025031e-003 1.08929249e-002 -4.52631265e-002 -8.64474475e-003
      2.13637296e-002 6.11897185e-003 1.55114345e-002 -3.06982873e-003
      1.39614018e-002 -4.07936750e-003 1.41130816e-002 -1.98401809e-002
      2.83453409e-002 2.35621836e-002 -4.23816527e-004 1.88484788e-002
      3.67441401e-003 2.65563019e-002 9.89638176e-003 -3.06207314e-003
      -1.55715737e-002 -1.73573885e-002 -2.00920049e-002
      -1.12867914e-002 -1.18668666e-002 -9.79080144e-003 1.04904110e-002
      2.47776741e-003 4.78564575e-003 -1.27207283e-002 7.09787756e-003
      5.56195294e-003 -4.06192290e-003 1.56962834e-002 -6.83015212e-003
      9.53875948e-003 -5.07848803e-003 -4.58965264e-003 4.28998610e-003
      -8.68618209e-003 -2.00079642e-002 6.99976739e-003 1.02911722e-002
      -1.72400698e-002 1.42757222e-002 1.16759874e-002 -1.08385757e-002
      1.33251473e-002 1.96236372e-003 -1.42342281e-002 1.87510941e-002
      9.38440673e-003 -7.09124608e-003 -9.17721307e-004 8.19695927e-003
      4.66559455e-003 3.40450532e-003 7.17257755e-003 4.81337745e-004
      -2.03050696e-003 -1.74721722e-002 1.75054297e-002 1.52120544e-002
      2.07447559e-002 1.02185495e-002 6.80607650e-003 1.53956073e-003
      -8.92699882e-003 4.65554325e-003 1.05029549e-002 -1.20403199e-003
      -2.59568659e-003 7.19954679e-003 -7.54350843e-003 2.18987595e-002
      -8.57876334e-003 1.24159204e-002 -1.78201888e-002 -5.20811277e-003
      1.45144062e-002 -2.85001993e-002 4.34236415e-003 1.55733852e-002
      2.03450304e-002 2.42883656e-002 -2.18404960e-002 -1.13672325e-002
      -1.34899523e-002 1.35650276e-003 1.55083900e-002 -5.36401803e-003
      3.65059714e-005 -4.13653860e-003 -1.17408221e-004 1.06581179e-002
      2.15523760e-003 1.38639109e-002 1.61246043e-002 -5.92620287e-004
      -9.38239507e-003 1.09470990e-002 -1.02366824e-002 3.01799155e-003
      -2.38195155e-002 1.15647474e-002 -1.68781113e-002 -2.07491741e-002
      3.03895236e-003 -5.18331043e-002 -1.47609664e-002 7.10902829e-003
      3.95571534e-003 6.98861724e-004 1.27214212e-002 -4.48701978e-002
      -7.68438447e-004 -6.65420387e-003 -3.86172463e-003 1.70877925e-003
      -2.15628985e-002 -5.93443122e-003 -1.70912817e-002
      -1.56391505e-002 5.53829456e-003 -6.81753445e-004 -8.69428646e-003
      1.38023645e-002 7.26359803e-003 1.98441488e-003 1.27195874e-002
      -1.57482717e-002 1.23429485e-002 -1.05512682e-002 4.11328953e-003
      1.87977478e-002 -2.40913704e-002 -1.40344386e-003 -1.68260075e-002
      1.93608887e-002 8.21441785e-003 -9.35981981e-003 -7.86545686e-003
      7.16099108e-004 -3.23482901e-002 2.74530370e-002 2.92469701e-003
      -7.12981122e-003 -1.38731981e-002 8.76836386e-003 -4.39671520e-003
      -8.39838583e-004 9.06619243e-003 1.62514555e-003 1.58893894e-002
      -1.86621621e-002 1.20422645e-002 9.47879814e-003 -2.36689821e-002
      -4.34799604e-002 -1.60851795e-002 1.61029659e-002 -9.60732438e-003
      1.42101916e-002 6.00655272e-004 2.95438245e-003 -1.63053954e-003
      -1.11677181e-002 9.83454101e-003 3.53679769e-002 1.46224843e-002
      2.01184060e-002 6.96137873e-003 -7.30578043e-003 1.60514247e-002
      9.53739788e-003 -3.49223334e-003 1.33590894e-002 -5.17544337e-003
      7.00748106e-003 -4.20023716e-004 -2.31099431e-003 2.30180770e-002
      2.49330066e-002 1.15394546e-002 1.04198260e-002 -1.77573189e-002
      -1.11841504e-003 3.38074914e-003 6.00048993e-003 -1.44165359e-003
      -1.26505904e-002 -9.16024856e-003 -4.44104290e-003
      -4.93492873e-004 1.87674561e-003 1.62087306e-002 -2.56519429e-002
      1.09619070e-002 1.07003814e-002 -7.51860393e-003 6.74803136e-003
      -1.85411125e-002 2.31367815e-003 6.53126463e-003 -3.01752333e-002
      -2.19496782e-003 -1.87147260e-002 2.12587491e-002 -5.66749554e-003
      6.90670125e-003 -1.01751667e-002 -2.42422801e-002 -8.16975068e-003
      -3.42787919e-003 1.04808966e-002 4.92420457e-002 2.79457844e-003
      2.50750408e-003 -6.27536885e-003 1.86970620e-003 2.23153010e-002
      1.17684603e-002 -3.95364873e-003 -1.30649311e-002 -3.70032452e-002
      -6.48287311e-003 -1.14654815e-002 -2.18555070e-002
      -1.56599302e-002 -1.12918892e-003 1.05642267e-002 6.93087932e-003
      -5.02383150e-003 -1.24345254e-002 3.00836028e-003 2.51163659e-003
      3.81381670e-003 -3.97638232e-003 3.00652278e-003 -2.52348576e-002
      -5.66215161e-003 -2.10857186e-002 9.73245688e-003 -5.59020508e-003
      5.63471718e-003 1.29813273e-002 7.81592727e-003 -2.80286577e-002
      7.23127741e-003 -4.86682147e-005 6.23883726e-003 1.30494554e-002
      -1.09459152e-002 -1.02803130e-002 6.99229166e-003 5.47675736e-005
      9.42919496e-003 1.62518844e-002 -2.20599174e-002 6.50055241e-003
      -1.11894645e-002 2.02566106e-002 1.22901164e-002 -2.36194450e-002
      7.74138665e-004 1.32956309e-003 8.62111989e-003 4.14739083e-003
      3.30671697e-004 -2.80524138e-003 -4.95508034e-003 -1.40436115e-002
      1.95329450e-003 2.91679380e-003 8.80922005e-003 -5.25952550e-003
      -9.21581592e-003 -3.38468589e-002 1.49661303e-003 1.73735060e-003
      -1.61306243e-002 -6.74181292e-003 9.98029718e-004 -2.12723782e-004
      5.13092335e-003 -1.01438770e-002 8.19220673e-003 -2.53918674e-003
      -8.15412682e-003 1.94741983e-003 -5.00074727e-003 -1.43883040e-003
      1.95818879e-002 -4.38477751e-003 5.36966661e-004 -1.77348219e-002
      1.24331256e-002 1.35213463e-002 1.35169225e-002 -1.94336958e-002
      -1.80550907e-002 -3.39595973e-003 1.33145312e-002 -1.14399586e-002
      5.26562193e-003 -2.00397708e-002 2.69727898e-003 -1.78121272e-002
      1.25939790e-002 2.40578339e-003 5.57177477e-002 2.92306999e-003
      2.24496424e-002 3.30450945e-002 1.11051705e-002 -5.50435996e-003
      -3.11024347e-003 -1.10559314e-002 -3.01091885e-003 4.60788747e-003
      -1.37716718e-002 -5.72373997e-003 -1.59766972e-002
      -6.67525455e-003 2.90383250e-002 1.40120776e-003 1.28395474e-002
      -1.23320082e-002 -4.88115381e-003 -1.54064223e-002 2.73273583e-003
      -9.64927766e-003 -1.11869653e-003 1.12408446e-003 -2.59910198e-003
      6.38806541e-003 -4.30666432e-002 -1.59639325e-002 -1.89056550e-003
      9.42572486e-003 6.85278373e-003 8.08745436e-003 -1.77639984e-002
      1.68418661e-002 2.83744186e-003 -5.81595115e-003 2.02129632e-002
      1.12583404e-002 -1.22215170e-002 2.72882860e-002 8.84515978e-003
      2.81119719e-003 9.35281813e-003 1.90218333e-002 3.36652831e-003
      -1.54910460e-002 9.25526954e-003 -1.71306636e-002 -3.59461792e-002
      -2.25537065e-002 -9.06278007e-003 1.96805224e-002 -8.84553790e-003
      1.29255941e-002 -2.24037515e-003 -9.90079157e-003 -9.27770138e-003
      9.48126148e-003 6.28593564e-003 2.00239965e-003 1.87916623e-003
      -2.50517000e-002 -1.84757616e-002 1.57363582e-002 -2.21629385e-002
      1.17865354e-002 -3.06722857e-002 3.84430226e-004 7.47537997e-004
      3.13658873e-003 9.81723983e-003 -6.37498125e-003 -1.41710108e-002
      -2.97066919e-003 -2.51769871e-002 -3.34566087e-003
      -2.79739611e-002 2.57256273e-002 1.33702194e-003 -5.19271661e-003
      -1.63341351e-002 4.53592557e-003 5.88796625e-004 -1.03103528e-002
      2.28517912e-002 7.05706701e-003 -1.46198843e-004 4.95353062e-003
      -2.59134453e-002 -5.97037833e-005 5.72916120e-003 3.56878550e-003
      2.35603214e-003 1.14664354e-003 7.07654841e-003 1.25409458e-002
      3.30112316e-003 1.15123659e-003 1.77266467e-002 1.85729489e-002
      7.24318950e-003 -1.09969061e-002 -6.85581379e-003 9.14196577e-003
      -3.47014377e-003 -6.72008097e-003 -4.37127473e-003 1.12365996e-002
      1.38202896e-002 -1.59984604e-002 -5.48731536e-003 8.37444514e-003
      -7.15437531e-002 1.65715825e-003 -1.41241876e-002 -2.78944373e-002
      -5.66371542e-004 1.97433010e-002 -1.16638420e-002 -7.76521396e-004
      -3.40098678e-003 -8.81378539e-003 -7.77299562e-003 1.14961686e-002
      -7.16518983e-003 2.66395579e-003 -7.54555361e-003 -1.05594685e-002
      -9.16583929e-003 -1.59773568e-003 -1.36456871e-002
      -2.62049190e-003 6.67199725e-004 8.69971421e-003 -5.79539128e-003
      6.60674553e-003 -2.06214652e-004 1.08559681e-002 5.19856578e-003
      1.30650140e-002 -5.22339426e-004 -2.33053584e-002 -2.82238517e-002
      -2.01274417e-002 6.20714854e-003 3.86952586e-003 7.02045718e-003
      -5.52684302e-003 1.07665528e-002 4.29991260e-003 -8.28034338e-003
      1.01528708e-002 1.26376026e-003 7.11234426e-003 1.17995543e-002
      9.53375362e-003 -1.75343151e-003 9.92882531e-003 -1.05899656e-002
      8.91564693e-003 9.85237025e-003 1.43477544e-002 1.68553218e-002
      4.85255662e-003 -1.08737657e-002 1.59303322e-002 -1.57841425e-002
      -2.83211824e-002 6.19580131e-003 -2.47580837e-002 4.85560205e-003
      8.86096037e-004 4.05126112e-003 1.33136036e-002 7.86788668e-003
      8.97907000e-003 -1.05514238e-003 7.27089401e-003 1.75302736e-002
      -5.13051171e-003 -2.61089322e-003 9.37137660e-003 2.55882135e-003
      1.23434095e-002 1.14242863e-002 -1.47476085e-002 1.21730356e-003
      -1.01913307e-002 4.91000060e-003 -4.24779998e-003 1.96954980e-002
      1.58126727e-002 1.99474264e-002 1.56918578e-002 -1.18644759e-002
      -7.81765487e-003 1.54723218e-002 -1.92104280e-003 -1.47849569e-005
      2.53860876e-002 3.12430854e-003 4.19245893e-003 3.65600735e-003
      2.17581335e-002 -4.07029409e-003 1.80042814e-002 9.27236222e-004
      -9.03534354e-004 1.50729828e-002 1.80871319e-002 1.11058857e-002
      1.91328824e-002 3.22677428e-004 -6.41976967e-002 3.15692904e-003
      7.93957879e-005 1.06177134e-002 1.86924990e-002 5.20453742e-003
      3.91746545e-003 2.56093293e-002 1.87837367e-003 -5.69703896e-003
      -4.05229395e-003 1.40025308e-002 -8.23168736e-003 -6.23424724e-003
      -3.10175829e-002 3.47158150e-003 -1.71966497e-002 -4.81686648e-003
      -1.18214954e-002 2.45242636e-003 5.53681189e-003 2.62719281e-002
      6.00068644e-003 -1.87484175e-002 -1.53329922e-003 1.75325945e-002
      2.15496980e-002 3.29266908e-003 1.14589641e-002 7.94209633e-003
      8.16633087e-003 -2.43564625e-003 2.87868339e-003 1.01643300e-003
      4.35768673e-003 8.99942499e-003 4.02598493e-002 1.08587733e-002
      -9.63138696e-003 -5.44564007e-003 -3.94735783e-002 1.02117797e-002
      -6.52609160e-003 2.44247578e-002 7.05345906e-003 4.23242990e-003
      1.12776496e-002 1.20444372e-002 1.63280647e-002 -3.27284113e-002
      4.99939732e-003 1.15551185e-002 1.37269786e-002 -3.81632079e-003
      3.21856933e-004 9.62842070e-003 -3.83012332e-002 6.77938748e-004
      -9.04153474e-003 -1.78321637e-002 1.34783448e-003 -1.15821185e-002
      1.55269355e-002 1.44580286e-002 -2.01596431e-002 8.28534365e-003
      -2.47064419e-003 1.24559300e-002 -5.66098280e-003 7.97744654e-003
      6.25951914e-003 1.51239391e-002 -3.94817702e-002 -2.56000496e-002
      1.35257572e-003 9.74628143e-003 1.55096187e-003 -2.36647725e-002
      2.37994056e-004 2.70864088e-003 1.18488260e-002 1.82126928e-002
      -1.64283291e-002 2.60316953e-002 2.38246247e-002 -3.56933624e-002
      -1.02330884e-002 -6.26199227e-003 3.47356359e-003 -6.95526320e-003
      1.45085584e-002 1.04680602e-002 -1.04238903e-002 -8.25399254e-003
      8.11306387e-003 1.55139705e-002 1.52070969e-002 9.00887977e-003
      1.24284942e-002 1.17050633e-002 -2.06920113e-002 2.82610697e-003
      -3.93280666e-003 5.49260201e-003 8.47505312e-003 -1.30319633e-002
      -2.85806712e-002 1.58017147e-002 -1.56433396e-002 -1.27769532e-002
      1.18423020e-002 1.67076513e-002 4.57194075e-003 6.54213782e-003
      1.37301693e-002 -1.75145466e-003 4.78545146e-004 9.08824150e-003
      9.73562151e-003 1.81296896e-002 8.94126296e-003 -6.26131007e-003
      1.00852484e-002 1.71033889e-002 -9.72529128e-003 -2.07271483e-002
      4.21128236e-004 -2.16963887e-003 -2.29791980e-002 -1.51867256e-003
      -1.33395125e-003 1.21739572e-002 -2.97753233e-002 -1.41833280e-003
      1.41107896e-003 1.17087634e-002 1.36153996e-002 -5.35808085e-003
      -2.26804242e-002 -1.03068827e-002 1.46477083e-002 -1.05367806e-002
      -1.26176020e-002 -1.43774310e-002 -1.30855516e-002
      -1.27920927e-002 -3.89089226e-003 -6.48357533e-003
      -1.52777089e-002 1.40079763e-002 -1.86735988e-002 -8.80226027e-003
      -3.26994970e-003 -8.62341002e-003 -1.31421080e-002 7.93976523e-003
      1.37856770e-002 7.14231841e-003 6.25529466e-003 1.35146081e-002
      -2.51787473e-002 7.95078371e-003 7.31228897e-003 1.70490565e-003
      -9.76673095e-004 -2.49959354e-004 -1.62943155e-002
      -1.34609668e-002 1.37297828e-002 1.33220665e-002 9.65673069e-004
      -3.39022949e-002 -6.23683911e-003 -1.07782090e-003 1.46816336e-002
      4.33520734e-004 -1.60946522e-003 1.46405036e-002 9.78724682e-004
      -1.79835111e-002 -1.49225350e-002 4.76930384e-003 -2.50664391e-002
      1.54560655e-002 6.37510093e-003 1.51549326e-002 2.27077287e-002
      -9.53037106e-003 -7.02800183e-003 -5.77478297e-003 1.44206546e-002
      2.67918762e-002 8.20781756e-003 -1.97564010e-002 7.54082389e-003
      -3.03782672e-002 6.33520633e-003 1.10822143e-002 1.87316108e-002
      1.51325269e-002 -1.47567969e-002 -9.55098681e-003 -1.44715644e-002
      3.13100382e-003 6.10721484e-003 -1.04840389e-002 -9.61188413e-003
      3.41943302e-003 1.46875449e-003 1.10989669e-002 6.85687969e-003
      1.05259167e-002 -1.09040337e-002 2.66546989e-003 3.14193312e-003
      1.13798231e-002 -1.32682929e-002 3.85921448e-003 3.69220530e-003
      -2.10147561e-003 -1.42312143e-002 8.83920118e-003 -1.20339422e-002
      -1.34463776e-002 8.96421447e-003 1.06868893e-002 -7.50017911e-003
      -3.62015665e-002 -1.08876359e-002 -1.08882354e-003
      -1.87244322e-002 6.09334838e-003 1.16925156e-002 -1.65751651e-002
      4.15822538e-003 6.31565577e-004 -9.31881182e-003 1.23689789e-002
      -1.88520886e-002 6.98313396e-003 1.82627421e-002 -9.37286485e-003
      -1.55063588e-002 -4.07396704e-002 -3.30190174e-003
      -3.71154537e-003 1.27768554e-002 4.18188795e-003 2.07323525e-002
      -2.78161117e-003 -1.73093490e-002 -9.92248952e-003 7.48326024e-003
      1.45719703e-002 -1.70477796e-002 -2.25525219e-002 1.59219597e-002
      1.37608852e-002 -9.43533611e-004 -3.10664214e-002 -5.74503606e-003
      6.93140610e-004 -1.36592397e-002 -2.95621273e-003 6.82919100e-003
      -9.96116432e-004 1.92315821e-002 2.88979756e-003 -1.42581714e-002
      -1.75186119e-003 2.18233615e-002 5.76847175e-004 9.35815461e-003
      6.83177076e-003 1.40305292e-002 8.16289522e-003 -7.16394465e-003
      -3.85659770e-003 5.59608964e-003 -2.87633343e-003 4.14969912e-003
      1.79808792e-002 -4.31501260e-003 7.65335746e-003 -2.16976320e-003
      -2.24099923e-002 -3.81137361e-003 -7.93269202e-002
      -1.66539159e-002 -7.37447932e-004 3.47330677e-003 -2.30250247e-002
      -8.50549433e-003 2.42695445e-003 5.98624232e-004 1.38782784e-002
      1.43978028e-002 1.02543030e-002 1.33718259e-003 1.46837917e-003
      1.58657134e-003 -1.26577625e-002 -2.33478961e-003 1.01461206e-002
      -1.22769866e-002 -5.77276619e-003 9.08092875e-003 1.85320771e-003
      -9.36640054e-003 -2.27352791e-002 1.02201616e-002 9.44568031e-003
      -1.42012967e-003 5.43627329e-003 5.57628274e-003 1.56924091e-002
      1.52857564e-002 -3.64813750e-004 -2.45959274e-002 1.01343803e-002
      9.50244535e-003 -5.15661854e-003 1.58438995e-003 1.15448032e-002
      -2.22478770e-002 9.93925054e-003 -9.53777786e-003 -1.17461756e-002
      4.88759950e-004 -9.95173585e-003 -3.54413060e-005 -1.13748452e-002
      5.58003923e-003 8.86380766e-003 -1.17539801e-002 -1.47831161e-002
      -5.36786299e-003 1.27499783e-002 1.13452291e-002 5.60822012e-003
      -5.66830067e-003 3.09425895e-003 3.07057239e-003 -8.43452290e-003
      -1.70655234e-003 1.94651317e-002 4.90463991e-003 -1.11660762e-002
      1.05454782e-002 -1.09208208e-002 1.37488346e-003 7.17228185e-003
      -9.23980086e-004 -1.49247013e-002 3.39064864e-003 -8.04918259e-003
      -6.87540835e-003 6.18894398e-003 1.65402703e-002 -3.16946171e-002
      4.97958530e-003 7.17393635e-003 5.91026433e-003 -1.90511579e-003
      -1.45329814e-002 1.38651989e-002 -8.64723790e-003 2.19614687e-003
      -5.02520846e-003 9.83645581e-003 4.56271367e-003 1.26109933e-002
      2.70606205e-002 -1.31577617e-002 -3.38035752e-003 3.64088453e-002
      6.93194801e-003 -2.91689243e-002 -3.77361337e-003 -6.51363377e-003
      2.34292378e-003 1.55913946e-003 3.54220672e-003 -4.97494340e-002
      1.53578268e-002 1.71749424e-002 -3.47159500e-003 -8.35550297e-003
      -1.02465004e-002 2.82707764e-003 1.18505713e-002 3.38974260e-002
      -1.70238819e-002 2.38979459e-002 -7.81519711e-003 -2.16761883e-003
      6.05911994e-003 5.53166075e-003 -1.05953170e-003 2.35554017e-002
      1.73176024e-002 -1.16236170e-003 -8.67983606e-003 1.94710074e-003
      -2.61234632e-003 -1.55423954e-002 1.77978035e-002 -9.12891701e-003
      3.25716566e-003 1.02193793e-002 2.17373203e-002 3.67499422e-003
      1.47766005e-002 -2.87373234e-002 1.24963215e-002 -8.09014076e-004
      2.15557795e-002 1.28737772e-002 -2.64023915e-002 -2.61396263e-002
      -4.63995570e-003 2.16087531e-002 -1.52997049e-002 1.08193941e-002
      7.47174025e-003 1.55786257e-002 -1.00866137e-002 8.58638901e-003
      1.17715374e-002 1.12142763e-003 -1.06390286e-002 -3.73307121e-004
      1.02636474e-003 1.23176910e-003 -1.19666429e-002 -1.45618548e-003
      -1.11654736e-002 -5.99328196e-003 9.80185717e-003 -2.05334853e-002
      8.57889000e-003 3.14395269e-003 -8.42704903e-003 -3.64786410e-003
      1.32597527e-002 -8.63937195e-003 2.66037579e-003 -5.26591949e-003
      -1.15272216e-003 -3.21698971e-002 1.32043352e-002 -1.48889413e-002
      -1.79449271e-003 1.42262559e-002 -6.94080396e-003 -1.76074933e-002
      -1.03370538e-002 -5.37273614e-003 2.55442876e-002 -4.27638926e-003
      -1.35360807e-002 -1.33318631e-002 4.25020279e-003 -1.89656988e-002
      -3.86871584e-002 1.14116911e-002 -2.29165629e-002 4.11059195e-003
      -1.51212448e-002 1.24299461e-002 1.15791960e-002 -1.12933340e-002
      -2.21879929e-002 1.06600858e-002 -3.03000491e-002 7.42486818e-003
      8.91360454e-003 6.09578937e-003 -2.27662362e-002 -8.05191044e-003
      6.90069608e-003 7.74567807e-003 1.12269521e-002 1.41783236e-002</_></support_vectors>
  <decision_functions>
    <_>
      <sv_count>1</sv_count>
      <rho>-9.9853728666966846e-001</rho>
      <alpha>
        1.</alpha>
      <index>
        0</index></_></decision_functions></my_svm>
</opencv_storage>
