<?xml version="1.0"?>
<opencv_storage>
<my_svm type_id="opencv-ml-svm">
  <svm_type>C_SVC</svm_type>
  <kernel><type>LINEAR</type></kernel>
  <C>1.</C>
  <term_criteria><epsilon>2.2204460492503131e-016</epsilon>
    <iterations>1000</iterations></term_criteria>
  <var_all>2000</var_all>
  <var_count>2000</var_count>
  <class_count>2</class_count>
  <class_labels type_id="opencv-matrix">
    <rows>1</rows>
    <cols>2</cols>
    <dt>i</dt>
    <data>
      -1 1</data></class_labels>
  <sv_total>1</sv_total>
  <support_vectors>
    <_>
      1.89407989e-002 -2.83560175e-002 -3.10055126e-004 1.47702536e-002
      2.39295303e-003 8.11266131e-004 -2.06009275e-003 -1.62865669e-002
      9.15806834e-003 -1.02531370e-002 6.81064976e-003 7.06580095e-003
      6.89726649e-003 9.87555645e-003 -4.82526375e-003 9.09814797e-003
      -9.39103030e-003 -2.21611727e-002 -2.63109244e-002
      -8.99119861e-003 1.99049860e-002 5.22386795e-003 7.20356312e-003
      3.81501275e-003 -5.55441016e-003 2.29900965e-004 -6.06763512e-002
      -3.40544991e-003 1.54466098e-002 1.51953548e-002 1.66071215e-004
      -2.88556647e-002 -4.69104527e-003 1.75781210e-003 -6.92127272e-003
      -4.68003890e-003 5.12130419e-003 1.15933074e-002 1.77994724e-002
      1.03453072e-002 -1.06215375e-002 1.16452184e-002 -1.37770204e-002
      6.76671509e-003 5.49886283e-003 -1.11367516e-002 -3.25596682e-003
      -1.04595684e-002 -1.35311000e-002 -8.19324632e-004 2.14949846e-002
      -2.65788549e-004 5.52996900e-003 1.81286559e-002 2.08743960e-002
      8.63077771e-003 4.07019677e-003 1.34515883e-002 -3.35653946e-002
      1.69890523e-002 1.46357724e-002 -5.77930640e-003 -5.03811520e-003
      -2.23908834e-002 2.30325814e-002 -1.22640468e-003 4.41672700e-003
      6.21076906e-003 -5.49091445e-003 -7.64046796e-003 1.54441292e-003
      1.35874227e-002 -6.10715197e-003 1.61013529e-002 8.06788914e-003
      -2.20336113e-003 2.94792908e-003 6.38902304e-004 5.78977354e-003
      1.06890965e-002 9.04156175e-003 -2.55537480e-002 -3.11280433e-002
      1.68944971e-005 5.50520001e-003 -3.76080126e-002 -1.43879903e-002
      2.80263298e-003 -2.60249954e-002 1.51091693e-002 8.25328659e-003
      -5.51009784e-003 -4.33165766e-003 7.32182479e-003 -2.55371183e-002
      -6.69737393e-003 9.28584021e-003 7.31457782e-004 -5.34965564e-003
      2.50682868e-002 -2.08245814e-002 -3.17065441e-003 2.99195349e-002
      2.90888846e-002 1.15031265e-002 2.72535924e-002 8.27779062e-004
      -9.21790209e-003 4.83905384e-003 -3.65401544e-002 1.13765337e-002
      -1.04096271e-002 5.80731360e-003 -4.07272018e-003 2.57706102e-002
      -1.42559968e-002 6.55466691e-003 -6.62123226e-003 -7.45986169e-003
      1.05886406e-003 -5.09790289e-006 -1.46790231e-002 -8.42584018e-003
      4.76685027e-003 1.30978937e-003 -3.79236037e-004 1.83275435e-002
      3.83380475e-003 1.65152103e-002 1.06848078e-002 4.52560978e-003
      -1.37909250e-002 4.73550870e-004 -9.88581311e-003 -2.72858143e-002
      7.08517153e-003 -3.18932254e-003 1.40001522e-002 1.46211842e-002
      7.96715543e-003 1.65718924e-002 1.00736683e-002 -1.42342299e-002
      1.58127584e-002 -1.17386645e-002 -3.52928266e-002 6.59759296e-003
      7.92383123e-003 8.25208705e-003 -1.94515772e-002 1.34982431e-004
      -1.02856557e-003 3.63910547e-003 -5.40046021e-003 7.91544002e-003
      8.38511158e-003 -1.55451556e-003 -1.38128723e-003 1.27863167e-002
      2.15618089e-002 8.44765548e-003 -7.43749086e-004 -1.81350801e-002
      1.72496885e-002 -1.29189454e-002 1.12291947e-002 -1.14101656e-002
      1.38758169e-002 -1.94289070e-002 -2.29078606e-002 7.78705999e-003
      -1.45648355e-002 -1.21844327e-003 -8.36092047e-003 1.83317252e-002
      2.92346906e-003 4.19485196e-003 2.07429798e-003 7.24913320e-003
      -9.75499861e-003 7.08807446e-003 -2.47081220e-002 6.00133790e-003
      2.85244361e-002 5.04748244e-003 -1.55524630e-002 -1.43865272e-002
      7.73770642e-003 6.31818129e-003 -7.58927362e-003 1.65672768e-002
      8.66232812e-003 1.26323383e-002 -1.27574904e-002 -7.45762954e-004
      1.52306706e-002 1.89821497e-002 -6.51187310e-003 1.28889934e-003
      9.07817110e-003 1.27255898e-002 3.72578157e-004 7.50384992e-003
      -2.66622920e-002 1.28144938e-002 1.78533979e-002 -6.51342515e-003
      7.21352361e-003 7.97877461e-003 5.90204867e-003 1.81178674e-002
      1.81500856e-002 -1.59650482e-002 -5.40694268e-003 3.12473654e-004
      2.26533748e-002 1.23622594e-002 -4.60585915e-002 1.07981712e-002
      -2.38150649e-004 2.18582582e-002 -1.72265545e-002 8.26476049e-003
      -3.43221426e-002 1.69707800e-003 1.74951423e-002 3.34855728e-003
      -2.51410226e-003 1.13779157e-002 1.62393413e-003 1.45527476e-003
      -2.82276347e-002 1.26882391e-002 -2.08126605e-002 1.85516803e-003
      -9.06225592e-002 3.20746447e-003 -1.31785385e-002 -1.65537291e-003
      4.26877756e-003 1.41096935e-002 1.18157556e-002 3.51293565e-004
      -2.37724278e-002 -6.11663610e-003 -2.70057656e-002 1.71308443e-002
      -2.28281729e-002 -3.06680187e-004 -5.60847996e-003 9.73976962e-003
      2.08029319e-002 8.95785727e-003 -2.37226207e-002 5.00717107e-003
      1.65695027e-002 1.43016987e-002 -8.15826003e-003 -4.18937998e-003
      8.90134834e-003 -1.87586825e-002 2.94276066e-002 7.25942291e-003
      -3.36834863e-002 4.93117003e-003 4.78948979e-003 -2.04759315e-002
      -1.20029114e-002 1.24847600e-002 1.91158652e-002 9.38214362e-003
      -6.32224083e-002 -1.10545764e-002 6.28153933e-003 8.64455756e-003
      -1.64417252e-002 -3.82761168e-003 9.86365881e-003 -1.29197044e-002
      -1.00019667e-002 5.61306719e-003 -3.10066133e-003 7.05645466e-003
      3.48107493e-003 6.43463386e-003 -5.26777422e-003 -1.99606665e-003
      -4.80338465e-003 9.39047337e-003 -7.79324793e-004 -2.66302228e-002
      2.13187523e-002 -3.21015008e-002 -1.86086353e-002 -1.25360368e-002
      2.83950940e-002 -9.64168552e-003 -2.21423972e-002 4.78855381e-003
      6.75806496e-003 -2.32026447e-003 -1.05943112e-002 -1.76347587e-002
      -4.30259714e-003 1.01679154e-002 8.18739427e-005 -1.52798658e-002
      -1.03782313e-002 -3.49882315e-003 7.10568670e-003 -6.45004632e-003
      5.42893214e-003 -7.66162388e-003 7.44602084e-003 -5.39387902e-003
      1.43361855e-002 1.13907875e-002 8.58304836e-003 5.78487106e-003
      1.11430837e-003 7.13788671e-003 2.19816156e-002 -1.71755105e-002
      -2.01291069e-002 3.63690173e-003 4.02715290e-003 1.57720018e-002
      2.42337701e-003 2.05253959e-002 3.45791951e-002 -1.40933478e-002
      2.29087602e-002 1.42798955e-002 -1.78313442e-002 4.66830842e-003
      6.87960302e-003 1.28151411e-002 6.90158363e-003 -1.90270953e-002
      -3.37105542e-002 2.88432813e-003 -4.73436294e-003 8.16605333e-003
      7.61199393e-004 -2.21710131e-002 -5.52128442e-003 1.99556584e-003
      -9.14196484e-003 -1.60219446e-002 2.16344022e-003 2.54392996e-002
      -2.14137547e-002 -1.30821941e-002 -1.43555598e-002
      -8.75002146e-003 1.49329435e-002 -2.40165982e-002 -1.26258265e-002
      1.18153011e-002 9.96740814e-003 6.84444094e-003 -1.16913430e-002
      4.10260186e-002 4.06408012e-002 -1.56527236e-002 6.07876712e-003
      4.45141038e-003 1.28087653e-002 1.20503409e-002 1.22960461e-002
      1.28804548e-002 -1.32134464e-002 -2.70235203e-002 1.13355145e-002
      -1.73890907e-002 5.96141536e-003 8.66483897e-003 1.41633237e-002
      -6.80978643e-003 1.56996045e-002 -1.43728694e-002 -5.56849269e-003
      -3.10837906e-002 3.56051535e-003 -1.29775784e-003 -2.83546895e-002
      7.42690498e-003 -2.65590823e-003 2.44523026e-002 1.42916082e-003
      -1.29962116e-002 -2.48553865e-002 -3.32015194e-002 6.39094785e-003
      1.57346018e-002 2.87768152e-003 1.08201448e-002 -5.14631346e-003
      -5.09116473e-003 -3.48043162e-003 9.80031677e-004 2.14975737e-002
      6.85015135e-003 -2.28872914e-002 6.28443295e-003 2.11492311e-002
      -1.59018766e-002 -1.98579170e-002 -5.15489955e-004 1.20935282e-002
      9.70655214e-003 4.46126377e-003 2.07314990e-003 -1.56796305e-003
      1.24727041e-002 8.67328513e-003 -6.64505176e-003 8.12458456e-004
      1.96981933e-002 4.03208105e-004 -1.45409591e-002 4.26549697e-003
      7.00108125e-004 -1.04570482e-002 -2.69279815e-002 6.27245847e-003
      3.57732475e-002 -1.31688197e-003 6.04961207e-003 1.13805579e-002
      -1.22065004e-003 3.68569139e-003 1.30432807e-002 -1.83041021e-002
      -3.01419944e-002 -1.54106533e-002 -1.96409430e-002
      -1.33228570e-003 3.25859785e-002 -6.47543836e-003 7.50585832e-003
      1.34807611e-002 -1.47612095e-002 -1.80416387e-002 -1.14415279e-002
      -4.35575843e-002 2.08981559e-002 4.72020451e-003 1.73055902e-002
      -9.39028990e-003 1.87223125e-002 -2.70708743e-003 -1.24775777e-002
      -2.85435282e-003 3.95919837e-004 -1.38777550e-002 -5.85554028e-003
      1.43335166e-003 1.34612084e-003 -1.54080391e-002 -1.75742898e-003
      1.75929582e-003 -2.38685682e-003 2.19582301e-002 2.96327146e-003
      1.94441807e-002 2.33132560e-002 1.32701108e-002 -1.25678293e-002
      7.69747840e-003 1.12863611e-002 -1.87325128e-003 3.16473059e-002
      -2.33738665e-002 7.05870334e-003 2.24742424e-002 6.37673168e-003
      3.71375796e-003 4.13851626e-003 -1.49084739e-002 4.29883040e-003
      -1.33387488e-003 1.57267768e-002 4.81619965e-003 -1.09716784e-002
      -2.42319964e-002 2.32798383e-002 -2.01922245e-002 -1.02630928e-002
      2.74643098e-004 1.27002335e-004 1.79831460e-002 -1.85170267e-002
      -4.84782644e-003 -2.22229864e-002 1.20933298e-002 1.07586253e-002
      -1.64309703e-002 -1.37106478e-002 6.88778330e-003 -1.33045744e-002
      -3.29394895e-003 7.93207251e-003 4.18735726e-005 1.15187615e-002
      -3.86142381e-003 -3.17622535e-002 7.07081892e-003 1.29906563e-002
      -3.86532093e-003 1.58572420e-002 7.22286350e-004 -1.90756889e-003
      -5.74637903e-003 2.16272119e-002 2.23687524e-003 -1.26078362e-002
      9.01938230e-003 -7.07535632e-003 -2.89352471e-003 -9.03969817e-003
      -2.96037588e-002 -1.20538520e-002 -4.25919518e-003 1.83079094e-002
      6.32751780e-003 3.59138544e-003 -4.02088417e-003 -8.43254756e-003
      2.78680567e-002 -5.04036900e-003 -4.14955840e-002 2.39464920e-003
      -3.54227051e-002 1.03950463e-002 -1.33653590e-002 6.79224310e-003
      -1.07280472e-002 -1.11060711e-002 3.73847075e-002 -2.89496817e-002
      1.06840758e-002 6.41719112e-003 -6.64098142e-003 -1.84144103e-003
      1.40182592e-003 4.40731319e-003 -4.38845856e-003 -7.73278857e-003
      3.16340220e-003 8.44418164e-003 5.42019913e-003 7.31032749e-004
      4.79824329e-003 9.70118493e-003 7.16688996e-003 -1.21685825e-002
      -1.04723563e-002 3.34229576e-003 2.68955734e-002 -9.33264196e-003
      1.80652756e-002 1.26851999e-004 1.43433083e-002 -9.93162510e-004
      -4.20554075e-003 -4.99192858e-003 -2.76858062e-002 1.39370980e-002
      -2.37820782e-002 8.17167666e-003 -1.18675362e-002 7.27284327e-003
      2.26226356e-002 1.38846030e-002 5.42966649e-003 3.52065377e-002
      -2.88791079e-002 -1.72139127e-002 4.82426072e-003 1.45958979e-002
      -2.17876099e-002 1.45411566e-002 1.88189151e-003 -2.01230478e-002
      1.73789542e-002 -1.45118078e-002 -1.97857376e-002 1.01506496e-002
      -1.36908563e-002 1.44145554e-002 2.72330269e-003 8.22014548e-003
      1.07761873e-002 3.91415466e-004 8.44264962e-003 -1.08873118e-002
      6.53638085e-003 1.53084239e-003 9.09099355e-003 -1.19717550e-002
      1.49268368e-002 -1.63709782e-002 -1.02903638e-002 1.04169371e-002
      1.87129769e-002 1.30216302e-002 1.40391765e-002 -1.08007668e-002
      -6.77425414e-003 -6.44660369e-003 3.29975877e-003 -5.44568105e-003
      4.44589322e-003 -1.88360363e-002 -8.30988493e-003 1.51902540e-002
      -3.89276235e-003 1.78160630e-002 1.81408059e-002 -8.82115513e-002
      4.86213900e-003 -2.93029216e-003 -1.75182577e-002 4.24011843e-003
      1.38833700e-002 9.32379684e-004 4.99391463e-003 -3.32256313e-004
      5.78527479e-003 3.70014156e-003 2.46074963e-002 -7.68859591e-003
      -5.92184137e-004 -7.07907742e-003 -1.57199595e-002
      -4.26978013e-003 2.05580723e-002 7.51600089e-003 -1.50609016e-002
      2.95455102e-003 1.52253453e-002 1.20515637e-002 -3.14228423e-003
      9.51108802e-003 5.72833000e-003 -6.74240617e-003 2.05860846e-003
      7.02595385e-003 6.73582358e-003 2.15724832e-003 -8.61793477e-003
      -9.97099001e-003 -4.02093213e-003 -1.22225867e-003
      -6.83341548e-003 -9.59896389e-003 -9.85397585e-003 9.80998855e-003
      -2.22531773e-004 7.99101312e-003 1.12102022e-002 9.65202227e-003
      1.77196618e-002 2.63909362e-002 1.73055455e-002 3.52819613e-003
      1.26241138e-002 -3.39756794e-002 1.30445193e-002 2.65217526e-003
      6.87382836e-003 -2.03418196e-003 1.54939917e-004 8.82096495e-003
      1.72164086e-002 1.48954289e-003 -1.82086732e-002 -2.74390820e-003
      1.66800488e-002 -4.01145499e-003 -8.58836633e-004 1.26991617e-002
      2.86526862e-004 -7.12630106e-003 -2.46318001e-002 1.50384679e-002
      -1.37387961e-002 -4.09240322e-003 1.22848516e-002 7.19653396e-003
      -1.20924308e-003 -1.24954013e-002 3.44370818e-003 -8.96708108e-003
      -3.20350267e-002 1.57461427e-002 -1.22232304e-003 -1.09647810e-002
      -1.05722453e-002 1.11267797e-003 -3.70936538e-003 -2.09417641e-002
      -2.25296989e-002 -1.85947996e-002 4.75216797e-003 8.04727990e-003
      4.04601917e-003 3.26657644e-003 8.70255288e-003 -1.00104604e-003
      -2.18121223e-002 -1.05389943e-002 -1.71299968e-002 2.64368742e-003
      -3.75959720e-003 1.77857596e-002 1.89963670e-003 9.91289038e-003
      5.60250599e-003 3.35393474e-002 -7.86706223e-004 9.40892752e-003
      1.13397157e-002 3.37007525e-003 1.00299101e-002 7.57625327e-003
      3.40464246e-003 1.04233727e-003 4.98391781e-003 7.62473745e-003
      -5.91060612e-003 2.25731730e-003 -9.95113607e-003 7.83345848e-003
      -8.99747596e-004 -1.39611671e-002 3.01372749e-003 3.30546172e-003
      -8.51016678e-003 7.18662003e-003 -4.57028247e-004 1.58061273e-002
      -5.85343549e-003 -1.36445398e-002 1.44329909e-002 6.77095586e-003
      1.01972213e-002 3.88964172e-003 3.41827981e-003 -3.65642481e-003
      -7.54210958e-003 1.97150391e-002 1.69117898e-002 1.03128925e-002
      1.93666965e-002 1.16432328e-002 1.79580450e-002 5.09161735e-003
      -1.68036558e-002 -3.33756804e-002 -1.91670433e-002
      -2.45493874e-002 3.99512947e-002 1.04660483e-003 3.17690149e-003
      -3.78686935e-002 1.48594948e-002 1.69628561e-002 3.27613670e-003
      -2.83993594e-003 -1.66550186e-002 -1.91607105e-003 6.03281613e-003
      4.32178844e-003 -1.97966136e-002 -9.67097841e-003 -3.62590738e-002
      2.51694545e-002 5.20571414e-003 4.63367021e-003 -2.87331990e-003
      3.53325792e-002 7.57098198e-003 -6.27814513e-003 -1.38910273e-002
      -2.22368562e-003 1.50147639e-003 -8.10629036e-003 1.90785970e-003
      3.39277554e-003 3.14125349e-003 -2.46723108e-002 2.53569987e-002
      -3.48730898e-003 -2.53323163e-003 1.77384615e-002 -1.77673772e-002
      -9.42076370e-003 1.58009119e-002 -1.60572045e-002 5.84838097e-004
      -1.04963453e-002 6.55264407e-003 5.63077861e-003 -1.51743442e-002
      -6.77863276e-003 1.15717091e-002 -7.57660309e-004 -2.19379440e-002
      1.27286715e-002 1.57466456e-002 -7.62478262e-003 -4.78033954e-003
      -5.62289096e-002 -1.65843666e-002 4.71030399e-002 1.91327482e-002
      2.00313814e-002 5.17790299e-003 9.71838366e-003 -5.14941327e-002
      2.73257773e-002 -1.12622483e-002 2.98913335e-003 9.73357167e-003
      1.29474122e-002 1.03455614e-002 1.61147229e-002 -1.87554620e-002
      1.09497365e-002 -3.04657817e-002 5.66588948e-003 9.52283386e-003
      -8.75931606e-003 1.78228244e-002 9.21484735e-003 -5.45246803e-005
      9.92915779e-003 2.82136910e-003 -1.10906754e-002 3.49174923e-004
      -7.11019803e-003 2.98094167e-003 2.19447650e-002 -7.17559503e-003
      -2.04112548e-002 -1.51594551e-002 -1.25940563e-002 1.15869455e-002
      -1.89573783e-002 -2.82222475e-003 1.10000968e-002 4.23801038e-003
      1.83339268e-002 -8.48381687e-003 2.65737064e-003 7.44518312e-003
      5.61968656e-003 1.26977349e-002 4.36575210e-004 -2.10998058e-002
      2.10115667e-002 6.59329351e-004 1.24587482e-002 5.66056324e-003
      -3.15799238e-003 1.44616151e-002 1.29212886e-002 1.14443759e-003
      3.88527027e-004 -2.08546519e-002 1.92540418e-002 -1.91343036e-002
      1.18346224e-002 -7.47453095e-003 -4.08753427e-003 -1.14513673e-002
      -1.49576375e-002 -1.42274601e-002 7.39333825e-003 -2.33619427e-003
      -1.10639874e-002 -1.73794050e-002 3.94030148e-003 1.30049214e-002
      7.81898480e-003 -1.55233545e-002 1.95132140e-002 1.69589762e-002
      1.13015613e-002 3.62935173e-003 1.37490155e-002 8.44734348e-003
      1.34588648e-002 2.48382194e-003 7.61306984e-003 1.20196939e-002
      -2.59242449e-002 -5.33216633e-002 -3.72610870e-003 5.55345882e-003
      3.35864403e-004 1.88974235e-002 -1.15599502e-002 -1.10347932e-002
      -1.71328634e-002 2.71401275e-002 -2.16172375e-002 1.27815148e-002
      -2.23420095e-003 -1.76599529e-002 -5.13194641e-003
      -4.11451515e-003 1.77385099e-002 3.17851268e-002 -8.26020376e-004
      9.52580199e-003 3.36698070e-002 7.86919706e-003 4.01567761e-003
      -6.14412948e-002 1.52176116e-002 -5.60186920e-004 -1.62105972e-003
      4.93826065e-003 -8.32076278e-003 -9.93480813e-003 1.17850974e-002
      1.34942560e-002 6.09795237e-003 -5.15093503e-004 -1.14332344e-002
      1.69885494e-002 -2.85542402e-002 -4.12519043e-003 1.69365052e-002
      -6.89809071e-003 -1.59380119e-002 -1.21677073e-003
      -1.39733851e-002 4.26370464e-003 -6.04333309e-003 1.58355497e-002
      -1.39777726e-002 -2.47979630e-002 7.39106472e-005 4.85272985e-003
      -3.82606499e-003 -1.87327992e-003 -7.05798017e-003
      -6.08823076e-002 -4.86544659e-003 -4.03092150e-003
      -1.42614637e-002 4.91215289e-003 1.52405603e-002 -2.79209460e-003
      -9.57927201e-003 1.25170266e-002 -5.09417020e-002 1.74003821e-002
      5.32457372e-003 -8.32633208e-003 1.91294327e-002 1.77281734e-004
      -1.48060704e-002 1.39890099e-002 -1.95756238e-002 -1.50107534e-003
      -9.81118414e-004 -2.14312598e-002 2.50906334e-003 -1.25773996e-002
      6.95374934e-003 3.75921791e-003 -4.17227345e-003 1.47518199e-002
      -1.60248112e-002 1.19650895e-002 7.26180524e-003 -4.42972071e-002
      -7.57533591e-003 -2.00823322e-003 -2.50847656e-002 1.01675105e-003
      -7.86519703e-003 8.74784123e-003 -8.21361225e-003 -1.36103490e-002
      -2.59731058e-003 6.97519863e-003 1.31516214e-002 -5.25225606e-003
      1.27701517e-002 6.33696979e-003 -3.82096204e-003 -1.89269911e-002
      4.18865308e-003 -5.75808669e-003 -7.16075161e-003 -7.74219260e-003
      -1.57387534e-004 6.97037065e-003 -5.40757246e-005 -6.22740760e-002
      -2.87522767e-002 -1.98784866e-003 1.56069713e-004 6.31551316e-004
      -5.75537840e-003 2.55500246e-002 -1.33217769e-002 -1.55875254e-002
      -8.72915983e-003 -1.68179180e-002 3.29121202e-002 9.21377912e-004
      -1.00797033e-002 -3.30877304e-002 2.24605594e-002 -9.15948243e-004
      9.57440678e-003 2.05713660e-002 -1.51272537e-002 2.04507262e-003
      -3.73138604e-003 -6.21664012e-003 -2.23296368e-003
      -5.11179329e-004 1.94750037e-002 8.23362358e-003 1.64276436e-002
      1.89762041e-002 4.62872861e-003 4.01813118e-003 6.17957395e-003
      -1.16673568e-002 -1.08395983e-003 3.70003894e-004 8.08551558e-004
      -3.74983205e-003 5.30687859e-003 -3.31158452e-002 1.95697416e-003
      3.85165121e-003 5.49797993e-003 -2.92338710e-003 -2.64993664e-002
      6.04154123e-003 8.12751055e-003 -4.62816888e-003 1.41661875e-002
      1.96376294e-002 4.20950865e-003 9.59215686e-003 1.34968953e-002
      -2.87723206e-002 4.87916730e-003 -4.89189429e-003 -3.51772690e-003
      4.19797230e-004 -7.53892818e-003 2.26026643e-002 -1.14457263e-002
      5.09357406e-003 9.59478132e-003 -5.69827408e-002 -4.36543599e-002
      4.04880877e-004 -1.54647231e-002 4.62502101e-003 1.65500138e-002
      1.79998241e-002 2.11030059e-002 -1.18094087e-002 -9.79148597e-003
      -1.13708107e-002 1.76562499e-002 -8.14899709e-003 1.50720878e-002
      -4.93852282e-003 -2.46239547e-002 1.26179755e-002 8.88664555e-003
      3.13051883e-003 -1.59247394e-003 1.42573835e-002 -1.08481357e-002
      -4.47798148e-003 -4.01931666e-002 -6.57147495e-003 1.23685319e-002
      -4.96427389e-003 -4.92510060e-003 -6.08932413e-003 1.89273469e-002
      1.95871871e-002 -1.53216887e-002 2.10863931e-004 1.83323305e-003
      5.07500116e-003 -2.65999977e-003 1.07130203e-002 -2.63100471e-002
      1.05432263e-002 -1.06527390e-004 1.71582233e-002 5.86122228e-003
      -1.77536309e-002 1.82227846e-002 -3.01152468e-002 1.45677486e-002
      2.03612037e-002 9.91622079e-003 -4.19749096e-002 4.33418201e-003
      1.67703871e-002 1.16852665e-004 -6.65942440e-003 -1.96617041e-002
      -6.93839928e-003 -1.19989784e-002 1.96470041e-002 6.28852844e-003
      1.55350147e-002 1.32740792e-002 5.66811673e-003 2.74407957e-002
      3.13451118e-003 5.60370600e-003 -4.32325304e-002 -1.23688122e-004
      1.03330901e-002 3.28875892e-002 -7.10012950e-003 8.54611490e-003
      -7.84419570e-003 5.17583266e-003 5.34811930e-004 -1.30713163e-002
      -1.24390027e-003 -3.24918213e-003 -1.41742053e-002 8.87525082e-003
      -8.98596738e-003 -6.98347809e-004 4.66683507e-003 1.99649204e-003
      -1.16238473e-002 1.16924811e-002 -3.08832689e-003 -1.00662503e-002
      -8.68959166e-003 1.01306206e-002 4.87696985e-003 -7.61111919e-003
      -4.32190206e-003 2.94274441e-003 1.38220759e-002 -4.17472655e-003
      -2.13769712e-002 -9.85990837e-003 1.52504793e-003 -1.61084458e-002
      1.31050227e-002 1.18044124e-003 -1.66220928e-003 -9.28340666e-003
      -5.63184023e-002 -2.65823007e-002 5.90081094e-004 6.78504538e-003
      -5.49391508e-002 4.66854312e-003 -2.43658293e-002 -1.78555567e-002
      -5.71397692e-003 1.66416001e-002 -9.23452026e-004 -1.88108720e-002
      6.56066881e-003 -1.95510380e-004 -9.14983638e-003 1.39431767e-002
      1.28822876e-002 8.43221787e-003 -4.15638788e-003 1.40992980e-002
      5.13014290e-003 -5.26964478e-003 5.86166652e-003 -1.22546433e-002
      -2.64781192e-002 1.46449602e-003 -2.59283874e-002 -5.52302785e-003
      1.86937172e-002 6.65390631e-003 1.61963794e-002 9.07885842e-003
      8.03470705e-003 -7.88885541e-003 1.10063413e-002 1.54725295e-002
      -1.37888434e-004 1.33402850e-002 -3.37434979e-003 -1.74408907e-003
      1.43237901e-003 1.07957786e-002 -5.68242837e-003 -4.05495055e-002
      -2.39743385e-002 -7.63002876e-003 1.04619460e-002 -6.94640586e-003
      -1.27703487e-003 3.44485044e-003 -1.30341090e-002 6.57510804e-003
      4.39924095e-003 1.55372936e-002 -1.70332112e-003 2.96472758e-003
      3.11246607e-003 -7.00567383e-003 2.79665459e-003 6.04376837e-004
      4.69166320e-003 1.30244065e-002 2.32212432e-003 -9.58907232e-003
      9.99599975e-003 1.73085108e-002 -1.00979069e-003 -4.78022173e-003
      8.38106498e-003 9.23625287e-003 1.89902447e-002 9.36956704e-003
      -6.39952300e-003 -2.22211983e-003 -1.09505681e-002
      -2.12213341e-002 2.12906692e-002 -8.45393911e-003 -1.22534297e-002
      -6.62167964e-004 -1.92979071e-002 -6.60738628e-003 8.24314635e-003
      1.04541378e-002 2.11241692e-002 1.46131245e-002 -4.95169824e-003
      1.04533955e-002 -2.17702370e-002 1.60539430e-002 1.38362199e-002
      6.64159190e-003 2.11740495e-004 1.40203619e-002 -1.70289669e-002
      1.33093363e-002 5.70144458e-003 -7.36618740e-003 -2.53184210e-003
      8.87942407e-003 1.98555237e-004 1.57866310e-002 9.22593568e-003
      1.91021357e-002 2.22497969e-003 -4.91748713e-002 -6.24029106e-003
      -9.90339927e-003 6.92194328e-003 1.11112660e-002 3.07603693e-003
      5.63131133e-003 -1.23866927e-002 -5.85581828e-003 1.29174348e-002
      5.34697762e-003 -3.10528427e-002 -6.45456975e-003 -2.16423180e-002
      -5.29475790e-003 2.09104307e-002 -2.61247456e-002 7.81912077e-003
      1.00650191e-002 1.70677025e-002 2.30900254e-002 1.22409849e-003
      -4.46276367e-003 -2.58023967e-003 1.39650973e-002 -3.29449866e-003
      -2.09002178e-002 -1.89194717e-002 5.92789659e-003 1.16243688e-002
      1.45498635e-002 2.56073102e-002 -1.82797611e-002 5.95024321e-003
      -1.42794950e-002 -1.34297470e-002 6.37905719e-003 -3.65514250e-004
      1.38697186e-002 7.44165480e-003 9.22376011e-003 7.82528613e-003
      6.77160826e-003 -3.12900580e-002 -9.90645308e-003 -2.24143583e-002
      8.06595292e-003 1.21350624e-002 1.73371416e-002 2.37729386e-004
      3.40100075e-003 -2.12408276e-003 -1.17542110e-002 -2.93973833e-002
      -6.99451426e-003 2.65381373e-002 -3.26470123e-003 4.21389844e-003
      -4.05510282e-003 2.51366831e-002 -1.87988952e-003 -8.34551547e-003
      -4.88028023e-003 1.12417080e-002 -9.29861737e-004 -1.20938651e-003
      1.27067138e-002 -6.20693108e-003 -2.52352171e-002 -2.01465711e-002
      4.10721498e-003 1.13286020e-003 -2.83365287e-002 -5.05625689e-003
      3.07553988e-002 -1.22735752e-002 6.82269363e-003 2.93353833e-002
      2.46771518e-002 -7.07288412e-003 -1.83180033e-003 1.39576523e-002
      -2.76992400e-003 1.89551692e-002 -9.86006297e-003 1.32087804e-002
      -7.22454628e-003 7.84102455e-003 1.71860904e-002 8.13656859e-003
      1.46340346e-002 -6.03726180e-003 -1.82383526e-002 3.38670611e-003
      -1.29748080e-002 2.81437244e-002 -1.09132063e-002 2.85271462e-003
      7.45745981e-003 3.15152481e-003 -4.82414477e-002 1.09354686e-002
      1.80682132e-003 2.01222440e-003 2.81725149e-003 7.04142312e-003
      -2.90620159e-002 -1.49914538e-002 2.07662303e-002 1.64726321e-002
      9.66958888e-003 2.92341085e-003 -1.88145041e-003 -3.12281353e-003
      -1.98622085e-002 -6.73192972e-003 3.08317691e-003 1.69961751e-002
      -1.10252462e-002 6.20096363e-003 4.56410181e-003 -1.58410110e-002
      -1.58925019e-002 1.73780380e-003 -8.29643197e-003 4.48210718e-004
      3.51699372e-003 2.54928390e-003 -1.33981276e-002 1.16625112e-002
      8.49423464e-003 -4.52790083e-003 -7.01694735e-005 3.09502007e-003
      1.47134960e-002 -1.69721339e-002 7.24266330e-003 2.58340128e-002
      2.70828442e-003 -1.52967954e-002 1.27245001e-002 3.93106155e-002
      -1.55023672e-002 8.69297981e-003 -3.40443308e-004 -1.97937563e-002
      -4.45597507e-002 4.59529366e-003 -9.48336627e-003 -2.92648282e-003
      -8.91403481e-003 -1.06423181e-002 1.75853521e-002 1.34901162e-002
      -2.60211481e-003 2.24851184e-002 2.29156678e-004 1.48849550e-003
      4.60895302e-004 2.61028553e-003 -1.10834511e-002 -7.96020590e-003
      -6.24692941e-004 -1.05901062e-002 6.96920091e-004 4.62612556e-003
      1.32186594e-003 1.69193894e-002 -2.13486012e-002 -1.50573514e-002
      1.58592258e-002 4.22031507e-002 7.05319969e-003 1.50274355e-002
      1.17467633e-002 -4.50462997e-002 1.15736602e-002 -8.51771235e-003
      -4.73013986e-003 6.01295941e-003 -1.69869531e-002 9.89890177e-005
      7.40085635e-003 1.65972319e-002 5.65075967e-003 -7.02231657e-003
      -1.87673979e-002 1.33040622e-002 1.99797451e-002 -8.82652705e-004
      -3.80324163e-002 3.61017126e-004 -2.85191815e-002 1.23477085e-002
      -2.15537455e-002 7.51849217e-003 7.82614388e-003 9.56234429e-003
      6.66133175e-003 -1.62029799e-004 4.89555905e-003 -2.74004717e-003
      -4.92707314e-003 1.62239149e-002 -3.25275920e-002 -1.95081569e-002
      -8.94746836e-003 1.47995609e-003 -1.04937726e-003 4.17196099e-003
      1.89873837e-002 3.33454902e-003 -5.96269872e-003 -3.65533587e-003
      7.69656431e-003 5.88879338e-004 1.27784340e-002 -3.69455293e-003
      2.02477481e-002 5.95327327e-003 -2.12142095e-002 3.08046117e-003
      9.77293868e-003 2.01457422e-002 2.41544247e-002 4.20078589e-003
      3.64104286e-003 -7.52409734e-003 -1.60345435e-002 1.66900791e-002
      -1.81283690e-002 -1.78298801e-002 -1.54588157e-002 4.61451663e-003
      -2.53733993e-002 4.29088110e-003 2.54437719e-002 -1.43948682e-002
      1.20162843e-002 -1.17947347e-002 -3.28905545e-002 5.45432093e-003
      1.93835497e-002 1.53914513e-002 5.88903611e-004 7.87258334e-003
      2.41581388e-002 1.29075544e-002 -3.15307407e-003 1.37635181e-002
      2.17520185e-002 -2.61409138e-003 5.85719896e-003 -1.13621093e-002
      -3.60585516e-003 2.88017616e-002 2.85539357e-003 -2.12858664e-003
      1.15957037e-002 8.82418361e-004 3.06595918e-002 -3.01619135e-002
      1.33810863e-002 2.03208509e-003 1.13615999e-003 -5.04441001e-003
      8.80298670e-003 -1.64774973e-002 -1.53160666e-003 5.81359863e-003
      -1.04242107e-002 1.31068574e-002 3.29520903e-003 2.37237732e-003
      1.08960522e-002 1.96873047e-003 -6.63147867e-003 -2.75190594e-003
      3.02620279e-003 2.00040154e-002 -1.35775767e-002 -2.89657270e-003
      -1.09031955e-002 -1.75666437e-003 -6.64479146e-003
      -1.29187740e-002 -1.10827694e-002 -8.36661668e-004
      -5.18293213e-003 1.17120398e-002 1.35851689e-002 -1.36136794e-002
      1.42981270e-002 -4.74252738e-003 9.73528251e-003 1.18703151e-003
      -1.01820771e-002 2.28245668e-002 1.21210627e-002 -5.01960376e-003
      2.42215358e-002 1.02991415e-002 2.39409710e-004 3.97454156e-003
      -3.29185426e-002 2.78930878e-003 5.75203402e-003 8.00103508e-003
      -5.61179360e-003 -2.31742561e-002 1.49800628e-002 1.98242647e-004
      -8.23362544e-003 1.37722716e-002 1.78879239e-002 2.11098660e-002
      -3.21812974e-003 -2.58609634e-002 -1.67013276e-002 1.09702302e-002
      7.78019777e-004 6.70171622e-003 1.30520472e-002 1.24758226e-004
      -2.17273948e-003 5.46187256e-003 -4.52552130e-003 8.21558945e-003
      6.97524147e-003 5.75247640e-003 -5.98874828e-003 -4.79350938e-003
      -7.80608132e-003 -1.13467255e-003 -1.25371953e-002 2.15467345e-002
      3.63559206e-003 -7.06148846e-003 1.07220765e-002 -1.40960440e-002
      -1.27772847e-002 -1.61536857e-002 1.19950743e-002 7.12852925e-003
      -8.42177402e-003 -1.47680910e-002 1.73990112e-002 2.64837518e-002
      3.94673049e-002 -1.97609141e-002 -5.67478826e-003 -2.13867631e-002
      9.21976008e-003 1.16867376e-002 -2.70218607e-002 3.75338388e-003
      -5.31299319e-003 -9.95975267e-003 -8.50211363e-003
      -4.73148562e-003 -2.77580116e-002 -4.22994792e-002 2.74343044e-003
      -1.48739479e-003 6.40035095e-003 1.97692271e-002 9.67027713e-003
      5.16946660e-003 8.30433145e-003 4.22580494e-003 -7.20204040e-003
      3.02580348e-003 -3.65108647e-003 -1.33347316e-002 -4.69158869e-003
      1.03576491e-002 3.96178523e-003 -1.35192461e-002 4.85887146e-003
      2.05015875e-002 1.06642991e-002 -6.69864425e-003 -1.03823356e-002
      1.14167584e-002 1.09730475e-002 3.27801816e-002 -1.63930226e-002
      -1.19259423e-002 1.62898786e-002 -2.51560635e-003 1.73395909e-002
      2.75394786e-003 -2.54718810e-002 -4.84374389e-002 4.48432780e-004
      6.33513462e-003 1.03466390e-002 2.20234389e-003 2.59023713e-004
      -5.32566686e-004 6.40892051e-003 -2.18484923e-002 1.19240666e-002
      8.88660550e-003 -2.53759348e-003 4.68626944e-003 -8.40207655e-003
      3.10732372e-004 1.70976035e-002 1.42497886e-002 -1.08140325e-002
      -1.28130615e-003 -1.28531596e-003 2.28300914e-002 -1.29700666e-002
      -1.70429656e-003 -2.39026044e-002 -1.31627619e-002 6.42438186e-003
      -1.36690782e-002 -2.03811703e-003 2.40876172e-002 1.30448369e-002
      4.04782640e-003 4.93892655e-003 2.52732113e-002 -1.26805650e-002
      -9.06803086e-003 -3.78745445e-003 1.23708053e-002 1.34880804e-002
      4.50173486e-003 -1.35399504e-002 7.33903935e-003 -8.79973546e-003
      1.98883750e-002 7.58513901e-003 1.73436906e-002 -1.05822066e-004
      7.01930793e-003 -1.01423645e-002 -4.03671786e-002 5.43120829e-003
      1.13316849e-002 4.89121303e-003 1.19604152e-002 -1.23953503e-002
      6.53598830e-003 1.29152350e-002 -5.74585167e-004 1.79420672e-002
      -1.28599787e-002 1.04943719e-002 -3.85514321e-003 8.13916884e-003
      2.58496311e-003 1.47073306e-002 -1.74572282e-002 -2.21764040e-003
      4.28619236e-003 3.22672888e-003 -4.15093871e-003 9.57320165e-003
      1.88048114e-003 1.10500949e-002 -1.53750479e-002 1.53842685e-003
      1.38601866e-002 -5.13035739e-005 2.25412771e-002 1.90514084e-002
      -5.37158106e-004 -2.39988510e-002 -1.12224072e-002
      -2.17941776e-002 2.36852579e-002 -4.99742618e-003 1.02969175e-002
      1.76426000e-003 9.22852755e-003 1.27844606e-002 -2.38845814e-002
      1.97045528e-003 -9.91364475e-004 3.93618830e-003 1.82262044e-002
      1.92217007e-002 1.51293101e-002 -1.27561269e-002 1.52955428e-002
      -2.10441351e-002 1.47152646e-002 4.52934485e-003 1.33680524e-002
      6.06492581e-003 -2.17977930e-002 -8.44030268e-003 1.25153130e-003
      6.60424959e-003 -1.73482541e-002 1.07475894e-003 2.21601445e-002
      -6.11363212e-004 -3.09538692e-002 2.41393480e-003 -1.87531188e-002
      -3.06701213e-002 -2.41284240e-002 1.02662679e-003 -7.67351221e-003
      1.13835521e-002 -1.32286614e-002 -1.77275352e-002 -2.44218088e-003
      7.81126274e-003 -1.22985411e-002 -8.64581205e-003 -2.84772106e-002
      -3.34353894e-002 -3.51733156e-002 2.51729530e-003 -1.94899570e-002
      8.60105827e-003 2.37852358e-003 6.69936510e-003 8.76281690e-003
      9.65295080e-003 -1.12199914e-002 1.72564853e-002 2.77082659e-002
      6.54804462e-004 1.74187552e-002 4.10595024e-003 1.74523909e-002
      1.22335115e-002 7.19998498e-003 -9.02167149e-003 -1.44600580e-002
      -7.90849142e-003 -4.29615058e-004 2.41655437e-003 -5.43073155e-002
      -4.88139078e-004 1.01189027e-002 1.56411007e-002 -6.97366614e-003
      4.83234506e-003 7.43411481e-003 2.20642495e-003 -1.99742280e-002
      8.29599705e-003 1.41626354e-002 -1.64910425e-002 3.23056169e-002
      -7.04491930e-003 3.60533898e-003 9.70475562e-003 -1.56247767e-003
      1.29943462e-002 -1.63173042e-002 -2.45111864e-002 -2.46577384e-003
      8.77003558e-003 -1.41832139e-002 -1.28030898e-002 5.93478978e-003
      1.37262000e-002 1.47916675e-002 1.22087570e-002 -6.34600129e-003
      8.32393114e-003 7.98261538e-003 -3.09941508e-002 -9.62683372e-003
      1.96721256e-002 -1.92660410e-002 4.59082378e-003 -4.89578233e-004
      3.22055072e-002 -1.06804073e-002 1.88556332e-002 -3.92822251e-002
      1.61644525e-003 -2.54931990e-002 1.16686234e-002 4.43935208e-003
      1.63464230e-002 -4.99565795e-004 1.46748405e-002 6.96698949e-003
      -2.69888202e-003 7.15490081e-004 5.90139301e-003 -7.90884532e-003
      1.43835703e-002 2.02495456e-002 -7.30269821e-003 -4.36478853e-003
      -3.19725322e-003 -6.70738379e-003 -1.16885677e-002 1.29651446e-002
      2.79158261e-003 -8.71425436e-004 7.30808312e-003 6.62325416e-003
      1.93405431e-002 -9.38938279e-003 6.23285118e-003 1.38554899e-002
      8.09673499e-003 3.16494750e-003 -8.59125331e-003 3.76126496e-003
      -2.74876896e-002 1.32665969e-002 -1.96230430e-002 -3.73179987e-002
      -6.67446712e-003 1.22822234e-002 -2.61324435e-003 -1.77117921e-002
      2.12082337e-003 -8.21236800e-003 1.02581037e-003 1.77294184e-002
      2.13331096e-002 -5.73326426e-004 2.31869053e-002 1.53410854e-002
      1.28245689e-002 0. -1.49465660e-002 2.18331870e-002
      -6.21533673e-003 1.26989661e-002 1.06584532e-002 -8.37272964e-003
      -1.37912426e-002 6.85201725e-003 5.54116350e-003 -1.16360588e-002
      -1.92669425e-002 -1.36937704e-002 -1.42457677e-004
      -1.21189270e-003 -4.08404227e-003 6.30305661e-003 -3.75238340e-003
      7.58721540e-003 -5.55337779e-003 1.06557561e-002 1.07888971e-002
      1.20378553e-003 8.04414786e-003 5.98395988e-003 -9.13385674e-003
      2.21241688e-004 1.72087184e-005 3.78633151e-003 -7.90973473e-003
      -1.35758445e-002 -1.74466241e-002 -1.39418487e-002 1.62516546e-003
      5.77226374e-003 -6.11131312e-003 -3.12002352e-003 -8.54095817e-003
      -2.66390499e-002 -1.08118411e-002 1.23854512e-002 1.01144053e-002
      1.37268724e-002 -9.80776083e-003 -5.83511265e-003 4.72625438e-003
      -7.82680139e-003 -3.78220738e-003 3.62285115e-002 -2.09187921e-002
      1.90518256e-002 -1.48955425e-002 4.05723229e-003 5.17621310e-003
      1.65989604e-002 -6.96483348e-003 2.15940140e-002 5.76279452e-003
      7.61790946e-003 7.91339390e-003 2.77821273e-002 1.19144414e-002
      3.62838199e-003 3.14098702e-006 1.25061311e-002 8.98300577e-003
      -1.41803659e-002 6.86149951e-003 6.70645386e-005 1.41751778e-003
      -6.49292441e-003 3.67016983e-005 -1.26103964e-002 7.18527334e-003
      2.11122371e-002 4.22171410e-003 2.86632194e-003 1.61389392e-002
      3.14948102e-003 1.86977424e-002 1.32274013e-002 -2.17022412e-002
      7.61076342e-003 8.57499428e-003 4.55228938e-003 3.06988857e-003
      -7.58677023e-003 6.50467491e-003 1.85604591e-003 1.75384488e-002
      9.81116667e-003 7.83939660e-003 1.10689625e-002 -9.06108972e-003
      1.95052929e-003</_></support_vectors>
  <decision_functions>
    <_>
      <sv_count>1</sv_count>
      <rho>-9.9886887118969159e-001</rho>
      <alpha>
        1.</alpha>
      <index>
        0</index></_></decision_functions></my_svm>
</opencv_storage>
