<?xml version="1.0"?>
<opencv_storage>
<my_svm type_id="opencv-ml-svm">
  <svm_type>C_SVC</svm_type>
  <kernel><type>LINEAR</type></kernel>
  <C>1.</C>
  <term_criteria><epsilon>2.2204460492503131e-016</epsilon>
    <iterations>1000</iterations></term_criteria>
  <var_all>2000</var_all>
  <var_count>2000</var_count>
  <class_count>2</class_count>
  <class_labels type_id="opencv-matrix">
    <rows>1</rows>
    <cols>2</cols>
    <dt>i</dt>
    <data>
      -1 1</data></class_labels>
  <sv_total>1</sv_total>
  <support_vectors>
    <_>
      -2.39305925e-002 -2.98799612e-002 -1.76742428e-003 9.15973447e-003
      1.77386925e-002 6.98856311e-003 -9.60479397e-003 1.11177210e-002
      -3.86137026e-003 6.61645038e-003 -9.36162565e-003 -1.93819646e-002
      4.02507884e-003 -9.11468267e-003 -5.59239602e-003 -7.22682336e-003
      -1.36459051e-002 -1.51002835e-002 9.93500347e-004 -1.25463493e-003
      2.17574276e-003 -2.14023292e-002 -3.40387318e-003 1.36702899e-002
      2.07460318e-002 -2.30516726e-003 -4.79717292e-002 6.85869949e-003
      -2.87394010e-004 1.36574795e-002 -1.00500956e-002 -1.22615863e-002
      1.64343306e-004 -1.12643139e-002 -4.28952696e-003 3.72657971e-003
      3.99344182e-003 -1.98957548e-002 -8.30767117e-003 2.43192376e-003
      2.12977119e-002 -1.50428209e-002 -1.59070585e-002 1.66149251e-002
      -2.39795204e-002 3.44846472e-002 -6.99790369e-004 -9.40532703e-003
      1.03113912e-002 5.97406784e-003 -4.81999340e-003 -2.49987990e-002
      2.50739921e-002 -1.05260743e-003 -8.86973646e-003 -1.78964331e-003
      -8.76766536e-003 -2.59876456e-002 5.88566111e-003 -1.15634333e-002
      -2.79099867e-002 -1.91171430e-002 1.92141682e-002 -2.38095503e-002
      1.39825009e-002 1.37846405e-002 1.75129659e-002 9.81032103e-003
      1.67677719e-002 -2.91649345e-003 2.21449640e-002 1.13168247e-002
      1.74199026e-002 -8.78262613e-003 1.65832862e-002 -6.59025460e-003
      1.80588625e-002 -2.38821208e-002 -1.59415323e-002 1.05518205e-002
      -8.55089165e-003 2.53203455e-002 9.09205619e-003 1.59059837e-002
      -3.83238420e-002 4.63333167e-003 2.47643813e-002 1.71166230e-002
      2.10414119e-002 1.27655715e-002 3.92096210e-003 1.38240745e-002
      6.95291674e-003 2.89436686e-003 -8.09086859e-003 1.09580986e-003
      1.15287537e-002 -1.04926387e-003 1.01233032e-002 1.25776725e-002
      -2.15218915e-003 -3.40905041e-002 -4.97904723e-004
      -1.75960343e-002 5.74289728e-003 1.27563784e-002 -2.15092581e-002
      -7.02393986e-003 3.47849876e-002 1.86934639e-002 6.48069754e-003
      -1.16237039e-002 1.31732645e-002 1.06531754e-002 9.62214544e-003
      1.29507873e-002 2.59504542e-002 1.86022458e-004 -6.21352950e-003
      3.08742234e-003 -1.63238477e-002 8.46605655e-003 8.71553365e-003
      -5.59894647e-003 -7.08848834e-002 9.77619831e-003 -2.25628726e-003
      2.76983855e-003 1.16151420e-003 -4.39684559e-003 -9.19971894e-003
      -8.41939729e-003 -1.23171071e-002 1.54282982e-002 1.66045651e-002
      -4.09326889e-002 1.68473271e-005 -6.20328588e-003 2.49094376e-003
      -2.55985763e-002 1.92887392e-002 1.01496512e-002 1.78070907e-002
      9.66385100e-003 -1.23510435e-002 1.62350032e-002 -9.03155538e-004
      6.03940710e-003 -3.04294098e-002 3.15931486e-003 -2.28116653e-004
      9.82898939e-003 -2.29796325e-003 -1.33791205e-003 4.50591594e-002
      -7.16747716e-004 5.71957731e-004 2.00523138e-002 8.78646679e-004
      3.65635869e-003 -8.66079051e-003 -1.20584061e-002 -5.89661067e-003
      -1.69074535e-002 -8.87182727e-003 4.78865462e-004 9.69905220e-003
      1.17148701e-002 -4.23470134e-004 -1.90867437e-003 4.01244638e-003
      1.74038839e-002 -1.70383565e-002 -1.56150274e-002 -9.47393663e-003
      -1.06844632e-002 1.82127487e-002 -2.03227196e-002 -1.22126460e-003
      -6.00218913e-003 -2.28105602e-003 6.97228266e-003 -2.64679678e-002
      -5.77515550e-003 -3.88589408e-003 -1.02502541e-004
      -1.59518719e-002 -1.46261360e-002 -9.52542108e-003 1.38370031e-002
      -1.23949395e-002 -4.51056939e-003 2.01430116e-002 -1.86769385e-003
      -3.35994549e-003 -3.10975015e-002 2.35420093e-003 -9.91521124e-003
      5.31169772e-003 -3.51739977e-003 -3.21144727e-003 5.29353833e-003
      1.20366523e-002 5.33189299e-003 1.58167575e-002 -1.34932548e-002
      3.04063205e-002 -1.85865723e-002 1.27635961e-002 -2.95266658e-002
      -2.04056390e-002 9.97451041e-003 -8.45583715e-003 -1.55403651e-003
      -1.57797225e-002 2.90357601e-003 -7.92448991e-005 3.53070349e-003
      -3.97223601e-004 1.03815179e-002 4.68760869e-003 2.04925556e-002
      2.47806939e-003 3.55179026e-003 1.26741808e-002 -2.32444499e-002
      2.50492748e-002 9.80457105e-003 -1.41853997e-002 -1.01154847e-002
      -7.89138209e-003 -4.72675562e-002 9.36447736e-003 7.25631556e-003
      6.38387958e-003 5.21076377e-004 -3.26667652e-002 -9.30864085e-003
      -1.04416972e-002 -1.84112154e-002 -2.22191084e-002 9.82814934e-003
      3.00598843e-003 4.99480264e-003 1.74557492e-002 -1.91064682e-002
      -5.01709944e-003 1.68780070e-002 1.22106019e-002 2.95204725e-002
      1.93167999e-002 -2.66654976e-003 -4.96709300e-003 -4.19977233e-002
      2.18455074e-003 5.09269862e-003 9.76920687e-003 2.16704551e-002
      6.75933296e-003 -9.33901779e-003 1.14929462e-002 -4.35793251e-002
      3.48140183e-003 1.57019030e-002 1.44332414e-002 -1.68230142e-002
      -1.55999707e-002 1.42029040e-002 5.32806711e-003 6.06251694e-003
      -2.33425926e-002 3.42151746e-002 9.16250329e-003 -2.67280526e-002
      -2.23251078e-002 -1.93592031e-002 1.62335855e-005 -3.50133218e-002
      -1.38092218e-002 5.78079326e-003 1.46410745e-002 6.59465184e-003
      -3.06318291e-002 5.00935037e-003 -1.88998773e-003 5.00244601e-003
      3.54231196e-003 1.78873893e-002 2.74594361e-003 -1.31521616e-002
      2.45269835e-002 3.67645249e-002 -4.34134249e-003 9.08715744e-003
      2.21871771e-004 3.88101377e-002 1.94525404e-003 1.48272077e-002
      1.40494639e-002 1.45633640e-002 -3.45703191e-003 3.12984595e-003
      -6.97784731e-003 1.15664201e-002 -4.17256402e-003 -1.46328297e-003
      -7.73985591e-003 -5.15122246e-003 1.08547416e-002 1.53615531e-002
      -5.65647893e-003 -2.03688778e-002 1.01433396e-002 2.26742774e-003
      -3.45237516e-002 -1.55668482e-002 1.22774886e-002 -2.86660474e-002
      2.66338605e-002 4.57913941e-003 4.31683240e-003 1.36249233e-002
      -2.27883328e-002 -6.87935576e-003 7.52110546e-003 3.33728408e-003
      1.21933091e-002 -2.37490404e-002 1.08958473e-002 1.33786518e-002
      9.99309402e-003 -2.85163615e-002 -2.71237362e-003 1.60594974e-002
      -1.08838519e-002 -2.65270192e-002 1.64471229e-003 9.61532537e-003
      -2.28281692e-003 -1.97330602e-002 2.90526319e-002 9.42989904e-003
      6.94490038e-003 -3.91261280e-002 1.95316542e-002 -2.90589669e-004
      -5.12095448e-003 1.22898305e-002 9.87648126e-003 7.29183527e-003
      3.22682001e-002 1.01242959e-002 -3.50660121e-004 -1.82440784e-002
      -1.28735630e-002 1.02571901e-002 2.60188039e-002 -2.07153931e-002
      3.77033697e-003 5.44365076e-003 -2.00249366e-002 -2.12638956e-002
      1.19507648e-002 2.11734045e-002 3.07675060e-002 -2.08696374e-003
      -2.57828925e-003 -1.86608899e-002 -2.77500581e-002
      -7.59818545e-003 -5.81923593e-003 1.01008303e-002 1.48985870e-002
      2.05157511e-003 1.78005975e-002 2.33734623e-002 5.93265891e-003
      9.78970621e-003 1.00005018e-002 -1.34603959e-002 9.38643178e-004
      -1.13291238e-002 2.38364562e-002 -2.84320563e-002 7.34548271e-003
      1.97179988e-002 5.38678188e-003 7.41830422e-003 -1.07285855e-002
      -7.11045926e-004 1.47652049e-002 1.31155783e-002 4.59115999e-003
      -1.18430937e-002 -1.50672495e-002 9.60566383e-003 6.76897215e-003
      1.16907675e-002 1.24977268e-002 2.62266938e-002 4.20967080e-002
      2.24679075e-002 1.43390773e-002 7.22008152e-003 -6.27358560e-004
      -1.75101310e-002 -4.44978429e-003 2.47104056e-002 1.42525993e-002
      3.15640843e-003 7.58695183e-003 2.94163288e-003 5.18638932e-004
      -5.64640015e-003 1.19989058e-002 -7.22992420e-002 2.15960946e-002
      3.69857810e-003 9.75168776e-003 -6.32539345e-003 -3.09888943e-004
      1.22986659e-002 -2.34780908e-002 1.78682543e-002 1.36946011e-002
      -4.48337803e-003 -2.44874833e-003 1.22345584e-002 5.98582579e-003
      -4.44681291e-003 -4.95935325e-003 -1.84613708e-002 1.33403335e-002
      -4.88072447e-003 1.73191130e-002 -3.73589108e-003 -3.32269967e-002
      -2.09797313e-003 -5.58403544e-002 5.64928399e-003 -2.76281987e-003
      -9.32395551e-003 1.35491667e-002 1.77759044e-002 1.02068705e-003
      1.99660622e-002 7.28336489e-003 -2.88884155e-003 6.03175675e-003
      -6.29100055e-002 -6.17230032e-003 -1.08151883e-002 3.66447158e-002
      -6.14224887e-003 2.76492001e-003 4.45365766e-003 -2.09798440e-002
      2.70275027e-003 1.79846361e-002 6.37360197e-003 -8.99502635e-003
      2.45363638e-003 -6.19470794e-003 -9.17001348e-003 5.57323126e-003
      2.47732680e-002 1.95745216e-003 2.00093142e-003 9.84504633e-003
      -6.99863257e-003 -2.31178850e-003 8.88675160e-004 -2.69207777e-003
      2.49512643e-002 -2.89116539e-002 -8.64591263e-003 -1.54643953e-002
      9.34945978e-003 -1.96250025e-004 1.79859642e-002 2.70368485e-003
      -2.22590403e-003 -1.44983304e-003 4.09453502e-003 1.71191227e-002
      1.49162738e-002 -2.21515680e-003 1.04501052e-002 -1.04509788e-002
      -2.71004550e-002 -3.26663330e-002 -1.21879121e-002
      -1.94967550e-003 2.23106728e-003 -5.57979278e-004 -7.69248512e-003
      -1.80895513e-004 1.76712573e-002 9.31753963e-003 -1.42078791e-002
      7.28419982e-003 -1.92424878e-002 -2.28178650e-002 1.12353405e-002
      2.57663950e-002 -2.47980542e-002 1.32896872e-002 -7.25174975e-003
      1.48113267e-002 -1.09627796e-002 -7.52776396e-004 3.86022264e-003
      2.44319104e-002 1.34652425e-002 -3.28084752e-002 -1.23477764e-002
      -1.35227107e-002 3.56540224e-003 -3.95939825e-003 -7.34034460e-003
      -3.38354670e-002 1.60912238e-002 -2.65875328e-002 -2.17333492e-002
      -5.58088943e-002 1.18414424e-002 2.33318470e-002 -5.24664391e-003
      2.24640984e-002 1.62713877e-005 1.14691164e-002 5.36722923e-003
      6.01583719e-003 -5.41479466e-003 1.03259110e-003 1.61558259e-002
      -2.53716903e-003 1.71891544e-002 2.16333792e-004 -2.28581373e-002
      -8.00613221e-003 1.35730263e-002 -5.81077114e-003 -2.07358459e-003
      9.11634602e-003 -2.88338084e-002 2.00106110e-002 1.22339269e-002
      -1.69169903e-002 -2.44118716e-003 -1.93296857e-002
      -3.90510960e-003 -1.35960765e-002 4.03086888e-003 1.18588023e-002
      2.70316377e-002 -1.83559284e-002 3.62721062e-003 9.01172590e-003
      3.87080051e-002 1.60859413e-002 1.34796742e-002 1.25541668e-002
      4.64926101e-003 8.39434471e-003 -1.15347514e-002 4.59258119e-003
      9.48399957e-003 1.10925445e-002 1.45007251e-002 1.38115138e-003
      -1.37427738e-002 -5.88552132e-002 -2.38886364e-002 3.79013829e-003
      -6.51595695e-003 -3.55816334e-002 7.52023002e-003 9.62001365e-003
      -5.26503380e-003 -1.52919479e-002 -9.55840759e-003
      -3.67979668e-002 -7.07903691e-003 1.26523897e-002 -3.38815874e-003
      2.65344679e-002 7.61797605e-003 -6.20338833e-003 -4.47610486e-003
      7.39064487e-003 9.33753420e-003 -2.63244699e-004 -7.33051896e-002
      2.92329257e-003 1.14207426e-002 4.97463252e-003 -4.16863011e-003
      6.56692777e-003 -4.91895666e-003 -4.49045748e-003 -4.58039083e-002
      1.38086989e-003 1.26389321e-003 -3.22337262e-002 -2.49118486e-004
      1.04215071e-002 -5.00863278e-003 1.90459844e-002 1.48545514e-004
      6.93808030e-003 1.34780901e-002 9.28748213e-003 -6.74584089e-003
      2.97103450e-002 -6.78136153e-003 8.50100070e-003 -3.05208634e-003
      -2.25918349e-002 2.18349304e-002 1.37861790e-002 5.96708432e-003
      7.63544580e-003 2.13665608e-002 -1.47545747e-002 8.26530810e-003
      -3.08828410e-002 -1.57827884e-002 -2.05248836e-002
      -1.28033543e-002 -1.00045940e-002 -2.48702280e-002 1.01463171e-002
      4.10179328e-003 -4.42877132e-003 -6.21437235e-003 -1.47438189e-003
      -3.18465196e-002 -2.20580176e-002 7.44850095e-003 2.30134968e-002
      -8.21657665e-003 2.37261653e-002 -2.93817790e-003 -1.16979377e-002
      -1.49684837e-002 1.26796234e-002 1.07343458e-002 -1.97338816e-002
      2.77965097e-003 7.74455629e-003 1.15514512e-003 2.85950396e-002
      -1.29522411e-002 -3.22374552e-002 1.49652837e-002 6.96477538e-004
      1.34401284e-002 4.29270137e-003 6.80229440e-003 4.75186110e-003
      -5.78855164e-003 2.29057223e-002 -2.05172896e-002 -3.21724423e-004
      -1.18370010e-002 4.58147330e-003 -5.05076684e-002 1.46592604e-002
      2.14581788e-002 -3.18477908e-003 2.78876163e-003 -2.17077900e-002
      1.51014328e-002 -1.16976146e-002 -1.50190294e-002 6.20293757e-003
      1.12870615e-002 6.77497871e-003 1.04405461e-002 5.97860338e-003
      -5.36502758e-003 3.07791065e-002 4.67531476e-003 4.47247224e-003
      1.63722355e-002 5.96722495e-003 -3.63392495e-002 2.63415975e-003
      1.06983557e-002 3.60124931e-003 -9.09154594e-004 1.17522208e-002
      -7.36989174e-003 3.19579942e-003 1.49361044e-002 -1.67738111e-003
      -7.64552969e-003 4.88264486e-003 7.90521037e-003 -1.21568860e-002
      2.04829331e-002 -1.30970264e-002 2.21418906e-002 2.38834694e-003
      -1.45760889e-003 -1.51935676e-002 -1.64610837e-002
      -1.63019784e-002 -5.42349229e-003 5.89563837e-003 1.17987366e-002
      -7.50463782e-003 -3.73889841e-002 -2.76768510e-003 9.75470617e-003
      -7.37409433e-003 -3.24699143e-003 -4.97791823e-003
      -6.72623795e-003 -1.76159050e-002 -2.15425789e-002 8.38154927e-003
      -7.22590974e-003 1.46988558e-003 6.80971378e-003 7.33206654e-003
      -2.48159301e-002 9.09754168e-003 -2.21412051e-002 4.47311485e-003
      1.42064970e-002 6.70609123e-004 2.56328192e-003 1.16193155e-002
      -1.41370306e-002 2.12488621e-002 -1.05676353e-002 9.52173548e-004
      1.03512863e-002 1.24612544e-003 1.16359629e-002 -2.94200089e-002
      -4.29931423e-003 9.27538890e-003 1.91127229e-002 1.38669889e-002
      -2.73716310e-003 6.02398766e-003 1.09093813e-002 -1.49549488e-002
      -3.50998454e-002 7.72112980e-003 -1.84235759e-002 5.38116181e-003
      -2.14220062e-002 1.92416310e-002 7.04877125e-003 1.86621845e-002
      1.89553648e-002 -5.84594393e-003 -1.95455458e-002 1.65608246e-002
      -5.42164035e-002 4.54064598e-003 1.13135101e-002 1.43674901e-003
      5.49475523e-003 -3.79063711e-002 -1.31984090e-003 -5.68948733e-003
      -1.20414691e-002 7.08857831e-003 1.61519088e-003 8.43153801e-003
      1.17571792e-002 1.03673283e-002 3.14576924e-002 -2.07394529e-002
      -7.46168755e-003 -6.17948845e-002 -1.00346571e-002
      -2.44624484e-002 -3.38401273e-003 -1.70394666e-002 1.07372403e-002
      -1.85085610e-002 1.83201041e-002 -3.81829217e-003 -1.14942705e-002
      2.04664469e-003 5.15074702e-003 1.86981913e-002 6.61169598e-003
      1.00373933e-002 -7.69729912e-003 1.13217225e-002 -2.63968424e-004
      1.44315269e-002 1.87601196e-003 1.02211172e-002 -2.23124232e-002
      -1.68942427e-003 1.08278403e-002 -1.07317613e-002 7.88048003e-003
      1.57061331e-002 -2.26862747e-002 1.27730956e-002 4.74877248e-004
      -2.30457745e-002 -1.23317202e-003 7.08807074e-003 -9.79301799e-003
      9.97077674e-004 2.06289757e-002 5.58596710e-003 -7.76095614e-002
      1.94827653e-003 1.92527901e-002 3.07807419e-003 -6.05451502e-003
      1.08460477e-002 -1.15763517e-002 2.19616368e-002 1.48418266e-002
      1.28407460e-002 1.03151537e-002 6.10454194e-003 -1.70031632e-003
      -1.17259342e-002 1.85292363e-002 4.50666854e-003 -1.95941329e-003
      -1.56247348e-003 1.44631509e-002 6.20476017e-003 -1.10182716e-002
      -1.30938068e-002 9.80378781e-003 1.11656049e-002 9.27298702e-003
      8.61277338e-003 -8.77407938e-003 6.29996322e-003 -6.32431218e-003
      5.71530405e-003 6.34731399e-003 -3.75003144e-002 5.85958827e-003
      -1.15480144e-002 3.96169070e-003 2.93797255e-002 -1.96775999e-002
      -1.78186204e-002 2.04287153e-002 7.69550214e-003 -2.69583166e-002
      -7.95088895e-003 1.27603207e-002 -4.16009920e-003 1.92640144e-002
      1.68651417e-002 -1.99534949e-002 8.62156157e-005 -5.18594449e-003
      1.95792480e-003 -4.03386205e-002 -1.00699021e-002 -6.58307876e-003
      1.74989961e-002 -8.86659976e-003 -5.05149085e-003 -1.97207020e-003
      1.34234112e-002 5.29592438e-003 1.36374300e-002 -1.06803225e-002
      -3.78043827e-004 -5.63830398e-002 -1.64423753e-002
      -2.95503531e-003 1.25593971e-002 1.47855943e-002 2.38774158e-003
      1.00083882e-002 1.14845065e-002 9.11290850e-003 7.01134419e-003
      8.79571191e-004 -1.37011483e-002 9.34093259e-003 8.43741186e-003
      -3.78712383e-003 -1.12689696e-002 2.87560094e-002 -6.90126140e-003
      -1.00588128e-002 -4.91674710e-003 2.73106247e-002 -9.71557200e-003
      9.23998072e-004 6.05668826e-003 1.23376660e-002 1.62188970e-002
      -1.45972250e-002 -1.42639666e-003 2.99144145e-002 -5.16989129e-003
      8.34009796e-003 -2.82435808e-002 1.69164725e-002 2.40627062e-002
      -1.04442770e-002 -6.55703247e-002 -7.68713048e-003 9.00802482e-003
      -2.64929403e-002 -3.36195081e-002 6.84934296e-003 1.32250059e-002
      2.85169873e-002 2.50935904e-003 4.15453129e-003 -1.84606947e-002
      -4.72138897e-002 3.97125678e-003 1.39734999e-003 1.15150427e-002
      -2.64794808e-002 -8.01648386e-003 -1.15751661e-002 1.17130931e-002
      4.73973248e-003 1.35220652e-002 8.95850826e-004 5.26409305e-004
      1.07746944e-002 9.24339611e-003 1.22814439e-002 2.52168644e-002
      2.22636759e-002 -2.18328666e-002 -1.33241881e-002 4.72931424e-003
      8.20458750e-004 5.82751818e-003 5.23298695e-005 2.60542636e-003
      -1.36843948e-002 2.02657338e-002 2.78696958e-002 4.95914044e-003
      -1.66710205e-002 -3.27097322e-003 3.12278941e-002 1.45509960e-002
      1.50628481e-002 1.16930921e-002 -1.36120813e-002 3.41525897e-002
      5.56113850e-003 9.58931167e-003 2.31454875e-002 -8.11198540e-003
      -1.02267116e-002 7.79249892e-003 6.44668844e-003 2.17991639e-002
      1.10553484e-002 1.15119887e-003 6.89793238e-003 -2.13986123e-003
      9.42128710e-003 -8.24906398e-003 1.24494834e-002 1.13752782e-002
      -1.64833348e-002 -1.90384779e-002 1.31980022e-002 -1.95559319e-002
      2.27628313e-002 2.12274231e-002 9.54335649e-003 2.11361591e-002
      -1.49997389e-002 5.34656644e-003 -1.46337105e-002 1.51496986e-002
      1.18255252e-002 -6.03967601e-005 1.44211436e-002 1.20975892e-003
      -1.00585623e-002 6.15713513e-003 8.71141069e-003 8.74691270e-003
      -1.43243307e-002 -3.98354325e-003 -8.64423439e-003
      -1.51838800e-002 5.34075499e-003 -2.50435006e-002 -2.58366130e-002
      1.26058049e-002 2.89836526e-002 2.79216841e-003 1.62893571e-002
      -3.44190630e-003 3.06257221e-004 -3.86893989e-005 4.89308359e-003
      1.28226662e-002 1.02414349e-002 8.25833902e-003 4.44771518e-004
      1.27888229e-002 1.22392448e-002 2.33242977e-002 8.77422653e-003
      5.32999402e-003 3.93339619e-003 1.39622884e-002 -5.63862314e-003
      -1.77694652e-002 -1.09151872e-002 -7.01135350e-003 9.35272872e-003
      1.47707677e-002 2.94916867e-003 -2.46411748e-002 -1.28166424e-002
      -1.63929928e-002 7.77680846e-003 1.09498734e-002 -2.08694022e-003
      -1.01687945e-002 2.36711581e-003 5.91776427e-003 2.25607492e-002
      7.72128021e-003 5.25861839e-003 2.11534444e-002 1.99266262e-002
      4.57994500e-003 1.39220776e-002 -3.12941410e-002 1.89660378e-002
      1.59987132e-003 -9.92666837e-003 -1.49968769e-002 -7.12416891e-004
      4.44753794e-004 1.17526250e-002 -6.29334897e-003 -6.99044485e-003
      -7.35834241e-003 1.13353869e-002 1.44027302e-003 3.08936415e-003
      6.81992061e-003 4.43298044e-003 5.17324824e-003 9.82626434e-003
      -8.92575271e-003 -6.85746642e-003 -1.02366433e-002 3.38447304e-003
      2.20081843e-002 -4.71268955e-004 6.97364425e-003 9.95212118e-004
      -2.44620405e-002 1.34417671e-003 -7.17365183e-003 -3.93094961e-003
      1.43758142e-002 1.54736871e-002 1.84895396e-002 9.28288139e-003
      -2.24546213e-002 -2.13617948e-003 1.03592612e-002 7.45215546e-003
      -2.00461242e-002 -5.56426588e-004 1.34683000e-002 -8.24372983e-004
      -7.99473934e-003 1.44362161e-002 1.59016531e-002 -5.66323521e-004
      1.25226900e-002 5.39826741e-003 -9.85604431e-003 6.70860661e-003
      4.75268112e-003 -4.04116791e-003 -8.81472696e-003 7.53937988e-003
      -3.41643230e-003 5.28846914e-003 -3.75412893e-003 3.80938384e-003
      1.17791630e-002 -5.03307534e-003 -1.00651927e-001 2.60719098e-002
      9.29496530e-003 2.10868064e-002 3.88179813e-003 4.27779183e-003
      1.89510477e-003 -9.89165809e-003 1.56331025e-002 1.71355512e-002
      -7.12875742e-003 -2.09708922e-002 -8.08907766e-003
      -3.00604245e-003 1.73181836e-002 -8.20097607e-003 -2.29244959e-002
      -2.47724052e-003 1.04033975e-002 -5.87546546e-003 -1.14805764e-002
      -1.35682442e-003 1.19248859e-003 -8.59627221e-003 5.81208803e-003
      8.76626652e-003 5.25850477e-003 -5.36705134e-003 -4.96353162e-003
      -1.08281216e-002 5.36749652e-003 -4.02158359e-003 8.81734677e-003
      3.80153535e-003 1.66571978e-002 1.76626649e-002 -1.93235595e-002
      1.87758058e-002 1.38737457e-002 9.76242125e-003 -7.56890746e-004
      9.39007569e-003 2.30194512e-003 -1.46692945e-002 3.24760890e-003
      1.39163702e-003 1.17839617e-003 -9.58353002e-003 2.78547984e-002
      1.83704905e-002 -3.28325131e-003 -1.22237038e-002 1.32952621e-002
      7.57769588e-003 -4.77177277e-003 -9.05336812e-003 5.94153022e-003
      3.70628294e-003 9.26000439e-003 7.77074555e-003 -4.51999195e-002
      -1.95312593e-002 -2.16854494e-002 1.39301987e-002 1.81748662e-002
      1.07660387e-002 3.52808693e-003 1.44299595e-002 2.73434818e-002
      -2.02097520e-002 8.13556544e-004 -1.08358338e-002 2.26282384e-002
      6.41047489e-003 -1.89908575e-002 -3.57977711e-002 -2.08341572e-002
      2.23928387e-003 -2.21564230e-002 -3.63614457e-003 4.42032097e-003
      -8.49254429e-003 -5.80802672e-002 9.86285880e-003 -5.51920943e-003
      4.12123650e-003 2.13855468e-002 3.75666050e-003 -5.31938486e-003
      2.13265028e-002 1.01692155e-002 -1.37871522e-002 6.66074746e-004
      -9.19315964e-003 -2.95644943e-002 -3.62565033e-002 7.05166534e-003
      -2.69140340e-002 -5.92648657e-003 1.29661458e-002 1.68778244e-002
      1.52011937e-003 4.04851176e-002 1.06373373e-002 -5.80548681e-003
      6.31470932e-003 2.60565057e-002 -2.12613698e-002 4.57947748e-003
      1.90269912e-003 1.71239546e-004 1.06943278e-002 8.05913843e-003
      1.35578616e-002 -6.72430405e-003 -4.10769768e-002 -1.19562401e-002
      4.02266625e-003 1.30658010e-002 1.21803014e-002 1.32762277e-002
      -1.11602573e-002 2.18237657e-003 -1.66803487e-002 -1.12930955e-002
      2.40888074e-003 -8.40093661e-003 -2.07980207e-004 1.45696001e-002
      -2.57064886e-002 3.23243090e-003 -1.31827593e-002 3.15063889e-003
      -3.07472181e-002 -1.93836931e-002 -1.66266374e-002 2.44970247e-003
      8.59409687e-004 1.45043824e-002 9.47780069e-003 2.13182322e-003
      -4.56271786e-003 -1.35820433e-002 -1.11460583e-002 6.83832029e-003
      -3.26523150e-004 -7.66746188e-003 -1.37175405e-002
      -2.27201413e-002 1.03491442e-002 1.23183373e-002 3.57101597e-002
      1.21206213e-002 5.59546193e-003 -1.01533970e-002 1.93457853e-003
      -3.63337696e-002 2.07214709e-003 4.91424510e-003 1.02512827e-002
      5.32543426e-003 -9.63013712e-003 -1.15387179e-002 1.32387155e-003
      6.04797620e-003 1.90622127e-003 -1.35327587e-002 1.24888364e-002
      1.77207626e-002 -4.54305531e-003 2.14332342e-002 1.50908176e-002
      1.13697881e-002 -9.12811141e-003 -5.17223822e-003 7.76409218e-003
      -1.11182192e-002 -2.49264040e-003 -3.54590663e-003 2.17009149e-002
      -2.56903237e-003 2.26641167e-003 1.51324114e-002 5.19177318e-003
      -5.82867069e-004 -6.70482516e-002 -5.68011135e-004 1.25147328e-002
      3.39151616e-003 -5.94587205e-003 -2.44613774e-002 4.70198086e-003
      2.29538176e-002 -1.38792759e-002 1.97325218e-002 1.05951456e-002
      6.95580384e-003 -2.95743737e-002 -1.23039074e-002 -1.29869282e-002
      3.82376066e-003 -4.15476412e-002 -1.97215340e-004 9.49354284e-003
      4.97845793e-003 7.58171687e-003 -2.37658005e-002 5.62635250e-003
      -5.03397733e-003 5.23654046e-003 1.51096713e-002 4.69259731e-003
      -8.04398302e-003 2.06661951e-002 6.07596990e-003 -1.59558952e-002
      -4.10717316e-002 1.45023558e-002 2.70238221e-002 -5.32295043e-003
      -2.05990183e-003 2.47461647e-002 5.93857467e-003 -8.65402445e-003
      8.94598104e-003 2.39920504e-002 -7.01439101e-003 -2.91361287e-002
      5.62399160e-003 1.29617713e-002 -1.57829430e-002 -2.39495412e-002
      -7.67975487e-003 1.02735255e-002 1.58250891e-002 3.19967978e-002
      1.74875930e-002 -1.52085926e-002 1.40080629e-002 6.39398757e-004
      -2.21835449e-002 2.84302304e-003 -5.58739156e-003 -1.88152194e-002
      -1.35752372e-002 1.56404693e-002 2.04750877e-002 6.06479170e-003
      4.91639972e-003 1.13909263e-002 -2.51571145e-002 -4.66457941e-003
      -1.77915010e-003 -6.92327798e-004 -5.13841864e-004 7.44153978e-003
      -1.11269308e-002 -7.85979815e-003 -1.04961535e-002 6.06813515e-003
      1.61172561e-002 1.26523559e-003 -7.43271317e-003 -9.73049493e-004
      1.34404507e-002 -1.46057848e-002 5.87653741e-003 -8.44359584e-003
      7.80104147e-003 3.76621820e-003 -1.30504481e-002 5.06521901e-003
      -5.70998061e-003 -9.46275331e-003 6.43511117e-003 -1.37450816e-002
      -9.47531685e-003 -6.74383761e-003 -3.54559557e-003
      -9.30431113e-003 3.97201069e-003 1.88604303e-004 -6.65299967e-003
      4.39450890e-003 1.24579307e-003 1.17204674e-002 7.09304586e-003
      -8.27491097e-003 -7.62944948e-003 2.37210263e-002 6.47816435e-003
      8.17940570e-004 9.59613081e-003 4.18284861e-003 -1.58033576e-002
      2.69263261e-003 -7.28213321e-003 -1.85130280e-003 7.04671489e-003
      1.00400923e-002 -2.16373224e-002 9.84178390e-003 6.08185166e-003
      3.73687968e-003 -8.36607255e-003 -7.28058070e-003 -1.14887496e-002
      -7.35956356e-002 6.64448552e-003 1.44931180e-002 3.54230497e-003
      1.18466308e-002 2.26400383e-002 1.45650366e-002 9.61426587e-004
      -2.10212194e-003 -7.68846646e-003 -2.88342149e-003 1.05107157e-003
      1.21488618e-002 5.69652161e-003 -2.95477035e-003 -2.87641468e-003
      -1.38637209e-002 3.22153978e-002 6.91282749e-003 -9.49352514e-003
      1.93418339e-002 -2.98719271e-003 2.66810134e-002 -1.73761067e-003
      1.74757937e-004 1.40439800e-003 -1.90009288e-002 -1.14186183e-002
      -1.23002781e-002 2.83288746e-003 -4.00287565e-003 -1.41079858e-004
      2.06133127e-002 1.49514051e-002 9.49310663e-004 9.08870343e-003
      -9.21319984e-003 -4.44685249e-003 -1.71672776e-002 8.43682792e-003
      -1.00340089e-002 -8.03072657e-003 4.33016289e-003 2.21181996e-002
      1.95289608e-002 -2.16092188e-002 -8.46619485e-004 1.45544456e-002
      -2.40690373e-002 -2.69606709e-002 -1.58363413e-002 3.68208326e-002
      1.09738181e-003 -1.56349912e-002 -4.41949023e-003 1.90629333e-003
      1.46549447e-002 2.31071468e-002 -2.14866661e-002 -2.30973144e-003
      3.83920595e-003 -2.83021294e-003 -2.41372418e-002 -1.25365593e-002
      -6.41183648e-003 7.96634145e-003 6.80758478e-003 2.48971186e-003
      -1.87329464e-002 4.86528315e-003 5.06590353e-003 -1.65535156e-002
      -6.63843285e-003 5.61093865e-003 -1.52222747e-002 -1.57826114e-002
      1.59494486e-002 2.90986411e-002 -1.46822920e-002 8.89875740e-003
      -1.44178430e-002 -1.04995305e-002 -2.16630641e-002 1.01714218e-002
      1.64987519e-002 1.85183960e-003 -2.02328134e-002 -1.62983555e-002
      1.17759882e-002 3.59080709e-003 1.23453382e-002 7.71640800e-003
      1.82013575e-003 -3.46533246e-002 -8.60049215e-004 1.51302561e-003
      -6.35911338e-003 -7.14214891e-003 -1.19126793e-002
      -1.51405763e-003 1.20735746e-002 1.47876004e-002 4.90175001e-003
      -9.06054676e-003 5.61863324e-003 -1.66878570e-004 8.06133449e-003
      6.34660572e-003 4.96542593e-003 -7.44598685e-003 -1.35170640e-002
      -6.42113164e-002 1.59690250e-002 -7.62564549e-003 -1.53581304e-002
      1.26768146e-002 -3.90389264e-002 -1.85396522e-002 -2.30518933e-002
      4.33808798e-003 -1.24096507e-002 -1.06941247e-002 -5.13060950e-003
      5.95046533e-003 -9.13186930e-003 -2.99589653e-002 9.89666581e-003
      2.27951482e-002 -1.04847755e-002 1.20014716e-002 8.14289972e-003
      1.43979508e-002 2.09140219e-003 9.07146651e-003 -8.53556581e-003
      1.05325626e-002 1.54003082e-003 -4.01547225e-003 -9.98195261e-003
      -1.74730793e-002 1.52167631e-002 1.97708439e-002 5.59526496e-003
      1.28323538e-002 9.68524627e-003 -1.59390492e-003 -3.73035902e-004
      3.36684985e-003 3.96066578e-003 -1.61307659e-002 5.73388068e-003
      -2.93726772e-002 2.77113579e-002 -1.25148604e-002 -6.99608773e-003
      2.24355259e-003 7.18127470e-003 9.39956494e-003 1.37288254e-002
      2.08842289e-002 2.41326378e-003 9.33024101e-003 -1.39511761e-003
      -1.26167759e-002 -7.79867126e-003 1.90829355e-002 -8.28055665e-004
      1.61632784e-002 -2.55637001e-002 -5.15352702e-003 1.08135603e-002
      6.39214553e-003 1.22984536e-002 9.63057205e-003 -3.39856856e-002
      -7.47228833e-003 -1.53558496e-002 1.36022335e-002 -5.37441671e-003
      1.34586897e-002 1.32146073e-004 1.74612589e-002 -3.36601632e-003
      -3.61024658e-003 -1.62639003e-003 1.77650061e-002 2.32586768e-002
      -1.91684701e-002 1.06875561e-002 1.48780476e-002 8.83261114e-003
      7.94468727e-003 3.22199687e-002 4.07319935e-003 1.92026421e-002
      1.00205955e-003 -2.72634672e-003 8.52525001e-004 -1.57549400e-002
      2.20586127e-003 -2.25724615e-002 1.95525233e-002 1.41768660e-002
      5.05518867e-003 1.10776164e-002 1.16819292e-002 2.49309093e-002
      -1.64052807e-002 -3.64331789e-002 3.22546512e-002 -4.40553948e-003
      2.28746999e-002 4.23410675e-003 1.35837700e-002 -1.96583066e-002
      1.87418200e-002 2.67567057e-002 -2.06334870e-002 -1.02169709e-002
      -2.20641820e-003 4.58365446e-003 3.75317410e-003 -3.24003994e-002
      -3.46928723e-002 6.27939729e-003 3.79383471e-003 -2.30552852e-002
      -2.52930075e-003 -3.68372817e-003 5.91180054e-003 -6.47969777e-003
      1.01802256e-002 -1.82779017e-003 6.53548399e-003 2.14120597e-002
      1.47507694e-002 1.64478198e-002 6.38424681e-005 9.79845133e-003
      5.85463022e-005 -3.95408086e-003 -1.56873800e-002 3.34101096e-002
      1.56628492e-003 -1.81915909e-002 6.11371268e-003 -1.81087237e-002
      1.19142672e-002 8.11004173e-003 8.91076401e-003 8.51565786e-003
      -4.38762084e-003 1.88325830e-002 2.25457512e-002 2.40290966e-002
      -5.07412432e-003 -1.56558666e-003 -2.17127446e-002 1.51620980e-003
      -4.20874134e-002 -1.66052452e-003 5.69023052e-003 3.22285085e-003
      -2.17661019e-002 -2.23140093e-003 -5.36903087e-003
      -3.11150542e-003 1.16889998e-002 -1.21809570e-002 8.43818393e-003
      9.05374251e-003 -1.27714267e-003 -1.14103667e-002 1.57460757e-002
      2.99305958e-003 1.40092894e-002 -2.52474472e-002 1.90358385e-002
      -3.81854437e-002 3.44007043e-003 -1.25212707e-002 2.36938279e-002
      -1.90094039e-002 -8.21269117e-003 2.38474039e-003 -4.25059795e-002
      1.74519012e-003 2.98598805e-003 -2.35413350e-002 -2.44453643e-002
      2.72251479e-003 8.45762528e-003 -7.21408101e-003 1.25021087e-002
      -3.10001709e-003 -1.20319976e-002 2.75488500e-003 2.95874872e-003
      -1.53116351e-002 -1.30870740e-003 3.10323038e-003 6.62231073e-003
      7.17794523e-003 -3.97644052e-003 -2.13277563e-002 1.06927613e-002
      2.41365400e-003 1.30852154e-002 8.10369570e-003 -1.69225372e-002
      -2.25040037e-002 2.31561251e-002 -1.72403138e-002 -6.26321509e-003
      -4.15395107e-003 1.06137507e-002 1.31500084e-002 -1.02834320e-002
      -1.08769932e-003 -4.06402126e-002 4.07239236e-003 2.84373946e-003
      1.20458836e-002 -1.58734545e-002 1.46555873e-002 -7.47658312e-003
      -4.50227177e-003 6.97737280e-003 -1.95640102e-002 1.04659498e-002
      2.14323238e-003 -8.14054720e-003 -9.70746949e-003 3.18576023e-002
      -2.25007534e-003 1.32651404e-002 4.88320738e-003 -9.06021614e-003
      -2.66061611e-002 3.75612616e-003 -4.48839320e-003 1.69458874e-002
      7.80096138e-003 1.65807304e-003 7.18137203e-003 9.15305316e-003
      8.60715657e-003 -3.49844880e-002 2.20103078e-002 1.38463313e-002
      1.56426765e-002 1.61564238e-002 -1.27421925e-003 1.42271323e-002
      1.15110576e-002 -1.96550656e-002 -7.58504728e-004 6.99180085e-003
      -4.05540597e-003 -9.52220231e-004 -1.04670003e-002 5.46908472e-003
      -7.94713758e-003 1.24794547e-003 1.17915003e-002 1.34377612e-003
      2.07161400e-002 1.89819820e-002 -7.01406971e-003 -6.09775959e-003
      2.04669479e-002 5.96580142e-003 2.99695384e-004 -2.41061896e-002
      1.27228284e-002 -7.80559517e-003 1.41455960e-002 8.64853151e-003
      8.42527486e-003 5.11228247e-003 1.57610178e-002 3.81027907e-003
      2.59881746e-002 -2.51995251e-002 -3.56019028e-002 -1.84572060e-002
      -1.41690881e-003 -2.03135540e-003 1.63013097e-002 2.24466133e-003
      1.70006684e-003 1.59065210e-004 -1.79242697e-002 9.19885002e-003
      5.07229334e-003 4.95364564e-003 -2.06720945e-003 1.65882614e-002
      2.04255562e-002 8.80687404e-003 -2.70341057e-003 -2.69706938e-002
      -6.11040834e-003 1.65658221e-002 -6.07611472e-003 1.28257517e-002
      1.29326470e-002 1.01561891e-002 -3.01340315e-002 -1.86377636e-003
      7.49172689e-003 -3.37895029e-003 -4.54542320e-003 1.76741946e-002
      1.68940686e-002 1.19154230e-002 9.13735665e-003 -6.75878255e-003
      -8.31524841e-003 1.32281159e-003 1.78105235e-002 7.74459122e-003
      -2.17221933e-003 -7.06704427e-003 2.27424335e-002 2.51582963e-003
      8.28743819e-003 2.05412079e-002 5.80927823e-003 -6.14358624e-003
      1.60175748e-002 1.24740442e-002 -5.73780744e-005 1.25197542e-003
      4.41574212e-003 -1.19232973e-002 -6.72102906e-003 -5.68098947e-003
      -7.53501803e-003 -1.23334816e-002 1.24382097e-002 -1.29631879e-002
      8.24763253e-003 -7.32644573e-002 -1.57356933e-002 2.05059033e-002
      8.88309255e-003 3.73820239e-003 -2.52506766e-003 -8.39133281e-003
      9.15984623e-003 -2.34207865e-002 -1.52572451e-004 -3.59752551e-002
      9.39316954e-003 4.70998650e-003 7.78695103e-004 -1.99594311e-002
      2.13428796e-003 4.19297582e-003 -1.11816637e-002 9.84837534e-004
      1.28717460e-002 -3.56056495e-003 4.55477787e-003 1.14477368e-003
      9.30355676e-003 -1.24017168e-002 -8.98037292e-003 1.04140965e-002
      -2.16208864e-003 5.92195080e-004 1.10033210e-002 5.83568122e-003
      9.09379311e-003 -8.88873357e-003 -1.17563531e-002 -1.85015507e-003
      -3.12988795e-002 -1.19088180e-002 2.93181371e-003 -2.19612941e-002
      5.35702566e-003 6.48391666e-003 2.03983462e-003 -1.84132513e-002
      8.84095300e-003 9.52701177e-003 -1.41762979e-002 1.63524989e-002
      1.08994832e-002 5.03956154e-003 1.87304022e-003 1.10745635e-002
      -5.97692654e-003 3.06428480e-003 1.36466241e-002 3.47909494e-003
      6.50348701e-003 3.88018624e-003 -1.48244184e-002 1.21480301e-002
      -1.06851337e-002 -1.44888461e-002 1.33434515e-002 3.16049531e-002
      2.65761279e-003 2.90972441e-002 3.54287913e-003 -1.21360430e-002
      -2.76302616e-003 3.15233576e-003 8.72274302e-003 4.78585111e-003
      6.40777173e-003 1.71623509e-002 2.22050324e-002 1.52886128e-002
      -5.47424844e-003 2.27654483e-002 -4.28327918e-002 1.35767320e-002
      6.35456340e-003 4.88042645e-003 1.49249351e-002 1.21174138e-002
      8.31694994e-003 2.28136200e-002 8.08233023e-003 -2.27829884e-003
      -5.86621510e-003 4.07190637e-005 2.91832560e-003 2.51702918e-003
      -2.74327751e-002 8.55214521e-003 -2.64417883e-002 -1.15903225e-002
      7.48998672e-003 8.63833074e-003 2.36055907e-002 2.02206224e-002
      -3.18853520e-002 9.75198578e-003 -8.58111493e-003 1.49361994e-002
      -2.89285323e-004 -3.10163992e-003 -7.59519963e-003
      -4.82952641e-003 -1.06371026e-002 -1.17396740e-002 1.85189396e-003
      -1.87848378e-002 1.48992054e-002 7.94404279e-003 -1.96727384e-002
      -1.17366826e-002 1.34606278e-002 -6.17511291e-003 4.93184710e-003
      -1.09332344e-002 6.82873838e-003 9.18128807e-003 -6.49665296e-003
      4.45919074e-002 -4.51201759e-003 6.85403030e-003 -2.19936911e-002
      2.74974969e-003 -2.61600297e-002 6.63333200e-003 -2.06206609e-002
      -4.91284765e-004 1.25183417e-002 4.14181873e-003 -4.46200334e-002
      1.10166222e-002 5.29447524e-003 -1.04805995e-002 -6.26402069e-003
      2.97911335e-002 5.10754110e-003 8.00345093e-003 -2.57524624e-002
      -1.79398190e-002 1.34590524e-003</_></support_vectors>
  <decision_functions>
    <_>
      <sv_count>1</sv_count>
      <rho>-9.9845338601205091e-001</rho>
      <alpha>
        1.</alpha>
      <index>
        0</index></_></decision_functions></my_svm>
</opencv_storage>
