<?xml version="1.0"?>
<opencv_storage>
<my_svm type_id="opencv-ml-svm">
  <svm_type>C_SVC</svm_type>
  <kernel><type>LINEAR</type></kernel>
  <C>1.</C>
  <term_criteria><epsilon>2.2204460492503131e-016</epsilon>
    <iterations>1000</iterations></term_criteria>
  <var_all>1000</var_all>
  <var_count>1000</var_count>
  <class_count>2</class_count>
  <class_labels type_id="opencv-matrix">
    <rows>1</rows>
    <cols>2</cols>
    <dt>i</dt>
    <data>
      -1 1</data></class_labels>
  <sv_total>1</sv_total>
  <support_vectors>
    <_>
      -2.67364178e-002 1.99185200e-002 1.35123096e-002 -7.66059533e-002
      1.10473586e-002 9.22090374e-003 -7.97330867e-004 1.51677039e-002
      1.86196901e-002 -6.26445562e-002 -2.15962231e-002 1.28078638e-002
      -2.43299648e-001 -7.15436821e-004 -4.41163313e-003 8.85089918e-004
      6.78294525e-003 2.52850354e-002 -4.91619036e-002 1.89502779e-002
      2.43555079e-003 9.17317159e-003 3.79998125e-002 -9.42105427e-003
      5.66287804e-003 1.15391761e-002 6.94697583e-003 -2.60861102e-003
      -5.83293140e-002 -3.15297581e-002 2.21979693e-002 2.31254101e-003
      -2.30128430e-002 -1.58656519e-002 -5.13516106e-002 2.52104383e-002
      1.07277110e-002 -5.40078105e-003 1.11804828e-002 1.33815436e-002
      -1.47846690e-003 -1.22559723e-002 4.69723810e-003 8.43183473e-002
      3.53204831e-003 1.13918791e-002 1.33675858e-002 1.34751489e-002
      1.43058635e-002 3.07987649e-002 -2.04709023e-002 2.54741199e-002
      1.63901821e-002 -6.44115508e-002 9.85586084e-003 -6.57723546e-002
      3.05923354e-002 4.24073357e-003 2.08304226e-002 1.51942046e-002
      2.75892369e-003 1.96218565e-002 3.56477909e-002 5.04606590e-002
      -1.55820101e-002 4.17842111e-003 1.95103383e-003 1.09797372e-002
      2.06870493e-004 1.15673076e-002 -2.64461450e-002 -1.96197815e-002
      1.35147087e-002 4.90827393e-003 3.82928886e-002 -1.25527326e-002
      1.14789521e-002 -2.23087166e-002 -3.81236449e-002 3.35079841e-002
      2.70159636e-002 -8.92613642e-003 -1.24556804e-002 1.23851439e-002
      2.60081775e-002 -7.46458843e-002 1.52215902e-002 7.24357087e-003
      2.21433807e-002 8.64730310e-003 1.58831496e-002 2.70860251e-002
      3.89210880e-002 8.65616184e-003 1.78553350e-002 3.02848648e-002
      -1.00136232e+000 4.18379493e-002 4.39865403e-002 5.74272163e-002
      3.84175368e-002 -1.53679878e-003 -7.67685175e-002 -3.09096966e-002
      -2.95034684e-002 -2.38710064e-002 1.04032003e-003 2.38917898e-002
      9.56805330e-003 1.69519503e-002 1.36399979e-003 9.58370604e-003
      -9.05112475e-002 -7.91252851e-002 2.42419578e-002 3.85409850e-003
      4.89240233e-003 3.79062220e-002 -3.48316208e-002 1.47904856e-002
      2.13391650e-002 7.19576958e-004 2.01885775e-002 4.06475039e-003
      2.27565952e-002 -5.62445307e-003 2.49768682e-002 -1.37696275e-002
      1.69435665e-002 3.13189924e-002 -6.70097917e-002 1.26884682e-002
      3.01630609e-003 3.61863710e-002 -1.62704065e-002 -2.04016119e-002
      1.35218565e-004 4.31504846e-003 6.03944762e-003 -1.82261616e-002
      -5.62936515e-002 2.17037387e-002 -2.36493666e-002 -1.40858693e-002
      4.43474622e-003 1.51812527e-002 -5.10887755e-003 -2.69000158e-002
      2.63904259e-002 2.58390103e-002 2.79768240e-002 1.24386940e-002
      2.69074552e-002 2.51941811e-002 1.98985618e-002 1.70556270e-002
      -5.19776233e-002 -4.67708632e-002 2.07837746e-002 2.53019072e-002
      2.24638525e-002 3.54598393e-003 1.23344949e-002 2.48974897e-002
      2.59947926e-002 -3.88947353e-002 4.00844365e-002 -6.75003650e-003
      -1.47633674e-002 2.32938249e-002 4.01618518e-002 -2.57076696e-002
      2.02618837e-002 1.18214479e-002 -6.64990675e-003 -2.29197815e-001
      1.82840712e-002 4.44683759e-003 -1.07910589e-003 3.99793545e-003
      -3.82556766e-002 6.13125600e-003 -8.98288388e-004 3.05570774e-002
      1.68654453e-002 -3.26104350e-002 1.30579146e-002 1.71603914e-002
      -4.39771637e-002 8.99429433e-003 1.37484132e-003 1.28618255e-002
      1.15600219e-002 2.09502019e-002 -7.47343805e-003 2.36419663e-002
      -7.35410908e-003 1.60994120e-002 -1.40715187e-004 2.02457365e-002
      4.77307625e-002 8.99009290e-004 -3.99984606e-003 1.75608220e-004
      1.34297032e-002 3.74791436e-002 9.67596844e-003 0. 1.82680152e-002
      1.06497267e-002 2.03650333e-002 9.02095158e-003 -9.34373215e-003
      4.76825144e-003 2.05294173e-002 1.64051447e-002 9.33544151e-003
      1.74061712e-002 1.11379987e-002 3.65224667e-002 -3.18198837e-003
      1.11319423e-002 9.82626714e-003 -3.80922705e-002 -4.70193103e-003
      -7.05452682e-003 1.84174199e-002 -1.25762243e-002 9.11349710e-003
      1.99544796e-004 4.20153365e-002 1.11064222e-002 1.53930038e-002
      3.27099636e-002 2.39306185e-002 6.88956399e-003 5.20212436e-003
      -6.07393915e-003 -1.57745719e-001 -4.50368412e-002
      -5.70310187e-003 3.70715782e-002 1.47857275e-002 2.89774742e-002
      1.26560247e-002 2.06663343e-003 2.42084432e-002 5.13450205e-002
      2.03771256e-002 2.90410239e-002 1.80756897e-002 -4.09615273e-003
      3.24475928e-003 3.43596190e-002 1.05040735e-002 -3.62106115e-002
      -1.96818151e-002 3.51539068e-002 1.44761465e-002 6.33969605e-002
      1.84133425e-002 -7.85514526e-003 7.46906037e-003 2.31156815e-002
      0. 1.46773215e-002 8.89943819e-003 -2.91892141e-002
      -3.80146354e-002 -2.38859374e-002 -6.59988523e-002 1.02436580e-002
      2.63630394e-002 1.42382821e-002 3.49335037e-002 1.29294181e-002
      1.77267677e-004 2.32940651e-002 1.64197106e-002 -1.50169814e-002
      1.26163308e-002 1.11727193e-002 -5.17037734e-002 3.81444953e-002
      -3.51338498e-002 -5.00478372e-002 -1.46092158e-002
      -1.23897549e-002 -2.14715451e-002 -1.43120080e-001 1.42780440e-002
      2.89570503e-002 6.68185297e-003 -1.28480539e-001 2.04750057e-002
      -1.05291707e-002 1.58809349e-002 3.18558775e-002 3.02066561e-002
      1.97152048e-002 1.31069515e-002 1.24720354e-002 -5.23960479e-002
      6.31833309e-003 2.12328080e-002 1.39935166e-002 -3.64372432e-002
      2.26327777e-002 2.76572667e-002 2.28507277e-002 -1.05843626e-001
      4.38883202e-003 3.40819568e-003 -1.79315044e-003 -9.94705781e-003
      3.24762389e-002 8.51206575e-003 3.83409997e-003 -1.05857551e-001
      3.86409573e-002 4.42370810e-002 2.97857057e-002 -3.39140720e-003
      1.51270172e-002 1.50148626e-002 -1.41017856e-002 1.36345681e-002
      3.57209519e-002 2.79280171e-002 1.15601914e-002 -1.92567252e-003
      2.43414138e-002 -7.40703121e-002 -3.56720872e-002 2.70671397e-002
      1.78377423e-002 1.43073611e-002 1.95189770e-002 -2.41897348e-002
      -5.16020879e-002 4.96928860e-003 4.96779010e-003 1.07894149e-002
      -3.31318229e-002 4.16143276e-002 -1.56680122e-002 8.30920693e-003
      3.71793248e-002 -3.39700840e-002 3.04672681e-002 -3.49622779e-003
      9.90442336e-002 -1.94443911e-002 3.24824788e-002 -1.06812781e-002
      2.32957490e-002 1.12618981e-002 1.34801148e-002 1.59170087e-002
      -5.48458518e-003 -1.75864659e-002 2.12250333e-002 7.84926303e-003
      3.58612314e-002 1.96235953e-003 -1.14808138e-002 -3.55684087e-002
      -6.59840032e-002 2.31184959e-002 3.24795879e-002 -4.36359132e-003
      5.74056525e-003 3.29694375e-002 2.39329953e-002 -3.10802124e-002
      3.21252039e-003 2.32676808e-002 -2.11391281e-002 7.73266377e-003
      2.27893256e-002 -1.15558878e-003 2.94269994e-002 2.97186431e-003
      -3.28600883e-001 5.82103617e-003 7.25805899e-003 2.31947210e-002
      -7.48516470e-002 1.13991387e-002 1.05224838e-002 -6.01059198e-003
      1.51245827e-002 4.00114357e-002 2.84036435e-003 1.93255246e-002
      -4.18167263e-002 1.30090332e-002 0. 2.31292341e-002
      -5.84256090e-002 -2.23478861e-002 -4.42733951e-002 2.39916686e-002
      3.76415253e-002 3.72522324e-002 -8.22000057e-002 -2.95248423e-002
      3.11044827e-002 7.58552225e-003 1.38692679e-002 5.08263744e-002
      -9.79944021e-002 1.23453904e-002 -2.85228435e-002 1.73288528e-002
      3.57955396e-002 1.31645547e-002 2.91367248e-002 6.62806332e-002
      -1.64727289e-002 -1.61568541e-002 2.85744276e-002 1.98463793e-004
      8.85805767e-003 6.69525936e-003 7.00487867e-002 4.92005842e-003
      6.65229559e-003 6.91383053e-003 3.51795135e-003 1.50603084e-002
      7.10242614e-003 3.40302289e-002 1.52418891e-003 1.25263154e-003
      2.76114717e-002 1.60281435e-002 3.22462842e-002 -2.94691343e-002
      -1.55119633e-003 7.54328165e-003 1.67317912e-002 1.71188284e-002
      9.96859279e-003 -9.98985209e-003 -6.31666696e-003 -4.72096205e-002
      4.27039526e-003 9.52732190e-003 6.50757644e-003 -1.32610753e-001
      3.13607715e-002 -2.79492978e-003 -7.90702552e-003 3.33471666e-003
      2.86438614e-002 -3.11316699e-002 -8.54447782e-002 -7.48186046e-003
      1.65469367e-002 -7.95713961e-002 -1.11787375e-002 1.40341083e-002
      -1.45189650e-002 2.12418344e-002 7.77207594e-003 2.88114659e-002
      -9.63387452e-003 1.39850015e-002 1.68516263e-002 3.95485666e-003
      9.46549326e-003 2.38753762e-002 1.19709987e-002 -2.21960749e-002
      5.71506377e-003 1.48266228e-002 1.07848924e-002 4.07760292e-002
      1.62955783e-002 1.38537195e-002 1.55852484e-002 3.49236764e-002
      9.51707084e-003 6.29068259e-003 1.80205200e-002 3.14548216e-003
      -3.53822261e-002 1.36179309e-002 1.72085296e-002 -8.05924982e-002
      -1.23059507e-002 -1.15785003e-001 3.43338847e-002 5.51410485e-003
      1.31673496e-002 -3.37974937e-003 4.03161673e-003 4.36508469e-002
      5.58051048e-003 -2.42668763e-002 9.59727913e-003 9.03030299e-003
      9.75226052e-003 -5.10310493e-002 9.73446667e-003 -3.56486603e-003
      -8.49503651e-003 5.21825207e-003 -3.68374027e-002 -1.45778626e-001
      4.58755065e-003 -8.71821400e-003 2.30764356e-002 2.54417360e-002
      -3.97199243e-002 1.12132486e-002 3.51208518e-003 6.72106910e-003
      3.69957760e-002 2.00447589e-002 1.47868535e-002 1.07087838e-002
      1.02344733e-002 2.54283077e-003 -2.26944908e-002 3.00087798e-002
      -1.33394934e-002 4.29093726e-002 2.30820291e-002 1.64934266e-002
      4.36122296e-003 5.63243637e-003 -4.22331356e-002 -6.98039904e-002
      2.33729836e-002 3.28208879e-003 -2.19391156e-002 -1.98020251e-003
      2.77934894e-002 2.58014314e-002 -7.81848747e-003 3.11493538e-002
      -1.70747861e-002 2.13463418e-002 4.31611091e-002 1.06245885e-002
      -3.46845924e-003 -2.69845966e-002 -2.52569634e-002
      -5.11593580e-001 -8.99249222e-003 -1.46499902e-001 4.04435992e-002
      1.86101329e-002 -1.01070022e-002 2.04028771e-003 -2.79385801e-002
      -3.90210524e-002 -2.70010298e-003 4.44575679e-003 4.75500990e-003
      -6.45833910e-002 2.76411977e-002 8.18615034e-003 -1.62184946e-002
      5.87112196e-002 8.89582280e-003 4.62269876e-003 -2.47830916e-002
      3.15133203e-003 1.21322032e-002 6.60870457e-003 -4.82505411e-002
      -5.31984083e-002 -6.88212067e-002 -4.20070365e-002 1.04883704e-002
      0. -6.81525394e-002 -5.63384630e-002 2.45701652e-002
      1.93319395e-002 5.52326906e-003 -1.81433726e-002 7.64953252e-003
      3.45123513e-003 3.31550790e-003 2.13971622e-002 4.64176154e-003
      2.26102974e-002 5.25229843e-003 4.22239071e-003 -3.19919456e-003
      1.41755259e-002 1.50562748e-002 2.15729065e-002 8.66531208e-003
      -6.56443313e-002 -8.74393154e-003 1.62197594e-002 3.39954980e-002
      -3.33810523e-002 -5.18664718e-003 -1.37901986e-002
      -4.49858466e-003 1.21267457e-002 1.25252586e-002 -3.91087942e-002
      -2.73996349e-002 1.20998714e-002 -2.00512130e-002 9.80239268e-003
      3.53910252e-002 8.12500715e-003 -4.02136194e-003 -3.74753699e-002
      -1.68412402e-002 5.26343286e-003 -8.92970245e-003 -1.14537207e-002
      1.94605056e-003 1.74959376e-002 2.16394430e-004 6.51145494e-003
      1.73759889e-002 5.48939314e-003 1.45219825e-003 1.56561024e-002
      -4.08589887e-003 2.75918003e-002 1.04338648e-002 3.22938384e-003
      2.03453284e-002 2.07869662e-003 1.82818305e-002 2.44221259e-002
      -1.82856750e-002 4.92505357e-003 1.15511138e-002 1.16700297e-002
      8.05283803e-003 -5.00762425e-002 5.28558483e-003 2.15444732e-002
      3.67467524e-004 5.82569167e-002 8.00290797e-003 -7.73484707e-002
      3.59210670e-002 1.23202121e-002 -4.61144336e-002 -9.71016847e-003
      -7.04963803e-002 3.31908055e-002 -8.48914757e-002 -9.74049605e-003
      1.09571228e-002 2.61865184e-003 8.69956519e-003 5.29429410e-003
      4.71639447e-003 -6.01040274e-002 -1.81918032e-002 -4.58029192e-003
      1.88344177e-002 4.80213575e-002 1.35015436e-002 2.63205990e-002
      6.41141087e-003 6.21721009e-003 -3.69224586e-002 -4.06979489e-005
      5.85872564e-004 7.86265265e-003 1.16063822e-002 4.04442288e-002
      1.17375990e-002 1.19589055e-002 5.70436707e-004 1.97592154e-002
      3.29985395e-002 -3.34619218e-003 -3.56630348e-002 -4.80569433e-003
      4.88190092e-002 -2.36995779e-002 5.26111713e-003 1.62270677e-003
      4.82595153e-003 1.27149373e-002 -2.34639142e-002 -8.72849673e-002
      1.16036590e-002 -5.79941571e-002 -3.23618799e-002 1.06761400e-002
      5.35981450e-003 6.57831179e-003 -2.61039063e-002 1.09740291e-002
      -1.45124244e-002 8.71758256e-003 -4.84846197e-002 8.20845831e-003
      1.26402301e-003 -2.98547950e-002 -2.19055801e-003 8.12070724e-003
      3.41666862e-003 -2.77434010e-002 2.21775062e-002 0.
      6.82284590e-003 3.45912226e-003 3.25289033e-002 -3.52466144e-002
      2.98423097e-002 -1.66566465e-002 -2.90365051e-003 1.40994294e-002
      3.39460410e-002 -6.57708421e-002 -2.06515491e-002 1.75714847e-002
      2.30130204e-003 1.27486540e-002 5.44253271e-003 -5.61578833e-002
      -1.64134792e-004 3.84495384e-003 1.90243628e-002 1.12418290e-002
      1.10231657e-002 4.34905291e-004 1.59144457e-002 2.83821542e-002
      1.27929384e-002 3.37877348e-002 -9.88720357e-003 1.40240462e-002
      3.40173300e-003 1.15412027e-002 -2.52014189e-003 1.58945266e-002
      3.60317975e-002 2.25853119e-002 -4.07134816e-002 2.87910714e-003
      1.64837353e-002 -2.84734983e-002 3.25024128e-002 -3.13548557e-003
      -6.63039554e-003 1.26356315e-002 -3.46855223e-002 -2.39630565e-002
      2.53959764e-002 -1.65888052e-002 1.02901785e-002 1.59110762e-002
      7.58737558e-003 4.02060039e-002 4.88917669e-003 1.44766532e-002
      3.18319388e-002 4.37209383e-002 1.91351455e-006 -1.60775241e-003
      -1.21444482e-002 2.08303845e-003 -1.04743857e-002 1.30098499e-002
      1.00583099e-002 4.25641891e-003 3.01533025e-002 -4.12549125e-003
      5.37911430e-002 2.95765381e-002 2.03578137e-002 1.04025344e-003
      1.57266613e-002 2.13266462e-002 1.34861283e-002 -2.67706178e-002
      -9.05413460e-003 -6.00920059e-004 2.46985890e-002 2.33851187e-002
      -5.84903028e-005 -3.10291466e-003 3.97113785e-002 -6.09552376e-002
      -2.30346955e-002 1.63086719e-004 2.17479989e-002 3.35363112e-003
      6.23162137e-003 1.40349381e-002 -6.16628863e-003 1.62944465e-003
      1.45976786e-002 4.17620838e-002 1.94603801e-002 1.24590117e-002
      -7.06478730e-002 3.56050720e-003 9.04031843e-003 -8.96960124e-003
      2.54147556e-002 2.49361098e-002 -1.21928258e-002 -8.39558523e-003
      -1.34465396e-002 2.35254820e-002 4.30728728e-003 2.13797744e-002
      3.90152857e-002 -2.64975149e-002 3.69771756e-002 1.20686395e-002
      3.00591961e-002 -3.10925972e-002 9.59611218e-003 2.01474838e-002
      -1.45381708e-002 -6.23969268e-003 2.23343424e-003 1.01831956e-002
      1.58884339e-002 9.60919727e-003 1.43837165e-002 1.09356837e-002
      9.89100523e-003 3.13349371e-003 4.84823715e-003 -1.18248928e-002
      3.69250663e-002 1.87792012e-003 9.30545386e-003 3.23558529e-003
      1.55821163e-002 1.01127066e-002 -1.04608305e-003 -3.65582667e-002
      2.75084302e-002 3.88345402e-003 6.62584649e-003 -1.18612172e-002
      1.43045653e-002 2.02220790e-002 2.06159577e-002 1.43456534e-002
      1.30939465e-002 -8.26429762e-003 2.08964534e-002 1.41379647e-002
      2.78092902e-002 1.50139192e-002 -1.57775115e-002 3.75823444e-003
      4.21893224e-002 4.22793478e-002 4.83056577e-003 5.23087848e-003
      1.01813106e-002 1.97471511e-002 1.84792792e-003 2.56732926e-002
      2.53224373e-002 2.80911475e-002 2.47541629e-002 -2.22717002e-002
      1.30842393e-002 2.46952716e-002 -1.37853445e-002 2.58663930e-002
      -6.16907328e-002 -3.02687474e-003 -8.18009023e-003 3.02305501e-002
      -1.46260811e-002 2.38986723e-002 8.47071130e-003 5.09312144e-003
      5.87849785e-003 -1.73735246e-002 -3.98343354e-002 -1.37848007e-002
      4.25074948e-003 6.43736217e-003 1.94432139e-002 2.56327484e-002
      -3.19965966e-002 -6.65769130e-002 7.54675828e-003 1.52865071e-002
      1.62191372e-002 1.75158568e-002 -6.42628176e-003 -2.76196543e-002
      1.43228825e-002 1.93512626e-002 1.19938413e-002 -3.26736346e-002
      -4.18336270e-003 2.69865338e-002 -4.43427736e-004 2.28906199e-002
      -3.65901142e-002 3.04934885e-002 6.79969462e-003 -8.89972746e-002
      3.51015409e-003 -7.52471678e-004 3.33271772e-002 2.18779072e-002
      4.05800017e-003 -3.08917370e-003 2.39643492e-002 -3.09335329e-002
      1.89989544e-002 1.20297465e-002 -9.19282530e-003 1.65767479e-003
      8.69358424e-003 -1.81193370e-002 2.52287672e-003 1.80680286e-002
      1.28567088e-002 2.80894507e-002 3.57638695e-003 -2.97240680e-003
      -3.30817401e-002 7.20452704e-003 -4.74306941e-002 1.24052130e-002
      1.45396478e-002 5.56366937e-003 5.41243888e-003 1.94380675e-002
      6.54797349e-003 2.94350609e-002 1.44981220e-002 3.06208823e-002
      1.96138881e-002 3.86040611e-003 1.52886296e-002 9.91746550e-004
      1.61620602e-002 7.67701259e-003 5.00961253e-003 1.62975229e-002
      8.97274446e-003 9.92427859e-003 -1.66553259e-002 -8.22962541e-003
      -8.12131073e-003 1.11897914e-002 3.17220241e-002 8.42457172e-003
      -3.18441540e-002 2.67451350e-002 3.05688810e-002 -3.48660797e-002
      2.69348379e-002 4.45107594e-002 1.70798283e-002 8.06418620e-003
      1.41985167e-003 -9.33874771e-003 2.12955773e-002 4.79280576e-002
      -5.46123683e-002 1.60807744e-002 -2.33812816e-002 1.23494519e-002
      -4.23781946e-002 1.14347804e-002 2.91543286e-002 3.68429944e-002
      -2.84163114e-002 2.03619804e-003 3.75581197e-002 1.48814293e-002
      3.26217040e-002 6.23976113e-004 1.12151587e-003 6.85503613e-003
      -3.27762775e-003 -1.27056642e-002 1.46468654e-002 2.62632407e-002
      3.95484036e-003 8.81136488e-003 -3.81263974e-003 4.44842083e-003
      -1.82611239e-003 -2.95912009e-002 -4.70555164e-002</_></support_vectors>
  <decision_functions>
    <_>
      <sv_count>1</sv_count>
      <rho>-9.8914514098117590e-001</rho>
      <alpha>
        1.</alpha>
      <index>
        0</index></_></decision_functions></my_svm>
</opencv_storage>
