<?xml version="1.0"?>
<opencv_storage>
<my_svm type_id="opencv-ml-svm">
  <svm_type>C_SVC</svm_type>
  <kernel><type>LINEAR</type></kernel>
  <C>1.</C>
  <term_criteria><epsilon>2.2204460492503131e-016</epsilon>
    <iterations>1000</iterations></term_criteria>
  <var_all>1000</var_all>
  <var_count>1000</var_count>
  <class_count>2</class_count>
  <class_labels type_id="opencv-matrix">
    <rows>1</rows>
    <cols>2</cols>
    <dt>i</dt>
    <data>
      -1 1</data></class_labels>
  <sv_total>1</sv_total>
  <support_vectors>
    <_>
      9.20183584e-003 1.14742294e-002 5.94085921e-003 -2.53956448e-002
      -4.17468362e-002 3.27239791e-003 -2.17229035e-002 4.17888723e-003
      -2.23155553e-003 -4.04643686e-003 2.57446375e-002 -7.15299184e-003
      -2.93945475e-003 -5.49624600e-002 -1.37560675e-002 9.72616207e-003
      1.61295626e-002 1.51777873e-002 2.04770118e-002 8.80690850e-003
      -5.14636002e-003 -3.90702486e-003 1.60820708e-002 -2.46255100e-002
      1.74175203e-002 -1.60191208e-002 -6.16448990e-004 1.56607758e-003
      2.67033670e-002 1.32560905e-003 1.69472788e-002 1.00508090e-002
      -1.86310038e-002 9.70097072e-003 1.38583267e-002 1.47586805e-004
      -1.40462408e-003 -1.75088141e-002 5.01366705e-003 -6.92481967e-003
      1.69974659e-002 -3.58755328e-003 2.70202779e-003 1.42477732e-002
      -4.89682643e-005 7.22544594e-003 -3.62388715e-002 -1.59752518e-002
      -2.11033653e-002 -1.50533319e-002 4.48619854e-003 -4.47267387e-003
      -2.91255228e-002 -2.08879653e-002 -3.80851552e-002
      -8.19891319e-003 2.65651830e-002 -5.59214677e-004 -2.36643082e-003
      2.03900761e-003 -1.27366660e-002 -5.14395069e-003 7.95102678e-003
      -8.50723963e-003 2.25651823e-002 -8.40048026e-003 1.82436984e-002
      1.51131805e-002 1.68944374e-002 -1.21862860e-002 -4.27663838e-003
      1.13660814e-002 1.19009176e-002 -4.97087687e-002 8.53456091e-003
      -4.65430319e-002 1.83437336e-002 1.09790806e-002 -2.05533183e-003
      1.90433636e-002 1.55836893e-002 -2.50961818e-003 1.39362933e-002
      -4.25680680e-003 -7.04349810e-003 -3.52071226e-002 9.39028803e-003
      -3.92222032e-003 3.26992348e-002 1.31693985e-002 -2.68935086e-003
      -1.16724661e-002 1.53834019e-002 1.11349635e-002 -8.97075608e-003
      4.10503754e-003 -4.72965743e-003 1.74764264e-002 1.95697192e-002
      1.38400001e-002 -2.56248396e-002 4.12292592e-002 -3.50197894e-003
      -8.80618114e-003 1.36679057e-002 2.78545953e-002 9.51851159e-003
      -2.24863943e-002 1.47439516e-003 -6.23172568e-003 1.16708660e-002
      2.55083898e-003 -2.24328246e-002 7.51973502e-003 -2.66780220e-002
      1.75375436e-002 -2.50522997e-002 -2.23544482e-002 -8.30574799e-003
      -1.00045931e-002 -6.95117842e-003 1.15057379e-002 2.43431944e-002
      -4.71730670e-003 4.59092809e-003 4.66901762e-003 5.19482419e-003
      -7.64246378e-003 -3.00062411e-002 -3.34226154e-002
      -7.58286798e-003 -1.25557287e-002 1.49398642e-002 1.81787256e-002
      3.65812220e-002 1.85689870e-002 -2.18071579e-003 4.57895361e-003
      1.06014824e-002 2.76389788e-003 1.51259666e-002 5.00474731e-003
      -6.21150993e-003 -1.34477746e-002 1.23999864e-002 9.51950438e-003
      -1.36480946e-002 4.17898223e-003 6.03214465e-003 -9.13139083e-004
      3.02550532e-002 1.55370450e-002 1.36768743e-002 1.14864316e-002
      3.19825183e-003 2.40462180e-002 -1.46357426e-002 -1.67767890e-002
      1.19995596e-002 2.58558895e-003 1.89105254e-002 2.95344424e-002
      2.11604349e-002 -1.57578476e-002 -3.49408500e-002 -2.37876195e-002
      7.64200464e-003 -2.39169449e-002 1.00403768e-003 4.92697358e-002
      1.59502830e-002 -2.12145876e-002 -1.86401943e-004 1.58072840e-002
      1.42851584e-002 -6.91590551e-003 -8.61416571e-003 -4.84120054e-003
      1.86357554e-002 -1.40016675e-002 -3.75610851e-002 2.19329689e-002
      -4.53181975e-002 5.60178049e-003 1.54114123e-002 2.40533985e-002
      1.75680500e-002 -4.02861275e-003 3.15520093e-002 1.25289056e-002
      2.15245988e-002 -2.83876900e-003 -3.89194600e-002 -8.00894294e-003
      -5.05897496e-003 6.24833745e-004 1.76729225e-002 -1.16573261e-004
      1.42385513e-002 1.27496161e-002 -6.19891584e-002 1.73443295e-002
      -2.29757372e-002 -7.59905623e-003 9.32705682e-003 1.00277625e-002
      -6.46910584e-003 -5.33290999e-003 3.09442962e-003 -3.79429422e-002
      -1.20557500e-002 9.07155406e-003 2.20077299e-003 -2.04518232e-002
      -3.39282453e-002 1.53482482e-002 -4.76480415e-003 5.25835482e-003
      1.69264041e-002 -1.16226273e-002 1.72270592e-002 -1.08940818e-003
      7.96044525e-003 1.03216758e-002 -1.47821160e-003 1.54677930e-003
      2.08510738e-002 -2.09386665e-002 -2.72006076e-002 -4.16111834e-002
      -3.78561430e-002 2.20635906e-002 -2.07720697e-002 1.26544368e-002
      -8.15463345e-003 1.04201026e-003 8.31216853e-003 1.40555361e-002
      -2.52303830e-003 1.80405602e-002 1.35460825e-004 8.67178198e-003
      1.08051556e-003 1.38554664e-003 1.39028626e-002 3.63471210e-002
      -2.86398120e-002 5.91645110e-003 2.11925991e-003 -2.17428990e-002
      1.60074551e-002 5.35558118e-003 -8.51308275e-003 1.82999186e-002
      1.73461679e-002 -8.19249544e-003 1.12029035e-002 1.14825768e-002
      -4.26128618e-002 2.42315531e-002 2.91101658e-003 -8.83640070e-003
      2.57244147e-003 1.59824938e-002 -5.19308671e-002 6.06855797e-003
      4.63928375e-003 -9.96026490e-003 1.07439272e-002 1.99649557e-002
      -1.04957270e-002 -1.95174606e-003 2.38709245e-002 3.10640293e-003
      -4.96226065e-002 3.75519544e-002 -1.05913561e-002 4.15985487e-005
      9.87548754e-003 1.09757751e-003 -7.63833942e-003 1.64808501e-002
      1.20907687e-002 9.55312327e-003 2.12688893e-002 7.99609255e-003
      2.22926587e-002 1.99032202e-002 7.82316178e-003 -9.55980644e-003
      -3.24146189e-002 -2.10695085e-003 1.22832917e-002 4.10754653e-003
      1.29681332e-002 2.56945612e-003 -8.62566847e-003 -1.61464009e-002
      1.32994344e-002 7.67177762e-003 -9.90901701e-003 -1.71724372e-002
      -1.07123461e-002 1.67547651e-002 -4.23183152e-003 -3.93062867e-002
      -2.89910045e-002 6.52551046e-003 -2.35620816e-003 -4.08324879e-003
      -2.52601616e-002 -7.76484609e-004 -1.15201194e-002 6.01629075e-003
      5.48952678e-003 1.64139830e-002 2.61730272e-002 3.33910733e-002
      -1.17243659e-002 8.88923276e-003 1.81162097e-002 -1.78185254e-002
      3.15859192e-003 -2.36702646e-004 1.09182857e-002 6.74819760e-003
      -2.22303458e-002 1.10858632e-002 2.40179859e-002 1.71859153e-002
      -2.46512517e-002 -4.88599017e-003 -6.49639266e-003
      -2.66811270e-002 -7.90220033e-003 -1.67426355e-002
      -3.88871343e-003 2.08474882e-002 -6.96506305e-003 1.13226334e-002
      1.13984542e-002 5.38323773e-003 1.83077194e-002 1.97109412e-002
      -8.60973168e-003 -5.12575917e-002 -1.18292744e-004 6.91125216e-003
      1.38503807e-002 -1.26424981e-002 1.71726886e-002 -1.60379000e-002
      -4.75712121e-003 -2.18159370e-002 9.82934516e-003 -1.35918800e-002
      2.04251576e-002 -8.73083062e-003 -3.18361446e-002 7.81294145e-003
      2.04287041e-002 1.06891021e-002 -1.73132066e-002 -3.64141003e-003
      1.28915599e-002 -8.28462560e-003 1.30306995e-002 -2.45872419e-002
      6.73499331e-003 -5.52406360e-004 -2.84795724e-002 1.24817714e-002
      -1.10874593e-003 1.07370047e-002 -6.98822876e-003 2.34454591e-002
      2.88880058e-002 -1.88027299e-003 -5.38721588e-003 1.43346656e-002
      1.63240731e-003 -1.86630152e-002 9.94227920e-003 3.22503932e-002
      -1.12289404e-002 3.44089675e-003 -1.35768475e-002 6.37042848e-003
      -7.82663841e-003 1.12452246e-002 1.47646917e-002 6.02995511e-003
      -5.53328963e-003 3.97387054e-003 8.90825503e-003 2.08645537e-002
      1.50564574e-002 1.36909718e-002 2.08388008e-002 -1.76110454e-002
      1.15526645e-002 1.27020129e-003 -2.63316528e-004 -4.79725190e-002
      9.46751889e-003 -3.54473479e-003 1.48783782e-002 2.67282082e-003
      -1.81269255e-002 1.20964786e-002 9.42996424e-003 -4.08521555e-002
      -2.11471729e-002 1.47718089e-002 2.66341232e-002 1.44332983e-002
      8.93087499e-003 1.68152023e-002 -4.06785822e-003 2.43453984e-003
      -2.89349235e-003 -2.29373518e-002 2.77648657e-003 6.62526116e-003
      5.65341953e-003 2.04368662e-002 4.37494507e-003 -1.50612658e-002
      -1.97512321e-002 -9.03883856e-003 7.04427529e-003 1.93337314e-002
      1.17639173e-002 2.33317409e-002 -1.31569905e-002 1.03983404e-002
      -4.41741571e-003 4.12097573e-003 -5.41967414e-002 -3.29197049e-002
      -7.93512538e-003 -1.22842053e-002 1.77710745e-002 1.02062672e-002
      9.21614817e-004 -3.47799361e-002 -2.60499632e-003 1.99827030e-002
      -5.97004145e-002 1.04900151e-002 -2.08212025e-002 4.16812068e-003
      -9.58739594e-003 -2.56889686e-002 4.12988709e-003 -2.20835749e-002
      -1.78929009e-002 -3.05680260e-002 2.46512685e-002 2.38806326e-002
      8.54693912e-003 2.56291460e-002 1.74136590e-002 2.84645613e-003
      -8.30027983e-002 6.51727943e-003 -9.79099795e-003 1.06527945e-002
      -1.43557405e-002 -6.81434721e-002 -1.22807184e-002 1.43005904e-002
      -1.78768113e-002 -7.17788795e-003 2.60966476e-002 -7.79984705e-003
      -1.16324415e-002 4.28162422e-003 -8.91136453e-002 1.27149755e-002
      7.78045552e-003 -3.30635719e-002 1.87804904e-002 3.13840131e-003
      9.14457906e-003 2.77472683e-003 -4.84686438e-003 1.95730366e-002
      1.13258036e-002 2.43721791e-002 -3.71278799e-003 9.77693498e-003
      4.12302418e-003 -5.94257237e-003 -3.19090150e-002 -1.53130498e-002
      -1.26009835e-002 6.79094577e-003 -4.55789082e-003 7.89245870e-003
      -1.65520683e-002 -6.79279584e-003 -1.11203603e-002 1.03580467e-002
      1.06978007e-002 5.45962621e-003 5.58747491e-003 -5.37639344e-003
      2.71456055e-002 7.21138576e-003 1.44299138e-002 -1.11143561e-002
      -7.45762186e-003 1.68731511e-002 2.41164258e-003 2.69571580e-002
      1.99205242e-002 -6.30485872e-003 2.94083562e-002 8.04442540e-003
      -1.69682782e-002 9.53489356e-003 8.61516129e-003 4.44229646e-003
      2.96684355e-002 1.12902198e-003 2.32963031e-003 -1.67442746e-002
      1.23464298e-002 -2.13598423e-002 -2.61797430e-003 -6.76807947e-003
      -2.56615989e-002 -1.62498578e-002 -3.64317074e-002 6.00272743e-003
      -5.69414347e-003 1.08796256e-002 -1.53621603e-002 -2.69873720e-002
      1.95048600e-002 -2.55842315e-004 1.47184497e-002 -3.78530994e-002
      1.75705599e-003 -5.06978109e-003 1.73251648e-002 -9.45707969e-003
      7.85015300e-002 -3.65884863e-002 -3.02860644e-002 -1.24730170e-002
      -1.44957993e-002 1.37029504e-002 -2.37598121e-002 -4.39341133e-003
      1.36665367e-002 8.00381694e-003 6.25822553e-003 2.50541624e-002
      -1.57207288e-002 1.96768884e-002 2.13951450e-002 2.08911803e-002
      4.16623103e-003 -7.50705367e-003 9.77890659e-003 3.64806061e-003
      -1.37584314e-001 6.26955600e-003 -1.17742792e-002 2.48760986e-003
      1.53412465e-002 1.97637491e-002 3.08421310e-002 1.72323221e-003
      3.51988571e-003 -1.98995438e-003 -2.83763967e-002 4.82152915e-003
      -2.84147845e-003 1.43070975e-002 6.58597564e-003 -1.71694963e-003
      1.99459493e-002 -7.52057787e-003 -3.22554968e-002 2.85041914e-003
      7.17283273e-003 -8.87140259e-003 1.48810418e-002 -1.08857686e-003
      1.05412817e-002 1.15097258e-002 -1.94006562e-002 1.06256930e-002
      3.19629256e-003 -8.08998384e-003 -1.19218603e-005 1.46743702e-002
      3.66623118e-003 3.81078869e-002 -1.63028855e-002 8.10189079e-003
      -1.90466754e-002 1.79273318e-002 1.82803161e-002 4.18266573e-004
      -6.18889043e-003 -1.45653319e-002 6.41082460e-003 -3.94967869e-002
      1.48876803e-002 -5.27084153e-003 -2.22311076e-002 1.26159554e-002
      -6.73734993e-002 1.41718565e-002 -1.99306719e-002 7.73936091e-003
      2.21746205e-003 -1.06889904e-002 6.36169827e-003 1.41747566e-002
      -6.40845904e-003 1.03485296e-002 -1.10731078e-002 7.85540417e-003
      -9.38241254e-004 1.08938823e-002 5.42189274e-003 -5.84571669e-003
      5.62668312e-003 1.22527247e-002 3.46174068e-003 -1.03226246e-003
      4.71132807e-003 4.87783691e-004 8.74729175e-003 -1.01136812e-003
      1.84119251e-002 -8.69618438e-004 -2.81526372e-002 -6.52020378e-003
      -5.24118310e-004 -1.75312205e-004 2.14363802e-002 -6.89227693e-003
      1.44920861e-002 1.55872982e-002 2.46532280e-002 3.93945025e-003
      6.62773103e-003 -7.65438937e-003 7.00111873e-003 -6.22450095e-003
      -2.87420326e-003 -2.19376124e-002 1.58010013e-002 1.02927368e-002
      2.77557913e-002 6.72477391e-003 -8.95511918e-003 5.68807730e-003
      3.24251945e-004 -2.86363363e-002 -1.43978642e-002 7.30671454e-003
      1.30382786e-002 1.96483247e-002 -2.03024317e-002 -1.18848104e-002
      -8.89864471e-003 -3.07587441e-002 8.40886612e-004 -8.16034246e-003
      1.47250621e-002 -3.41881774e-002 -9.19575337e-003 1.32343154e-002
      -4.16097045e-002 4.90148645e-003 1.94141585e-002 1.33191245e-002
      1.59524865e-002 -2.61822771e-002 1.60290003e-002 5.06161060e-003
      -9.36359912e-003 1.69559885e-002 -6.50947727e-003 1.44253755e-002
      -1.70491543e-002 6.39910693e-004 3.99593526e-004 1.39276739e-002
      7.29507441e-003 1.59228290e-003 4.84988268e-004 1.07737808e-002
      6.41179737e-003 -1.82228256e-002 -2.17019860e-002 1.19185606e-002
      -2.38022730e-002 -2.24840697e-002 1.10781947e-002 2.95893066e-002
      2.58425158e-002 -1.11116236e-002 2.16466142e-003 3.35706174e-002
      1.10773984e-002 1.22501999e-002 -7.55472900e-003 -1.39272232e-002
      -4.77552181e-003 8.82111676e-003 1.74090546e-003 9.59024020e-003
      -2.12286022e-002 2.67118569e-002 1.06874239e-002 -3.73454280e-002
      4.36791265e-003 -3.07352636e-002 -2.69382857e-002 3.31735145e-003
      -7.44271558e-003 2.28599505e-003 3.60279740e-003 -8.80922563e-003
      -2.13138312e-002 -2.22744457e-002 -1.92762651e-002 3.03192083e-002
      5.82736777e-003 1.47449542e-002 9.42953397e-003 2.97071338e-002
      1.11811757e-002 5.29773533e-003 1.28490012e-002 2.20546201e-002
      -2.22111382e-002 1.29493463e-004 -8.81861523e-003 -7.59663060e-003
      -2.15277895e-002 5.10200812e-003 1.76059175e-002 1.27257155e-002
      1.08277574e-002 -2.53021009e-002 4.26377030e-003 -1.20064877e-002
      -4.37602028e-002 2.96457056e-002 1.55826136e-002 6.86057704e-003
      2.32109316e-002 1.46977967e-002 -2.74223578e-003 -1.12296641e-002
      2.39561452e-003 -3.69412708e-003 1.81125756e-002 5.54123661e-004
      7.68582011e-003 -1.60377435e-002 2.77708992e-002 -3.15663815e-002
      -3.53537388e-002 -8.40251334e-003 -2.29778439e-002 1.39234113e-002
      2.79661338e-003 2.00181752e-002 1.26098497e-002 -1.58761758e-002
      -6.48944778e-003 1.88414156e-002 -4.32647113e-003 -1.85226034e-002
      -1.52266026e-002 7.08225369e-003 -3.49173904e-004 -7.63262855e-003
      2.65184348e-003 -2.91473395e-003 1.08728642e-002 -4.00268560e-004
      -6.44315081e-003 1.01059591e-002 -2.74816304e-002 1.38676837e-002
      -6.35861456e-002 -2.98282076e-002 1.47442548e-002 6.81351591e-003
      -1.82361659e-002 -3.17565328e-003 1.39539363e-002 3.10511142e-003
      2.40409318e-002 -9.54230595e-003 6.06797030e-003 2.55166814e-002
      6.00665808e-003 9.31268558e-003 -3.43891769e-003 1.53183909e-002
      1.50920134e-002 4.63728514e-003 6.21245010e-003 2.00879928e-002
      -8.03249981e-003 4.91746841e-003 1.17648300e-002 -9.97516233e-003
      -3.73177454e-002 6.13946328e-003 -5.25039248e-003 2.04323307e-002
      -1.62018370e-002 2.07393803e-002 7.03681260e-003 4.18320019e-003
      -8.55488144e-003 1.06345834e-002 -8.06852896e-003 1.73572283e-002
      -6.10688701e-003 1.61538254e-002 7.97949173e-003 -2.27458458e-002
      -1.85169425e-004 8.69434979e-003 1.65493712e-002 -2.02977974e-002
      -7.09927082e-002 -7.17563741e-003 -9.22659785e-003 3.28046008e-004
      8.71829689e-003 1.89327057e-002 -6.00755820e-003 -2.43378188e-002
      8.93622357e-003 2.17130897e-003 3.76995449e-004 1.34552142e-003
      6.15463313e-003 -2.21656752e-003 5.86958230e-003 1.49434982e-002
      1.51488101e-002 6.31931704e-003 -1.85783766e-002 -2.54635531e-002
      8.74527451e-003 1.22452145e-002 1.08188502e-002 -1.45500982e-002
      1.52202044e-002 -1.81873310e-002 1.00187901e-002 -6.07896736e-003
      8.35793745e-003 -5.45199821e-003 1.53218703e-002 -1.37767370e-003
      1.39809381e-002 2.39757658e-003 -2.82681733e-002 1.25303818e-003
      2.21683700e-002 7.22786004e-004 -1.37453936e-002 1.26003884e-002
      8.44858494e-003 9.59705503e-004 1.72929708e-002 -3.57746030e-003
      1.47137959e-002 1.13698281e-002 -1.62016470e-002 1.86815159e-003
      -4.27396828e-003 -9.71939974e-003 -1.12294555e-002
      -1.91614088e-002 5.04814927e-003 7.41426274e-003 -1.39132570e-002
      -1.00693442e-002 -5.23330364e-003 -3.16980458e-003 1.14215296e-002
      4.16704360e-003 -1.06405215e-002 -3.00139338e-002 2.28265673e-003
      1.24263018e-002 1.84321299e-003 6.34700060e-003 -1.94784459e-002
      1.16614047e-002 5.60717750e-003 1.40271243e-002 -3.66679728e-002
      -8.00546166e-003 4.79975599e-004 2.07672734e-003 6.74004573e-003
      1.12653496e-002 -3.57848359e-003 1.28216494e-003 -4.34179464e-003
      -8.45151767e-003 4.63046087e-003 1.16366455e-002 1.05034271e-002
      1.20525574e-002 -1.97905656e-002 1.57101080e-002 7.06348894e-003
      2.08991766e-002 1.68930218e-002 -1.59482323e-002 1.39235696e-002
      7.11169513e-003 5.02168853e-003 -4.69301548e-003 1.03395013e-002
      8.62804893e-003 2.93506496e-003 4.73282114e-003 7.13305268e-003
      -1.19111827e-003 1.65944651e-003 -2.08771182e-003 -3.24979727e-003
      -1.90315284e-002 2.35279240e-002 -3.79964919e-003 -1.49409594e-002
      1.53709184e-002 6.34254003e-003 1.40416557e-002 -7.64590362e-003
      2.78962608e-002 -1.32545754e-002 6.16756734e-003 -1.78886857e-002
      1.72507875e-002 -1.69384666e-002 8.58010631e-003 1.69318635e-004
      3.77900805e-003 9.26420745e-003 2.00632792e-002 -5.68348393e-002
      1.98654030e-002 9.07843001e-003 7.92660378e-003 -1.39933266e-002
      -2.01366143e-003 1.37129612e-002 -2.67883460e-003 -6.60368148e-003
      -3.03782020e-002 -4.59317956e-003 -1.92458257e-002
      -6.84750907e-004 1.31104589e-002 -4.72399220e-003 9.52470209e-003
      3.75035666e-002 2.76060384e-002 -2.12712102e-002 -1.91558562e-002
      6.15584012e-003 1.20944362e-002 -1.33082587e-002 8.77289195e-003
      2.32813545e-002 -1.31073967e-003 4.26736986e-003 1.34623162e-002
      1.27234692e-002 -5.66159328e-003 8.14658403e-003 1.13215642e-002
      6.96137256e-004 -3.81067186e-003 1.51868761e-002 -3.39003168e-002
      5.79698011e-003 -1.12294042e-002</_></support_vectors>
  <decision_functions>
    <_>
      <sv_count>1</sv_count>
      <rho>-9.9690265385144972e-001</rho>
      <alpha>
        1.</alpha>
      <index>
        0</index></_></decision_functions></my_svm>
</opencv_storage>
