<?xml version="1.0"?>
<opencv_storage>
<my_svm type_id="opencv-ml-svm">
  <svm_type>C_SVC</svm_type>
  <kernel><type>LINEAR</type></kernel>
  <C>1.</C>
  <term_criteria><epsilon>2.2204460492503131e-016</epsilon>
    <iterations>1000</iterations></term_criteria>
  <var_all>1000</var_all>
  <var_count>1000</var_count>
  <class_count>2</class_count>
  <class_labels type_id="opencv-matrix">
    <rows>1</rows>
    <cols>2</cols>
    <dt>i</dt>
    <data>
      -1 1</data></class_labels>
  <sv_total>1</sv_total>
  <support_vectors>
    <_>
      7.47445459e-003 -1.35399615e-002 3.40590347e-003 -3.50778326e-002
      -8.09360575e-003 5.69585189e-002 -2.86958516e-002 -1.14543848e-002
      1.52593898e-002 -4.96310145e-002 -2.25227699e-002 7.13639939e-003
      4.64744717e-002 8.20422918e-003 3.53886113e-002 1.37430402e-002
      -4.15002787e-003 -1.38853258e-002 5.01727033e-003 -1.77979283e-002
      8.62437650e-004 3.32372151e-002 3.24543566e-002 -1.17335925e-002
      2.81022284e-002 3.59040722e-002 2.09749155e-002 1.42329000e-002
      -2.98921783e-002 2.40840800e-002 -4.29948531e-002 -4.03992273e-003
      9.26732831e-003 -3.77389672e-003 5.47050312e-003 2.42087282e-002
      9.11643077e-003 -1.52998362e-002 1.42059184e-003 -4.94477116e-002
      -1.40276216e-002 1.00779450e-002 -1.48878451e-002 -1.79149304e-002
      2.19426583e-003 -1.67443138e-002 -3.91983800e-003 2.45466940e-002
      -7.28855934e-003 1.64281223e-002 5.17887296e-003 8.25728130e-005
      -1.78000722e-002 -3.46478750e-003 4.24536355e-002 1.62783843e-002
      -1.28512140e-002 2.64784284e-002 -1.08731743e-002 2.23125815e-002
      1.70937218e-002 -5.36982063e-003 2.89765242e-002 -1.16345594e-002
      1.35656008e-002 9.57475416e-003 1.84528381e-002 -1.17525924e-002
      -1.51539771e-002 -3.06455214e-002 6.32675271e-003 -3.36691132e-003
      2.86851749e-002 -3.85655314e-002 -3.90874501e-003 -1.26904026e-002
      4.56201797e-003 2.10228004e-002 -4.65153717e-002 -2.50745565e-002
      2.17184564e-003 2.48098560e-002 1.39653469e-002 2.20727529e-002
      -2.25779451e-002 -3.76041792e-003 -2.97968891e-002
      -5.05105034e-003 -6.23434922e-003 -4.58392501e-003 2.55913706e-003
      9.40329116e-003 1.05873616e-002 1.33486860e-003 3.38191492e-003
      -6.50015287e-003 3.42162959e-002 5.67278219e-003 3.01134437e-002
      2.49608476e-002 3.82792857e-003 3.64317074e-002 1.38538769e-002
      1.48703111e-002 -2.94525293e-003 3.84012759e-002 -4.30240436e-003
      -3.26252766e-002 -1.79823749e-002 2.70689968e-002 -5.29580563e-002
      -6.99282344e-003 -5.08046299e-002 1.24973180e-002 4.48917039e-002
      1.95705034e-002 1.06853656e-002 -6.19952232e-002 2.50918679e-002
      2.26330832e-002 -6.57799002e-003 -4.05431129e-002 2.02364735e-002
      1.53146144e-002 -7.98289757e-003 1.74902100e-002 -9.17964242e-003
      -4.22191918e-002 1.00125764e-002 3.72058304e-004 1.66023187e-002
      1.09878555e-002 -5.91981737e-003 2.44417563e-002 -5.26631763e-003
      -1.31164612e-002 6.80907583e-003 4.08495069e-002 -1.17992405e-002
      -1.96547102e-004 2.73752166e-003 -1.18030803e-002 1.01737678e-002
      -1.81084182e-002 1.51845487e-002 -7.91208819e-003 3.50738540e-002
      1.35792103e-002 -1.19286990e-002 5.07106073e-004 -5.64672425e-002
      9.14933451e-004 2.03756522e-002 2.24844292e-002 -3.30019998e-003
      1.21521961e-003 -2.12488361e-002 -2.77919136e-002 -2.67446414e-002
      -1.45301381e-002 4.97486442e-002 1.50006835e-003 -1.58386994e-002
      -1.88142620e-002 9.47656203e-003 1.86030325e-002 -4.80689760e-003
      -1.90113019e-002 -1.54827908e-002 1.98309366e-002 2.42345314e-002
      2.97574233e-002 1.86202731e-002 1.59653313e-002 -1.35889193e-002
      5.85055212e-003 1.14256069e-002 -8.17493536e-003 -2.78865593e-003
      -4.48119175e-003 -1.93644501e-002 1.76003966e-002 -2.66941879e-002
      4.15477306e-002 4.21309508e-002 1.92174036e-002 -4.27043810e-003
      -3.89151014e-002 -7.85161648e-003 1.90523416e-002 -1.89405214e-002
      3.81338447e-002 8.82619154e-003 1.83850955e-002 -1.67793445e-002
      1.72727071e-002 -2.20952625e-003 2.52467580e-002 -2.57961731e-002
      -1.12614064e-002 -8.22862517e-003 1.34901134e-002 -1.49407443e-002
      1.50677850e-002 9.14178230e-003 7.31913466e-003 1.64370015e-002
      -3.44463401e-002 -4.02397104e-003 -2.70843208e-002 5.68436692e-003
      -7.73565087e-004 -4.49086400e-003 -6.08842261e-003
      -3.87258292e-003 -5.28867962e-003 1.46316709e-002 -6.28593750e-003
      1.61587540e-002 1.57364327e-002 -1.76032335e-002 2.63375510e-002
      2.79155783e-002 -3.18965904e-004 1.71155687e-002 1.47439856e-002
      1.97193697e-002 1.28274253e-002 -1.07463868e-002 -3.15265357e-003
      -2.99164765e-002 4.79827402e-003 -1.97632723e-002 -2.66277101e-002
      -3.23576736e-003 -1.28500294e-002 2.76896637e-002 2.11505014e-002
      4.73514497e-002 2.28055217e-003 -7.71543235e-002 7.73098972e-003
      5.01201302e-002 -2.53603123e-002 -4.17020097e-002 -7.00184107e-002
      8.74735042e-003 -4.94617084e-003 -2.94051343e-003 1.24678658e-002
      -3.58357951e-002 4.21516746e-002 1.20337242e-002 -5.76047637e-002
      -1.46474531e-002 4.52535413e-003 1.86797660e-002 7.52481585e-003
      -6.12195767e-002 1.39156776e-002 3.37006785e-002 -4.82772365e-002
      4.53665527e-003 -5.12455450e-003 2.33414490e-002 -7.15225097e-003
      4.28875582e-003 1.21657467e-002 2.27306108e-003 9.99579299e-003
      -1.31558776e-002 2.37245802e-002 5.57509027e-002 -2.56329222e-004
      -1.03733866e-002 1.10056542e-003 4.41415571e-002 7.96801317e-003
      -6.26066653e-003 2.37881066e-003 2.26508547e-003 -4.93481988e-004
      -3.35818864e-002 -1.00593120e-002 -3.85103226e-002
      -1.32702654e-002 -2.72302143e-002 1.12607852e-002 5.69602009e-003
      -3.46742827e-003 1.28756906e-003 -5.01821190e-002 2.95986440e-002
      -2.91820504e-002 1.02427406e-002 -4.07159105e-002 -1.04346955e-002
      2.39358824e-002 2.19507329e-002 -3.41984071e-002 -2.58804252e-003
      -5.16920537e-003 3.04810237e-003 2.26864684e-002 -2.99148815e-004
      -5.76683544e-002 -3.38938390e-003 -2.13744678e-002 1.75249670e-002
      -1.12397280e-002 -6.30640462e-002 -3.08115520e-002 1.11921681e-002
      -9.88242216e-003 8.65872670e-003 -1.55034121e-002 2.31316276e-002
      -1.08835604e-002 6.12497376e-003 -2.29311716e-002 -2.27435175e-002
      -2.41454523e-002 -1.72909014e-002 1.05474377e-002 6.36912242e-004
      -1.06422976e-002 -4.31742985e-003 -9.60136019e-003 3.53936329e-002
      2.34900210e-002 5.08050919e-002 1.95705574e-002 -2.38762591e-002
      -3.49825784e-003 1.75742880e-002 -1.29299853e-002 7.88863748e-003
      2.66937409e-002 6.86370255e-003 -9.50469077e-002 3.46912257e-002
      9.30827111e-003 2.57484913e-002 2.77134217e-002 -1.85704809e-002
      -2.80944183e-002 -1.77398827e-002 3.92944813e-002 1.32772634e-002
      3.63501757e-002 5.52421436e-004 5.58426185e-003 1.38647510e-002
      1.24980602e-002 -5.91851305e-003 -2.98151355e-002 -1.69304404e-002
      2.50105802e-002 2.98911203e-002 3.69434990e-003 -1.23825511e-002
      2.55715521e-003 9.42348316e-003 3.02008949e-002 5.05892523e-002
      4.40174490e-002 8.58084764e-003 -2.06316239e-003 3.55014671e-003
      -1.38510941e-002 -6.16497593e-003 -1.59960780e-002
      -2.91947424e-002 9.60407720e-004 2.07965821e-002 7.08130712e-004
      4.49529663e-003 4.45995526e-003 -2.02108733e-002 -8.63126386e-003
      4.14704997e-003 -3.09865270e-003 -2.31730379e-002 2.51747798e-002
      -3.27714696e-003 -4.30699321e-004 -1.63463205e-002 1.44675588e-002
      7.27344863e-003 -5.40026557e-003 1.13756051e-002 -6.61528204e-003
      -1.14121679e-002 -5.28022274e-002 1.91683124e-003 4.52871732e-002
      -9.55441780e-003 3.66758257e-002 -4.21547070e-002 -1.30914627e-002
      -1.67359654e-002 2.41135503e-003 -2.24947371e-002 5.45885079e-002
      -5.29969903e-003 5.84186101e-003 -1.03089837e-002 7.25866901e-003
      2.24711541e-002 2.24081959e-004 1.81044862e-002 1.26791289e-002
      1.34409508e-002 7.65480986e-003 -7.16619790e-002 1.08514354e-002
      -1.54460920e-002 1.11436546e-002 1.48025649e-002 -2.58825980e-002
      2.99362577e-002 2.40467507e-002 1.55478781e-002 -1.96956489e-002
      -6.61752596e-002 -4.73939776e-002 1.32783614e-002 -8.37817229e-003
      -7.82036874e-003 1.96718145e-002 3.84339280e-002 2.12402456e-002
      1.73050463e-002 3.37584466e-002 -7.85005186e-003 -7.99995568e-003
      -2.88958587e-002 -8.78303603e-004 -2.15651467e-002
      -4.37274761e-003 2.84787491e-002 1.04486886e-002 6.48505986e-003
      2.25096103e-003 -2.84198336e-002 -1.01241935e-002 1.97454868e-003
      -1.11637209e-002 -1.62897836e-002 -3.33008915e-002 4.56906622e-003
      -8.30785371e-003 -3.45997065e-002 -3.08869909e-002 1.01961819e-002
      -1.15259429e-002 -5.62893376e-002 -1.34612489e-002
      -1.28352875e-003 -7.52254622e-003 1.15887644e-002 -1.67670641e-002
      -1.04847336e-002 2.85727791e-002 -5.09556308e-002 -2.51770988e-002
      1.65021177e-002 1.64934471e-002 -3.22518460e-002 1.53473746e-002
      1.63132381e-002 2.44632009e-002 2.51912754e-002 1.25663057e-002
      1.26658725e-002 1.11285097e-003 1.21615187e-003 -1.80123430e-002
      -3.19126109e-003 -3.54961550e-004 -1.36685902e-002 4.30255122e-002
      3.80348526e-002 1.82402208e-002 5.33894345e-004 -6.53313706e-003
      -9.72041860e-003 -1.40947308e-002 1.67273171e-003 8.74514412e-003
      5.13662025e-002 5.53710759e-003 2.28212699e-002 -3.49979475e-002
      -2.32876316e-002 -3.97688989e-003 2.43587978e-002 3.15696769e-003
      -1.40666054e-003 8.08061659e-003 1.20971752e-002 9.44031123e-003
      -7.43586617e-003 2.53621209e-002 3.15643102e-002 -2.41915346e-003
      -1.96897518e-002 2.32053529e-002 1.92194767e-002 2.10153908e-002
      -5.04392898e-003 -7.32124364e-003 1.99544858e-002 1.27165932e-002
      6.06638333e-003 -2.02362929e-002 -2.20153593e-002 -1.42162293e-003
      -9.83092375e-003 -1.15482584e-002 -6.64410461e-003 8.22451338e-003
      -1.13276569e-002 -2.43376810e-002 1.74967684e-002 3.63151431e-002
      -1.97864976e-002 7.87953287e-003 3.19539569e-002 2.60832515e-002
      -3.63201909e-002 2.06167903e-002 2.76106242e-002 -1.38778640e-002
      -5.18567394e-003 3.80950700e-003 -4.79085632e-002 -4.88384925e-002
      1.05730267e-002 9.93758626e-003 7.33805122e-003 -2.81805615e-003
      -2.09360737e-002 -8.09488259e-003 -5.79120927e-002 2.66424054e-003
      -1.00218225e-002 -2.10048445e-002 3.07716373e-002 -2.32436112e-003
      2.79012993e-002 -3.17559019e-002 -5.52450791e-002 6.60359859e-003
      3.76189942e-003 1.47470471e-003 8.67536385e-003 3.23986597e-002
      1.30216544e-002 -4.51403297e-003 1.01878792e-002 9.04661231e-003
      3.82906534e-002 -2.27087792e-002 -2.34401617e-002 5.04689291e-003
      1.07984887e-002 -4.78539504e-002 1.69872884e-002 1.01658395e-002
      1.85933318e-002 4.38338220e-002 1.14465961e-002 -1.85952906e-003
      9.74561926e-003 -9.12607927e-003 1.28290448e-002 3.05691604e-002
      2.55793612e-002 1.42339347e-002 -4.22049733e-003 3.61258560e-003
      1.76068814e-003 -5.89685701e-003 4.95773647e-003 2.65438035e-002
      -1.84985120e-002 2.76125968e-003 -1.47205880e-002 -3.03024538e-002
      -3.91068030e-003 6.94846781e-003 -6.63699873e-004 2.10944284e-002
      1.20015414e-002 1.92057509e-002 1.25212874e-002 2.71183662e-002
      1.82099221e-003 9.73882806e-003 -2.71492812e-004 -6.83205388e-003
      -3.77088040e-002 4.55325507e-002 -2.44348757e-002 -3.47110033e-002
      2.17282157e-002 -2.94142831e-002 1.99905913e-002 2.59129293e-002
      2.10601036e-002 -2.90660094e-002 3.05282343e-002 1.62941460e-002
      -1.69474054e-002 9.15821828e-003 -1.85531750e-002 -1.74777973e-002
      2.06103623e-002 2.24751588e-002 1.14445258e-002 9.72311571e-003
      1.03852451e-002 -1.32431695e-003 -1.86300017e-002 3.11780423e-002
      8.70123040e-003 3.71724330e-002 2.14907969e-003 -3.50553170e-002
      1.07154273e-003 -1.09235309e-002 1.38112474e-002 7.77203729e-003
      5.15353531e-002 5.13663003e-003 -1.02461001e-003 -5.59683517e-003
      -8.31811316e-003 9.69828013e-003 9.87676531e-003 6.56621018e-003
      -6.55902456e-003 2.72896793e-002 -4.65757884e-002 1.01566464e-002
      -1.08699724e-002 -7.08594546e-003 3.81804095e-003 -1.14464071e-002
      -2.37838887e-002 7.03389465e-004 2.22977102e-002 6.81220135e-003
      1.55961914e-002 2.90870853e-002 -2.61199661e-002 7.75826117e-003
      -5.87855093e-003 -6.90020202e-003 1.02001252e-002 -5.39277215e-004
      1.29658105e-002 -1.08840293e-003 4.55594249e-003 -3.87085881e-003
      -5.08259749e-003 1.61217432e-002 6.40821003e-004 8.13525543e-003
      1.33797748e-003 -4.32124697e-002 -6.72708778e-003 3.94427637e-003
      -9.40194353e-003 -3.04795634e-002 5.55848191e-003 2.00882219e-002
      4.89642695e-002 1.80544965e-002 -1.96317527e-002 -2.60581393e-002
      -1.68659631e-002 -2.96306927e-002 8.40128213e-003 -8.59325007e-002
      3.51219624e-002 3.37098837e-002 1.29923243e-002 -6.47284510e-003
      -9.06601846e-002 -2.06352789e-002 2.32173987e-002 4.10321057e-002
      -4.77264673e-002 1.74520127e-002 5.96769201e-003 9.64216609e-003
      1.38617987e-002 4.48224694e-003 1.61967035e-002 -1.26586878e-003
      -5.38512133e-002 -2.45644525e-002 4.39548194e-002 4.97110654e-003
      2.02788622e-003 -9.16206092e-003 -2.77421381e-002 9.20252036e-003
      -5.12249582e-003 -1.33769969e-002 1.22919027e-002 -3.74354608e-002
      2.46739127e-002 3.47782443e-005 2.18658447e-002 -3.21758091e-002
      1.76488832e-002 -1.77515466e-002 -4.49893102e-002 -1.82231106e-002
      4.12443466e-003 -5.55118918e-002 3.34797166e-002 -1.91198513e-002
      -1.40864402e-002 -5.67581924e-003 2.87189465e-002 -1.09956088e-002
      -1.27795404e-002 -2.75738947e-002 8.28196667e-003 1.43670356e-002
      1.63490116e-003 -1.18108112e-002 -2.10314207e-002 2.97104716e-002
      2.61006528e-003 7.14099221e-003 -9.82737821e-003 -2.99435221e-002
      -8.20029341e-003 -2.50218455e-002 1.55095328e-002 1.25535969e-002
      -3.12220212e-002 -1.82747189e-002 4.85363510e-003 3.16824839e-002
      3.14258747e-002 6.68470375e-003 -5.90271782e-003 1.79815828e-003
      3.26867998e-002 -2.73142545e-003 -2.64341179e-002 1.42812973e-003
      4.25339527e-002 -3.14855985e-002 -2.51806770e-002 -2.64712963e-002
      6.71830587e-003 -2.74083037e-002 2.45602839e-002 -2.22724141e-003
      3.00652459e-002 3.11242975e-002 -4.87625860e-002 -1.67540275e-002
      3.13435285e-003 6.65085623e-003 -1.11239702e-002 -1.48003118e-003
      -9.15206037e-004 1.50101194e-002 -3.96424197e-002 1.30148195e-002
      5.01054227e-002 2.11095437e-002 1.70077402e-002 2.49942276e-003
      1.35123041e-002 3.77030969e-002 -3.23581696e-002 6.68843649e-003
      -1.63134901e-004 3.59858461e-002 5.13806706e-003 9.70313034e-004
      1.72037445e-003 -3.45170349e-002 1.42184049e-002 1.05709638e-002
      -7.88459647e-003 -2.18032915e-002 7.76331988e-004 -4.18226607e-003
      -2.52105342e-003 -9.46077332e-003 1.26622140e-003 -2.14379076e-002
      1.59479026e-002 -1.40192881e-002 -1.76125523e-002 1.85294617e-002
      -5.01037166e-002 4.85507306e-003 -1.77461337e-002 -2.00319737e-002
      -4.91398275e-002 4.97481227e-003 2.09158417e-002 6.60109473e-003
      -1.08933942e-002 -1.60286538e-002 1.03868323e-003 3.97692733e-002
      -5.04724885e-005 -4.25779447e-002 1.08265523e-002 -1.65837607e-003
      -4.22272496e-002 -1.92870398e-003 2.45627090e-002 -1.15331041e-003
      -7.87063781e-003 -4.14956175e-002 -5.28726466e-002
      -2.38951072e-002 2.50124256e-003 1.90583803e-002 2.08088271e-002
      -5.58215193e-003 2.02570371e-002 1.03412475e-002 -9.43260547e-003
      -2.62972843e-002 -5.30472444e-003 -8.99146497e-003 1.01935789e-002
      -4.75683063e-002 2.95709483e-002 -1.06675870e-004 3.22564989e-002
      1.56654362e-002 -2.82542035e-002 -6.79514185e-003 -2.76189484e-002
      4.36854772e-002 -5.00923861e-003 8.92542303e-003 -5.16691199e-003
      -3.00998259e-002 -9.32866801e-003 1.15769415e-003 4.24080342e-002
      -2.04426236e-003 -4.56158184e-002 -2.60203518e-002
      -2.00120285e-002 -1.82307698e-002 1.60318594e-002 7.98622891e-003
      4.79556061e-003 -2.55360937e-004 1.34551097e-002 -1.41100530e-002
      -5.39164012e-003 -6.09057490e-003 1.51230684e-002 -1.91763733e-002
      -6.97329780e-003 6.22950215e-003 1.00592962e-002 1.87773705e-002
      1.31629072e-002 -7.57205626e-003 -4.95517068e-003 -2.99927406e-002
      -1.04573574e-002 -1.32793812e-002 -2.43384186e-002 1.25490185e-002
      5.74350357e-003 -1.13896020e-001 2.85406318e-003 1.98672432e-002
      -3.20000947e-003 -1.55930910e-002 -2.82725580e-002
      -2.14248672e-002 -5.01879351e-003 -5.35709551e-003 8.33071582e-003
      -6.62662927e-003 1.53715862e-002 4.82635712e-003 -1.86713110e-003
      -3.95148471e-002 6.51039695e-003 1.10512692e-002 3.72209772e-002
      -2.49582939e-002 -1.17840320e-002 2.22329926e-002 1.07524693e-002
      -1.14783440e-002 2.27921717e-002 5.54790813e-003 -5.02862688e-003
      -1.59630645e-002 2.17934027e-002 8.93443357e-003 -2.84002721e-002
      1.99981616e-003 6.75297435e-003 1.46160144e-002 1.78482849e-002
      2.55139805e-002 -8.81759357e-003 1.32244304e-002 6.70643523e-003
      1.05982169e-003 -8.50927550e-003 2.36176697e-006 1.49948206e-002
      3.38296257e-002 3.75833549e-003 -9.26685706e-003 -8.71924218e-003
      -3.30142155e-002 7.32859736e-003 1.13787418e-002 -1.40844332e-002
      5.22419885e-002 3.06841116e-002 -1.21635767e-002 2.87462249e-002
      -1.26353197e-003 -6.41322359e-002 6.17408333e-003 3.16478312e-002
      -3.22306342e-002 1.68206543e-002 -7.25915795e-003 1.73211619e-002
      1.23689100e-002 -7.49614974e-003 2.92110592e-002 2.16707941e-002
      6.25837245e-004 1.62381830e-003 1.38364052e-002 -3.34329717e-002
      -1.48507962e-002 -1.74277350e-002 -2.50721741e-002 4.31896970e-002
      8.17514583e-003 -2.22700145e-002 3.97627763e-002 2.96281185e-002
      5.45897661e-003 5.01784822e-003 1.69311445e-002 5.18996036e-004
      3.35392393e-002 2.03994419e-002 1.97544750e-002 9.85661894e-003
      1.47386901e-002 2.08324362e-002 -7.85676856e-003 3.19665037e-002
      -1.69180669e-002 -1.99481621e-002 -3.11402306e-002 1.18739009e-002
      2.02654544e-002 -2.88846921e-002 2.07302868e-002 1.69580486e-002
      1.69027690e-002 -4.75259731e-003 1.47647429e-002 -1.12480605e-002
      -2.42843609e-002 -4.27243784e-002 2.11337376e-002 -7.03292117e-002
      1.35827884e-002 -9.25810821e-003 7.63603393e-003 1.85800903e-002
      6.94413995e-003 1.54447742e-003 -2.35053468e-002 -9.61096375e-004
      9.66973323e-003</_></support_vectors>
  <decision_functions>
    <_>
      <sv_count>1</sv_count>
      <rho>-9.9738344367612020e-001</rho>
      <alpha>
        1.</alpha>
      <index>
        0</index></_></decision_functions></my_svm>
</opencv_storage>
