<?xml version="1.0"?>
<opencv_storage>
<my_svm type_id="opencv-ml-svm">
  <svm_type>C_SVC</svm_type>
  <kernel><type>LINEAR</type></kernel>
  <C>1.</C>
  <term_criteria><epsilon>2.2204460492503131e-016</epsilon>
    <iterations>1000</iterations></term_criteria>
  <var_all>1000</var_all>
  <var_count>1000</var_count>
  <class_count>2</class_count>
  <class_labels type_id="opencv-matrix">
    <rows>1</rows>
    <cols>2</cols>
    <dt>i</dt>
    <data>
      -1 1</data></class_labels>
  <sv_total>1</sv_total>
  <support_vectors>
    <_>
      -2.40796758e-003 -5.51700871e-003 9.81868524e-003 5.95186930e-003
      -1.63964164e-002 -1.31491350e-003 1.70221142e-002 3.10972184e-002
      1.45466793e-002 1.12079317e-002 -4.91301250e-003 -1.25113484e-002
      -2.98961755e-002 1.08400558e-003 -6.56555127e-003 7.52981100e-003
      4.52494295e-003 1.49805360e-002 1.19205890e-002 1.98794086e-003
      2.16530617e-002 -3.96927726e-003 -1.84204224e-002 -9.89539549e-003
      1.02736140e-002 -1.67790253e-003 -2.55226661e-002 -6.54279115e-003
      7.67203560e-003 5.09607187e-003 5.47987875e-003 -8.93800426e-003
      1.22543732e-002 7.88492989e-003 -2.11914093e-003 9.48780309e-003
      -1.56392194e-002 9.13125928e-003 9.81061254e-003 -7.10238051e-003
      9.27621685e-003 9.03407019e-003 5.26600657e-003 8.05295166e-003
      2.19034534e-002 -3.12834280e-003 1.88323259e-002 -1.02480659e-002
      9.34908632e-003 -1.92896407e-002 -9.29700397e-003 -4.48677363e-003
      -1.12499250e-003 7.64629105e-003 1.11026447e-002 -2.52321400e-002
      7.26706022e-003 -1.29633462e-002 -8.29944201e-003 -6.99583860e-003
      -1.29154734e-002 1.31510692e-002 1.37107521e-002 -3.90066789e-003
      -1.32823987e-002 2.41463073e-003 -1.02238003e-002 1.26445731e-002
      3.82217159e-003 -6.11577630e-002 -8.76677781e-003 9.65812430e-003
      -1.30137270e-002 -2.48656259e-003 5.43154543e-003 4.87354631e-003
      2.37770332e-003 4.60668933e-003 6.56930031e-003 1.64485443e-002
      3.58158839e-003 1.79676991e-003 -6.09453907e-003 -2.14731888e-004
      3.17286700e-003 4.03704029e-003 -1.39003061e-002 -4.52045258e-003
      -1.26988990e-002 -5.96845150e-003 -1.61687415e-002 5.09405881e-003
      -6.69281464e-003 1.85359307e-002 9.63493367e-004 4.39287955e-003
      2.51131020e-002 1.46102766e-002 -1.39249200e-002 -1.52888033e-003
      2.48523965e-003 8.38947948e-003 4.35741339e-003 -1.94134954e-002
      1.98253375e-002 -3.18392529e-003 -3.52544826e-003 -8.24551284e-003
      5.74576762e-003 -3.42226331e-003 3.34176421e-002 -9.11824871e-003
      -2.25147628e-003 4.10864921e-003 -1.21347643e-002 -2.85958685e-002
      -8.52632336e-003 7.74931302e-003 1.93125848e-003 -1.78635586e-002
      -1.01683114e-003 -1.05751604e-002 7.49764731e-003 9.69515182e-004
      8.71107634e-003 1.67439487e-002 1.80770122e-002 -3.17403041e-002
      9.50366072e-003 5.30079287e-003 7.05700740e-003 1.28936898e-002
      5.85015723e-003 -3.13598756e-003 1.76784478e-003 -6.25518337e-003
      -2.77547967e-002 -1.67363491e-002 -4.85783994e-006 2.12114602e-002
      7.70124374e-003 -1.08898915e-002 -1.62851997e-002 8.08181800e-003
      -2.17356477e-002 4.08941740e-003 6.08378416e-003 1.22242020e-002
      -3.03800241e-003 4.22092015e-003 4.37211106e-003 -6.61622500e-003
      -1.65569119e-003 1.07484823e-002 9.61676612e-003 -2.03395355e-003
      -1.03406161e-002 1.00394897e-002 -4.27480601e-003 -6.05193339e-003
      2.40127910e-002 2.40827352e-002 6.33126264e-003 -6.67226873e-003
      -1.53879113e-002 9.18777101e-003 2.20950916e-002 -1.31238298e-002
      -1.40784532e-002 -1.08994991e-002 1.41877104e-002 -6.67921901e-002
      1.71450879e-002 7.13090273e-003 -3.07971854e-002 -1.43624272e-003
      1.49638420e-002 -8.67726468e-003 -3.06378063e-002 -7.62798591e-003
      -5.92588028e-003 4.10648063e-003 2.22011562e-002 1.97629351e-002
      6.38447353e-004 -1.70619842e-002 7.57261785e-003 7.37773534e-003
      3.26474477e-003 2.30197087e-002 5.72163844e-003 8.09287187e-003
      -2.40393579e-002 -5.34556573e-003 -7.57854944e-003
      -1.43897412e-002 6.89032767e-003 -1.02971937e-003 3.99040058e-002
      3.96360690e-003 1.82700832e-003 -1.86750032e-002 -1.00996252e-002
      2.96718720e-002 1.06183896e-002 1.78297311e-002 -3.60813038e-003
      -6.38089236e-003 1.33242961e-002 -3.93205360e-002 -3.21803652e-002
      1.86616667e-002 -4.31768177e-003 -1.13691995e-002 1.59022547e-002
      3.66140949e-003 7.46213505e-003 2.68819649e-003 -1.47275245e-002
      6.32845052e-003 1.06501086e-002 -6.27568411e-003 -5.36580011e-003
      4.10176115e-004 1.31627871e-002 1.52702583e-002 1.34741841e-003
      -6.81416085e-003 3.21015134e-004 -2.61863787e-002 -1.65613852e-002
      -2.40099011e-003 -5.00133866e-003 1.78882163e-002 9.03676357e-003
      -1.12294611e-002 4.79567144e-003 1.17956651e-002 -1.46660162e-002
      1.19722029e-002 1.59222016e-003 -9.27565619e-003 1.44702392e-002
      4.97555127e-003 1.27318874e-002 2.17155181e-003 1.59421167e-003
      -1.62068810e-002 4.16363264e-003 2.39554401e-002 8.88249464e-003
      -2.22957674e-002 -1.59132644e-004 -2.09582550e-003
      -7.15050893e-003 -6.98211277e-003 8.58288165e-003 -1.47268048e-003
      2.35896613e-002 -5.63240703e-003 1.22090355e-002 -2.21731118e-003
      1.47640165e-002 4.78490116e-003 -2.45094392e-002 -1.13815619e-002
      -3.06932302e-003 -5.37913013e-003 3.80624435e-003 -5.90278720e-003
      -1.05814543e-002 1.86115932e-002 -4.33606794e-003 -1.94470352e-003
      2.44108215e-003 -4.86883102e-003 -6.38253288e-003 2.03009993e-002
      -3.70187126e-003 -1.83472540e-002 3.23893706e-004 7.61677511e-003
      4.17914893e-003 5.04877325e-003 -1.41396951e-002 1.28526976e-002
      -6.73805457e-003 1.94507372e-002 1.38963452e-002 1.33855240e-002
      1.37391742e-002 -1.37258973e-002 -9.78174940e-005 -1.12297963e-002
      7.65677250e-004 2.99807955e-002 -1.54212750e-002 2.41775415e-003
      1.71705545e-003 1.72786955e-002 1.29047735e-002 -1.49108395e-002
      1.63404625e-002 -9.88656562e-003 3.03026848e-003 -1.18293613e-002
      -2.68528201e-002 -8.01460724e-003 -3.87864467e-003
      -1.88859534e-002 5.24101872e-003 -1.87062323e-002 1.45608652e-002
      1.16777895e-002 -2.50954386e-002 -1.27158789e-002 3.77418124e-003
      5.18088089e-003 1.76441986e-002 -6.71390444e-003 -1.91498324e-002
      4.43727244e-003 2.04813667e-002 1.48445908e-002 1.82595849e-002
      5.51156886e-003 -1.71588939e-002 3.22548160e-003 1.96583313e-003
      1.75884529e-003 1.43338870e-002 -1.54248055e-003 1.31465858e-002
      -1.31185283e-003 7.91143812e-003 -1.47844469e-002 6.25597220e-003
      1.11533049e-002 -3.19516147e-003 -1.59616787e-002 4.18704993e-004
      3.50633496e-003 -1.62107274e-002 1.15606925e-002 3.77920852e-003
      -1.23263542e-002 -1.05770472e-002 7.28721824e-003 7.02857133e-003
      7.57573545e-003 7.01123150e-003 9.20760166e-003 -9.92819481e-003
      8.54347553e-003 -1.37273250e-002 2.26911176e-002 4.94922604e-003
      -3.04944534e-002 7.03605032e-003 2.45637447e-003 -3.96615937e-002
      9.67113581e-003 9.14065260e-003 -2.17394773e-002 -4.40319628e-003
      -3.85381468e-002 -3.71700451e-002 2.26232465e-002 5.26049919e-003
      -3.10373437e-002 -1.08250240e-002 1.23283919e-003 1.46165323e-002
      7.83545710e-003 -2.46549249e-002 4.59783478e-003 -1.20329242e-002
      -1.84592400e-002 -1.19218249e-002 1.02991716e-003 8.40211101e-003
      -1.86836012e-002 1.21090142e-002 8.62833986e-004 -2.52548214e-002
      -1.67552866e-002 -3.23177986e-002 -8.14944226e-003
      -1.26187466e-002 1.17306504e-002 7.82261044e-003 6.34608150e-004
      1.90189295e-002 1.55082224e-002 9.53259598e-003 1.38882198e-003
      -2.77743815e-003 2.44439160e-003 2.19220966e-002 -1.12297051e-002
      1.43949613e-002 -7.67926034e-003 -2.34309025e-003 1.25738606e-002
      8.09883524e-004 5.05472580e-003 7.06506055e-003 1.32068628e-002
      -1.04950611e-002 4.99236770e-003 8.54625739e-003 2.25607045e-002
      -4.76133195e-004 -6.10651113e-002 -4.96001681e-003 9.63279139e-003
      -5.46115525e-002 -1.17049674e-002 -9.85146686e-003 7.73878209e-003
      3.80274770e-003 5.18231699e-003 -1.22412201e-002 -3.38601973e-003
      1.98328942e-002 -1.07317390e-002 -6.23291731e-003 1.14365127e-002
      -4.47710343e-002 2.48860139e-002 -4.07691533e-003 1.03366924e-002
      9.64808557e-003 4.33144951e-003 -4.36336501e-003 -5.38583193e-003
      1.04390429e-002 1.91664193e-002 -2.14070380e-002 -3.18541145e-003
      1.26819564e-002 5.40518062e-003 -8.81102867e-003 2.23766174e-002
      2.08200831e-002 -2.29556598e-002 1.06898835e-002 1.74963137e-003
      -1.62086468e-002 -5.22841560e-003 1.73414294e-002 2.97635305e-003
      -3.81773412e-002 -6.50327979e-003 3.96278128e-003 -1.80968847e-002
      2.40572100e-003 -1.33340331e-002 3.30400816e-003 1.61368505e-003
      6.07959693e-003 1.83920246e-002 1.55780632e-002 -2.39705644e-003
      -2.64117983e-003 6.91376301e-003 3.96867888e-003 1.33155296e-002
      -1.25504378e-002 5.14146127e-003 -2.10912869e-004 -3.63566983e-003
      -4.67081508e-003 8.63517262e-003 1.34595716e-002 9.62218642e-003
      5.72094833e-003 -1.61269084e-002 9.59265232e-003 1.31249765e-003
      6.59219967e-003 9.39988811e-003 1.64260983e-003 9.04982816e-003
      8.02136865e-003 7.23477360e-003 -1.05726356e-002 1.71084851e-002
      -9.09515470e-003 1.67203427e-003 7.11535942e-003 8.60916823e-003
      6.20052963e-003 -3.35239768e-002 -1.50124244e-002 -1.24327866e-002
      -2.43229792e-002 -1.84192602e-002 1.22210309e-002 1.50216103e-003
      -1.13882031e-002 -3.56240310e-002 -4.89339465e-003
      -1.11039868e-002 1.52554493e-002 -7.72280153e-003 1.65237244e-002
      4.57610795e-003 -1.77995150e-003 -1.76361054e-002 4.66151256e-003
      1.15626939e-002 3.62409768e-003 -1.07809026e-002 -7.39510360e-005
      5.15471213e-003 -3.42476089e-003 -6.11609034e-003 1.05585000e-002
      2.29394268e-002 -1.46790622e-002 1.07545098e-002 1.60567891e-002
      1.28611270e-002 1.09412782e-002 -1.45134851e-002 3.12795211e-003
      1.54095003e-003 -4.84445691e-003 1.06596053e-002 -1.96638377e-003
      1.65265761e-002 -6.30933372e-003 -2.72849258e-002 -9.82003473e-003
      -1.33575676e-002 1.07034054e-002 1.24679133e-002 -1.19863302e-002
      1.47009240e-002 5.73133584e-003 -2.81575671e-003 3.28119518e-003
      -1.62199531e-002 7.26406323e-003 -4.24803235e-003 2.61439406e-003
      -3.46445628e-002 2.26012096e-002 1.97787234e-003 -1.04342289e-002
      -3.79793793e-002 6.44826842e-003 2.73983041e-003 -3.22298631e-002
      3.98323312e-003 1.05242303e-004 1.05216755e-002 -2.05495977e-003
      -7.44299917e-003 -1.52714120e-003 -5.71390288e-003 2.71447208e-002
      -1.10482676e-002 -3.19722597e-003 6.92128763e-003 3.63122188e-002
      5.53437695e-003 -8.75771977e-003 5.45005174e-003 2.29115058e-002
      9.39298421e-003 1.34283900e-002 2.35952227e-003 2.74749566e-003
      -4.35977429e-003 6.35795575e-003 6.02042302e-003 -2.54127942e-003
      1.58544246e-003 3.44502740e-002 1.74504090e-002 -1.82745885e-002
      1.30933395e-003 -2.53080148e-002 -1.73198581e-002 -1.94041000e-003
      -1.09221647e-002 -7.97740091e-003 -8.28363467e-003 1.48273148e-002
      1.78597700e-002 -2.72345524e-002 2.98919855e-003 -1.48189277e-003
      4.43096738e-003 9.67801455e-003 -3.38125648e-003 1.56466989e-003
      1.71848368e-002 -7.63174845e-004 8.34693760e-003 -1.73854232e-002
      2.86655761e-002 5.41576650e-003 1.16689578e-002 -2.21845228e-002
      2.76927631e-002 4.10496583e-003 3.64169269e-003 1.47238439e-002
      -3.64184100e-003 1.46364775e-002 3.52766179e-002 1.99927650e-002
      5.46619622e-003 6.66877953e-003 1.32389404e-002 1.21728415e-002
      1.01586021e-002 -1.75760947e-002 9.80278943e-003 -1.46183930e-002
      -4.92179126e-004 1.01030630e-003 1.39176697e-002 4.92136599e-003
      -9.81239974e-003 -1.37769140e-003 5.31315105e-003 -4.74431319e-003
      4.96877776e-003 1.64474715e-002 -2.41831713e-003 -2.15794775e-003
      1.59946829e-002 -3.31404549e-003 -8.82051978e-003 6.43427996e-003
      -1.97253134e-002 -9.26660188e-003 3.30169359e-003 1.32297473e-002
      -2.10420508e-002 -5.23028011e-003 -6.23811095e-004 5.03722206e-003
      2.16771495e-002 -9.66264959e-003 -5.01195714e-003 2.56259833e-003
      4.59987018e-003 -1.37803536e-002 -3.57011445e-002 2.12318264e-003
      5.05894329e-003 -4.62028896e-003 -1.26347449e-002 3.14243441e-003
      9.05796699e-003 5.03727747e-003 -8.83829501e-003 -3.22719896e-003
      -4.68057021e-003 1.72985457e-002 5.06917108e-003 1.45446807e-002
      2.14478001e-002 5.35858748e-003 4.21004882e-003 -1.36845484e-002
      1.44693609e-002 -1.82338487e-002 8.31467379e-003 1.06143402e-002
      -3.04851085e-002 1.20323291e-003 -1.26805101e-002 1.19949197e-002
      1.45577537e-002 -7.62662664e-003 -1.17225682e-004 7.15408055e-003
      -7.99124781e-003 1.58415865e-002 -6.72288763e-004 -1.06948093e-002
      2.60349200e-003 -5.90801006e-003 -9.17501561e-003 -3.04461201e-003
      6.92474609e-003 6.10934524e-003 1.94563419e-002 -9.21767671e-003
      -1.94118004e-002 -1.92622580e-002 5.69140259e-003 -7.67916208e-003
      1.24141974e-002 -1.04694059e-002 -2.58530467e-003 -2.02579908e-002
      -1.34690257e-004 -2.32563610e-003 -1.64923277e-002 2.36399658e-003
      1.02486154e-002 8.79960228e-003 1.64575316e-002 1.60567891e-002
      -1.33324256e-002 7.74765760e-003 -1.25168087e-002 9.69623309e-003
      -4.45350632e-003 5.79546671e-003 2.15606242e-002 -1.05997249e-002
      -1.64415557e-002 -1.59804476e-003 1.38137648e-002 -6.81088865e-003
      -3.05931130e-003 7.71478983e-003 -7.74766551e-003 1.01670669e-002
      4.06931882e-004 -1.86354239e-002 5.41983685e-003 4.64790827e-003
      -1.52224805e-002 -7.92079885e-003 -8.42889305e-003 1.49356592e-002
      -3.51172015e-002 7.58637325e-005 -2.78862156e-002 1.30863395e-002
      4.02470306e-003 4.90281824e-003 -1.57896876e-002 5.72330505e-003
      8.34686588e-003 -1.32039411e-003 7.46700773e-003 6.31763425e-004
      -2.63529774e-002 -2.21284423e-002 9.82268155e-003 6.16934244e-003
      5.48231276e-003 1.76563896e-002 -2.04551388e-002 1.00352196e-002
      1.08370823e-005 -2.08437685e-002 5.92473336e-003 -4.85651166e-004
      3.31327668e-003 1.22836186e-003 5.92979416e-003 -1.15432544e-003
      -3.77420262e-002 1.78691167e-002 1.86078309e-003 -6.44251285e-003
      1.14576519e-002 -1.09270103e-002 -1.01675931e-002 -9.14556812e-003
      -5.56912180e-003 -8.51656217e-003 1.23690302e-002 1.79167986e-002
      5.91656333e-003 1.91378046e-003 -3.81638063e-003 -2.60340776e-002
      1.25611136e-002 1.21560367e-002 3.13044302e-002 -5.00972988e-003
      2.87470892e-002 -1.07956491e-002 2.91366689e-003 -1.73489507e-002
      -1.06194022e-003 2.82545970e-003 1.92318410e-002 -9.09780618e-003
      -4.57319580e-002 6.28266996e-003 2.53625424e-003 -4.01509646e-003
      1.69660486e-002 -1.53922325e-003 3.71546694e-003 5.72586805e-003
      9.43468139e-003 -1.49780074e-002 -2.07197554e-002 1.14809303e-002
      6.11949945e-004 -1.02533307e-002 5.97975636e-003 5.03580784e-004
      -4.18047886e-003 4.31910018e-003 -1.55883553e-002 2.62004929e-003
      1.90523211e-002 -4.87815216e-003 9.60749760e-003 2.47023758e-002
      9.61700361e-003 -7.34544406e-003 9.45972372e-003 -5.93666360e-003
      -3.71456030e-003 1.24906031e-002 2.27189437e-003 -3.20926774e-003
      -1.61797670e-003 2.98419711e-003 1.05533497e-002 1.28775835e-003
      2.34415531e-002 1.31616667e-002 -2.71025281e-002 -9.20662750e-003
      7.72089581e-004 3.96892661e-003 8.20121914e-003 6.24607736e-003
      8.53536744e-003 -1.48599339e-003 1.24661075e-002 6.64601149e-003
      -1.72686428e-002 5.59886685e-003 -4.64775320e-003 -1.22562004e-002
      2.36745528e-003 4.89044329e-003 1.17806969e-002 6.16877340e-003
      -3.90311703e-003 9.94476397e-003 1.68568024e-003 1.71828847e-002
      1.62767507e-002 -9.43565555e-003 1.28552085e-003 9.87993460e-003
      -1.05935894e-002 1.82085410e-002 1.38622224e-002 -3.54752839e-002
      1.58264190e-002 -2.17948458e-003 -7.99393095e-003 -2.55126171e-002
      -6.07588561e-003 -2.24892647e-004 1.39636341e-002 1.02977753e-002
      -2.49621496e-002 1.80861040e-003 1.33036850e-002 4.98030160e-004
      -1.96035709e-002 2.85187969e-003 7.30726402e-003 -7.71418781e-005
      1.39209430e-003 1.41901383e-002 -8.24101735e-003 -6.32079132e-003
      -1.29034137e-002 9.45102703e-003 -2.20516343e-002 6.40649721e-003
      9.84294247e-003 2.65815505e-003 6.70368643e-003 1.83516461e-002
      4.04401729e-003 1.44229345e-002 -1.73249759e-003 -4.80745286e-002
      -5.97893633e-003 -1.43681802e-002 1.35634812e-002 -2.48679351e-002
      -2.17081644e-002 2.07622210e-003 2.58879587e-002 -6.53940532e-003
      -8.01819260e-004 -3.14643816e-003 -3.11591830e-002 2.97415216e-004
      -4.40413179e-003 -7.25503778e-003 -1.91339850e-002
      -3.75225134e-002 -2.35202140e-003 1.68595575e-002 1.40535841e-002
      -5.64495008e-003 -2.19258331e-002 -1.72859449e-002
      -1.85755198e-003 3.84929194e-003 -1.05761383e-002 1.85405593e-002
      9.06520616e-003 1.27935782e-002 1.01853311e-002 -2.74310762e-004
      -1.22255767e-002 -5.35943173e-003 -1.49098216e-002 3.55248852e-003
      8.24874640e-003 7.10098958e-003 2.28683930e-003 1.40629755e-002
      2.30356548e-002 -5.32998666e-002 1.44782150e-002 7.24578369e-003
      8.89934658e-004 -8.00194964e-003 1.77942067e-002 1.28787514e-002
      3.58688598e-003 4.06969944e-003 -4.48990992e-004 -7.61942472e-003
      2.02272600e-003 -1.14256497e-002 -1.74248056e-003 -8.72982573e-003
      -2.41178684e-002 9.94606176e-004 -1.97832705e-003 1.75797399e-002
      -1.71706062e-002 -9.78788012e-004 5.81021700e-003 1.84355341e-002
      -1.27204685e-002 -2.60179974e-002 7.49407709e-003 8.83648917e-003
      4.62181726e-003 1.56359386e-003 -3.44332075e-003 -1.95344277e-002
      3.29334033e-003 3.96027379e-002 5.69835585e-003 -1.36286179e-002
      -1.48684522e-002 1.92389600e-002 8.67497455e-003 1.05515383e-002
      -6.43212534e-003 6.72115339e-003 -1.78011064e-003 4.65147942e-003
      -9.55815520e-003 -4.85352334e-003 8.47431365e-003 8.53902660e-003
      1.39630074e-003 -6.81981118e-003 -8.03849846e-003 -1.49668315e-002
      7.65517680e-003 1.83879826e-002 -1.82465445e-002 3.27319652e-003
      1.86217595e-002 1.66006398e-003 4.40958102e-004 1.16645722e-002
      1.10547449e-002 1.27190920e-002 -5.61276497e-003 -1.10158781e-002
      8.10617581e-003 8.84078443e-003 9.59953573e-003 1.44603923e-002
      -1.01484004e-002 -1.12294164e-002 2.41119741e-003</_></support_vectors>
  <decision_functions>
    <_>
      <sv_count>1</sv_count>
      <rho>-9.9770947182220349e-001</rho>
      <alpha>
        1.</alpha>
      <index>
        0</index></_></decision_functions></my_svm>
</opencv_storage>
