<?xml version="1.0"?>
<opencv_storage>
<my_svm type_id="opencv-ml-svm">
  <svm_type>C_SVC</svm_type>
  <kernel><type>LINEAR</type></kernel>
  <C>1.</C>
  <term_criteria><epsilon>2.2204460492503131e-016</epsilon>
    <iterations>1000</iterations></term_criteria>
  <var_all>1000</var_all>
  <var_count>1000</var_count>
  <class_count>2</class_count>
  <class_labels type_id="opencv-matrix">
    <rows>1</rows>
    <cols>2</cols>
    <dt>i</dt>
    <data>
      -1 1</data></class_labels>
  <sv_total>1</sv_total>
  <support_vectors>
    <_>
      1.19345672e-002 3.02096480e-003 -1.94274518e-003 1.45531110e-002
      -4.17349208e-003 1.38555923e-002 -1.13185877e-002 1.53719056e-002
      6.49214583e-003 8.69619846e-003 -8.03535245e-003 1.05950329e-002
      -6.13182504e-003 8.36924650e-003 5.91675704e-003 1.91239652e-003
      2.06540176e-003 -3.65383923e-003 6.10435102e-003 6.61352929e-003
      -1.13493046e-002 -4.00916412e-002 -1.19739110e-002 5.22511778e-003
      -7.16338109e-004 -3.51011171e-004 2.87087653e-002 2.47498858e-003
      -3.06932721e-002 1.81053916e-003 5.75095322e-003 1.40279718e-002
      2.03625448e-002 6.57324865e-003 -2.39030700e-002 5.05868811e-004
      -1.00808498e-002 5.54149854e-004 2.09487732e-002 -3.06282542e-003
      -7.33668776e-003 2.80102771e-002 -4.51706396e-003 1.89263355e-002
      1.92197021e-002 5.54756774e-003 2.26798542e-002 1.11016883e-002
      -1.85521622e-003 2.63363402e-003 7.18052732e-003 6.84412196e-004
      7.82863982e-003 3.74492351e-003 1.27499076e-002 -3.09735420e-003
      2.92161177e-003 5.83461160e-003 1.58284400e-002 5.34055009e-003
      7.01885950e-003 2.85266200e-003 -2.36367229e-002 9.64063499e-003
      -2.06790511e-002 7.64614902e-003 1.16634928e-002 9.00780503e-003
      5.78060793e-003 3.43589752e-004 -1.02272192e-004 1.88555289e-002
      6.09797472e-003 -5.76555245e-002 3.79207777e-003 1.49109336e-002
      7.76096573e-003 5.86048048e-003 9.44182184e-003 -3.13722948e-003
      4.70712734e-003 4.55820421e-003 -3.63102965e-002 -1.23178959e-002
      -1.40566321e-003 -8.65355483e-004 1.56548675e-002 3.94647382e-002
      -1.01577793e-003 4.74637840e-003 5.14723128e-003 -1.24661801e-002
      6.60871156e-003 -2.57924609e-002 1.41108036e-002 1.54047981e-002
      1.29045285e-002 1.29031632e-002 3.68502177e-003 1.01128556e-002
      5.37506025e-003 -5.08223334e-003 -2.21501221e-003 1.85746141e-002
      9.62488167e-003 -2.22566561e-003 -1.17686216e-003 -6.34523225e-004
      -2.35702153e-002 -7.30919419e-003 1.26743950e-002 -1.05340593e-002
      4.78101568e-003 8.02778173e-003 1.83220543e-002 1.14282208e-004
      1.35109376e-003 -1.64365210e-002 1.03204628e-004 -2.21302379e-002
      1.96352676e-002 -3.12094274e-003 3.73345887e-004 2.31021661e-002
      -2.06521503e-003 8.34914669e-003 -1.26503194e-002 6.38934085e-003
      -2.35867919e-003 -3.17918546e-002 -2.64011323e-002 6.93104230e-003
      8.50844942e-003 -2.40862020e-004 -2.41320785e-002 -3.41771916e-002
      2.39273068e-003 -1.94420684e-002 -5.80167249e-002 -3.00944243e-002
      -2.32742671e-002 -3.94436903e-003 7.32562039e-003 1.86932217e-002
      1.22883311e-002 8.21350142e-003 -1.06239412e-002 -3.01425415e-003
      -1.06872004e-002 -1.08275209e-002 1.67062264e-002 -1.27432658e-003
      1.99567270e-003 -2.20580548e-002 2.16769166e-002 3.65367741e-003
      1.22539455e-003 2.66774744e-003 -1.55881923e-002 1.18391607e-002
      4.14753240e-003 -4.40738816e-003 -9.03752819e-003 4.76368424e-003
      -4.98109870e-003 1.04969023e-002 -3.00248107e-003 2.08805338e-003
      -1.64935309e-002 -3.14130075e-002 -1.02432270e-003
      -5.80647029e-003 9.14861262e-003 -4.10370789e-002 7.93355983e-003
      -1.24476291e-002 2.25454196e-002 -5.98405534e-003 2.47617662e-002
      -8.80700350e-003 -1.04848528e-002 5.38355857e-003 2.50080768e-002
      5.75235160e-003 -1.13526697e-003 1.02318637e-002 4.18544374e-003
      -1.11180563e-002 1.08290580e-003 -2.13002655e-004 3.47370608e-003
      8.81682150e-003 1.67826284e-002 -3.07865819e-004 -3.38261737e-003
      -5.44211082e-002 6.09098887e-003 5.34983259e-003 -2.52101873e-003
      1.83634402e-003 1.21139782e-002 2.52813306e-002 1.10344132e-002
      2.12585293e-002 -6.94326404e-003 1.01150749e-002 3.44700483e-003
      -1.81501228e-002 3.25731263e-002 -5.58342114e-002 -7.59177143e-003
      1.25620859e-002 1.50086945e-002 1.63789209e-005 -1.02576967e-002
      5.28029632e-003 2.58927350e-003 -9.66149103e-003 1.41154006e-002
      -4.55391733e-003 4.84738266e-004 -1.03376005e-002 -3.66076361e-003
      1.17709311e-002 4.69657825e-003 3.17985905e-006 2.49466319e-002
      3.11910128e-003 1.35503663e-002 7.32878502e-003 -4.44408134e-003
      1.78257152e-002 -1.28064454e-002 -5.18159606e-002 -4.54452150e-002
      -4.86371014e-003 1.69391911e-002 -9.71950125e-004 -7.21672643e-003
      1.45928599e-002 -1.59055125e-002 6.28752820e-003 1.08667761e-002
      6.00214873e-004 -1.37943858e-002 4.99704480e-003 -5.15475832e-002
      9.38095246e-003 1.53858094e-002 1.24743450e-002 -1.73722468e-002
      -1.48189431e-002 3.46740265e-003 4.56366222e-003 -1.01409750e-002
      7.52321631e-003 -3.77515634e-003 -2.84027657e-004 9.53059085e-003
      -6.14125654e-003 -5.53773716e-003 1.64779238e-002 1.67125985e-002
      4.90906707e-004 1.59082524e-002 1.62808001e-002 5.93378348e-003
      -1.73802339e-002 7.39660673e-003 -1.42331710e-002 -5.27487248e-002
      5.18822996e-003 1.14451284e-002 -1.56603213e-002 3.48206237e-002
      -1.31687077e-004 1.68904327e-002 -2.41270922e-002 3.68569070e-003
      -2.85672466e-003 1.14654126e-002 -3.40477005e-002 -4.78984555e-003
      -2.01276392e-002 1.12735434e-002 2.89915018e-002 -1.47188809e-002
      -1.43995993e-002 -8.48995242e-003 -1.72810964e-002
      -3.10166311e-002 -3.05649228e-002 4.06243978e-003 -2.91225500e-003
      -1.19388022e-003 -3.81532700e-005 1.38064539e-002 -8.98183510e-003
      3.88013874e-003 -7.18871423e-004 1.38031868e-002 -1.02154808e-002
      -1.63343269e-002 -7.29970401e-003 1.25837643e-002 -1.84462629e-002
      -1.85995866e-002 -6.69285888e-003 7.83798937e-003 -4.88283532e-003
      1.28427837e-002 -2.63405475e-003 9.07749962e-003 6.77218661e-003
      -7.83393346e-003 5.26680145e-004 -2.00739549e-003 5.40487282e-003
      -3.71901761e-003 1.09482119e-002 9.82392114e-003 -1.59114953e-002
      -2.08626091e-002 -1.17684333e-002 1.78273345e-004 9.93070658e-004
      -3.96972476e-003 8.69313488e-004 -1.71969645e-002 4.73389123e-003
      -1.60872890e-003 7.06507871e-003 2.96058063e-003 -3.51036079e-002
      1.26785515e-002 -4.98737656e-002 3.00960219e-003 1.08121382e-002
      1.84709020e-002 7.84794148e-003 1.66750364e-002 1.08896056e-002
      1.14065418e-002 -1.12298382e-002 -2.60414439e-003 -5.07259322e-003
      -3.26596759e-003 -2.36830190e-002 8.11311416e-004 -1.35760158e-002
      1.10487603e-002 5.07475529e-003 -9.63819772e-003 -8.22803192e-003
      -4.95522050e-003 -1.47669856e-002 -1.22395754e-002
      -2.56014224e-002 2.22816058e-002 -3.94029869e-003 -5.06879343e-003
      -4.38903924e-003 -9.30037815e-004 2.89486069e-002 3.68873659e-003
      1.55691495e-002 -3.19593644e-004 -2.30233911e-002 1.46995569e-002
      -1.31767355e-002 1.57255400e-002 -1.37728257e-002 2.65193084e-004
      -1.12292077e-002 1.00190183e-002 7.20922556e-003 -7.05110095e-003
      1.97970085e-002 5.90936514e-003 -6.32114755e-003 5.12071978e-003
      4.24978975e-003 1.29600847e-002 -6.00188877e-003 1.30517520e-002
      -1.94475595e-002 -8.04553181e-003 -3.20595503e-002
      -8.37020203e-003 1.96461659e-002 1.39782745e-002 7.12886127e-003
      1.21018989e-002 7.46210152e-003 4.38213069e-003 -5.80630545e-003
      -1.08678984e-002 -1.07517913e-002 2.80550420e-002 -2.33945972e-003
      -1.12289516e-002 -4.44773957e-003 1.99881215e-002 1.54597536e-002
      7.30786519e-003 4.99109412e-003 -3.48072057e-003 -1.36557466e-003
      1.97124314e-002 5.16274199e-003 -6.05264446e-003 -7.10504269e-003
      2.19111647e-002 -1.01972176e-002 -2.01134123e-002 3.34343165e-002
      -5.72141253e-005 -4.37114341e-003 -3.00566619e-003 6.64569438e-004
      -8.06791708e-003 -2.36071572e-002 -2.73339972e-002 6.94659445e-003
      1.72782177e-003 2.02075709e-002 2.65186332e-004 -4.02396021e-004
      -2.82356306e-003 -1.95686724e-002 -2.93996092e-002 6.26346096e-003
      -9.31605697e-003 4.32622293e-003 2.35745292e-002 4.88619506e-003
      3.78380418e-002 1.12192472e-002 1.68155879e-002 -3.69095802e-003
      5.74214105e-003 -1.63202584e-002 -3.35561053e-004 -1.52575104e-002
      8.69924575e-003 2.89082224e-003 -2.18538754e-003 4.47448995e-003
      2.13184264e-002 6.97549200e-003 -3.57100810e-003 2.06408128e-002
      -1.78016641e-003 -1.55531978e-002 1.04125757e-002 3.99145437e-003
      1.15317432e-002 -1.36721339e-002 -1.40571017e-002 1.27898599e-003
      2.65199895e-004 4.63438191e-005 6.61054580e-003 1.29212802e-002
      -9.22998786e-003 -1.31394612e-002 2.46337429e-003 -1.93863604e-002
      -3.94082628e-002 5.72109595e-003 -7.54385302e-003 5.71381440e-003
      5.74136432e-003 -1.05613926e-002 -3.24551947e-004 2.79956218e-002
      -4.36124392e-003 9.44519229e-003 1.24188755e-002 -3.87193151e-002
      1.15988273e-002 8.20340123e-003 2.71923817e-003 -7.38793472e-003
      -1.32286362e-002 1.38712050e-002 1.11306284e-003 5.63750044e-004
      1.36241484e-002 1.74538101e-004 -3.17950509e-002 -3.06443265e-003
      -1.87892199e-003 1.80871431e-002 1.66471247e-002 1.81945823e-002
      4.12859442e-003 4.72457334e-003 -1.12301661e-002 -1.12283910e-002
      -5.21839829e-003 2.65201408e-004 -1.75488386e-002 -2.13644262e-002
      2.93099620e-005 1.60131585e-002 1.32196797e-002 -2.15730462e-002
      -1.44066084e-002 -1.31900879e-002 4.98341350e-003 1.72006767e-002
      -1.01120246e-003 1.18486118e-002 -1.02694426e-002 9.07352474e-003
      9.92398523e-003 3.28077702e-003 -1.61659047e-002 1.30578727e-002
      -2.00518239e-002 2.32598055e-002 -7.17284949e-003 9.71128989e-004
      -3.91745940e-003 -1.12290885e-002 8.47309176e-003 -5.44218905e-002
      1.75066311e-002 -2.32844781e-002 1.91567093e-002 6.25162339e-003
      2.38393135e-002 1.17335385e-002 -1.01541495e-002 -1.33966235e-002
      -9.97477677e-003 -2.03993861e-002 -2.01886782e-004 1.18529163e-002
      3.45943756e-002 -9.37445089e-003 5.24464762e-003 -6.99058874e-003
      -1.55566528e-003 1.54520953e-002 -6.14694459e-003 -7.00413017e-003
      -3.66379437e-003 2.13166792e-002 -2.44818851e-002 -7.40479864e-003
      -1.03349136e-002 -2.44173743e-002 1.93664199e-003 -2.33788565e-002
      -6.29841303e-003 1.22954138e-002 1.51149454e-002 -3.18217650e-003
      1.22075761e-002 -1.30121433e-003 -1.11075416e-002 1.47188362e-002
      -5.23544624e-002 2.26173573e-003 2.03783228e-003 -2.22188552e-004
      1.35175115e-003 2.80419085e-002 2.77288128e-002 1.64714381e-002
      6.21522078e-003 3.82873253e-003 -1.88267848e-003 -1.04464283e-002
      -2.15625428e-002 -7.79208436e-004 1.98816136e-003 -1.99356396e-002
      -1.11842742e-002 4.50430019e-003 1.93921104e-002 1.11449482e-002
      -1.40178120e-002 1.24443518e-002 5.68054384e-003 7.32872449e-003
      9.82339121e-003 -7.32104480e-003 7.97977904e-004 1.19433133e-002
      2.23909318e-003 -2.74227504e-002 -6.02097297e-003 -2.33811866e-002
      6.01024227e-003 -1.55512849e-002 6.64920267e-003 1.01441098e-002
      6.61942130e-003 4.81911673e-004 -1.01182824e-002 1.22142918e-002
      -2.59160846e-002 3.69511731e-003 -4.20626299e-003 6.07657107e-003
      2.18615774e-002 -2.21002679e-002 -3.68927169e-004 2.33171904e-003
      -9.80458222e-003 1.20971277e-002 -8.65561236e-003 1.58288274e-002
      -2.45960541e-002 1.95950526e-003 3.66473733e-003 2.94984388e-003
      -3.27981473e-003 -5.82802948e-003 1.53717352e-002 -1.66406780e-002
      8.54332000e-003 -8.39367136e-003 -3.26322913e-002 -5.82995825e-003
      6.32204814e-003 -2.81178928e-003 -2.32447661e-003 6.87042670e-003
      -3.85750225e-003 -9.29957547e-004 -8.32230411e-003
      -1.40787596e-002 7.06827315e-003 -1.12293400e-002 3.07927169e-002
      2.43867468e-003 1.36150597e-002 9.44776461e-003 -1.05408067e-002
      -2.23351773e-002 5.33630466e-003 8.22599418e-003 8.18469562e-003
      6.16626954e-003 -1.60260424e-002 -6.87233731e-003 1.31099541e-002
      -6.34006225e-003 7.48285791e-004 9.10564046e-003 6.76450972e-003
      2.44911425e-002 -8.72503594e-003 -1.24809369e-002 -1.17473407e-002
      -1.71744525e-002 -3.86547460e-003 1.79847199e-002 -1.12291947e-002
      1.68900974e-002 -2.67892797e-002 -6.81946613e-003 -5.40793221e-003
      2.51481589e-002 -8.85608140e-004 8.18488840e-003 7.37152901e-003
      1.20128980e-002 1.66159384e-002 7.72170373e-004 -2.15012534e-003
      -1.33313145e-002 2.52403338e-002 8.54053651e-004 4.94550355e-003
      -1.09554129e-002 2.23057903e-002 1.01018772e-002 6.84032129e-005
      1.42158614e-002 -5.11783473e-002 1.39811309e-002 -1.96290705e-002
      3.89052182e-003 1.86547041e-002 2.65210634e-004 5.59347775e-003
      3.96426674e-003 -4.13592532e-003 7.97129795e-003 7.29284622e-003
      2.04546228e-002 1.86064560e-002 -1.34258745e-002 1.29384287e-002
      -2.21415367e-002 -8.84920731e-003 6.38826005e-003 -3.85651772e-004
      -3.62612456e-002 2.20693145e-002 2.38430407e-002 -1.05152186e-002
      -6.22689317e-004 1.95489568e-003 0. 6.43109763e-003
      3.70818423e-003 9.05584451e-003 1.44078024e-003 2.56818929e-003
      1.59469806e-002 -1.03076473e-002 -8.36363342e-003 8.56651086e-003
      1.11201964e-002 1.59646142e-002 -7.83291273e-003 -2.28154715e-002
      -4.02129209e-003 -7.69242586e-004 5.25510695e-004 5.27576264e-003
      6.45599654e-003 5.39768208e-003 -2.68737860e-002 -7.51409493e-003
      3.06744198e-003 -1.54926500e-003 -5.38907479e-003 5.81024354e-003
      1.22029316e-002 -7.64477998e-003 -4.18413710e-003 -1.18768041e-003
      1.27012376e-002 -3.30832484e-003 -6.81683561e-003 1.76682062e-002
      4.11638571e-003 -1.23155573e-002 -2.49402169e-002 3.53338779e-003
      -1.04471659e-002 6.64376421e-003 3.00968601e-003 8.40507346e-005
      -1.08163906e-002 -1.59423647e-003 1.31755183e-002 -9.66926012e-003
      -2.49116146e-003 1.50502576e-002 1.54276507e-003 -5.51256631e-003
      1.15787247e-002 3.79565470e-002 1.43403653e-002 -8.70112702e-003
      1.91420428e-002 2.28031781e-002 4.96473303e-003 1.29175326e-002
      -8.61634407e-003 -1.19760819e-002 1.77685972e-002 2.44494919e-002
      -8.97512212e-003 -3.83404410e-003 -6.89472677e-003
      -6.77043246e-003 -1.12064648e-002 -1.00414525e-003 1.72940246e-003
      -2.26156041e-002 -4.52773925e-003 -5.20348269e-003 3.71134700e-003
      6.77320713e-005 -8.50588642e-003 3.15694883e-002 9.41958930e-003
      8.27382412e-003 6.04221970e-003 -2.98878253e-002 -7.57704349e-003
      -4.49314341e-002 -2.16702297e-002 -8.70274752e-003
      -2.79660970e-002 -8.98647495e-003 3.68028181e-003 1.10584823e-002
      6.34099776e-003 7.61667220e-003 -1.72162242e-002 1.34107489e-002
      2.00581009e-004 9.39056650e-003 -1.65383425e-002 -3.03861108e-002
      -6.76762871e-003 4.04461613e-003 7.05024367e-003 1.40120415e-002
      2.61155306e-003 1.32942358e-002 -1.07680643e-002 2.50532990e-003
      3.81892058e-003 -1.17031569e-002 3.19798067e-002 1.21361911e-002
      6.71528745e-003 1.67516079e-002 7.48207187e-003 -6.21755328e-003
      -1.08969607e-003 -2.26135994e-003 8.90109781e-003 1.42751057e-002
      -1.85151063e-002 -3.66248824e-002 -8.13790876e-003 8.48439336e-003
      6.24817004e-003 -7.05886725e-003 4.32008086e-003 9.19209234e-003
      1.63827408e-002 -3.21588479e-003 5.85167576e-003 -1.07094469e-002
      1.88553538e-002 1.05769318e-002 -3.70792695e-004 2.36930395e-003
      -2.46881461e-003 3.60218086e-003 1.24971727e-002 1.39231551e-002
      1.62779482e-003 -3.85156157e-003 -3.53043340e-003 -4.69033644e-002
      -7.68271973e-003 -1.35239377e-003 9.26993508e-003 -6.66279905e-003
      -1.19604068e-002 4.79004113e-003 4.12320998e-003 8.84427689e-004
      4.21843445e-003 5.68450522e-003 1.62165370e-002 5.66418096e-003
      1.98635831e-002 -1.11280556e-003 2.40030442e-003 -1.12359384e-002
      9.39521473e-003 1.21634323e-002 5.44504961e-003 1.25698037e-002
      8.94746091e-003 5.47922507e-004 -3.56171047e-003 9.97123402e-003
      1.17638959e-002 7.14702904e-003 1.48473540e-002 7.33916648e-003
      -1.34376073e-002 -2.21421453e-003 -4.91055101e-003 2.61655962e-003
      1.92727183e-003 2.88117193e-002 1.07231243e-002 -2.48137824e-002
      2.79015279e-003 8.35972931e-003 -3.04763205e-003 6.60935463e-003
      1.39733795e-002 1.36413993e-002 -4.02806513e-002 2.31761578e-003
      -4.23393138e-002 -1.66106969e-002 -1.62518397e-002
      -5.04219085e-002 9.40749049e-003 1.62797514e-003 3.09948716e-003
      1.04533974e-002 -6.94211107e-003 1.26117072e-003 -1.36522008e-002
      -5.91059541e-003 -1.12291649e-002 -8.72347504e-003
      -5.16105350e-003 1.38082914e-005 1.48311229e-002 -7.48553779e-003
      4.88191284e-003 -1.90158226e-002 2.65206094e-004 -2.33344804e-003
      2.15573795e-002 7.98922498e-003 1.13346119e-004 -5.45216864e-003
      4.44319518e-003 -2.78931595e-002 1.42201770e-003 -4.91764955e-003
      -1.28051615e-003 -6.37680246e-003 6.65537082e-003 2.27970984e-002
      4.95565636e-003 1.27586573e-002 3.50989751e-003 6.22455636e-003
      1.64939743e-002 1.04717258e-002 -1.72717702e-002 2.10832283e-002
      -1.25582423e-002 1.07902763e-002 9.40321572e-003 8.97628628e-003
      -9.49509442e-003 -1.05636064e-002 1.74961127e-002 -1.14861922e-002
      1.57260764e-002 4.21435386e-003 1.20640928e-002 -7.01678544e-003
      -2.10104929e-003 -1.77977365e-002 2.09963694e-002 -4.04095714e-004
      5.07141417e-003 1.02557028e-002 -1.18896859e-002 7.95106869e-003
      -8.54094140e-003 -5.21736592e-003 -6.14233222e-003 1.87729206e-002
      -3.67841742e-004 -1.45047521e-002 1.04656294e-002 6.40909839e-003
      1.26236826e-002 8.65471084e-003 4.83223470e-003 -1.16031887e-002
      -1.92044340e-002 -7.85405189e-003 5.12147974e-003 1.88610684e-002
      1.29849128e-002 2.12791897e-002 -2.62480527e-002 3.64088197e-003
      -4.82231043e-002 -9.55582224e-003 -8.53780843e-003
      -1.67255737e-002 -5.84826199e-003 -2.02591438e-002 7.18389964e-003
      1.17305741e-002 1.24144694e-002 1.70179382e-002 6.83648512e-003
      3.86789837e-003 3.69480834e-003 9.30896308e-003 3.36048054e-003
      5.50985103e-003 6.29889837e-004 -1.56238838e-003 9.77325719e-004
      2.86765546e-002 6.38888404e-003 9.14229266e-003 9.29898955e-003
      -1.35402223e-002 -1.29306118e-003</_></support_vectors>
  <decision_functions>
    <_>
      <sv_count>1</sv_count>
      <rho>-9.9658018142666061e-001</rho>
      <alpha>
        1.</alpha>
      <index>
        0</index></_></decision_functions></my_svm>
</opencv_storage>
