<?xml version="1.0"?>
<opencv_storage>
<my_svm type_id="opencv-ml-svm">
  <svm_type>C_SVC</svm_type>
  <kernel><type>LINEAR</type></kernel>
  <C>1.</C>
  <term_criteria><epsilon>2.2204460492503131e-016</epsilon>
    <iterations>1000</iterations></term_criteria>
  <var_all>1000</var_all>
  <var_count>1000</var_count>
  <class_count>2</class_count>
  <class_labels type_id="opencv-matrix">
    <rows>1</rows>
    <cols>2</cols>
    <dt>i</dt>
    <data>
      -1 1</data></class_labels>
  <sv_total>1</sv_total>
  <support_vectors>
    <_>
      -1.14540607e-002 -2.60987822e-002 -2.04887856e-002
      -4.37535383e-002 3.87103446e-002 -3.04358527e-002 7.42530031e-003
      1.81439389e-002 1.38021726e-002 -2.33445205e-002 7.63598271e-003
      2.81456672e-003 -1.18569648e-002 -1.70861762e-002 1.37956254e-002
      9.75902006e-003 2.69929171e-002 8.97451071e-004 -2.32836790e-002
      -1.51650244e-002 -8.05035420e-003 1.32242674e-002 -1.24804778e-002
      -9.50234290e-003 -7.01072300e-003 2.50517447e-002 -1.25145391e-002
      1.03928382e-002 -3.38266161e-003 -1.02264090e-002 4.13093576e-003
      -2.70885229e-002 1.22788474e-002 7.32674403e-003 3.32612719e-004
      -2.42967177e-002 -1.00351404e-002 -2.87087690e-002 4.24840450e-002
      3.25944610e-002 -1.30294329e-002 8.13114922e-003 4.03870735e-003
      2.75798757e-002 7.88513012e-003 -1.90244932e-002 2.68821549e-002
      1.45110032e-002 -1.11739123e-002 -3.82090025e-002 1.37995894e-003
      -3.41430656e-003 -1.74190907e-003 6.03094790e-003 6.51742856e-004
      2.87176785e-003 2.10706703e-003 -1.16657987e-002 4.25544679e-002
      1.71259567e-002 9.94595420e-003 3.10087763e-002 -8.22005328e-003
      1.88986305e-002 1.03049055e-002 -8.10068473e-003 1.62877645e-002
      1.68655477e-002 9.07626748e-003 5.08548599e-003 -6.03214791e-003
      2.51693232e-003 2.34753136e-002 -7.46741518e-003 -3.13365757e-002
      5.38691739e-003 -1.10465083e-002 2.52863788e-003 3.53197404e-003
      1.61468219e-002 -2.04727780e-002 2.66580861e-002 -1.67648755e-002
      -1.51171889e-002 -3.83503176e-002 -1.29585832e-001 1.12539819e-002
      7.75818527e-003 6.06541708e-003 -9.06542502e-003 4.62452695e-003
      1.93490107e-002 1.58459004e-002 2.51650973e-003 -8.95937011e-002
      -3.05052996e-002 8.31726566e-003 -1.60498582e-002 -2.42111529e-003
      -4.07215022e-002 2.61965431e-002 5.98747004e-003 -3.20952316e-003
      1.14738401e-002 -9.49029252e-003 1.61575042e-002 -2.06634612e-003
      1.99232772e-002 -9.23931692e-003 9.64955613e-003 -2.59110741e-002
      -1.13055548e-002 1.73439328e-002 -1.31319190e-004 1.65461004e-002
      5.86105650e-003 -8.39852542e-003 3.29715898e-003 -2.26964820e-002
      -7.78851099e-003 1.91352777e-002 -7.30816927e-003 -1.50682945e-002
      -8.24399013e-003 2.27337307e-003 3.49072888e-002 -2.56524030e-002
      2.34358180e-002 9.59990453e-003 1.89970285e-002 -1.58085544e-002
      -5.17100235e-003 2.73835938e-002 -6.60061743e-003 3.02789956e-002
      5.89396507e-002 3.86801152e-003 -1.26986289e-002 8.81166290e-003
      2.83575039e-002 7.88026024e-003 4.49585589e-003 -8.22177343e-003
      6.10051583e-003 -8.39783438e-003 -1.44699579e-002 1.49799325e-002
      -1.87988710e-002 1.86556112e-002 -7.01582944e-003 1.85169578e-002
      -7.03238696e-003 -5.52052632e-002 1.89282391e-002 -6.71371119e-003
      -3.98896309e-003 -4.15706784e-002 1.78297088e-002 -3.21565545e-003
      -1.50070712e-002 8.50022677e-003 5.89016173e-003 1.09673822e-002
      4.62646456e-003 9.10932757e-003 -1.78995356e-003 1.05876019e-002
      1.09490417e-002 -8.06495268e-003 -1.59973279e-002 2.20819097e-002
      -1.66269951e-002 -1.16599090e-002 -6.20053988e-003
      -2.38920413e-002 2.06588930e-003 -1.71258617e-002 -4.49381471e-002
      7.45982537e-003 -1.86502393e-002 1.18917562e-002 1.66572742e-002
      -8.11775494e-003 -2.26934178e-004 1.32484557e-002 -2.67480034e-002
      -5.38160559e-004 3.35828736e-002 1.32627729e-002 9.51285660e-003
      7.43327010e-003 -1.46420160e-002 -4.79153311e-003 6.61244523e-003
      6.24046195e-003 5.95005183e-003 -1.93297840e-003 -1.05273100e-002
      2.60723778e-003 8.30483623e-003 4.15556459e-003 -1.21487826e-002
      1.52453955e-003 -9.35421232e-003 -2.21139332e-003 -1.71289239e-002
      -3.45460325e-003 -1.55667197e-002 1.47963595e-002 -1.99148934e-002
      -3.60983657e-003 2.23859772e-002 9.40740760e-003 -1.41030888e-003
      -2.64850948e-002 1.02486713e-002 -1.36832828e-002 1.80609040e-002
      -2.21402105e-002 -1.49283633e-002 -7.09035993e-003 5.01544261e-003
      -2.64254995e-002 7.00598862e-003 1.01193376e-002 -2.50283442e-003
      -2.46066824e-002 -6.14234433e-003 1.38668879e-003 1.65094447e-003
      3.34342686e-003 1.33930398e-002 6.17817929e-003 -7.37097464e-004
      -2.64237751e-003 -6.71904068e-003 -1.52211795e-002 4.50810418e-003
      -1.91991422e-002 -1.83688235e-002 3.01445369e-002 -1.97487921e-002
      -9.78019554e-003 -1.46805868e-002 -5.28347166e-003
      -9.51290876e-003 -3.73176970e-002 4.41126060e-003 -1.17404275e-002
      -1.78755298e-002 -1.74879599e-002 -1.98551025e-002 1.53210491e-003
      -7.31500192e-003 6.08935114e-003 8.44610669e-003 -3.00418306e-002
      6.17788127e-003 -6.30640658e-003 3.10216541e-003 1.55268330e-002
      1.54924672e-002 -9.14014317e-003 -1.88193657e-002 -7.52951298e-003
      -1.76530238e-002 -3.25942226e-002 -6.89218985e-003
      -1.52522018e-002 -3.30106611e-003 7.76347658e-003 1.44301336e-002
      1.39688328e-002 3.15632159e-003 5.21359220e-003 5.71316620e-003
      -3.81291076e-003 -3.11242370e-003 1.20224124e-002 1.61035713e-002
      -7.73246353e-003 7.84746278e-003 -8.93188734e-003 4.39295396e-002
      1.05809085e-002 -1.70198921e-003 6.84052706e-003 1.93999857e-002
      -1.87473651e-002 -2.73278891e-003 -6.80353027e-003 3.09900753e-003
      -3.90990824e-002 1.63216125e-002 -4.17132452e-002 2.59699896e-002
      -3.18554603e-002 1.19116073e-002 -2.03144290e-002 1.20843165e-002
      -1.97891537e-002 9.11189150e-003 1.52142281e-002 1.59876682e-002
      1.83940604e-002 -2.08378094e-003 -1.34562550e-003 -3.73187251e-002
      -2.26360261e-002 2.87240371e-002 1.05101466e-002 -1.43569410e-002
      5.50772483e-003 1.67883094e-002 1.68356728e-002 -7.11381901e-003
      1.42195798e-003 -1.36755556e-002 -2.10211948e-002 -2.28939634e-002
      5.67474589e-003 -2.03653313e-002 -3.20952795e-002 2.48946734e-002
      1.76226944e-002 -1.39445560e-002 2.75012888e-002 -9.35612246e-003
      1.61857791e-002 -9.40198358e-003 -2.32947823e-002 7.24450918e-003
      4.37482074e-003 1.36051923e-002 2.27428917e-002 9.58689547e-004
      -2.63404772e-002 -2.66033038e-002 9.23229661e-003 7.14730239e-003
      2.72588409e-003 -8.65085796e-003 1.62664475e-003 -3.34311798e-002
      5.37767401e-003 2.07597706e-002 -9.06982552e-003 -3.33001255e-003
      -1.41884862e-002 7.05488911e-003 1.38861863e-002 -5.10129612e-003
      2.63792276e-003 -3.99133330e-003 1.71466894e-003 1.89020950e-002
      -2.54920567e-004 6.24978403e-003 1.15968278e-002 -3.01952544e-003
      1.59184560e-002 -5.09429071e-003 -2.66175456e-002 1.05550867e-002
      1.11337686e-002 1.63930259e-003 -1.15582498e-003 4.41167038e-003
      6.17791200e-003 -1.24653336e-002 1.29209999e-002 7.14614009e-003
      -1.87127199e-002 -1.67901646e-002 1.98634602e-002 -7.93754216e-003
      -1.15183159e-003 7.68466480e-003 -1.95506867e-002 -3.69416107e-003
      6.86767558e-003 1.69494804e-002 -2.09495183e-002 6.84483675e-003
      4.06340845e-002 1.81473996e-002 2.58575799e-003 1.76508054e-002
      2.68067252e-002 1.93135496e-002 9.55061242e-003 -2.81614577e-003
      7.06340885e-003 4.79167886e-003 -5.03259785e-002 4.76064719e-003
      -3.54647567e-003 -1.23783443e-002 -2.00903602e-002
      -3.12867202e-002 6.91657281e-003 -1.26772039e-002 -1.08360406e-002
      6.17797580e-003 -1.43069262e-002 -1.63186621e-002 -1.93831313e-003
      -1.36660701e-002 -3.08880280e-003 1.76766946e-003 -2.00837199e-002
      -3.26818526e-002 8.66845809e-003 -1.05901007e-002 1.86613277e-002
      2.47804634e-003 -1.37627814e-002 -1.41938459e-002 -2.83193942e-002
      -2.41371281e-002 7.23323261e-004 1.43561913e-002 4.84021707e-003
      -5.34737343e-003 9.47909709e-003 -1.31249549e-002 2.08151303e-002
      -9.22234543e-003 3.42792342e-003 3.04664788e-003 -9.42803454e-003
      -1.57294646e-002 5.65779209e-003 5.74777974e-003 -1.94574590e-003
      -1.68766850e-003 1.61291345e-003 1.45319970e-002 9.10127477e-004
      7.96057936e-003 -3.49904853e-003 8.82955082e-003 2.35128235e-002
      3.55356396e-003 -3.81777971e-003 3.00699868e-003 -1.14377188e-002
      -1.99130401e-002 -1.19977556e-002 -4.95556882e-003 9.86571144e-003
      -1.57619100e-002 1.37816621e-002 -1.39218336e-002 7.16429949e-003
      -1.13317312e-003 1.80287529e-002 1.78670567e-002 -1.19514745e-002
      5.30101173e-002 2.50160601e-002 -2.02050694e-004 2.43962090e-003
      1.22193964e-002 1.66642275e-002 6.56823721e-003 -2.24212036e-002
      8.60959943e-003 2.91388831e-003 8.32092669e-003 2.22788434e-002
      2.69751698e-002 1.54829919e-002 2.81121433e-002 3.61874769e-003
      4.66161757e-004 1.64040998e-002 1.13545749e-002 -3.26624364e-002
      1.15804523e-002 1.36712554e-003 -4.19390947e-003 3.82058136e-002
      -4.08178978e-002 2.06228491e-004 5.05449809e-003 -7.43694743e-003
      1.25837149e-002 9.64884704e-004 9.23436042e-003 -2.99905948e-002
      1.27829117e-004 -1.29413661e-002 1.15849227e-002 -8.95313546e-003
      -1.09007051e-002 -8.66237283e-003 1.29446089e-002 1.51448359e-003
      -9.03628860e-003 3.89563330e-002 -1.10734915e-002 9.79330018e-003
      -1.98031608e-002 -1.86945368e-002 6.29541092e-003 -1.67148300e-002
      8.65458883e-003 2.45323610e-002 1.69825263e-003 -2.16504186e-003
      -8.32991675e-003 -8.93516280e-003 -1.21251997e-002
      -9.76238772e-003 6.68008253e-003 -2.77508446e-003 4.62149503e-003
      1.11511163e-002 9.95996501e-003 4.74249432e-003 -7.60228839e-003
      1.04211168e-002 -1.01078516e-002 2.26013549e-003 1.29353981e-002
      -1.54102519e-002 -1.02739744e-002 3.87424864e-002 -1.11083249e-002
      -7.97957927e-003 1.29407505e-004 2.88840896e-003 1.51600614e-002
      -1.22887120e-002 1.05479378e-002 -6.47336990e-002 -1.58329401e-003
      8.54206551e-003 9.35520139e-003 2.94652078e-002 1.91049632e-002
      2.88854400e-003 1.34717515e-002 1.99304987e-002 -2.09255163e-002
      8.19118042e-003 -1.14918295e-002 -1.04116164e-002 1.06667122e-002
      -6.94051478e-003 3.63551429e-003 -7.14704534e-003 5.55548398e-003
      9.20757651e-003 1.56254023e-002 1.73707725e-003 2.27194913e-002
      1.51116820e-003 -4.31133527e-003 -1.50742112e-002 -4.10470739e-003
      -1.72753911e-002 7.15256552e-004 2.27187909e-002 -6.89167529e-003
      1.41952708e-002 7.48242764e-003 -4.96034219e-004 -2.30088178e-002
      -3.94351035e-003 -4.83541796e-003 -1.02588739e-002 1.88097358e-002
      -2.33973991e-002 -2.31032930e-002 -2.63706874e-003
      -1.18458746e-002 -6.63354807e-003 2.00097989e-002 1.32570630e-002
      -1.37517834e-002 -1.01151690e-002 2.93905511e-002 -1.74556940e-003
      1.07872393e-002 -9.40675964e-005 -5.50434412e-003 2.62908638e-003
      2.31247060e-002 9.41316888e-004 3.17282486e-003 2.38898373e-003
      8.81345663e-003 3.61742415e-002 -1.80863608e-002 4.69644275e-003
      -1.67716201e-002 5.11598215e-003 -1.00034308e-002 -3.74686439e-003
      2.29500290e-002 -4.43774462e-003 4.35021846e-003 6.40311791e-003
      1.27828843e-003 1.76441425e-003 -1.03924386e-002 2.24464834e-002
      -4.20061918e-003 1.56200733e-002 2.13599531e-003 -8.43062624e-003
      -3.67630161e-002 -3.10190604e-003 5.08581940e-003 1.51757465e-003
      7.68404501e-003 4.71312553e-003 -4.72301705e-004 1.93962511e-002
      1.12763345e-002 -8.37446842e-003 8.22142698e-003 6.70437096e-003
      -1.06510492e-002 2.53300858e-003 -3.10798027e-002 2.08048783e-002
      -2.69665588e-002 -5.42049587e-004 -6.44738879e-003
      -9.63884871e-003 1.30070103e-002 6.45109313e-003 1.64748318e-002
      9.72784497e-003 5.29311039e-003 -3.14032026e-002 5.70705757e-002
      -1.85339171e-002 1.87907871e-002 4.65105940e-003 -6.86377566e-003
      -7.14513287e-003 6.18112413e-003 1.05962371e-002 -5.21472655e-003
      -6.94042537e-003 -1.55170299e-002 5.58651844e-003 -1.98245561e-003
      -8.04527022e-004 4.35173372e-003 3.12458202e-002 3.11925239e-003
      5.17537119e-003 -6.94083283e-003 2.76154093e-002 1.00256233e-002
      -2.28653625e-002 -8.02056340e-004 6.17800653e-003 -6.88438164e-003
      6.17850386e-003 -9.71626397e-003 -3.51934298e-003 1.56396802e-003
      1.47347841e-002 1.73667306e-003 1.70904994e-002 -1.43363327e-002
      1.55004254e-002 2.31063319e-003 1.55366985e-002 1.86579246e-002
      1.09016700e-002 -1.22120334e-002 4.09538392e-003 -5.04920166e-003
      1.18008265e-002 1.16240897e-003 -6.77864766e-003 6.01308187e-003
      2.20130384e-002 6.46359054e-003 8.18967260e-003 -4.16842662e-003
      -1.24468273e-002 -2.21826453e-002 3.04663368e-003 1.98876094e-002
      1.91496331e-002 -1.85887073e-003 6.91324659e-003 4.76973131e-003
      8.60400777e-003 6.60143560e-003 -6.95199519e-003 -7.80073367e-003
      -3.80895421e-004 1.17629534e-003 1.90517046e-002 -1.40835913e-002
      -1.80355776e-002 -1.77336944e-004 -4.63249115e-003 6.75322767e-003
      1.92647297e-002 -1.31076050e-003 2.03645285e-002 -1.54342642e-002
      5.97338704e-003 9.37866606e-003 2.31609121e-003 -8.32896680e-003
      1.52987503e-002 -2.33161449e-002 1.25302561e-003 1.26216048e-002
      -2.66429107e-003 1.79464314e-002 -7.19008734e-003 1.37329660e-002
      -8.32768157e-003 -1.85537096e-002 7.55543122e-003 8.88933055e-003
      -4.06904472e-003 -4.46458720e-003 4.73096874e-003 -4.25257161e-003
      5.58631774e-003 8.60272720e-003 -3.72421579e-003 -6.36061328e-003
      -1.44186607e-002 -7.61517510e-003 -2.70022516e-004 1.33987353e-003
      5.88554656e-003 -6.89227786e-003 -7.05164997e-003 -1.36531831e-004
      1.94764114e-003 1.24003878e-002 -4.87046875e-003 -1.36781139e-002
      7.14889402e-003 1.51003152e-002 -1.62153617e-002 1.30922836e-003
      -4.00941726e-003 -9.71819833e-003 -1.25429593e-002
      -3.70359421e-003 -8.32773000e-003 3.44861834e-003 5.77611290e-003
      -1.35600949e-002 8.68927501e-003 -2.45485511e-002 -5.09668747e-003
      1.37600750e-002 -4.03531361e-003 1.21146231e-003 9.70353745e-003
      6.69285143e-003 -5.58322435e-003 2.64167190e-002 -1.08141708e-003
      5.78437513e-003 6.45868201e-003 8.35451204e-003 2.74246708e-002
      -8.55705643e-004 -8.25958978e-003 4.24341075e-002 -4.03724611e-003
      -4.43448452e-003 -2.04093903e-002 1.38795376e-003 -8.36384890e-004
      -2.44770572e-002 2.03485508e-002 -1.59918610e-002 1.35631654e-002
      2.15826966e-002 1.29055707e-002 3.22829816e-004 6.17722422e-003
      -1.70332454e-002 1.57256499e-002 -1.17553947e-002 2.09677964e-002
      8.35919753e-003 8.31673015e-003 -2.01262403e-002 9.22416057e-003
      -4.80772927e-003 -1.37967002e-002 -1.41636282e-002 1.37652693e-004
      -6.89263921e-003 -9.41719580e-003 5.11969766e-003 1.97978001e-002
      1.43434601e-002 1.61875971e-002 3.92024592e-003 1.09750382e-003
      -1.14117563e-002 -8.32789671e-003 1.80835053e-002 -4.13915934e-003
      6.17769361e-003 -3.07741798e-002 9.87675879e-003 7.65196607e-003
      -3.15391794e-002 -2.43922841e-004 -8.68280046e-003 2.44234819e-002
      1.22079216e-002 1.82260282e-003 -3.65881925e-003 2.35112477e-003
      -1.10734552e-002 1.02107748e-002 5.74631942e-003 1.33522684e-002
      -1.87496829e-004 5.83111495e-003 -5.54522034e-004 -1.05473576e-002
      -1.67799264e-003 -1.66535680e-003 -7.05294311e-003 8.60178191e-003
      5.36280451e-003 3.37123242e-003 -5.09924768e-003 -1.91745646e-002
      5.84992114e-003 1.49423685e-002 -7.67099671e-003 -1.28014144e-002
      7.77117023e-003 -2.17314041e-003 -1.81929450e-002 -5.72630716e-003
      -9.54819843e-003 5.90508617e-003 8.74649361e-003 1.36316288e-002
      -1.30075989e-002 -5.30234864e-003 -2.03587450e-002
      -1.92530882e-002 -1.74726211e-002 -9.51877050e-003 9.14786011e-003
      -1.04986336e-002 8.09485838e-003 9.95567907e-003 1.01164542e-002
      -2.62665655e-003 5.28640859e-003 -8.25924054e-003 4.41882433e-003
      2.56644823e-002 -1.32366503e-002 0. -1.27824806e-002
      -8.32791347e-003 -4.65462804e-002 -9.99552757e-003
      -6.17009820e-003 1.39613971e-002 -1.67143140e-002 1.76457921e-003
      1.31292623e-002 5.08607598e-003 -7.82579277e-003 9.66099650e-003
      0. 1.25311632e-002 2.13616248e-002 -3.24347243e-002
      -2.10425258e-003 1.42244957e-002 -4.44222149e-003 -1.42007256e-002
      -4.04808111e-003 1.05608338e-002 -2.99751613e-004 -6.66254433e-003
      1.79993082e-002 5.50868316e-003 -2.57296842e-002 2.72789318e-002
      8.19189660e-003 -1.57008262e-003 3.04703251e-003 1.67514682e-002
      -1.20418333e-002 -3.89744826e-002 4.00566356e-003 1.09875975e-002
      -3.51837538e-002 1.95792355e-002 1.72511358e-002 -6.89207437e-003
      -6.15523662e-003 8.31717346e-003 -9.39503219e-003 2.62001101e-002
      -1.63045861e-002 2.23178323e-002 3.86894192e-003 6.17831200e-003
      6.40222663e-003 8.36320687e-003 -1.43419793e-002 1.54257156e-002
      -2.56233546e-003 1.72116887e-002 2.33595073e-002 -1.61031529e-003
      6.60068216e-003 -1.16060441e-002 -3.70571809e-003 8.99914186e-003
      3.13493679e-003 0. 1.88569631e-002 1.70999672e-003
      -2.87331231e-002 -9.51725151e-003 -1.92164984e-002
      -1.80795714e-002 -2.71370821e-003 -2.95580225e-003 1.14880400e-004
      1.02521172e-002 -8.94757546e-003 -4.51359869e-004 1.01029212e-002
      2.18625721e-002 9.05776862e-003 -1.10036042e-002 -2.92140699e-004
      -1.14872828e-002 1.03734368e-002 9.48648341e-003 1.04239378e-002
      1.34341849e-003 6.95846183e-003 -8.55601020e-003 1.18899969e-002
      1.96033791e-002 4.34458535e-003 -2.45955400e-003 -1.20899379e-002
      -5.75340493e-003 -5.78340748e-003 1.87472114e-003 5.59831550e-003
      -2.46522874e-002 1.79635789e-002 7.22401822e-003 -2.17557270e-002
      6.71561016e-003 1.96062475e-002 -1.53855688e-003 4.33832500e-003
      -2.39008269e-003 2.11817101e-002 8.54180660e-003 -1.53229078e-002
      -1.76272243e-002 1.17103690e-002 1.18505433e-002 -6.93985447e-003
      3.04272893e-004 8.03763233e-003 4.29909118e-003 1.38370581e-002
      2.35087262e-003 1.03133190e-002 7.79397413e-003 1.77917525e-003
      1.54242832e-002 -5.59087098e-003 -2.48816032e-002 1.01891644e-002
      -2.59200949e-002 6.06028130e-003 -2.68284567e-002 -1.41594270e-002</_></support_vectors>
  <decision_functions>
    <_>
      <sv_count>1</sv_count>
      <rho>-9.9402115276350844e-001</rho>
      <alpha>
        1.</alpha>
      <index>
        0</index></_></decision_functions></my_svm>
</opencv_storage>
