<?xml version="1.0"?>
<opencv_storage>
<my_svm type_id="opencv-ml-svm">
  <svm_type>C_SVC</svm_type>
  <kernel><type>LINEAR</type></kernel>
  <C>1.</C>
  <term_criteria><epsilon>2.2204460492503131e-016</epsilon>
    <iterations>1000</iterations></term_criteria>
  <var_all>1000</var_all>
  <var_count>1000</var_count>
  <class_count>2</class_count>
  <class_labels type_id="opencv-matrix">
    <rows>1</rows>
    <cols>2</cols>
    <dt>i</dt>
    <data>
      -1 1</data></class_labels>
  <sv_total>1</sv_total>
  <support_vectors>
    <_>
      4.17008344e-003 -2.81804055e-003 1.85267478e-002 1.71399526e-002
      7.00803427e-003 -2.06448436e-002 1.67899635e-002 5.82157820e-003
      -6.97210431e-003 1.27671137e-002 7.35214585e-003 1.36603191e-002
      -5.36836358e-003 -1.38275549e-002 5.82023105e-003 3.28249764e-003
      -2.03820621e-003 1.89641060e-003 2.10212693e-002 4.40772390e-003
      -2.38318201e-002 -2.76003778e-003 -6.10812660e-003 3.54620395e-004
      -1.33325614e-003 -2.05356032e-002 -6.36310875e-003 5.22454688e-003
      1.69771221e-002 -1.66530497e-002 -4.72928025e-002 2.18822081e-002
      1.40724089e-002 1.93951391e-002 4.63947887e-003 -1.36933587e-002
      -4.43714932e-002 1.12362513e-002 1.51220858e-002 -6.36717491e-003
      -6.10255124e-003 1.10765956e-002 1.17398915e-003 -9.34162587e-002
      -1.47830211e-002 3.69143020e-003 -6.48176577e-003 -5.17584675e-004
      -6.25043735e-003 -3.96205708e-002 3.69602768e-003 6.26243185e-003
      1.80535333e-003 2.39242297e-002 -5.61164413e-003 9.46234073e-003
      -1.80097837e-002 -1.14523647e-002 1.66505519e-002 -5.87087823e-003
      1.68884341e-002 7.02954456e-003 9.71613554e-005 1.50958751e-003
      8.85223038e-003 -3.45859602e-002 -3.80567764e-003 2.53470440e-004
      8.45355168e-003 -6.18366385e-003 9.68940277e-003 1.14768604e-002
      1.99261159e-002 -7.05616258e-004 -3.57579929e-003 3.99752054e-003
      -1.67671554e-002 -1.36941249e-004 1.19954888e-002 1.60254892e-002
      2.03443691e-002 3.90841998e-003 4.89627803e-003 -1.91159621e-002
      -3.08305472e-002 1.35184107e-002 -5.62917255e-003 1.07182506e-002
      7.84781855e-003 -4.89008948e-002 -3.30289975e-002 -8.22444167e-003
      -9.13238060e-003 1.34086516e-002 2.26664674e-002 9.83543787e-003
      1.17822010e-002 -3.33770439e-002 2.11781170e-002 5.77644743e-002
      3.98772210e-003 -2.61443574e-003 5.28587820e-003 8.32046196e-003
      3.52696213e-003 -2.41670441e-002 9.56171774e-004 -6.07280014e-003
      -5.35738282e-003 1.37094979e-003 2.50855163e-002 9.21307597e-003
      4.43478755e-004 -1.44521957e-002 -1.21926926e-002 2.34069470e-002
      1.00224772e-002 -2.23077964e-002 1.11883031e-002 -3.19081247e-002
      1.30333342e-002 1.50331957e-002 1.34698348e-002 9.10325814e-003
      7.85513874e-003 -2.41587940e-003 -1.03620943e-002 -5.41629503e-003
      -4.18674853e-003 -2.35324875e-002 1.89906880e-002 -4.96383607e-002
      3.82490503e-003 -4.30416018e-002 -5.95561136e-003 9.10003763e-003
      -1.27812643e-002 -1.32258581e-002 1.58831256e-003 1.76581892e-003
      8.34689196e-003 1.51479226e-002 7.22797727e-003 4.74712905e-003
      -6.64887484e-003 5.34624839e-003 1.06862281e-002 -1.02612469e-002
      -2.40058452e-002 2.98094172e-002 1.89526416e-002 9.62521881e-003
      4.74778749e-003 -1.12442803e-002 -6.41803211e-003 9.63031221e-003
      4.75703413e-003 -1.46039214e-003 -3.39208990e-002 2.00661886e-002
      1.64333526e-002 3.52717657e-003 -1.52901830e-002 -1.38454186e-002
      -4.53875512e-002 1.01741645e-002 1.82273034e-002 -9.55331489e-004
      -1.21700652e-002 -2.54147183e-002 -3.48055996e-002
      -1.64079992e-003 -1.62993055e-002 -1.55646363e-002 1.80188683e-003
      2.30845576e-003 1.15139652e-002 4.46131080e-003 -2.13003717e-003
      -1.88092943e-002 -2.46598534e-002 -1.91068724e-002 1.34857725e-002
      -2.96228863e-002 -2.37457436e-002 -2.35585123e-003 4.63950261e-002
      -1.15852235e-002 1.99208944e-003 3.07317311e-003 3.01548257e-003
      1.59306859e-003 6.97807595e-003 1.95286958e-003 1.35159781e-002
      2.80459598e-002 3.25049856e-003 1.65104063e-003 3.38230608e-003
      -6.07028194e-002 -4.98353615e-002 1.69155635e-002 1.67660024e-002
      -1.25277340e-002 7.01359846e-003 2.27617826e-002 2.61797030e-002
      -4.66846116e-003 -3.47107486e-003 1.20192552e-002 -1.16006760e-002
      3.83528601e-003 5.45056956e-003 1.19661437e-002 -1.31305680e-002
      1.09530911e-002 2.96481233e-002 -2.82186572e-003 6.15309831e-003
      -2.28490457e-002 -1.44102378e-003 -1.48615707e-002 8.10399186e-003
      -3.35368259e-006 4.89493879e-003 -9.10108350e-003 9.69824567e-003
      -4.34729038e-003 -9.15857870e-003 1.09444233e-002 -4.42409795e-003
      6.31010532e-003 8.73332610e-004 2.07366478e-002 -2.64303735e-003
      8.06215405e-003 -2.38273223e-003 2.46999599e-003 5.95720392e-003
      1.60895032e-003 4.94403439e-003 2.53479015e-002 2.78442889e-003
      -8.23249761e-003 1.56550519e-002 -3.61703779e-003 -1.89677812e-002
      -2.54597627e-002 6.84543606e-003 1.72805041e-002 -1.91680975e-002
      3.53396498e-003 -9.34038311e-003 -1.03548979e-002 7.34554697e-003
      -4.10770212e-004 2.23459434e-002 -2.40179207e-002 -2.59218388e-003
      -1.42297696e-003 -1.08183520e-002 9.23175272e-003 -1.04171112e-002
      -6.77107554e-003 5.20061189e-003 -5.92346129e-004 2.75370432e-003
      1.19526358e-002 9.18136258e-003 -7.92661682e-003 -7.19112111e-004
      -5.46666188e-003 3.22268764e-003 2.52220817e-002 2.50302516e-002
      -1.45016722e-002 1.27482712e-002 2.92215459e-002 -1.24062458e-002
      5.16705913e-003 1.44156851e-002 -1.75957917e-003 1.09162182e-004
      -5.05278632e-003 -2.03128383e-002 -1.19258584e-002 4.70661651e-003
      1.92693807e-003 5.00281632e-004 -3.20577249e-003 1.89731997e-002
      -1.92091037e-002 -2.56856326e-002 6.93407422e-003 -6.36983803e-003
      -9.18549392e-003 -1.96158737e-002 -1.67775527e-002
      -2.01582294e-002 1.11405412e-003 -1.29161496e-003 -1.28772594e-002
      5.85040729e-003 6.24844059e-003 5.81102166e-003 -4.97063175e-002
      -1.12371286e-002 1.95537601e-002 1.26082106e-002 1.21527826e-002
      1.64597407e-002 -1.93068683e-002 1.07711433e-002 5.14928438e-003
      7.35590747e-003 2.81086378e-002 1.86988804e-002 2.74068508e-002
      2.78781243e-002 -1.23604491e-001 1.62749235e-002 5.44473575e-003
      1.72743127e-002 -1.54985683e-002 2.51859496e-003 1.45557998e-002
      -1.39905617e-003 1.68670639e-002 -1.02336742e-002 5.12275798e-003
      -7.98631925e-003 2.91078398e-003 7.33122043e-003 1.32252220e-002
      7.60803279e-003 1.42162871e-002 -2.34117359e-003 2.14748662e-002
      1.11730676e-002 6.82305777e-003 1.40626635e-002 8.08968689e-005
      1.24674933e-002 5.33145037e-004 -2.95126475e-002 1.05627598e-002
      -3.26494910e-002 7.35694589e-003 1.69820935e-002 -5.39799184e-002
      2.12909165e-003 -6.33400977e-002 -2.35870728e-004 6.08159136e-003
      2.94672530e-002 -3.43638398e-002 -2.31417455e-002 -3.40835797e-003
      -1.83683988e-002 3.32257571e-003 -1.14945350e-002 1.95302051e-002
      -9.35121533e-003 6.42910087e-003 -3.17525631e-003 -1.97612066e-002
      2.34361901e-003 -1.88923930e-003 -8.03947076e-003 1.03385150e-002
      -1.42645389e-002 2.88091949e-003 3.27068218e-003 3.03354971e-002
      -7.32252514e-003 -6.12535235e-003 1.47817777e-002 -1.33893630e-002
      -4.67910839e-004 8.77955556e-003 -6.42659934e-003 1.52078737e-002
      7.28060631e-003 6.85233157e-003 1.13451490e-002 -3.47969271e-002
      7.04124849e-003 6.31879037e-003 8.84459540e-003 -1.29889920e-002
      -2.61410084e-002 1.79827418e-002 5.33658033e-003 -2.15296680e-003
      -4.55538519e-002 -2.63932273e-002 -7.99670536e-003
      -1.91518497e-002 2.02695075e-002 -5.16540487e-004 5.63153299e-003
      1.18651362e-002 -8.34941491e-003 2.07591336e-003 2.85528181e-003
      5.85008087e-003 -6.76556898e-004 9.61450487e-003 -3.95560041e-002
      -1.22382008e-002 1.85262188e-002 1.91141348e-002 1.18656941e-002
      2.36514094e-003 2.87075783e-003 1.59154274e-002 -7.81423226e-003
      -3.02393921e-002 -6.09048866e-002 -3.90395825e-003 9.89810750e-003
      2.50932891e-002 -1.13268383e-002 7.23027065e-003 2.41333228e-002
      -5.30773075e-003 -1.33529361e-002 4.15531453e-003 1.75853204e-002
      1.07251966e-004 1.75738484e-002 -4.10767905e-002 -3.12968940e-002
      7.65539007e-003 1.26445349e-002 -9.77639481e-003 1.64111890e-002
      1.76886823e-002 -2.68041692e-003 -6.07558014e-003 5.75002050e-003
      8.09735898e-003 1.17396042e-002 1.12153720e-002 -1.94879510e-002
      -5.54516166e-003 -4.06383770e-003 1.71173587e-002 3.77999782e-003
      9.05368757e-003 1.84690952e-002 -2.14897972e-002 -1.88594032e-002
      -3.53219248e-002 8.95911362e-004 1.64256543e-002 -2.06366484e-003
      -2.66355760e-002 3.03354696e-003 2.11274475e-002 9.56304651e-003
      5.04186377e-003 -1.99931604e-003 -3.15487804e-003 7.55975069e-003
      -2.14737896e-002 -4.28275345e-003 -7.31994770e-003
      -6.72531314e-003 4.59779007e-003 3.17773013e-003 1.98499877e-002
      -3.60955205e-003 -5.86736575e-003 4.93820664e-003 -1.57581437e-002
      -3.21141531e-004 1.87753197e-002 1.10818325e-002 5.63923456e-003
      6.31778594e-003 6.60504075e-003 -1.10589317e-003 1.10524921e-002
      9.60264704e-004 -3.71599905e-002 -1.49525870e-002 6.55379659e-003
      -1.40850740e-002 -5.05260844e-003 9.45049524e-003 -5.47685055e-003
      4.31118999e-003 -2.81425333e-003 5.00836410e-003 1.03412885e-002
      1.21123083e-002 1.22668557e-002 1.73188355e-002 -3.29409316e-002
      1.59953106e-002 -6.99377037e-004 7.78767699e-003 5.97315235e-003
      3.45488777e-003 4.11266286e-004 1.28464848e-002 -3.12638236e-003
      -1.68964434e-002 1.65995897e-003 1.52923614e-002 1.02292765e-002
      -4.63448232e-003 -1.04397712e-002 -1.60688274e-002
      -3.89418076e-003 -1.52967079e-002 1.93450190e-002 -2.99260821e-002
      1.61848757e-002 -8.75580963e-003 2.70286612e-002 1.07510528e-002
      -2.06384603e-002 7.70242140e-003 -1.88340968e-003 2.21012849e-002
      -1.27826706e-002 4.89927595e-003 1.71466954e-002 5.84235927e-003
      -6.10146299e-002 1.81204099e-002 -2.54921877e-004 -1.32611906e-002
      1.58845540e-002 -2.05001682e-002 -1.93279586e-004 -3.76352817e-002
      -3.09289107e-003 1.12972679e-002 -1.07787084e-002 8.67795106e-003
      3.99444066e-003 -1.76195186e-002 -3.31358705e-003 -5.19672409e-003
      -7.18741631e-003 4.31843027e-002 5.97222883e-004 9.11431795e-004
      3.00598610e-002 1.46733336e-002 1.04368953e-002 8.12488422e-003
      8.55696946e-003 4.18692548e-003 2.42638192e-003 6.18998706e-003
      7.36956077e-004 1.00995144e-002 1.71779096e-002 1.04405722e-002
      -1.10090021e-002 -2.21515875e-002 9.87481978e-003 5.91867696e-003
      7.23035354e-003 3.08642141e-003 8.79539829e-003 -1.82564799e-002
      1.62971355e-002 3.69162182e-003 3.28480382e-003 -1.87580334e-003
      6.12392696e-003 2.58693704e-003 1.19800037e-002 9.96536482e-003
      -5.08461483e-002 1.18106194e-002 1.90951228e-002 2.49428991e-002
      -6.81346608e-003 1.59319304e-002 1.03471549e-002 1.84635203e-002
      1.01667726e-002 3.68687441e-003 -2.53786542e-003 8.18016287e-003
      -1.67067014e-002 -2.50174329e-002 -7.94812944e-003
      -2.36004079e-003 1.65087227e-002 -6.88617397e-003 3.47032328e-003
      1.02114892e-002 -1.21944938e-002 -2.34571118e-002 6.25568861e-003
      9.59226675e-003 2.45447773e-002 2.42661238e-002 -9.78884054e-004
      2.41788141e-002 -3.33969779e-002 4.65234183e-003 4.40223562e-003
      1.09883761e-002 -9.02315788e-003 -7.30325375e-003 -3.89097705e-002
      3.85915930e-003 5.09977015e-003 6.60285400e-003 8.28945730e-003
      1.33563401e-002 1.00529483e-002 -8.68372526e-003 7.74088316e-003
      -4.89090011e-003 7.00206170e-003 -1.65498275e-002 -1.21117672e-002
      -3.97764350e-004 9.22441890e-004 7.00516347e-003 1.03342189e-002
      -5.55629889e-003 5.24077239e-003 3.01119639e-003 -6.97978400e-003
      1.82338618e-002 -3.20389159e-002 -8.66435654e-003 2.88813189e-002
      1.19951973e-003 -3.97729464e-002 1.26536551e-003 -2.70225611e-002
      -8.44267104e-003 -9.47186723e-003 7.12105306e-003 1.05288103e-002
      -1.79900900e-002 1.63782686e-002 1.06262956e-002 -2.41793133e-002
      -3.34707019e-003 1.43991681e-002 -9.70714260e-003 -2.02853829e-002
      3.46137583e-002 2.67293351e-003 -6.80341152e-003 -1.15866112e-002
      8.21329001e-003 2.54703104e-003 4.00855206e-003 -2.41258857e-003
      1.16857002e-002 5.55460481e-003 1.62766245e-003 -2.14377027e-002
      -1.72206070e-002 -1.94840692e-003 -2.17603408e-002 1.50428470e-002
      8.30741227e-003 9.62124579e-003 -4.34442190e-003 3.34898792e-002
      9.84662957e-003 -7.54288072e-003 1.00930938e-002 -1.44575965e-002
      4.85217571e-003 -2.01988071e-002 -9.94164497e-003 2.65425481e-002
      5.97552489e-003 5.45413373e-003 -2.00052839e-003 1.56803597e-002
      -5.36264270e-004 1.91234588e-003 3.77700035e-003 2.75264736e-002
      -2.33721756e-003 4.39197058e-003 6.00545481e-003 -1.42045338e-002
      8.89847800e-003 -7.47300778e-003 -6.48892368e-004 -5.23484964e-003
      1.70036182e-002 1.68673489e-002 -6.84750872e-003 5.10661863e-003
      7.84312189e-003 4.75249579e-003 -1.38352741e-003 -2.36080174e-004
      2.49445118e-004 1.86145958e-002 -2.81713363e-002 -9.05822124e-003
      -4.56107687e-003 1.21958619e-002 5.00693079e-003 1.03290034e-002
      -3.57901789e-002 -2.09016372e-002 3.40813259e-003 -1.75461229e-002
      6.68155553e-004 -1.91613124e-003 1.91128347e-002 8.15678947e-003
      8.15420318e-003 -7.80462753e-003 -1.76611058e-002 1.16018504e-002
      -2.30643414e-002 -3.30962648e-005 1.31591200e-003 -2.18834970e-002
      7.57990871e-003 -4.04084940e-003 2.78280326e-003 2.02844311e-002
      7.15410244e-003 -1.47358859e-002 -1.27175273e-002 2.56857760e-002
      1.98151711e-002 -5.61010744e-003 7.95470085e-003 1.35881919e-002
      2.18132660e-002 -6.33795466e-003 -1.29984654e-002 -1.67650506e-002
      -2.02998309e-003 1.32924626e-002 8.43105186e-003 3.11718951e-003
      8.36004410e-003 1.45574315e-002 5.30753285e-003 2.75464281e-002
      1.75611340e-002 -1.25912260e-002 2.24149916e-002 1.46712363e-002
      1.47456462e-002 9.59502999e-003 -1.05615137e-002 -1.72798079e-003
      1.62154660e-002 5.02172625e-004 5.50506078e-003 1.53621519e-002
      -1.28568970e-002 1.08063482e-002 -1.99321639e-002 8.35371175e-005
      1.75567362e-002 4.69579687e-003 2.05793213e-002 1.29795456e-002
      -1.38733080e-002 1.80784259e-002 -5.04806824e-003 1.96068808e-002
      -3.25235684e-004 -3.31588113e-003 1.55886002e-002 -8.50761030e-003
      -3.07706348e-003 1.60879195e-002 2.80592293e-002 1.26990641e-003
      2.08244119e-002 -6.01640483e-003 -1.32603040e-002 2.54315268e-002
      3.01835686e-003 -1.29613699e-002 3.34178284e-002 1.10423779e-002
      6.01765793e-003 1.00988550e-002 -1.17731392e-002 2.58824751e-002
      2.00663209e-002 -2.68684905e-002 2.15654243e-002 4.29039262e-002
      8.21237918e-003 -4.49858187e-003 -9.38579254e-003 7.88407680e-003
      -4.43447158e-002 5.93723543e-003 6.66407822e-003 1.46367652e-002
      1.99928675e-002 1.45416148e-002 5.52554522e-003 9.88382846e-003
      -6.53630821e-004 1.03388531e-002 2.83921082e-002 -3.17043415e-003
      1.42467758e-002 -1.30290929e-002 1.24625373e-003 -2.24558804e-002
      1.25760492e-002 3.24076996e-003 6.64546015e-003 -1.40569862e-002
      -6.94401748e-003 -2.62238253e-002 2.42618681e-003 5.66624757e-003
      1.04761347e-002 -3.85439321e-002 2.74859853e-002 1.03460047e-002
      3.80985509e-003 7.94410426e-003 2.30604364e-003 -3.54467928e-002
      3.74069600e-003 -6.37317747e-002 2.22869832e-002 1.97898317e-003
      -2.08138525e-002 1.11407116e-002 -1.31685510e-002 2.36851815e-002
      -4.91024803e-005 -4.77852765e-003 8.20110366e-003 -6.55845087e-003
      -5.25139738e-003 2.73677334e-002 -4.67616133e-002 -4.09761956e-003
      -7.79539347e-003 -1.63519382e-002 -1.94774580e-003
      -9.44023300e-003 2.75433995e-003 7.63298944e-004 1.45806205e-002
      1.09040393e-002 -3.09675764e-002 -3.40010109e-003 -1.77151710e-002
      -6.00529485e-004 -3.98134394e-003 1.47330016e-002 -1.98253375e-002
      -9.56100645e-004 7.76373828e-003 -1.02054872e-001 -7.41795753e-004
      -7.15421513e-004 -4.37606778e-003 7.63369608e-004 8.49771954e-004
      4.38001152e-004 4.04939428e-003 1.91142247e-003 2.81123165e-003
      -9.70485061e-003 -2.41120602e-003 9.39284824e-003 -1.61156356e-002
      -3.24197812e-003 6.44397084e-003 5.43512963e-003 7.63339514e-004
      7.83217326e-003 1.09432191e-002 1.77675579e-002 -1.19645046e-002
      -1.26592699e-003 1.23598175e-002 -9.64494515e-003 -2.16109864e-002
      1.67898107e-002 2.13029366e-002 3.68788629e-003 -5.30690094e-003
      1.29390480e-002 2.53649224e-002 1.08967805e-002 5.11153927e-003
      8.76133738e-004 1.50486492e-002 1.84206981e-002 -5.09431167e-003
      4.70401533e-003 -3.12632248e-002 1.30558871e-002 -2.09815870e-003
      2.02020612e-002 6.34847628e-003 1.17025785e-002 5.56586683e-003
      -1.15429843e-002 1.24611836e-002 7.06941646e-004 3.94004304e-003
      1.28536364e-002 -2.27420544e-003 3.37133789e-003 -6.67894911e-003
      -4.36332950e-004 9.22975969e-003 -1.46111278e-002 -8.85631982e-003
      7.46611366e-003 1.11015802e-002 -1.84940826e-002 1.17905810e-002
      -5.14641963e-003 -9.69650410e-003 -5.73721831e-004
      -7.87325017e-003 -3.54081829e-004 1.04367640e-002 -2.03843601e-002
      -1.02063715e-002 1.11177573e-002 -7.39195347e-002 -1.45637775e-002
      1.04265809e-002 3.59827429e-002 4.49314597e-004 -3.74278538e-002
      7.24389404e-003 1.60652341e-003 -1.98297314e-002 -1.15041370e-002
      3.12301284e-003 -1.17249768e-002 5.24450187e-003 1.15598319e-003
      -8.97249393e-003 7.52952695e-003 7.01458892e-003 -4.49987638e-005
      -6.47636305e-004 9.59677622e-003 -1.51445661e-002 6.92874705e-003
      4.08954499e-003 -2.43433230e-002 3.40379365e-002 2.06976347e-002
      3.69646139e-002 2.07556579e-002 7.47746881e-003 1.93960816e-002
      2.12000683e-002 1.58488061e-002 -1.34694586e-002 -1.82628259e-002
      -2.80101672e-002 4.63001616e-003 -9.53044668e-002 1.26823178e-003
      -3.81487869e-002 1.31041347e-003 -6.53983559e-003 -4.54740115e-002
      -6.15069224e-003 -3.82821658e-003 -3.42551395e-002 8.67362414e-003
      -3.13301361e-003 -3.39188986e-003 -8.86213221e-003
      -5.18131536e-003 2.34115068e-002 -5.26421005e-003 2.46303864e-002
      6.17296202e-003 1.01656867e-002 2.90107056e-002 -5.58978086e-003
      3.09610297e-003</_></support_vectors>
  <decision_functions>
    <_>
      <sv_count>1</sv_count>
      <rho>-9.9759496922068902e-001</rho>
      <alpha>
        1.</alpha>
      <index>
        0</index></_></decision_functions></my_svm>
</opencv_storage>
