<?xml version="1.0"?>
<opencv_storage>
<my_svm type_id="opencv-ml-svm">
  <svm_type>C_SVC</svm_type>
  <kernel><type>LINEAR</type></kernel>
  <C>1.</C>
  <term_criteria><epsilon>2.2204460492503131e-016</epsilon>
    <iterations>1000</iterations></term_criteria>
  <var_all>1000</var_all>
  <var_count>1000</var_count>
  <class_count>2</class_count>
  <class_labels type_id="opencv-matrix">
    <rows>1</rows>
    <cols>2</cols>
    <dt>i</dt>
    <data>
      -1 1</data></class_labels>
  <sv_total>1</sv_total>
  <support_vectors>
    <_>
      -5.63785359e-002 2.97114195e-004 1.86787099e-002 1.45164803e-002
      5.85731585e-003 -7.36750371e-005 -2.83466931e-002 4.30574594e-003
      9.87137854e-003 2.06551980e-004 5.30426390e-003 4.20286611e-004
      1.21753546e-003 2.26588286e-002 3.31251062e-002 9.46487952e-003
      2.14264579e-002 1.49375126e-002 7.14346487e-003 -5.37773781e-002
      1.48482760e-002 -2.52740607e-002 -2.05092989e-002 -2.21458785e-002
      2.35053170e-002 1.00569129e-002 -1.32754641e-002 4.53966809e-003
      8.45685718e-004 -6.25872519e-004 1.27607654e-003 5.60141588e-003
      1.31060518e-002 1.56337749e-002 1.24081988e-002 -7.44504202e-003
      -5.09934267e-003 3.09885596e-003 -2.15027612e-002 5.17571159e-003
      1.20258890e-002 1.79647375e-002 1.70309171e-002 1.13166869e-002
      -4.35206993e-003 7.69819180e-003 7.65801407e-004 3.53677431e-003
      3.82966409e-003 -5.81560098e-003 8.66726413e-003 -8.41461122e-003
      1.29661998e-002 9.15979873e-003 -7.91821908e-003 -2.78113084e-003
      9.54061188e-003 -5.12182992e-003 1.09884171e-002 6.54818630e-003
      9.25458223e-003 1.88820719e-004 -5.64269722e-003 -1.93079803e-002
      1.56507976e-002 2.72843018e-002 1.61666013e-002 1.17370356e-002
      1.61333829e-002 1.57198403e-002 8.32512602e-003 -1.85444281e-002
      3.97747895e-003 -5.09308372e-003 -9.69431177e-003 -9.13418626e-005
      -1.18128844e-002 2.16507744e-002 6.96797436e-003 6.61994237e-003
      2.41985824e-002 1.40842823e-002 -2.98310467e-003 2.05630320e-003
      2.20714938e-002 -2.16434151e-002 7.18314841e-004 2.00873371e-002
      4.07621358e-003 -3.52266468e-002 -1.13877766e-002 -1.44148413e-002
      -1.32875694e-002 1.57976504e-002 2.04815678e-002 -2.80526443e-003
      -5.51256053e-002 -1.77377760e-002 -2.24289633e-002
      -1.94478408e-002 1.12853358e-002 -1.96178537e-002 -3.76278331e-005
      2.00159699e-002 -1.69522257e-003 3.90076963e-003 1.16534997e-002
      6.86653890e-003 1.02496678e-002 -1.26209436e-002 -3.37165827e-003
      4.58803074e-003 6.19068788e-003 -4.97771101e-003 1.77543389e-003
      -4.26542200e-002 5.59793552e-003 5.45506272e-003 -3.03733665e-002
      1.45830987e-002 1.84037499e-002 1.44858006e-002 -2.51883995e-002
      -1.16783995e-002 1.59477703e-002 -1.64677966e-002 1.37548577e-002
      2.06405744e-002 -2.47013010e-002 2.50477046e-002 1.15279965e-002
      6.94342190e-003 3.72239342e-003 2.07324661e-002 3.46609801e-002
      2.05745511e-002 -8.81970953e-003 3.06242611e-003 3.93686304e-003
      1.84414834e-002 1.72202685e-003 1.50107825e-002 1.36161176e-002
      -1.17055913e-002 7.19725853e-003 6.58609997e-003 1.35666840e-002
      -1.91956889e-002 2.15224214e-002 6.52656844e-003 -8.99532530e-003
      4.17213095e-003 1.67505424e-002 -3.09956539e-003 8.81717168e-003
      -1.02190385e-002 2.19033901e-002 -6.62057288e-003 -3.73845547e-003
      -4.63238452e-003 -2.56480859e-003 7.40376301e-003 -2.21530180e-002
      -1.71468258e-002 9.92412493e-003 -3.47678456e-003 1.09710777e-002
      -2.66593210e-002 1.47912484e-002 -3.00849415e-002 1.92710850e-002
      1.25621213e-002 7.82129075e-003 -3.93825099e-002 -1.54886278e-003
      -2.25233976e-002 4.99894656e-003 1.99214220e-002 1.22659001e-002
      4.22519771e-003 -2.12647468e-002 -5.31961992e-002 1.09996572e-002
      -1.03735970e-003 -4.30761743e-003 -1.91871934e-002
      -1.03488741e-002 2.84864288e-002 -3.17899889e-004 3.15440819e-003
      -3.22912796e-003 9.20001883e-003 2.16822103e-002 2.98389862e-003
      8.91616754e-003 1.44715803e-002 -1.43368379e-003 -1.58772431e-002
      3.64363124e-003 9.89279337e-003 -9.67210904e-003 -2.64964588e-002
      -2.40037795e-002 3.73753835e-004 -2.53027882e-002 2.52279197e-003
      1.83165241e-002 1.15354471e-002 -1.48551967e-002 1.05016800e-002
      3.95542011e-003 1.56626068e-002 1.37966534e-003 -4.56640609e-002
      9.51625686e-003 3.19020636e-002 -4.58293548e-003 -8.48423690e-003
      -2.67496100e-003 2.95952857e-002 3.13900062e-003 5.53913089e-003
      -2.23412830e-002 1.06098242e-002 4.20970842e-002 2.34687719e-002
      -1.22054303e-002 1.14392713e-002 5.11151506e-003 9.93751269e-003
      2.10812148e-002 2.08465569e-002 1.30143547e-002 1.55122979e-002
      -1.12301037e-002 1.74528966e-003 3.80028541e-005 -2.70730630e-002
      -3.11027933e-002 4.42907168e-003 -2.82406434e-002 -2.09370092e-003
      -1.74712706e-002 4.58539743e-003 7.63575500e-003 2.11904831e-002
      -1.78074259e-002 9.79638845e-003 -5.25753051e-002 2.02424787e-002
      2.22915523e-002 -1.44474246e-002 3.86586669e-003 1.55648617e-002
      -5.98395290e-003 1.62453130e-002 -7.76301837e-003 2.42477786e-002
      -1.17561026e-002 3.46263684e-002 -3.17114145e-002 -1.70016270e-002
      2.01441515e-002 -3.37728485e-003 -2.57083904e-002 -2.91985050e-002
      4.12338413e-003 -2.65903715e-002 1.22612761e-002 -7.25405815e-004
      7.17273494e-003 -1.10266581e-002 -3.09616551e-002 -4.20252681e-002
      7.76040740e-003 9.19182133e-003 -3.09366882e-002 1.08161578e-002
      7.59296492e-003 5.15912380e-003 -1.83274057e-002 -1.93862442e-003
      -3.37129906e-002 -3.30520933e-003 -4.29729838e-003
      -3.71318422e-002 8.68479814e-003 8.26231297e-003 1.79514531e-002
      -3.84015068e-002 -5.54305222e-003 1.23625323e-002 -8.47410113e-002
      1.31355952e-002 -3.86988446e-002 8.03304277e-003 1.12013975e-002
      1.64319649e-002 1.92904435e-002 1.32902451e-002 2.56831124e-002
      8.02484062e-003 -2.48021493e-003 -5.07277958e-002 1.61425434e-002
      -2.21259007e-003 1.73199438e-002 1.27734337e-002 -1.08740963e-002
      6.38400996e-003 1.30750239e-002 -1.45460842e-002 -2.06775567e-003
      4.40735649e-003 -2.97855400e-002 1.11541329e-002 5.83796576e-003
      -1.09153744e-002 1.20177623e-002 -1.48774059e-002 -4.22692299e-003
      9.07197595e-003 -2.51909271e-002 1.43190622e-002 3.68857267e-003
      -2.37185019e-003 2.30435543e-002 1.47562427e-002 -1.98953741e-004
      7.22936867e-003 -1.12009570e-002 -4.85805757e-002 -4.77175228e-003
      -7.59922405e-005 -1.20010402e-003 7.90472433e-004 1.39949434e-002
      1.19620571e-002 -2.18396503e-002 -2.52883006e-002 -1.64256506e-002
      -4.11237078e-003 1.34319114e-002 -1.94321934e-003 1.47845764e-002
      1.10526774e-002 -1.40717309e-002 -1.08052157e-002 -2.01638211e-002
      1.46475937e-002 2.85827909e-002 -1.85316969e-002 2.83174329e-002
      -1.81094604e-003 -1.15703894e-002 2.22340599e-003 -4.70693931e-002
      8.97108763e-003 -8.17586947e-003 -3.05395238e-002 2.49374215e-003
      4.27912585e-002 3.01575754e-002 8.71315040e-003 -2.63547096e-002
      2.17597019e-002 1.54274954e-002 -1.02935759e-002 1.86382849e-002
      9.60418861e-003 8.54325853e-003 6.82725757e-003 -1.96691719e-003
      -2.12770049e-002 1.72059052e-002 2.98157725e-002 4.74680914e-003
      -7.39947567e-003 -8.99333565e-004 -1.89370718e-002
      -1.03172520e-003 4.19708522e-004 6.61268691e-003 -4.00751606e-002
      -4.78890613e-002 -9.78827477e-003 -4.03713575e-003 4.10769833e-003
      2.20619012e-002 1.49611458e-002 3.17079807e-003 8.02937336e-003
      8.99536815e-003 -7.18977390e-005 -1.79025787e-003 1.73677970e-002
      -1.23340851e-002 -1.41144041e-002 -1.94187760e-002
      -9.34813265e-003 -2.09305715e-002 2.36648209e-002 -2.51759589e-002
      -2.66551115e-002 2.33089738e-002 3.11170891e-002 -2.76845531e-003
      -1.80437677e-002 9.42666642e-003 -7.72051560e-003 -2.90776808e-002
      -2.69968864e-002 9.33884084e-003 -7.51152961e-003 -1.06442710e-002
      1.24265971e-002 1.32719697e-002 -8.74056369e-002 6.51238812e-003
      5.75464277e-004 -1.26359845e-002 7.54620926e-003 6.01796433e-003
      -1.50001585e-003 -3.17728706e-002 4.60867817e-003 1.49683384e-002
      9.19287279e-003 -2.92471191e-003 2.52944492e-002 2.00889027e-003
      -1.10890847e-002 1.52165182e-002 8.07299931e-003 -5.10766637e-003
      -2.07056273e-002 -7.96319358e-003 -3.22869350e-003
      -1.22171352e-002 9.31080710e-003 -2.52025314e-002 7.65956240e-003
      -6.35264302e-003 -1.24361413e-002 8.86807684e-003 -1.12300506e-002
      -7.11369328e-003 -3.06409579e-002 1.27261160e-002 1.30179999e-002
      2.82634683e-002 -5.08296005e-002 -1.71993487e-002 1.45814847e-002
      -3.49849351e-002 -2.60754190e-002 3.97744775e-003 8.57168715e-003
      1.04157142e-002 8.95449053e-003 5.90169104e-003 -9.01070144e-003
      1.33712487e-002 4.20205779e-002 -2.15665959e-002 6.00404991e-003
      -3.01690735e-002 3.97031382e-002 1.28913587e-002 -2.91685425e-002
      -6.86368905e-003 -1.61010548e-002 -1.41574210e-002
      -1.77855743e-003 -2.88781114e-002 -1.37194851e-003
      -4.51756306e-002 1.07152564e-002 -4.99236211e-002 2.61568814e-003
      3.26761007e-002 1.09296094e-003 -5.39382733e-003 1.11573748e-003
      4.50075790e-003 1.65087022e-002 1.89423990e-002 -2.57226136e-002
      -5.43953199e-003 -1.50974970e-002 -1.91709772e-003 6.07821951e-003
      -7.05518350e-002 1.80548262e-002 -2.02951971e-002 -3.11925937e-003
      -1.35068279e-002 2.05104053e-002 -1.07022286e-004 -2.01036353e-002
      1.69035662e-002 -3.57595533e-002 -1.47495361e-003 1.87883107e-003
      1.30781345e-002 3.67617048e-003 1.58776194e-002 -2.56137480e-003
      1.03267245e-002 -3.85746796e-004 2.67930841e-003 -4.56893519e-002
      1.20267617e-002 1.10983066e-002 -2.05270760e-002 3.74072348e-003
      1.25213396e-002 1.85465477e-002 1.64249365e-003 7.52901053e-003
      -1.04978876e-002 1.81419868e-002 7.08264252e-003 1.01175327e-002
      -6.54424308e-003 8.59359803e-004 6.56631729e-003 -2.63673626e-002
      1.08649405e-002 9.05720866e-004 4.95683076e-003 -3.05375736e-003
      -2.22864002e-002 -3.28508718e-003 -1.10816420e-003 1.50693869e-002
      3.85799855e-002 1.44451214e-002 1.05818855e-002 1.55445132e-002
      8.24295357e-003 3.15561565e-003 2.56722560e-003 1.33676743e-002
      4.16821660e-003 5.75196883e-003 1.97218894e-003 -2.70214695e-002
      1.88991856e-002 -7.38387974e-003 -5.83117781e-003 -1.09720854e-002
      1.00586480e-002 -5.55807958e-007 1.62300952e-002 3.67444823e-003
      9.54522472e-003 5.54469600e-003 3.25117516e-003 -1.11299101e-002
      7.53155071e-003 -4.63178828e-002 3.37382127e-003 1.03617013e-002
      2.36001192e-003 -8.25017132e-003 1.70728397e-002 1.41457580e-002
      1.18171945e-002 -8.85157567e-003 4.61819535e-003 1.39096212e-002
      -2.39227396e-002 1.73378047e-002 -2.62859203e-002 -2.15249900e-002
      -7.56761758e-003 1.31692886e-002 5.45452489e-003 2.01383210e-003
      -1.98562653e-003 9.79592185e-003 -4.12426423e-003 -1.01549188e-002
      7.08111981e-003 -2.01195795e-002 -1.68416854e-002 -2.58891843e-004
      2.07716320e-002 1.43200476e-002 5.05446084e-003 -2.02104282e-002
      1.38521167e-002 2.08536466e-003 -5.12070779e-004 1.77100429e-003
      -5.43095591e-003 3.14066298e-002 -5.07678045e-003 2.43765656e-002
      -2.05093268e-002 -3.68172815e-003 1.03272600e-002 -7.19035463e-003
      -6.77142199e-003 -8.12638365e-003 -1.27770118e-002
      -8.67907330e-003 -1.19534135e-002 6.44594431e-004 -6.45536231e-003
      -6.12848736e-002 1.15951728e-002 -1.41012985e-002 4.77294996e-003
      8.94518755e-003 1.14699383e-003 1.16596129e-002 -1.26339309e-002
      -7.15859383e-002 1.90273952e-002 3.28014046e-003 -4.71542915e-003
      -7.42239179e-004 1.37599213e-002 -2.56257411e-003 6.25752565e-003
      1.10524967e-002 2.14764336e-003 2.10429393e-002 -1.84652153e-002
      2.23604981e-002 -2.18456257e-002 1.84194557e-002 9.08915978e-003
      1.12561267e-002 -2.33185627e-002 -1.76408805e-003 6.05640374e-003
      3.96944303e-003 -6.21573348e-003 -6.53141178e-003 -7.29857199e-003
      1.20134698e-002 -3.95246558e-002 8.32206290e-003 6.16896292e-003
      -2.04346087e-002 -1.09489374e-002 3.80843296e-003 1.03950668e-002
      1.59087140e-004 -1.68136768e-002 8.10650364e-003 -6.92565506e-003
      1.45327086e-002 5.08512976e-003 1.00129144e-002 1.28864059e-002
      2.11699363e-002 1.70305446e-002 -2.39005461e-002 -2.53923400e-003
      1.69149451e-002 -7.69589737e-004 1.64419804e-002 -1.52445165e-002
      1.14835007e-002 1.19088832e-002 1.70873925e-002 1.14169791e-002
      9.96337645e-003 1.64346155e-002 7.68944155e-003 1.03753712e-003
      9.19288956e-004 -2.76163151e-003 -4.65867389e-003 2.87370244e-003
      9.97813325e-003 3.08037107e-003 1.03054587e-002 -1.63576975e-002
      -2.99728033e-003 1.09467395e-002 3.71733215e-003 -7.36873876e-003
      1.56676993e-002 -9.52578522e-003 1.31626781e-002 2.34684087e-002
      1.97998099e-002 6.41053449e-003 6.48852950e-003 1.22273043e-002
      7.24218367e-003 5.83110424e-003 1.27396984e-002 -2.85702292e-002
      5.35517139e-003 1.80916097e-002 -6.46046782e-003 9.57957003e-003
      2.56196223e-003 -6.81049516e-003 2.11481005e-002 -9.34229791e-003
      1.66979842e-002 1.69612747e-003 -7.27231568e-003 5.13838325e-003
      -1.04289260e-002 8.22286028e-003 1.66416150e-002 7.15163257e-003
      5.53798722e-003 2.09372491e-002 -4.71047009e-004 -5.80152730e-003
      -6.98631909e-003 -2.90681571e-002 2.45163329e-002 1.43564842e-003
      -1.51738420e-003 2.08930280e-002 -3.58953699e-002 -2.52023153e-002
      -2.18613297e-002 -2.08171736e-003 4.62291483e-003 3.71909812e-002
      1.15372404e-003 8.54696985e-003 7.08842324e-003 2.50422526e-002
      5.82253048e-003 -1.34869777e-002 2.01003812e-002 -6.72069052e-003
      2.90397834e-003 3.72979813e-003 4.64328798e-003 2.33524926e-002
      -2.43579689e-002 6.46430347e-003 7.51101505e-003 7.96700083e-003
      2.03311965e-002 3.91012570e-003 2.35362295e-002 -2.51312777e-002
      1.47122461e-002 1.66311506e-002 -1.30244540e-002 -5.69374673e-003
      8.33824091e-003 -4.02145348e-002 1.59570910e-002 1.72995180e-002
      9.45566408e-003 1.55842407e-002 -2.41572950e-002 -2.81413030e-002
      1.99480839e-002 1.21353567e-002 1.26444306e-002 -3.38991322e-002
      -2.51072887e-002 2.20524669e-002 9.24215093e-003 -1.04892871e-003
      1.50009729e-002 1.27132172e-002 6.38618460e-003 1.01709533e-002
      -6.25309302e-003 -3.31459683e-003 -4.75272536e-003 2.04257481e-002
      -1.46138540e-003 -1.84852467e-003 -1.58150923e-002 2.50866963e-003
      1.55776902e-003 1.25986822e-002 1.46479737e-002 1.13142813e-002
      1.00036841e-002 4.24229773e-003 1.89055968e-002 -4.01785597e-003
      -1.60827450e-002 2.93468009e-003 -8.11853446e-003 -2.09543314e-002
      1.13540823e-002 -1.73659343e-002 1.20507255e-002 -2.51334552e-002
      1.61068165e-004 1.62327439e-002 -1.14693083e-002 -1.22238731e-003
      1.73352298e-003 -3.02063078e-002 -5.88773284e-003 1.29276467e-002
      5.89272764e-004 5.89413568e-003 -3.72610404e-003 1.21008856e-002
      8.01783614e-003 1.03783200e-003 1.02913799e-002 8.40460043e-003
      1.06552858e-002 5.69652719e-003 1.15425838e-002 -2.22647097e-002
      7.64975511e-003 5.23549563e-004 -6.89960201e-004 1.74377970e-002
      -5.37020899e-003 3.76939066e-002 1.47614640e-003 8.88336357e-003
      -3.58987134e-003 7.57686980e-003 2.53503997e-004 2.94885575e-003
      -2.88148643e-003 5.29358536e-003 5.80915390e-003 2.31051049e-003
      -1.56621088e-003 1.10337995e-002 -4.74590482e-003 4.73886402e-003
      3.74956150e-003 2.69373655e-002 -1.15529215e-002 2.92770490e-002
      -2.67382637e-002 2.11906992e-003 1.82397384e-002 -1.00159347e-002
      7.14891963e-003 5.26290340e-003 -2.31795441e-002 7.32495391e-004
      -6.24268176e-003 1.14980154e-002 -3.60444449e-002 1.27292899e-002
      -7.60328304e-003 -2.53029540e-002 -7.42121190e-002 4.02342528e-003
      -2.85972059e-002 6.30378723e-003 -2.09084451e-002 -2.90267938e-003
      -1.10437823e-002 3.98285082e-003 -4.37030196e-003 1.04292948e-002
      -4.32324968e-002 2.45920774e-002 1.29216136e-002 1.92206632e-003
      -8.25538859e-003 1.61352605e-002 -6.17765449e-003 -1.58025138e-002
      2.08468083e-002 -1.21716727e-002 9.83454660e-003 8.91659874e-003
      1.10747218e-002 9.80961416e-003 -2.93370336e-003 -9.04572103e-003
      2.56054476e-003 1.21519952e-004 -1.17796427e-003 1.52700162e-002
      -7.14888377e-003 -2.55898181e-002 4.32606740e-003 1.39529798e-002
      1.39172366e-002 1.31770940e-002 1.84989162e-002 4.10870835e-003
      1.09949736e-002 -7.32133072e-003 -2.35915155e-004 2.09981911e-002
      -1.49115417e-002 9.54664894e-004 6.96998648e-003 -2.94440170e-003
      2.66082510e-002 1.34716965e-002 8.61274358e-003 -1.09928958e-002
      1.61831025e-002 -3.07451207e-002 1.06563717e-002 -1.03513636e-002
      1.77093421e-003 -2.13483591e-002 1.16486177e-002 1.14920014e-003
      -4.79010455e-002 1.26182213e-002 -1.07094487e-002 9.08281421e-004
      -5.73698152e-003 1.81186141e-003 7.12090917e-003 6.90777670e-004
      6.92133745e-003 1.75954159e-002 7.48310657e-003 -1.06175961e-002
      -2.66928766e-002 -7.40025751e-003 2.16687890e-003 -3.45770828e-002
      5.31026581e-003 -6.95258891e-003 1.45171126e-002 1.86578743e-002
      -1.25359651e-003 5.31375315e-003 6.21442031e-003 -2.43058819e-002
      -3.88516835e-003 3.51694115e-002 4.89047077e-003 1.65151712e-002
      -2.56746877e-002 8.05675299e-005 4.70115896e-003 -2.34434772e-002
      -1.45570664e-002 1.41493883e-002 1.93407352e-003 2.95684040e-002
      5.67855593e-003 1.45963039e-002 -5.71878767e-003 1.55725479e-002
      -1.68037042e-002 -4.60769981e-003 1.47600016e-002 -4.74480074e-003
      3.38180247e-003 3.50013026e-003 -2.76350323e-002 1.49850296e-002
      -1.98366307e-002 1.03317425e-002 1.18846316e-002 -1.54886500e-003
      1.19513525e-002 -1.69400834e-002 -6.14295667e-003 -6.90561393e-003
      1.99980894e-003 2.27635559e-002 1.04057584e-002 -2.96684727e-002
      -3.20745781e-002 5.74977975e-003 9.98027809e-003 4.72267764e-003
      -2.16676276e-002 1.44288747e-003 1.91844374e-004 -3.22295865e-003
      -2.81649567e-002 1.02612711e-002 3.07559539e-002 1.52634317e-002
      7.45745725e-004 1.66986343e-002 -6.94906153e-003 -8.16635657e-005
      -2.59897150e-002 1.00113964e-002 -3.00361905e-002 -2.76440624e-002
      8.75019841e-003 -1.53617293e-003 6.49251789e-003 1.64981689e-002
      -8.89447331e-003</_></support_vectors>
  <decision_functions>
    <_>
      <sv_count>1</sv_count>
      <rho>-9.9688516536207106e-001</rho>
      <alpha>
        1.</alpha>
      <index>
        0</index></_></decision_functions></my_svm>
</opencv_storage>
