<?xml version="1.0"?>
<opencv_storage>
<my_svm type_id="opencv-ml-svm">
  <svm_type>C_SVC</svm_type>
  <kernel><type>LINEAR</type></kernel>
  <C>1.</C>
  <term_criteria><epsilon>2.2204460492503131e-016</epsilon>
    <iterations>1000</iterations></term_criteria>
  <var_all>1000</var_all>
  <var_count>1000</var_count>
  <class_count>2</class_count>
  <class_labels type_id="opencv-matrix">
    <rows>1</rows>
    <cols>2</cols>
    <dt>i</dt>
    <data>
      -1 1</data></class_labels>
  <sv_total>1</sv_total>
  <support_vectors>
    <_>
      1.74551010e-002 -7.92710762e-003 -4.76771221e-003 1.30968587e-002
      -2.23743804e-002 9.67591722e-003 4.32940014e-003 -1.43144084e-002
      5.91503549e-003 1.53858084e-002 2.66964454e-002 -6.31759837e-002
      2.04812866e-002 -6.95098937e-003 6.34123478e-003 -2.93459073e-002
      -1.08049460e-001 1.51517987e-002 1.21229729e-002 -2.94657666e-002
      2.25411579e-002 -1.67658374e-001 1.60744097e-002 2.33341679e-002
      7.89102260e-003 -1.71430394e-001 3.97451874e-003 1.10512236e-002
      -4.62649651e-002 3.49503793e-002 7.86930788e-003 2.89184209e-002
      1.22716054e-002 2.32597836e-003 1.15536517e-002 2.01479904e-002
      8.86349287e-003 5.01387473e-003 -1.40967026e-001 -1.70624241e-001
      1.50827747e-002 9.21830628e-003 2.99925846e-003 1.88335832e-002
      4.60613444e-002 2.18207426e-002 1.49251102e-002 1.74454823e-002
      -8.79102945e-003 4.86619817e-003 -1.82333719e-002 1.32377436e-002
      1.25063397e-003 2.33829282e-002 -3.16441692e-002 5.09100209e-004
      -4.45882678e-002 -3.27896327e-002 -3.91040444e-002 2.32684836e-002
      -2.12766492e-004 -8.78991280e-003 9.73841583e-004 3.01255211e-002
      1.51222562e-002 2.21867934e-002 1.62755605e-002 1.90809127e-002
      -2.02705488e-002 -1.89534366e-001 -8.12144205e-003
      -1.43736765e-001 2.72532552e-002 1.05738780e-002 3.58229950e-002
      -2.72028651e-002 9.01178550e-003 2.20897701e-002 2.10722233e-003
      -1.90877140e-001 2.58074868e-002 2.49897130e-002 5.65440580e-002
      1.59271043e-002 3.03584859e-002 2.63726246e-002 1.30806947e-002
      7.81670120e-003 2.20070957e-004 3.31816785e-002 1.29839601e-002
      2.69539771e-003 -2.03402229e-002 1.01910823e-003 5.15409783e-002
      -7.57259608e-004 5.76476986e-003 3.34353596e-002 1.26794586e-002
      1.67484600e-002 -2.37533427e-003 1.81357458e-003 9.19022039e-003
      1.17940856e-002 5.28575527e-003 2.37929299e-002 1.24072572e-002
      5.54403011e-003 3.21410112e-002 -5.52660301e-002 1.79446042e-002
      5.76673588e-003 -9.08245742e-002 8.55326653e-003 1.77481044e-002
      1.86557844e-002 1.38597032e-002 1.05648942e-003 2.67946534e-002
      -6.07517026e-002 1.05606606e-002 -2.06709541e-002 9.58885718e-003
      6.03578426e-003 -4.46746461e-002 2.70860456e-003 -4.96793352e-003
      2.89346837e-002 8.27212166e-003 -8.47466476e-003 4.24355716e-002
      4.07831930e-003 6.36942859e-004 -1.32618463e-002 3.77156697e-002
      6.96211979e-002 1.60653554e-002 2.30010077e-002 1.06950207e-002
      -1.41285853e-002 1.17650898e-002 7.22045545e-003 2.13510152e-002
      5.61471470e-003 1.20794401e-002 7.99265131e-003 2.07816195e-002 0.
      -2.00008005e-002 -4.01683189e-002 2.82198507e-002 -8.25411156e-002
      9.06532444e-003 1.16967326e-002 -4.50604782e-002 -2.28420928e-001
      5.86270355e-002 -2.33982019e-002 -5.22203697e-003 1.85598657e-002
      -2.42475886e-002 1.87793486e-002 -1.19841862e-002 -6.27280073e-003
      9.59399156e-003 -3.40342820e-002 6.18358608e-003 -1.59482716e-003
      1.22504085e-002 1.58056486e-002 8.92699976e-003 2.54206825e-002
      2.60544438e-002 1.42266359e-002 7.78371934e-003 -9.52111278e-003
      -1.73363055e-003 3.21418419e-002 5.58867166e-003 4.11906727e-002
      -4.77860905e-002 -6.08729944e-003 2.18966231e-002 -7.19753606e-003
      -9.63597838e-003 2.57030106e-003 1.13564357e-002 2.04416569e-002
      -3.57381708e-004 6.37979293e-003 4.97257011e-003 2.16538529e-003
      1.50486287e-002 1.48839131e-002 1.50533556e-003 3.85249639e-003
      4.54310654e-003 5.77783678e-003 -4.28062454e-002 7.45877810e-003
      -1.47878483e-001 2.81174202e-002 2.98489295e-002 -2.83514019e-002
      1.16290795e-002 1.07817212e-002 -2.21304540e-002 9.86919831e-003
      -5.36527671e-003 2.74561206e-003 9.88597050e-003 3.80490161e-002
      6.73155021e-003 5.64496545e-003 6.10615499e-003 -7.04009458e-003
      1.25472285e-002 -1.00804418e-001 1.13554494e-002 4.66419430e-003
      -3.18542682e-002 7.57935364e-003 1.85974743e-002 8.33794195e-003
      5.74562326e-003 -5.57758845e-003 7.19447946e-003 -2.82587833e-003
      -1.69073232e-002 6.39965106e-003 -8.13767239e-002 4.97137010e-003
      3.72206909e-003 8.76202341e-003 1.13307554e-002 1.83007307e-002
      1.16438419e-002 2.50629317e-002 7.96936918e-003 7.77313020e-003
      1.93944219e-002 1.98021308e-002 1.11647937e-002 6.09151507e-003
      -7.31163798e-003 1.43383220e-002 2.47572307e-002 -5.04432525e-003
      1.44657558e-002 1.15347151e-002 9.53895133e-003 4.09792364e-003
      1.18028838e-002 1.72737949e-002 -5.06990477e-002 3.71941319e-003
      1.13207642e-002 3.72188934e-003 4.23307391e-003 -1.24592939e-002
      2.75931638e-002 1.51483882e-002 2.51884330e-002 2.57128496e-002
      1.74969845e-002 2.64674099e-003 1.35708451e-002 0. 1.15105417e-002
      3.24462801e-002 6.28310908e-003 1.57302953e-002 2.41087433e-002
      -2.40549824e-004 2.38589533e-002 1.38166463e-002 8.99660494e-003
      6.19905582e-003 1.82263646e-002 1.03011979e-002 7.12769665e-003
      5.68682607e-003 3.58110364e-003 -8.93730149e-002 1.48226777e-002
      9.81156807e-003 3.00823003e-002 -6.07768493e-003 3.55807063e-003
      9.85889696e-003 1.82315311e-003 1.73086151e-002 3.67580615e-002
      3.89757706e-003 1.11193294e-002 1.02828126e-002 3.97678278e-002
      -3.99359800e-002 5.37353568e-003 1.08038727e-002 6.15354814e-003
      1.69829605e-003 1.85736455e-002 -8.07047337e-002 2.13807821e-002
      1.01755802e-002 1.98963024e-002 5.37133031e-003 2.58629136e-002
      1.86896026e-002 -1.67626310e-002 2.26519648e-002 1.05099855e-002
      -3.65825035e-002 -4.42103818e-002 2.79260823e-003 8.39287043e-003
      3.61988544e-002 1.84745900e-002 -1.27408530e-005 1.59805026e-002
      7.08429469e-003 1.80042367e-002 1.44912535e-002 -2.93500368e-002
      -2.85501336e-003 1.92900877e-002 1.87224511e-003 1.87396642e-003
      4.28842194e-002 1.75259598e-002 4.95723682e-004 1.11894794e-002
      2.66584270e-002 1.08457273e-002 -5.88419959e-002 8.75790231e-003
      1.92199007e-003 2.52673458e-002 5.68216247e-003 1.02716908e-002
      1.61719637e-003 2.13040300e-002 2.25424338e-002 1.32101700e-002
      1.41589129e-002 3.28453793e-003 1.39766820e-002 1.03901289e-002
      -2.77825841e-003 1.66266989e-002 -4.36630420e-004 -1.28850508e-002
      1.08469836e-002 -7.57769682e-003 2.26259120e-002 1.02599738e-002
      1.52230728e-002 -1.20508090e-001 2.79014045e-003 -2.34264992e-002
      -4.76277992e-002 1.10051194e-002 7.19498424e-003 -5.04409112e-002
      7.77021050e-003 7.59604794e-004 1.34148421e-002 3.72190773e-003
      1.62213389e-002 -4.95519899e-002 -1.53903306e-001 4.25136462e-003
      1.10992063e-002 1.08629651e-002 7.00321188e-003 9.06538777e-003
      1.02037709e-004 1.63087845e-002 7.25622615e-003 1.33113973e-002
      1.37338918e-002 8.67069140e-003 5.00722462e-003 2.33855154e-002
      -1.68300364e-002 -4.52707894e-003 -4.62513138e-003
      -1.05873346e-001 1.89003740e-002 6.01052353e-003 4.66793263e-003
      1.08805001e-002 -1.12271262e-002 1.93020124e-002 -2.71787588e-003
      1.99049134e-002 -5.31443907e-003 2.34332290e-002 2.03205030e-002
      4.83511295e-003 -1.72596588e-003 6.10023330e-004 3.72194638e-003
      -1.69209309e-003 6.56231912e-003 -3.18973139e-003 1.18752280e-002
      -6.22661132e-003 2.13843938e-002 3.91528104e-003 2.42272150e-002
      2.25852709e-002 6.42493740e-003 -1.08735919e-001 2.70932093e-002
      1.78472381e-002 8.18345230e-003 2.11802144e-002 4.03682282e-003
      7.16515770e-003 8.21059477e-003 1.81475431e-002 5.68317203e-003
      -2.34750682e-003 2.35716812e-002 1.14049390e-002 1.90690160e-003
      -6.51957542e-002 4.59169829e-003 0. 1.11513408e-002
      -2.19818344e-003 6.91054342e-003 1.12397168e-002 4.14059032e-003
      1.38186039e-002 5.95388468e-003 5.28088119e-003 1.16196619e-002
      2.05022115e-002 -2.33560167e-002 -1.00541431e-002 -6.81353584e-002
      1.86569728e-002 -7.69096538e-002 -6.39598519e-002 1.07795754e-002
      1.51028754e-002 -3.50062624e-002 -7.32943590e-004 4.71936585e-003
      7.13336142e-003 2.06605364e-002 1.42712621e-002 1.98269561e-002
      3.41694765e-002 6.96508505e-004 1.90761592e-002 -1.49326146e-001
      3.23604979e-002 1.13971988e-002 -8.15133471e-003 1.18051898e-002
      3.67833935e-002 3.34304897e-003 1.32423388e-002 3.41857411e-002
      2.48230202e-003 -1.50312316e-002 6.15873793e-003 2.01572236e-002
      -1.32354284e-002 2.18320452e-002 1.56726390e-002 -6.57113222e-003
      1.97672122e-003 1.15774618e-002 2.28675008e-002 1.14548625e-002
      -2.51683779e-002 1.41771166e-002 5.03653735e-002 2.30846535e-002
      -7.17808455e-002 4.70143277e-003 5.08612208e-002 3.88068426e-003
      -5.88308424e-002 -6.01495355e-002 5.47807105e-003 1.20254920e-003
      1.48063600e-002 1.17733683e-002 8.38535372e-003 1.35650001e-002
      5.84415579e-003 -5.58880381e-002 -1.28362387e-001 7.56822387e-003
      2.59685069e-002 9.05872509e-003 1.09113837e-002 1.10412426e-002
      2.29047108e-002 -1.40099954e-002 1.71280168e-002 -1.77015015e-003
      -5.64384134e-003 3.98297496e-002 8.54739826e-003 4.30684397e-003
      1.37208104e-002 2.05745678e-002 1.23559171e-002 7.21899141e-003
      4.14035656e-003 1.29760467e-002 -7.21230591e-003 1.18405605e-002
      2.62918733e-002 1.78085845e-002 1.40644028e-004 1.28802825e-002
      3.49047990e-003 1.50407301e-002 3.30706649e-002 1.00987200e-002
      -1.11920582e-002 -3.14679220e-002 1.49691980e-002 4.90256585e-004
      1.56264566e-002 -4.24500443e-002 -6.40377961e-003 1.62803233e-002
      3.43461595e-002 -7.48964697e-002 7.21938023e-003 -8.59458596e-002
      4.84602340e-003 -2.21171938e-002 -2.58842800e-002 7.34106544e-003
      2.14166120e-002 6.79876190e-003 5.43276453e-003 3.25917103e-003
      6.14533061e-003 1.07763931e-002 3.48725729e-003 -6.29510432e-002
      -7.72701763e-003 1.26501648e-002 7.69043248e-003 3.54411569e-003
      1.49668916e-003 -3.42464703e-003 -2.91632470e-002 1.21249566e-002
      3.36680673e-002 -1.02326363e-001 9.94266011e-003 -7.70486705e-003
      2.60672830e-002 3.96566186e-003 3.03340685e-002 -3.06204073e-002
      -4.89839411e-004 1.22771943e-002 7.87827279e-003 1.48110474e-002
      7.98593834e-003 3.17887664e-002 1.25130760e-002 -1.77048543e-003
      1.59533992e-002 7.68891256e-003 1.85664576e-002 5.33569884e-003
      2.25552693e-002 1.80728454e-002 5.07974438e-003 1.67361163e-002
      1.11271543e-002 -2.70860121e-002 2.07664841e-003 4.67226980e-003
      -3.67002375e-003 6.96570938e-003 1.34423831e-002 1.40728140e-002
      1.08030271e-002 1.57443229e-002 9.39377490e-003 1.38709489e-002
      -1.46834869e-002 6.01629820e-003 1.37308268e-002 8.89482256e-003
      1.19213173e-002 -1.04868785e-002 6.03949232e-003 1.06452443e-002
      1.79449581e-002 3.14484560e-003 -1.18963234e-002 6.89160358e-003
      2.32031476e-002 1.65859796e-002 9.21669416e-003 -4.55237888e-002
      3.70480940e-002 -6.89832913e-003 7.62929767e-003 3.72165674e-003
      -5.80129288e-002 1.02029480e-004 6.95376145e-003 6.99798204e-003
      2.53447797e-003 1.91982705e-002 -7.74959708e-003 3.04678269e-003
      1.33044831e-002 -7.69125596e-002 -4.82633449e-002 4.86427657e-002
      -7.54453540e-002 1.89939458e-002 5.76239172e-003 2.79235630e-003
      1.19737606e-003 1.15513057e-002 3.86089529e-003 -7.00280024e-003
      3.29708564e-003 -7.85952620e-003 1.20533183e-002 -1.17523625e-001
      1.27948634e-002 1.24656986e-002 -6.27291799e-002 -5.54383136e-002
      1.20003643e-002 3.71676427e-003 1.10475142e-002 1.94265274e-003
      3.48721235e-003 2.15756204e-002 6.57500746e-003 1.39949257e-002
      -5.28437980e-002 3.80544574e-003 1.58842225e-002 -5.93176670e-002
      -8.88118637e-004 3.48741701e-003 1.42346630e-002 1.83277093e-002
      -2.06065252e-002 -1.02063101e-002 3.72196478e-003 3.97388916e-003
      3.72226443e-003 7.45350402e-003 1.13107096e-002 -7.26184919e-002
      1.18718781e-002 7.52893137e-003 -3.56052779e-002 1.30846780e-002
      2.99137086e-002 9.83154215e-003 6.80535799e-003 1.75328478e-002
      -7.00538903e-002 6.86974172e-003 1.30088283e-002 -7.49625405e-003
      8.15449283e-003 -2.46797875e-002 8.96247383e-003 2.16947679e-004
      -1.29870838e-002 1.88891944e-002 3.45644094e-002 -5.47743589e-003
      3.47328149e-002 2.12056022e-002 4.59167687e-003 4.08825614e-002
      -6.08701073e-002 1.16644502e-002 9.65284090e-003 3.75086162e-003
      1.53247649e-002 -8.31708219e-003 5.37453732e-003 4.43902379e-003
      1.18814781e-002 -9.08863693e-002 1.39856180e-002 1.01931980e-002
      7.91938044e-003 2.83831730e-003 2.43441369e-002 1.78957582e-002
      3.70220211e-003 -2.60901209e-002 5.22080343e-003 1.53728286e-002
      3.59869120e-003 3.56285530e-003 1.23762880e-002 4.30619996e-003
      1.61972381e-002 3.03708147e-002 3.20694933e-004 1.22855315e-002
      1.11359023e-002 1.83878839e-002 8.51677381e-004 -4.19699354e-003
      4.30553546e-003 5.84284775e-003 -6.49596006e-002 4.05593310e-003
      1.23657724e-002 1.41887506e-002 1.51186278e-002 -3.56728807e-002
      6.57477137e-003 2.90092709e-003 -5.49720749e-002 1.34043945e-002
      2.59759054e-002 5.57780685e-003 -8.35765377e-002 1.07780062e-002
      -6.35151267e-002 0. -4.77009639e-002 1.57863181e-002
      1.39020225e-002 1.70375742e-002 2.47809421e-002 7.02418562e-004
      2.19786819e-002 3.59182246e-004 -7.40317814e-003 2.78711952e-002
      1.24549195e-002 2.40553799e-003 3.10866116e-003 -5.90593787e-003
      4.30556061e-003 6.64409902e-003 1.06529901e-002 -4.47323397e-002
      7.37526547e-003 1.38757704e-002 1.78942073e-003 9.88663919e-003
      3.31383548e-003 1.40084149e-002 4.18248028e-003 1.17614055e-002
      4.60173097e-003 1.20976297e-002 -1.15618475e-001 -1.28842145e-001
      -5.12116179e-002 4.10550134e-003 4.18361537e-002 -1.96197466e-003
      7.20615918e-003 -2.76713241e-002 5.73179079e-003 1.03022587e-002
      5.78045100e-003 3.84058021e-002 2.02133153e-002 7.17598805e-003
      2.80283135e-003 6.32283511e-003 -6.23764209e-002 -2.70863138e-002
      3.48576121e-002 -8.72036442e-002 3.72149353e-003 9.06215794e-003
      -3.77023853e-002 9.86357220e-003 9.14440583e-003 9.99399833e-003
      6.84659136e-003 1.38717955e-002 -8.79609808e-002 6.18215557e-003
      1.20774340e-002 4.56272624e-003 5.99370850e-003 3.96621646e-003
      3.12490948e-003 2.20316779e-002 -2.97198892e-002 -2.31383485e-003
      1.05235437e-002 -7.11998269e-002 1.18195750e-002 5.81898354e-003
      4.30564675e-003 1.50950281e-002 -5.54683385e-003 3.72177642e-003
      5.03439980e-004 1.18399542e-002 1.22999810e-002 1.94725860e-002
      -1.29087763e-002 1.42738614e-002 1.07380124e-002 -8.90036151e-002
      3.12418770e-002 6.58812607e-003 -2.96805659e-003 1.09930951e-002
      8.78492836e-003 1.34905800e-002 -1.38531970e-002 9.99282580e-003
      7.33291497e-003 -2.37197224e-002 -3.67683880e-002 3.18646035e-003
      6.63944799e-003 1.55101763e-002 2.90060858e-003 1.90466887e-003
      1.13169039e-002 1.63607914e-002 9.97596141e-003 -9.91425943e-004
      3.13661032e-004 -1.63759533e-002 1.69721562e-002 2.77882479e-002
      5.41890878e-003 2.13656723e-002 1.12992655e-002 2.58315187e-002
      2.30296142e-002 -1.40287697e-001 9.82239563e-003 9.23617044e-004
      3.02376063e-003 1.39205838e-002 1.69957280e-002 -4.06380650e-003
      3.74065177e-003 8.11881293e-003 7.90973194e-003 1.91517249e-002
      2.00144276e-002 -1.29361302e-002 1.43318893e-002 3.71793727e-003
      7.20585464e-003 1.81750482e-004 2.24698745e-002 7.13712350e-003
      -2.56241020e-002 2.93178367e-003 4.30565560e-003 1.24040926e-002
      1.43688535e-002 3.74674541e-003 4.77569411e-003 1.20250881e-002
      -1.18974354e-002 5.59718581e-003 4.35292255e-003 9.34483204e-003
      9.17244330e-003 -3.02843321e-002 -1.52056264e-002 7.18372129e-003
      1.53260045e-002 1.06376195e-002 3.49833095e-003 -1.57869253e-002
      1.70977339e-002 5.79381827e-003 8.82753264e-003 -2.65114737e-004
      1.36638948e-004 1.34782698e-002 -6.01384044e-003 1.16203278e-002
      -3.37671489e-002 5.43323951e-003 6.85577141e-003 4.59227804e-003
      1.37903318e-002 2.50547770e-002 1.74441505e-002 -1.03606880e-002
      9.64715425e-003 3.28455232e-002 1.02199288e-002 -4.96260561e-002
      3.96589143e-003 1.54273049e-003 6.84695691e-003 -5.39264530e-002
      2.14730036e-002 1.27740484e-002 1.21581042e-002 2.40760911e-002
      3.71855195e-003 1.98391397e-002 9.99385677e-003 2.05779411e-002
      -9.47975069e-002 2.19436618e-003 -1.38474116e-003 1.12873083e-002
      1.02638286e-002 -6.38348341e-004 8.33124295e-003 3.73467512e-004
      1.24638919e-002 9.16970987e-003 -3.62510569e-002 1.99174061e-002
      1.41862407e-002 1.30448081e-002 3.74005479e-003 7.05527980e-003
      1.37378192e-002 1.49318762e-002 8.45307484e-003 5.36176562e-003
      4.49429313e-003 6.17340161e-003 -2.41313521e-002 7.81582296e-003
      -9.53815281e-002 1.77665763e-002 -9.10526887e-003 -3.24745178e-002
      6.32358133e-004 -4.30038497e-002 1.46136535e-002 1.01544280e-002
      4.44548903e-003 -4.70851809e-002 5.09120477e-003 6.08999608e-003
      1.18667856e-002 -6.44849893e-003 5.23897866e-003 -1.40267555e-004
      2.19135918e-003 2.31333710e-002 -9.53551475e-003 1.56881083e-002
      8.23205616e-003 1.69221833e-002 4.69567534e-003 5.92429005e-003
      -1.53506445e-002 9.65821557e-003 2.67873611e-003 -6.01468794e-002
      -8.45503435e-003 1.24040414e-002 7.21916137e-003 1.46498326e-002
      1.79939736e-002 1.46160116e-002 1.04285190e-002 3.48692550e-003
      8.90669692e-003 -1.80801023e-002 -1.36700533e-002 -3.36727384e-003
      -1.58504397e-002 9.84341279e-003 4.69864550e-004 -1.52483378e-002
      1.28364945e-002 3.51660256e-003 7.77867064e-003 -8.32986832e-003
      1.70056820e-002 1.06176296e-002 1.74119752e-002 -2.38028308e-003</_></support_vectors>
  <decision_functions>
    <_>
      <sv_count>1</sv_count>
      <rho>-9.9428053570705199e-001</rho>
      <alpha>
        1.</alpha>
      <index>
        0</index></_></decision_functions></my_svm>
</opencv_storage>
