<?xml version="1.0"?>
<opencv_storage>
<my_svm type_id="opencv-ml-svm">
  <svm_type>C_SVC</svm_type>
  <kernel><type>LINEAR</type></kernel>
  <C>1.</C>
  <term_criteria><epsilon>2.2204460492503131e-016</epsilon>
    <iterations>1000</iterations></term_criteria>
  <var_all>1000</var_all>
  <var_count>1000</var_count>
  <class_count>2</class_count>
  <class_labels type_id="opencv-matrix">
    <rows>1</rows>
    <cols>2</cols>
    <dt>i</dt>
    <data>
      -1 1</data></class_labels>
  <sv_total>1</sv_total>
  <support_vectors>
    <_>
      3.94595228e-003 3.88255063e-003 2.31288448e-002 -1.18408119e-002
      -1.55389146e-003 2.78400201e-002 1.90035207e-003 -2.83923838e-003
      -3.24791335e-002 -6.48071757e-003 1.71710886e-002 -3.01231956e-003
      9.18766670e-003 7.50928652e-003 7.69836421e-004 8.85192771e-004
      -2.19553653e-002 2.00207010e-002 -2.77281255e-002 5.47238113e-003
      -1.00098019e-002 1.31845511e-002 8.90653767e-003 -2.29888433e-003
      -2.63981707e-002 -4.82014380e-002 4.02609482e-002 9.51053761e-003
      -1.36724091e-004 4.02421923e-003 -1.09839877e-002 -1.02877161e-002
      -3.89919244e-003 1.58685781e-002 4.24817810e-003 4.30237735e-003
      3.21547017e-002 2.30147708e-002 1.78858201e-004 2.68230867e-002
      8.05186282e-004 -2.12625302e-002 -5.91652431e-002 8.32257699e-003
      -3.06261610e-002 3.26429307e-002 2.51443144e-002 -2.71090725e-003
      3.77042498e-003 2.13361345e-002 1.79646146e-002 -1.40618347e-003
      8.79013818e-003 8.58285371e-003 1.07811512e-002 9.23752785e-003
      5.38355205e-003 -1.22877443e-002 1.90106570e-003 1.37351714e-002
      -8.76585115e-003 2.83806049e-003 4.80453344e-003 8.22320487e-003
      -1.09612178e-002 1.09331002e-002 1.81414969e-002 -4.34829369e-002
      1.41788693e-003 -2.55871303e-002 2.50288155e-002 1.18984943e-002
      1.49777532e-002 4.35657054e-002 9.91906505e-003 2.12009624e-002
      -4.32386138e-002 -1.60690453e-002 1.09547460e-002 7.30567286e-003
      1.04395160e-002 0. 1.37249306e-002 1.71436965e-002 7.89182785e-004
      -5.15964394e-003 3.69516276e-002 2.04078555e-002 -2.27393024e-003
      2.23256368e-002 9.76213778e-004 -1.92280337e-002 1.09467609e-002
      -1.03282621e-002 -2.50561791e-003 2.16090251e-002 -5.09139933e-002
      -3.29312757e-002 6.98463572e-003 1.05370842e-002 2.30449112e-003
      1.93513017e-002 8.96592159e-003 1.06356032e-002 1.91172156e-002
      -1.66547541e-002 1.05963480e-002 -5.47644915e-003 9.11575928e-003
      2.35699248e-002 2.38704961e-002 1.44870020e-002 -1.82290751e-004
      4.30467771e-003 1.84111744e-002 8.84026010e-003 7.24624202e-004
      -5.88423572e-002 1.69310346e-002 -2.17954013e-002 1.07785892e-002
      1.19411517e-002 7.18175014e-003 2.19890997e-002 -2.25807237e-003
      1.39186792e-002 5.32852719e-003 7.53385294e-003 3.06383800e-003
      9.36913490e-003 3.69265326e-003 1.47210760e-002 3.15135233e-002
      1.03155160e-002 1.13394028e-002 1.51027478e-002 2.48731696e-003
      1.54914660e-002 2.38032434e-002 6.61214255e-003 1.39732892e-002
      7.48344511e-003 -4.77140956e-002 8.38701893e-003 -3.78200933e-002
      1.53944492e-002 1.03158364e-003 -4.24959324e-002 7.47216772e-003
      2.61300821e-002 1.74442679e-002 -2.28945701e-003 1.19392313e-002
      1.91812646e-002 1.11589143e-002 1.35540636e-002 9.34278686e-003
      7.68948486e-003 1.49479071e-002 -1.13399848e-002 8.21086019e-003
      2.41302680e-002 2.16888748e-002 -9.02964082e-003 -4.67391126e-003
      -4.74486686e-002 2.00699475e-002 1.85688362e-002 5.74140018e-003
      1.68512594e-002 1.86616480e-002 9.28887282e-004 -2.21625846e-002
      2.79424731e-002 6.98896544e-003 -1.63725149e-002 1.93594787e-002
      1.33011872e-002 -4.06161025e-002 -2.33447347e-002 1.10272772e-003
      -2.24943925e-002 -4.05106135e-003 -9.39994410e-004 1.54538257e-002
      9.01195966e-003 8.34229228e-004 2.57085841e-002 -7.20406137e-003
      6.07273774e-003 -6.03910498e-002 1.61563549e-002 -1.74069200e-002
      9.38042440e-003 -1.38753559e-002 1.91851184e-002 4.87204781e-003
      -8.04385811e-004 -4.68934625e-002 -1.40630314e-003
      -2.35129427e-003 -6.22702530e-003 1.40811522e-002 -6.96981996e-002
      -9.12030373e-005 2.26919763e-002 -1.58415940e-002 1.21108480e-002
      -8.40107799e-002 -1.03531289e-003 1.05533702e-002 2.69168173e-003
      1.09371850e-002 1.03804776e-002 1.32782832e-002 5.07943705e-003
      2.34332178e-002 -1.11452779e-002 -4.54548113e-002 1.56753499e-003
      -1.46267638e-002 -2.87133059e-003 3.75390728e-003 8.02005921e-003
      4.25772788e-003 -9.91301890e-003 -1.32638318e-002 9.44786146e-003
      5.34426048e-003 5.21811005e-003 1.63305248e-003 4.05074097e-002
      -8.25939775e-002 8.28566309e-003 2.29578093e-003 1.57698784e-002
      -7.43949728e-004 1.24636898e-002 -3.70182493e-003 -1.43822562e-002
      1.49469066e-003 8.38936493e-003 1.60072558e-002 3.49700940e-003
      7.87185319e-003 2.14899816e-002 1.07872682e-002 2.52748597e-002
      5.60247898e-003 5.92182670e-003 -9.23749059e-002 2.07834747e-002
      6.78146817e-003 -3.28238942e-002 5.82917221e-003 3.10132909e-003
      1.43398056e-002 9.27213393e-003 1.48894014e-002 1.99374557e-002
      4.19009998e-002 -1.79103035e-002 -2.66114157e-002 -1.26956162e-004
      1.00301672e-002 9.66493320e-003 9.29014850e-003 -1.18747714e-003
      5.82654262e-003 1.24769844e-002 1.67603083e-002 -6.30560471e-003
      -3.87744717e-002 1.06289415e-002 -1.91887058e-002 9.20022279e-003
      1.05623221e-002 -1.34597281e-002 3.18492651e-002 -3.86606008e-002
      1.97620876e-003 -5.81086194e-003 1.48645910e-002 7.39486562e-003
      -5.40840579e-003 1.21143833e-002 -1.10126482e-002 1.90242007e-002
      1.08802663e-002 1.20514268e-002 8.78396351e-003 1.75910983e-002
      1.53262429e-002 3.45024420e-003 -1.07655963e-002 1.12357074e-002
      -8.15667678e-003 3.23492102e-003 -2.52136979e-002 2.33024056e-003
      1.29390294e-002 -2.59508882e-002 7.68311415e-003 -3.07861026e-002
      -2.37815827e-002 5.12125017e-003 -2.00817902e-002 8.55560973e-003
      -2.22220961e-002 -4.56326827e-002 1.59111060e-002 6.19604019e-003
      8.03646911e-003 2.32077856e-003 8.16240720e-003 2.97573153e-002
      8.66947137e-003 -3.32240164e-002 1.03623504e-002 -1.10673979e-002
      -1.19230489e-003 1.60431396e-002 6.89018937e-003 4.47207037e-003
      8.15625582e-003 6.93673640e-003 3.80627834e-003 1.77565347e-002
      -5.35669085e-003 -1.35446014e-002 3.44654396e-002 -3.54652293e-002
      7.36451009e-003 1.00881299e-002 6.47781091e-003 2.54117399e-002
      6.44394150e-003 -4.14313609e-003 2.95490562e-003 -3.65274353e-003
      -2.53886916e-002 5.12418104e-003 -2.10422873e-002 0.
      -2.03334354e-003 5.39066677e-004 1.76170375e-002 -1.32630141e-002
      1.08609069e-002 -1.05205793e-002 -4.26884852e-002 -4.72486801e-002
      -8.02075607e-004 1.63565890e-003 5.38702402e-003 2.15007318e-003
      4.85986564e-003 -5.93198882e-003 3.03118918e-002 -1.58748925e-002
      5.13438089e-003 5.67034399e-003 -3.32991928e-002 6.61619892e-003
      -4.44496349e-002 3.61385047e-002 -2.72424635e-003 8.03378690e-003
      1.08958120e-002 1.12219173e-002 9.32585821e-003 1.81041621e-002
      2.82942434e-003 0. 3.01370732e-002 -5.56440726e-002
      2.80649178e-002 -1.67052206e-002 2.24151667e-002 7.27478322e-003
      3.52139492e-003 1.27285980e-002 -1.06586725e-001 2.12254003e-003
      -9.56654549e-002 1.04942787e-002 -2.23376900e-002 1.26076192e-002
      6.35513978e-004 5.43884933e-004 4.83837351e-003 9.53917298e-003
      1.59312263e-002 7.53675774e-003 -3.51984948e-002 -1.01835756e-002
      1.48683283e-002 6.49491232e-003 2.74223387e-002 1.02403353e-003 0.
      1.30490623e-002 -5.28715085e-003 -1.15273697e-002 -3.32331425e-003
      9.94930137e-003 1.06083369e-002 -1.52705004e-002 1.45339435e-002
      6.05617091e-003 5.90086915e-004 -2.45981459e-002 7.74698332e-003
      1.37088136e-004 7.08844140e-003 3.31803225e-002 1.22068785e-002
      4.30792483e-004 2.62261704e-002 1.48820011e-002 -2.16478179e-003
      8.26659333e-003 1.86036061e-002 -4.22884291e-003 8.36992171e-003
      5.99183096e-003 3.04424111e-003 2.19803536e-003 5.07630408e-004
      -8.22705682e-003 8.80965497e-003 -2.96778418e-003 1.73969716e-002
      9.58240405e-003 -7.14400457e-003 2.39441618e-002 3.43369395e-002
      -4.37427266e-003 -5.29295951e-002 1.51813189e-002 5.11294417e-003
      -2.85545141e-002 1.00295004e-002 1.41505003e-002 1.73821917e-003
      -4.11925372e-003 -3.60132456e-002 7.58953951e-003 -8.90994538e-003
      7.80558633e-003 1.59031525e-002 -6.64058998e-002 1.12379324e-002
      3.00232731e-002 7.04913400e-004 -8.56835581e-003 7.89816026e-003
      -3.18571366e-003 4.36381204e-003 1.24843847e-002 2.82949698e-003
      5.43397712e-003 -3.81961768e-003 -2.61651762e-002 2.15100180e-002
      5.87415742e-003 8.68569873e-003 -9.27673280e-003 1.16668660e-002
      5.51257329e-003 1.73644293e-002 2.97316583e-003 0. 3.63892084e-003
      7.27397436e-003 -3.02084591e-002 -3.01461518e-002 -8.19231644e-002
      -2.83536892e-002 3.56890634e-003 -2.09891070e-002 -1.79702248e-002
      -2.22155880e-002 1.92074606e-003 -1.25817023e-002 2.01605204e-002
      -5.30700944e-002 -8.30614939e-003 3.13267112e-002 2.25893059e-003
      -3.60272564e-002 1.01537714e-002 5.08156326e-003 -4.02463377e-002
      1.07650284e-003 1.74427368e-002 -1.03694431e-001 4.47034882e-003
      0. 0. 3.16714030e-003 2.82951305e-003 8.19837674e-003
      4.11704592e-002 -5.37180603e-002 1.50310880e-004 -1.15311384e-001
      1.03027010e-002 6.89243665e-003 2.56417841e-002 -2.08177231e-002
      3.67065682e-003 5.42023219e-004 1.49116833e-002 9.30027012e-003
      4.11360757e-003 -3.03047448e-002 1.04305493e-002 -2.31989747e-004
      1.96361896e-002 2.48749129e-004 -3.04523315e-002 3.97630211e-005
      -4.73783128e-002 5.55431761e-004 0. 2.72053736e-003
      1.74769722e-002 2.60872599e-002 9.56278201e-003 -1.42993790e-003
      8.05054512e-003 -2.04596203e-002 1.43519901e-002 2.51023956e-002
      4.20697872e-003 2.23016441e-002 1.77434098e-003 -3.45287882e-002
      -1.76788587e-002 -3.81558714e-003 5.00759762e-003 2.03755256e-002
      -2.98964372e-003 -4.71768416e-002 4.45436686e-003 8.81942920e-003
      2.99089830e-002 -1.63821559e-002 -7.55916983e-002 4.98525938e-003
      1.45213492e-002 3.08811851e-002 2.56288657e-003 2.86257686e-003
      1.17154820e-002 5.63686294e-003 -3.59427594e-002 -1.45788938e-002
      2.14537233e-002 -3.31012229e-003 1.13561610e-002 5.56830270e-003
      1.11419102e-002 2.38363091e-002 1.81936678e-002 5.37803117e-003
      1.81895215e-002 -2.88268495e-002 -1.70676503e-002 -2.24818103e-003
      5.33154234e-003 7.74528459e-003 -6.91579422e-004 -6.52357703e-004
      7.88734388e-003 8.02676566e-003 5.43439994e-003 -1.91031601e-002
      -6.10562637e-002 1.68776140e-003 1.51155342e-003 1.74346641e-002
      -2.00789124e-002 -9.60309617e-003 -2.13897917e-002
      -4.38390374e-002 6.53157523e-003 6.84473617e-003 9.96888336e-003
      -3.06849740e-002 1.60214193e-002 -1.21914772e-002 -1.35334935e-002
      1.35932048e-003 -2.94017810e-002 1.26535809e-002 -1.42478701e-002
      5.37327258e-003 4.65766620e-003 -9.16658493e-004 -2.19755881e-002
      2.44458951e-002 5.34770312e-003 1.33854225e-002 2.99091451e-002
      6.54815091e-003 1.30928122e-002 9.70956776e-003 1.46602606e-002
      -1.23907672e-002 -3.13634276e-002 -8.47287010e-003 2.43346542e-002
      -1.74707413e-004 3.71511318e-002 4.22069104e-003 9.41054255e-004
      5.66879520e-003 4.37908946e-003 1.35408239e-002 4.89525078e-003
      9.75339208e-003 1.48286223e-002 1.44509478e-002 1.06661748e-002
      2.58721039e-002 9.47565399e-003 1.88521890e-003 1.23654529e-002
      9.11193620e-003 2.18693614e-002 8.67772289e-003 7.61407241e-003
      1.38844671e-002 1.36698028e-002 9.45641752e-003 0. 1.10002439e-002
      2.13607363e-002 3.88232409e-003 6.65999716e-003 8.80109984e-003
      -1.20362500e-002 1.81286447e-002 5.16456785e-005 7.69283436e-003
      1.39802517e-002 1.16832824e-002 1.43253151e-002 -2.03023423e-002
      -6.14354461e-002 -4.56115752e-002 -5.01523502e-002 6.38016127e-003
      1.93500686e-002 6.63436763e-003 3.35685126e-002 -3.57498461e-003
      2.61899084e-003 4.94664023e-003 5.92607725e-003 0. 7.84963463e-003
      9.33186710e-003 1.18317194e-002 3.51193659e-002 1.75941885e-002
      -1.10789917e-001 1.21658165e-002 9.81989224e-003 -2.96584014e-002
      1.24807674e-002 7.37172319e-003 -4.87737125e-003 -4.85972036e-003
      2.01076288e-002 1.27634348e-003 2.16751895e-003 5.55397151e-003
      -4.24798951e-003 9.09187738e-003 -2.12920690e-003 -4.24612826e-003
      9.25107021e-003 -5.82622290e-002 -1.70933194e-002 3.29480995e-003
      5.77707449e-003 2.82961153e-003 7.74384616e-003 6.52165385e-003
      2.28017243e-003 7.90842809e-003 9.44165327e-003 -1.61658484e-003
      -2.55286638e-002 -2.42258538e-003 1.03456918e-002 -5.28834341e-003
      1.39983967e-002 7.53257843e-003 2.34348307e-004 5.67024527e-003
      1.05747785e-002 1.20749241e-002 3.60636436e-003 1.09620281e-002
      1.41253080e-002 -1.72314085e-002 -5.07924939e-003 1.05994884e-002
      -3.03789880e-002 -2.37520412e-002 -1.37689458e-002
      -1.17239021e-002 7.64816860e-003 -3.22264731e-002 -3.78213311e-003
      6.93499483e-003 9.57176380e-004 5.46658295e-004 3.74332862e-003
      -6.15692977e-003 2.82713976e-002 7.33712548e-003 2.00236333e-003
      -1.73801500e-002 -8.88965186e-003 3.77824046e-002 6.46691164e-003
      1.36334531e-003 1.30592869e-003 1.63382047e-003 5.94797661e-004
      -1.16995284e-002 -9.13312752e-003 5.63606061e-003 2.81617814e-003
      3.45228687e-002 -1.15868077e-002 -2.50907335e-002 -6.03306703e-002
      4.89231525e-003 6.65566232e-003 2.80818474e-002 -2.77731083e-002
      7.53102358e-004 1.91070810e-002 7.04980502e-003 -1.15293562e-002
      3.25216446e-004 -1.65834110e-002 -6.04282282e-002 1.22974860e-002
      1.53833311e-002 -3.12472638e-002 0. 2.06245598e-003
      1.29353479e-002 -1.95295853e-003 -5.31004705e-002 9.86499526e-003
      3.29038613e-002 -6.18306473e-002 1.03073670e-002 1.63855255e-002
      -1.38591668e-002 5.42600034e-003 -4.26236391e-002 2.38403585e-003
      1.91587470e-002 2.34628445e-003 1.68160498e-002 1.43615557e-002
      -2.30815983e-003 6.90739229e-003 9.14380047e-003 5.48212696e-003
      -1.98099967e-002 -5.32840863e-002 -3.09001636e-002
      -1.00326575e-002 1.05753597e-002 4.97759040e-003 -2.26113759e-003
      -1.72238313e-002 1.37392264e-002 1.73089840e-002 -9.19930339e-002
      6.32944237e-003 -1.00757889e-002 9.23967920e-003 8.80789757e-003
      7.52748630e-004 -1.26158176e-002 2.58110203e-002 1.13604888e-002
      1.15538843e-003 1.02577470e-002 1.55198611e-002 8.51232465e-003
      1.84115246e-002 -1.60381552e-002 3.89374746e-003 1.81510653e-002
      -9.76958685e-003 8.77286494e-003 -9.63856559e-003 -8.61066114e-003
      -2.66296677e-002 2.57273926e-003 2.13865098e-002 -5.92585793e-003
      4.90675634e-003 1.57662779e-002 5.68228122e-003 3.08041973e-003
      -1.57301668e-002 1.16159152e-002 4.28891648e-003 1.13256706e-003
      -2.04147398e-002 3.97720607e-003 2.14038696e-002 6.80234516e-003
      4.02112268e-002 1.79539509e-002 5.95578505e-003 -1.36493400e-001
      2.14251019e-002 1.77193359e-002 -2.11726334e-002 1.71712115e-002
      1.11424280e-002 1.05255377e-002 -8.43091123e-003 9.92651004e-003
      4.19533998e-003 -1.79692433e-004 -3.51106301e-002 -1.80924195e-003
      -4.04018871e-002 7.16593303e-003 2.57625468e-002 5.52004785e-004
      -3.24925967e-002 1.54134668e-002 1.19764209e-002 -5.49061783e-002
      7.18267821e-003 5.44232270e-003 3.99695802e-003 1.54855279e-002
      2.01570848e-003 -2.64956541e-002 -9.82680358e-004 4.63244412e-003
      0. 2.49780482e-003 4.06292686e-003 -2.52648909e-002
      -2.47499198e-002 9.42330994e-003 3.85476602e-003 8.49022437e-003
      -5.69057418e-003 2.92004272e-002 2.48073135e-002 2.33004941e-003
      -8.35803896e-003 -4.77370173e-002 3.33961635e-003 2.93474421e-002
      8.68871249e-003 -2.31686584e-003 1.81583501e-002 9.35689081e-003
      -1.63194351e-002 8.14607926e-003 -2.59442255e-003 -1.17748873e-002
      4.47886288e-002 1.10488273e-002 3.01793031e-003 6.83076354e-003
      4.54463949e-003 -3.74154304e-003 -1.15719279e-002 -1.65571533e-002
      9.30541381e-003 -5.76708885e-003 -3.21439356e-002 7.22957822e-003
      1.58399493e-002 1.67136802e-003 1.01206833e-002 2.13759542e-002
      5.52065962e-004 -1.38638606e-002 -1.91857282e-003 1.02845663e-002
      1.89795308e-002 2.10738450e-004 -8.15989543e-003 0.
      2.00173501e-002 1.12705799e-002 1.02484049e-002 3.17041297e-003
      -7.74276536e-003 -2.18459982e-002 9.49480757e-003 2.82956334e-003
      1.68450121e-002 1.00769419e-002 1.06331203e-002 1.75370164e-002
      7.44893681e-003 1.65593531e-003 9.33896401e-004 -1.17211845e-002
      7.15864496e-003 1.67036392e-002 -4.61949082e-003 5.94170066e-004
      9.13865492e-003 1.48714352e-002 -6.36784593e-003 -1.89693552e-002
      -3.92054766e-002 -5.94650768e-002 -7.09862541e-003
      -9.47470032e-003 4.19191131e-003 -3.74567462e-003 8.62443633e-003
      4.52803075e-003 1.64974686e-002 1.26553187e-003 -9.22923815e-003
      -5.55221504e-003 -6.89267181e-003 -2.52192151e-002 4.98524727e-003
      1.31618567e-002 5.40899951e-003 7.38624111e-003 3.59561434e-003
      -3.67450761e-003 3.60799837e-003 -2.84845452e-003 -4.96390015e-002
      -1.10917510e-002 -1.42853716e-002 7.59931887e-003 1.12212840e-002
      9.27958544e-003 5.23264520e-003 6.10506209e-003 -6.24147570e-003
      2.81825406e-003 3.67385964e-003 -4.81711328e-002 5.23773674e-003
      -5.10957837e-002 -1.37070045e-002 6.81991037e-003 -1.49994437e-002
      5.60470251e-003 -2.57518440e-002 2.69181691e-002 1.62589084e-002
      9.27227456e-003 1.25097518e-003 7.39575829e-003 5.80192264e-003
      1.81135684e-002 1.79230720e-002 1.69156643e-003 -4.17532474e-002
      8.68285354e-003 9.31118894e-003 1.03633758e-002 -1.28679881e-002
      -1.50741567e-003 -9.10477862e-002 4.52545937e-003 1.08511169e-002
      1.14177261e-002 1.26306666e-002 1.21486522e-002 9.04305186e-003
      -1.10207638e-003 -2.89011747e-003 7.53331371e-003 2.28661820e-002
      2.33814716e-002 4.23443085e-003 2.45238580e-002</_></support_vectors>
  <decision_functions>
    <_>
      <sv_count>1</sv_count>
      <rho>-9.9717520749969846e-001</rho>
      <alpha>
        1.</alpha>
      <index>
        0</index></_></decision_functions></my_svm>
</opencv_storage>
