<?xml version="1.0"?>
<opencv_storage>
<my_svm type_id="opencv-ml-svm">
  <svm_type>C_SVC</svm_type>
  <kernel><type>LINEAR</type></kernel>
  <C>1.</C>
  <term_criteria><epsilon>2.2204460492503131e-016</epsilon>
    <iterations>1000</iterations></term_criteria>
  <var_all>1000</var_all>
  <var_count>1000</var_count>
  <class_count>2</class_count>
  <class_labels type_id="opencv-matrix">
    <rows>1</rows>
    <cols>2</cols>
    <dt>i</dt>
    <data>
      -1 1</data></class_labels>
  <sv_total>1</sv_total>
  <support_vectors>
    <_>
      1.81495678e-002 2.23109182e-002 4.21435907e-002 3.46835032e-002
      8.99328012e-003 2.58756820e-002 9.99678764e-003 -4.26488221e-002
      3.72131057e-002 1.97348762e-002 -2.29992494e-002 -2.46981308e-002
      3.35368025e-003 2.42341496e-003 -6.25897795e-002 1.25193940e-002
      -4.87769283e-002 1.79001149e-002 7.44067132e-003 -4.61687893e-003
      1.80062372e-002 4.55896137e-003 2.23520268e-002 -1.43652968e-002
      -3.23318951e-002 -1.75580308e-002 8.65442213e-003 -4.70792130e-002
      -6.02405379e-003 -2.22869143e-002 -3.21446136e-002 3.56434323e-002
      3.73244584e-002 2.51770355e-002 -1.04168981e-001 -1.05526503e-002
      1.72836762e-002 2.82063824e-003 -6.72968710e-003 -5.04991151e-002
      2.55315378e-002 -1.33550791e-002 -1.03641041e-002 1.66720394e-002
      1.63290761e-002 1.70283597e-002 -4.51083034e-002 8.27332493e-003
      5.09190932e-003 1.20321885e-002 -5.33945300e-002 3.40233296e-002
      -2.13063229e-002 6.12416156e-002 -2.98479442e-002 2.94264089e-002
      2.80458629e-002 2.88266335e-002 -1.55556924e-003 -9.03086271e-003
      4.79788845e-003 -1.29722850e-002 -2.63998155e-002 -6.97046285e-003
      2.03647017e-002 2.77196784e-002 -7.79123381e-002 1.31016038e-002
      1.82412099e-002 3.70068178e-002 -5.57121336e-002 4.41258354e-003
      3.41978786e-003 3.03867664e-002 1.52664268e-002 -1.54989930e-002
      4.32936940e-003 1.73967716e-003 1.19434241e-002 -5.93463480e-002
      -4.92413901e-002 2.62756906e-002 6.21933956e-003 -1.85034499e-002
      1.48183508e-002 1.58681907e-002 -6.42551556e-002 7.68934004e-003
      -3.44975963e-002 -3.76922823e-002 3.90485302e-002 -2.45691016e-002
      -7.10984785e-003 -5.88032529e-002 1.74341258e-002 -5.64637175e-003
      -1.63537040e-002 1.54337455e-002 -1.42881209e-002 -3.22107673e-002
      8.64682905e-003 1.06592020e-002 -9.20611713e-003 -5.14533035e-002
      -1.22193526e-002 -1.26116611e-002 2.80557815e-002 1.70676894e-002
      -1.25491654e-003 -1.55295171e-002 3.06673404e-002 8.94568115e-003
      1.30678900e-002 3.57636739e-003 5.63698225e-002 -3.61754186e-002
      -5.09145856e-002 1.76619682e-002 2.76068691e-003 -2.58938521e-002
      -3.42431925e-002 -1.26035009e-002 -3.58327031e-002
      -2.28136480e-002 3.41097079e-002 2.41909139e-002 6.53725769e-003
      2.49644872e-002 1.07201142e-002 -3.06068850e-003 -3.40893678e-002
      1.89825129e-002 2.27186810e-002 -8.57419968e-002 -4.59816121e-002
      1.50657156e-002 -5.15346937e-002 -2.40319897e-003 8.00238177e-003
      2.22876370e-002 -2.10310495e-003 -2.79651955e-003 1.02236848e-002
      -1.21457214e-002 1.08495196e-002 2.27201954e-002 -2.86226291e-002
      4.02987599e-002 3.08368802e-002 1.65633112e-002 -2.84396182e-003
      6.76713977e-003 5.26482705e-004 1.22216856e-002 -2.61973985e-003
      -3.93942334e-002 1.09416246e-003 -2.10291855e-002 1.76911354e-002
      -5.61530888e-003 -9.88355353e-002 1.06543731e-002 2.18482874e-002
      -1.56023633e-003 2.64396667e-002 9.58707929e-003 4.34826165e-002
      3.21031474e-002 2.74439100e-002 -1.73665378e-002 2.96956357e-002
      8.65969062e-003 -2.03277580e-002 -2.09615622e-002 -1.77129637e-002
      6.25899015e-003 3.18200290e-002 1.87307205e-002 -6.36589760e-003
      -7.76771363e-003 2.11385707e-003 -1.61749148e-003 5.72912581e-003
      -1.56581663e-002 -5.73493866e-003 -1.23030907e-002 2.99324822e-002
      1.82445534e-002 3.49286273e-002 -1.00588063e-002 1.25105483e-002
      8.05693679e-003 1.37039330e-002 3.25696589e-003 7.78186973e-003
      4.22883406e-002 9.57175530e-003 8.80743843e-003 1.74119957e-002
      6.55746786e-003 2.21189810e-003 3.06607839e-002 -2.27147504e-003
      2.95855338e-003 3.51452455e-003 8.99923127e-003 -8.94132704e-002
      3.21810693e-003 -1.25803445e-002 -6.38763327e-003 -7.25988448e-002
      -2.06894614e-002 2.84318030e-002 3.52362054e-003 -4.49156109e-003
      9.62239876e-003 -2.41504367e-002 -2.13901494e-002 2.24516056e-002
      4.15115729e-002 -2.95672957e-002 -7.85308797e-003 -2.40782257e-002
      1.62223522e-002 -8.27499386e-003 -3.47468955e-003 -3.64569612e-002
      5.10987500e-003 1.08945174e-002 -4.80388291e-003 5.99716278e-003
      -2.14015809e-003 2.29261853e-002 -7.53460778e-003 -4.43349034e-002
      -8.30528047e-003 2.20458675e-002 1.32969292e-002 -1.77680068e-002
      -4.68041049e-003 -1.94190554e-002 -6.03890717e-002 6.42610574e-003
      7.43464334e-004 -1.23670290e-003 -6.91049034e-003 2.10023373e-002
      3.19643617e-002 -1.52986543e-002 1.27342036e-002 2.78073754e-002
      4.69690561e-002 -5.62261753e-002 1.37504209e-002 -3.32508492e-003
      -5.30691305e-003 2.36210469e-002 -1.09779672e-003 1.37383305e-002
      2.12723538e-002 -3.99315991e-002 1.34040629e-002 -6.59415685e-003
      -1.34226605e-002 -3.28816362e-002 -1.43852341e-003
      -8.48260988e-003 -4.87152971e-002 -2.41534803e-002 4.53557959e-003
      1.03775710e-002 6.26646876e-002 5.03171328e-003 -2.79824790e-002
      1.74670573e-002 4.38296422e-002 -1.54067641e-002 6.40961379e-002
      -1.13050388e-002 1.54011222e-002 3.10277306e-002 2.84197438e-003
      -2.84547987e-003 1.00839529e-002 -2.49369238e-002 -1.24617154e-003
      -2.50486676e-002 1.52943050e-002 -1.55039290e-002 3.51008773e-002
      1.61205903e-002 5.54633979e-003 -6.28968403e-002 1.47256823e-002
      5.20839123e-003 1.71508943e-003 -4.40427363e-002 1.33437775e-002
      6.82761939e-003 2.83412151e-002 7.64027908e-002 2.37223934e-002
      -2.01222207e-002 7.35389534e-003 -2.31701275e-003 2.70015653e-002
      -1.74607616e-002 -1.63864922e-002 -6.92762388e-003
      -1.17881771e-003 3.19545902e-002 2.97499914e-003 -1.61735434e-002
      -1.18108364e-002 -3.56017314e-002 -8.02460127e-003
      -2.77693160e-002 -6.13181712e-003 5.74619928e-003 1.50622455e-002
      1.11422976e-002 2.05252469e-002 -3.30563076e-002 -9.15836263e-003
      -5.14798705e-003 -6.52153092e-003 1.13280145e-002 -4.82266955e-002
      8.93370621e-003 2.60264073e-002 3.58426082e-003 2.38098018e-002
      3.63795236e-002 3.80457751e-002 -4.04264368e-002 -1.13046881e-004
      8.30249104e-004 1.99073125e-002 2.89151240e-002 2.56326403e-002
      -5.74893244e-002 3.38172689e-002 2.82962453e-002 5.43457344e-002
      -1.27226636e-002 4.03451920e-002 1.37891229e-002 -7.79855705e-004
      2.28326279e-003 1.22856004e-002 1.93826035e-002 1.75130032e-002
      8.73370562e-003 3.21367010e-002 -2.95126643e-002 5.31293824e-003
      -2.41253804e-002 4.80422229e-002 -2.38234587e-002 4.76543084e-002
      -6.93762163e-003 3.37677123e-003 3.29177175e-003 1.06605235e-002
      -1.79901998e-002 2.27000229e-002 1.48265269e-002 1.98792797e-002
      -2.53549479e-002 5.59451059e-003 2.24829651e-002 8.56126659e-003
      3.65646519e-002 -2.45651957e-002 1.39113637e-002 1.36313597e-002
      3.03223357e-002 -8.00308883e-002 -1.81687269e-002 -3.67341116e-002
      1.13025699e-002 0. -1.03468951e-002 3.78640858e-003
      7.61316018e-003 -4.06241603e-002 1.70482546e-002 1.12266727e-002
      5.08288248e-003 -4.95233871e-002 4.65786345e-002 -9.46257729e-003
      -2.23408081e-002 1.20686414e-002 -2.41417699e-002 9.00185946e-003
      1.16869304e-002 1.60910226e-002 1.65115092e-002 2.08615400e-002
      5.45014255e-003 5.04719699e-003 1.06591070e-002 4.28108349e-002
      -1.61346924e-002 -9.99645144e-002 6.12871870e-002 4.52485029e-003
      7.54827727e-003 -6.93272986e-003 9.88582522e-003 1.87748505e-004
      1.16502214e-002 -2.54528541e-002 1.05622718e-002 -3.49167478e-003
      2.44391058e-002 3.98490354e-002 2.60006972e-002 -9.50745598e-004
      -6.43805042e-002 4.57507744e-002 3.06146145e-002 1.90488622e-002
      -3.99847254e-002 1.37165263e-002 3.58527503e-003 -2.15062834e-002
      -2.20085820e-003 3.28168869e-002 -7.22402036e-002 -2.64296513e-002
      3.86996544e-003 3.26075852e-002 1.08635416e-002 -6.29060902e-003
      3.31406035e-002 -6.67010248e-002 -2.11697388e-002 5.93041594e-004
      -8.38458985e-002 3.38890143e-002 3.94594707e-002 3.01470570e-002
      8.03659763e-003 1.68260839e-002 -5.39659197e-003 2.48120688e-002
      1.15118949e-002 -3.44727375e-002 -4.07464430e-002 -1.60308052e-002
      4.73834015e-002 -6.41413545e-003 -1.73360426e-002 2.34459527e-002
      8.69193207e-003 1.52373603e-002 -2.69781500e-002 2.72932705e-002
      -7.04778684e-003 1.86397776e-003 2.93450560e-002 7.92096555e-003
      -1.43473258e-003 7.17249811e-002 1.01185236e-002 -6.17667772e-002
      1.46058330e-003 -5.46385674e-003 1.90156866e-002 4.08703238e-002
      8.80251452e-003 1.57574229e-002 2.56474060e-003 -2.84503270e-002
      -1.60055831e-002 1.57596041e-002 2.02384293e-002 -1.69339485e-003
      2.06619129e-002 -3.62529382e-002 7.51012005e-003 -2.33303793e-002
      7.91092496e-003 3.14292014e-002 3.12528573e-002 1.32341031e-002
      -1.04953395e-002 2.68966947e-002 2.92771831e-002 2.52967570e-002
      2.55275541e-003 1.36627648e-002 2.22434029e-002 9.86593403e-003
      -2.79690162e-003 -9.91080701e-003 -1.06239403e-002 1.46613568e-002
      1.23029537e-002 1.08463652e-002 2.41952222e-002 2.81652226e-003
      1.47992996e-002 1.36005683e-002 1.46383876e-002 2.19756495e-002
      1.21813519e-002 9.90784820e-003 2.84154769e-002 1.96296815e-002
      6.66051637e-003 -2.73089726e-002 2.34972816e-002 4.04580012e-002
      3.53155136e-002 -6.36783568e-003 3.77642699e-002 3.53444181e-002
      4.15737443e-002 2.73530036e-002 9.93495062e-003 3.45772021e-002
      -4.83839959e-003 -1.38506321e-002 2.67163552e-002 -3.64736351e-003
      7.53260870e-003 5.03492076e-004 5.49663696e-003 1.37009379e-002
      -6.46393448e-002 9.24389344e-003 2.10322775e-002 8.84328689e-003
      -4.49481271e-002 1.70928016e-002 -1.35130109e-002 -4.35276702e-003
      -2.16249023e-002 -9.19680577e-003 7.13746995e-003 -9.43382550e-003
      1.94536485e-002 -6.58654096e-003 2.58600200e-003 -3.08242161e-003
      2.43675318e-002 -5.71318902e-002 -7.02202022e-002 8.86161067e-003
      7.02717865e-004 2.47362293e-002 1.75908022e-002 -6.36764849e-003
      1.32317515e-002 4.76120114e-002 1.74648892e-002 -3.50136384e-002
      -1.68966316e-002 -6.68582274e-003 2.01817192e-002 -1.48068732e-002
      -3.74844745e-002 -4.00699712e-002 -2.74200197e-002 1.51300803e-002
      3.21208723e-002 3.03878300e-002 -2.67526638e-002 3.42280082e-002
      -4.66522872e-002 9.01551917e-002 -8.72642174e-003 -2.30473746e-002
      1.09215509e-002 -3.97318155e-002 -4.52841818e-002 -1.35343507e-004
      -5.03100529e-002 -4.24561976e-003 6.61924705e-002 -2.15372313e-002
      1.20112700e-002 -6.06178083e-002 9.23315820e-004 1.50317773e-002
      2.08933037e-002 -4.05242248e-003 -2.72266213e-002 1.20573398e-003
      3.42953298e-003 -1.12790033e-001 -1.85283534e-002 -1.49814058e-002
      2.41846521e-003 6.64911279e-003 1.01454454e-002 -7.46670354e-004
      1.65333021e-002 -2.77349502e-002 1.15753189e-002 -1.97495073e-002
      1.18128834e-002 4.45028022e-002 -2.02225950e-002 4.40542772e-003
      -2.62085861e-003 -6.52415901e-002 1.49066849e-002 2.69700121e-002
      -3.87061536e-002 -1.84558406e-002 -3.29281762e-003
      -1.20940376e-002 6.81981444e-002 -9.73980781e-003 3.02587496e-003
      -1.31736370e-002 3.90516706e-002 -6.11209404e-003 -1.07372748e-002
      -3.27048190e-002 -3.65956835e-002 -5.90357557e-003 2.20198724e-002
      5.73450737e-002 6.81605861e-002 5.32575604e-003 -4.49796841e-002
      -1.26834214e-002 -8.41035042e-003 1.45531511e-002 -3.38997021e-002
      1.00246957e-002 -2.14947201e-002 1.70273427e-002 8.26515630e-003
      -2.83349063e-002 1.91440675e-002 -1.62010696e-002 -1.44216251e-002
      9.34584998e-003 -2.72121892e-004 -5.29873418e-003 5.85811101e-002
      -1.85374953e-002 1.50548178e-003 5.03788330e-003 3.21195647e-002
      -5.29101267e-002 2.75637843e-002 -5.82859591e-002 -1.67151205e-002
      -6.02502422e-003 2.57923733e-002 8.70480653e-005 -4.19463729e-003
      5.12256799e-003 -3.38390134e-002 -7.14307092e-003 -2.73863375e-002
      -6.04181970e-003 2.28472948e-002 6.73135696e-003 3.21380869e-002
      2.93643516e-003 2.82111708e-002 -3.72740030e-002 -1.05226021e-002
      -4.09111287e-003 1.46347461e-002 -9.87444911e-003 2.40144599e-003
      8.11053161e-003 6.41418016e-003 -3.51422094e-002 -1.60903912e-002
      7.44952355e-003 -7.03499168e-002 2.54294463e-002 2.96773762e-002
      -3.35468352e-002 -7.49483109e-002 -2.18817256e-002
      -5.31907231e-002 -6.97946548e-002 1.49713419e-002 2.58946884e-002
      -2.52358033e-003 -5.28182536e-002 3.06658000e-002 9.63398814e-003
      -3.18409386e-003 8.39618791e-004 -1.32584758e-002 2.38976423e-002
      -4.38892189e-003 8.06692243e-003 -2.65977122e-002 -5.50621189e-002
      1.56007437e-002 5.54275513e-003 -3.80493924e-002 -1.35735646e-002
      1.22094834e-002 -3.73230912e-002 -4.83210869e-002 3.55154043e-003
      7.84566905e-003 1.80878546e-002 8.68545659e-003 2.39578933e-002
      -4.20067422e-002 4.04954003e-003 -4.10586074e-002 2.57197227e-002
      -7.84246065e-003 2.09402815e-002 9.17437114e-003 -2.91765444e-002
      4.10701446e-002 4.81179431e-002 -5.15968278e-002 6.00906229e-003
      -5.41161522e-002 1.37620680e-002 -1.33639732e-002 4.11867797e-002
      -2.44721305e-002 1.87690314e-002 1.26010804e-002 3.13737541e-002
      3.13063757e-003 5.18652797e-003 4.04805802e-002 -5.35302795e-002
      6.72028726e-003 6.81203930e-003 -7.22945528e-003 -2.44474830e-003
      -5.01819886e-002 -1.40991341e-002 -6.45030523e-003
      -1.14859352e-002 2.12364197e-002 2.73183081e-003 -3.99850830e-002
      -3.17961834e-002 -4.86475639e-002 -1.05687836e-002 1.33508607e-003
      -2.42794212e-002 1.35952234e-002 -3.17244492e-002 2.33643577e-002
      3.25123779e-002 4.00071256e-002 6.11120053e-002 2.39932276e-002
      -1.37053449e-002 1.34448381e-002 8.26934259e-003 1.90626215e-002
      2.15106346e-002 -2.61050127e-002 2.48937085e-002 1.83627047e-002
      -7.48628983e-003 4.18980094e-003 -3.47876623e-002 1.37771748e-003
      1.85090285e-002 4.77893800e-002 6.51825592e-002 2.23097075e-002
      -7.28070512e-002 -1.98108684e-002 6.82096463e-003 1.95568819e-002
      8.88286682e-004 5.47428988e-003 -2.20497735e-002 4.52257097e-002
      1.77226197e-002 7.63281249e-003 1.77324843e-002 -1.31524624e-002
      -1.57447308e-002 1.10839810e-002 3.46334428e-002 -2.07006112e-002
      -8.08974430e-002 2.74432618e-002 2.75152083e-002 -2.91525871e-002
      -5.64791299e-002 -4.53587435e-002 2.07674634e-002 6.62313029e-003
      -8.77927698e-004 3.17979902e-002 -1.84959751e-002 1.74643602e-002
      -1.80982891e-003 2.61575007e-003 2.02732738e-002 2.86194552e-002
      -8.10598396e-003 5.79235051e-003 1.79883260e-002 4.85061333e-002
      4.38193902e-002 3.56355235e-002 4.63313609e-003 -6.63653156e-003
      9.46434308e-003 9.96773969e-003 -4.17679641e-003 -6.61199493e-003
      -2.03981977e-002 8.02655332e-003 -8.29075426e-002 4.31841649e-002
      -1.05086307e-003 7.92130828e-003 7.01897452e-003 3.96420993e-002
      -2.73163654e-002 4.17809264e-004 8.68444052e-003 -2.35612020e-002
      -2.14575436e-002 -3.57446373e-002 3.27577814e-002 3.19255628e-002
      -4.13429402e-002 -2.88423486e-002 -1.71867441e-002
      -1.11302361e-002 -1.28904609e-002 -4.88403253e-002 9.07331333e-003
      -1.96148269e-002 1.78183336e-002 -1.29972061e-003 -5.00385766e-004
      1.01321731e-002 -7.56933689e-002 1.17475986e-002 4.80328500e-002
      4.83932868e-002 1.23183634e-002 -1.27478931e-002 5.32876793e-003
      -1.12513173e-002 -2.61366405e-002 3.94632369e-002 1.60217693e-003
      3.27064022e-002 1.57182086e-002 -4.63705622e-002 -9.68803465e-003
      2.36799456e-002 -2.39729136e-002 -4.69383337e-002 1.15614161e-002
      2.08600648e-002 3.38786282e-002 -8.72130692e-003 4.16270383e-002
      -3.45980213e-003 1.05262324e-002 -3.73029262e-002 9.04598832e-003
      -1.21824205e-001 -3.85187194e-002 -8.68302956e-002 2.85404958e-002
      1.92797985e-002 -5.94762675e-002 2.16898452e-002 -2.02994607e-002
      2.18120832e-002 5.20619517e-003 -2.21022852e-002 1.66493841e-002
      1.73118152e-002 -1.86012272e-004 2.38085557e-002 3.80858220e-002
      -6.68400433e-003 5.21084853e-003 -1.98083487e-003 7.53785577e-003
      5.68985520e-003 3.06695811e-002 1.19221155e-002 1.82686385e-003
      -5.71186282e-003 1.18168676e-002 -3.05473842e-002 8.57936405e-003
      3.86322662e-002 2.09855698e-002 -1.58392079e-002 1.70146544e-002
      -2.19499655e-002 -2.08546370e-002 -4.99004684e-002
      -9.19825281e-004 1.09912013e-003 3.52438316e-002 -1.76748745e-002
      1.74387209e-002 -3.26607227e-002 1.32791735e-002 3.01389173e-002
      -2.20894497e-002 4.86179031e-002 -7.01131523e-002 3.96234654e-002
      3.51857208e-002 -5.67721156e-003 5.80606498e-002 1.09087965e-002
      6.89946348e-003 -3.17951404e-002 2.62375213e-002 9.27811302e-003
      7.73366587e-003 -2.41238307e-002 -4.77823764e-002 -3.25028673e-002
      -5.05321920e-002 -9.39106941e-002 1.48424748e-002 -1.27984472e-002
      -2.04590000e-002 1.28443474e-002 1.53975086e-002 -9.49084759e-003
      9.09062685e-004 9.25151352e-003 -1.90944802e-002 2.94623873e-003
      1.19923605e-002 4.42371964e-002 3.17423567e-002 -2.86610262e-003
      -4.21668477e-002 -9.86915547e-003 1.66645311e-002 -2.05107941e-003
      2.19438449e-002 -1.23997200e-002 7.66997412e-003 -1.02380347e-002
      -1.31654628e-002 2.15492137e-002 -2.76204702e-002 -2.06845882e-003
      2.47226320e-002 2.09883898e-002 -1.09641887e-002 -3.37310918e-002
      1.39310928e-002 3.08567919e-002 -3.40146646e-002 -2.02657469e-002
      -2.57626106e-003 1.43174985e-002 2.52707247e-002 5.41842682e-003
      3.35979760e-002 1.60893947e-002 -4.71338956e-003 9.73076932e-003
      -3.30528095e-002 7.53495842e-003 6.71282969e-003 1.35492906e-002
      -3.91744040e-002 -6.25935092e-004 1.76686700e-002 2.29706001e-002
      -5.39896488e-002 2.63960995e-002 -3.49864061e-003 4.50114831e-002
      -1.80208944e-002 1.42893577e-002 -4.44222651e-002 -2.72163167e-003
      -1.25134466e-002 3.67707945e-002 -2.02399734e-002 -3.67194265e-002
      -2.32960712e-002</_></support_vectors>
  <decision_functions>
    <_>
      <sv_count>1</sv_count>
      <rho>-9.9894938030165203e-001</rho>
      <alpha>
        1.</alpha>
      <index>
        0</index></_></decision_functions></my_svm>
</opencv_storage>
