<?xml version="1.0"?>
<opencv_storage>
<my_svm type_id="opencv-ml-svm">
  <svm_type>C_SVC</svm_type>
  <kernel><type>LINEAR</type></kernel>
  <C>1.</C>
  <term_criteria><epsilon>2.2204460492503131e-016</epsilon>
    <iterations>1000</iterations></term_criteria>
  <var_all>1000</var_all>
  <var_count>1000</var_count>
  <class_count>2</class_count>
  <class_labels type_id="opencv-matrix">
    <rows>1</rows>
    <cols>2</cols>
    <dt>i</dt>
    <data>
      -1 1</data></class_labels>
  <sv_total>1</sv_total>
  <support_vectors>
    <_>
      7.53919448e-005 1.86400320e-002 2.03772937e-003 -2.15825066e-002
      -4.87194806e-002 9.20570269e-003 2.14216467e-002 7.97461136e-004
      5.35101537e-003 8.00790905e-004 5.73752541e-003 -1.72321510e-003
      1.23234112e-002 1.16279367e-002 9.00306180e-003 1.55377351e-002
      -2.34581507e-003 -2.53039901e-003 -2.09661555e-002 7.63774524e-003
      2.28568707e-002 1.54306721e-002 -2.03342387e-003 1.51607092e-003
      5.60967950e-003 1.38259830e-003 2.26022769e-003 3.56734218e-003
      -1.34895146e-002 3.84254660e-003 -1.66489985e-002 -9.51588675e-002
      -4.96249134e-003 1.48481177e-002 1.31622767e-002 -3.11531294e-002
      1.11451140e-002 6.96119154e-003 -1.06307687e-002 -2.10515950e-002
      6.99442718e-003 -2.85828952e-002 -3.65356496e-003 3.05773653e-002
      8.51137843e-003 4.61596111e-003 -1.40478713e-002 1.07339006e-002
      2.31873821e-002 3.95461172e-003 4.87866113e-003 -3.57531458e-002
      -3.57109569e-002 -1.84653997e-002 1.98288541e-003 -4.47231950e-003
      2.92787086e-002 6.97374623e-003 1.84291862e-002 9.83423367e-003
      6.27021305e-003 3.20490114e-002 3.97876352e-002 -3.17960829e-002
      3.77922109e-003 1.22683905e-002 1.85296507e-004 -3.15101375e-003
      -3.52027267e-002 1.08493622e-002 8.07611155e-004 2.32701208e-002
      1.91666111e-002 2.04828698e-002 1.16306888e-002 2.32278239e-002
      -4.40751836e-002 7.43175112e-003 -4.16570483e-003 -5.38164862e-002
      -1.20078167e-002 1.06154354e-002 1.55717609e-002 8.84527620e-003
      -2.73081958e-002 2.80861207e-003 1.01346662e-002 3.33216488e-002
      2.39355303e-002 4.31383681e-003 1.84320547e-002 1.73221488e-004
      -1.32017527e-002 1.16310092e-002 -6.05043815e-003 1.75481588e-002
      1.67600326e-002 5.00867656e-003 -2.49731541e-002 2.42812019e-002
      3.23049426e-002 -2.59136539e-002 5.59712853e-003 -2.18688995e-002
      1.45746544e-002 2.26899260e-003 -4.30682749e-002 -4.16011699e-002
      7.20589329e-003 8.73040780e-003 2.52844952e-002 3.89290042e-002
      1.69158261e-003 5.36239613e-003 2.85383756e-003 4.20280470e-004
      -2.73564365e-002 2.09065191e-002 5.73359011e-003 5.06895874e-003
      1.38028981e-002 2.93555600e-003 3.12179327e-002 1.51596125e-002
      7.82614015e-003 -3.61367920e-003 1.58924200e-002 1.85167044e-002
      -2.36897753e-003 3.29765677e-002 -3.35634151e-003 2.88378801e-002
      -9.48931463e-003 1.85465012e-002 0. -2.95765954e-003
      9.57018696e-003 1.04932394e-002 -8.65755696e-003 -2.55972473e-003
      3.54357064e-003 9.75122582e-003 1.43945748e-002 -1.29692082e-004
      -1.58297922e-002 -3.85206416e-002 2.03785468e-002 8.72419775e-003
      1.33142220e-002 1.38619523e-002 -3.62233669e-002 1.76592898e-002
      -1.92168634e-002 2.48255837e-003 -7.70475492e-002 -2.66747344e-002
      7.41008902e-003 3.69506236e-003 3.26991342e-002 3.71907800e-002
      1.28847489e-003 -8.97658691e-002 2.33991519e-002 1.77088287e-002
      1.04633449e-002 -1.07618701e-002 7.45770335e-003 7.59349845e-004
      1.84816103e-002 1.21769169e-002 3.16430442e-002 3.62279750e-002
      1.58778150e-002 1.20917950e-002 1.58851929e-002 1.31833041e-002
      6.66698022e-003 5.15924534e-003 6.12150296e-004 3.17637026e-002
      1.53492549e-002 8.07240419e-003 3.30614462e-003 7.24256318e-003
      1.85722411e-002 1.75340269e-002 2.81982552e-002 5.18933311e-003
      8.11125152e-003 -3.98228914e-002 -6.13131048e-003 -9.95337218e-003
      3.97473481e-003 5.22868941e-003 -1.57891295e-003 -2.52238549e-002
      1.28474645e-002 5.44606987e-003 -5.66137433e-002 4.76515926e-002
      2.17643008e-002 -1.96487759e-003 2.39086468e-002 1.19323633e-003
      1.97740402e-002 9.82036907e-003 -1.84517703e-003 -2.23165657e-002
      8.78602639e-003 9.42391250e-003 -2.06095278e-002 5.74335735e-003
      -8.19239672e-003 -2.21758392e-002 -7.99487382e-002
      -1.77133828e-002 -1.84014607e-002 -1.95848495e-002 2.75416370e-003
      1.64210331e-002 5.27678709e-003 1.54520851e-002 -4.43708431e-003
      3.96822067e-003 -1.75870256e-003 -8.46622605e-003 -9.56324562e-002
      9.65393055e-003 1.47961406e-002 -1.15544247e-002 -2.60194447e-002
      5.22247422e-003 -1.70605909e-003 -5.15125990e-002 5.42705273e-003
      -7.25744292e-003 2.59450246e-002 -4.56526130e-003 -1.76533754e-003
      1.68110942e-003 -6.40814975e-002 3.38218026e-002 -3.02451644e-002
      2.51828600e-002 -7.38496799e-003 -1.01172673e-002 -5.31580346e-003
      1.48679852e-003 1.84268097e-003 -5.04058087e-003 -4.12834808e-002
      -2.59637740e-002 -1.34978294e-002 1.13178510e-002 -8.86959396e-003
      8.30621051e-004 1.68227702e-002 -6.66246610e-003 7.64969829e-003
      -4.78689410e-002 5.87353343e-003 3.07224467e-002 -6.80998492e-004
      7.85117596e-003 5.33374317e-004 1.10755842e-002 -2.32678838e-003
      9.06922296e-003 1.26105244e-003 -8.16991553e-003 7.55979633e-003
      -9.77517758e-003 5.01409397e-002 2.92419037e-003 1.15750125e-002
      1.07274046e-002 9.25716758e-003 -4.91381586e-002 1.05448696e-003
      -1.21246406e-003 -1.97312944e-002 -2.88380124e-002 5.64380176e-003
      -4.75514494e-002 1.76554848e-003 3.50570516e-003 2.21579913e-002
      -7.95879588e-003 5.22287609e-003 1.64270389e-003 -8.40929151e-002
      1.31082721e-002 2.36878041e-002 3.12438724e-003 -2.04370115e-002
      1.14732888e-002 1.82934396e-003 -3.36433500e-002 -2.56358609e-002
      1.14337699e-002 -1.85516793e-002 -1.97006632e-002 8.03947542e-003
      -1.76076461e-002 1.44708632e-002 2.45960411e-002 2.56914813e-002
      -1.60133746e-002 1.53339272e-002 -1.11942910e-001 3.45500209e-003
      -5.88828884e-003 -1.81918945e-002 -3.89420912e-002 1.37222384e-003
      1.75736751e-002 -7.74224941e-003 1.80246343e-003 1.08071347e-003
      3.80677870e-003 6.10950999e-002 -6.12140819e-002 1.21668288e-002
      5.06759202e-003 -1.05730735e-001 1.35047445e-002 9.43262596e-003
      -2.53973082e-002 1.33053921e-002 9.41437297e-003 -2.30958522e-003
      7.79093243e-003 5.52060734e-003 7.17140548e-003 -3.22946091e-003
      -8.85134749e-003 -1.21716801e-002 -1.94542482e-002 5.18041477e-003
      -4.59450646e-004 -1.03306388e-002 -2.84739584e-002
      -2.50007380e-002 2.64644530e-003 3.38002890e-002 -7.12114153e-003
      2.34095734e-002 2.10711565e-002 1.33236579e-003 1.72240417e-002
      7.27800326e-003 6.16518706e-002 9.84976068e-003 1.70641579e-002
      -5.24374060e-002 -1.94875553e-004 3.03326361e-002 -2.22799578e-003
      5.70862135e-003 2.01969929e-002 -1.55215792e-003 -3.40014584e-002
      -1.73411686e-002 2.66292803e-002 -2.49995776e-002 1.07840616e-002
      6.01431541e-003 2.34426521e-002 -1.77850686e-002 -1.30375465e-002
      7.38830073e-003 4.34253458e-003 7.13319192e-003 7.87957665e-003
      1.43548276e-003 2.06694603e-002 -1.74654946e-002 5.30823041e-003
      -7.70830084e-003 2.10217070e-002 1.32231892e-003 -9.18049552e-003
      -3.86970565e-002 -8.46775994e-003 -4.45848703e-002 9.83466301e-003
      4.48511122e-003 -1.38281081e-002 9.29673295e-003 -1.46631580e-002
      9.04659834e-003 2.56183613e-002 -2.71437652e-002 3.00706364e-002
      3.70792323e-003 1.04555702e-002 -1.62942596e-002 1.69576239e-002
      2.28556395e-002 -1.24253146e-002 6.56927761e-004 9.03714914e-003
      1.60905682e-002 -3.29771042e-002 -1.70675069e-002 3.93230421e-003
      -2.80854963e-002 4.28886451e-002 2.74501573e-002 1.97331291e-002
      1.64826773e-002 -8.13689176e-003 1.64053794e-002 7.45504117e-003
      -4.15855125e-002 3.73909064e-003 -2.74968031e-003 4.75906171e-002
      1.38408812e-002 1.11362450e-002 9.96701140e-003 -4.12407480e-002
      7.50425830e-003 -1.41498875e-002 1.61093648e-003 -3.22705060e-002
      1.86127312e-002 -4.80303429e-002 -1.07640876e-002 -4.04388420e-002
      -3.96478437e-002 1.79003514e-002 4.69221845e-002 -5.50209917e-002
      2.00048089e-002 2.71900278e-002 1.68293118e-002 -7.92029873e-003
      1.45835280e-002 8.81005358e-003 -1.39581552e-002 -4.88173077e-003
      6.96917437e-003 -7.24374258e-004 1.58784874e-002 4.30281187e-004
      2.25827377e-002 -2.62462310e-002 -2.25930065e-002 -1.35040032e-002
      -1.41790034e-002 2.03174371e-002 1.11048566e-002 2.55047921e-002
      -8.53398442e-003 -2.15941481e-003 1.93347894e-002 4.08282131e-002
      1.49122784e-002 1.28073674e-002 5.41071268e-003 -8.43925460e-004
      1.66401509e-002 5.35609294e-003 1.50397792e-002 2.01529860e-002
      1.56775676e-002 -6.48890994e-003 8.65021162e-003 -9.79716107e-002
      1.63422860e-002 -3.21343616e-002 1.58156510e-002 3.63178761e-003
      1.24202250e-002 1.44294454e-002 1.45512307e-002 -1.08590508e-002
      -4.32998464e-002 -6.07688958e-003 9.25127044e-003 2.94365305e-002
      -3.84924933e-002 -5.68837114e-002 1.76846031e-002 2.56556030e-002
      1.99369825e-002 -6.23683026e-003 -2.86661237e-002 3.98607627e-002
      -4.72548883e-003 1.87637210e-002 1.52788758e-002 -2.16475893e-002
      -3.39295645e-003 3.20008583e-002 9.41990316e-003 -3.26410271e-002
      1.56193515e-002 1.26633588e-002 6.76114112e-003 2.35555433e-002
      1.69135425e-002 1.21406615e-002 1.05546415e-003 1.45145645e-002
      5.76766860e-003 8.02264549e-003 1.42787071e-002 3.04420508e-004
      9.23841354e-003 -2.62708180e-002 6.18881313e-003 2.54893620e-002
      4.03834283e-002 1.54498527e-002 2.62089837e-002 8.87285918e-003
      3.31915822e-003 -3.72133218e-002 1.78381279e-002 -1.92284901e-002
      1.50758615e-002 3.37955989e-002 1.18262060e-002 3.90406209e-003
      4.01954763e-002 1.38704488e-002 -8.95533897e-003 -4.55857851e-002
      5.59937162e-003 2.73518395e-002 -5.15762828e-002 1.22745568e-003
      9.94086917e-003 -1.99315441e-003 -2.48484965e-002 6.35299878e-003
      3.02127972e-002 -1.57389678e-002 -9.41566098e-003 1.37188323e-002
      1.76538527e-002 1.42432330e-002 -5.97429881e-003 1.11825597e-002
      1.55751621e-002 8.30705836e-003 -5.37302457e-002 2.32404601e-002
      2.15604249e-002 1.57709457e-002 6.40933774e-003 -2.73523983e-002
      2.51775514e-002 -2.77436082e-003 4.80006635e-003 -7.28492439e-003
      2.64755785e-002 9.39104520e-003 -2.89215916e-003 -1.41278088e-001
      -3.84917669e-002 -3.36447023e-002 -1.21506127e-002 1.16442274e-002
      -5.80965215e-003 2.33068466e-002 -3.14015709e-002 4.53694537e-003
      -3.28045562e-002 1.19852740e-002 1.59397665e-002 6.57971774e-004
      6.18798286e-003 2.55012629e-003 3.17662442e-003 -3.29336636e-002
      1.35997459e-002 3.65796983e-002 -2.22931802e-003 2.72273901e-003
      1.68714598e-002 1.09266909e-002 -3.84065486e-003 8.40856507e-003
      6.63588615e-003 5.03012398e-003 1.82935297e-002 7.28300365e-004
      -7.86355813e-004 7.35011650e-003 -7.24617718e-003 1.44509310e-002
      2.35416424e-002 -1.61971804e-002 8.65476020e-003 -4.00958210e-002
      3.49974819e-003 2.17733644e-002 2.19441182e-003 7.01667229e-003
      1.38912024e-002 1.93176456e-002 1.12161227e-002 -8.71738698e-003
      -3.85525674e-002 2.16714423e-002 -8.25673691e-004 1.42135401e-003
      1.01909181e-002 2.76814755e-002 7.48043554e-003 3.32828239e-002
      -1.30841866e-001 -3.37918699e-002 8.35214928e-003 7.05607235e-003
      -2.56992336e-002 4.58145840e-003 1.52741596e-002 -9.15064476e-003
      4.14187973e-003 7.21442979e-004 2.56903395e-002 -3.64249498e-002
      -2.05914173e-002 -4.74671274e-002 -3.78202349e-002
      -2.21843719e-002 5.56333642e-003 -1.00707456e-001 -4.15292010e-002
      2.65486259e-002 4.82320320e-003 3.04722209e-002 3.65324244e-002
      2.11802460e-002 -6.15304103e-003 4.43613855e-003 -2.51823626e-002
      1.47257606e-003 1.36966472e-002 -3.38961836e-003 -1.54438149e-002
      -6.87208449e-005 -3.22516672e-002 1.42178545e-002 6.45183213e-003
      2.19828710e-002 6.73024729e-003 1.86121706e-002 1.57514715e-003
      7.04819662e-003 4.69780341e-002 7.70572852e-003 9.69158299e-003
      -3.07380199e-003 -5.42942202e-003 3.15354466e-002 8.66678450e-003
      1.24320108e-002 3.04369722e-003 1.83968060e-003 1.09491525e-002
      9.07321274e-003 3.57678309e-002 1.28534427e-002 -3.27294087e-003
      5.11142286e-003 1.08283758e-002 -1.65297482e-002 8.94646160e-003
      -1.46280769e-002 -1.12945549e-002 1.54833905e-002 7.06557184e-003
      1.93800218e-002 -2.52349917e-002 1.99171193e-002 3.73068191e-002
      -1.00303404e-002 -1.57987215e-002 2.42758729e-003 3.20510822e-003
      -2.23437380e-002 1.95627497e-003 4.55498463e-003 1.36561058e-002
      -3.22581939e-002 -1.87137593e-002 7.09513621e-003 1.42180994e-002
      2.51797237e-003 3.97903193e-003 2.09519546e-002 -1.93463676e-002
      -2.22555548e-003 1.19664473e-002 -1.79178622e-002 -1.93708912e-002
      1.40080126e-002 2.45350366e-003 6.83561619e-003 -6.55194139e-003
      -4.50984109e-003 2.46492680e-003 -1.20936865e-002 8.43953341e-003
      4.97446337e-004 3.34454142e-003 -4.84779328e-002 6.83296472e-003
      1.20593114e-002 2.56499499e-002 -8.19944404e-003 1.66797675e-002
      2.78588478e-002 -2.83132959e-003 3.64547642e-003 5.24477428e-003
      -2.81841364e-002 -2.45882990e-003 1.20020481e-002 2.24107374e-002
      1.04330219e-002 2.15532724e-002 1.74439456e-002 -9.34062642e-004
      4.92831971e-003 1.10130608e-002 -5.04169567e-003 9.33124125e-003
      9.84158367e-003 -1.65209584e-002 1.82149652e-002 -1.53807271e-002
      -2.53967773e-002 1.96650643e-002 1.03230802e-002 -1.82982907e-002
      4.69946652e-004 1.83089077e-002 1.61665697e-002 7.34006474e-003
      1.43325888e-002 -3.44128199e-002 7.53604341e-003 3.12361377e-003
      -6.66779503e-002 -1.89477613e-003 2.16714088e-002 3.55187512e-004
      2.23427135e-002 -6.79879496e-003 2.37179287e-002 1.00598233e-002
      -2.62017269e-002 5.41304564e-003 -1.85802523e-002 1.89552493e-002
      1.02938404e-002 -1.00840181e-002 -1.54044991e-003 -1.66657642e-002
      2.49081757e-002 1.67599861e-002 1.83865111e-002 3.95867303e-002
      5.93440607e-003 -7.37202587e-003 -7.58104213e-003 1.44482581e-002
      -5.09823486e-002 8.73455778e-003 -9.81962867e-003 5.02129383e-002
      4.57089394e-004 1.54112012e-003 -1.54468231e-002 -1.85706466e-002
      -1.13939345e-002 -3.40923928e-002 1.16355279e-002 8.42208322e-003
      -1.84667837e-002 8.30455404e-003 -1.57068614e-002 4.36307956e-003
      2.28138547e-002 -4.07573208e-003 2.75082737e-002 -3.21964850e-003
      1.07722506e-002 2.17275857e-003 6.07132679e-003 4.66274330e-003
      -1.13346897e-001 -9.06218681e-003 1.00834211e-002 -4.90289181e-002
      -7.54733160e-002 1.76774319e-002 5.39291231e-003 -2.99145430e-002
      1.97129603e-002 2.21425928e-002 -1.26958475e-003 4.11399826e-003
      -3.21880952e-002 4.34864499e-003 8.82970076e-003 6.78019458e-003
      7.39733642e-003 5.25817275e-003 -1.96313020e-002 -2.00445447e-002
      2.59737112e-002 1.04437238e-002 -2.08797939e-002 -1.37324985e-002
      1.52457133e-002 3.54528055e-003 1.75697170e-002 1.32470904e-002
      1.34040904e-003 -1.16762761e-002 -3.83902271e-003 -2.67314948e-002
      -8.42067995e-004 -4.05930765e-002 2.42924858e-002 2.09580967e-003
      -1.68104656e-002 2.98802964e-002 -1.10981598e-001 1.16453541e-003
      1.69838145e-002 -2.13814434e-002 1.66995171e-002 -1.05257761e-002
      -2.60724612e-002 3.22629511e-002 -6.78587094e-005 2.34925095e-002
      2.38563437e-002 4.74989554e-003 -9.32300836e-003 7.27531547e-003
      1.33998750e-003 1.67110730e-002 -1.57728381e-002 1.40281795e-002
      2.45778263e-002 2.87747551e-002 1.26434620e-002 2.38554962e-002
      1.45330951e-002 -6.73354464e-003 0. -9.10657048e-002
      1.59770511e-002 -8.05697520e-004 -2.30569318e-002 1.77151710e-002
      -2.37361621e-002 1.83624215e-002 -8.49884301e-002 2.93819364e-002
      5.03655616e-003 -2.17695385e-002 3.44397202e-002 4.61704191e-003
      -9.71118268e-003 9.27869231e-004 0. 3.41684110e-002
      3.89372557e-003 6.51061442e-003 -2.86570657e-002 -4.37455289e-002
      1.07288556e-002 1.17948325e-002 -1.50903259e-004 3.51346261e-003
      3.31611559e-003 1.56515755e-003 -8.22677466e-005 0.
      -7.26799341e-003 1.00016799e-002 -2.87618451e-002 2.53100432e-002
      2.52841390e-003 -9.78317205e-003 -7.68562453e-003 3.18665034e-003
      -6.85786009e-002 -8.67065415e-003 1.01409722e-002 2.80043506e-003
      -8.17088038e-003 -1.85777855e-004 -8.29325989e-003 2.57944432e-003
      5.86739322e-003 -4.22756514e-003 -3.18381339e-002 1.42986076e-002
      4.07385593e-003 -2.92588286e-002 -1.83543395e-002 4.22137184e-003
      -7.51924294e-004 9.45091806e-003 -5.40965283e-003 -2.57319249e-002
      2.26632855e-003 1.66439805e-002 -2.71743424e-002 1.30793930e-003
      7.94169027e-003 2.01082509e-003 3.65889701e-003 6.43039867e-003
      -1.42545514e-002 6.77072955e-003 1.58066992e-002 -3.53720635e-002
      -6.07472025e-002 1.61002260e-002 1.73265301e-002 1.42668551e-002
      3.38665838e-003 -2.26928126e-002 -5.23925293e-004 7.32870214e-003
      1.40601378e-002 8.69350508e-003 -8.34679045e-003 -3.16224969e-003
      8.09290539e-003 -1.29291660e-003 2.74745431e-002 3.45108099e-002
      9.91368573e-003 -2.21301988e-002 1.08599579e-002 -3.50279845e-002
      -4.03390788e-002 -4.39350912e-003 9.80378501e-003 4.29266552e-003
      8.35051388e-003 -1.16254417e-002 -1.02998996e-002 8.59747361e-003
      2.18115770e-003 8.89455155e-003 5.30661196e-002 7.61802075e-003
      2.59995786e-003 -4.13648272e-003 -1.04088755e-002 6.01274520e-003
      3.45056802e-002 4.12163697e-003 -5.34418635e-002 -3.10915019e-002
      -1.21638575e-003 6.37640711e-003 -8.08304409e-004 5.61492378e-003
      3.24730948e-003 5.93311852e-003 -7.76465191e-003 2.54193097e-002
      -1.89999957e-003 2.51589362e-002 9.64114256e-003 -8.76348000e-003
      -1.16896974e-002 -2.65020337e-002 1.99669376e-002 -2.37017218e-002
      2.42952574e-002 2.71978658e-002 -9.75087751e-003 1.46644320e-002
      3.06281750e-003 2.02690135e-003 1.11260703e-002 1.31826932e-002
      -2.72988379e-002 -8.56108777e-003 9.87703726e-003 1.18569108e-002
      -5.54302416e-004 1.73345841e-002 2.20568711e-003</_></support_vectors>
  <decision_functions>
    <_>
      <sv_count>1</sv_count>
      <rho>-9.9561964899351629e-001</rho>
      <alpha>
        1.</alpha>
      <index>
        0</index></_></decision_functions></my_svm>
</opencv_storage>
