<?xml version="1.0"?>
<opencv_storage>
<my_svm type_id="opencv-ml-svm">
  <svm_type>C_SVC</svm_type>
  <kernel><type>LINEAR</type></kernel>
  <C>1.</C>
  <term_criteria><epsilon>2.2204460492503131e-016</epsilon>
    <iterations>1000</iterations></term_criteria>
  <var_all>1000</var_all>
  <var_count>1000</var_count>
  <class_count>2</class_count>
  <class_labels type_id="opencv-matrix">
    <rows>1</rows>
    <cols>2</cols>
    <dt>i</dt>
    <data>
      -1 1</data></class_labels>
  <sv_total>1</sv_total>
  <support_vectors>
    <_>
      1.81209538e-002 1.48090012e-002 -1.66730850e-003 3.60302851e-002
      1.65982672e-003 -2.13148575e-002 1.68368742e-002 -2.61889882e-002
      2.69494653e-002 6.77456381e-003 -5.88851050e-002 1.87605899e-002
      1.62706710e-002 1.04910200e-002 -2.36776993e-002 2.00154353e-002
      -1.02664502e-002 1.82594620e-002 -1.96641423e-002 -2.24278327e-002
      1.15813743e-002 -2.59793214e-002 2.39914749e-002 1.25715928e-002
      -1.13277473e-002 3.16022821e-002 -9.91661474e-003 -3.69185419e-003
      7.51512945e-002 5.87822171e-003 1.11608664e-002 -4.20159334e-003
      2.64806338e-002 -3.16542462e-002 -1.11180702e-002 1.99640123e-003
      1.50164897e-002 -1.36246523e-002 -1.72430016e-002 3.33382562e-002
      9.22743883e-003 -1.03679210e-001 4.60763834e-003 2.49340460e-002
      1.15046902e-002 -9.59635340e-003 2.56424733e-002 -5.17900987e-003
      2.03714799e-002 1.15756486e-002 -1.44078713e-002 1.07822586e-002
      1.82133690e-002 -3.88813973e-003 7.60921557e-003 -1.62682459e-002
      -8.28951970e-002 1.94149856e-002 -1.15500400e-002 -3.18850167e-002
      -2.67505888e-002 -1.49734141e-002 2.26650480e-002 3.10986605e-003
      -2.26467066e-002 7.91748147e-003 2.99731223e-003 2.32291948e-002
      1.68002769e-002 -7.20463917e-002 -3.03074624e-002 -1.73349306e-002
      9.75906011e-003 -2.54793391e-002 -9.49924067e-003 2.90498883e-003
      1.17012393e-003 6.08713226e-003 -6.01309026e-003 -8.07730854e-003
      -9.70661454e-003 1.59861576e-002 1.94694307e-002 4.39868458e-002
      8.08700640e-003 -2.25244556e-002 -3.29695782e-003 1.23422788e-002
      -2.51831040e-002 1.18060671e-002 -5.18734828e-002 2.36490499e-002
      1.15420355e-003 -2.48540519e-003 2.32363064e-002 2.08317954e-002
      1.80605482e-002 1.27473222e-002 8.91887955e-003 1.07739903e-002
      1.18929427e-002 -6.63199425e-002 1.15941837e-002 -2.46657878e-002
      1.92801431e-002 2.91954838e-002 3.70149827e-003 1.11438558e-002
      -2.10896283e-002 1.81026030e-002 2.24868041e-002 -1.68647543e-002
      2.73032021e-003 3.69825750e-004 -2.81276442e-002 -6.41628653e-002
      -1.62099546e-003 1.01832692e-002 -3.79500091e-002 1.13938339e-002
      -5.93420002e-004 2.39785500e-002 1.79355890e-002 -1.08509148e-002
      1.09320227e-002 2.30488577e-003 -1.77984778e-002 1.05911344e-002
      1.06881745e-002 1.08441999e-002 -1.72002707e-002 -9.03345086e-003
      9.74167138e-003 -5.25626875e-002 4.53842133e-002 -1.42546967e-001
      2.68757977e-002 3.55066098e-002 -2.89348196e-002 1.24061368e-002
      -1.62056126e-002 -1.13650877e-002 -4.42560390e-003 1.80168673e-002
      5.43890230e-004 7.76581094e-003 1.50032016e-002 1.01836072e-002
      2.03325395e-002 -1.79806557e-002 -8.12699739e-003 -1.01898238e-001
      -1.98614132e-002 -2.67648115e-003 1.57853391e-003 -7.13224337e-002
      -5.74200368e-003 2.31273156e-002 2.82084406e-003 2.31620446e-002
      1.22073926e-002 7.31519191e-003 2.77108587e-002 -7.71354698e-003
      -6.92774821e-003 -1.03338249e-003 -1.15593299e-002 3.57865123e-003
      1.33046638e-002 3.38524170e-002 3.48939933e-002 -3.89986858e-002
      1.73471235e-002 -2.35554092e-002 -1.34514784e-002 2.91925599e-003
      -5.50755160e-003 -2.64620334e-002 -7.48764398e-003
      -1.31930504e-002 -1.67758157e-003 -3.02673853e-003
      -2.52815094e-002 -1.17812464e-002 4.94264718e-003 -1.66167602e-001
      5.65754902e-003 1.13239288e-002 2.25229934e-002 1.93524100e-002
      -1.86933372e-002 -2.03673672e-002 2.93856487e-003 -1.95703451e-002
      2.58246972e-003 1.36671746e-002 -3.90317887e-002 4.41177702e-003
      1.10113248e-002 -1.86375212e-002 -2.39344463e-002 -4.45453413e-002
      3.27136047e-004 1.34873874e-002 -2.32357881e-003 3.38804834e-002
      -1.33083388e-002 -1.60949025e-002 4.39462776e-004 8.65328219e-003
      8.22716102e-004 5.08994535e-002 -1.31128747e-002 -1.11386427e-004
      1.84363797e-002 2.27773506e-002 1.48830013e-002 -8.66304524e-003
      2.64648758e-002 1.19211050e-002 -1.85094979e-002 -9.48705673e-002
      5.93542261e-003 8.16394947e-003 -1.73385758e-002 2.35083103e-002
      2.08472405e-002 5.11954911e-003 -3.61625245e-003 -8.98401905e-003
      -5.59684960e-003 3.76377255e-002 1.29565205e-002 -1.96081772e-002
      -1.23881631e-001 5.81134250e-003 1.32681252e-002 1.49575220e-002
      -7.47608428e-005 2.49061603e-002 2.46722102e-002 -2.39429390e-003
      9.46298614e-003 1.71158463e-002 3.58929336e-002 1.37307141e-002
      -1.42154209e-002 1.25744436e-002 1.42848222e-002 7.81423785e-003
      1.47289243e-002 -3.01190615e-002 5.82919596e-003 -2.97163446e-002
      -1.75341424e-002 1.37935858e-002 2.51284000e-002 1.61048435e-002
      1.01781208e-002 1.55423407e-003 6.79663103e-003 -1.33590857e-002
      5.49087627e-003 1.75007973e-002 1.28262816e-002 -6.42996579e-002
      -9.82269552e-003 1.43080065e-002 1.71168558e-002 -5.03654480e-002
      1.57540757e-003 1.76069308e-002 6.31857850e-003 -5.19284494e-002
      1.12875775e-002 -3.01650986e-002 3.00948732e-002 4.00265772e-003
      2.42059920e-002 1.98837463e-002 1.86543092e-002 -2.74706539e-003
      6.91336254e-003 -6.91705346e-002 -1.15459841e-002 5.92784025e-003
      2.01512617e-003 2.94447057e-002 1.04862815e-002 2.09196508e-002
      4.56496980e-003 6.56784698e-003 1.96870007e-002 9.43522621e-003
      1.27904359e-002 4.13160305e-003 -1.15945255e-002 1.20804915e-002
      -3.61178513e-003 6.30404474e-003 5.93551807e-003 -8.08958337e-002
      9.67593864e-003 1.28763746e-002 2.26092823e-002 1.48781678e-002
      -1.24919396e-002 1.74571350e-002 9.94910579e-003 2.49145217e-002
      6.46867603e-003 9.42957122e-003 -4.84946836e-003 -1.96562130e-002
      -3.31921875e-002 -2.52292156e-002 8.46117735e-003 9.50552709e-003
      2.88229855e-003 6.18350552e-003 -2.68433965e-003 4.54996573e-003
      8.99616349e-003 -3.30085009e-002 1.02056386e-002 1.53534589e-002
      4.12815297e-003 6.30614581e-003 -5.91618288e-003 2.71626040e-002
      7.80027779e-003 1.83994439e-003 -2.26439107e-002 1.88593455e-002
      -6.87446147e-002 5.39077679e-003 -3.87966487e-004 1.76432077e-002
      7.29940692e-003 2.81395894e-002 2.03301832e-002 1.04882065e-002
      1.85271632e-002 1.50934868e-002 -7.75344810e-003 1.47123523e-002
      4.85529471e-003 1.76070980e-003 1.23286555e-002 1.40436124e-002
      3.42976791e-003 1.05197411e-002 4.67563979e-002 2.54890770e-002
      -4.60337587e-002 -2.67342962e-002 1.38848284e-002 9.74548422e-003
      -5.22975177e-002 -4.28240839e-003 2.01330744e-002 1.73553117e-002
      1.91763099e-002 1.55834602e-002 -1.63032189e-002 4.27207630e-003
      -1.66957192e-002 -3.64746433e-003 3.63767408e-002 2.11392771e-002
      7.76484190e-003 -7.67898038e-002 2.26630233e-002 2.08919286e-003
      1.62126813e-002 1.18063297e-002 -1.54285654e-002 1.00966990e-002
      3.26784351e-003 1.50856813e-002 8.80295644e-004 1.53056569e-002
      2.56212545e-003 1.03650354e-002 2.24560892e-004 3.36207673e-002
      -2.20984891e-002 -9.78764519e-002 1.91299571e-003 1.33983046e-002
      -2.94818152e-002 -1.09001482e-002 2.93315295e-002 -3.00089791e-002
      -5.50114065e-002 1.10339271e-002 2.02033427e-002 2.61201244e-002
      -8.15228969e-002 -6.10434636e-003 -7.23340139e-002
      -1.96288470e-002 6.58821268e-003 3.73828225e-002 -1.07553005e-002
      1.97759736e-002 9.78507940e-003 2.32086028e-003 7.83968717e-003
      -3.17122862e-002 -7.31845945e-003 4.34118882e-002 8.59391689e-003
      1.67050457e-003 -7.24492371e-002 1.80587582e-002 1.25014437e-002
      1.64361652e-002 -2.54340935e-004 8.47580086e-004 7.74188945e-003
      1.63357779e-002 3.98376063e-002 3.15437163e-003 1.23534165e-002
      -6.90453686e-003 1.22162811e-002 1.42558115e-002 5.85038401e-003
      3.16926576e-002 4.62336186e-003 -1.46649836e-003 2.24383920e-002
      2.93822438e-002 3.11420746e-002 2.32672133e-002 -1.02842820e-003
      8.28405842e-003 1.82171352e-002 4.50076163e-003 7.28261471e-003
      4.60608788e-002 -7.80907739e-003 -7.17053423e-003 1.12366974e-002
      2.11246163e-002 3.23224999e-002 5.16560907e-003 9.42876562e-003
      3.83865583e-004 2.95722447e-002 3.19308043e-002 -1.30779771e-002
      4.43833787e-003 1.91734266e-003 2.35675951e-003 -8.45213700e-003
      4.55662236e-003 8.36119056e-003 3.28364708e-002 2.65661571e-002
      9.15466249e-003 -1.20502235e-002 8.06558877e-003 1.11692827e-002
      -2.41639302e-003 1.12108176e-003 -1.13900937e-002 4.02095541e-003
      5.48369698e-002 3.79103585e-003 1.12862224e-002 -1.78871546e-002
      -2.33654352e-003 5.10832630e-002 5.80343232e-003 -5.37356846e-002
      1.04915611e-002 2.86065806e-002 2.53027733e-002 1.13064805e-002
      9.80653707e-003 2.48325188e-002 -2.94012437e-003 7.08953990e-003
      9.95603763e-003 1.02129970e-002 1.15995789e-002 -3.88785428e-003
      -2.56615523e-002 2.68704612e-002 -3.47649446e-003 -2.84215584e-002
      -1.98653657e-002 3.03475447e-002 1.47997644e-002 5.32930298e-003
      1.31710041e-002 -6.38677506e-003 -4.69175763e-002 7.37562403e-003
      -5.41203236e-003 1.43925082e-002 -5.20813242e-002 1.86223090e-002
      7.50080682e-003 1.20817255e-002 3.31622809e-002 3.35549079e-002
      -1.21825719e-002 2.22701374e-002 1.67118926e-002 1.72848366e-002
      -2.81321704e-002 3.82135212e-002 2.53854133e-002 1.19999116e-002
      -2.28440762e-002 1.01045426e-002 -4.44658920e-002 -3.33474018e-003
      1.26185482e-002 -2.19887448e-003 -9.22264624e-003 1.24694109e-002
      -1.86640918e-002 1.88924037e-002 -6.48741052e-003 1.79299489e-002
      1.29947485e-002 5.79446880e-003 -3.79798971e-002 1.86491068e-002
      1.67646341e-003 -1.89949886e-003 1.56814400e-002 2.36261841e-002
      1.63173676e-002 5.34090353e-003 2.09941659e-002 -7.08305463e-002
      2.47975644e-002 8.24819878e-003 2.84376666e-002 -2.20932346e-003
      8.31958838e-003 1.43444715e-002 -5.93549618e-003 -1.93385165e-002
      1.95436031e-002 1.99375432e-002 5.72501030e-003 3.05008516e-002
      -2.47321073e-002 1.10489773e-002 4.30679368e-003 4.26891260e-002
      -4.03748527e-002 -4.13095541e-002 1.34740081e-002 -6.85015647e-003
      8.04128870e-003 3.93934101e-002 -4.79425676e-002 -5.20374579e-003
      -5.48544005e-002 9.47162602e-003 -3.36175109e-003 1.15491832e-002
      1.77520025e-003 -2.47872947e-003 -2.28734240e-002 -9.74218547e-002
      -2.46708244e-002 -5.02458550e-002 3.00428122e-002 6.93354988e-003
      -1.27749108e-002 -3.09361494e-003 8.37127620e-004 2.22397931e-002
      8.57482385e-003 1.53606022e-002 1.48426825e-002 1.50982048e-002
      1.22811375e-002 3.05612781e-003 -2.97463238e-002 5.03726117e-003
      1.61821842e-002 2.64361482e-002 2.22217515e-002 1.26033984e-002
      -2.10597683e-002 -1.63258670e-003 -5.59972972e-002 2.62596691e-003
      6.12260168e-003 -2.15685014e-002 2.42629740e-002 1.99497920e-002
      2.47953404e-002 1.99147686e-002 1.76880807e-002 1.00012384e-002
      -4.24196385e-002 2.54177358e-002 1.23481872e-002 1.59976967e-002
      -2.07726983e-003 -1.48699805e-002 8.33644718e-003 -4.50443476e-002
      -2.55063293e-003 1.36662247e-002 -2.84293238e-002 1.72313987e-004
      -6.35823011e-002 1.07026650e-002 3.95713793e-003 7.12405704e-003
      -1.50581375e-001 -3.91566893e-003 -6.57236874e-002
      -6.17285185e-002 1.21701127e-002 -3.17904446e-003 -7.05786806e-004
      1.70956068e-002 2.05959473e-002 -4.13105525e-002 1.54271116e-002
      -9.88313556e-003 3.41261341e-003 -1.45701999e-002 7.57762650e-003
      -2.14968715e-002 1.12097757e-002 1.41680585e-002 -1.92162767e-002
      4.22867620e-003 -1.02484110e-003 1.36703076e-002 6.08234406e-002
      -1.10459309e-002 1.77995004e-002 4.48320154e-003 -1.64609798e-003
      1.23342974e-002 -9.36728716e-003 -3.78745012e-002 -2.54770592e-002
      8.97159427e-003 2.52737608e-002 1.42227169e-002 1.99935380e-002
      1.10186879e-002 2.98528429e-002 1.94946416e-002 1.94630679e-002
      7.99180474e-003 4.63918736e-003 -2.45071226e-003 -4.37125601e-002
      -3.72934081e-002 1.46106314e-002 9.01600532e-003 2.07719320e-004
      9.83882882e-003 -3.56781557e-002 1.34991677e-002 1.54384654e-002
      4.05992521e-003 -4.18468192e-003 6.14048331e-004 6.64625457e-003
      3.39010870e-003 -5.46524208e-003 2.50699986e-002 9.62265860e-003
      1.04797594e-002 1.21505037e-002 9.27570555e-003 8.19800515e-003
      7.70094292e-003 6.76989881e-003 -3.24520953e-002 -1.07265627e-002
      1.15286298e-002 -2.32053399e-002 1.38712404e-002 -6.97988868e-002
      2.91223712e-002 -1.81835033e-002 1.68519057e-002 -3.24815474e-002
      3.18122692e-002 -1.84336137e-002 1.59662701e-002 -9.63812054e-005
      5.99863520e-003 5.27285459e-003 1.50906686e-002 -9.29332823e-002
      -2.93940958e-002 -7.35022314e-003 -5.88067900e-003
      -1.52783599e-002 -8.20979709e-004 -4.09995113e-003 6.33104332e-003
      5.61680645e-003 -2.67734681e-003 -6.90822350e-003 1.86194852e-002
      -1.75420567e-002 6.71989750e-003 1.03018410e-003 1.38283670e-002
      -5.11271274e-003 5.75414114e-003 3.29229645e-002 1.07678017e-002
      2.29761917e-002 -2.02495512e-003 2.38319859e-003 8.84523988e-003
      1.81172621e-002 2.45129932e-002 -7.93967396e-003 -1.47159281e-003
      -2.15644334e-002 -2.36557201e-002 1.08877029e-002 -4.41835001e-002
      5.40963896e-002 5.89713082e-003 -3.87203530e-003 -1.48622431e-002
      2.89243106e-002 2.41936259e-002 -6.92705661e-002 1.78298131e-002
      5.43890288e-004 1.56008340e-002 1.78975780e-002 8.99445452e-003
      -3.04038823e-002 4.33735549e-002 6.49961829e-003 -7.61936009e-002
      1.71619952e-002 -8.11061077e-003 0. 3.88765126e-003
      -2.71729827e-002 -6.03858102e-003 2.33592372e-002 -2.53768489e-002
      1.02797085e-002 -3.00943526e-003 -2.84662098e-003 1.09876622e-003
      2.24575371e-004 9.12415981e-003 8.18836410e-003 2.20757499e-002
      1.69314013e-003 -7.50528090e-003 -5.41140325e-003 -5.84484776e-003
      1.12198135e-002 2.85004899e-002 -3.77317332e-002 3.27854767e-004
      8.15476477e-003 -1.08849211e-002 2.12404225e-002 -1.60661507e-002
      8.72358773e-003 1.16094379e-002 4.71463241e-002 -5.21701388e-003
      2.12292168e-002 -1.56217618e-002 3.09526422e-006 7.08924746e-003
      -4.19082679e-003 1.57302450e-002 -1.00848936e-002 5.05595887e-003
      -8.71212184e-002 8.11719708e-003 -1.99188385e-002 3.14925099e-004
      5.73352817e-003 -4.81624575e-003 9.09789000e-003 -4.14253883e-002
      -2.95575778e-003 1.37761454e-004 5.50561212e-002 1.74479242e-002
      5.59643470e-002 -2.46343296e-002 -2.11517569e-002 1.23195220e-002
      -2.49596946e-002 -3.80508900e-002 -3.08172014e-002
      -3.30936816e-003 1.03119416e-002 -9.88213997e-003 9.07830801e-003
      -4.67470801e-003 1.10799335e-002 1.05216717e-002 6.07293937e-003
      3.14198132e-003 9.38162860e-003 9.65600275e-003 -4.12113070e-002
      8.90374463e-003 1.84923615e-002 4.54236241e-003 1.17079336e-002
      1.60827418e-003 -5.08563966e-002 5.00809215e-003 -4.45756689e-002
      -2.16242508e-003 -1.02032879e-002 -9.55491047e-003
      -3.96249536e-003 1.97461527e-002 -4.42266557e-003 -6.42059669e-002
      1.93617307e-002 2.03687679e-002 5.49237570e-003 -1.75698865e-002
      1.16437403e-002 1.34602841e-002 -5.91677204e-002 3.51816020e-003
      4.18779403e-002 -1.65331010e-002 1.23616429e-002 4.79708519e-003
      -1.05335869e-001 -1.38048725e-002 -5.22070415e-002
      -8.53618383e-002 1.07789347e-002 1.15244230e-003 -7.03105889e-003
      -3.44914012e-003 9.50112753e-003 7.24747358e-003 2.82199774e-002
      1.99727751e-002 -1.04840882e-002 9.78548825e-003 -1.43098237e-003
      -1.22128231e-002 -2.81643588e-002 -1.87445562e-002 1.90949515e-002
      1.75781846e-002 8.29051249e-003 1.77028161e-002 2.25216169e-002
      -1.69039611e-002 1.91633366e-002 1.32654570e-002 5.96777443e-003
      -5.04792593e-002 -1.29325595e-002 5.73226437e-003 2.15018298e-002
      3.92302796e-002 5.23248361e-003 -2.25891266e-003 -2.11613206e-003
      -6.77238824e-003 2.04830132e-002 2.56366078e-002 3.47189829e-002
      -4.88817357e-002 2.98855063e-002 2.24571195e-004 1.45610562e-002
      -3.97273973e-002 -3.98945771e-002 6.37715869e-003 4.91301296e-003
      -5.18951826e-002 4.92933160e-003 2.56821383e-002 3.34936306e-002
      6.60587335e-003 1.55429589e-002 -6.66015549e-003 -7.17969285e-003
      1.54655892e-003 -1.21147953e-001 2.87067145e-003 3.14824507e-002
      9.18368809e-003 3.53835709e-002 6.01207046e-003 1.72293119e-004
      2.44059917e-002 1.33405663e-002 -6.47999812e-003 2.60183704e-003
      -7.96068758e-002 1.26270745e-002 -4.00798395e-002 7.05220969e-004
      4.37235832e-003 9.69236065e-003 1.06704533e-002 -1.73138175e-002
      2.67988537e-003 -1.61205977e-002 7.65204290e-003 1.19451070e-002
      6.22886140e-003 2.39464734e-002 3.71383876e-002 1.32946828e-002
      1.66447612e-003 3.58382612e-002 1.76941510e-002 1.33015681e-002
      -3.03581823e-003 -1.47948572e-002 2.09741052e-002 8.05125479e-003
      7.27189705e-003 -1.35349687e-002 -6.06811431e-004 1.58255585e-002
      -5.75580634e-002 5.00410749e-003 2.20691208e-002 5.11781452e-003
      7.11885700e-003 3.67434765e-003 1.24409767e-002 -4.53332253e-003
      3.59416083e-002 1.17485626e-002 3.73389013e-003 1.08480249e-002
      1.72408298e-002 6.65119151e-003 3.44292186e-002 9.25332867e-003
      -3.72708999e-002 2.67204121e-002 -3.27887130e-004 2.57970369e-003
      -2.97150295e-002 1.11235548e-002 -8.78627226e-003 3.01382062e-003
      -1.34148886e-002 -2.04364602e-002 -1.13461856e-002
      -4.44813725e-003 4.57876688e-003 -1.49405999e-002 5.31603908e-003
      2.57611219e-002 5.27201034e-003 2.09555030e-002 2.80791763e-002
      -7.98728317e-003 0. -4.56752144e-002 -1.15979444e-002
      3.22789466e-003 2.63262540e-004 -2.29335669e-002 1.40719684e-002
      1.57295950e-002 1.26610463e-002 7.73500651e-003 -2.99627781e-002
      1.13669261e-002 -5.75464442e-002 3.66910291e-003 8.65232898e-004
      -3.13582085e-002 7.03895139e-003 1.24029806e-002 -1.22812518e-003
      2.24570176e-004</_></support_vectors>
  <decision_functions>
    <_>
      <sv_count>1</sv_count>
      <rho>-9.9695036345913279e-001</rho>
      <alpha>
        1.</alpha>
      <index>
        0</index></_></decision_functions></my_svm>
</opencv_storage>
