<?xml version="1.0"?>
<opencv_storage>
<my_svm type_id="opencv-ml-svm">
  <svm_type>C_SVC</svm_type>
  <kernel><type>LINEAR</type></kernel>
  <C>1.</C>
  <term_criteria><epsilon>2.2204460492503131e-016</epsilon>
    <iterations>1000</iterations></term_criteria>
  <var_all>1000</var_all>
  <var_count>1000</var_count>
  <class_count>2</class_count>
  <class_labels type_id="opencv-matrix">
    <rows>1</rows>
    <cols>2</cols>
    <dt>i</dt>
    <data>
      -1 1</data></class_labels>
  <sv_total>1</sv_total>
  <support_vectors>
    <_>
      -6.77377777e-003 2.72919480e-002 -1.10752713e-002 -2.78178160e-003
      -1.28662260e-002 -1.83730572e-002 7.98850553e-004 -4.06035967e-002
      8.47200956e-003 -2.27968283e-002 -3.54954712e-002 -2.91617438e-002
      1.03202956e-002 5.55929029e-003 1.22300663e-003 2.44612843e-002
      -2.46803351e-002 2.07673460e-002 2.90990178e-003 1.11200707e-002
      6.83803810e-003 -9.78056621e-003 -7.79699441e-003 -2.10745670e-002
      -2.36362568e-003 -2.09208801e-002 -1.21243466e-002 1.74466483e-002
      -1.15968056e-001 1.72930360e-002 1.55042680e-002 -9.88770928e-003
      1.58585478e-002 -6.84968568e-003 2.19984935e-003 2.30865106e-002
      -1.19305328e-002 -3.02684139e-002 1.55798784e-002 -2.07691360e-002
      -2.08270736e-002 -4.26504761e-002 1.57041114e-003 -1.50585184e-002
      -5.49655128e-003 -1.15841134e-002 1.03100576e-003 -5.14633628e-003
      -6.70571476e-002 -3.85902040e-002 1.92544535e-002 4.92964027e-005
      2.56453212e-002 -1.67771038e-002 -1.34151960e-002 1.21181412e-002
      -5.12110926e-002 -4.95467670e-002 3.95646021e-002 2.42118700e-003
      1.90680940e-002 6.96966657e-003 -2.06772215e-003 1.42531740e-002
      6.67135973e-005 -1.28124710e-002 -1.86939631e-002 -2.39260262e-003
      -4.62532938e-002 1.26876757e-002 -1.22837136e-002 1.89726278e-002
      2.50338409e-002 -3.26103792e-002 2.92586884e-003 -1.10566737e-002
      2.50096712e-002 1.70402322e-002 1.85579862e-002 -1.26961181e-002
      -7.76134804e-003 3.35325785e-002 7.65950186e-003 3.02424431e-002
      3.56265083e-002 3.35010700e-002 1.15125617e-002 -1.87940169e-002
      4.46015643e-003 5.69086336e-003 2.54554339e-002 1.71723869e-003
      1.88848693e-002 2.11801697e-002 -8.50546465e-004 -1.59307942e-002
      -2.88226339e-003 1.82076432e-002 4.15602326e-003 -3.50353168e-003
      3.66942072e-003 4.39321157e-003 -9.59523320e-002 3.79085019e-002
      -6.82495674e-003 -4.25792095e-004 -1.79404579e-003
      -2.07498148e-002 -1.71917677e-003 -4.56352998e-003 4.16033603e-002
      -3.89602296e-002 1.51166301e-002 1.13231014e-003 -6.01247419e-003
      2.60758363e-002 9.62183997e-003 8.93426128e-003 -2.66995039e-002
      -1.56309046e-002 3.12698111e-002 1.76068023e-002 -8.10924824e-003
      8.55469052e-003 2.71473825e-002 -8.05419218e-003 2.39207712e-003
      1.74795724e-002 1.62010696e-002 6.51215576e-003 2.48090904e-002
      -6.21587224e-002 6.55888207e-003 -6.15081005e-002 6.72377180e-003
      -7.01850094e-003 1.12811169e-002 -3.85454483e-002 -1.74212623e-002
      2.56553665e-002 2.57099811e-002 -1.54783716e-003 1.33567834e-002
      -2.98968749e-003 6.45316206e-003 2.23220270e-002 -2.00897530e-002
      6.02551736e-003 1.54998926e-002 1.48881711e-002 9.13936272e-003
      -1.44019153e-003 -9.74558480e-003 -5.95742045e-003 7.97291286e-003
      2.62284260e-002 9.62135941e-003 2.46618297e-002 1.01017347e-002
      1.40874181e-002 -1.62176881e-002 3.42314206e-002 -2.41982993e-002
      1.16877723e-002 6.81594759e-002 1.01052709e-002 8.78200959e-003
      -1.92620344e-002 -3.02557386e-002 -5.39673567e-002
      -3.94243421e-003 1.96851175e-002 -2.87463609e-002 3.81559767e-002
      8.85474030e-003 -4.46318276e-002 3.82918343e-002 3.66189182e-002
      9.17677395e-003 -3.36108659e-003 1.93286538e-002 1.36982044e-002
      8.90549738e-003 -8.71606637e-003 2.11965642e-003 1.40795363e-002
      1.52957141e-002 1.89443920e-002 3.02893035e-002 2.30213795e-002
      3.35142086e-003 -4.28627171e-002 2.09826771e-002 1.49362776e-002
      1.73703879e-002 7.83465046e-004 -6.41716365e-003 2.37142481e-002
      1.82775613e-002 -1.19513813e-002 -2.22406592e-002 3.68363932e-002
      1.41549120e-002 -5.75255416e-002 -8.22092686e-003 4.25217487e-002
      -1.79251516e-003 5.60015300e-003 1.43518494e-002 4.87347506e-003
      -1.60420202e-002 6.97992928e-003 1.10331308e-002 1.29147619e-002
      2.75579630e-004 7.91952200e-003 -1.01302052e-002 -4.96978965e-003
      -5.14478888e-003 1.16245765e-002 -4.45682555e-003 1.03392787e-002
      1.51705341e-002 -1.26148053e-002 -1.20908599e-002 1.47811584e-002
      4.21547815e-002 1.20472256e-002 6.67586131e-003 9.18495748e-003
      1.41602764e-002 -3.25535722e-002 -4.55905829e-004 2.71158330e-002
      -2.54779775e-002 0. 2.74540912e-002 9.61639525e-005
      4.20706952e-003 -1.78399228e-003 -2.20800433e-002 -5.81848575e-003
      -1.89440455e-002 -1.52251814e-002 4.48732972e-002 5.57787158e-003
      -1.54214110e-002 1.11208577e-002 3.08570848e-003 -4.48280200e-002
      2.54046847e-003 6.78931409e-003 2.25172490e-002 2.00928748e-002
      1.16838431e-002 -1.99190881e-002 4.66189301e-003 2.46429164e-003
      1.35677429e-002 -9.06907860e-003 -3.31055336e-002 1.92690343e-002
      -5.65035492e-002 -1.10748205e-002 2.72617899e-002 -1.78726166e-002
      1.54030612e-002 -2.21946975e-003 1.44534511e-002 -3.47452238e-002
      1.41185950e-002 1.77682675e-002 9.46517941e-003 1.74780115e-002
      8.61625839e-003 -4.82377550e-003 7.75269326e-003 1.96678122e-003
      -1.45968748e-002 3.92051414e-002 -7.11129163e-004 -2.88426429e-002
      9.24330950e-003 -4.74969558e-002 3.55142099e-003 -2.04255036e-003
      3.20507772e-003 7.38497451e-003 1.61178466e-002 -8.06195138e-004
      2.87856832e-002 7.01550534e-003 1.21646672e-002 0. 1.25128790e-004
      -2.28272323e-002 -4.59098220e-002 1.99653693e-002 -9.20215622e-003
      -1.08292447e-002 3.16155776e-002 -5.33636520e-003 -6.41221739e-003
      2.48702485e-002 2.74283625e-003 -9.25463531e-003 6.15183311e-003
      3.08932047e-002 5.78984013e-003 1.38512393e-002 1.39016481e-002
      1.71409119e-002 1.24896429e-002 4.55383118e-003 1.06642731e-002
      -2.70205154e-003 2.43656617e-002 2.18341779e-002 9.87182744e-003
      2.13259226e-003 2.84404634e-003 2.60361191e-003 -7.83713628e-003
      2.49284357e-002 -2.49564704e-002 -2.21075900e-002 5.87979984e-003
      -3.11379135e-003 8.15401226e-003 2.36271438e-003 1.37128187e-002
      3.60835977e-002 -4.04700264e-002 1.35927377e-002 4.37884359e-003
      -1.32360617e-002 -1.40738012e-002 -2.30505224e-002
      -1.68548375e-002 5.64393122e-003 -4.88527259e-003 -1.21833896e-002
      1.07217953e-002 6.49265852e-003 1.99923618e-003 -3.56887914e-002
      -1.92097239e-002 1.02818236e-002 3.20466934e-003 -4.54102457e-002
      3.99631560e-002 2.04314496e-002 6.01717178e-003 1.07870344e-002
      1.02880811e-002 -7.18467543e-003 8.33126600e-004 1.55173391e-002
      -2.31544278e-003 9.20233689e-003 7.51462858e-003 5.00876969e-003
      5.75853465e-003 8.20595305e-003 -9.50931944e-003 8.58033448e-003
      5.88818686e-003 1.41760707e-002 1.34452269e-003 1.67254955e-002
      2.60299514e-003 -9.16747600e-002 4.61122626e-003 2.23740153e-002
      4.53750417e-003 -6.00024173e-003 3.41902263e-002 -3.98553200e-002
      2.68316455e-002 -1.90093592e-002 8.14880896e-003 -4.31933999e-003
      -6.55109528e-003 5.87088056e-002 6.35099411e-003 2.04789415e-002
      3.17461453e-002 1.98509544e-002 1.73075460e-002 1.65800322e-002
      -2.84944754e-002 7.71431858e-003 1.51484217e-002 -6.69464748e-003
      -2.15729252e-002 -1.17831677e-002 -3.39216786e-003
      -6.81383610e-002 -7.86900148e-003 0. -4.25409153e-002
      3.13144103e-002 1.03238167e-003 -9.84776206e-003 1.65928919e-002
      4.05334518e-004 -6.28876388e-002 -5.63936774e-003 2.28498373e-002
      -6.19746652e-003 1.77357662e-002 -1.73382591e-002 -7.92021805e-004
      3.59388621e-004 1.79529600e-002 2.89911404e-003 4.80361581e-002
      5.77011891e-003 -1.41265392e-002 -3.70597243e-002 -6.20397925e-002
      -6.36773836e-003 8.64078011e-003 7.36654829e-003 -2.85234470e-002
      3.52340229e-002 2.43762806e-002 1.35297282e-002 4.92064934e-003
      -7.44009856e-003 9.35762655e-003 -5.07624485e-002 1.83078498e-002
      -3.22139077e-003 1.22815091e-002 1.40372301e-002 9.97202378e-003
      1.23375142e-002 4.01159329e-003 3.63968941e-003 -1.83303915e-002
      9.55436379e-003 1.75815374e-002 -5.59998564e-002 -3.14192958e-002
      7.30346981e-003 1.23455608e-002 6.41393999e-004 -1.18437910e-003
      -2.35050172e-002 -6.33350983e-002 -2.54709739e-003 1.64990015e-002
      -3.60869244e-002 7.58391013e-003 2.47221328e-002 -1.76920537e-006
      -9.00531374e-003 3.30121163e-003 -1.56593956e-002 3.59377973e-002
      2.50644665e-002 1.51642943e-002 1.63394231e-002 4.16102819e-003
      1.06350156e-002 2.65788268e-002 -1.32912546e-002 1.82844494e-002
      -1.98471472e-002 -2.12708674e-002 2.19406933e-002 -1.92258619e-002
      -3.25379879e-005 7.55751878e-003 5.18323295e-002 5.10549452e-003
      6.21787133e-003 9.47142672e-003 6.53821183e-003 3.90670635e-003
      -2.38859048e-003 1.88852549e-002 1.04488628e-002 1.12865493e-002
      1.68221388e-002 -1.56444889e-002 1.07998494e-002 6.17871573e-003
      -3.68678495e-002 -8.27250828e-004 -2.62500811e-003 2.14428660e-002
      1.77784096e-002 7.47074746e-003 -2.96536870e-002 3.86550091e-002
      -4.90545388e-003 -5.75298164e-003 -3.38604525e-002 2.04274468e-002
      -2.73667718e-003 -1.75958145e-002 1.59207154e-002 -3.72663364e-002
      1.96757894e-002 1.52571620e-002 -4.96893749e-003 -4.50752256e-003
      1.68223754e-002 -1.85587304e-003 -2.35687643e-002 6.76382706e-003
      1.38129527e-002 1.04636969e-002 -8.95790309e-002 1.84483686e-003
      -1.26341386e-002 -1.08841946e-002 -9.02313646e-003 7.05555687e-003
      8.69720709e-003 8.00995994e-003 -6.41524559e-003 -4.49739620e-002
      5.88103896e-003 5.58629492e-003 -2.41902005e-002 1.37075279e-002
      -4.86873701e-004 -7.44152255e-003 6.50980556e-003 5.72737539e-003
      9.89918038e-003 -3.29061504e-003 3.41980793e-002 1.51114613e-002
      1.07037769e-004 8.10791180e-003 1.77712995e-003 -1.60982814e-002
      -2.70506088e-002 -4.75232583e-003 1.57997198e-002 3.05142552e-002
      2.81813345e-003 -9.13830288e-003 1.23150470e-002 5.80366841e-003
      -3.64641733e-002 2.78733261e-002 -7.41756696e-004 2.14632414e-002
      2.46357992e-002 -2.37759599e-003 -3.80971134e-002 5.80557762e-003
      -1.59401548e-004 5.96460560e-003 -3.54167037e-002 -2.19355095e-002
      2.86879088e-003 -7.55567977e-004 2.22268719e-002 -3.02617415e-003
      2.01516366e-003 -5.64225717e-003 0. -2.13472713e-002
      -1.25000649e-003 4.13205242e-003 1.87249221e-002 5.40362624e-003
      -4.52185608e-003 -2.61681760e-003 1.80172138e-002 -4.09492932e-004
      9.56086069e-003 -4.17467300e-003 1.47962812e-002 -2.28923615e-002
      4.81905183e-004 6.66029053e-003 1.35875093e-002 2.68472359e-002
      -8.33900925e-003 -1.61953997e-002 -8.02762434e-003 6.92111859e-003
      2.83004772e-002 9.79456026e-003 -5.11045866e-002 5.47124073e-003
      -1.61636136e-002 1.15959551e-002 -7.13787451e-002 -4.59379656e-003
      3.18118818e-002 5.77841094e-003 -1.96431242e-002 2.57018488e-003
      -3.04791201e-002 1.95174553e-002 4.34527406e-003 9.11714323e-003
      1.71757862e-002 1.33043691e-003 -2.12255884e-002 4.79113683e-003
      7.12805102e-003 -3.87809686e-002 -4.51019686e-003 1.76470242e-002
      -1.71838515e-002 1.23644033e-002 -1.32466823e-001 5.53568564e-002
      1.20865647e-003 3.35118137e-002 -3.82234110e-003 -5.23210317e-002
      2.70677730e-002 -2.07919292e-002 -1.00689419e-002 4.36879648e-003
      -2.35993485e-003 -3.28753865e-003 3.12839560e-002 1.84400287e-003
      -3.01874280e-002 -2.55446658e-002 -9.87104941e-005 2.54396312e-002
      8.10403470e-003 -4.44601243e-003 5.67046599e-003 -5.76031171e-002
      6.24820916e-003 -4.03715065e-003 1.66831985e-002 1.66173130e-002
      -3.22592095e-003 2.08785608e-002 1.54806301e-002 6.73738401e-003
      -9.79453232e-003 1.54576951e-003 -9.17071011e-003 2.48312950e-002
      2.04312075e-002 2.79050320e-003 -4.09877338e-002 1.06616821e-002
      5.14948703e-002 4.42390708e-004 -1.26676634e-002 -2.61625480e-002
      1.13856224e-002 7.60910334e-003 1.97245367e-002 -7.33176852e-003
      7.25627923e-003 5.63450251e-003 -3.60184167e-005 -2.96709985e-002
      1.32068424e-002 1.18181705e-002 -3.79916131e-002 1.59277897e-002
      1.14848965e-003 8.74041300e-003 -6.15563579e-002 -4.70962562e-003
      5.51572349e-003 -3.83798592e-002 -9.39902570e-003 1.72667746e-002
      6.08507823e-003 2.53036190e-002 9.77470260e-003 -6.56642579e-003
      -3.01729944e-002 -1.92715798e-003 -2.09209826e-002
      -5.09989355e-003 2.83775162e-002 1.12279616e-002 1.21667311e-002
      -2.06391769e-003 2.60288292e-003 2.61083208e-002 2.57723294e-002
      2.01098584e-002 2.59907451e-002 -5.21356193e-003 6.32577855e-003
      1.82581339e-002 -2.94519309e-002 1.94252413e-002 2.14936398e-002
      -1.73717029e-002 -2.18992885e-002 1.05612865e-002 -4.82714921e-002
      3.66640277e-003 -2.45136791e-003 -3.98089737e-002 -6.01031743e-002
      -3.44040059e-002 -3.26704280e-003 -7.62111619e-002
      -1.02908826e-002 8.21393076e-003 2.60759257e-002 3.05081587e-002
      -1.46363890e-002 -6.36480600e-002 9.00500268e-003 3.20091145e-003
      -1.44137964e-002 3.39464061e-002 2.75198575e-002 7.33340951e-003
      1.55030647e-002 -6.87399367e-003 1.01377200e-002 1.88253317e-002
      4.28310921e-003 1.30362874e-002 1.21055432e-002 1.28253000e-002
      1.24666821e-002 -1.99576505e-002 2.78221760e-002 -5.91773652e-002
      2.02850252e-002 1.11619318e-002 7.18740979e-004 1.05935652e-002
      8.11636727e-003 1.78721510e-002 -4.78582345e-002 -7.17281029e-002
      -3.34994383e-002 6.76555047e-003 9.14610364e-003 -1.59380697e-002
      1.80993136e-002 -8.12502985e-004 -6.89971494e-003 0.
      5.34766623e-005 -2.09494065e-002 7.25287013e-003 2.28366833e-002
      -3.93562624e-003 -5.31658940e-002 -2.99282279e-003 2.34941971e-002
      5.42708067e-003 -1.70556046e-002 -2.61381995e-002 1.91049222e-002
      9.56891663e-003 7.44611025e-003 2.45389179e-003 6.12445874e-003
      -2.58574244e-002 6.47529168e-003 1.22426590e-002 6.23865938e-003
      1.07828563e-003 -1.04625504e-002 2.52926182e-002 -7.21476451e-002
      -2.09124312e-002 1.19500700e-002 3.25748301e-003 6.06687553e-003
      -4.20235693e-002 4.33982126e-002 2.00578310e-002 -7.06959004e-003
      2.36594062e-002 -9.41871665e-003 -1.78540498e-002 -3.43480078e-003
      -7.33338811e-006 1.09413769e-002 -4.58489731e-003 8.97462666e-003
      2.28216797e-002 -4.72169816e-002 2.02493165e-002 -3.21208537e-002
      -1.61078759e-002 1.70543473e-002 -2.68028732e-002 -4.79247868e-002
      2.29950268e-002 -1.43009555e-002 -1.89673640e-002 1.81268493e-003
      1.50182294e-002 1.65749118e-002 4.56160540e-003 3.18473391e-002
      -2.82392446e-002 -4.95669013e-003 -2.57831290e-002
      -5.71110286e-003 2.71204822e-002 -1.41023220e-002 -2.62864260e-003
      -1.71636976e-002 -2.81698927e-002 1.83139723e-002 -2.08488554e-002
      1.79458633e-002 -2.14290991e-002 -8.07022676e-003 1.16191162e-002
      1.83371957e-002 1.50307855e-002 4.24493803e-003 -2.23227888e-002
      -4.70992401e-002 -4.78534028e-002 1.54792042e-002 1.17745977e-002
      -3.33287101e-003 1.46410456e-002 6.65604509e-003 4.30969847e-003
      7.25530321e-003 -1.45498095e-002 -1.77039783e-002 9.43760760e-003
      0. 9.82441101e-003 4.98510059e-003 6.76853908e-003
      -1.06759807e-002 -1.20768882e-003 -4.53997171e-003 2.36102026e-002
      0. 7.92307593e-003 8.88520479e-003 3.15866321e-002 5.43792825e-003
      2.41954997e-002 -1.51119959e-002 6.88823545e-003 -4.02487582e-003
      8.05858150e-003 2.27804948e-002 1.76671892e-002 1.45484740e-002
      5.07136155e-003 3.36776339e-002 2.42486838e-002 5.30680502e-003
      -7.02671800e-003 7.00959936e-003 7.40902405e-003 -3.97594506e-003
      6.30234554e-003 1.00409100e-002 -1.38898352e-002 -5.90978982e-003
      1.45125913e-003 6.82071922e-003 -1.23888850e-001 2.52307393e-002
      1.78337693e-002 1.21152550e-002 4.43689106e-003 3.31840701e-002
      -1.66146085e-003 8.12521577e-003 -1.22856991e-002 1.65841598e-002
      1.08676925e-002 -2.52012424e-002 1.33240493e-002 -4.08069268e-002
      2.42865514e-002 -8.44178256e-003 2.81407218e-002 1.55033283e-002
      -5.64960670e-003 -3.44753452e-002 -2.98427995e-002
      -1.23197576e-002 8.91837385e-003 -1.37184151e-002 -1.69336237e-002
      -5.30699361e-003 8.85171816e-003 1.04646748e-002 -8.24233331e-003
      2.22722273e-002 8.35137721e-003 1.11523932e-002 9.71932709e-003
      2.85173324e-003 -6.78072125e-003 -3.17665236e-003 -4.95325439e-002
      1.19290324e-002 -4.16880706e-003 -2.22792681e-002 -4.56667468e-002
      -3.05652265e-002 -1.56709235e-002 2.57642772e-002 1.48383090e-002
      -1.32164182e-002 -2.65684444e-002 4.26991936e-003 -9.55625344e-003
      7.11626999e-005 -3.49902245e-003 -2.60507707e-002 2.71267407e-002
      -1.04026049e-002 -2.82313377e-002 1.51882768e-002 1.38070714e-002
      1.45327123e-002 -3.41942278e-003 -1.84346512e-002 2.52216719e-002
      -9.20231733e-003 -9.97479726e-003 -1.66395735e-002 7.16081308e-003
      -5.43490145e-003 4.65175882e-003 6.01061918e-002 1.77972415e-003
      -2.32121302e-003 1.79046560e-002 1.83389876e-002 1.93466470e-002
      -1.62746049e-002 6.09070668e-003 1.44989528e-002 2.18975618e-002
      2.60545090e-002 -1.51050109e-002 3.01956502e-003 1.81427207e-002
      -1.81744639e-002 -2.60421243e-002 2.07240786e-003 2.00902801e-002
      1.02362139e-002 8.53211898e-003 7.85624236e-003 -2.53730603e-002
      -6.10394869e-003 1.76629275e-002 -1.08548850e-002 5.74114034e-003
      -5.01682190e-003 5.06586544e-002 1.09928828e-002 1.33039765e-002
      -1.28164133e-002 2.54623685e-002 -2.47146934e-002 1.47689339e-002
      2.48923376e-002 -4.95098019e-003 6.97906921e-003 -4.56993245e-002
      1.41328550e-003 -5.11007011e-002 5.70084900e-004 3.68493795e-002
      -5.15661435e-003 -6.17638342e-002 6.52785366e-003 -5.79183130e-003
      -5.43778343e-003 -1.53473392e-002 6.99358177e-004 5.23185823e-003
      1.38600618e-002 9.91939101e-004 1.10525014e-002 5.43319993e-003
      4.04977724e-002 -7.87931867e-003 2.28842348e-003 1.55520439e-002
      0. 2.71557574e-003</_></support_vectors>
  <decision_functions>
    <_>
      <sv_count>1</sv_count>
      <rho>-9.9741951905775583e-001</rho>
      <alpha>
        1.</alpha>
      <index>
        0</index></_></decision_functions></my_svm>
</opencv_storage>
