<?xml version="1.0"?>
<opencv_storage>
<my_svm type_id="opencv-ml-svm">
  <svm_type>C_SVC</svm_type>
  <kernel><type>LINEAR</type></kernel>
  <C>1.</C>
  <term_criteria><epsilon>2.2204460492503131e-016</epsilon>
    <iterations>1000</iterations></term_criteria>
  <var_all>1000</var_all>
  <var_count>1000</var_count>
  <class_count>2</class_count>
  <class_labels type_id="opencv-matrix">
    <rows>1</rows>
    <cols>2</cols>
    <dt>i</dt>
    <data>
      -1 1</data></class_labels>
  <sv_total>1</sv_total>
  <support_vectors>
    <_>
      -5.70721664e-002 -5.23624755e-003 1.44526856e-002 -2.95269601e-002
      -7.59693701e-003 1.45724947e-002 2.34004110e-002 -6.30808482e-003
      1.70175191e-002 1.12520680e-002 6.01920346e-003 1.46310050e-002
      -1.55121788e-001 4.64866236e-002 -1.79319453e-004 -3.29927984e-003
      5.90930246e-002 2.39561591e-002 1.37636596e-002 1.65544059e-002
      2.43752240e-003 1.88086312e-002 1.37001285e-002 -9.81631968e-003
      1.99169368e-002 -2.79683224e-003 -2.26130011e-003 5.84450690e-003
      -2.40877795e-004 -8.51999894e-002 5.21453544e-002 1.17143691e-002
      -8.27642361e-005 1.16595272e-002 1.99780446e-002 -6.74447045e-003
      1.69315422e-003 -3.93967777e-002 -5.30678453e-003 -3.21751554e-003
      5.86516457e-003 1.61561579e-003 -1.21008139e-002 -1.26478998e-002
      9.45764873e-003 -1.41243394e-002 -1.25125349e-002 -3.92411761e-002
      1.63957663e-002 2.13099532e-002 -4.91524674e-003 1.07183633e-002
      -2.25069188e-003 -2.72476040e-002 6.51721889e-003 6.88801846e-003
      1.46432798e-002 -3.66188325e-002 -3.09042577e-002 4.98641701e-003
      -3.22760381e-002 -1.35071366e-003 1.29710082e-002 2.84736436e-002
      -1.04729468e-002 5.74659333e-002 4.16179672e-002 -2.87547596e-002
      -3.48996557e-002 -1.11587346e-001 1.31670851e-002 1.71150956e-002
      4.90295002e-003 2.72960961e-003 4.78845183e-003 1.02755940e-003
      2.16036309e-002 3.15345190e-002 -4.21882160e-002 -6.31306618e-002
      -1.91094317e-002 1.68066733e-002 -1.55680533e-002 -6.70607686e-002
      -1.76044106e-002 2.43692398e-002 -4.50769179e-002 3.79322190e-003
      -2.45602918e-003 1.69658638e-003 9.26733203e-003 -2.07079644e-003
      1.61262564e-002 1.70226558e-003 -2.23041382e-002 -3.08045298e-002
      6.76750392e-003 5.79917571e-003 2.41808146e-002 8.68955068e-003
      -5.87734617e-002 1.78466234e-002 1.48474593e-002 -9.90388468e-002
      1.47009990e-003 9.27260146e-003 -2.74219662e-002 -5.59944808e-002
      8.02523980e-004 7.72814499e-003 -1.90207046e-002 3.47744580e-003
      -8.48048553e-002 3.23277302e-002 -2.33339258e-002 1.80170294e-002
      2.08564289e-002 -1.02442121e-002 -2.81732380e-002 -5.00136800e-003
      -1.85883567e-002 8.34333617e-003 2.66291406e-002 -2.21303641e-003
      3.54985939e-003 -1.18239066e-002 9.14527103e-003 -1.79938152e-001
      1.08209560e-002 -9.60122347e-002 -2.43411791e-002 -2.23960578e-002
      -8.59856457e-002 -2.00040499e-003 1.32364966e-002 1.91546399e-002
      -2.26141815e-003 -1.50884446e-002 1.07913660e-002 -7.59975761e-002
      -2.01519988e-002 2.56984518e-003 3.81133482e-002 1.47943553e-002
      -1.60105098e-002 1.20851910e-002 3.51081565e-002 3.76473330e-002
      1.11582372e-002 -1.44519992e-002 1.79652750e-004 -6.33773580e-003
      2.47084703e-002 3.26042101e-002 -8.00776482e-003 1.31417941e-002
      2.03481875e-002 1.46908397e-002 6.01396151e-003 -2.31443369e-003
      5.65862358e-002 -1.74120200e-004 2.30352692e-002 3.22946929e-004
      1.47788525e-002 -2.80323308e-002 2.78468281e-002 1.07226958e-002
      6.28370792e-003 1.48188807e-002 -3.18576908e-003 -2.93506905e-002
      5.90381585e-003 4.33546444e-003 1.00279311e-002 4.73968778e-003
      4.20005247e-003 2.02607457e-002 -1.74148101e-002 -5.14635146e-002
      1.44397421e-002 1.91913582e-002 1.66753102e-002 1.22197084e-002
      -2.23862864e-002 1.82615574e-002 1.22167720e-002 2.37708222e-002
      -6.58486858e-002 3.85371665e-003 -6.09563990e-003 -1.40066147e-002
      1.99363399e-002 1.59807522e-002 1.03916964e-002 1.48281176e-002
      5.60339075e-003 3.58819291e-002 -2.33112630e-002 -5.29391915e-002
      -1.13742863e-004 1.29690003e-002 2.23583449e-002 1.20054847e-002
      3.03934067e-002 -6.07714336e-003 -1.69187281e-002 1.77824721e-002
      1.18505047e-003 -2.27419175e-002 1.14709069e-003 3.43722058e-003
      1.80289000e-002 -4.63115843e-003 5.74798742e-003 -2.05190070e-002
      1.67080741e-002 1.58983823e-002 8.12992360e-003 -2.21611969e-002
      -2.79025137e-002 4.28561727e-003 2.03098147e-003 -1.51134236e-002
      -5.87549247e-003 -8.72618705e-002 1.20473150e-002 2.87243538e-002
      4.93869558e-003 -2.69881897e-002 -3.18789296e-002 -5.35013154e-002
      3.31769176e-002 4.17648628e-002 0. 1.37188053e-002 8.83989502e-003
      -1.32789668e-002 -1.21480115e-002 1.06506553e-002 -1.09555256e-002
      1.48056932e-002 -7.78704556e-003 -2.06755493e-002 2.49735564e-002
      1.73308421e-002 4.12713562e-004 1.00442544e-002 2.52904221e-002
      4.50675599e-002 3.30162160e-002 1.12211220e-002 -3.96056660e-003
      4.86353179e-003 -4.42067394e-003 2.51897480e-002 0.
      -2.55655423e-002 2.26468481e-002 3.49301472e-002 1.10211736e-002
      -1.86851194e-005 -3.15085575e-002 4.93906392e-003 -1.10186292e-002
      8.00752919e-003 -5.39771542e-002 5.54345967e-003 -7.71795511e-002
      3.48926783e-002 -2.19510198e-002 -9.80213052e-004 -2.52344739e-002
      1.13026900e-002 1.31113846e-002 5.23487777e-002 1.55910607e-002
      1.03579927e-002 4.64573316e-003 2.11697388e-002 9.71460249e-003
      -4.46431898e-003 1.33882593e-002 -4.40206751e-003 5.12991659e-003
      -7.03850295e-003 -4.11923155e-002 -2.60351803e-002 3.75854666e-003
      6.02257391e-003 7.26053212e-003 1.31730651e-002 7.79926591e-003
      1.72307938e-002 1.62462872e-002 9.48150642e-003 -9.30832583e-004
      2.68531460e-002 2.07587425e-002 -4.76412773e-002 -2.34536566e-002
      -1.78880226e-002 -4.89843972e-002 6.12239214e-003 -3.40776183e-002
      1.29900491e-002 4.15332615e-002 -1.10841244e-002 4.11859453e-002
      1.43460128e-002 1.10769067e-002 1.88750606e-002 -2.49290820e-002
      -4.11845818e-002 -2.22943667e-002 3.62064838e-002 4.58821451e-004
      -8.66424385e-003 -1.03804003e-002 2.27934141e-002 1.55582437e-002
      -4.90970584e-003 -4.57405625e-003 -2.13385618e-004 1.74956843e-002
      7.14367582e-003 2.50278525e-002 2.77703665e-002 8.71703262e-004
      2.10461356e-002 8.64611287e-003 1.04215997e-003 7.87558407e-003
      2.24624816e-002 -2.81692352e-002 2.17050724e-002 -5.27977422e-002
      -1.79928429e-002 1.92782693e-002 4.44387598e-003 -1.34858198e-003
      1.93458460e-002 9.18121450e-003 1.20327035e-002 1.81710143e-002
      1.41619872e-002 3.80122326e-002 2.64046695e-002 1.75318848e-002
      2.14838795e-002 2.41773203e-002 5.05753886e-003 -4.35045138e-002
      2.19901018e-002 1.00183440e-002 -5.99351078e-002 3.07565392e-003
      1.23451967e-002 -1.15171395e-001 -2.49364078e-002 -1.34824701e-002
      -9.01640859e-003 3.61075369e-003 1.01440940e-002 1.39350286e-002
      -4.28295869e-004 1.30303605e-002 -3.20952050e-002 -2.48559355e-003
      3.55322920e-002 9.40614089e-004 1.13697462e-002 -1.08056217e-002
      1.26056271e-002 2.22211685e-002 -1.78675558e-002 1.01008983e-002
      1.36765586e-002 1.50995085e-003 3.03551788e-003 1.55579569e-002
      6.07863395e-003 -1.11391302e-002 3.81585471e-002 1.82617567e-002
      5.25452197e-003 -7.40661612e-003 9.35859978e-003 -5.65143600e-002
      2.91342294e-004 2.43947119e-003 -1.98499281e-002 2.47700475e-002
      8.91785789e-003 2.59563472e-004 6.48949202e-003 -3.54979391e-004
      2.50560418e-002 3.44435661e-003 8.42787791e-003 -3.00038082e-004
      -1.08236605e-002 -1.52858729e-002 2.31490424e-003 1.02753201e-002
      1.84751432e-002 1.31322211e-003 7.44088553e-003 3.99337336e-002
      -3.38650751e-003 4.15327065e-002 2.69649476e-002 7.88570754e-003
      5.57413930e-003 5.23326453e-003 -1.55531317e-002 4.32070829e-002
      -4.37827501e-003 -9.11182538e-003 4.53888439e-003 1.49911884e-002
      2.68670004e-002 1.99309960e-002 7.08645675e-003 1.24454629e-002
      -3.70343104e-002 7.57056335e-003 -4.54586037e-002 1.57501623e-002
      5.15216636e-003 5.47051011e-003 -3.45528871e-002 1.33807380e-002
      3.72032411e-002 -1.38255879e-002 -4.32917476e-003 1.56128332e-002
      -1.83712895e-004 4.92322333e-002 1.49498638e-002 1.28327217e-003
      -2.50712149e-002 4.99678999e-002 3.37434607e-003 1.46222664e-002
      0. 3.66352545e-003 -1.47668878e-002 2.25389246e-002
      6.33389922e-004 1.11392252e-002 9.57888272e-003 3.46609801e-002
      -4.60075121e-003 1.14276297e-002 -1.35147199e-002 2.50136778e-002
      4.22637025e-003 1.53877297e-002 9.29850992e-003 9.12292674e-003
      -8.54934566e-003 -6.95698801e-003 -8.87789652e-002 2.04471666e-002
      2.70112082e-002 2.68635992e-002 8.73685349e-003 -1.07405912e-002
      6.14608591e-003 -1.35840187e-002 -1.91922430e-002 -2.62053926e-002
      2.03348566e-002 -1.33676026e-002 7.56433606e-003 1.83677711e-002
      -5.86604234e-003 4.00465764e-002 -2.07096944e-003 9.67362989e-003
      9.38098691e-003 7.86119048e-003 2.63465885e-002 -1.16251307e-002
      8.84137524e-004 1.73088051e-002 2.86114961e-003 5.78232016e-003
      3.36488965e-003 3.23277083e-003 -4.48248833e-002 2.22974923e-002
      1.30596254e-002 -1.33308780e-003 1.47406310e-002 7.56502384e-003
      1.12862522e-002 -1.42024942e-002 -4.32179449e-003 7.87512772e-003
      1.36702135e-002 5.66903036e-003 1.65548865e-002 3.77716050e-002
      3.40295699e-003 -4.69780378e-002 -7.76432629e-004 3.87323424e-002
      -1.94916804e-003 2.82339510e-002 7.90482759e-003 -8.09207484e-002
      4.29194560e-003 1.24922357e-002 4.12033452e-003 -1.15881562e-002
      2.46274192e-002 -2.38426756e-002 1.38883581e-002 1.59554463e-002
      2.60802805e-002 -1.53701077e-003 -4.24864776e-002 2.42454261e-002
      -4.46312828e-003 -2.99213687e-004 1.74089950e-002 2.26582903e-002
      -3.04928841e-003 4.16531553e-003 4.10098024e-003 -1.56062632e-003
      -7.04697147e-002 9.74262971e-003 -3.83031345e-003 -1.31476186e-002
      -1.19402662e-001 -1.48767745e-002 -3.23833711e-002
      -2.91679706e-002 -3.39145511e-002 2.66688224e-002 2.57875714e-002
      1.32452324e-002 2.47587799e-003 1.42697236e-002 -4.59742844e-002
      1.23802731e-002 2.26198183e-003 2.83998344e-003 3.59618594e-003
      2.11137477e-002 -2.25269538e-003 -4.89172060e-003 6.32441649e-003
      1.17177656e-002 3.17481696e-003 3.11662890e-002 1.12712651e-003
      -9.37921647e-003 6.22364599e-003 -3.58738052e-003 -5.25427377e-003
      -4.47287671e-002 3.23875481e-003 4.13832767e-003 1.69133376e-002
      -1.73933823e-002 2.32231654e-002 2.93738507e-002 1.71806868e-002
      1.18231727e-002 -1.15214493e-002 -3.30421962e-002 9.00049810e-004
      -5.27480990e-002 8.81202891e-003 -8.20133612e-002 -3.46017536e-003
      -1.67747196e-002 -5.26877047e-005 7.55641283e-003 -3.18551436e-002
      -8.71029962e-003 -2.28666589e-002 -1.25978524e-002
      -7.78285787e-002 5.39197121e-004 1.09070847e-002 -1.00980140e-002
      1.83211919e-002 1.73301660e-002 8.33335333e-003 2.27596369e-002
      -3.19589209e-003 -2.24218275e-002 2.83196308e-002 -3.42407785e-002
      5.33178588e-003 3.14129342e-004 -4.69131321e-002 2.21548919e-002
      -3.64827216e-002 3.11381673e-003 -1.44777354e-002 8.83117225e-003
      -4.28552032e-002 -7.01899815e-004 -2.55610561e-004 1.71639640e-002
      8.30969680e-003 -3.54900733e-002 6.11360595e-002 1.31952697e-002
      6.62587536e-003 1.24697536e-002 1.04575099e-006 1.76483504e-002
      1.89108457e-002 3.33203450e-002 3.41478474e-002 2.92086345e-003
      6.56868517e-003 1.54069634e-002 -2.44915183e-003 1.34338588e-002
      2.60418821e-002 -8.40277448e-002 -5.35361990e-002 3.06792837e-002
      -1.44257285e-002 1.01868277e-002 -2.84260488e-003 2.22199056e-002
      2.71446574e-002 1.40704857e-002 -1.88701991e-002 1.20516159e-002
      -2.88291543e-004 -4.70688567e-003 9.59951989e-003 -1.10629667e-002
      -6.32752571e-003 6.66447636e-003 5.23065403e-003 8.22148926e-004
      5.51511766e-004 4.59270738e-003 -1.39590418e-002 2.16756184e-002
      1.11365318e-002 1.13714505e-002 1.66023318e-002 1.34042408e-002
      1.57507863e-002 3.52190733e-002 1.80011820e-002 4.02732156e-002
      2.14895383e-002 -1.37993144e-002 -1.27454652e-002 -7.45533705e-002
      2.99950074e-002 -2.85422187e-002 7.79316062e-003 8.40772223e-003
      -1.56622042e-003 3.51331905e-002 -3.85376182e-003 4.10385616e-003
      -1.08335301e-001 1.88365970e-002 -8.89071636e-003 8.09857156e-004
      4.15663421e-003 1.08961540e-003 -9.70263127e-003 3.93266277e-003
      -5.30026406e-002 -2.04137713e-002 -3.16902399e-002 2.22563185e-003
      1.25527801e-002 -4.95006815e-002 3.09031364e-003 9.89722461e-003
      -1.09291193e-003 6.98973285e-003 -4.85103764e-002 2.14974545e-002
      8.47025216e-003 3.10380645e-002 -6.98225349e-002 1.92038678e-002
      0. 3.70318978e-003 -1.90461942e-004 -2.90760933e-003
      2.46344376e-002 -2.06194613e-002 5.53395133e-003 -4.61618640e-002
      1.10801263e-002 8.63853283e-003 -2.26844959e-002 -3.73105705e-002
      -2.26079468e-002 1.82621810e-003 1.18972184e-002 -7.41191115e-003
      9.78575181e-003 2.37607528e-002 8.93279817e-003 -4.07753605e-003
      1.27747413e-002 -3.73793431e-002 8.85024853e-003 1.87874138e-002
      4.92166216e-003 2.42997371e-002 -6.72205910e-003 7.01403618e-003
      1.56462304e-002 -2.47695949e-002 -2.64197681e-003 1.79498643e-002
      5.56369498e-003 -4.64452757e-003 8.86879209e-003 -1.36573508e-001
      -7.70616233e-002 6.04081340e-003 -4.76071518e-003 1.70087209e-003
      1.56083237e-002 1.80423502e-002 -2.15325058e-002 1.59911010e-002
      2.51097400e-002 7.77296396e-003 2.14190241e-002 8.49799777e-004
      4.32967255e-003 -1.98286232e-002 8.85478221e-003 -5.70643507e-002
      3.78047023e-003 1.81812830e-002 1.51848318e-002 -1.71138905e-002
      -7.93043617e-003 9.87126143e-004 -1.28033068e-002 2.76292022e-002
      1.73046235e-002 6.85895979e-003 1.25271939e-002 2.08921060e-002
      -3.29245366e-002 3.72455642e-002 1.87490950e-003 1.66467931e-002
      3.46578285e-002 1.99315269e-002 -5.03542349e-002 1.88410711e-002
      2.62811151e-003 3.04001477e-002 -2.42441744e-002 -6.37927139e-003
      2.18908652e-003 -1.23938192e-002 -3.93858319e-003 9.43228230e-003
      -1.64476931e-001 5.17424680e-002 -1.19375596e-002 3.72743234e-002
      1.14053795e-002 4.66359500e-003 7.88137875e-003 1.20611442e-002
      1.75108742e-002 -2.16995738e-002 2.72585405e-003 -1.53852953e-003
      5.41465590e-003 8.11159890e-003 7.25294836e-003 -9.89280641e-003
      7.60095706e-003 1.30669633e-002 1.91204119e-002 -8.40265602e-002
      1.35228885e-002 9.87848826e-003 -4.01029885e-002 3.39585077e-003
      1.96143799e-003 1.89695898e-002 2.08778158e-002 1.95362456e-002
      1.44310538e-002 -3.03460605e-004 4.55510383e-003 -1.37275886e-002
      -7.17751356e-003 1.15868039e-002 -1.58627294e-002 -1.31247711e-004
      -9.10589937e-003 -7.52044097e-003 2.53944024e-002 -3.57589796e-002
      4.64799441e-003 2.01901142e-002 1.64141599e-002 4.26320592e-003
      1.17248937e-003 -2.40427931e-003 2.22934913e-002 -8.37200438e-004
      9.71582532e-003 2.92893909e-002 -1.93519481e-002 5.70115075e-003
      -4.76363227e-002 1.97682064e-002 -4.09796089e-003 3.68230045e-002
      -1.90651584e-002 1.60909835e-002 1.98873156e-003 7.42082996e-003
      -7.68900325e-004 -8.09134264e-003 1.68766435e-002 9.82781965e-003
      1.58448331e-002 -5.74029423e-003 1.83775567e-003 1.24079296e-002
      -2.69115134e-003 1.52663421e-002 3.19415666e-002 -1.28854690e-002
      9.18788649e-003 1.54501339e-002 8.18986632e-003 1.47424415e-002
      -6.12966530e-002 9.05804429e-003 7.90262874e-003 -9.24512837e-003
      1.73555482e-002 0. -1.55379334e-002 5.52871041e-002
      1.24032749e-002 -3.05783730e-002 3.83529509e-003 2.06689723e-002
      5.64585254e-003 7.53663387e-003 2.35737693e-002 5.49781742e-003
      -3.45365815e-002 1.53090444e-003 1.58529580e-002 2.82306559e-002
      1.12133846e-003 9.96743888e-003 -1.65908749e-003 1.12472801e-002
      -5.69966845e-002 1.99482427e-003 -5.91495913e-003 -7.51237525e-003
      1.73033290e-002 -2.29825154e-002 2.47502103e-002 6.34181267e-003
      1.35557400e-002 1.25675350e-002 -7.48089552e-002 -1.04055728e-003
      2.50425451e-002 1.05389170e-002 -7.89150305e-004 -7.23923882e-003
      -1.13177523e-002 1.38971256e-002 2.38117352e-002 5.82079589e-003
      -1.36492476e-002 1.53043540e-002 9.45902988e-003 3.35603394e-003
      -9.00318846e-003 2.60197818e-002 7.06400722e-003 1.23914322e-002
      -8.98490325e-002 -6.88536000e-003 1.37929255e-002 -2.68747881e-002
      1.92628447e-002 -1.51861282e-002 1.29607199e-002 2.91819144e-002
      1.32754417e-002 1.96400471e-002 1.63702071e-002 -3.28826532e-002
      -2.22988019e-004 1.09920595e-002 2.24512815e-003 2.46877316e-002
      5.03839785e-003 5.98079339e-003 5.87092526e-003 2.50224639e-002
      -1.85808502e-002 1.62303783e-002 3.26653733e-003 -2.19518468e-002
      -9.96909663e-003 1.91480294e-002 -4.77255285e-002 6.58583408e-003
      1.06952256e-002 1.23827008e-003 -1.92643981e-002 2.47674361e-002
      9.93637019e-004 -4.19885293e-003 1.23060411e-002 -9.71105939e-004
      -4.23652167e-003 3.98229919e-002 -4.76443879e-002 -7.23177940e-002
      1.97571479e-002 -1.86945945e-002 5.42944763e-003 7.01012136e-003
      4.27726796e-003 8.43393244e-003 8.25189613e-003 8.50676093e-003
      1.98426284e-002 -1.13595888e-004 1.32824685e-002 -3.13474387e-002
      -1.07216006e-002 5.45025244e-003 9.85761546e-003 -2.57980023e-002
      -9.10127815e-003 1.27512673e-002 2.36172322e-002 2.36058272e-002
      -5.51250912e-002 3.71845961e-002 -4.41902801e-002 1.13117546e-002
      -4.34700260e-003 -3.07828013e-005 -8.08039028e-003
      -1.26651963e-002 -2.02590786e-002 -3.94662376e-003 5.54718589e-003
      1.38526345e-002 9.10964515e-003 4.56646346e-002 1.76779628e-002
      6.52351463e-003 2.35679820e-002 8.23220424e-003 -5.51871918e-002
      1.74637083e-002 1.93607677e-002 1.55541822e-002 -5.34002446e-002
      -3.32288668e-002 1.79581381e-002 5.36930487e-002 5.85220614e-003
      1.42426221e-002 1.20315254e-002 1.59743708e-002 -1.13300998e-002
      7.93141499e-003 3.12210005e-002 -2.01120619e-002 1.44214220e-002
      -4.33197916e-002 -1.67714451e-002</_></support_vectors>
  <decision_functions>
    <_>
      <sv_count>1</sv_count>
      <rho>-9.9705410853592769e-001</rho>
      <alpha>
        1.</alpha>
      <index>
        0</index></_></decision_functions></my_svm>
</opencv_storage>
