<?xml version="1.0"?>
<opencv_storage>
<my_svm type_id="opencv-ml-svm">
  <svm_type>C_SVC</svm_type>
  <kernel><type>LINEAR</type></kernel>
  <C>1.</C>
  <term_criteria><epsilon>2.2204460492503131e-016</epsilon>
    <iterations>1000</iterations></term_criteria>
  <var_all>1000</var_all>
  <var_count>1000</var_count>
  <class_count>2</class_count>
  <class_labels type_id="opencv-matrix">
    <rows>1</rows>
    <cols>2</cols>
    <dt>i</dt>
    <data>
      -1 1</data></class_labels>
  <sv_total>1</sv_total>
  <support_vectors>
    <_>
      1.80037096e-002 1.83927678e-002 -1.15802428e-002 3.23281251e-003
      -4.51503284e-002 2.01452095e-002 -7.11585442e-003 1.21960193e-002
      -9.73228179e-003 1.59913581e-002 1.14638172e-003 -2.38815863e-002
      2.31847931e-002 -3.78205255e-002 5.85100707e-003 -1.76885596e-003
      5.59651293e-003 1.77472811e-002 -1.27093885e-002 2.47603860e-002
      1.06446063e-002 1.00398595e-002 2.14532502e-002 2.11949907e-002
      1.76373944e-002 8.63792654e-003 5.18569676e-003 -4.12402898e-002
      9.28552542e-003 -2.39305175e-003 8.45148042e-003 -3.26612801e-003
      -3.04452609e-003 -1.90388318e-002 -1.55053092e-002 9.38659161e-003
      -9.97764431e-003 1.53976092e-002 2.71091927e-002 -7.39767356e-003
      1.00943735e-002 2.39106975e-002 -1.87877864e-002 -1.96052939e-002
      -1.06741451e-002 -2.79995671e-004 4.14079893e-003 1.41258640e-002
      6.90570916e-004 1.25214201e-003 -1.61397122e-002 -8.51261709e-003
      -1.86281241e-002 9.43610352e-003 2.23529479e-003 3.44478933e-004
      -1.85041130e-002 2.15737857e-002 1.31012099e-002 1.11923730e-002
      1.35611221e-002 1.50454240e-002 3.13285775e-002 1.55694168e-002
      1.54739488e-002 -1.56714059e-002 -2.23784130e-002 1.07805803e-002
      8.98888428e-003 -1.58051793e-002 1.03480918e-002 1.47109907e-002
      8.44289921e-003 1.72498997e-003 1.86089724e-002 2.05352884e-002
      4.80354344e-003 -1.24848820e-002 -5.65427181e-004 9.03191138e-003
      1.42339813e-002 -7.05723558e-003 4.59579937e-003 8.07471666e-003
      4.20820946e-003 -1.17238853e-002 -8.31620581e-003 1.05164777e-002
      -1.06259594e-002 1.25901671e-002 -1.46907959e-002 -1.34124281e-002
      1.60431657e-002 -1.31353103e-002 -2.44394168e-002 -1.43216392e-002
      1.58220176e-002 2.22934969e-002 -4.35764261e-004 -1.91157833e-002
      -1.90019992e-003 -6.08528638e-003 -1.39140291e-002 1.65459588e-002
      2.32230593e-002 4.13030526e-003 8.26243253e-004 1.65926106e-002
      -1.80478767e-002 7.31357001e-003 1.22337518e-002 7.52323424e-004
      4.86732554e-003 7.46858213e-003 3.29344161e-002 1.45044327e-002
      -1.02228504e-002 2.97049386e-003 1.69031266e-002 -6.32009655e-003
      1.14860656e-002 1.99426827e-003 1.83253586e-002 1.22992583e-002
      -8.15187674e-003 -1.35676535e-002 5.55915339e-003 3.60477269e-002
      1.59999505e-002 -1.16808983e-002 -2.17380188e-002 1.48571907e-002
      7.64176669e-003 -8.26316327e-003 -1.29233748e-002 -4.83997054e-002
      -7.01590627e-003 -1.74766704e-002 -2.43849829e-002 7.96179101e-003
      6.95667276e-003 1.90049112e-002 7.00534368e-003 1.06603615e-002
      1.10505754e-002 -1.35178771e-002 -4.47838334e-003 1.67470356e-003
      -2.07569613e-003 -1.08202016e-002 -4.08828212e-003
      -9.75687895e-003 -2.35302579e-002 1.54142147e-002 -1.37160225e-002
      1.34273367e-002 2.29825322e-002 -4.35562544e-002 -1.81243159e-002
      -5.45046618e-003 1.14060752e-002 -1.74386743e-002 -1.97377838e-002
      -2.80796438e-002 5.33236098e-003 2.13480815e-002 2.26503462e-002
      -2.24322882e-002 1.41066802e-003 1.20225353e-002 9.23045725e-003
      8.84929486e-003 -2.27156654e-003 5.92419831e-003 2.19463650e-002
      1.19409440e-002 -1.38905635e-002 -3.78913768e-002 -3.87440505e-003
      1.09202089e-002 8.71988200e-003 1.12178354e-002 2.10594814e-002
      1.01070562e-002 -1.65926735e-003 1.09442119e-002 -3.66365444e-003
      -7.14282179e-003 -5.47284633e-003 -2.86963675e-002
      -1.14448387e-002 2.77373032e-003 -1.82778090e-002 6.84872223e-003
      -4.46717925e-002 -5.08546457e-002 -1.69094801e-002 1.17306020e-002
      -6.03451673e-003 -6.74122991e-003 1.75344869e-002 8.47245287e-003
      -1.10522076e-003 -9.93882492e-003 1.53824873e-003 -1.84025858e-002
      1.77715195e-003 -1.36666233e-002 5.64852078e-003 1.05173867e-002
      3.32386626e-005 -2.93485131e-002 2.23826175e-003 8.50169174e-003
      1.09440694e-003 1.18207028e-002 -1.03747165e-002 3.83420172e-003
      4.37416573e-004 -1.57320104e-003 6.08127564e-003 5.19384723e-003
      5.21084340e-003 2.65927985e-002 2.22038627e-002 1.88907161e-002
      -6.16438240e-002 -2.23933291e-002 0. 9.86250211e-003
      -9.33399890e-003 1.95805375e-002 5.04969899e-003 1.36345532e-002
      2.63688155e-003 -8.47655535e-003 -3.86241004e-002 -3.89988115e-003
      1.35078998e-002 -2.35554180e-003 -2.26526354e-002 2.80622556e-003
      3.10558500e-003 -1.37423361e-002 2.01751199e-002 -2.32212264e-002
      2.53744773e-004 -1.17646856e-002 3.88361141e-003 -2.62896181e-003
      1.34562580e-002 2.04366557e-002 -1.40024899e-002 -1.70798767e-002
      1.49194256e-003 -1.40852965e-002 6.84470823e-003 -2.21105898e-003
      2.32222043e-002 2.21724454e-002 1.35185411e-002 2.44348980e-002
      -1.62073523e-002 1.83508154e-002 7.10329460e-003 -1.60641726e-002
      1.04316287e-002 2.01669056e-002 1.36503903e-002 -5.97372977e-003
      5.94507717e-003 -7.02649355e-003 3.11534423e-002 -3.84473195e-003
      5.27469441e-003 9.46233235e-003 1.87882893e-002 -4.39024204e-003
      2.22189371e-002 1.84240919e-002 -1.35527635e-002 5.45933051e-003
      1.96041670e-002 -2.67612282e-002 8.98845866e-003 2.01049950e-002
      3.13059501e-002 1.26724131e-002 6.99133473e-003 1.22592235e-002
      -1.54777849e-003 3.06892041e-002 4.55658995e-002 2.44068075e-002
      7.96481594e-003 -3.30188610e-002 1.10326251e-002 -1.51578924e-002
      -1.57230813e-002 6.26801420e-003 9.89972893e-003 -3.84529456e-002
      4.83760785e-004 2.78761722e-002 8.15911777e-003 5.36051160e-003
      1.04375212e-002 1.73479784e-002 1.22565795e-002 -1.33326021e-003
      2.55097100e-003 -1.09569347e-002 -4.53816137e-005 -1.25597976e-002
      3.67236098e-005 -2.56476831e-002 -1.94115806e-002 1.48239471e-002
      7.33247865e-003 7.68779870e-003 -8.93945899e-003 6.60692924e-004
      5.77993225e-003 3.39924532e-004 -6.84467796e-003 8.69834516e-003
      2.15649251e-002 -2.45904699e-002 -3.37558636e-003 -2.85898522e-003
      -1.65254194e-002 -1.42441345e-002 1.55561781e-002 1.26205655e-002
      -2.04132427e-003 4.46770759e-003 -3.85145051e-003 -9.62402020e-003
      -3.91678466e-003 4.05149302e-003 -2.86021829e-003 9.57851484e-003
      -4.10713535e-003 3.94355180e-003 1.56872459e-002 -2.22814502e-003
      -3.31441611e-002 -1.00997137e-002 5.49895503e-003 -5.94803132e-003
      -2.38810759e-003 1.25721460e-002 5.43816248e-003 1.01310220e-002
      -3.56279686e-003 4.71620169e-003 9.76239052e-003 1.16126379e-002
      5.61886933e-003 7.89143797e-003 3.87439970e-003 -2.08291924e-003
      -1.90490372e-002 -3.67761590e-002 1.93846223e-004 1.11517543e-002
      -2.55070385e-002 4.82183043e-003 1.09330351e-002 4.20174503e-004
      -5.31909894e-003 -2.46696416e-002 -1.39121572e-002 1.78929209e-003
      4.58686333e-003 2.10083537e-002 1.96556672e-002 -1.76247163e-003
      1.57422442e-002 5.47883147e-003 2.01463941e-002 3.60714293e-005
      1.54033443e-002 6.91273669e-003 9.18536354e-003 6.20539021e-003
      -1.03522865e-002 -1.71189867e-002 -5.42199751e-003
      -2.71549169e-002 1.78793119e-003 9.72109940e-003 1.58921257e-003
      7.35235494e-003 -5.18445810e-003 -1.88235492e-002 1.41773382e-002
      -3.24308053e-002 -4.29745438e-003 1.00640533e-002 -9.26616043e-003
      -5.61529696e-002 3.92737705e-003 2.84811918e-004 -5.97144011e-003
      -3.78478854e-003 5.09525323e-003 3.74223129e-003 1.83017924e-002
      1.85414981e-002 2.41520815e-002 1.30758034e-002 -4.45757149e-004
      1.60258077e-002 8.15998018e-003 8.45749304e-003 9.25663114e-003
      4.84554209e-002 6.24297373e-003 1.25068910e-002 -1.23998115e-003
      -7.54780620e-002 3.63763492e-003 1.01143140e-002 -3.04220896e-003
      1.19704911e-002 -1.70770101e-003 9.53770336e-003 -1.61622781e-002
      2.45917868e-002 9.56344791e-003 1.02634057e-002 -1.11988047e-002
      2.10980400e-002 4.68438491e-003 -7.73703400e-003 3.44335102e-002
      2.15293616e-002 1.15819173e-002 2.20588851e-003 7.43692042e-003
      -2.58835545e-003 -2.46291645e-002 -3.05054560e-002
      -1.39094563e-002 2.63686897e-003 4.40792413e-003 -3.93525371e-003
      -3.17922905e-002 -1.87745038e-002 -1.49563430e-002 3.97167169e-003
      -3.39831859e-002 -1.14331143e-002 3.31210718e-002 -5.72542567e-003
      5.43993525e-003 1.00338366e-002 2.13230532e-002 2.75234804e-002
      6.61698723e-005 3.99018172e-004 -1.85735878e-002 4.14939271e-003
      6.70507737e-003 -1.68488473e-002 4.59480769e-004 2.87775304e-002
      5.80975506e-003 -9.25603323e-003 -1.91006216e-003 9.35456250e-003
      1.34570654e-002 1.47969555e-003 2.48132814e-002 -8.49588774e-003
      3.00797517e-003 1.07739645e-003 2.89378036e-002 1.33124674e-002
      -1.70345325e-002 -4.63897735e-003 -5.89231635e-003 1.56118721e-002
      1.53320208e-002 8.82633682e-003 1.22604994e-002 6.38729846e-003
      -1.15900757e-002 5.48988348e-003 -6.40018843e-003 -1.47263985e-003
      3.31005733e-003 6.50567142e-003 9.40343644e-003 2.51095891e-002
      1.30533855e-002 9.37454868e-003 -2.58578174e-002 6.92883274e-003
      1.86630560e-003 1.26503175e-002 1.32897319e-002 -1.43292733e-002
      7.02079479e-003 -1.63745321e-002 -1.19857620e-002 -2.98941955e-002
      -2.43801437e-002 -2.31996682e-002 -2.87598302e-003
      -5.44804661e-003 1.14723602e-002 -2.17367243e-002 -2.93316767e-002
      -1.13175791e-002 6.46664528e-003 -5.31503651e-003 6.28472539e-003
      1.41874226e-002 -1.29308868e-002 1.54362088e-002 8.77258647e-003
      2.74657067e-002 -4.08145711e-002 9.80220549e-003 -2.55895662e-003
      4.92731226e-004 8.52395687e-003 1.08561516e-002 8.34505726e-003
      6.11384027e-003 1.11945085e-002 1.43640777e-002 2.76074372e-002
      1.07774865e-002 1.98129956e-002 1.05378209e-002 6.51586056e-003
      -1.39371259e-002 2.72197742e-002 2.07820423e-002 -1.97301246e-002
      8.02025944e-003 -7.55273411e-003 2.04799101e-002 4.03011590e-003
      3.59730539e-003 1.79301891e-002 1.43530560e-004 -2.38903426e-002
      1.13736754e-002 5.46695618e-003 1.00081479e-002 -4.49201874e-002
      -8.53206310e-003 1.13739902e-002 -7.31658842e-003 -6.58589508e-003
      -1.51351755e-002 -3.53625380e-002 2.12682653e-002 1.49782982e-005
      -3.34755853e-002 1.08941467e-002 1.03502637e-002 2.74358708e-002
      -1.83930546e-002 -1.98862609e-003 -2.33735386e-002
      -1.71644054e-002 -1.52759370e-003 7.57780112e-003 -3.46056335e-002
      1.33752944e-002 -1.67270694e-002 2.52078138e-002 7.61130312e-003
      1.30824912e-002 1.97485555e-002 -1.82350888e-003 -1.24081587e-002
      -4.78909770e-003 5.84220234e-003 1.10418964e-002 2.90457346e-002
      2.39639245e-002 1.24633722e-002 -1.00259464e-002 8.37851223e-003
      -5.89786237e-003 1.40334470e-002 -6.54123677e-003 -3.29176262e-002
      1.88290887e-002 1.15510011e-002 2.14324370e-002 -1.95249710e-002
      1.44688869e-002 1.43369278e-002 2.18084105e-003 4.73500841e-004
      -9.20365471e-003 2.34416430e-003 -9.71928530e-004 4.57341928e-004
      -8.01463611e-003 3.09271477e-002 4.05347086e-002 -1.84678715e-002
      8.99697072e-004 2.18819119e-002 -1.01157911e-002 1.64347235e-002
      8.49466247e-004 -6.92380667e-002 -1.05447927e-002 4.55356855e-003
      -2.98909433e-002 4.28379001e-003 -1.77369677e-002 1.52208740e-002
      1.03923376e-003 5.16147865e-003 -1.02449358e-002 -2.66875536e-003
      -1.53571274e-002 -2.32083611e-002 -2.01667901e-002 3.20304371e-003
      1.70960519e-002 4.49394574e-003 3.88675672e-003 1.25513664e-002
      6.26236061e-003 9.36110318e-003 5.68865426e-003 7.97402870e-004
      -6.47151517e-003 -5.01672365e-002 1.08589267e-003 1.19623914e-002
      1.83116905e-002 -2.53552869e-002 1.86600536e-002 3.11513222e-003
      4.44593187e-003 1.40249997e-003 1.33500760e-002 -1.00256121e-002
      1.77023606e-003 -2.74668764e-002 6.06512371e-003 1.99395954e-003
      9.26956255e-003 7.17083830e-003 -6.02076529e-004 -3.20089646e-002
      -3.09407134e-002 8.12629517e-003 2.21753791e-002 2.86114722e-004
      4.09685308e-003 4.32502152e-003 1.23220002e-002 -7.56356167e-005
      7.31879752e-003 1.31545225e-002 -2.38665938e-002 9.23727266e-003
      -3.58533487e-002 1.69253536e-002 -4.99188341e-003 1.37968762e-002
      5.13271382e-003 8.33252352e-003 1.14340838e-002 2.08960287e-002
      -3.88965420e-002 4.95073991e-003 -1.14652282e-003 6.70746202e-003
      7.08290515e-003 1.14421705e-002 -1.58844725e-003 1.07804255e-003
      -1.79931279e-002 -9.61860083e-003 -5.21231117e-003 3.31416260e-003
      -7.83845969e-003 8.07585195e-003 -1.52478237e-002 4.61005932e-003
      -1.67040043e-002 1.48623181e-003 -7.61453761e-003 -2.71983594e-002
      8.18241504e-004 -5.95941558e-004 3.34798396e-002 8.39524379e-004
      3.91789433e-003 -1.75400525e-002 -1.32225724e-002 -3.01417578e-002
      8.89973156e-003 6.80951867e-003 3.85472062e-003 1.55084319e-002
      4.64306632e-003 -1.46017577e-002 8.57473165e-003 1.65083297e-002
      2.40029693e-002 -7.87469931e-003 6.31152792e-003 -3.27287838e-002
      -9.91588924e-003 4.10240144e-003 6.87434850e-003 -1.01800822e-003
      1.62524206e-003 1.54526660e-003 1.31108807e-002 -4.26675950e-004
      1.40234157e-002 1.29581643e-002 -5.94832888e-003 -1.43585717e-002
      1.80117134e-002 8.50718748e-003 -3.77370557e-003 3.77188101e-002
      -1.80698279e-002 -1.87339392e-002 1.02064461e-002 2.93478719e-003
      -1.21096279e-002 1.49294930e-002 -9.99294873e-003 1.61778815e-002
      -1.12278312e-002 -2.55447607e-002 4.87209624e-003 1.31958993e-002
      8.11444130e-003 -1.70275476e-002 -1.26753505e-002 -5.28142005e-002
      1.52327362e-002 5.31580439e-003 1.11250998e-002 1.73238814e-002
      -4.57421225e-003 6.42009405e-003 7.69167300e-003 3.31874937e-003
      2.18545715e-003 2.57787202e-003 8.46310798e-003 0. 3.82359023e-003
      -1.57827530e-002 7.40715489e-003 1.57799013e-002 1.31971259e-002
      -5.29352501e-002 -2.24797335e-002 -7.79640255e-003 1.47170573e-002
      -1.25437034e-002 -2.45176125e-002 3.38954804e-003 -3.78135499e-003
      1.34984711e-002 -4.00074944e-003 -1.30730390e-003 -3.36188003e-002
      3.59716779e-003 -4.07501571e-002 -3.84641415e-003 2.17559957e-003
      1.65019352e-002 8.33550747e-003 7.17740739e-003 -3.39176203e-003
      9.69302468e-003 5.43738902e-003 -1.76683553e-002 -6.28450047e-003
      -3.95718543e-003 1.42591782e-002 -4.89755021e-003 1.84526332e-002
      -1.97543879e-003 -2.61884406e-002 1.98343992e-002 -4.31832130e-004
      -8.21924489e-003 -9.38768033e-003 -4.69232473e-004 1.79304723e-002
      1.10306544e-002 -7.41275307e-003 6.54571340e-005 2.10964284e-003
      -1.43246949e-002 -8.86338577e-003 1.68497749e-002 1.28443306e-002
      -4.27330062e-002 -9.40550468e-004 1.74462690e-003 1.02257403e-002
      1.19317602e-002 2.09745858e-003 -2.75250375e-002 -1.54905403e-002
      1.09232515e-002 -1.17167505e-002 -5.39688906e-003 -5.28840115e-004
      -2.98699699e-002 -2.08094101e-002 -6.91953814e-003
      -1.13168107e-002 -1.83971680e-003 5.85144758e-003 1.71755848e-003
      1.01347724e-002 1.75139438e-002 -1.31790051e-002 -2.22791675e-002
      -3.45301963e-002 1.48431202e-002 1.73678789e-002 -5.66781778e-003
      1.39897931e-002 5.37653780e-003 -2.98983976e-002 8.73576391e-006
      -1.64141823e-002 6.25062361e-003 1.46429259e-002 -5.06815352e-002
      1.05010765e-002 9.48366057e-003 -1.41264210e-002 3.19700278e-002
      3.44617367e-002 1.32062973e-003 -4.82420512e-002 9.61431861e-003
      -2.70827953e-002 7.08499644e-003 0. 8.77502374e-003
      4.94737029e-002 1.95687711e-002 -7.54116150e-003 9.21684317e-003
      -3.33695412e-002 2.03504860e-002 -3.67580401e-003 -9.50033497e-003
      -8.68235342e-003 6.43162639e-004 4.11363179e-003 2.77892686e-003
      1.10780802e-002 -2.16460768e-002 -1.10351969e-003 -2.43659187e-002
      -7.27125863e-003 -5.99706126e-003 4.13046964e-003 9.44915519e-004
      4.20026248e-003 -1.11230128e-002 -1.83519814e-002 2.53977254e-002
      -8.39636009e-003 -1.07704697e-003 -1.70790439e-003 1.18153542e-002
      -1.35753583e-002 1.22710606e-002 -1.22970401e-003 -1.96515284e-002
      2.65178992e-003 -2.69226693e-002 -3.36402915e-002 -1.75219569e-002
      5.06459270e-003 -2.48118825e-002 -2.54934793e-003 1.48268025e-002
      -8.33499059e-003 -3.27949470e-004 -2.71076821e-002
      -2.05082749e-003 -1.27679203e-002 -8.84862430e-003
      -1.94498934e-002 5.30481199e-003 8.95160343e-003 4.42178687e-004
      7.01791560e-003 8.66770642e-005 8.73342995e-003 -1.94827747e-002
      5.48638636e-003 -2.97978695e-004 1.19069470e-002 1.21969525e-002
      9.05619375e-003 -8.61603953e-003 -2.54148431e-003 1.27271432e-002
      0. 1.06855519e-002 2.18448732e-002 -3.25085111e-002
      7.72872195e-003 -4.60112374e-003 1.27699403e-002 6.23372803e-003
      2.01999326e-003 3.53636662e-003 -3.61471975e-005 -3.84106897e-002
      8.57584993e-004 2.07719989e-002 6.31544134e-003 -7.88730942e-003
      -5.69281681e-003 -1.01279030e-002 2.31203344e-002 3.36138741e-003
      -3.24575119e-002 -2.47068121e-003 2.44688685e-003 -7.52431573e-003
      -8.29820707e-003 -2.21333932e-002 2.00834293e-002 4.78090066e-003
      -7.48145021e-003 1.55634908e-002 -9.90535878e-003 -1.87658239e-002
      -4.24475186e-002 9.06895567e-003 -1.13574862e-002 6.72857417e-003
      4.39020898e-003 2.48896470e-003 1.47119425e-002 8.21692403e-003
      3.16657056e-003 1.07169924e-002 -1.00482022e-002 5.37480460e-003
      -5.94757451e-003 -7.07244314e-003 1.41923595e-002 1.23224938e-002
      5.12527768e-004 -1.19908638e-002 6.36054995e-003 4.15617367e-004
      3.44803999e-003 6.50645141e-003 -3.20981666e-002 1.26912473e-002
      4.83911252e-003 -1.12905428e-002 -1.61371240e-003 -1.42413182e-002
      3.86111764e-003 7.85909500e-003 7.73018273e-003 1.18069313e-002
      -2.43932009e-002 -7.71609247e-002 -2.02893633e-002
      -8.44802521e-003 -2.28971802e-003 -1.20536238e-002 4.25205287e-003
      -1.93012133e-002 1.98387541e-003 1.05269561e-002 1.87620129e-002
      -6.10128865e-002 1.50036523e-002 3.11106560e-003 -6.37659943e-003
      -3.00459028e-003</_></support_vectors>
  <decision_functions>
    <_>
      <sv_count>1</sv_count>
      <rho>-9.9772479947894466e-001</rho>
      <alpha>
        1.</alpha>
      <index>
        0</index></_></decision_functions></my_svm>
</opencv_storage>
