<?xml version="1.0"?>
<opencv_storage>
<my_svm type_id="opencv-ml-svm">
  <svm_type>C_SVC</svm_type>
  <kernel><type>LINEAR</type></kernel>
  <C>1.</C>
  <term_criteria><epsilon>2.2204460492503131e-016</epsilon>
    <iterations>1000</iterations></term_criteria>
  <var_all>1000</var_all>
  <var_count>1000</var_count>
  <class_count>2</class_count>
  <class_labels type_id="opencv-matrix">
    <rows>1</rows>
    <cols>2</cols>
    <dt>i</dt>
    <data>
      -1 1</data></class_labels>
  <sv_total>1</sv_total>
  <support_vectors>
    <_>
      2.31475336e-003 1.36585357e-002 3.73134157e-003 1.03933923e-002
      -2.88022496e-003 2.19058078e-002 -1.23000825e-002 2.65640934e-004
      -1.91417355e-002 -4.77366755e-003 1.43098924e-002 2.89511234e-002
      3.34085058e-003 4.17062500e-003 2.92175892e-003 -1.37360003e-002
      -6.37545856e-003 7.46199954e-003 2.30537509e-004 1.93221159e-002
      2.78278980e-002 8.21875222e-003 5.13887219e-003 4.07091156e-003
      -1.38038527e-002 7.90586416e-003 1.15879560e-002 -1.63792409e-002
      1.46616204e-002 -5.09533547e-002 -2.26565003e-002 7.56921945e-003
      -5.73014887e-003 -3.84352542e-002 7.14597246e-003 -1.86253171e-002
      8.91168322e-003 4.17508476e-004 1.06196816e-003 6.31294027e-003
      -1.44885993e-002 -7.52507616e-003 1.75982174e-002 3.71472910e-003
      1.57773383e-002 1.94625612e-002 -1.38214771e-002 -6.28706207e-003
      -5.23786154e-003 -1.30042527e-002 -1.77766867e-002 1.53781986e-003
      -9.41175874e-003 -5.33538498e-003 1.98247861e-002 9.31743905e-003
      8.02134350e-003 -1.91437895e-003 -1.09354947e-002 2.69150129e-003
      2.89828312e-002 -4.08221828e-003 -2.14477116e-003 -1.33822598e-002
      5.78133157e-004 4.76804981e-003 -2.60186177e-002 2.63913977e-003
      -6.64386079e-002 4.49368507e-002 -5.74131450e-003 -2.19585281e-002
      -1.98997241e-002 6.49721548e-003 1.41152088e-003 1.79899987e-002
      5.97238680e-003 -7.28203170e-003 -3.70319299e-002 8.65650887e-004
      -1.95385013e-002 -8.88089929e-003 3.25265042e-002 -2.45834291e-002
      1.62073597e-002 -2.15095170e-002 1.41604163e-003 2.60125995e-002
      -8.56655743e-003 8.69871024e-003 2.76287319e-003 1.43262120e-002
      3.60870478e-003 1.77248456e-002 1.13251386e-002 -2.03780401e-002
      -2.68376172e-002 3.66309215e-003 2.26747207e-002 8.91769771e-003
      -1.02214748e-003 -1.39003806e-003 2.56952904e-002 -6.79735467e-003
      1.71889756e-002 -2.26064585e-005 -5.43722650e-003 1.74495764e-002
      -7.44655821e-003 1.05243791e-002 -6.75609261e-002 2.02806387e-002
      -9.99291588e-005 -4.79899254e-003 -6.73532602e-004 1.74834672e-002
      1.59883574e-002 -3.51991877e-002 -8.76317546e-003 9.68508981e-003
      -1.72582958e-002 -2.75052749e-002 3.87377478e-003 -5.44500723e-003
      -1.04295574e-002 8.68526753e-003 -1.41118867e-002 8.36416800e-003
      -1.34709813e-002 -1.19659281e-003 -1.58511393e-003 1.65022966e-002
      -1.10855578e-002 1.12185692e-002 -1.33040044e-002 1.10794371e-002
      3.16728605e-003 1.40425432e-002 7.51298387e-003 -2.15343051e-002
      -6.78996462e-003 -1.30866263e-002 -5.29460190e-003 6.65061548e-003
      5.98495081e-003 -2.82528866e-002 1.21779805e-002 6.78155944e-003
      -2.97611405e-004 -2.59678997e-002 1.11727500e-002 -2.42640660e-003
      -3.60056129e-003 -2.09730398e-002 -2.27952581e-002
      -1.16261868e-002 1.73443975e-003 1.17067853e-002 1.51171200e-002
      -1.49837346e-003 -8.10194388e-003 6.11207099e-004 3.01834270e-002
      -1.79944057e-002 -1.74596384e-002 -2.78116688e-002
      -6.00735843e-003 1.04856659e-002 1.76758580e-002 1.15119014e-002
      -7.06943776e-003 1.91726908e-002 -3.08825728e-002 8.14212859e-003
      9.73046198e-003 1.51224695e-002 -3.15442635e-003 -1.24025764e-002
      1.43924402e-002 1.34494919e-002 -1.40211862e-002 1.51552982e-003
      -6.60912693e-003 -2.42073257e-002 -4.51185880e-003
      -6.74281362e-003 -1.84618086e-002 4.31408593e-003 -5.00392914e-003
      -1.47880483e-002 -1.72039047e-002 1.43847540e-002 2.79648099e-002
      -5.50375693e-003 -9.88148153e-004 -3.34620825e-003 1.06450275e-003
      -9.58052184e-003 -3.94913442e-002 -2.24960744e-002 1.26596494e-002
      -1.14602549e-002 1.68940928e-002 1.33933723e-002 1.28867626e-002
      2.86247190e-002 -9.16073006e-003 3.76031315e-003 2.32114438e-002
      4.24699578e-003 1.32819964e-002 -8.29673372e-003 9.55504552e-003
      -3.49933468e-002 -2.75396071e-002 2.19791606e-002 -8.28449428e-003
      -5.73147973e-003 1.34832766e-002 -7.90923252e-004 8.21467955e-003
      5.06869145e-003 1.04603227e-002 1.36967013e-002 4.27807122e-003
      -1.58163942e-002 -1.69674959e-002 -1.44656375e-002 1.03457468e-002
      -3.38400045e-004 4.64848336e-003 5.48152253e-003 2.77193869e-003
      -1.84548553e-002 7.22189015e-003 2.73314072e-003 -3.71806393e-003
      4.03595244e-004 -2.61243572e-003 3.38829937e-003 1.39017589e-003
      5.49767260e-003 1.52475405e-002 8.57179053e-003 6.62442995e-004
      -1.27348434e-002 7.73468614e-003 1.87255384e-003 6.98598288e-003
      1.42576674e-003 5.95080107e-003 1.40779298e-002 2.79707136e-003
      2.29802332e-003 -1.12345311e-004 -6.47491962e-003 1.19656986e-002
      -4.33070399e-003 -8.87064263e-004 -1.37314424e-002 2.24290341e-002
      -2.82426476e-002 6.38881372e-003 -2.07427563e-003 1.36328088e-002
      1.37067894e-002 -3.18030044e-002 -2.97999997e-002 6.64506247e-003
      1.56867262e-002 -8.55567027e-003 4.05488070e-003 -1.17332991e-002
      4.20065597e-004 -2.57184450e-002 -1.36943813e-002 -1.35494871e-002
      1.62172841e-003 -2.99420976e-003 -3.90657736e-003 -1.32107772e-002
      -2.54298057e-002 -1.00996681e-002 4.39268444e-003 1.30995933e-003
      -9.72729828e-003 2.14188453e-002 6.08898792e-003 -5.12456195e-003
      -2.26786099e-002 -1.46417059e-002 1.26958415e-002 -1.44163733e-002
      2.73322221e-003 1.79647077e-002 1.12173501e-002 1.44132646e-002
      1.12804156e-002 -1.04498481e-002 -1.50207318e-002 -2.19587851e-002
      -1.36010936e-002 1.62417591e-002 -5.22511452e-003 7.07389601e-003
      2.50676298e-003 9.69899539e-003 6.79746363e-003 -7.89361249e-004
      5.30899875e-003 1.14021813e-002 2.38593332e-002 -8.39433074e-003
      1.92342792e-002 5.40613104e-003 8.75565037e-003 1.17061231e-002
      3.44766979e-003 4.34311712e-003 -2.55174469e-002 6.40024384e-003
      -1.79191586e-002 -1.32974377e-002 -1.20238997e-002 1.38941398e-002
      1.75129011e-004 5.70014212e-003 1.15353027e-002 1.99353113e-003
      9.87947825e-003 -3.39045227e-002 -5.52345254e-003 4.90647601e-003
      6.14857953e-003 -2.43991520e-002 2.43746233e-003 -2.12125480e-002
      -8.15637584e-004 -5.44987153e-004 -1.60725303e-002
      -2.19709892e-003 -2.89820158e-003 2.98108370e-003 1.57328825e-002
      5.36357146e-003 5.95310330e-003 1.25442687e-002 1.10038351e-002
      3.97142954e-003 1.43756680e-002 5.05488832e-003 1.07433950e-003
      -1.56634115e-002 -1.73566081e-002 -9.03785508e-003 1.95068214e-002
      1.44058513e-003 -2.83438782e-003 9.28765628e-003 4.59091831e-003
      4.24327794e-003 9.49238520e-003 -7.37516396e-003 -6.02116867e-004
      1.00038003e-003 1.67055167e-002 3.65805719e-003 8.15581903e-003
      -1.17138121e-003 -5.45377750e-003 2.42455509e-002 -1.52730464e-003
      -2.54894644e-002 -9.89116076e-003 8.01066635e-005 1.34510314e-002
      2.99075176e-003 1.46101052e-002 -6.66708406e-003 2.74342820e-002
      2.62599904e-003 5.05771767e-003 -2.29704995e-002 1.26418227e-003
      -3.14646261e-003 -1.26979023e-003 1.50942700e-002 5.99942869e-003
      1.31363189e-002 -2.00600885e-002 1.87346414e-002 1.12031447e-003
      6.20716345e-003 1.90421531e-003 -2.61935318e-004 -2.21367758e-002
      7.84988143e-003 1.41461492e-002 -3.84203368e-003 2.73320009e-003
      -1.19205648e-002 -1.15485350e-003 -1.38732221e-003
      -2.35694200e-002 1.20207304e-002 -1.73216946e-002 1.37359630e-002
      -3.20135476e-003 -2.41432562e-002 -9.66678187e-003
      -4.39365115e-003 6.53805537e-003 9.28004738e-003 1.29111893e-002
      8.77684448e-003 -1.42462030e-002 -1.97353773e-003 4.33107791e-003
      -4.89004562e-003 1.20786224e-002 1.55776367e-002 -1.13548655e-002
      -2.34141592e-002 -2.86424644e-002 1.28172291e-002 2.49594287e-003
      2.37848107e-002 4.23810305e-003 7.46788550e-003 1.35078914e-002
      4.54836292e-003 4.60402574e-003 9.11127403e-003 2.83765122e-002
      1.76908728e-002 -8.06339737e-003 -2.00866219e-002 5.49795898e-003
      6.29548728e-003 -1.55288838e-002 5.08651976e-003 -1.17756985e-002
      -1.02739986e-002 4.75462899e-003 1.03209950e-002 1.12263691e-002
      8.02502676e-004 -2.57229991e-003 1.39100496e-002 4.36919834e-003
      1.81170069e-002 9.51306242e-003 1.96808968e-002 1.04029877e-002
      2.14928924e-003 5.28092030e-003 -1.08075952e-002 6.19521970e-003
      -1.63905614e-003 1.12782093e-002 2.13069730e-002 9.20976978e-003
      -2.29874179e-002 -6.76500890e-003 4.97376127e-003 5.76267857e-003
      2.16300786e-002 1.13148373e-002 -1.31309247e-002 -3.38933314e-004
      -4.35580267e-004 -1.97232375e-003 -1.93715468e-002 1.45465098e-002
      9.11251642e-003 -1.32137898e-003 -1.84244607e-002 1.99481403e-003
      -1.21769430e-002 -5.66953444e-004 1.27658229e-002 -1.74265224e-002
      -2.78836917e-002 1.53989682e-003 -6.72424817e-003 -1.42997049e-003
      3.69455689e-003 3.99832102e-003 6.92779486e-006 8.46801850e-004
      -6.56980835e-003 1.46395629e-002 2.12658453e-003 2.11783554e-002
      -9.65022668e-003 1.36433460e-004 1.00767938e-002 1.12208826e-002
      -1.33935641e-002 1.02929594e-002 3.17952223e-002 1.04351975e-002
      -1.05656649e-003 -2.16574315e-002 8.07661936e-003 -2.42511090e-002
      -1.98584162e-002 -1.68096635e-003 -3.08787869e-003 1.73651669e-002
      -1.18995057e-002 1.19320164e-002 -4.23404563e-004 1.12576801e-002
      -7.24914763e-003 7.32756220e-003 1.36006847e-002 -6.09217910e-003
      -2.13748217e-003 -7.81219685e-003 5.74956089e-003 -3.27355042e-002
      9.36299190e-003 -2.36488041e-002 8.08673911e-003 -1.72766689e-002
      4.74961894e-003 1.06568623e-004 -1.38843171e-002 6.53591240e-003
      1.30330510e-002 -1.84847619e-002 7.32286740e-003 7.91650731e-004
      5.79659035e-003 1.09059168e-002 -9.69574612e-004 -1.40442336e-002
      3.41245509e-003 1.04726590e-002 1.51712995e-003 3.91022349e-003
      -7.38160394e-004 -1.40508991e-002 9.43079032e-003 1.14521971e-002
      -2.53352318e-002 3.05451010e-003 1.14795361e-002 1.64388847e-002
      3.76015971e-003 2.48742942e-002 -3.03878542e-002 -2.54954416e-002
      1.00038936e-002 1.83446351e-002 -6.35579647e-003 7.32609723e-003
      -2.74614780e-003 7.80786388e-003 3.98992421e-003 1.01171797e-002
      -1.59656676e-003 6.03285385e-003 1.39804212e-002 1.89900573e-003
      1.08378185e-002 1.31593167e-003 -3.52328527e-003 1.24198198e-003
      -7.08212471e-003 -1.12156561e-002 -1.77622272e-003
      -1.14908703e-002 -1.41264377e-002 7.79585121e-003 5.49680740e-003
      -5.77468541e-004 -1.60589404e-002 -7.33923214e-003
      -1.63855888e-002 1.79441478e-002 5.72124450e-003 -2.07841713e-002
      -1.14160432e-002 -1.66362748e-002 2.52108090e-002 1.78655703e-002
      2.10105348e-002 -2.24989839e-002 9.31321178e-003 -1.99510530e-003
      1.09905312e-002 5.65795042e-003 1.56332031e-002 -1.83272269e-003
      -4.86578792e-002 -3.03897657e-003 -6.20541209e-003 5.87817328e-003
      7.11547676e-003 -1.18136788e-002 -7.30900280e-003 2.42800242e-003
      -1.65122524e-002 -3.34413499e-002 -1.24976626e-002
      -3.44011150e-002 -1.43665401e-002 5.43039478e-003 -8.04228149e-003
      1.47210257e-002 -2.22740863e-002 -2.25600600e-002 6.36224449e-003
      2.64001768e-002 -1.79097820e-002 1.81678701e-002 -1.78850759e-002
      -1.13158763e-004 2.18448602e-002 -2.08540931e-002 -3.76364146e-003
      3.31926765e-003 -1.42396952e-003 -7.61946663e-003 2.45708600e-003
      2.34466642e-002 -3.74356732e-002 8.49990640e-003 1.63081717e-002
      -2.48495047e-003 2.72311619e-003 -4.57702205e-003 -5.16524306e-004
      1.12055847e-002 4.54031490e-003 -6.70858612e-003 7.04944041e-003
      -9.55784693e-003 2.74215210e-002 2.22345088e-002 -2.04044860e-002
      -2.27238308e-003 -2.88666282e-002 6.71314681e-003 -1.04044182e-002
      -6.07214589e-003 -1.48873555e-003 1.59343183e-002 -7.22823991e-003
      9.31302458e-003 1.27311265e-002 3.83806154e-002 6.08062930e-003
      -4.33137082e-003 1.77537855e-002 -1.53448572e-003 1.82457753e-002
      -5.37297921e-004 3.10690189e-003 3.15552615e-002 1.32135767e-003
      -7.23450538e-003 1.37001788e-002 -7.40878796e-003 -2.67750025e-002
      6.18125126e-003 -1.61401033e-002 1.37306526e-002 4.46095970e-003
      9.70622175e-004 -2.61607976e-003 -1.06668901e-002 -1.86881367e-002
      2.23547639e-003 -1.96579061e-002 1.73247326e-002 -9.83271468e-003
      -4.29396667e-002 3.48446844e-003 1.18455291e-002 -1.43941380e-002
      -6.33885805e-003 1.43147232e-002 5.25086187e-004 4.02298244e-003
      5.20917238e-004 1.56168602e-002 -5.79000777e-003 -2.88513843e-002
      -5.85610652e-003 6.94573950e-003 9.12950560e-003 -8.42136052e-003
      -3.78851593e-002 1.71623453e-002 2.15604100e-002 -5.96228102e-003
      -8.95883515e-003 2.34783674e-003 2.19098181e-002 8.10044352e-003
      2.89396732e-003 9.59331077e-003 1.22600151e-002 1.35039922e-003
      1.05518557e-003 1.22421924e-002 8.96299630e-003 -4.70022857e-003
      1.35957655e-002 -3.75429122e-003 -6.66614389e-003 -2.20347047e-002
      2.75920518e-003 6.31604996e-003 -1.79144964e-002 1.06661674e-002
      1.37182958e-002 1.97797990e-003 -4.92428569e-003 9.55594610e-003
      7.97611102e-003 -1.14579091e-003 1.21775474e-002 -3.54590523e-003
      -1.10789221e-002 -5.51908184e-003 1.55383563e-002 -6.94215158e-003
      3.01431976e-002 6.92611653e-003 -6.69910200e-003 1.92919033e-004
      4.56786389e-003 4.29826602e-003 -7.09754229e-003 -2.20953883e-003
      1.21532679e-002 -6.95445295e-003 1.25794327e-002 1.16713857e-002
      5.22785634e-003 -3.66572291e-003 -3.63428630e-002 1.44602936e-002
      5.93567220e-003 2.49698805e-003 -1.00146169e-002 4.20936849e-003
      -1.69006549e-002 3.46598425e-003 -2.51829959e-002 -4.06121463e-002
      1.01919062e-002 1.98860578e-002 3.00053554e-003 1.83540732e-002
      -2.18878444e-002 7.77306268e-004 2.00122688e-003 -5.21846628e-003
      1.03748338e-002 1.14797214e-002 -1.19770132e-002 6.52620709e-003
      -2.21073395e-003 3.38820904e-003 5.07862214e-003 4.71619098e-003
      5.86337689e-003 -2.63568889e-002 1.72423071e-003 5.48822514e-004
      3.69684794e-003 8.18260759e-003 8.65726639e-003 8.22461443e-004
      8.37477855e-003 1.01404656e-002 -7.46394927e-003 9.70463920e-003
      -6.12299563e-003 8.36469512e-003 -7.82049028e-004 5.20430552e-003
      -3.40029201e-003 -4.14570188e-003 -4.53790613e-002 1.16539141e-002
      1.50929624e-002 7.46465661e-003 -6.95909420e-003 1.06223300e-003
      -1.36932253e-003 -3.63368378e-003 -1.28280818e-002 2.31578182e-002
      -1.86759774e-002 2.38776230e-003 1.95299573e-002 8.55949800e-003
      2.03471212e-003 -2.09376197e-002 9.98581108e-003 -3.57048325e-002
      8.73359013e-003 4.67584655e-003 -5.32965502e-003 -5.04685566e-003
      2.54412321e-003 9.84986871e-003 1.35029256e-002 1.41590729e-003
      1.99604556e-002 -2.68374626e-002 1.60611421e-002 -5.23873512e-003
      1.72563270e-002 2.90200114e-003 -2.78123352e-003 -5.48825879e-003
      9.78160463e-003 -5.57180075e-003 1.39211323e-002 8.68426356e-003
      -1.90435890e-002 -2.92235520e-003 1.51227135e-002 -1.71428304e-002
      -1.82836577e-002 -2.86778016e-003 -2.21893210e-002
      -7.83807877e-003 -1.68783460e-002 -8.91344447e-004
      -4.27480554e-003 8.35624058e-003 -3.88486707e-003 -2.53670942e-002
      2.01497856e-003 -5.01683773e-003 -4.46416670e-003 5.55594545e-003
      1.01074241e-002 4.20898013e-003 4.47409134e-003 -4.57328651e-003
      -1.21907145e-002 -1.73200353e-003 1.50270318e-003 1.42872138e-002
      -1.68354232e-002 -3.43230590e-002 -1.63473189e-002
      -4.97453362e-002 -1.38128828e-002 8.15409515e-003 4.50478448e-003
      4.30193171e-003 -4.18397569e-004 5.08869393e-003 4.56927530e-003
      -7.54756434e-003 -1.01472307e-002 1.48037085e-002 -5.13887440e-004
      3.21455649e-003 -3.01811285e-002 6.18163310e-003 -4.42968076e-003
      1.71026879e-003 6.75747264e-003 2.09038891e-002 -3.49528193e-002
      4.94565535e-003 -1.03181424e-002 1.19800875e-002 -2.58693825e-002
      -8.90967343e-003 7.43179582e-003 -2.63702925e-002 -1.34635763e-002
      9.25933756e-003 -1.24158792e-003 -1.20750656e-002 8.39530770e-003
      5.29987924e-003 1.80240422e-002 1.38046741e-002 4.77299560e-003
      2.93040858e-003 1.04446001e-002 1.51671432e-002 1.28351524e-002
      -9.25071258e-003 1.67098306e-002 1.01387231e-002 3.20496270e-003
      1.24998912e-002 1.23462407e-002 -2.93564945e-002 3.19608580e-003
      4.39278968e-003 1.64441410e-002 1.79454219e-002 -7.29204761e-003
      -2.70594005e-002 1.16732921e-002 2.21740752e-002 8.25314224e-003
      1.12205818e-002 4.79849987e-003 2.11133994e-003 4.52902488e-004
      2.19429135e-002 5.84673695e-003 9.71951429e-003 1.47005217e-002
      2.55888887e-002 3.02186259e-003 1.27542634e-002 3.02314013e-002
      -2.27678195e-002 -3.85251129e-003 1.04690865e-002 4.29429521e-004
      -1.32434675e-002 5.72578050e-003 1.00290915e-002 6.06613187e-003
      1.22954771e-002 7.59659195e-003 2.34295297e-002 2.40945234e-003
      -6.07966492e-003 3.70884035e-003 -1.77239217e-002 1.30937891e-002
      1.47423120e-002 7.04925042e-003 -3.68428952e-003 1.99307390e-002
      5.79765439e-003 1.56673454e-002 -1.22210085e-002 5.22210728e-004
      1.14332908e-003 6.92774123e-003 -2.76359655e-002 1.41267907e-002
      -2.09129173e-002 -6.02457114e-003 3.23444232e-002 -1.38373468e-002
      -3.11951479e-003 1.46764209e-002 8.72663315e-003 1.10382829e-002
      4.13830625e-003 2.18140110e-002 1.35331480e-002 -3.85046043e-002
      1.25231417e-002 8.91347940e-004 -2.83442927e-003 -1.22936908e-002
      -1.83220592e-003 -2.33606733e-002 -3.99736688e-003
      -2.01937859e-003 -6.31533936e-003 7.65586388e-004 8.53968412e-003
      -8.39340687e-003 -6.60122605e-003 1.53007323e-003 1.28988093e-002
      4.45161853e-003 2.68758666e-002 -1.33556770e-002 -1.35785844e-002
      6.39698328e-003 4.19991062e-004 -2.45935451e-002 1.22033451e-002
      2.08054651e-002 1.48985181e-002 -3.27327251e-002 5.52355591e-003
      -6.13576407e-003 2.60497211e-003 3.94333620e-003 5.41794393e-003
      -2.24984670e-003 7.44297262e-003 -2.33126488e-002 2.73312978e-003
      -9.99427773e-003</_></support_vectors>
  <decision_functions>
    <_>
      <sv_count>1</sv_count>
      <rho>-9.9840730123512778e-001</rho>
      <alpha>
        1.</alpha>
      <index>
        0</index></_></decision_functions></my_svm>
</opencv_storage>
