<?xml version="1.0"?>
<opencv_storage>
<my_svm type_id="opencv-ml-svm">
  <svm_type>C_SVC</svm_type>
  <kernel><type>LINEAR</type></kernel>
  <C>1.</C>
  <term_criteria><epsilon>2.2204460492503131e-016</epsilon>
    <iterations>1000</iterations></term_criteria>
  <var_all>1000</var_all>
  <var_count>1000</var_count>
  <class_count>2</class_count>
  <class_labels type_id="opencv-matrix">
    <rows>1</rows>
    <cols>2</cols>
    <dt>i</dt>
    <data>
      -1 1</data></class_labels>
  <sv_total>1</sv_total>
  <support_vectors>
    <_>
      2.13522892e-002 1.57861337e-002 1.66207682e-002 -3.05423606e-003
      1.71851348e-002 4.13175672e-003 1.40173538e-002 2.06220686e-003
      -8.25569704e-002 -5.18830551e-004 1.25837009e-002 -3.78966681e-003
      -2.04023477e-002 -2.75210459e-002 8.90436303e-003 -9.58637241e-003
      6.22808794e-003 -1.11907860e-002 -9.11409594e-003 1.71425343e-002
      -2.05978123e-003 -3.32346261e-002 -1.92168262e-002 4.54847608e-003
      -5.62102906e-003 -8.88420362e-003 -1.94070954e-002
      -4.03802330e-003 -1.17469381e-003 1.91612798e-003 -2.28053275e-002
      5.36713004e-003 1.04615337e-003 1.63852684e-002 3.40742897e-003
      -1.79560743e-002 -7.68433651e-003 1.30227618e-002 -1.74875967e-002
      4.66826893e-002 4.92731156e-003 -2.65024137e-002 2.37892307e-002
      8.76824546e-004 -2.26997919e-002 2.21655071e-002 3.24667059e-002
      -1.09567512e-002 1.48893194e-002 1.30534675e-002 1.67307146e-002
      7.70486984e-003 -6.83503505e-003 -9.24874842e-003 -1.98764214e-003
      -8.50319688e-004 1.17587456e-002 1.34168901e-002 1.46840792e-002
      1.28807276e-002 2.33241078e-002 2.98256408e-002 2.04588678e-002
      4.78568068e-003 1.02419648e-002 1.86380669e-002 7.02228025e-003
      -1.10810446e-002 -1.59743913e-002 2.16369312e-002 -1.76046845e-002
      -1.69255417e-002 -2.86000036e-002 -1.65510445e-003 3.03390436e-002
      1.59323215e-002 5.90217952e-003 -5.89275407e-003 8.41295754e-004
      2.86385212e-002 1.47353830e-002 -6.32439777e-002 -1.39798643e-002
      -4.07570675e-002 1.57724321e-002 -1.82089191e-002 -1.46339079e-002
      -1.48927523e-002 -1.07012945e-003 -1.65117662e-002 1.86704677e-002
      2.14224495e-002 -2.57240217e-002 3.15437689e-002 -2.00039893e-002
      5.35301026e-003 3.71348159e-003 -1.15699340e-005 6.12703860e-002
      1.80482659e-002 6.21482404e-003 -1.09054539e-002 3.01169250e-002
      -1.14642121e-002 -2.99014114e-002 -2.62977201e-002
      -3.13197449e-002 2.50888728e-002 -2.12873286e-003 -2.50164643e-002
      1.43272402e-002 -4.57557514e-002 1.64477341e-002 -2.35533473e-004
      -2.03258675e-002 2.06913091e-002 7.26695079e-003 3.92044224e-002
      9.71178710e-003 6.43101241e-003 7.47398753e-003 1.40727069e-002
      2.76467055e-002 -9.31729283e-003 -1.95899550e-002 7.86789879e-003
      -1.10899592e-002 7.82941375e-003 2.72499323e-002 1.57486945e-002
      1.68202398e-003 -1.02637289e-002 -6.55905996e-003 1.07572437e-003
      -1.41006545e-003 8.84140842e-003 1.08788610e-002 -3.93172763e-002
      1.98883638e-002 -3.30463238e-003 2.10796129e-002 -2.04961776e-004
      5.38561586e-003 3.65985259e-002 2.39743218e-002 1.19393226e-002
      2.51918342e-002 4.76359250e-003 -9.44533292e-003 3.97646148e-003
      4.25436795e-002 -1.66083667e-002 -1.78424940e-002 -5.68592874e-003
      -2.15804987e-002 5.18625714e-002 1.93343908e-002 -6.68339804e-003
      7.83394091e-003 1.04825478e-002 6.28135800e-002 5.95360249e-003
      1.70873273e-002 2.26646420e-002 -2.17850506e-002 -4.74509522e-002
      -1.65190734e-002 2.44096387e-003 -2.03288663e-002 -5.22244126e-002
      1.51214842e-003 -6.62303641e-002 -1.84201449e-002 -5.19553479e-003
      -1.43044873e-003 -3.49785201e-003 9.68185719e-003 1.50605338e-002
      1.90834943e-002 1.92860141e-002 -1.11603970e-002 -9.59038269e-003
      1.13965233e-003 -1.31614916e-002 4.78362257e-004 -3.12871113e-003
      -3.08083333e-002 3.53824049e-002 -5.54152718e-003 1.23442421e-002
      -6.49982467e-002 2.22225720e-003 -1.59867276e-002 -3.18104657e-003
      1.74253546e-002 -2.10303646e-002 1.98983140e-002 2.12527048e-002
      4.02111840e-003 1.00632161e-002 8.98710452e-003 -8.01000558e-003
      9.29834507e-003 9.52911936e-003 -9.66865977e-004 1.88303553e-002
      1.49090420e-002 -1.19643053e-002 -1.86512452e-002 -1.19415356e-003
      5.05776005e-003 1.05227139e-002 -4.01002094e-002 -2.03435030e-002
      1.88692082e-002 -2.40591820e-002 2.50867312e-003 1.22953136e-003
      -1.21855950e-002 2.26377919e-002 8.21273681e-003 9.29899048e-003
      -1.21749146e-002 8.91452376e-003 -5.20823384e-003 -9.61152930e-003
      -4.89615388e-002 1.09802624e-002 -1.09287603e-002 7.91606680e-003
      1.21422056e-002 -1.83487367e-002 2.55031101e-002 -2.00669467e-002
      -3.52984527e-003 1.70172378e-002 9.59038828e-003 -1.42073892e-002
      -9.67643782e-003 9.73411079e-004 2.21342295e-002 9.07934271e-003
      2.94692032e-002 1.19467871e-002 -8.22675228e-003 -7.03001581e-003
      1.01907644e-002 4.07332666e-002 -5.11540361e-002 3.43541056e-002
      -7.68181914e-003 4.34400514e-003 4.26738337e-002 -2.82467197e-004
      -1.17814040e-003 -2.72001401e-002 -1.11879455e-002
      -1.19699184e-002 2.55666710e-002 -2.79749203e-002 7.49273086e-003
      1.38712302e-002 -4.52687405e-002 5.09884581e-002 7.85558205e-003
      2.58673541e-002 1.04331300e-002 1.57377310e-002 -4.17860039e-003
      8.91087111e-003 -3.68949003e-003 -2.98020542e-002 -6.04395531e-002
      3.48822549e-002 -9.68807377e-003 -1.96133982e-002 -1.19742919e-002
      8.33488815e-003 3.42163406e-002 1.90713611e-002 5.04730036e-003
      2.14918749e-003 3.21548991e-002 -2.36540940e-003 3.13690454e-002
      3.02830897e-002 1.31599307e-002 -4.77027111e-002 1.18998922e-002
      -1.03291515e-002 9.30594746e-003 -2.11595092e-003 3.24648293e-003
      2.44265925e-002 4.83007589e-003 2.93151420e-002 3.08298264e-002
      -2.63166539e-002 1.51816485e-002 6.08759653e-003 -2.87146214e-002
      -4.70813811e-002 -7.26771215e-003 3.79478224e-002 1.74835920e-002
      -8.69984552e-003 -6.56781672e-003 1.10251242e-002 -3.87495719e-002
      1.20107699e-002 1.07229818e-002 2.78767082e-004 2.02587806e-002
      1.62254442e-002 1.05005177e-002 1.27010169e-002 -6.77546114e-003
      -1.97588913e-002 -1.51206516e-002 -1.17931180e-002
      -1.95276644e-002 -9.95241012e-003 2.22064462e-002 1.11772027e-002
      -8.36869981e-003 3.34359743e-002 4.82145231e-003 1.01413587e-002
      -2.01357994e-002 1.82145368e-003 -1.47889107e-002 1.87264346e-002
      -1.70058776e-002 -2.33763438e-002 -4.16207500e-002 1.76143069e-002
      -1.29140522e-002 -6.46321243e-003 -1.25230858e-002
      -2.53391750e-002 1.76594090e-002 1.24979848e-002 -1.31870573e-002
      4.58392361e-003 -2.71424651e-002 -6.08757809e-002 4.86782333e-003
      -4.66174297e-002 1.22405095e-002 -2.24422989e-003 2.24165227e-002
      7.16643315e-003 6.89121755e-003 -1.15514155e-002 -1.00027677e-002
      2.28407197e-002 7.15231523e-003 4.48191212e-003 1.91823661e-003
      -2.18301057e-003 8.62589013e-003 1.29580572e-002 -3.69070657e-002
      -2.12111399e-002 -1.46935070e-002 -1.89395379e-002
      -2.08132491e-002 2.82041505e-002 -1.18243927e-002 1.15947584e-002
      -9.71699506e-003 7.26812938e-003 -1.42312218e-002 7.13438960e-003
      -2.68884022e-002 9.45162773e-003 -1.26972620e-003 -2.44599190e-002
      2.29052939e-002 -1.51181174e-002 -4.40919958e-002 1.23207420e-002
      1.78231578e-002 -1.47578148e-002 2.36915797e-002 8.74242571e-004
      2.87309922e-002 1.63438097e-002 -1.09561887e-002 -8.46625585e-003
      2.31736824e-002 3.98608577e-003 -2.28547701e-003 2.74742749e-002
      1.25794290e-002 -2.36786362e-002 9.20887478e-003 -1.33482357e-002
      1.51741775e-002 5.03113028e-003 6.81343814e-003 1.78972594e-002
      -5.55027388e-002 8.14856682e-003 1.26252836e-002 3.95932123e-002
      1.00270030e-003 -4.34275120e-002 -1.70336440e-002 -7.43103400e-003
      -2.89897285e-002 3.61949466e-002 -1.83692127e-002 -1.56036438e-002
      8.07328802e-003 -2.01775227e-002 -1.09865908e-002 1.49783315e-002
      -8.30570702e-003 -9.43117309e-003 1.88584458e-002 1.45055717e-002
      -2.88650878e-002 -4.48768064e-002 2.04605274e-002 2.22522374e-002
      -2.55944999e-003 3.21484567e-003 7.00906478e-003 7.00026285e-003
      3.31409760e-002 2.34579500e-002 -1.94614530e-002 -2.89360452e-002
      2.33882591e-002 2.55157053e-003 7.40995863e-004 2.95412187e-002
      1.35072591e-002 -1.68039016e-002 1.42748747e-003 -1.01100013e-001
      1.19521506e-002 3.93951200e-002 1.98995490e-002 -7.31868087e-004
      -1.51800271e-002 -1.29747987e-002 -1.43094463e-002 1.83567293e-002
      -3.25993984e-003 1.70367062e-002 8.73260759e-003 -1.21096510e-003
      1.58017501e-002 -1.99212153e-002 8.58846586e-003 -1.22684077e-003
      -1.97875947e-002 7.67917978e-003 -4.18291846e-003 -1.63160209e-002
      1.53948762e-003 4.79658600e-003 3.29225510e-002 5.72422892e-002
      1.33614717e-002 1.93570964e-002 1.29706468e-002 3.62719526e-003
      2.48885397e-002 3.74655938e-004 -4.86357398e-002 1.57936830e-002
      -9.49192885e-003 2.39050165e-002 -1.25454282e-002 1.05843116e-002
      -2.32133269e-002 1.19968019e-002 1.80839710e-002 4.86556813e-003
      -2.41058674e-002 1.97766926e-002 -1.87717956e-002 3.63286887e-003
      -3.05372439e-002 -5.33325505e-003 -9.20054317e-003
      -7.50757800e-003 1.46493008e-002 -6.04413124e-003 -5.91316074e-003
      -2.59597450e-002 -1.21617829e-002 -1.47895142e-002 7.68748904e-003
      3.47141363e-002 -2.82235537e-002 6.47753663e-003 5.35678864e-003
      5.73107321e-003 1.80425365e-002 -2.95355879e-002 3.13745323e-003
      -3.48798521e-002 -2.35609431e-002 1.17073469e-002 9.99858603e-003
      4.05399874e-003 -3.04986145e-002 -3.43760066e-002 -2.61585563e-002
      -2.07250025e-002 -2.56852154e-002 1.98484287e-002 -4.49171923e-002
      1.39949434e-002 -1.29031986e-002 1.53339107e-003 2.63806302e-002
      -3.81015288e-003 1.33400382e-002 1.11910133e-002 -9.96096246e-003
      -6.94631774e-004 2.85605248e-002 2.90851556e-002 -1.27737515e-003
      -2.06613094e-002 2.66541913e-002 -5.89374974e-002 7.81329628e-003
      2.03075469e-003 -6.05175178e-003 6.69486879e-004 3.13306600e-002
      2.75896513e-003 2.87218252e-003 1.53680742e-002 2.66996701e-003
      -1.85263678e-002 1.66130848e-002 -5.91427973e-003 1.69909634e-002
      -2.15726998e-002 -3.72952037e-002 -3.63597902e-003 3.90744098e-002
      2.44209692e-002 -8.43963958e-003 1.75585561e-002 2.14214157e-002
      -4.97334376e-002 3.61640705e-004 -4.74703219e-003 -2.06203405e-002
      -7.07672313e-002 -7.59050846e-002 1.50466328e-002 2.78495718e-002
      2.53976528e-002 -8.65162164e-002 2.27169916e-002 -7.77488982e-004
      -6.79554883e-003 2.00653225e-002 8.46593548e-003 6.97455602e-003
      4.18519340e-002 -3.04206107e-002 -4.19976637e-002 1.45670660e-002
      -2.15307046e-002 2.52222605e-002 1.82570051e-002 -7.75064155e-003
      4.47643548e-002 9.66966525e-003 4.11294438e-002 -1.81820244e-002
      -1.51394410e-002 -3.54002081e-002 6.72308914e-003 1.97715778e-002
      1.41610894e-002 -7.06845056e-003 -6.19673356e-003 2.46619210e-002
      1.89707503e-002 -1.13207791e-002 1.38660381e-003 1.18283639e-002
      -5.39913308e-003 2.57000700e-002 2.62627006e-003 -4.29772103e-004
      1.09338826e-002 -2.75388379e-002 -5.49880881e-003 -1.33384857e-002
      -3.77976382e-003 -4.45328327e-003 -2.67372398e-005 1.24324700e-002
      3.92527413e-003 -1.95343830e-002 2.19398551e-002 -4.21001436e-003
      1.71305314e-002 -4.13811319e-002 -8.54544714e-003 -2.75273528e-002
      2.23636422e-002 9.68791824e-003 1.27102612e-002 3.78821343e-002
      4.81828935e-002 -4.41250280e-002 1.42916124e-002 3.58289927e-002
      -4.73439519e-004 1.44626265e-002 1.90587472e-002 1.24821356e-002
      -3.38076055e-002 -4.29088362e-002 -1.83091797e-002
      -2.57480256e-002 2.60773953e-002 1.32967765e-002 -1.14284118e-003
      1.34935239e-002 -2.08398793e-002 -1.76375806e-002 -2.45654043e-002
      4.52676741e-003 1.77794173e-002 4.36597876e-003 1.02967359e-002
      6.01491751e-003 -7.81821553e-003 1.46109136e-002 1.23038385e-002
      1.03033679e-002 -1.54459057e-002 1.11711891e-002 -6.40352396e-003
      5.42818150e-003 1.00751929e-002 -1.83383208e-002 3.33785601e-002
      -3.26416865e-002 4.15583737e-002 -2.94463784e-002 -5.81559492e-003
      -1.91203691e-002 2.55814604e-002 1.54638272e-002 2.22286321e-002
      1.45984609e-002 1.58233531e-002 2.50182338e-002 -2.76002456e-002
      2.68142521e-002 1.23954993e-002 -5.75075224e-002 -1.25669483e-002
      1.69288106e-002 3.75452749e-002 -1.87719744e-002 2.08318736e-002
      -1.92766860e-002 9.11609828e-003 1.75962429e-002 0.
      6.20826054e-003 1.04639959e-002 -4.90114046e-003 9.21103545e-003
      -3.25773694e-002 2.94432361e-002 6.35843026e-003 7.35009462e-003
      3.43574323e-002 3.39652859e-002 1.64316278e-002 1.43163912e-002
      -1.76535081e-002 -6.30392460e-003 1.91526394e-003 2.04264056e-002
      -6.04683533e-002 -4.33303267e-002 1.71206668e-002 -7.95745477e-003
      1.11873969e-002 8.23375676e-003 -4.29238146e-003 1.92999863e-003
      -1.88340340e-002 2.32249894e-003 -4.56720544e-003 -2.72379443e-002
      -6.34743739e-003 7.31324777e-003 -2.24202704e-002 -4.73574176e-003
      3.53509039e-002 -4.41550985e-002 1.61993783e-002 1.80022027e-002
      -2.04697018e-003 1.60431676e-002 -5.59644075e-003 5.84964454e-003
      -9.69439186e-003 3.45227085e-002 -3.22486786e-003 4.20596637e-003
      -1.82084274e-002 1.68893915e-002 -3.08097936e-002 2.60808654e-002
      -1.52292405e-003 1.68321151e-002 1.20005365e-002 -2.19212137e-002
      2.07080171e-002 -3.54214273e-002 2.22214609e-002 -1.97569723e-003
      2.00981498e-002 1.02056777e-002 1.82803515e-002 -5.93426963e-003
      1.26588652e-002 1.83229353e-002 -8.84132824e-005 4.89880377e-003
      2.91617364e-002 1.03258959e-003 2.38055140e-002 -1.95934586e-002
      -1.03472453e-002 -2.17119418e-002 2.14323066e-002 1.03794709e-002
      1.50425257e-002 -1.03424555e-002 -2.83354092e-002 -1.53580718e-002
      -5.76285459e-003 -1.20156258e-002 -1.60556212e-002 2.70062666e-002
      -3.43969162e-003 -3.82500212e-003 7.74571951e-003 -4.07097451e-002
      -8.21237825e-003 5.54440310e-003 8.75150692e-003 9.59323160e-003
      -2.07649078e-002 -7.06946151e-003 -3.42300273e-002
      -8.29846505e-003 3.18412259e-002 2.36985274e-003 -1.20063834e-002
      9.24590044e-003 -2.91072913e-002 2.19243970e-002 -6.41781315e-002
      -2.31360253e-002 4.52433806e-003 2.57290527e-002 -3.05132065e-002
      -5.95027022e-003 -1.57058388e-002 1.84879564e-002 -9.88226663e-003
      3.25503945e-002 -3.41185033e-002 -8.17988720e-003 4.86605521e-003
      -3.82926017e-002 4.49975170e-002 1.22966245e-003 -2.44537797e-002
      1.58283822e-002 1.74007528e-002 2.27616243e-002 -3.72005306e-004
      1.69605557e-002 2.59091984e-002 -2.86505707e-002 2.30870359e-002
      2.82729277e-003 -1.30163822e-002 3.35770077e-003 -2.47287583e-002
      -2.54066028e-002 -3.13768419e-003 1.30984103e-002 1.85249541e-002
      -2.84185857e-002 -5.35161756e-002 3.15346085e-002 1.83046225e-003
      1.38580399e-002 -3.03309951e-002 3.80653441e-002 1.39170559e-002
      -1.14497729e-002 2.69539487e-002 2.28065550e-002 -7.35280896e-003
      -1.40500320e-002 -6.98325410e-003 1.28020477e-002 9.21185687e-003
      4.16284837e-002 6.00767042e-003 1.70883611e-002 -1.54452370e-002
      2.89020538e-002 -2.16398742e-002 1.05930297e-002 1.63136087e-002
      -4.40538563e-002 -1.72437355e-002 3.09038814e-002 2.79071964e-002
      6.20416226e-003 -1.15841615e-003 -1.74802952e-002 -4.05693166e-002
      -1.29253333e-002 1.62922312e-002 4.11914848e-003 -3.58008556e-002
      -1.72420609e-004 -2.05949953e-004 -2.41920669e-002 7.41050765e-003
      8.99104960e-003 9.52981040e-003 -9.50133149e-003 -2.09413134e-002
      1.56966168e-002 -2.45436002e-002 1.05337938e-002 -6.29660487e-003
      -3.07352617e-002 -1.32400198e-002 9.00009274e-003 -2.83617829e-003
      -5.96279167e-002 7.38299638e-003 -1.74512633e-003 1.60128456e-002
      -3.87027534e-003 -2.07613036e-002 2.69826269e-003 4.45506573e-002
      1.79266389e-002 1.62539687e-002 1.68597847e-002 3.64549533e-002
      -2.00139657e-002 1.03226388e-002 -1.97229516e-002 4.34802696e-002
      -5.63846203e-003 2.51322631e-002 -1.12534175e-002 -4.02172143e-003
      2.64593726e-003 -2.12877132e-002 1.05061000e-002 -2.44169794e-002
      -5.93505893e-003 -3.19899470e-002 5.37724346e-002 1.29202590e-003
      2.10375004e-002 -2.62013786e-002 5.31743560e-003 -1.61826927e-002
      -3.38240787e-002 -2.49047182e-003 -8.18888843e-003 1.50885317e-003
      2.02973317e-002 -1.55788031e-003 -1.86706819e-002 -7.10550882e-003
      -2.33719591e-002 6.21279422e-003 -2.70911399e-002 -4.61515486e-002
      7.92454090e-003 -1.91272553e-002 -1.55687341e-002 -4.22065321e-004
      6.74262643e-003 -3.47999274e-003 1.22040231e-002 3.00795250e-002
      -1.18496558e-002 -3.58550586e-002 2.04325840e-002 4.78595379e-004
      -3.32180155e-003 1.22408513e-002 -1.62335637e-003 5.65764494e-003
      -5.16724139e-002 -2.81819422e-002 9.93866194e-003 2.02306416e-002
      -4.88234051e-002 -4.65191305e-002 2.07633898e-002 -6.35205805e-002
      -1.17795514e-002 1.65600292e-002 1.60757359e-003 -6.42670225e-003
      6.90911198e-003 1.30778830e-002 4.90480848e-003 8.98498576e-003
      -2.01128591e-002 -1.02734950e-003 -4.05780226e-002
      -4.47446806e-003 2.48311087e-002 1.90548680e-003 -1.37062734e-002
      9.24227666e-003 6.65989378e-003 -8.54543783e-003 2.71125194e-002
      -2.24779565e-002 -5.74162230e-002 -1.81887094e-002 1.46984477e-002
      7.40994234e-003 2.80944761e-002 1.36653306e-002 -1.75214428e-002
      -2.52089184e-002 1.25769917e-002 3.61271426e-002 1.77063569e-002
      3.91800888e-002 -7.70481024e-003 1.15703512e-002 4.76372652e-002
      2.50141732e-002 3.14814746e-002 2.05658888e-003 1.94573030e-002
      3.53555866e-002 6.93258084e-003 -1.65364798e-002 2.63699070e-002
      -8.43919255e-003 1.32191507e-002 -6.50141062e-003 7.69382762e-003
      1.57868899e-002 -2.15355470e-003 -2.93885004e-002 -2.19919646e-004
      -1.40049271e-002 -6.95665507e-003 1.88361015e-002 -3.36911641e-002
      -3.95390717e-003 2.92610098e-003 1.73433926e-002 -1.54344002e-002
      1.17615806e-002 2.88894270e-002 6.25247806e-002 -5.51616251e-002
      1.76931713e-002 -5.90330921e-002 -1.67094562e-002 -8.79898109e-003
      -1.27642937e-002 -2.16701683e-002 1.13873687e-002 1.95095278e-002
      -1.44307809e-002 -3.39111523e-003</_></support_vectors>
  <decision_functions>
    <_>
      <sv_count>1</sv_count>
      <rho>-9.9830298151296848e-001</rho>
      <alpha>
        1.</alpha>
      <index>
        0</index></_></decision_functions></my_svm>
</opencv_storage>
