<?xml version="1.0"?>
<opencv_storage>
<my_svm type_id="opencv-ml-svm">
  <svm_type>C_SVC</svm_type>
  <kernel><type>LINEAR</type></kernel>
  <C>1.</C>
  <term_criteria><epsilon>2.2204460492503131e-016</epsilon>
    <iterations>1000</iterations></term_criteria>
  <var_all>1000</var_all>
  <var_count>1000</var_count>
  <class_count>2</class_count>
  <class_labels type_id="opencv-matrix">
    <rows>1</rows>
    <cols>2</cols>
    <dt>i</dt>
    <data>
      -1 1</data></class_labels>
  <sv_total>1</sv_total>
  <support_vectors>
    <_>
      -1.29707088e-003 -1.68210547e-002 6.64181588e-003 -3.01472319e-004
      1.91112161e-002 1.10379504e-002 1.79075252e-003 -1.95684340e-002
      -3.66235198e-003 9.06351302e-003 -1.05848191e-002 -7.46884337e-003
      -1.17331371e-002 2.08268408e-002 6.04065182e-003 -7.50804460e-003
      -1.10202776e-002 1.03096142e-002 -6.89779932e-004 -3.41461971e-002
      -4.62694967e-004 -7.32090371e-003 -3.93034564e-003 2.19093123e-003
      -7.50550628e-003 2.68503856e-002 1.52736821e-003 1.33090420e-002
      1.64241828e-002 1.02152536e-003 -2.13925214e-003 7.37530645e-003
      3.98281403e-002 5.26339374e-003 -8.36385880e-006 -1.55625744e-002
      2.18262747e-002 -2.12007686e-002 -2.47687362e-002 1.60554331e-002
      2.95587676e-003 -1.54621312e-002 -4.97264639e-002 1.53886648e-002
      1.69529794e-005 -3.85047263e-003 -7.83893000e-003 1.38686355e-002
      5.98676316e-002 -3.80399562e-002 -8.46618600e-003 -3.47195147e-003
      1.02279207e-003 -2.63727410e-003 1.83877125e-002 7.48747960e-003
      -5.63577889e-003 -5.81883406e-003 1.48379682e-002 -6.41348865e-003
      7.10357819e-003 1.28512597e-003 2.61035864e-004 6.61951816e-003
      -3.21995094e-002 -3.99162201e-003 -2.68620178e-002
      -3.77814472e-002 -1.17189297e-002 1.71943866e-002 1.59624107e-002
      -4.61656105e-004 2.14831298e-003 1.00230817e-002 -9.57545359e-003
      1.37146553e-002 -1.79681070e-002 -1.18516609e-002 -3.73337185e-003
      9.72044375e-003 -1.77049413e-002 -2.03091390e-002 -2.16063503e-002
      -1.99995153e-002 7.75167206e-003 -2.96911504e-002 -1.20089212e-002
      -8.38460121e-003 -1.99501570e-002 -1.91360321e-002 2.01426372e-002
      -1.10906165e-003 -4.62457025e-003 -4.52299369e-003
      -4.78117727e-002 -2.44459952e-003 2.11509168e-002 7.27208890e-003
      -1.43956067e-002 8.80303327e-003 -3.98175903e-002 -6.82004355e-003
      6.81792526e-003 1.78225711e-002 -2.01873202e-002 -5.50446361e-002
      -7.07620289e-003 3.37906741e-002 1.59198430e-003 -8.17704760e-003
      6.64374512e-003 3.56214903e-002 1.15552526e-002 -2.52235625e-002
      -4.58227471e-003 -8.46603792e-003 1.58440508e-002 -1.10534963e-003
      1.77158341e-002 -1.37014277e-002 1.43753178e-002 -2.00476050e-002
      -1.29106110e-002 1.68203562e-002 -2.62524281e-002 2.10054796e-002
      -1.83331540e-005 1.44437365e-002 1.37372473e-002 1.59943402e-002
      -8.20978731e-003 -4.87801619e-003 5.01252059e-003 6.34766929e-003
      5.55947004e-003 1.66604128e-002 2.78576333e-002 1.50406109e-002
      -2.24216636e-002 -1.55546039e-003 -3.18661146e-002
      -3.92510975e-003 1.79536119e-002 2.91187223e-002 8.82453192e-003
      -7.94939045e-003 6.46123989e-003 7.88942634e-005 9.48719122e-003
      -1.34158656e-002 -4.12061316e-004 5.96421538e-003 -1.43749844e-002
      -1.36334468e-002 1.05849071e-003 1.43990442e-002 -2.39272825e-002
      2.50553968e-003 -2.72915699e-002 -2.30162740e-002 4.80011432e-003
      4.78083454e-003 -2.82571418e-003 8.39518104e-003 1.21352719e-002
      -7.99462199e-003 -1.27234943e-002 -2.47096457e-003
      -1.40758941e-003 1.87846422e-002 -3.44836004e-002 1.49670457e-002
      -1.92732234e-002 8.05404130e-003 -1.34003917e-002 1.00379009e-002
      5.58274938e-003 -3.49276955e-003 1.05838310e-002 -2.20885058e-003
      -3.46839265e-003 -1.88076682e-002 1.02912367e-003 2.77509773e-003
      6.38045697e-003 2.28991825e-002 2.16156263e-002 3.64427231e-002
      -3.61171700e-002 -8.51011556e-003 1.21138021e-002 -9.34519339e-003
      7.99374096e-003 6.34453027e-003 5.39654214e-003 1.19819110e-002
      -5.91584807e-003 4.16056579e-003 -2.30083633e-002 -1.64238038e-003
      3.73622924e-002 4.18590661e-003 1.10126904e-003 1.04429219e-002
      4.71027987e-003 9.22575779e-003 2.86666094e-003 1.06386212e-003
      8.46589974e-004 2.30552964e-002 6.65534986e-003 -1.02998186e-002
      -1.66898547e-003 -1.61417387e-002 9.61591303e-003 -2.99027525e-002
      -2.04349924e-002 7.00002816e-003 -7.81448279e-003 4.03077295e-003
      -2.70321337e-003 1.58183258e-002 1.69545952e-002 2.10714992e-003
      -9.57919285e-003 1.50866644e-003 -1.22865429e-002 7.78611563e-003
      3.96363251e-003 8.85535218e-003 6.42401958e-003 -1.22339698e-002
      -2.06284621e-003 -6.36915788e-002 1.78783145e-002 -1.27988653e-002
      1.78234149e-002 -1.36633543e-002 4.02354961e-003 6.02161651e-003
      -1.92460958e-002 -1.00753782e-002 3.99892544e-003 7.03325449e-003
      -9.25890543e-003 -4.13772278e-002 3.43951839e-003 -1.65540315e-002
      -3.66164837e-003 4.67964855e-005 4.48453054e-003 1.60650313e-002
      -3.01724812e-003 -1.22868847e-002 -3.25645581e-002
      -1.69421230e-002 -1.33135291e-002 -2.08605621e-002
      -2.80864467e-003 1.85310300e-002 -3.22084804e-003 -3.36496771e-004
      -1.13832839e-002 1.44999949e-002 2.07892619e-002 -3.09764827e-003
      -8.83048680e-003 -1.01147881e-002 -1.05224364e-003 5.02702175e-003
      5.06560924e-003 -1.85538025e-003 -1.53825739e-002 1.67019870e-002
      3.16264248e-003 -6.59666443e-003 -1.10136960e-002 8.90706386e-003
      -9.95291304e-003 1.09582450e-002 1.69025492e-002 -8.74390081e-003
      -1.29349576e-002 2.30932850e-002 5.42044919e-003 -4.90223989e-003
      1.15228407e-002 -4.19085249e-002 -6.71245391e-004 1.29443966e-002
      -1.33307874e-002 -2.77526900e-002 1.06791183e-002 2.72814796e-004
      9.42105986e-003 2.04577181e-003 1.79261733e-002 -1.54320803e-002
      -5.09024551e-003 -1.82901304e-002 1.51040787e-002 1.82653014e-002
      4.74980474e-003 -1.07692312e-002 3.08424644e-002 -4.51164227e-003
      1.25711793e-002 -1.35809956e-002 -1.90470833e-002 8.52357969e-003
      -6.55770348e-003 5.69557538e-003 -3.06942966e-002 1.39486911e-002
      -5.72247384e-003 -2.34380551e-003 -9.01034195e-003
      -5.68531342e-002 7.94209912e-003 9.73012112e-003 -1.72652993e-002
      7.24175246e-003 -8.10604636e-003 -4.48666094e-003 1.25201093e-002
      -8.44180491e-003 1.24186231e-002 -3.33567004e-004 -3.46072949e-002
      9.91441682e-003 1.15742804e-002 -5.59328822e-003 -1.22095719e-002
      2.13885121e-002 1.75532587e-002 3.90975643e-003 -1.20216850e-002
      -2.07300857e-002 4.44982247e-003 -1.08122630e-002 -3.43286842e-002
      4.12285002e-003 1.23382569e-003 -1.49795308e-003 8.48278217e-003
      5.73019357e-003 -1.14851311e-004 3.21881077e-003 -7.19409669e-003
      -2.99976990e-002 2.03119172e-003 -3.85560356e-002 -1.13644386e-002
      1.52008301e-002 -7.04523595e-003 3.19451056e-002 -2.82960497e-002
      6.96165441e-003 6.81152893e-003 2.07726564e-003 3.33429687e-003
      -1.38468714e-002 6.53157244e-003 -8.28696508e-003 -2.15201899e-002
      9.32761189e-003 1.31167809e-003 -1.56618748e-002 -8.59066192e-003
      -6.22153049e-004 -9.60346032e-003 1.42572578e-002 2.94257840e-003
      4.95074643e-003 -3.10838543e-004 9.58472025e-003 -1.46235083e-003
      1.91415020e-003 9.20670480e-003 2.79675447e-003 1.18556321e-002
      1.82855707e-002 -1.65479723e-002 6.51068659e-003 4.37748199e-003
      -7.15804473e-003 1.26893641e-002 1.31427897e-002 -1.45048974e-003
      -6.68754708e-003 1.72462780e-002 -1.69906449e-002 -2.21503694e-002
      1.37872798e-002 -1.06636724e-002 -3.33786160e-002 -2.33640596e-002
      4.44350857e-003 2.80098757e-003 1.01651931e-002 1.54075949e-002
      8.86410195e-003 4.13162122e-003 -1.64638215e-003 -3.55806085e-003
      6.30551903e-003 7.20908586e-003 -4.15477873e-004 -3.72537645e-003
      -3.87973362e-003 -6.10373123e-003 6.89679338e-003 2.17907447e-002
      8.11870303e-003 -2.23794370e-003 -2.28443593e-002 2.43998156e-003
      -2.43999390e-003 4.31318767e-003 -8.14557821e-003 -1.15005800e-003
      2.50613615e-002 -1.06890779e-002 -3.17972223e-003 1.47585934e-002
      -2.75562629e-002 3.13064456e-003 1.44255403e-002 7.27586448e-003
      -4.32832818e-003 1.23119121e-002 -8.03038850e-003 -7.55700469e-003
      1.17098670e-002 2.43560933e-002 -1.13929284e-003 7.64203584e-003
      -2.94456873e-002 7.76848337e-003 -4.53226222e-003 1.31119024e-002
      1.15387738e-002 8.36142525e-003 -2.14120261e-002 -5.32472925e-003
      1.64755585e-003 1.85619434e-003 9.85588040e-003 5.02423476e-003
      -7.08783418e-003 4.74583032e-003 7.86351506e-003 -2.30739731e-003
      1.38938269e-002 1.65271033e-002 3.71802528e-003 1.21509219e-002
      5.61649771e-003 9.36388224e-003 -6.45384416e-002 -3.99021395e-002
      8.62818863e-003 -2.33270694e-002 1.12409126e-002 -9.18799359e-003
      9.75131523e-003 1.40161123e-002 -2.25701369e-002 3.26543185e-003
      4.11206782e-002 9.44946893e-003 1.25866504e-002 1.88599024e-002
      -1.07823107e-002 2.93816272e-002 5.31243533e-003 3.70682441e-002
      -1.96316186e-003 -8.97518452e-003 6.49443408e-003 -2.92495475e-003
      -2.64399126e-003 -2.32952796e-002 -2.46726088e-002
      -4.59847525e-002 -1.39685823e-002 -6.10598968e-003 1.62683369e-003
      -4.38108370e-002 -1.59537587e-002 -8.46904368e-006
      -1.31562282e-003 1.27850454e-002 5.27358428e-003 -2.55985539e-002
      4.82027326e-003 1.55003294e-002 -1.62171740e-002 4.77088010e-003
      1.40148513e-002 7.41772680e-003 1.00699905e-002 4.45535779e-003
      -9.57833510e-003 1.38815620e-003 6.37246249e-003 -9.97219980e-003
      -2.89355032e-002 -1.15509490e-002 -2.33127666e-003 4.16919403e-003
      -7.12840399e-003 2.14608181e-002 -2.28381027e-002 -3.69903306e-003
      -1.47733167e-002 -4.10093972e-003 -8.59347172e-003 1.13988677e-002
      1.01547604e-002 2.47701164e-003 -2.38315277e-002 1.94993634e-002
      1.23323835e-002 1.39216622e-002 7.08683569e-004 1.79720193e-003
      2.79150065e-003 8.91128264e-004 5.66221634e-003 6.72311103e-003
      1.16437180e-002 9.40904021e-003 1.04129203e-002 1.56933833e-002
      -1.93957370e-002 -1.08211162e-003 -4.87336703e-003 2.07822118e-003
      4.06994522e-002 2.81269606e-002 -1.43363466e-002 -2.34731436e-002
      6.21568039e-003 2.43633892e-002 3.62252607e-003 -8.06281622e-003
      1.75914553e-003 -6.11221278e-003 2.29914114e-002 7.59648625e-003
      5.85873937e-003 5.34362625e-003 6.81420742e-003 -1.69715956e-002
      -1.31285340e-002 -1.44549655e-002 7.79650314e-003 -5.48767205e-003
      -8.72681011e-003 -1.33877881e-002 2.19193436e-002 1.06107723e-002
      2.38642748e-003 1.68904290e-002 1.19848521e-002 1.06154345e-002
      -3.01981810e-002 1.30298520e-002 1.28008481e-002 1.15743456e-002
      1.28316460e-002 1.87164452e-002 -1.46292057e-003 1.06289117e-002
      7.03736348e-003 -2.88025923e-002 1.71142966e-002 7.76205619e-004
      -5.56652062e-003 -9.45536513e-003 -1.62409842e-002 2.06793845e-002
      1.11614680e-002 -1.72961876e-002 4.18086024e-003 7.90054724e-003
      -9.77328047e-004 -2.75267917e-003 -2.14398038e-002
      -3.77368811e-003 1.40512493e-002 -2.70395167e-003 -2.38395529e-003
      -7.79282255e-003 8.12212471e-003 1.26317544e-002 -2.13631825e-003
      -5.68195153e-003 -2.25983504e-002 -2.25694873e-003 9.25855990e-003
      8.64662603e-003 9.62816551e-003 -2.01875381e-002 -6.76819764e-004
      -8.29044380e-004 1.06893871e-002 -2.77561159e-003 1.54378731e-002
      3.04429699e-002 1.38286678e-002 -8.99627898e-003 3.60084511e-002
      1.85814723e-002 -2.23659985e-002 1.92642882e-002 4.81120870e-003
      -1.29339984e-002 1.30045600e-003 3.28071113e-003 1.48762194e-002
      -1.02642123e-002 -1.38446605e-002 1.21721588e-002 -1.01416400e-002
      4.05767839e-003 1.35346723e-003 -2.72586364e-002 5.63042704e-003
      -7.31422519e-003 -1.22291194e-002 -3.98139376e-003
      -2.88361218e-003 -2.32529524e-003 1.37889618e-002 -2.85427123e-002
      -6.26801606e-003 8.85234773e-003 1.98916458e-002 -1.04191378e-002
      5.53547870e-003 8.10388941e-003 1.83537584e-002 1.79971308e-002
      -4.91057429e-003 -6.68345112e-003 1.26580531e-002 5.31631522e-003
      1.03201307e-002 1.26821240e-002 1.70891602e-002 -5.27426833e-003
      -2.19691172e-002 -1.10061029e-002 -1.38471322e-002 1.27461292e-002
      -9.03194118e-003 -1.62559282e-002 1.32815819e-003 6.18832698e-003
      -1.44685181e-002 -8.44795909e-003 5.61660482e-003 6.39044447e-003
      1.78962350e-002 5.41081594e-004 5.51896263e-003 1.64074861e-002
      1.58632211e-002 -3.80452257e-003 -6.01390842e-003 -4.49320255e-003
      6.91359863e-003 1.29825165e-002 1.73607061e-003 1.05451737e-002
      5.64716663e-003 5.76702785e-003 -1.31376656e-002 7.58771924e-003
      -3.73376533e-003 -5.87727735e-003 -3.14123780e-002
      -9.83941741e-003 -2.38054246e-002 -1.91039313e-003 5.09889657e-003
      -9.29918140e-003 1.23735331e-002 2.84193084e-003 6.82991091e-003
      8.18110816e-003 1.35548962e-002 1.35169961e-002 -1.40590779e-002
      2.01940164e-002 2.22748108e-002 1.63224395e-002 7.84715265e-003
      -1.00713605e-002 -9.56858881e-003 3.80462292e-003 1.17531437e-002
      2.51629483e-002 2.06777666e-004 -6.37499732e-004 -1.54934051e-002
      6.45954208e-003 1.49820419e-002 -1.63446479e-002 5.30789373e-003
      -2.26592887e-002 7.22490577e-003 -2.18634401e-002 1.37718478e-002
      9.98505484e-003 1.59644068e-003 9.14158300e-003 -1.75824750e-003
      8.54184292e-003 -8.40561558e-003 -3.82788060e-003 -1.17096212e-002
      -8.90813954e-003 5.87773230e-003 5.12544473e-004 -2.25669593e-002
      5.33650396e-003 7.65810767e-003 -1.21345872e-003 -4.00023116e-003
      2.83516329e-002 1.90179925e-002 2.62909923e-002 1.30904084e-002
      1.30877458e-002 -1.35905351e-002 5.54518355e-003 1.01293121e-002
      -4.07712683e-002 -1.75084977e-003 -1.43677490e-002 1.11949192e-002
      -1.42300585e-002 -3.02012675e-002 8.04095902e-003 8.06987192e-003
      -3.05909291e-002 2.43653264e-002 5.61822578e-003 9.30868275e-003
      1.11964378e-004 0. 7.98734929e-003 1.58893242e-002 6.20389404e-003
      -2.81293504e-002 3.26822698e-003 -1.23611270e-002 1.21040409e-002
      1.25239613e-002 2.53337286e-002 5.07168286e-003 3.97275528e-003
      -2.26075388e-002 -2.83093061e-002 1.02584604e-002 4.50359285e-003
      -2.10694954e-004 1.08319218e-003 7.45982118e-003 1.45816281e-002
      9.46070068e-003 1.09901046e-003 -5.19880466e-003 8.78343731e-003
      6.83956919e-003 9.05772764e-003 -4.05374495e-003 -1.81357972e-002
      -1.64705161e-002 2.36673467e-003 1.48489196e-002 1.61230825e-002
      -5.63167559e-004 7.16230599e-003 -4.56815585e-003 6.66622352e-003
      2.91387551e-003 -1.10466371e-003 1.93364397e-002 7.00886315e-003
      2.44668080e-003 3.56764123e-002 -3.98889836e-003 5.31553756e-003
      2.85790171e-002 1.39893666e-002 3.29340552e-003 8.60554725e-003
      3.74362245e-002 1.70227122e-002 2.17543058e-002 -6.32563140e-003
      -7.79504015e-004 5.96010266e-003 4.86745033e-003 -1.30921206e-003
      9.06905252e-003 -4.73246863e-003 -2.39215884e-002 -2.18930468e-002
      4.07583173e-003 -1.56656764e-002 -5.09413937e-003 3.23591218e-003
      1.08348746e-002 -1.14630284e-002 -3.19796763e-002 -1.66885823e-003
      8.42370465e-003 -5.38407033e-003 -1.24476040e-002 -1.52047398e-003
      -3.78060574e-003 5.30470209e-003 2.94173579e-003 8.04038532e-003
      2.25512739e-002 4.11438709e-003 6.74054539e-003 -8.10344890e-003
      -5.73887117e-003 -2.05270480e-002 2.10438594e-002 1.24579258e-002
      -1.61083916e-003 1.81135610e-002 4.52583004e-003 1.25166113e-002
      2.04291730e-003 -3.88585068e-002 -8.40559229e-003 -8.89770035e-003
      1.00041637e-002 1.35424384e-003 1.21896863e-002 -3.73161584e-002
      2.80255731e-003 2.05341019e-002 9.55265108e-003 5.85485762e-003
      -2.15366832e-003 -1.33067854e-002 -6.80926815e-003
      -1.04563013e-002 2.13473961e-002 7.86864571e-003 -1.46217886e-002
      -6.09212322e-003 -8.33173748e-003 5.95408212e-003 2.04900000e-002
      -3.60887423e-002 1.69870462e-002 -6.49831910e-003 2.01126467e-002
      -4.55301628e-002 -5.54887718e-003 -9.22277570e-003 1.15666250e-002
      -6.43472373e-003 2.57107466e-002 6.45584078e-004 8.38778820e-003
      -1.33050550e-002 -1.02988887e-003 -5.09120990e-004
      -2.50808476e-003 3.44443843e-002 -1.05993776e-002 -1.95103437e-002
      2.29349136e-002 9.48171318e-003 1.65498978e-003 1.21609177e-002
      -2.30076388e-002 1.00261932e-002 -1.27726486e-002 4.37768269e-003
      1.36633916e-003 7.19545828e-003 3.81974573e-003 7.08072493e-003
      -3.95343499e-003 2.90586799e-002 1.56632550e-002 1.09165926e-002
      4.65802569e-003 -7.36500195e-004 -2.49902159e-003 -3.27834301e-002
      1.26651926e-002 2.23113340e-003 -2.50243372e-003 8.63307447e-004
      -2.94959992e-002 9.96116665e-004 -4.12905701e-002 -2.11477905e-004
      5.47659816e-003 1.02678416e-002 3.34542012e-003 -4.67522582e-003
      -2.34812815e-002 9.17319767e-003 1.01988753e-002 -1.12192344e-003
      4.35832934e-003 1.75200738e-002 -4.05098312e-002 8.05672165e-003
      -1.35689909e-002 1.25330864e-002 9.44416854e-004 -6.26068795e-003
      6.64961245e-003 -2.35143583e-002 1.44636305e-002 1.12906732e-002
      -5.35029694e-002 1.53296755e-003 1.58576760e-002 -3.25074084e-002
      8.68347008e-003 -2.78930776e-002 -1.94283121e-003 -8.32547958e-004
      8.38849507e-003 9.26912110e-003 6.56684674e-003 1.25848381e-002
      3.47844278e-003 3.14094825e-003 1.66910272e-002 -1.60375386e-002
      8.88193399e-003 -4.47374349e-003 -1.07562346e-002 3.04741878e-003
      -3.81610426e-003 1.60775036e-002 1.14296600e-002 5.17817633e-003
      -2.75635570e-002 3.07911285e-003 3.59577220e-003 1.92582253e-002
      7.86360644e-004 1.01104295e-002 -2.25774269e-003 2.24801153e-003
      2.00507399e-002 -2.17623077e-002 -3.09810713e-002 -2.60693114e-003
      9.70948581e-003 -3.44774802e-003 1.21835098e-002 1.64252352e-002
      -2.20864685e-003 -9.84475482e-003 1.09619983e-002 -8.01920053e-003
      1.32864099e-002 8.50313250e-003 6.11755531e-003 2.58986163e-003
      4.78370441e-003 0. -7.72370491e-003 8.82804161e-004
      1.01066502e-002 5.27975243e-003 -8.75535049e-003 5.36182337e-003
      1.33142585e-003 -2.42951777e-004 5.91286505e-003 -7.58969458e-003
      1.66857426e-004 1.87072612e-004 1.06392102e-003 2.21338496e-002
      -2.66392659e-002 -1.09808519e-002 2.29326803e-002 5.04364166e-003
      4.37766267e-003</_></support_vectors>
  <decision_functions>
    <_>
      <sv_count>1</sv_count>
      <rho>-9.9823914686413628e-001</rho>
      <alpha>
        1.</alpha>
      <index>
        0</index></_></decision_functions></my_svm>
</opencv_storage>
