<?xml version="1.0"?>
<opencv_storage>
<my_svm type_id="opencv-ml-svm">
  <svm_type>C_SVC</svm_type>
  <kernel><type>LINEAR</type></kernel>
  <C>1.</C>
  <term_criteria><epsilon>2.2204460492503131e-016</epsilon>
    <iterations>1000</iterations></term_criteria>
  <var_all>1000</var_all>
  <var_count>1000</var_count>
  <class_count>2</class_count>
  <class_labels type_id="opencv-matrix">
    <rows>1</rows>
    <cols>2</cols>
    <dt>i</dt>
    <data>
      -1 1</data></class_labels>
  <sv_total>1</sv_total>
  <support_vectors>
    <_>
      1.13925990e-002 -3.36360466e-003 5.62526146e-003 -6.15203101e-003
      4.39401250e-003 9.40977968e-003 6.87919278e-003 -4.46781423e-003
      -1.97829604e-002 -5.05612837e-003 1.85696185e-002 -2.63796765e-002
      -4.07889113e-003 9.19063285e-004 7.74909044e-003 1.54579617e-002
      -2.83150226e-002 1.48793170e-002 1.55434124e-002 -2.05836035e-002
      2.84849405e-002 1.49248801e-002 -8.59064795e-003 2.60542613e-002
      6.74487732e-004 9.34954081e-003 1.53133916e-002 -2.79454701e-002
      7.99994264e-003 -1.20995939e-002 4.72842995e-003 -5.55968005e-003
      -7.24019343e-003 -5.74716143e-002 3.71166039e-003 -3.53840040e-003
      -7.15788752e-002 3.89526272e-003 1.34000843e-002 1.19877723e-003
      -1.91164599e-003 6.33441261e-004 -1.58485840e-003 1.37240672e-003
      -3.00615304e-003 2.46764738e-002 -3.89604457e-002 -5.12828818e-004
      -3.28627042e-003 -1.39322439e-002 1.63443480e-002 4.48323460e-003
      -1.39665343e-002 1.10954614e-002 8.99785664e-003 -1.30615081e-003
      -1.21064659e-004 7.12000905e-003 5.86292124e-004 7.34352134e-003
      1.09375687e-002 3.72598949e-003 1.62845477e-002 8.94202758e-003
      4.49267728e-003 1.21948579e-002 1.43881631e-003 1.36320395e-002
      -5.05899964e-003 2.52284668e-003 -1.76852755e-002 -1.36938440e-002
      1.41319120e-002 3.03918272e-002 -5.24845487e-003 -1.55226178e-002
      -5.74062346e-003 -2.46248059e-002 -1.27658146e-002
      -2.79488917e-002 -7.24089984e-003 -9.25359782e-003 3.51214502e-003
      1.22827720e-002 1.11178122e-002 -1.08088963e-002 -1.98396165e-002
      3.05966213e-002 -4.05345932e-002 -1.16033144e-002 -1.62381586e-002
      2.48010270e-002 -1.85764662e-003 1.16608175e-003 -3.15726665e-003
      -7.85993692e-003 1.22437170e-002 2.54021818e-003 6.42314926e-003
      3.15511040e-003 6.83173956e-003 -4.79732547e-003 6.48979656e-003
      -6.51683705e-003 -3.40833236e-003 -5.19259879e-003 4.14893450e-003
      8.75543430e-003 8.47300049e-003 1.58387832e-002 2.27088612e-002
      -3.58041143e-003 7.17805978e-003 2.03013001e-003 7.85548147e-003
      1.47191272e-003 -3.42772678e-002 -2.27491441e-003 8.64091609e-003
      2.99731065e-002 1.66891434e-003 7.34944968e-003 -2.25868132e-002
      -2.94726286e-002 -5.15499944e-003 2.47446727e-002 1.42696674e-003
      2.12802459e-003 -7.10726017e-005 1.30338222e-002 4.69119474e-003
      4.71980637e-003 -1.15198586e-002 8.07403214e-003 2.47638999e-003
      2.72579659e-002 9.56870709e-003 9.12857614e-003 3.23471278e-002
      6.78406609e-003 8.97229463e-003 -4.46551805e-003 -8.22101254e-003
      -2.81336755e-002 -7.49185681e-003 -1.34803506e-003
      -1.33106783e-002 3.69138713e-003 -3.14092427e-003 -1.38119832e-002
      -1.41543364e-002 5.23363560e-005 4.65538679e-003 -8.08432978e-003
      -1.23489484e-001 -4.77960054e-003 7.07263686e-003 -1.80684905e-002
      1.08758509e-002 -1.38315037e-002 2.52964143e-002 -9.32629872e-003
      7.93350674e-003 -4.56645805e-003 -7.45811267e-003 2.76906905e-003
      1.16567258e-002 1.27995778e-002 1.18446350e-002 1.66932195e-002
      -6.23263465e-003 9.55600664e-003 -4.08979459e-003 -4.72050020e-003
      -2.37889793e-002 8.66618566e-003 9.68187209e-003 -2.54494678e-002
      -1.02955531e-002 6.00646203e-003 1.03456667e-002 -2.15455890e-002
      -3.22806723e-002 -1.17682749e-002 1.25937937e-002 5.07462164e-003
      -7.17489934e-003 -1.72117930e-002 7.64173036e-003 1.49624031e-002
      5.71698835e-003 3.33119137e-003 6.80209929e-003 7.19062891e-003
      1.21446345e-002 1.93194393e-002 -3.66375186e-002 7.80772511e-003
      1.86662078e-002 2.19769194e-003 -5.64260501e-003 -1.29957795e-002
      -1.97098441e-002 -2.44593602e-002 -7.76462955e-003 1.21022370e-002
      4.21656715e-003 5.59562026e-003 1.00514358e-002 6.55173324e-003
      6.31184876e-003 -8.16339348e-003 -2.34526978e-003 -9.40018613e-003
      2.55475454e-002 4.71161772e-003 7.61510432e-003 7.18800956e-003
      -7.65980128e-003 -1.75887570e-002 8.89915228e-003 9.44473967e-003
      3.51695274e-003 -9.75287519e-003 1.04569681e-002 -1.76984146e-002
      5.90515696e-003 -6.40249439e-003 -6.87445374e-003 -6.15953817e-004
      -1.16183981e-002 -2.40721814e-002 1.51948733e-002 -9.67667811e-003
      3.76028456e-002 3.56545742e-003 1.19868116e-002 -1.03127770e-003
      1.17818965e-002 1.75862061e-003 -8.04043561e-003 1.16719883e-002
      -5.82733983e-003 -3.59421298e-002 5.37278402e-006 -1.74458150e-003
      4.33480218e-002 -1.53495418e-002 -1.63809992e-002 -4.53993853e-004
      -2.02478748e-002 1.07228113e-002 1.03230763e-003 1.18383272e-002
      -7.01191509e-003 1.38170337e-002 2.41917148e-002 -1.58228548e-004
      -1.32002514e-002 -1.12655060e-003 -2.61366144e-002 8.23785271e-003
      1.20513644e-002 -1.21268565e-002 1.48046133e-003 -1.50596621e-002
      6.53186115e-003 1.50322579e-002 -9.05312505e-003 -8.92791525e-003
      1.98659711e-002 -1.65397041e-002 3.14689800e-003 -8.52806959e-003
      2.32942794e-002 -2.22231145e-004 5.40899858e-003 3.74822430e-002
      -3.54356803e-002 1.34135885e-002 -7.79569964e-004 6.83323154e-003
      1.91643517e-002 2.53048912e-003 -2.61431411e-002 4.87027271e-003
      -4.65083634e-003 8.91540013e-003 6.38298690e-003 -2.24941480e-003
      2.58276239e-002 -1.65833707e-003 3.45502724e-003 1.83488173e-005
      -3.26151703e-003 1.58600900e-002 -3.48104746e-003 -1.51267871e-002
      1.01953410e-002 -2.46345233e-002 -6.96620904e-003 7.81932939e-003
      -1.54637115e-003 1.61343981e-002 -2.47580316e-002 1.70901902e-002
      1.02731502e-002 -2.31170654e-003 3.32020200e-003 5.59972785e-003
      -6.56204438e-003 7.47912563e-003 -1.82254966e-002 2.45344057e-003
      -3.21516860e-003 -1.90036185e-003 -1.78553648e-002 6.70143170e-003
      9.17334296e-003 1.98685974e-002 -3.87347899e-002 1.32310186e-002
      8.86069424e-003 9.09047015e-003 -4.52479580e-003 -7.75617780e-003
      -1.33543396e-002 -3.94562744e-002 5.50975185e-003 1.40265809e-004
      1.66422836e-002 -3.08070378e-003 3.26470617e-004 1.74178760e-002
      -2.95136180e-002 3.48673351e-002 1.54638619e-004 7.58240046e-003
      5.41004539e-003 -3.68582271e-003 5.24112303e-003 1.69988293e-002
      -1.95951834e-002 1.83359010e-003 -7.47947721e-003 4.73507773e-003
      4.60675498e-003 1.93395687e-003 1.05415648e-002 9.85221285e-003
      8.72625690e-003 -3.72799695e-003 -5.15148835e-003 -4.55885520e-003
      -2.02052649e-002 7.75671424e-003 -1.23628066e-003 1.05470791e-002
      -3.13272960e-002 1.07374731e-002 1.71082281e-003 3.64335626e-003
      -2.84782075e-003 -6.44446835e-002 1.93108129e-003 -5.94197726e-003
      7.71135511e-003 9.86774452e-003 -9.09427833e-003 5.41808130e-003
      5.69178164e-003 1.90289523e-002 3.38175305e-004 1.83348719e-003
      -4.21812804e-003 5.85296704e-003 1.10969292e-002 -1.13907810e-002
      4.52658115e-003 9.81875602e-003 -3.39683183e-002 -9.71082412e-003
      9.61353653e-004 -5.73676964e-003 1.46439290e-002 2.02380191e-003
      9.45954584e-003 8.00140761e-003 -3.45549034e-003 9.37140197e-004
      -3.86673398e-002 3.44144675e-004 6.01103809e-003 2.72093099e-002
      2.09369417e-002 -3.94536229e-003 -1.05784936e-002 -1.96212642e-002
      -2.66004652e-002 -3.82116647e-003 1.83344539e-003 1.37506463e-002
      5.46139199e-003 -1.76752522e-003 1.71381840e-003 -1.55339716e-003
      1.22580128e-002 1.31410901e-002 -1.72750708e-002 1.80756219e-003
      1.43677099e-002 -2.42514051e-002 -2.31078882e-002 5.95189538e-003
      8.77626054e-003 7.18573062e-003 -9.00187157e-003 5.04230522e-003
      -9.68088210e-003 1.31079936e-002 6.63972646e-003 7.50777498e-003
      1.41843418e-002 4.92777489e-003 1.64897144e-002 1.37488861e-002
      9.09255526e-004 2.26696697e-003 -3.04848272e-002 -3.21618910e-003
      1.98141648e-003 3.11339530e-003 -3.86789977e-003 -1.53372332e-003
      -1.21701118e-002 1.54791875e-002 -4.44334745e-002 9.54554998e-004
      1.59909520e-002 8.69512185e-003 6.11551199e-003 1.52931577e-002
      2.07046922e-002 2.73511745e-003 -1.80370029e-004 -7.74069084e-003
      -2.38552759e-003 -1.17118126e-002 -7.90558755e-004 1.83357752e-003
      2.29713810e-003 -9.92681365e-004 -1.83452070e-002 2.95604486e-002
      5.57203637e-003 5.24441944e-003 -5.07417228e-003 -8.07082746e-004
      9.25026182e-003 1.72144324e-002 3.38183978e-004 4.08154028e-003
      -2.07996406e-002 -5.81840344e-004 1.62703339e-002 1.00602815e-002
      5.55504439e-003 5.11977181e-004 1.18982149e-002 -9.99423862e-003
      1.42338481e-002 6.18401915e-004 -1.03025986e-002 7.50776986e-003
      -1.83724239e-002 1.05598578e-002 1.78573027e-004 -1.21039031e-002
      8.88645742e-003 1.37038287e-002 -4.61120810e-003 -1.06688321e-003
      6.13529887e-003 -7.27340905e-003 -7.81172048e-003 -1.76244285e-002
      8.18723347e-003 -6.76594209e-003 -2.92581762e-003 8.18624347e-003
      1.14361290e-002 2.05657762e-002 -7.27764564e-003 -3.66331032e-003
      -1.79787123e-004 2.86694039e-002 -9.60447069e-004 -5.55514637e-003
      1.83364365e-003 1.83335389e-003 -4.56675701e-003 3.38185928e-004
      3.88430036e-003 6.84542069e-003 5.22020459e-003 -1.33617446e-002
      8.02353956e-003 9.36372019e-003 1.24403955e-002 1.82715636e-002
      3.72875490e-007 -3.23170377e-003 -3.95957194e-003 -3.58222215e-003
      -2.72217253e-003 3.21401237e-003 6.86685741e-003 1.15636445e-003
      1.45262771e-003 1.26047991e-002 1.18796667e-003 3.32635082e-002
      4.51439992e-003 4.78486344e-003 9.01862513e-003 1.83346774e-003
      -1.33881913e-002 1.42019494e-002 -2.62842327e-002 1.16810836e-002
      -2.42736726e-003 -2.45002452e-002 -6.94715837e-003
      -4.75947149e-002 -3.95087898e-003 6.38040388e-003 6.48938026e-003
      -5.06828865e-003 9.37723648e-003 -3.04891099e-003 1.83350022e-003
      2.46110349e-003 -7.58672506e-003 5.35590202e-003 -6.65132684e-005
      -4.94752266e-003 -7.20700409e-005 1.53717408e-002 -3.36260092e-003
      1.15520135e-002 2.42909300e-003 7.24621583e-003 -6.15096185e-004
      1.10438941e-002 -7.68825179e-003 1.79450158e-002 1.32423937e-002
      -6.37580361e-003 1.71860661e-002 9.44354106e-003 -4.96724881e-002
      2.03222968e-003 5.39082522e-003 -3.23612802e-002 2.23815572e-002
      3.64669994e-003 2.20188079e-003 1.06336549e-002 -8.44413706e-004
      -2.95865666e-002 -3.38814710e-003 -1.24469642e-002
      -1.34376300e-004 1.28789693e-002 -1.08334515e-002 1.57807078e-002
      -4.71116015e-004 6.86106784e-003 1.20616602e-002 1.39096621e-002
      9.66617838e-003 7.13304197e-003 -9.45598236e-004 -2.29567615e-003
      1.95074733e-002 -1.72454736e-003 2.05323589e-003 8.53831694e-003
      2.42874026e-002 -2.10652113e-004 -5.05582755e-003 5.21650491e-003
      -9.91221331e-003 5.00422390e-003 4.65677027e-003 1.69820769e-003
      -9.17655881e-003 -7.56174838e-003 -2.44939644e-002
      -1.54199777e-003 7.03526335e-003 -1.53738428e-002 -2.45834347e-002
      -2.35138983e-002 6.82441145e-003 -1.45410150e-002 -2.56350101e-003
      -3.48636843e-002 -1.70324072e-002 3.49928276e-004 8.57758895e-003
      3.09834094e-003 1.12728383e-002 -1.97893828e-002 3.61124473e-003
      -1.02567337e-002 -2.82332185e-003 1.90437548e-002 -8.92881118e-003
      1.84211344e-003 1.03187012e-002 -1.73385143e-002 -1.17027508e-002
      1.46210846e-002 -2.32796595e-002 -2.35832110e-002 2.48095971e-002
      6.75260276e-003 5.37358364e-003 4.41571604e-003 9.60251503e-003
      2.15148932e-004 6.02968177e-003 1.67403016e-002 -3.80503922e-003
      4.36372031e-003 1.12921810e-002 1.83350884e-003 -4.46849577e-002
      1.59447659e-002 -4.01086174e-003 -6.41150028e-003 1.52641966e-003
      1.30656697e-002 -7.73197226e-003 9.48655512e-003 -1.23528522e-002
      9.50479647e-004 1.35287251e-002 1.46626327e-002 -1.33164590e-002
      9.21399333e-003 9.67113674e-003 1.27205309e-002 -1.64996483e-003
      -1.97256934e-002 -6.91102876e-004 2.31397320e-002 2.92236381e-003
      3.58997588e-003 -2.11229431e-003 -1.16618890e-002 1.83348509e-003
      2.35823467e-002 9.97027266e-004 1.15236836e-002 2.41682841e-003
      -5.19244932e-003 -3.38274403e-004 -1.84194036e-002 3.16499081e-003
      1.13013173e-002 -3.77962068e-002 1.19823925e-002 4.24724625e-004
      -1.09124063e-002 3.36165749e-003 5.75490436e-003 -8.54170881e-003
      -1.05055701e-003 2.09543351e-002 -3.25761996e-002 -1.61729095e-005
      -2.55829133e-002 1.05324504e-003 2.16014106e-002 1.09569486e-002
      5.77011425e-003 -2.16955738e-003 3.38197686e-004 7.58641493e-003
      2.31944514e-003 2.04247027e-003 7.55049405e-004 -8.62148590e-003
      -1.20501651e-003 7.83717819e-003 1.36295771e-002 8.49163346e-003
      3.74473003e-003 8.71853251e-003 2.12766463e-003 -9.44213942e-003
      9.13630612e-003 1.71061289e-002 3.76513135e-003 3.87341622e-003
      -3.36723984e-003 -8.90298747e-003 0. 1.06401099e-002
      1.65549293e-003 8.46547913e-003 -1.96683537e-002 3.93142086e-003
      1.41847646e-002 4.95619746e-003 1.41301202e-002 -5.16551547e-003
      -8.54165573e-003 5.18155564e-003 1.23700509e-002 -1.64119769e-002
      1.12968646e-002 6.39462552e-004 -9.74625722e-003 -1.74724367e-002
      -2.72841961e-003 8.84602126e-003 -1.50241461e-002 -3.24066472e-003
      -1.41021609e-002 -2.83676647e-002 1.64376409e-003 -2.87134890e-002
      1.26765296e-002 -9.71507188e-003 -7.17772637e-004 1.25707807e-002
      1.39682675e-002 1.23744775e-002 8.50234646e-003 7.53008388e-003
      1.83285717e-002 -9.84722003e-003 1.98767520e-003 7.20043248e-003
      4.68046608e-004 6.84351055e-003 -1.28043555e-002 5.62339742e-003
      3.53473378e-003 -9.10408422e-003 1.00409258e-002 -5.62398974e-003
      -1.52513003e-002 -8.78478121e-003 -8.76112841e-003 5.32150595e-003
      -7.94079062e-003 2.68114675e-002 3.13487981e-004 6.89961133e-004
      -8.70141666e-003 4.34228079e-003 1.60457101e-002 7.38420244e-003
      -2.12466856e-003 2.63381973e-002 -1.37145566e-002 -3.42058577e-002
      2.60096211e-002 9.55027179e-004 -1.41933502e-003 7.77515862e-003
      2.02918053e-003 3.05995415e-003 7.86403194e-003 4.95560560e-003
      -6.56014821e-003 7.09009776e-003 6.45163748e-003 -1.95483454e-002
      3.60289030e-002 -1.67075209e-002 -3.35102230e-002 9.74851009e-003
      1.05931638e-002 2.38375063e-003 1.39003713e-002 2.15344895e-002
      7.23265111e-003 1.03038047e-002 2.59317104e-002 5.64825546e-004
      -9.82250366e-003 -2.64448603e-003 1.61874294e-002 -1.02807190e-002
      -6.40993612e-003 5.86956041e-003 -2.03595310e-003 -5.84205519e-003
      1.11195976e-002 7.77058909e-003 -7.94684421e-003 1.71771506e-003
      5.69655187e-003 -1.18298726e-002 -6.89649722e-004 1.08492114e-002
      -7.37135671e-003 -6.04240503e-003 -2.86002811e-002 3.57657176e-004
      -1.65331829e-003 -4.47525689e-003 6.82946108e-003 -1.18644936e-002
      -6.54476881e-003 -5.69894724e-003 -1.62148178e-002
      -8.03154078e-004 4.39907704e-003 -7.84129556e-003 -1.05990702e-002
      3.61254886e-002 -4.49203774e-002 -1.08621623e-002 8.40452034e-003
      1.64106283e-002 -1.51172990e-003 8.42060614e-003 4.07519378e-003
      1.51384026e-002 -1.76937412e-002 -1.00879486e-004 -3.28088226e-003
      -3.97784896e-002 -6.13328209e-003 7.03186076e-003 7.91200995e-003
      1.56876806e-003 -1.65390633e-002 7.12922495e-003 -1.49156647e-002
      1.35859810e-002 -7.76247540e-003 1.95844285e-002 -4.67998395e-003
      -1.88940507e-003 4.82459879e-003 3.41106998e-003 4.87846462e-003
      3.37051367e-003 -1.96369309e-002 -1.41273364e-002 -2.75416812e-003
      -1.51430080e-002 -1.02483830e-003 -7.76677066e-003 2.48276591e-002
      -9.88030061e-003 1.03735412e-002 -3.74377472e-003 2.45586671e-002
      7.91792758e-003 9.89853055e-004 2.06640568e-002 2.56045256e-003
      3.53325345e-003 8.16747267e-003 -1.77569948e-002 6.29052566e-003
      -1.87244825e-002 -9.72604248e-005 2.68834853e-003 7.09379511e-003
      4.47916752e-003 1.33624894e-003 1.01830149e-002 -1.51605534e-004
      -2.94418279e-002 -6.54547289e-003 9.11257043e-003 -2.30175201e-002
      -5.80531918e-003 -1.56288315e-002 -1.21301366e-002
      -5.98860346e-003 -1.78636983e-002 2.00899858e-002 -2.79574981e-003
      1.08425887e-002 1.79343263e-003 2.78429547e-003 1.49186766e-002
      -1.72763467e-002 -1.49173178e-002 1.72604527e-002 -6.39627833e-005
      -2.84266081e-002 -1.12805003e-002 4.90463758e-003 -2.42539383e-002
      1.83348020e-003 -1.27952034e-002 -1.07651129e-002 5.85069228e-003
      5.09968493e-003 7.28511717e-004 -8.04839563e-003 8.13664228e-004
      3.38191894e-004 5.42602362e-003 4.08760132e-003 1.03381812e-003
      3.59815406e-003 1.68067645e-002 -8.69054161e-003 1.74781121e-002
      1.28501821e-002 9.71998088e-003 -1.80197041e-002 1.50009263e-002
      -1.74924694e-002 -4.30231914e-002 8.17750767e-003 1.15448525e-002
      -6.52558450e-003 8.73152260e-003 -1.50888767e-002 -8.09332542e-003
      1.23236664e-002 1.25916407e-003 9.95682552e-003 4.77480993e-004
      -1.20981894e-002 -2.31793383e-003 5.04643144e-003 -2.64225910e-005
      9.96658951e-003 2.57449341e-003 1.02353152e-002 -6.59390399e-003
      2.15690974e-002 -6.99550146e-003 1.79274194e-002 8.39774124e-003
      -1.00856386e-002 7.03411736e-003 -1.10246576e-002 3.04522854e-003
      -1.15168747e-003 7.41656986e-004 1.17817603e-003 1.15682911e-002
      -1.66033767e-002 -5.10608172e-003 7.50285713e-003 -7.52434647e-003
      -1.06698610e-002 5.20372903e-003 3.50553985e-003 1.75580401e-002
      1.86779611e-002 7.91058782e-003 7.61650922e-003 8.05131253e-003
      1.75399857e-003 4.47466504e-003 -1.82337351e-002 -1.74824651e-002
      -2.77052494e-003 -8.42175074e-003 6.30550459e-003 1.26625849e-002
      -1.74435750e-002 7.55555229e-003 3.62161500e-003 3.91126350e-002
      -2.05794033e-002 3.74366669e-003 -1.33522898e-002 1.85196556e-003
      7.17986049e-003 6.16349792e-003 -1.69136934e-002 -6.96892524e-003
      6.04316453e-003 -5.94402477e-003 7.90775847e-003 -2.78007588e-003
      -8.89053661e-003 1.72395837e-002 2.12787231e-003 -1.20303212e-002
      -4.52922955e-002 4.85503161e-003 -2.94843432e-003</_></support_vectors>
  <decision_functions>
    <_>
      <sv_count>1</sv_count>
      <rho>-9.9721770759345663e-001</rho>
      <alpha>
        1.</alpha>
      <index>
        0</index></_></decision_functions></my_svm>
</opencv_storage>
