<?xml version="1.0"?>
<opencv_storage>
<my_svm type_id="opencv-ml-svm">
  <svm_type>C_SVC</svm_type>
  <kernel><type>LINEAR</type></kernel>
  <C>1.</C>
  <term_criteria><epsilon>2.2204460492503131e-016</epsilon>
    <iterations>1000</iterations></term_criteria>
  <var_all>1000</var_all>
  <var_count>1000</var_count>
  <class_count>2</class_count>
  <class_labels type_id="opencv-matrix">
    <rows>1</rows>
    <cols>2</cols>
    <dt>i</dt>
    <data>
      -1 1</data></class_labels>
  <sv_total>1</sv_total>
  <support_vectors>
    <_>
      -7.39216106e-004 2.35320791e-003 6.24604803e-003 5.52806305e-003
      2.61226599e-003 -1.44533603e-003 1.35838077e-003 -5.69450250e-003
      4.72206157e-003 4.34908317e-003 2.22874660e-004 1.86968234e-003
      1.75174815e-003 7.54948054e-003 -1.96146010e-003 2.49835686e-003
      6.08927105e-003 3.86621617e-003 1.74751462e-004 2.26410199e-003
      1.89104967e-003 4.96168481e-003 3.19153210e-003 3.42242187e-003
      4.44822200e-003 1.17007634e-002 8.58624466e-003 2.88062892e-003
      1.88014877e-003 5.59747126e-003 2.61061266e-003 1.82438910e-003
      2.86070164e-004 5.32632810e-004 4.76238085e-003 7.71831721e-003
      -1.85197853e-002 4.55425214e-003 5.25753712e-003 -2.17574136e-003
      -7.13143079e-003 8.46072938e-003 2.81063188e-003 -5.23875118e-004
      -1.48215645e-003 8.65800027e-003 -6.91817841e-003 -1.10383490e-002
      9.23443295e-004 6.01371797e-003 1.99343101e-003 -7.79681560e-003
      2.97958124e-003 8.07713484e-004 1.34321989e-003 -2.25883946e-002
      2.33953726e-003 2.85197725e-003 4.80972184e-003 6.48979517e-003
      1.78414863e-003 4.03156783e-003 1.54810422e-003 -4.15744446e-003
      -5.30762656e-004 5.43635665e-003 -1.26155361e-003 -1.28159150e-002
      -4.66764905e-003 -2.05940381e-003 2.50186515e-003 5.52087906e-004
      -6.11318555e-003 3.04878713e-003 8.78808927e-003 -1.31269637e-002
      -2.75782007e-003 1.92524516e-003 8.81176384e-004 2.69101118e-003
      -7.05026044e-003 6.14775578e-003 -1.23953344e-002 2.30330788e-003
      -1.77205121e-003 1.35164028e-002 2.69262958e-003 3.47459665e-003
      -5.23381075e-003 1.00537324e-002 6.01740088e-003 6.34470582e-003
      -5.53054083e-003 1.62213622e-003 -1.29065636e-004 9.44977254e-003
      -1.17013780e-002 -1.89112767e-003 2.92700250e-003 1.26027560e-003
      3.40321538e-004 2.52756989e-003 3.13882693e-003 2.10169330e-003
      6.51505310e-004 3.03533953e-003 -1.77695733e-002 -7.90545018e-004
      -1.02975583e-002 3.67598073e-003 3.12474486e-003 2.03014677e-003
      1.38391396e-002 -6.71879807e-003 6.44300459e-003 2.24239356e-003
      3.16776312e-003 3.90875014e-003 7.51921441e-003 1.43183605e-003
      4.49856650e-003 3.74926114e-003 4.41365130e-003 1.90847286e-003
      6.84142252e-003 -2.23296601e-002 3.63062718e-003 -9.19492356e-003
      5.96722635e-003 -4.78350418e-003 -8.25672876e-003 6.30240596e-004
      -5.31493966e-003 -4.58856433e-004 -2.05073114e-002
      -1.36510478e-002 6.60983264e-004 6.78866915e-003 3.42451851e-003
      2.30788696e-003 1.50822118e-004 1.81623036e-003 -1.51569862e-003
      -7.58518418e-003 8.39491026e-004 -7.99826812e-003 7.92440400e-003
      3.05853342e-003 -1.48640899e-003 3.74854705e-003 4.94885910e-003
      5.58466138e-003 5.92721766e-003 -3.86993779e-004 -1.75723992e-002
      7.63799157e-003 1.15413303e-002 -7.25790765e-003 -2.03058124e-002
      -6.36465964e-004 -6.32089842e-003 -3.18322534e-004 3.10722862e-005
      4.73105861e-003 2.46585405e-004 3.29810195e-003 2.86330050e-003
      5.23270899e-003 -4.30874666e-003 -1.11580715e-002 -3.85809597e-003
      1.50853198e-003 5.13461092e-003 -4.23683698e-004 5.12231886e-003
      4.78627393e-003 5.57703339e-003 6.41636131e-003 1.25597173e-003
      -5.84431691e-003 -1.88259594e-002 -8.32265802e-003 8.36519804e-003
      2.40770145e-003 -1.28049159e-003 5.65844681e-003 7.32215401e-003
      -1.31851053e-002 8.56927072e-005 8.94720852e-003 -5.04992018e-003
      4.37251944e-003 -1.45541702e-003 -1.29899364e-002 3.80909740e-004
      5.38385939e-004 1.60524773e-003 3.93491145e-003 2.33627460e-003
      4.68576699e-003 6.93915179e-003 1.68077927e-003 -6.48970716e-003
      4.05928906e-004 2.41626892e-003 8.72232253e-004 3.00297467e-003
      1.06049562e-003 -7.18462048e-004 3.86079843e-003 1.46722281e-003
      -8.39194376e-003 5.52132726e-003 1.13175414e-003 2.21655099e-003
      1.71775627e-003 5.00781927e-004 6.81644445e-003 3.33349593e-003
      3.00592976e-003 2.31948122e-003 2.40011187e-003 3.80275282e-003
      3.22510884e-003 -1.79354544e-003 7.68676866e-003 1.00973425e-002
      8.85067333e-004 2.69491761e-003 2.64698779e-003 1.43836741e-003
      -6.07629027e-003 5.32746490e-004 2.05880287e-003 2.31159618e-003
      -1.84028260e-002 1.41137140e-003 4.01514629e-003 3.81181808e-003
      9.67128784e-004 7.37880357e-004 -5.28282777e-004 5.02313604e-004
      3.14881536e-003 9.58343095e-004 -1.23990490e-003 5.05223311e-003
      2.28884586e-004 -1.17722424e-002 -1.23940012e-003 2.70375540e-003
      3.31518403e-003 -7.15979375e-003 1.55738101e-003 3.46985902e-003
      1.49283651e-003 4.84786043e-003 5.32720762e-004 1.46470650e-003
      -9.92911082e-005 -1.68751981e-002 1.75399601e-003 1.48272386e-003
      3.81682254e-003 -9.13495105e-003 4.80252830e-003 2.87281466e-003
      2.42736132e-005 -4.22181888e-003 -2.05374993e-002 2.00709491e-003
      6.64424943e-003 -2.79451953e-003 1.52154628e-003 -1.83131993e-002
      9.00532026e-003 2.00585835e-003 -4.51366184e-004 -1.46179348e-002
      5.92107512e-003 -1.89519743e-003 1.10364403e-003 1.20815239e-003
      9.25147440e-003 3.64710134e-003 -5.52300084e-003 -8.08412209e-003
      -6.37365319e-003 6.14647707e-003 -5.60050132e-003 -5.83426189e-003
      -6.24101260e-004 4.85899718e-003 3.86522897e-003 7.93437008e-003
      -8.82237591e-003 1.35089469e-003 -1.57958188e-003 3.50760948e-003
      1.77229044e-003 2.26115971e-003 -1.94756258e-002 -2.46113800e-002
      2.29483907e-004 -8.21684208e-003 -4.21505421e-003 -7.99127039e-004
      2.33119703e-003 7.01299775e-003 -6.64501404e-003 -7.11370725e-003
      -4.99337818e-003 -2.15559950e-004 -8.61751474e-003 3.02012009e-003
      9.51017952e-004 -7.60254858e-004 -4.54386231e-003 -2.10820008e-002
      3.72076593e-003 2.36193230e-003 3.11299320e-003 2.34198337e-003
      -3.06822243e-003 5.04237658e-004 6.07192889e-003 -5.83349283e-005
      7.69838109e-004 7.44629418e-004 -8.38466641e-003 3.38949100e-003
      3.92881688e-003 2.86963535e-004 4.35778266e-003 1.97103550e-003
      2.53050192e-003 4.79318108e-003 4.99210414e-003 -8.64123052e-004
      -1.74660683e-002 1.20666355e-003 2.06341920e-003 -6.91355497e-004
      3.70997353e-003 1.67189015e-003 4.27322602e-003 -1.07253231e-002
      3.25431814e-003 -5.43310959e-003 3.56427091e-003 -7.70367682e-003
      -5.08625945e-003 -4.40593984e-004 3.89380683e-003 -6.39488979e-004
      -1.95351932e-002 -1.11103244e-003 -8.64706375e-003
      -3.32356570e-003 -4.17543139e-004 8.88885461e-006 9.18800104e-003
      -4.03564749e-003 1.72071822e-003 -2.16894248e-003 7.10967986e-004
      -2.02972488e-003 2.58578500e-003 5.32723439e-004 8.06040945e-004
      -1.63144025e-004 2.67783157e-003 4.40688618e-003 5.59830572e-003
      2.63228547e-003 3.49414721e-003 1.70872780e-003 1.62516383e-003
      1.72197178e-003 2.96604447e-003 3.65482323e-004 -1.21861184e-003
      4.62865923e-003 5.68812189e-004 1.16327573e-002 3.16711492e-003
      -6.53181737e-003 7.81408325e-003 1.58299238e-003 -1.18568250e-005
      -3.46324826e-003 3.31417168e-003 -7.91126862e-003 1.69271356e-004
      -1.93458598e-003 7.80137582e-003 -1.18788925e-003 3.69703374e-003
      3.68837104e-003 -5.03550458e-004 8.91135714e-004 2.29945616e-003
      1.71791599e-003 5.32728969e-004 5.89051377e-003 2.84489337e-003
      5.78815409e-004 2.58422690e-003 6.59121375e-004 5.31667890e-003
      2.37051887e-003 4.93578240e-003 -4.74008871e-003 3.30774137e-003
      -4.10713116e-003 4.72151674e-003 9.84358042e-003 1.25166064e-003
      6.93317410e-003 4.69295820e-003 3.49604618e-003 2.70149880e-003
      -1.70759615e-002 -6.50832150e-003 -2.34577805e-003 5.11842826e-003
      -9.81883146e-004 1.59115274e-003 2.53878534e-003 1.47838960e-003
      1.53391960e-003 3.26793804e-003 -3.09705641e-003 1.52858940e-003
      1.02318751e-004 2.08477606e-003 3.24340793e-003 4.72226832e-003
      1.83293759e-003 -6.03532977e-003 1.97628676e-003 2.74733664e-003
      -8.85301735e-003 1.37454260e-003 6.58516120e-003 1.34470733e-003
      8.85807257e-003 2.37375544e-003 -4.75882133e-003 4.43820842e-003
      -4.68301773e-003 2.30681198e-003 -1.39956754e-002 1.18361749e-002
      2.48236442e-003 -4.63943137e-003 -1.26890950e-002 4.70303092e-003
      -7.34318921e-004 1.01798400e-002 3.54181416e-003 -2.60649103e-004
      6.50432194e-003 -8.25424271e-004 -1.90598685e-002 2.55223829e-003
      3.18465638e-003 5.01853740e-003 -1.11995975e-003 2.21823528e-003
      -3.54678161e-003 -8.91287718e-003 2.60657677e-003 -1.65148731e-002
      6.46614050e-003 -1.87345175e-003 4.29900084e-003 -1.24448994e-002
      7.30305619e-004 2.70504534e-004 -2.28477642e-003 2.23344052e-003
      -3.05566024e-002 7.59416493e-003 2.79204967e-003 5.32687875e-004
      8.74837115e-003 2.54989322e-003 2.54685432e-003 -2.62175333e-002
      4.24782466e-003 -7.85756111e-003 2.99912121e-004 1.63226749e-003
      -9.48708388e-004 7.37210386e-004 1.15538947e-003 -2.22309260e-003
      1.65640749e-003 1.76786678e-003 -1.34083694e-002 1.06599671e-003
      -4.58845776e-003 2.34858203e-003 8.16899352e-003 4.11828049e-003
      3.25400266e-003 -7.88111892e-003 1.74121629e-003 -1.42791960e-002
      4.90572304e-003 1.39926048e-003 -2.49291514e-003 7.39797205e-003
      4.42553917e-003 -8.23874027e-003 5.57035767e-003 -2.56832484e-002
      5.17693348e-004 -5.82092674e-003 -2.96073360e-003 -9.40583274e-003
      1.43204990e-003 -2.81343446e-003 1.98329845e-003 -1.38302399e-002
      5.50691877e-003 1.51501619e-003 -2.27685831e-002 2.88257631e-003
      2.94702221e-003 4.07128502e-003 -2.62412080e-003 4.54894238e-004
      2.88580521e-003 4.62950440e-003 5.83191821e-003 2.09685159e-003
      -8.54206551e-003 3.48778488e-003 -7.09261186e-003 3.07195261e-003
      -2.94252113e-003 2.79045734e-003 1.82987517e-003 2.64334842e-003
      1.24995550e-003 1.32260949e-003 3.14343115e-003 3.22280871e-003
      1.24801148e-003 2.92397081e-003 4.61407835e-005 4.67070378e-003
      4.62269294e-004 -7.63595942e-003 -4.15391428e-003 3.46859940e-003
      5.14006591e-004 4.46640933e-003 4.10985854e-003 7.97300693e-003
      4.87577496e-003 1.26586307e-003 6.97583193e-003 1.72775122e-004
      -3.39126750e-003 -1.54900802e-002 4.79858048e-004 -1.19940401e-003
      -6.13738876e-003 -3.38248000e-003 3.19244014e-003 7.18290312e-003
      4.85048816e-003 3.37499729e-003 1.89035013e-003 1.09141541e-003
      3.15137301e-003 1.76096265e-003 4.46122605e-003 -8.67394265e-004
      1.63288915e-003 4.06511128e-003 2.21808022e-003 -1.72137865e-003
      6.41582999e-003 7.12043373e-004 -8.70391820e-003 -5.76568907e-003
      -8.50396138e-003 -1.54357757e-002 -3.18139163e-003 4.43921005e-003
      1.51267303e-002 2.77646212e-003 -1.95280882e-003 1.88618200e-003
      -2.80802744e-003 6.21444080e-003 2.32784054e-003 -8.05228390e-003
      -5.99620258e-003 2.36960012e-004 -1.64283952e-003 2.64502072e-004
      1.68513693e-003 -2.76519079e-003 -2.16257926e-002 3.84803698e-003
      2.17464915e-003 -4.11122991e-003 -4.68557812e-002 -5.64196962e-004
      9.42218001e-004 7.10300636e-004 2.48627854e-003 1.62503275e-003
      2.02472508e-003 -3.70661408e-004 -7.49650877e-003 6.46085525e-003
      2.15932797e-003 1.95707777e-003 -6.07468048e-003 4.29096282e-004
      8.07437988e-004 2.20878026e-003 1.70209806e-003 5.47405891e-003
      1.17941352e-003 8.42609908e-004 1.69149844e-003 -7.31777027e-003
      6.39049744e-004 -5.98271238e-003 -1.94591880e-002 2.77718087e-003
      6.79750415e-003 4.39952733e-003 4.30214452e-003 -2.48574978e-003
      8.36894498e-004 2.97702942e-003 -4.80579445e-003 5.39459812e-004
      -5.09234238e-003 3.94720677e-003 1.24799542e-003 -1.54480501e-003
      1.91043783e-003 4.07444546e-003 1.31128635e-003 -6.74224878e-003
      1.54713669e-003 4.56204545e-003 -1.36099756e-003 1.24806876e-003
      -6.51435752e-004 3.36331141e-004 -8.96270946e-003 1.98623887e-003
      5.32731588e-004 1.74211076e-004 5.32774488e-004 2.28245728e-004
      2.00726907e-003 4.19678725e-003 -3.94887710e-003 4.74290253e-004
      -5.11513138e-003 2.82396359e-004 9.40688653e-004 -3.06818169e-004
      -5.92329353e-003 1.12196030e-004 5.26013365e-003 1.30494370e-003
      2.71975016e-003 1.83892506e-003 -1.50455832e-002 -8.41175951e-003
      2.80096661e-003 1.24950276e-003 1.92224121e-004 -1.73640084e-002
      8.70347582e-003 1.94747210e-003 3.44549841e-003 2.26734602e-003
      1.47838274e-003 1.11605469e-002 -1.17154140e-002 2.71221111e-003
      3.95372743e-003 8.04960262e-004 1.17154955e-003 -1.10933604e-002
      1.66472711e-003 -4.85795131e-003 -4.89188218e-003 4.23193583e-003
      3.11237271e-003 2.69128592e-003 9.77368560e-004 -2.24952847e-002
      -9.07308247e-004 3.02861538e-003 -1.40133528e-002 2.47979932e-003
      1.74060534e-003 1.70904945e-003 5.15087217e-004 9.59405210e-004
      -5.96029172e-003 1.39947573e-003 -2.37079011e-003 8.67111329e-003
      4.49947594e-003 2.48485245e-003 1.03182555e-003 -1.21888826e-002
      1.76330761e-003 -7.13541778e-003 1.39925978e-003 1.87184790e-003
      9.19981569e-004 9.59013181e-004 -2.20771326e-004 -8.80652200e-003
      -1.18921191e-004 1.51400734e-003 1.91036926e-003 2.91147269e-003
      8.68653471e-004 -1.22824898e-002 2.01274198e-003 6.27894769e-004
      2.03070324e-003 3.15866666e-003 7.22445361e-003 2.42739225e-005
      -2.67981814e-004 -7.90647510e-003 6.32421672e-003 1.50963804e-003
      -8.39900132e-003 2.60179024e-003 7.49212317e-003 3.76392948e-003
      4.95334063e-003 -3.52110527e-003 2.38582259e-003 2.32519209e-003
      1.19779131e-003 1.60064420e-003 1.39926793e-003 1.86664867e-004
      1.33277439e-002 -7.11490121e-003 1.27816817e-003 3.54675809e-003
      -5.71435364e-003 2.93097715e-003 4.79359599e-003 1.98751478e-003
      9.79275908e-004 -1.56940836e-002 6.30295312e-004 1.98755693e-003
      -7.05722440e-003 1.30321400e-003 3.59974941e-003 1.13544578e-003
      7.65094394e-003 1.95582770e-003 0. 3.87354055e-004 1.34115806e-003
      -1.90705352e-003 1.28151081e-003 7.33884797e-003 8.99256207e-003
      5.90567384e-003 -1.49962772e-003 8.28734919e-005 -7.60924304e-003
      2.29607499e-003 2.85685039e-003 2.77962955e-003 5.32664126e-004
      1.56428071e-003 -2.11156327e-002 9.85398702e-003 -5.92841674e-003
      -9.99265723e-003 8.12185346e-004 -8.55644932e-004 4.64420393e-003
      -1.35173183e-003 -1.85823552e-002 1.79241295e-003 2.43248022e-003
      1.72799293e-004 1.44799729e-003 -6.72372524e-003 7.65484874e-004
      2.43685860e-003 8.00508820e-003 4.30296455e-003 -1.15841755e-003
      3.77874356e-003 1.39929599e-003 2.16481043e-003 1.55074487e-003
      5.32704638e-004 6.21123286e-003 6.09775539e-003 -2.78245821e-003
      1.09492308e-002 3.07396916e-003 -5.42121474e-003 7.32196076e-003
      2.60965643e-003 -1.26329521e-002 1.20064744e-003 2.69232946e-003
      1.21169933e-003 -5.38158650e-003 -1.40269476e-004 -9.31886211e-003
      3.51715158e-003 -2.05433778e-002 2.62832083e-003 3.71448253e-003
      -5.42142428e-003 2.67477706e-003 1.62418780e-003 2.91115278e-003
      -2.04432234e-002 3.47420550e-003 5.10007318e-004 1.21187244e-003
      -1.53770915e-003 7.48318213e-004 4.29459102e-003 -8.56533097e-006
      1.31760040e-004 1.85060641e-003 7.93645508e-004 2.93307379e-003
      -1.08411070e-003 1.78381219e-003 5.39406994e-003 -1.65383751e-003
      9.91883804e-004 -1.16229476e-003 3.24824709e-003 -5.15983067e-003
      8.68690084e-004 5.61290886e-004 3.68127716e-003 2.42439425e-003
      1.60931214e-003 2.94833607e-003 4.74761764e-005 -5.49907889e-003
      2.69589364e-003 0. 2.49841856e-003 -2.91432650e-003
      -1.03934878e-003 1.17772834e-004 2.60331854e-003 1.39929878e-003
      1.23656709e-002 2.07518321e-003 1.50856050e-003 2.14731041e-003
      -7.03486940e-003 1.68529444e-003 2.72919424e-003 -5.93909249e-003
      -7.74063729e-003 1.27819530e-003 0. 0. 4.18268144e-003
      6.89737778e-003 1.14568137e-003 -2.09512524e-002 3.53964721e-003
      -2.94229784e-003 1.45657547e-003 7.10258912e-003 2.83930381e-003
      1.28788082e-003 8.47142481e-004 2.45167431e-003 6.63561001e-003
      -5.35597187e-003 1.25006470e-003 1.69559708e-003 1.47857622e-003
      1.63589511e-003 4.56080399e-003 -9.98992007e-004 4.02318174e-003
      3.14830453e-003 1.30444262e-002 -5.12675522e-003 -6.91370224e-004
      1.72785134e-004 9.08001442e-004 8.12228711e-004 3.29652382e-003
      -2.38737650e-002 2.24385969e-003 -4.21021087e-003 6.20976370e-003
      5.32695733e-004 3.29737179e-003 -9.99385677e-003 2.99961283e-003
      -8.04257672e-003 5.88442571e-003 -8.67233519e-003 -4.76374198e-003
      2.30193418e-003 2.47847429e-003 -2.61751120e-003 4.86994954e-003
      3.67245870e-003 -1.00402208e-002 2.59648077e-004 3.07141477e-003
      2.76617915e-003 4.95740725e-003 5.61201305e-004 8.30375764e-004
      -4.20584576e-004 3.34814610e-003 2.27494538e-003 2.96812435e-003
      -1.43954728e-003 1.20647589e-003 -1.01300690e-003 1.77725020e-003
      -1.27552329e-002 -1.82968527e-002 2.34851614e-003 9.88679967e-005
      1.88886363e-003 -9.57594078e-004 -8.17288831e-003 -7.59860501e-003
      1.63363223e-003 1.82860915e-003 3.17968923e-004 7.08906166e-003
      -9.25807003e-003 1.59913078e-002 4.52891830e-003 1.29921874e-003
      8.88464972e-003 7.11958809e-003 1.54620630e-003 7.36996671e-003
      -2.03343574e-003 1.67104648e-003 8.09734513e-004 3.41264461e-003
      -2.75479187e-003 3.08899302e-003 2.62085372e-003 4.75343131e-003
      1.89775589e-003 8.01331270e-003 -8.54180660e-003 2.65951938e-004
      -2.52728187e-003 2.47093826e-003 -6.14999933e-003 1.24789274e-003
      2.49924557e-003 5.23947552e-003 3.81699041e-003 4.27135965e-004
      2.24524504e-003 6.28266344e-003 2.59551872e-003 4.23642993e-003
      -4.22989624e-003 -1.41492710e-005 4.68778936e-003 5.87127591e-003
      3.34519753e-003 -7.52785429e-003 9.60882928e-004 2.64028320e-003</_></support_vectors>
  <decision_functions>
    <_>
      <sv_count>1</sv_count>
      <rho>-9.9911415050703678e-001</rho>
      <alpha>
        1.</alpha>
      <index>
        0</index></_></decision_functions></my_svm>
</opencv_storage>
