<?xml version="1.0"?>
<opencv_storage>
<my_svm type_id="opencv-ml-svm">
  <svm_type>C_SVC</svm_type>
  <kernel><type>LINEAR</type></kernel>
  <C>1.</C>
  <term_criteria><epsilon>2.2204460492503131e-016</epsilon>
    <iterations>1000</iterations></term_criteria>
  <var_all>1000</var_all>
  <var_count>1000</var_count>
  <class_count>2</class_count>
  <class_labels type_id="opencv-matrix">
    <rows>1</rows>
    <cols>2</cols>
    <dt>i</dt>
    <data>
      -1 1</data></class_labels>
  <sv_total>1</sv_total>
  <support_vectors>
    <_>
      6.57156762e-003 5.11552952e-003 -5.67894382e-003 9.13964305e-003
      3.62829800e-004 7.28928344e-003 -1.46898134e-002 -6.90059736e-003
      -1.48750544e-002 9.60506219e-003 -5.21663285e-004 7.60805095e-003
      3.45149711e-002 -8.11383780e-003 -2.66595781e-002 -2.85108341e-003
      -3.63801443e-003 -2.42595542e-002 5.84751461e-003 -1.38089091e-001
      2.05845200e-003 -4.68359236e-003 -2.51682866e-002 6.72521535e-003
      9.65842046e-003 1.81652326e-002 1.12711210e-002 6.64609391e-003
      1.43501125e-002 1.34522561e-002 1.56235080e-002 1.04375393e-003
      -1.15102651e-002 -2.16236468e-002 -4.69226623e-003
      -1.37250973e-002 1.31621817e-002 1.05064502e-002 3.72074498e-003
      6.35836693e-003 -4.50142892e-004 1.30223818e-002 -9.43342224e-003
      -2.96914461e-003 1.79350469e-003 -1.58108231e-002 6.45498931e-003
      8.11293442e-003 4.55688266e-003 1.34917675e-002 -8.59632157e-003
      -4.83133420e-002 -9.51294904e-004 3.17638107e-002 1.74024068e-002
      6.46493863e-003 7.43195973e-003 -7.78125785e-003 -7.35534541e-003
      1.14422198e-002 1.37572028e-002 -4.44419272e-002 -6.78150579e-002
      3.20995832e-003 -1.39625762e-002 1.05496943e-002 1.05096931e-002
      -1.37234107e-002 1.01989890e-002 1.75970718e-002 -4.73186001e-003
      -1.85592361e-002 -3.08742784e-002 -3.77957942e-003
      -6.17787428e-002 -4.47601490e-002 1.62814260e-002 9.04099457e-003
      -1.73312090e-002 3.63498763e-003 -2.42827442e-002 1.55667802e-002
      -2.87494995e-002 -2.08136695e-003 7.67988991e-003 1.38906641e-002
      4.50288597e-003 1.49579924e-002 -3.47089656e-002 1.16611542e-002
      1.32206893e-002 7.80058280e-003 2.72092945e-003 6.77034631e-003
      5.40338515e-004 -1.46857817e-002 6.20316453e-002 3.44537422e-002
      3.29289818e-003 2.84632691e-003 -1.72372982e-002 4.38251160e-002
      1.83139816e-002 3.44980275e-003 -1.61861982e-002 -4.47298633e-003
      8.59756474e-005 2.09291056e-002 -6.15094462e-003 -1.95961166e-002
      -4.28093076e-002 -2.35365960e-003 1.15302727e-002 1.24387788e-002
      2.74307914e-002 -2.65198555e-002 3.13291233e-003 1.51082911e-002
      1.43877091e-003 1.48114078e-002 -1.94977429e-002 -1.07076606e-002
      1.21498257e-002 5.72747318e-003 -3.36283334e-002 3.08169704e-003
      -8.51557497e-003 1.27412463e-002 1.34009926e-003 -1.93889404e-003
      3.77801359e-002 1.23009384e-002 -3.17496248e-003 -7.73145235e-004
      1.66240803e-004 -8.60226713e-003 1.97246075e-002 1.63153242e-002
      3.80410533e-003 -2.07953434e-003 -1.82841541e-005 -2.98689809e-002
      1.78640131e-002 6.21410506e-003 3.14483000e-003 1.23070963e-002
      -2.38808095e-002 5.91325853e-003 -2.50134326e-004 2.92524807e-002
      -5.52765206e-002 2.55766194e-002 4.01235186e-003 -2.44798828e-002
      1.39995769e-003 1.35295782e-002 -4.83038556e-003 1.55099155e-002
      -1.76333007e-003 1.84732303e-002 1.56947374e-002 4.15839069e-003
      -1.41252568e-002 2.14274898e-002 6.01169420e-003 8.29916261e-003
      7.81585649e-003 -2.12669484e-002 -4.36749589e-003 3.88954254e-003
      2.38367636e-002 -9.31192376e-003 -9.87634063e-003 1.75348558e-002
      5.05865226e-003 3.27999517e-002 1.02314176e-002 3.36654880e-003
      -2.09313119e-003 1.07718287e-002 -9.35760234e-003 -1.77919120e-002
      1.60949910e-003 1.73452608e-002 1.04136374e-002 -1.09782610e-002
      2.66919732e-002 1.18089905e-002 8.40955973e-003 1.96008328e-002
      -7.68811628e-003 -6.13984978e-003 -3.62778455e-003 2.48471294e-002
      3.95715842e-003 6.55857921e-002 6.10784395e-003 -2.12189592e-002
      -2.03740713e-003 1.66051835e-002 -2.56294645e-002 1.08170519e-002
      2.17716023e-002 -2.22300552e-003 -2.43997443e-002 -1.32863253e-001
      1.46790901e-002 4.63580107e-003 1.98316313e-002 8.70532822e-003
      6.42424496e-003 -6.94252085e-003 1.71915884e-003 1.09077301e-002
      -8.34294874e-003 -1.38925789e-002 3.13295983e-003 2.36144033e-003
      -1.71185639e-002 4.87926416e-003 2.38617463e-003 9.03324690e-003
      4.47925832e-003 9.93807614e-003 -5.03379898e-003 1.15968622e-002
      2.46204305e-002 8.15751147e-004 -4.47654631e-003 -6.04575453e-003
      4.84642293e-003 1.05609531e-002 -1.06235733e-002 3.65819708e-002
      -1.92772393e-004 -2.68777106e-002 1.92871019e-002 -1.98150743e-002
      2.73086932e-002 8.00337456e-003 3.16460966e-003 -7.17889443e-002
      1.32320477e-002 3.16705294e-002 2.52584722e-002 -6.62683556e-003
      7.23071070e-003 1.61297917e-002 -3.91915813e-003 -1.84641965e-002
      7.13311555e-003 -1.00214938e-002 1.68409012e-003 2.62715481e-002
      1.04762977e-002 3.48912901e-004 -1.30029954e-002 2.02290770e-002
      4.31040395e-003 4.61626947e-002 -3.24739167e-003 -1.47289950e-002
      -2.15565469e-002 -1.54377744e-002 0. -1.08629428e-002
      2.52036732e-002 -9.69616056e-004 2.96393596e-003 -5.49152307e-003
      1.39280828e-002 1.26754604e-002 -7.62708858e-003 3.22587602e-002
      -4.41390425e-002 -7.87371863e-003 -2.97702732e-003
      -6.59375964e-003 -2.67482847e-002 -2.90384684e-002 9.94209107e-003
      2.49402151e-002 2.52718106e-002 2.32217964e-002 5.32972552e-002
      -6.47420017e-003 -3.05100065e-002 1.50414966e-002 5.25544351e-003
      2.76476555e-002 1.19347358e-002 -1.05193555e-002 1.33703032e-003
      2.43349373e-002 8.17408226e-003 -1.62439607e-002 3.68846551e-004
      7.60295102e-003 2.51310449e-002 -3.99137847e-003 -1.73918772e-002
      2.03220788e-002 -1.34578836e-003 -1.61966949e-003 -4.52499799e-002
      1.65397301e-002 8.10495391e-003 -1.60683878e-002 -4.94334623e-002
      2.41057221e-002 6.28523715e-003 5.29165613e-003 1.88760944e-002
      9.65825561e-003 -5.79898572e-003 -4.91315238e-002 1.83562201e-003
      3.67354020e-003 3.25498427e-003 -9.28607490e-003 2.17110533e-002
      1.77774578e-002 5.05137164e-003 -3.34215872e-002 2.33133119e-002
      -2.56474931e-002 -2.06858721e-002 -5.92741091e-003 1.27879111e-002
      -7.71253975e-003 1.44553240e-002 -2.39616111e-002 2.43992377e-002
      -7.45842559e-003 -1.35356719e-002 -1.68359664e-003 1.84213240e-002
      -9.14412923e-003 -1.11850398e-002 -2.47667986e-003
      -7.32734450e-004 -3.16407671e-003 3.52055486e-003 3.13117192e-003
      4.83143283e-003 -2.09428999e-003 -2.98959290e-004 1.85124818e-002
      1.25444252e-002 8.62396136e-003 4.01124032e-003 -5.61010130e-002
      8.38805456e-003 -1.04668979e-002 5.21617336e-003 1.20872054e-002
      -5.67931635e-003 -1.89276598e-002 -2.78083002e-003 3.34257516e-003
      9.05620027e-003 -6.59747049e-003 5.77525655e-003 -4.12400924e-002
      4.01634630e-003 1.96667034e-002 2.47693136e-002 9.69745126e-003
      -1.31146340e-002 9.54097696e-003 1.85818430e-002 1.92415360e-002
      -7.66736595e-003 -2.76401062e-002 3.52023146e-003 1.03319064e-002
      -9.88745969e-003 1.47332754e-002 5.12092561e-003 1.23825306e-002
      -1.17956102e-002 3.01507214e-004 7.28637679e-003 1.28554180e-002
      1.14875333e-002 9.89608653e-003 1.22258877e-002 9.93138738e-003
      5.06263133e-003 -1.21287759e-002 1.39782922e-002 -1.48260279e-003
      -4.20253947e-002 8.41754582e-003 1.49015905e-002 1.67551041e-002
      1.09003196e-002 3.74252588e-004 -2.87140869e-002 7.63504067e-003
      1.05378088e-002 1.37305278e-002 -5.28739812e-003 -7.14554451e-003
      -4.96808700e-002 1.79104693e-002 4.17443411e-003 -3.88071910e-002
      -2.16117268e-003 -4.07716334e-002 -1.10543974e-001 4.64385049e-003
      2.78857118e-003 -4.31304844e-003 -1.99759565e-003 1.00160474e-002
      -9.62124672e-003 1.22807622e-002 1.35449730e-002 1.54299457e-002
      -2.46093534e-002 1.73765775e-002 6.61056396e-003 -2.92372657e-003
      9.62969474e-003 -7.13317096e-002 2.40772329e-002 1.33778984e-002
      9.52838978e-004 1.09265363e-002 -8.48209020e-003 1.23523837e-002
      2.70300992e-002 6.13274332e-003 -2.24808864e-002 1.35443006e-002
      1.24539677e-002 -2.57796887e-002 4.38218703e-003 8.17266013e-003
      -6.99025055e-004 -2.73978512e-004 1.47077732e-003 -3.77461617e-003
      -1.03831319e-002 2.00203434e-003 2.61793043e-002 6.33576838e-003
      7.08480412e-003 1.02470806e-002 1.50470762e-002 1.81885846e-002
      5.17369900e-003 1.91677865e-002 9.74641927e-003 -4.55911718e-002
      -5.30711673e-002 6.61913585e-003 1.78520757e-004 -2.31893566e-002
      6.23419695e-003 -3.19167553e-003 -1.21997744e-002 -4.73949201e-002
      -3.15405838e-002 4.80090221e-003 1.41980927e-002 5.86539879e-003
      -7.47762108e-003 1.57042723e-002 -1.51367970e-002 3.25444378e-002
      -1.05107985e-002 1.85072271e-003 2.91919848e-003 1.58297811e-002
      1.69513188e-002 -2.83712381e-003 1.05900830e-002 -2.09258520e-003
      2.05231197e-002 -3.23465243e-002 -1.08445156e-002 1.34892324e-002
      -1.25232358e-002 6.94461958e-003 1.45654520e-002 1.95880253e-002
      1.89595425e-003 9.85955726e-003 1.29356021e-002 9.53938998e-003
      8.64196103e-003 -2.45951787e-002 -3.63219418e-002 -4.87724468e-002
      -1.18113887e-002 1.24064721e-002 -3.96708436e-002 1.84567086e-002
      8.30537733e-003 5.20997867e-003 4.95971320e-003 5.42666297e-003
      6.43796381e-003 -1.08654974e-002 7.93730095e-003 7.79193360e-003
      -1.25398096e-002 5.34102786e-003 7.06303632e-003 -9.15907137e-003
      2.62574921e-003 5.28921820e-002 1.54651618e-002 4.80829831e-003
      1.59892731e-003 -4.35615070e-002 1.45350005e-002 -3.75750917e-003
      1.09124249e-002 7.48955552e-003 -4.31584800e-003 8.28132313e-003
      7.08755897e-003 -4.21192031e-003 -1.34243192e-002 2.88313208e-003
      -5.04726637e-003 1.36335120e-002 1.79817341e-002 1.78813785e-002
      4.76741977e-003 -2.50753295e-003 1.26686748e-002 1.46004045e-002
      7.51720183e-003 1.38163799e-003 5.61176054e-003 2.31053904e-002
      4.17985395e-003 1.16979619e-002 -2.81728022e-002 -3.63272205e-002
      2.72781751e-003 -3.61918360e-002 -5.16520394e-003 -6.40185433e-004
      -2.46494170e-002 -3.65992375e-002 9.35046468e-003 -4.01437981e-003
      1.12660909e-002 2.65829135e-002 8.43023416e-003 3.38921743e-003
      2.92160315e-003 9.07636061e-003 -9.91127342e-002 -1.39062358e-002
      -1.13354316e-002 6.63803611e-003 2.37189867e-002 2.50087082e-002
      2.14689597e-002 -2.77792644e-002 1.64570212e-002 1.01412786e-002
      -6.53539365e-003 4.35665110e-003 1.21946447e-002 -2.23023305e-003
      -3.72392451e-003 9.20937862e-004 6.65069511e-003 7.49766780e-003
      5.84121654e-003 -2.41099428e-002 4.89601959e-003 2.11804621e-002
      7.33541977e-003 9.22470354e-004 9.66617279e-003 3.19238403e-004
      -1.40214304e-003 -7.28478730e-002 -2.44548507e-002
      -1.92831960e-002 2.44515762e-002 1.02565121e-002 6.98394515e-003
      1.14001916e-003 7.16768764e-003 -4.53539612e-003 -2.61153490e-003
      -1.68933887e-002 6.96687028e-004 -4.98122443e-003 1.68884043e-002
      6.13229116e-003 7.31916307e-003 6.82787038e-003 -8.79194122e-003
      3.26265534e-003 -9.99275595e-003 7.75941461e-003 -7.24848360e-003
      5.08486433e-003 6.67834515e-003 -5.05569950e-003 -1.00341383e-002
      4.12832480e-003 2.88801659e-002 -9.49680898e-003 6.47614570e-003
      1.30231364e-003 -4.38906020e-003 8.55059549e-003 6.41322369e-003
      5.28417854e-003 -6.05089532e-004 1.43685229e-002 -2.24443302e-002
      -2.98091822e-004 -1.04953712e-002 2.57333089e-002 -3.78712453e-003
      7.40681170e-003 9.61174257e-003 -5.70472050e-003 -4.53730263e-002
      5.39803738e-003 1.23038916e-002 -2.81637954e-003 -8.47497210e-003
      8.25747661e-003 -4.36411519e-003 -1.90706048e-002 -1.14268297e-003
      2.49182507e-002 7.93094840e-003 7.69072911e-003 -1.45963999e-003
      7.76482932e-003 -6.27918169e-003 1.87376365e-002 1.60540510e-002
      -1.57004017e-002 1.11401528e-002 -1.30949812e-002 -4.55916161e-003
      -2.56726122e-003 -3.68952518e-004 1.04520721e-002 -7.85299856e-003
      1.25511792e-002 1.03786569e-002 5.56767778e-003 1.62738422e-003
      3.09283356e-003 -1.54489549e-002 9.97617655e-003 1.12134162e-002
      6.30146218e-003 9.88374371e-003 -8.38591717e-003 -1.00193210e-002
      2.02522799e-002 -7.78208300e-003 6.06066966e-003 -5.91076864e-003
      -6.98126014e-003 8.05831165e-004 -1.86103098e-002 8.88309069e-003
      -7.16758426e-003 -5.47532365e-002 1.52643230e-002 -1.57045685e-002
      1.03108529e-002 1.88666338e-004 -9.34837561e-004 2.32389299e-004
      -2.55955919e-003 -1.64579954e-002 -4.29497994e-002 2.28152191e-003
      7.45350821e-003 -2.85630114e-003 9.30107851e-003 -7.34317116e-004
      -2.94804713e-003 -1.48519631e-002 1.38281947e-002 1.91544797e-002
      1.10561913e-002 6.94818096e-003 1.51573652e-002 -1.25660654e-003
      1.45107713e-002 8.27422272e-003 -1.35100419e-002 -4.21355553e-002
      1.43679809e-002 4.42210934e-004 -5.00675291e-004 2.47323560e-003
      6.06032275e-003 8.31010100e-003 -1.93240785e-003 -2.99720652e-003
      -3.20335999e-002 2.45992327e-003 7.25409668e-003 1.97083596e-002
      1.24561172e-002 -1.57348234e-002 1.11812297e-002 8.05338006e-003
      1.69841386e-002 -1.24621354e-002 3.19794752e-003 6.34891540e-003
      2.01490279e-002 3.38379741e-002 1.05716782e-002 -3.19861807e-003
      -1.93896405e-002 7.79923750e-003 -9.67295840e-003 4.08788677e-003
      2.12462787e-002 -6.18207641e-003 1.80515647e-002 6.37836987e-003
      4.38177900e-004 -5.70558943e-003 1.17128454e-002 -7.74677470e-003
      1.12280222e-002 -3.28717902e-002 2.04566810e-002 -3.16935852e-002
      -2.75329547e-003 9.57953220e-004 -6.26410404e-003 -7.52047170e-003
      -4.86590853e-003 2.36840406e-003 2.92447908e-003 7.50421267e-003
      -5.06510884e-002 4.18770686e-003 -2.76229344e-003 -2.72927899e-002
      2.36092992e-002 1.20815383e-002 2.45352741e-002 1.02266192e-003
      6.32767705e-003 1.11724855e-002 2.90201628e-003 -4.51638252e-002
      -1.17776999e-002 1.40713360e-002 -1.94124528e-003 -2.75734495e-002
      -6.88652089e-003 -4.54609543e-002 -2.02446748e-002
      -1.38277130e-003 5.18326415e-004 1.25355246e-002 6.30817981e-003
      -9.94356349e-003 3.92020261e-003 -7.11374776e-003 -5.10529839e-002
      -1.65454054e-004 2.99388822e-003 3.81667889e-003 -4.48637130e-003
      1.95757635e-002 8.06321949e-003 -8.74431655e-002 1.23309833e-003
      8.01431108e-003 2.35075243e-002 -7.45856110e-003 -3.52174602e-002
      -5.75090642e-004 8.79498571e-003 1.03003569e-002 -8.06192681e-003
      3.28147900e-003 3.10985297e-002 1.37413817e-003 1.44463076e-004
      2.23051454e-003 1.98284034e-002 1.59403812e-002 9.37759783e-003
      -3.03702373e-002 1.37646846e-003 1.41219534e-002 8.59166589e-003
      1.77083933e-003 -2.41772877e-003 -9.97616630e-003 -4.75968840e-003
      3.47121954e-002 -8.88390932e-003 1.06100552e-002 -4.96987393e-003
      -3.44430581e-002 1.76743958e-002 2.58881617e-002 -1.97688612e-004
      -1.28795533e-002 2.39053965e-002 4.06957610e-004 2.52703261e-002
      -1.15396250e-002 6.64000446e-003 5.02070691e-003 4.77511156e-003
      5.27262175e-003 -1.48799745e-002 1.70005988e-002 -2.02729981e-002
      9.64272581e-003 9.69425030e-003 -7.23550702e-003 -2.23009214e-002
      -1.99881382e-002 1.15055637e-002 -2.40295622e-002 -6.88071083e-003
      8.91907781e-004 -5.51871024e-003 1.11234002e-002 1.00340303e-002
      -2.63682250e-002 -2.99318577e-003 2.59835962e-002 7.30185304e-003
      -4.47275233e-004 3.87297082e-003 2.78255879e-003 1.08295325e-002
      -9.60777793e-003 -3.74875031e-003 1.55097144e-002 -1.21100405e-002
      1.90070812e-002 -2.13795807e-002 2.70201806e-002 -3.09060961e-002
      -2.03415677e-002 1.05851993e-003 8.96120723e-003 -2.00377833e-002
      1.14323590e-002 -1.24694090e-002 0. -9.92666278e-003
      -1.02538960e-002 1.79736819e-002 8.68857279e-003 -4.86957468e-003
      1.04435980e-002 4.71434295e-002 5.99042699e-003 -8.31572688e-004
      -2.14595646e-002 0. -2.59733740e-002 1.69931538e-002
      -2.85364836e-002 5.95102506e-003 -2.33318377e-002 -4.38173348e-003
      -2.42901538e-002 1.08569004e-002 1.12631638e-002 -1.96408425e-002
      3.47897876e-003 2.49565695e-003 0. 4.10482846e-003
      -1.26029225e-002 -1.72380041e-002 -7.30242115e-003 3.56841274e-003
      5.68535877e-003 1.66861527e-002 8.83682724e-003 1.83438137e-002
      2.74618585e-002 8.68819281e-003 1.90919209e-002 3.85399046e-003
      -1.59616247e-002 -1.48005216e-004 5.49675059e-003 9.10195304e-005
      -2.77581345e-002 7.41730770e-003 -1.38927652e-002 7.28055136e-004
      -1.93761233e-002 1.87404230e-002 7.72011140e-003 6.59565534e-003
      8.55256990e-003 -3.94712314e-002 -2.28254627e-002 -1.62293180e-003
      5.39200660e-003 1.09940907e-002 3.57136712e-003 1.10290935e-002
      -6.44351123e-003 9.17416532e-004 -5.36440220e-003 2.21289955e-002
      -5.87408384e-003 -4.68290411e-003 8.28155875e-003 2.31956365e-003
      -2.27515958e-002 1.04695708e-002 1.05817914e-002 3.38803045e-002
      1.73150543e-002 7.18507543e-003 1.04842875e-002 -2.23918166e-002
      -2.97746831e-003 1.07208174e-002 -1.94685403e-002 -2.74761729e-002
      2.88446788e-002 -1.69005506e-002 -4.52631293e-003 -4.13733274e-002
      6.42101606e-003 2.50800047e-002 1.71930308e-003 -7.55330455e-003
      7.31479423e-003 7.96005828e-004 6.75824424e-003 -5.10793086e-003
      -9.19960346e-003 1.52889322e-002 -9.04511288e-003 -1.98432598e-002
      -2.52289232e-003 3.02593056e-002 -2.05222331e-003 1.59698017e-002
      -1.56762283e-002 3.29054426e-003 1.95079448e-003 5.16683620e-004
      3.54095623e-002 -1.70817215e-003 -2.36367006e-002 -1.12939365e-002
      2.65855389e-003 -4.05505970e-002 1.18996128e-002 1.90777816e-002
      1.26488740e-002 2.96316594e-002 7.45716970e-003 3.61129781e-003
      2.20402125e-002 -2.87838522e-002 1.33287413e-002 4.04451229e-003
      1.84764359e-002 8.58285557e-003 1.73725549e-003 -1.71053074e-002
      -3.08551290e-003 1.17710326e-003 -2.24650111e-002 8.67342111e-003
      -1.01398642e-003 -2.01873742e-002 6.44592196e-003 1.47599475e-002
      -2.01145820e-002 -2.33767573e-002 -6.91453943e-006
      -7.05034519e-003 8.58865492e-003 -6.78253220e-003</_></support_vectors>
  <decision_functions>
    <_>
      <sv_count>1</sv_count>
      <rho>-9.9738100990884260e-001</rho>
      <alpha>
        1.</alpha>
      <index>
        0</index></_></decision_functions></my_svm>
</opencv_storage>
