<?xml version="1.0"?>
<opencv_storage>
<my_svm type_id="opencv-ml-svm">
  <svm_type>C_SVC</svm_type>
  <kernel><type>LINEAR</type></kernel>
  <C>1.</C>
  <term_criteria><epsilon>2.2204460492503131e-016</epsilon>
    <iterations>1000</iterations></term_criteria>
  <var_all>1000</var_all>
  <var_count>1000</var_count>
  <class_count>2</class_count>
  <class_labels type_id="opencv-matrix">
    <rows>1</rows>
    <cols>2</cols>
    <dt>i</dt>
    <data>
      -1 1</data></class_labels>
  <sv_total>1</sv_total>
  <support_vectors>
    <_>
      -9.01653338e-003 1.12788677e-002 -2.48430017e-002 2.71297954e-002
      1.36629753e-002 6.06724666e-003 1.33790076e-002 1.03263892e-002
      2.24335715e-002 1.49296243e-002 2.27856617e-002 1.11519881e-002
      4.60953545e-003 1.89267099e-002 1.37383938e-002 -9.79605538e-005
      4.42766771e-002 6.92674192e-003 -1.16197271e-002 9.48413741e-003
      5.73100708e-003 -1.15161464e-002 -4.39213449e-003 -3.98704782e-003
      -8.13418883e-004 -9.01367981e-003 1.31086092e-002 -1.06635308e-002
      9.35533643e-003 4.36754955e-004 -8.51408055e-004 -2.49872971e-002
      1.05942739e-003 2.73537450e-002 9.10300948e-003 1.24724442e-002
      1.41711235e-002 1.84594393e-002 3.95240597e-002 1.26762446e-002
      2.17796699e-003 4.59455065e-002 2.20397618e-002 -4.76091392e-002
      1.80561338e-002 1.27963368e-002 2.68980898e-002 2.29027541e-003
      2.74153221e-002 -1.75528284e-002 5.61503181e-003 6.07425114e-003
      2.44161172e-004 1.53656071e-002 -1.69490499e-003 -2.34870613e-003
      1.03167519e-002 6.32014917e-003 -9.09428392e-003 4.67069075e-003
      1.39060412e-002 1.92381665e-002 -2.56424304e-002 2.86427643e-002
      3.06427479e-002 -1.42100323e-002 6.56534685e-003 -1.27048161e-005
      -8.19570618e-004 2.26044971e-002 6.57639606e-003 -7.40049779e-003
      -1.02601815e-002 1.86005551e-002 2.40274221e-002 9.27276036e-004
      9.02109686e-003 6.50935760e-003 -1.71308391e-004 4.27985713e-002
      3.01403794e-002 6.39312994e-003 -1.89561080e-002 -8.90934374e-003
      1.39145530e-003 1.98298432e-002 1.05268070e-002 1.06740566e-002
      1.08157098e-002 2.73170881e-002 -4.34033312e-002 1.36168795e-002
      -1.36262458e-002 -2.11043581e-002 3.10973581e-002 1.16259390e-002
      -5.10628149e-003 1.67065253e-003 1.19163338e-002 3.19441222e-003
      2.93224417e-002 2.68147029e-002 -3.82846780e-002 -8.27597734e-003
      1.30127533e-003 -2.48064264e-003 -2.63373703e-002 8.53599794e-003
      -1.14190730e-003 1.54505949e-002 -2.73200609e-002 -2.14488003e-002
      -1.64527558e-002 5.42391744e-003 1.17014470e-002 3.97125706e-002
      -9.80918854e-003 3.76867596e-003 6.63464284e-003 -3.74241499e-003
      3.49278934e-002 -1.62855368e-002 -6.12367803e-005 -7.71046849e-003
      1.56974327e-002 -6.31705578e-003 1.42772989e-002 6.61341008e-003
      -8.04791134e-003 -9.28424112e-003 3.49767469e-002 2.89350953e-002
      -7.71335419e-003 1.53274313e-002 -9.62443948e-002 2.21060384e-002
      -2.86635640e-003 -2.61414349e-002 6.51098974e-003 1.55114604e-003
      3.02063152e-002 1.36373416e-002 -4.86214086e-003 -2.67169364e-002
      1.34912059e-002 4.45081666e-003 -1.33016997e-003 -4.82140621e-003
      -2.69092135e-002 1.65318083e-002 -2.22606640e-002 2.02781968e-002
      -6.21796353e-003 4.56473645e-004 1.46920866e-004 -1.95173814e-003
      3.15046869e-002 -5.68553041e-005 2.61167698e-002 -5.38362237e-003
      6.27943454e-003 -2.41246950e-002 -9.99702979e-003 9.89572890e-003
      1.39725385e-002 6.45482633e-003 -2.10862985e-004 1.36894574e-002
      -1.23473527e-002 2.11837441e-002 -5.28133614e-003 2.64516287e-002
      2.17275191e-002 1.30687496e-002 -1.45188393e-002 -1.79042723e-002
      -4.98670666e-003 -1.23634767e-002 -2.35908516e-002 9.90532059e-003
      7.37912813e-003 8.91346019e-003 3.81347500e-002 5.18536894e-004
      1.14522716e-002 2.86480840e-002 1.38540072e-002 -3.09031550e-002
      1.41877700e-002 2.29453798e-002 -6.49374500e-002 2.38344520e-002
      9.59176756e-003 1.52261350e-002 5.45969512e-003 -1.63950981e-003
      -2.12534945e-002 -1.40244793e-002 3.01976483e-002 -2.54755164e-003
      1.48532242e-002 1.03172222e-002 4.98773716e-003 3.57251912e-002
      1.02613941e-002 -5.90973198e-002 1.00540882e-002 5.80799906e-003
      2.27469695e-003 1.98347270e-002 2.20049527e-002 8.52426328e-003
      -5.06554963e-003 6.08980879e-002 -3.39730009e-002 5.78949694e-003
      1.88944731e-002 -4.67563719e-002 -2.83292104e-002 3.03690042e-002
      -2.57697348e-002 1.50257032e-002 -3.05061438e-003 -4.06074785e-002
      1.48440460e-002 -3.77944447e-002 2.50300989e-002 1.73944235e-002
      1.74561907e-002 1.65330840e-003 8.00979696e-003 -3.28278877e-002
      2.93921530e-002 2.36669742e-002 2.12718211e-002 1.94567777e-002
      -1.33698210e-002 7.86294136e-003 2.16523800e-002 -5.42010777e-002
      5.17531577e-003 3.43041047e-002 -3.00136078e-002 -4.07228731e-002
      -1.49252638e-003 1.30840680e-002 1.80299841e-002 1.36834271e-002
      -3.03608198e-002 -3.15447617e-003 -4.11750264e-002
      -3.30075324e-002 7.33018201e-003 -3.71264806e-003 2.17330698e-002
      1.71779301e-002 1.26181981e-002 -7.36800814e-003 6.11549616e-003
      -1.85817573e-002 -6.23318329e-002 9.90253780e-003 -6.99829729e-003
      -5.89434849e-003 -9.28075332e-003 -8.43099505e-003
      -1.20723760e-002 5.14328852e-003 -4.66117216e-003 -2.49109305e-002
      2.17150827e-003 6.62741996e-003 2.21241568e-003 1.43869752e-002
      6.87471870e-003 3.70225087e-002 -1.31371142e-002 -1.09257568e-002
      -3.18707339e-002 -1.57350872e-003 -1.05776722e-004 9.28371958e-003
      -9.80274379e-003 -1.11046173e-002 -4.08856124e-002
      -3.32951434e-002 -1.08859297e-002 1.12787010e-002 1.92516260e-002
      6.77181128e-003 -1.27444207e-003 1.59930531e-002 6.47440460e-003
      -2.69122515e-002 9.77313425e-003 1.18741463e-003 -2.78902892e-003
      -5.52761042e-003 -1.61961454e-003 1.73488706e-002 -1.95684861e-002
      2.51776036e-002 1.96564896e-003 8.83668661e-003 -4.66456972e-002
      1.23814791e-002 9.96461883e-003 2.53944062e-002 1.50558744e-002
      2.70311628e-003 1.92143433e-002 -3.72735187e-002 1.27862776e-002
      -9.53540392e-003 2.36250069e-002 5.52691426e-003 1.80595182e-003
      3.79014239e-002 -9.59958322e-003 -2.90899258e-002 1.84531007e-002
      4.12030751e-003 -3.16783413e-003 1.04527343e-002 -5.77409752e-003
      -1.32053450e-003 -4.73182852e-004 -1.90695580e-002 2.37130541e-002
      6.03079749e-003 -1.22279944e-002 2.56640390e-002 -4.21919220e-004
      -2.26231590e-002 1.01603474e-002 2.73934118e-002 3.12335120e-004
      -6.84750080e-003 2.68972628e-002 -3.36081423e-002 2.48435754e-002
      -5.15393987e-002 1.79112852e-002 -5.28885648e-002 1.01349968e-002
      -7.69730250e-004 3.59089603e-003 -1.13342358e-002 -2.44242772e-002
      1.02238106e-002 -5.32862395e-002 2.37274133e-002 -1.70922540e-002
      1.73196068e-003 3.41388509e-002 1.28998617e-002 1.28209088e-002
      6.81063486e-003 1.19965873e-003 1.89341567e-002 1.61511116e-002
      1.80223435e-002 -1.77639108e-002 -2.85079703e-003 9.06155258e-003
      -2.46787332e-002 -2.00188579e-003 1.51930302e-002 2.32110787e-002
      -1.44850155e-002 4.05772310e-003 2.69843042e-002 -2.12004129e-002
      -6.98698638e-003 -9.98015399e-004 -4.09117825e-002 5.78015344e-004
      3.11186910e-003 1.65652931e-002 -5.24746664e-002 -5.60542047e-002
      -1.95320565e-002 2.07425412e-002 3.39419283e-002 0.
      1.88090857e-002 -1.58800278e-003 -1.14966631e-002 4.49944474e-003
      1.10784089e-002 7.63849868e-003 5.42750675e-003 1.27303042e-002
      -1.22715589e-002 -1.20382374e-002 4.94831428e-003 -2.13783551e-002
      -1.06727723e-002 1.17887687e-002 3.25887976e-003 1.47604765e-002
      5.53189358e-003 -2.88797598e-002 4.54617627e-002 4.76557249e-003
      -7.23409327e-003 4.82996274e-003 -4.78925183e-003 -9.97190364e-003
      2.57104344e-004 1.03449263e-002 1.07296277e-002 1.27673084e-002
      6.80594472e-004 1.37260994e-002 8.34517181e-003 -1.75968856e-002
      4.95302584e-003 -1.47649851e-002 2.01214794e-002 -4.30885796e-003
      -5.53816976e-003 1.95148215e-002 -1.34429466e-002 2.07709484e-002
      1.48413721e-002 9.56635736e-003 -8.35256837e-003 6.07034611e-003
      -8.05162359e-003 -2.05018986e-002 7.53867021e-003 -3.47083099e-002
      -4.91423067e-004 1.70072785e-003 -1.64852925e-002 -5.57182543e-003
      6.51466055e-003 1.82123259e-002 3.11587006e-002 -3.66747612e-003
      2.76574437e-002 -8.48135632e-003 1.29691716e-002 -2.37769401e-003
      -6.31571515e-003 -5.58745861e-003 1.41799469e-002 -1.97512039e-004
      -3.82404141e-002 1.62119940e-002 -1.58913862e-002 1.10812776e-003
      5.89868147e-003 6.92236703e-003 4.50813491e-003 7.03272037e-003
      -1.51749151e-002 -6.31269999e-004 1.45848291e-002 2.60916371e-002
      -5.35781728e-003 2.69928593e-002 1.97214745e-002 6.66745752e-003
      -1.11728311e-002 1.19687952e-002 1.40659679e-002 9.52818489e-004
      -4.78149690e-002 1.20231844e-002 -2.19575930e-002 3.13987769e-002
      2.26684567e-002 -1.45739531e-002 -3.07592843e-003 -2.01191287e-002
      -2.72395983e-002 4.02905010e-002 -4.18184660e-002 -2.34648734e-002
      1.54009964e-002 1.48013756e-002 1.34403203e-002 2.96902955e-002
      6.66881911e-003 -2.88454257e-003 -1.87742542e-002 1.39422324e-002
      1.43792322e-002 1.48034832e-002 2.17336658e-002 -6.34949980e-003
      2.36722920e-002 -1.03587797e-003 -1.80093423e-002 -2.22537294e-002
      2.74898577e-003 -1.19335409e-002 -3.48539324e-003 -2.18783040e-002
      2.80450750e-002 -4.92654694e-003 8.27774871e-003 -7.91178867e-002
      -2.05866396e-002 1.11809187e-002 1.13195423e-002 -1.66856218e-002
      -3.54497805e-002 -7.47477263e-003 -2.13684756e-002 8.17216560e-003
      1.81193445e-002 -3.10364719e-002 5.88106271e-003 -4.51266440e-003
      1.30158924e-002 -2.74618473e-002 7.33703095e-003 -1.07007837e-002
      -5.51419426e-003 1.04326056e-004 2.92822479e-005 2.05742028e-002
      -3.56138591e-003 2.04943139e-002 1.79275479e-002 8.38507724e-004
      1.08088702e-002 4.30796435e-003 1.52950101e-002 1.07454853e-002
      5.28932083e-004 1.76160391e-002 4.62063635e-003 2.42621449e-004
      2.32361606e-003 3.23928893e-002 6.00259053e-003 -9.68244523e-002
      1.58343147e-002 7.21139484e-004 2.31756037e-003 2.12462116e-002
      -5.54569205e-003 -9.28007008e-004 -3.67094413e-003 9.13767517e-003
      1.90872699e-002 -9.97715164e-003 -1.92782134e-002 -2.93584149e-002
      1.44753410e-002 -9.48071200e-003 5.59047051e-003 -3.19243409e-003
      1.61696151e-002 1.88983455e-002 8.30472447e-003 -3.14172660e-003
      -8.11616983e-003 2.92289387e-002 2.46926467e-003 7.50803528e-003
      1.83733050e-002 -1.73892900e-002 -3.62136355e-003 5.75784929e-002
      -4.81439643e-002 2.54167579e-002 -2.98709273e-002 2.89002992e-002
      2.28380933e-002 -9.92270373e-003 -2.81051751e-002 3.22884209e-002
      2.49463823e-002 1.38725061e-002 6.16057217e-003 9.77065600e-003
      1.16805104e-003 -2.97773480e-002 -1.69649124e-002 -3.99756245e-003
      -1.03037627e-002 5.39403595e-003 -1.40904391e-003 1.29186343e-002
      6.16512029e-003 -2.02955250e-002 1.07171293e-002 2.72430647e-002
      -9.22942068e-003 1.55198388e-002 7.75374752e-003 -5.59753478e-002
      -1.91611070e-002 6.91799773e-003 1.59176216e-002 5.02175931e-003
      -5.98600395e-002 -5.51550463e-003 7.75213959e-003 1.39046274e-002
      -1.04707340e-002 -4.45091464e-002 6.84318074e-004 1.02382731e-002
      -1.01468517e-002 -1.75228044e-002 1.91046018e-002 -1.45683791e-002
      -5.20917848e-002 6.02149917e-003 -8.14437121e-003 6.18539145e-003
      3.55828740e-002 1.75346027e-003 2.16477201e-003 1.01702791e-002
      3.92446630e-002 2.69372966e-002 1.67069156e-002 1.66341607e-002
      -1.83647834e-002 6.20069448e-003 -1.28183281e-002 7.60326686e-004
      -1.50664188e-002 1.56912580e-002 4.21124976e-004 -1.12756575e-002
      -4.22537420e-003 7.38438824e-003 -4.57715504e-002 6.46084454e-003
      7.09555019e-003 -5.04420549e-002 2.50546206e-002 -1.51484050e-002
      -2.11759545e-002 8.97638500e-003 -5.71546592e-002 -2.37893816e-002
      9.73028969e-003 -1.63437258e-002 1.49556855e-002 -4.57633361e-002
      -1.24851158e-002 -2.32309196e-002 -1.06406203e-002
      -2.02113879e-003 2.35205200e-002 7.77848717e-003 2.35991180e-003
      -3.36435088e-003 1.69097519e-004 -5.54825217e-002 -5.11809289e-002
      -4.29572947e-002 9.61474236e-003 8.61334614e-003 5.19628730e-003
      -6.49856031e-003 4.16143611e-003 6.97497930e-003 -9.35681257e-003
      -6.14812486e-002 -1.76580679e-002 -2.76663452e-002 1.82177648e-002
      5.67046972e-003 1.61030386e-002 -6.93997648e-003 -8.00001435e-003
      -2.78039761e-002 1.24182291e-002 -1.66032892e-002 1.95381907e-003
      1.84792243e-002 -3.80853787e-002 6.54088613e-003 1.05862776e-002
      1.89398564e-002 2.29743235e-002 2.19208356e-002 3.77252605e-003
      5.52927982e-003 -5.96852927e-003 1.09549128e-002 6.69962727e-003
      2.95039937e-002 -2.53710393e-002 -6.36649057e-002 4.01570238e-002
      -1.56372488e-002 -6.81329593e-002 2.38046758e-002 7.40238279e-003
      2.83022840e-002 8.19573645e-003 1.05066914e-002 1.12077408e-002
      -4.08242503e-003 -3.21951287e-004 -2.17259862e-002
      -7.69035192e-003 -1.02479132e-002 -7.53669441e-003
      -1.73380729e-002 -5.16784415e-002 3.77313746e-003 -5.58217093e-002
      1.59205906e-002 3.22127319e-003 -8.33968259e-003 -2.07824856e-002
      3.91505565e-003 7.93846045e-003 -6.55948510e-003 -2.87417062e-002
      -1.24112144e-002 3.23115699e-002 2.04314832e-002 1.92822181e-002
      -5.37001947e-003 -5.40326175e-004 1.66078210e-002 -1.59993174e-003
      1.03183426e-002 -7.24374456e-003 -3.36189792e-002 -4.12010960e-002
      6.10620109e-003 -2.50048544e-002 -3.02517146e-004 1.23804230e-002
      -1.13268709e-002 4.80514532e-003 -1.38005745e-002 1.58379332e-003
      -1.57264415e-002 -2.84844153e-002 2.41101440e-002 2.16076360e-003
      1.60966255e-002 1.03882933e-003 3.25409397e-002 -1.39641333e-002
      1.86162926e-002 -4.54963967e-002 5.04166167e-003 0.
      -1.43176327e-002 1.44855827e-002 1.52349528e-002 -5.64790796e-003
      4.15867148e-003 1.46527588e-002 -4.18696143e-002 1.21449735e-002
      -6.30561868e-003 -1.52464677e-003 6.53008185e-003 5.73350722e-003
      3.74191697e-003 2.94743408e-003 1.11443773e-002 8.25780351e-003
      -1.10087758e-002 1.16957463e-002 4.63771587e-003 5.05799617e-005
      4.99869511e-003 -1.15982108e-002 -2.00643968e-002 -3.61803137e-002
      -5.84785221e-003 3.04196333e-003 -4.11869539e-003 -3.90063636e-002
      -5.40678250e-003 2.64170002e-002 -1.34042073e-002 1.59218628e-002
      -1.25449849e-002 1.29468050e-002 -5.19950986e-002 2.08003316e-002
      -2.94458680e-003 3.67661566e-002 1.07704382e-002 3.02635785e-002
      -3.40169221e-002 -1.62590742e-002 2.68706307e-002 6.98490441e-003
      -3.27456407e-002 -2.27744281e-002 -2.11840891e-003
      -6.19293638e-002 -8.38397294e-002 -3.83775905e-002 9.26858652e-003
      1.83461495e-002 6.83533493e-004 2.10904586e-003 -6.28754497e-004
      -4.10004556e-002 1.92953274e-003 -6.63132221e-003 1.57485716e-002
      -8.83073639e-003 2.47279741e-003 1.64413992e-002 2.04064734e-002
      -2.85611115e-002 5.50290802e-003 1.57139972e-002 1.61334667e-002
      -3.36825708e-003 1.30641758e-002 7.92875129e-004 1.64217316e-002
      -4.85882275e-002 -1.78928599e-002 -5.01563028e-003 5.18063549e-003
      -6.01322949e-003 1.63586717e-002 -4.21157293e-002 1.24547537e-002
      1.55621236e-002 -8.15109070e-003 -9.18804551e-004 3.24534182e-003
      1.96869876e-002 -5.26948534e-002 4.88649914e-003 1.39528774e-002
      2.67897057e-003 4.18028906e-002 2.62643658e-002 -1.96316112e-002
      -2.47791242e-002 1.48242032e-002 -4.70504747e-004 6.94986572e-003
      8.42507649e-003 -3.82766612e-002 2.80130990e-002 6.60979608e-003
      2.22460236e-002 -1.30792679e-002 -1.35368062e-002 -9.47231601e-004
      -6.94219163e-003 3.61439213e-003 5.88236889e-003 9.58345458e-003
      1.59428138e-002 -2.56910510e-002 1.10389963e-002 1.65967718e-002
      1.54704144e-002 8.58977064e-003 -2.23048814e-002 -2.81605460e-002
      -4.66803368e-003 -7.36940361e-004 1.31509770e-002 -1.57584064e-002
      -4.02821554e-003 1.76480431e-002 -6.93414640e-003 4.44643060e-003
      -2.90129101e-004 2.20087189e-002 3.33086494e-003 -1.94865204e-002
      8.07054248e-003 1.56227732e-002 -3.59288864e-002 -4.15653829e-003
      -2.85618398e-002 1.71889998e-002 2.82289255e-002 1.51495310e-002
      -2.43412377e-003 0. 7.80216139e-003 9.30710603e-003
      4.28899378e-003 -1.14138080e-002 -2.04687729e-003 2.71955356e-002
      2.19057361e-003 2.70563643e-003 -2.13990584e-002 -4.94679296e-003
      2.12882217e-002 2.32107583e-002 1.08842310e-002 3.52930464e-003
      3.41130123e-002 3.81443673e-003 8.52863863e-003 -1.56838913e-002
      3.79437059e-002 1.16284918e-002 8.54167622e-003 -9.98444483e-003
      -1.40297124e-002 1.44166118e-002 1.91898700e-002 1.47552462e-002
      -2.17645280e-002 1.96841918e-002 -8.50558095e-003 -1.23305842e-002
      1.42325731e-002 -3.45846154e-002 1.22126741e-002 7.47256260e-003
      5.40848728e-003 2.93303002e-002 -7.42422231e-003 1.35737695e-002
      -1.98740661e-002 -2.76271608e-002 9.09786113e-003 -1.04120672e-002
      1.87416282e-002 6.55689463e-003 6.11140952e-003 4.01893668e-002
      9.79067478e-003 -4.34624366e-002 1.23902494e-002 -4.99763479e-003
      -9.54134762e-003 -2.41565686e-002 7.29068229e-003 1.87927551e-004
      -2.65478138e-002 2.99354736e-003 -4.29077707e-002 6.39081607e-003
      8.31485912e-003 6.19042292e-003 -2.94117145e-002 -2.39698570e-002
      -5.40560298e-002 7.01991434e-004 1.95127372e-002 2.18452159e-002
      -4.85575804e-003 -3.41773257e-002 -1.78650878e-002 2.13925121e-003
      -2.10423935e-002 1.29395898e-003 -1.27953496e-002 2.16315296e-002
      3.24317999e-003 -2.89260922e-003 -3.69858486e-003 1.79550461e-002
      1.29527436e-003 8.11493769e-003 1.02871843e-002 1.70487363e-003
      7.74922897e-004 5.26821613e-003 -1.37594799e-002 4.83580073e-003
      -4.65639308e-002 -2.47577615e-002 -7.71902641e-003 5.77829964e-003
      -1.29045341e-002 -2.34116875e-002 -4.80355844e-002
      -3.16820369e-004 3.23093336e-005 4.08899263e-002 1.12677673e-002
      5.02461195e-003 -8.56048241e-003 2.42529362e-002 1.62736177e-002
      1.84167586e-002 -1.82334688e-002 -2.86875200e-002 1.84326377e-002
      -2.07528807e-002 1.11756045e-002 6.30501518e-003 0.</_></support_vectors>
  <decision_functions>
    <_>
      <sv_count>1</sv_count>
      <rho>-9.9554701627130981e-001</rho>
      <alpha>
        1.</alpha>
      <index>
        0</index></_></decision_functions></my_svm>
</opencv_storage>
