<?xml version="1.0"?>
<opencv_storage>
<my_svm type_id="opencv-ml-svm">
  <svm_type>C_SVC</svm_type>
  <kernel><type>LINEAR</type></kernel>
  <C>1.</C>
  <term_criteria><epsilon>2.2204460492503131e-016</epsilon>
    <iterations>1000</iterations></term_criteria>
  <var_all>1000</var_all>
  <var_count>1000</var_count>
  <class_count>2</class_count>
  <class_labels type_id="opencv-matrix">
    <rows>1</rows>
    <cols>2</cols>
    <dt>i</dt>
    <data>
      -1 1</data></class_labels>
  <sv_total>1</sv_total>
  <support_vectors>
    <_>
      1.52199913e-003 -4.37431782e-002 -5.52244298e-003 3.92981395e-002
      -1.91105194e-002 -5.70925772e-002 -1.42769674e-002 3.89459566e-003
      -1.51309674e-003 -7.00196764e-003 -5.48321474e-003
      -4.44465224e-003 -5.03978059e-002 1.55507773e-003 1.67666972e-002
      -5.58604160e-003 1.10633373e-002 6.26314431e-004 -1.19724404e-002
      1.46927387e-002 1.10007748e-002 1.85170234e-003 1.32920761e-002
      -2.35208124e-002 -2.22358778e-002 1.10037634e-002 1.25725241e-002
      4.61571477e-002 6.26185304e-003 1.72559719e-003 5.11493050e-002
      -4.65808716e-003 -2.32480541e-002 1.30291283e-003 2.49578841e-002
      2.54948512e-002 -9.68320668e-003 -3.81245837e-002 3.40462327e-002
      1.11244880e-002 9.67086479e-003 1.38985375e-002 2.09811260e-003
      -1.52451647e-002 -2.47425237e-003 -1.14487028e-002 2.43316889e-002
      3.68157588e-002 4.36003553e-003 1.90268606e-002 -2.40573683e-003
      -1.04412585e-002 3.15196291e-002 -5.72125837e-002 -2.94792149e-002
      -4.19559628e-002 -2.01887302e-002 -5.16555011e-002
      -1.94379482e-002 -1.14368703e-002 -3.26115713e-002
      -2.42538191e-003 -1.85526740e-002 -5.27231442e-003 9.66382306e-003
      -2.67499443e-002 8.72684270e-003 3.58928437e-003 1.06447656e-002
      -2.88087185e-002 1.65666651e-003 3.42050474e-003 -9.37410071e-003
      3.83114628e-003 -1.14560090e-002 9.53644235e-003 -2.56505795e-002
      -4.97095520e-003 -4.94214986e-003 1.52494218e-002 3.54060270e-002
      3.23289627e-004 4.57989299e-005 -2.32697534e-003 1.01487534e-002
      -3.92279122e-003 1.61662120e-002 -4.89411689e-003 1.65213160e-002
      4.50920612e-002 -4.26370986e-002 -1.49657410e-002 1.31856743e-002
      -9.16983653e-003 -1.65010467e-002 -1.22038759e-002
      -1.13724936e-002 -3.21259792e-003 1.04701901e-002 -3.32273380e-003
      -1.54306311e-002 1.19528323e-002 2.63858121e-002 9.49317124e-003
      3.46536450e-002 7.08943093e-003 -4.64931177e-003 -3.11581548e-002
      2.64842305e-002 1.22892689e-002 -4.96214302e-003 5.29487338e-003
      -1.87227584e-003 1.09086893e-002 -1.95770878e-002 4.07929048e-002
      -3.05245072e-003 -2.68670674e-002 -1.18918605e-002
      -7.31024845e-003 8.31633154e-003 2.87727788e-002 -3.40404883e-002
      3.67661677e-002 -3.95021075e-003 1.31189590e-002 5.94218588e-003
      1.72189977e-002 -1.65175516e-002 1.37874745e-002 -2.49988567e-002
      2.22329572e-002 -9.42901429e-003 3.06978170e-002 3.03419940e-002
      4.48745023e-003 2.47273804e-003 -1.11905579e-003 -3.42947394e-002
      -3.34426388e-002 1.60877258e-002 -7.38591771e-004 -2.10170988e-002
      -1.41402259e-002 -1.33602293e-002 -7.12032523e-003
      -1.39197521e-002 -3.20233069e-002 -1.86848864e-002
      -1.92675237e-002 -3.93071584e-003 3.72321457e-002 1.20294737e-002
      -2.48149014e-003 9.13217943e-003 -3.19059454e-002 3.39134573e-003
      2.39578243e-002 -1.62020642e-002 -3.09999101e-004 -2.73283627e-002
      1.50968563e-002 3.70900991e-004 1.93623081e-002 4.84373700e-003
      -2.95647513e-003 -2.35182866e-002 4.52607591e-003 1.21163251e-003
      1.05049070e-002 -4.02829191e-003 1.84876379e-002 -8.62762704e-003
      8.17776471e-003 6.61722291e-003 1.34081449e-002 -2.84396787e-003
      -1.44179398e-002 1.32198827e-002 -1.08777331e-002 6.44500274e-003
      3.61031070e-002 2.73460685e-003 1.65461246e-002 6.13291934e-003
      -8.44895095e-003 -3.80245550e-003 -4.93331859e-003
      -1.67525131e-002 -2.03586519e-002 5.17925434e-002 -2.84966473e-002
      5.83976461e-003 -4.64114686e-003 -4.03232453e-003 -9.24627203e-003
      -1.00089274e-002 2.97337472e-002 1.34676248e-002 -1.93240885e-002
      -2.02166233e-002 -1.16163027e-002 6.56831497e-003 -3.85043002e-003
      -1.03751067e-002 -3.66204232e-002 4.56847735e-002 2.94885747e-002
      -1.18851643e-002 2.85620578e-002 1.34994998e-003 -2.80469097e-003
      2.11842777e-003 3.69018107e-003 2.22630948e-002 1.18277501e-002
      1.49094705e-002 -6.41916366e-003 -2.20997985e-002 -2.11474430e-002
      -2.09913676e-004 -1.32660391e-002 -7.73382548e-004
      -7.62871373e-003 2.13805456e-002 -5.59971072e-002 2.28412580e-002
      -8.80883727e-003 1.23317912e-002 1.12108123e-002 -3.09261819e-003
      7.72377243e-003 2.00768542e-002 -2.10232511e-002 -1.18840784e-002
      -1.94526911e-002 -4.15878855e-002 9.99093335e-003 -7.84805324e-003
      -9.38870420e-004 3.49595696e-002 -1.81341618e-002 -2.78627779e-002
      -1.98013987e-002 2.09482592e-002 3.71276662e-002 -1.04280813e-002
      -6.71736822e-002 -1.41854826e-002 -1.43727195e-002
      -3.42924036e-002 -4.63876799e-002 -5.16628735e-002 1.38619347e-002
      4.28991672e-003 2.07402427e-002 7.42354710e-003 1.23865611e-003
      2.15568002e-002 1.01332134e-002 1.55054396e-002 7.82125071e-003
      2.08579767e-002 -4.37187180e-002 -2.56237593e-002 1.83028374e-002
      2.03685574e-002 7.67649151e-004 1.13763809e-002 6.70427689e-004
      1.48242908e-002 -2.95020174e-002 -2.45001838e-002 -2.05794312e-002
      -3.16373142e-003 5.39942607e-002 -2.96822116e-002 -6.60572108e-003
      4.82488517e-003 -2.54893396e-003 -6.00968953e-003 -2.74139713e-003
      1.98422391e-002 -2.32513831e-003 4.46492061e-003 -1.63463019e-002
      1.78930648e-002 1.87344465e-003 4.94430140e-002 1.98828224e-002
      -3.25711593e-002 -1.18453028e-002 3.18624871e-003 -4.11431119e-002
      -1.18097235e-002 6.41802838e-003 -3.39332316e-003 -9.82205570e-003
      -2.34490111e-002 1.84113830e-002 1.55512039e-002 1.29342834e-002
      -1.26126129e-003 -5.53737395e-002 4.69697965e-003 -2.26587821e-002
      -3.45051638e-003 3.10096480e-002 1.62910428e-002 1.19838333e-002
      2.04105042e-002 1.21192252e-002 -6.68862229e-003 -1.50951147e-002
      2.35182010e-002 1.97235262e-003 2.05727760e-002 -8.02259147e-003
      1.70088280e-002 1.62612889e-002 2.71913670e-002 -1.61499958e-002
      8.00742209e-003 -2.93572142e-004 2.27276944e-002 2.40037552e-004
      8.63823202e-003 3.84490518e-003 -7.07151229e-003 -2.27613449e-002
      2.04334501e-002 -6.07154891e-002 2.41171736e-002 1.66099444e-002
      8.40470940e-003 5.41778002e-003 2.18859985e-002 -2.45001335e-002
      1.04733761e-002 2.17959993e-002 1.83370300e-002 -1.58261508e-002
      -4.16594110e-002 -6.61785901e-002 1.70017290e-003 -7.70518789e-003
      -5.84544055e-003 -1.62189957e-002 3.05957906e-003 -2.12471743e-004
      -1.12750884e-002 2.42148582e-002 -8.48940760e-003 -1.74703877e-002
      2.83776298e-002 1.77175123e-002 1.67686064e-002 -2.25001425e-002
      9.17134061e-003 -3.42080593e-002 4.83415741e-003 -4.78803646e-003
      2.17730980e-002 -2.02590600e-002 1.32841570e-003 -2.19455827e-002
      -1.91034339e-002 -6.91750553e-004 1.14876051e-002 -1.62517019e-002
      -5.48872957e-003 -1.45097189e-002 2.15878468e-002 1.49984565e-002
      3.59539948e-002 -8.41711275e-003 4.25297162e-003 5.68252429e-002
      6.11794833e-003 -6.54324773e-004 2.45536957e-002 9.90560045e-004
      -1.88658573e-002 2.42657736e-002 -2.52944119e-002 2.40344252e-003
      -1.65800042e-002 -9.79013182e-003 8.99051782e-003 2.20265016e-002
      5.76517684e-003 -2.61342525e-003 1.10414606e-002 2.12635510e-002
      6.50569040e-004 4.57296177e-004 1.44432287e-003 -7.47044990e-003
      -2.37765498e-002 1.44702075e-002 1.52894640e-002 1.52334059e-002
      2.90051866e-002 1.27003659e-002 2.18597464e-002 1.81731414e-002
      -4.39463146e-002 1.32820208e-003 1.21097015e-002 5.61594730e-003
      3.33195701e-002 -3.25392783e-002 -2.88957264e-003 -3.70013528e-003
      5.45245735e-003 -2.96306144e-002 4.71306741e-002 -9.50281322e-002
      1.90550573e-002 1.08570224e-002 -2.20801327e-002 2.21640128e-003
      2.83586187e-003 3.86350043e-002 6.92587579e-004 -1.85679737e-002
      2.36780685e-003 -1.78041607e-002 -2.67180726e-002 -3.11742220e-002
      -7.31627969e-003 1.62295830e-002 2.18093321e-002 7.26611819e-003
      1.60240643e-002 1.42827202e-002 1.95614956e-002 7.08504952e-003
      -1.42111722e-002 1.52446106e-002 5.75684244e-003 2.12125480e-002
      -1.35650756e-002 -1.78938229e-002 4.16348763e-002 -3.48471571e-003
      -2.63313428e-002 3.01952125e-003 2.34753340e-002 -3.05215511e-002
      1.36762867e-002 2.39726361e-002 3.51007767e-002 3.38134244e-002
      -3.14002438e-003 2.86667934e-003 -1.27122290e-002 8.32647271e-003
      -2.30878014e-002 -1.00150891e-002 -9.69839655e-003 6.87110750e-003
      -1.72052346e-002 -6.61011925e-003 -1.91434268e-002
      -2.55218241e-002 -6.28940612e-002 -3.81207913e-002
      -8.22016969e-003 -3.44947316e-002 -4.70995456e-002
      -1.38310362e-002 1.87456217e-002 -2.04197299e-002 -3.21751437e-003
      -6.10605674e-003 2.94993195e-004 -4.64886194e-003 3.26205641e-002
      -6.82547875e-003 -1.79520622e-002 -1.44665521e-002 1.91549392e-004
      -5.51184081e-003 2.59437808e-003 6.27239514e-003 1.04985107e-002
      1.69072002e-002 8.11577495e-003 1.28139956e-002 -3.14274654e-002
      -3.42503078e-002 -1.53098546e-003 1.37804775e-002 -9.00967699e-003
      -3.26290843e-003 -2.45561823e-003 -8.14309064e-003 1.14013711e-002
      -1.29850497e-002 1.81096606e-002 1.69092603e-002 2.83378176e-002
      -1.03617664e-002 8.48967023e-003 -7.23944884e-003 1.63989943e-002
      -2.02018581e-002 -1.14686601e-002 -3.28541584e-002
      -2.71471962e-003 -2.31101527e-003 1.68355834e-003 -5.65035443e-004
      7.23397173e-003 -2.56890594e-003 2.09915750e-002 7.92589504e-003
      -1.24659063e-002 1.99856088e-002 -5.62008955e-002 1.50892008e-002
      -2.75426898e-002 1.59016019e-003 4.40622494e-002 1.24408761e-002
      -4.29290794e-002 -9.05911438e-003 -9.22625139e-003 1.48740001e-002
      3.03893839e-003 3.40231471e-002 -1.26599930e-002 3.55914757e-002
      1.00071318e-002 1.60760302e-002 3.74565385e-002 1.41169792e-002
      -2.21561380e-002 -3.87514234e-002 5.36679151e-003 7.51693780e-003
      -9.35082790e-003 2.85017919e-002 8.11586343e-003 2.94347797e-002
      2.03444567e-002 1.69936493e-002 -4.88116704e-002 -3.05819442e-003
      5.10614812e-002 -1.41188502e-002 1.75344609e-002 1.01830941e-002
      -2.24966891e-002 1.07757905e-002 -1.48498081e-002 -1.74999069e-002
      1.71015598e-002 2.71856366e-003 -4.40335199e-002 -3.08516193e-002
      3.07391342e-002 2.70540062e-002 5.08023314e-002 -2.98922299e-003
      2.75415331e-002 -5.37236361e-003 2.17687339e-002 -2.54997909e-002
      8.00127443e-003 -9.72242095e-003 3.48852687e-002 2.96509396e-002
      -4.71149981e-002 6.78540627e-003 3.45024653e-003 9.52350628e-003
      -1.38849195e-003 1.32988105e-002 3.76300775e-002 -2.94369552e-003
      -7.62582570e-003 -1.27469078e-002 -1.88968778e-002 5.81503613e-003
      1.42882788e-003 -2.34032739e-002 -2.01954339e-002 -2.71304809e-002
      3.02111059e-002 8.81149154e-003 3.52823082e-003 2.40515340e-002
      -1.56087922e-002 -1.19600841e-003 1.04644727e-002 9.96225327e-003
      2.60266680e-002 3.17535806e-003 1.47900991e-002 7.55286403e-003
      1.17935650e-002 -1.94990188e-002 9.69915371e-003 3.73768881e-002
      9.09352209e-003 -1.04309302e-002 -1.58016533e-002 8.24254286e-003
      9.73065570e-003 5.64885214e-002 2.79541239e-002 -8.35655332e-002
      -1.62957795e-002 -9.15448833e-003 -4.05452326e-002 1.27843274e-002
      4.12238156e-003 -3.22365016e-002 -1.81957707e-002 1.48593949e-003
      -3.96339223e-003 2.57091457e-003 -1.12688392e-002 8.67962092e-003
      2.77209701e-003 -2.55944934e-002 -6.26322180e-002 5.77678112e-003
      1.57247540e-002 -2.87098475e-002 2.07895488e-002 3.22802365e-002
      1.60217285e-002 1.52430572e-002 -4.63651912e-003 -2.53713923e-003
      -5.93116310e-005 -7.13258144e-003 1.19688082e-002 2.54044086e-002
      -3.17309685e-002 -4.90727574e-002 1.42747695e-002 -6.08010218e-004
      5.92356222e-003 1.51881333e-002 1.21757230e-002 2.75071934e-002
      4.87262523e-003 -1.48186535e-002 -2.74028461e-002 2.63812523e-002
      2.41347719e-002 5.73721831e-004 1.44053008e-002 -3.56926098e-002
      -3.20522673e-002 -6.71619922e-002 -1.21034039e-002
      -6.62266603e-003 2.57799253e-002 2.98895296e-002 -1.18750939e-002
      -2.18851548e-002 2.31123026e-002 -3.29193324e-002 -2.77515948e-002
      -1.57485381e-002 2.18218472e-002 -2.03372128e-002 -5.64946607e-003
      -1.90158039e-002 -5.75977203e-004 4.59386082e-003 -6.03485620e-003
      5.94066409e-003 -4.60874252e-002 -1.20143639e-002 2.02398375e-002
      -8.82139523e-003 3.83986929e-003 -5.45289950e-004 -8.91934894e-003
      1.38223488e-002 -7.41058902e-004 1.49575779e-002 -1.78599660e-003
      5.46230422e-003 2.28290744e-002 1.44256288e-002 1.58656463e-002
      1.00337565e-002 2.36509158e-003 3.47411074e-002 7.84928910e-003
      1.77156422e-002 -1.63048983e-003 1.01095205e-002 1.59510430e-002
      -3.33754206e-003 3.83648388e-002 1.49672301e-002 -3.00542545e-002
      -2.53833123e-002 1.35707138e-002 2.92867906e-002 3.30170617e-002
      3.58127709e-003 -1.01309679e-002 -2.15472933e-002 1.16683943e-002
      2.84586679e-002 -2.61265785e-002 -3.65878199e-003 3.87716852e-003
      3.58352298e-003 -1.56434234e-002 1.64574739e-002 3.70347798e-002
      -2.08423976e-002 -2.52208244e-002 2.06356328e-002 -1.73992626e-002
      7.49721471e-003 6.19501388e-003 2.53369194e-002 2.58882972e-003
      9.43371188e-003 1.36487782e-002 2.33537313e-002 -1.24405157e-002
      -9.43798199e-003 -2.99375579e-002 4.48939530e-003 7.94531405e-003
      -1.75349158e-003 -3.08108199e-002 -7.09683215e-003 3.54164001e-003
      1.40884249e-002 2.79249400e-002 4.72058891e-005 1.33864973e-002
      -2.93839648e-002 -5.19215986e-002 -8.03660508e-003 3.39974575e-002
      -9.10602510e-003 -8.14531557e-003 2.58289482e-002 -1.15658194e-002
      -2.62573431e-003 -1.16886040e-002 1.98275992e-003 -2.94700311e-003
      -6.82155741e-003 -5.08089699e-002 2.89034992e-002 -2.45016366e-002
      3.24316770e-002 1.28510585e-002 7.69018196e-003 6.27243705e-003
      4.73602762e-004 -2.90311109e-002 -7.07108201e-003 2.38240529e-002
      5.29307034e-003 2.30514165e-003 4.90518380e-003 8.61366745e-003
      -6.64646795e-005 -1.54378973e-002 -4.78905104e-002
      -1.00510158e-002 2.35693175e-002 1.02786850e-002 1.83506515e-002
      -1.92876644e-002 1.09981960e-002 1.61196180e-002 -3.85982394e-002
      4.45686951e-002 9.75751132e-003 -1.49868615e-002 -5.87995723e-003
      3.46296956e-003 1.19294319e-002 1.03508914e-002 -2.88523501e-003
      -2.13367213e-002 2.33338401e-002 9.31950100e-003 -1.04942685e-002
      -3.40545587e-002 1.06452843e-002 -2.30432134e-002 -1.78468563e-002
      1.47016654e-002 1.40794483e-003 -4.29076329e-002 2.66076135e-003
      -9.99122951e-003 -3.05418801e-002 1.61622316e-002 -8.66575341e-004
      3.24862450e-002 -7.25554023e-003 -1.03020913e-003 -3.83505318e-003
      1.89763855e-003 1.58537645e-002 -1.93772670e-002 1.80356274e-003
      1.20586371e-002 9.83763952e-003 1.43298125e-002 2.84002647e-002
      -1.66370310e-002 -2.74238456e-003 1.90772302e-002 2.71821544e-002
      -5.11464812e-002 -5.09416461e-002 2.36082897e-002 -3.88702913e-003
      2.41617598e-002 3.02397646e-002 -1.39474338e-002 -6.26322301e-003
      -1.44201890e-003 -2.52385996e-003 -1.82276033e-003
      -1.35596879e-002 8.85881297e-003 3.33909914e-002 1.00022554e-002
      -2.45428439e-002 1.54726617e-002 4.05156612e-003 2.45069265e-002
      1.29583161e-002 1.58770643e-002 3.57301277e-003 1.78382751e-002
      1.41594587e-002 8.08237307e-003 5.85757457e-002 1.01303793e-002
      -5.15885428e-002 2.11023763e-002 1.90106798e-002 -2.01948150e-003
      1.36330333e-002 2.16780119e-002 3.91063951e-002 1.67814568e-002
      9.09920335e-002 -1.47015713e-002 2.46556830e-002 1.05761206e-002
      1.08930431e-002 -1.83169339e-002 2.86165792e-002 -4.87824641e-002
      -2.64558084e-002 -9.23469849e-003 1.53124370e-002 -8.46569519e-003
      2.16014357e-003 8.27204064e-003 9.94821545e-003 7.22285872e-003
      -2.03807596e-002 4.92066704e-003 2.31155567e-002 2.45254319e-002
      2.26651561e-002 1.94763653e-002 3.35147567e-002 2.59253476e-002
      -1.74671803e-002 1.05866864e-002 4.43849973e-002 3.00073419e-002
      -4.52507436e-002 -3.98730207e-003 -9.06645786e-003 1.56059340e-002
      1.85227152e-002 -1.78661179e-002 2.14950591e-002 -3.15337740e-002
      -6.40374869e-002 2.34610811e-002 -8.05635192e-003 1.02346418e-002
      2.57802419e-002 -2.11012512e-002 -8.94779898e-003 2.75631398e-002
      2.94791558e-003 -5.09278290e-002 1.17775975e-002 1.40760029e-002
      -2.36087269e-003 -2.45472398e-002 -1.27944639e-002 1.23368874e-002
      -9.96386074e-003 -2.65937131e-002 -1.57186743e-002
      -3.23652849e-003 2.10400317e-002 2.72411446e-004 -2.82169078e-002
      -6.02936111e-002 1.27623100e-002 1.19983479e-002 2.56170984e-002
      5.47474157e-003 1.60557311e-002 2.61459518e-002 -3.33319306e-002
      4.96422267e-003 -1.04182083e-002 2.67781839e-002 -1.66129172e-002
      -2.62641497e-002 -1.73069313e-002 -1.01678278e-002
      -2.13108608e-004 2.97390576e-002 -4.69432119e-003 1.69749260e-002
      2.49103531e-002 -8.59304238e-003 -8.99240747e-003 -5.27200289e-003
      -1.90126207e-002 -4.81774770e-002 1.36675322e-002 -1.59752630e-002
      1.81878321e-002 -1.75860599e-002 2.14041714e-002 -4.12301421e-002
      -4.70550135e-002 8.59382004e-003 -8.69834051e-002 -8.66534933e-003
      -1.35418130e-002 2.06832625e-002 2.15419009e-003 -1.46720996e-002
      -1.62531273e-004 -3.66377980e-002 -8.97742435e-003 3.37107852e-002
      -6.67115673e-002 -3.71441431e-002 -2.19239779e-002 7.20444927e-003
      -3.83969134e-004 5.74425794e-003 -3.54706272e-002 -2.11905073e-002
      2.47907755e-003 5.09362947e-003 2.00590375e-003 -1.82189494e-002
      1.28353583e-002 5.89163881e-003 8.70010164e-003 6.47166818e-002
      2.74886433e-002 -7.84125458e-003 -2.51855841e-003 1.61834282e-003
      7.54308328e-003 6.55267900e-003 -1.28336791e-002 2.14230325e-002
      3.23321990e-004 -2.02588569e-002 2.17968784e-002 -5.63687161e-002
      4.90016453e-002 -1.57537423e-002 2.62697525e-002 5.51310042e-003
      2.33011357e-002 -2.04726141e-002 2.65813433e-002 1.72833577e-002
      9.94691625e-003 6.51535671e-003 3.35302316e-002</_></support_vectors>
  <decision_functions>
    <_>
      <sv_count>1</sv_count>
      <rho>-9.9823777151476101e-001</rho>
      <alpha>
        1.</alpha>
      <index>
        0</index></_></decision_functions></my_svm>
</opencv_storage>
