<?xml version="1.0"?>
<opencv_storage>
<my_svm type_id="opencv-ml-svm">
  <svm_type>C_SVC</svm_type>
  <kernel><type>LINEAR</type></kernel>
  <C>1.</C>
  <term_criteria><epsilon>2.2204460492503131e-016</epsilon>
    <iterations>1000</iterations></term_criteria>
  <var_all>1000</var_all>
  <var_count>1000</var_count>
  <class_count>2</class_count>
  <class_labels type_id="opencv-matrix">
    <rows>1</rows>
    <cols>2</cols>
    <dt>i</dt>
    <data>
      -1 1</data></class_labels>
  <sv_total>1</sv_total>
  <support_vectors>
    <_>
      4.58938926e-002 -3.82759944e-002 -2.68065347e-003 -1.69493593e-002
      2.05640104e-002 -7.65726902e-003 2.99327765e-002 -1.80004481e-002
      2.75435089e-003 -3.42259780e-002 5.94543945e-003 1.82988402e-002
      5.67898341e-002 -2.02005785e-002 -4.17029411e-002 -2.25469796e-003
      4.71086502e-002 -1.37443282e-002 1.58611704e-002 1.78370420e-002
      -4.18021868e-004 -1.43479994e-002 -3.71200480e-002 7.01563433e-003
      -8.18133354e-002 -3.64481658e-002 1.11000678e-002 9.63156112e-003
      -2.60010231e-002 2.75029764e-002 -1.62455514e-002 -2.00696904e-002
      1.19594447e-002 1.05460454e-002 7.75773544e-003 -1.44553306e-002
      -1.18895676e-002 2.79537644e-002 -3.18863895e-003 1.03932079e-002
      -3.87947727e-003 8.59936327e-003 2.60433424e-002 1.66102890e-002
      3.50970612e-003 -1.19758034e-002 3.32173482e-002 -2.36552842e-002
      -1.90323982e-002 -9.88515001e-003 1.75045691e-002 5.46335150e-003
      -1.65646989e-003 1.15332870e-004 -2.51474753e-002 7.14127766e-003
      8.87686565e-006 -1.37154050e-002 -1.45084858e-002 -2.71956101e-002
      1.77338831e-002 1.18626719e-002 -1.69688035e-002 -4.36429493e-003
      1.69479009e-002 1.40046235e-002 2.65574902e-002 -1.86379384e-002
      1.80759951e-002 1.83302518e-002 -1.48854004e-002 -1.25785777e-003
      5.74091077e-003 8.16535112e-003 -1.37690017e-002 -1.36419106e-002
      9.98809002e-004 -1.36450408e-002 -5.46906097e-003 1.65548008e-002
      -4.01390381e-002 6.38115406e-003 -8.46935902e-004 2.30400190e-002
      5.71186980e-003 -3.87071748e-004 2.01609377e-002 1.41444132e-002
      5.30674215e-003 1.97822675e-002 1.16356965e-002 4.73329425e-003
      1.02085341e-002 9.65285487e-003 3.59085090e-002 5.25476178e-003
      1.54892998e-002 6.16010465e-003 1.98278967e-002 3.25652608e-003
      3.39910686e-002 -1.77910086e-002 -8.65504052e-003 3.13089974e-002
      5.94894262e-003 -2.19260762e-003 -1.28572416e-002 4.95435065e-003
      4.42670286e-003 8.02404061e-003 2.03782208e-002 7.83307478e-003
      1.09232478e-002 -1.93882082e-002 7.25154299e-003 1.94331078e-005
      5.97610511e-003 6.38959929e-004 -2.69726408e-003 -1.22849923e-002
      -1.03348936e-003 -2.58039217e-004 -3.00342869e-002
      -1.04022641e-002 2.72248648e-002 3.13800499e-002 -1.96432620e-002
      2.94404440e-002 -7.33242929e-003 9.40496847e-003 -3.18106706e-003
      -6.34309882e-003 -5.20703243e-003 -6.22886280e-003 1.09709911e-002
      -1.82689168e-004 2.12600380e-002 8.74155108e-003 1.78515017e-002
      8.51935335e-003 2.29648184e-002 1.26247536e-002 -7.16151372e-002
      -2.29134830e-003 1.11804036e-002 5.44806477e-003 2.15004757e-002
      -5.49243316e-002 3.54105234e-002 1.41643230e-002 3.15215588e-002
      2.00568531e-002 -4.94580939e-002 -4.35107350e-002 -1.41079891e-002
      5.73050976e-003 -2.00515985e-002 4.61063497e-002 8.93605035e-003
      -1.19363777e-002 -4.07731161e-003 1.45124067e-002 1.22011947e-002
      4.31895182e-002 1.45361638e-002 -2.85314140e-003 -5.05157150e-002
      6.81805657e-003 -8.15497059e-003 -1.92688499e-002 -7.29001733e-003
      2.53215134e-002 -2.59271692e-002 -1.91518432e-003 3.14349076e-003
      3.47212050e-003 4.79601650e-003 4.60715890e-002 3.53823081e-002
      1.07932987e-003 4.81939176e-003 1.28365746e-002 -1.35398991e-002
      -4.29514721e-002 1.58054829e-002 1.20003242e-002 -6.85332250e-003
      1.17562311e-002 2.93978807e-002 2.08171587e-002 -6.24388177e-003
      9.85358004e-003 -7.51054380e-003 1.16685210e-002 3.33878212e-002
      5.11604846e-002 2.40591802e-002 6.84764842e-003 9.64159518e-003
      -6.39371900e-003 -2.57378295e-002 5.18905651e-003 1.85587853e-002
      -7.94415921e-003 -9.38945729e-003 -1.67995151e-002
      -3.36216344e-003 9.87378042e-003 3.74481874e-003 -9.00295749e-003
      1.22373493e-003 1.31069189e-002 1.79218221e-002 5.26131056e-002
      8.79218243e-003 -3.51337940e-002 1.64561532e-002 -2.12430023e-002
      -1.30040664e-002 4.85254306e-004 -1.31530296e-002 9.93910618e-003
      1.69184175e-004 -4.06061299e-002 9.28788073e-003 8.70531797e-003
      2.98349932e-002 -1.32540462e-003 -2.27141902e-002 -6.22812286e-002
      -6.44076690e-002 4.39254120e-002 -1.33519415e-002 -1.55639425e-002
      1.44253136e-003 1.07626822e-002 1.63349286e-002 1.58735514e-002
      6.82871463e-003 -2.84811407e-002 1.69326421e-002 -1.93965212e-002
      9.52973776e-003 7.94446841e-003 -3.52763161e-002 6.81167189e-003
      1.31755061e-002 6.22016098e-003 1.90565251e-002 1.22537380e-002
      -3.42662558e-002 -3.31793167e-003 -2.53957883e-002 3.81695339e-004
      6.66287728e-003 3.09092887e-002 3.87838157e-003 1.08678546e-002
      2.67093331e-002 8.28988850e-003 8.54604505e-003 -1.22418310e-002
      1.97233376e-003 1.02308048e-002 4.40598689e-002 6.32601185e-003
      1.15290824e-002 -1.83934383e-002 8.96939263e-003 -2.29051113e-002
      2.73544490e-002 -1.97985955e-003 -1.03329252e-002 8.64333194e-003
      -2.13570893e-002 -6.79912465e-003 2.51358598e-002 -1.10153377e-003
      -3.57254967e-002 3.15106176e-002 7.79104372e-003 -8.06245208e-003
      -8.37950315e-003 2.68439595e-002 9.33047198e-003 3.02597415e-003
      -2.18601786e-002 -1.25480304e-002 -2.44885571e-002 1.88330952e-002
      1.49172591e-002 3.26843001e-003 2.85352655e-002 2.39982009e-002
      -1.05126044e-002 1.09161735e-002 -1.34004150e-002 -2.79703531e-002
      1.41074164e-002 -2.33576652e-002 -3.25480998e-002 8.64180736e-003
      2.27607824e-002 7.12868990e-004 1.82119850e-002 6.80169044e-003
      -2.69323289e-002 -2.00230330e-002 -1.73601583e-002
      -1.75579116e-002 4.08227555e-003 2.14903746e-002 3.64654288e-002
      4.42557596e-002 1.13227656e-002 2.08541541e-003 1.81608889e-002
      9.55469906e-003 -7.56633095e-003 -4.92411945e-003 -1.24550909e-002
      4.14070114e-003 2.78621055e-002 -1.54595589e-002 1.94791681e-003
      -1.52198467e-002 1.90607291e-002 1.90103222e-002 6.79756515e-003
      1.10551296e-002 5.07704401e-003 3.19493264e-002 1.46568043e-003
      -6.26653014e-003 -3.16151679e-002 -1.31975161e-002 7.16473954e-003
      1.65751260e-002 1.12697273e-003 1.20111797e-002 -7.50814192e-003
      -2.61431970e-002 9.87310661e-004 -1.74621325e-002 -1.69366151e-002
      1.34610264e-002 2.33353693e-002 6.03059772e-003 1.37584389e-003
      9.03809723e-003 -1.32172015e-002 -1.07074901e-002 8.81057698e-003
      1.37125319e-002 9.12483502e-003 5.59420651e-003 8.76004342e-003
      -2.37201410e-003 2.30780188e-002 -1.83635775e-003 2.94505106e-003
      2.50587277e-002 2.11975239e-002 3.18037570e-002 2.07422860e-002
      1.46929047e-003 2.48998571e-002 1.87614914e-002 -5.61341010e-002
      1.55903893e-002 -1.21813500e-002 1.40401861e-002 -2.07966450e-003
      7.62690464e-003 -3.22190369e-003 -3.85062099e-002 2.03637388e-002
      -5.30200405e-003 -2.26630531e-002 1.12650413e-002 -4.08560149e-002
      1.85378408e-003 -4.23025824e-002 1.25198178e-002 1.51034230e-002
      -2.27567554e-002 2.78404029e-003 -1.30903935e-002 2.91512590e-002
      7.75830029e-003 6.16598641e-004 2.09375471e-003 -1.44310612e-002
      1.15716746e-002 1.24486694e-002 2.50051916e-003 5.95956435e-003
      -1.82412621e-002 1.50922658e-002 -8.91935825e-003 1.06275529e-002
      2.89110206e-002 3.79267484e-002 2.72827242e-002 -9.03761294e-003
      -4.45982022e-003 -4.98726107e-002 -1.50535244e-003
      -7.25780502e-002 6.26693899e-003 -1.52680073e-002 -2.55355164e-002
      1.23978388e-002 -4.32172965e-004 4.15790034e-003 2.93851532e-002
      -2.95401793e-002 7.34276837e-003 -1.02194203e-002 7.86983501e-003
      -6.08702097e-003 3.97439823e-002 -4.45498750e-002 2.74429731e-002
      4.12759511e-003 2.01124642e-002 3.64685431e-002 7.96581339e-003
      4.36339714e-003 -6.99480250e-002 -2.90420791e-003 -1.17196962e-002
      6.76443055e-003 -4.61273789e-002 2.07428243e-002 2.29033120e-002
      -1.82693936e-002 -5.10526309e-003 5.81451505e-003 -2.87290812e-002
      4.62658843e-003 2.16360167e-002 -4.30220030e-002 2.43248940e-002
      -2.06701178e-002 1.44252460e-003 4.85152705e-003 1.96188930e-002
      4.52392874e-003 3.08950059e-003 -4.67034355e-002 2.01776493e-002
      5.30098788e-002 -5.08621074e-002 8.15511961e-003 7.04376493e-003
      -4.09894697e-002 7.37797655e-003 -1.28621235e-002 1.82395186e-002
      0. 1.62652843e-002 7.10785342e-003 1.29915392e-002 2.55872253e-002
      -4.96576866e-003 -4.64533828e-003 1.16939712e-002 6.98741875e-004
      1.83609203e-002 -6.20233361e-003 1.92304570e-002 -2.33049262e-002
      -3.42867449e-002 1.44526074e-002 -1.31984763e-002 1.65926907e-002
      -2.17448920e-002 -2.57181395e-002 -1.49401473e-002 8.15564673e-003
      1.79087911e-002 3.22298147e-003 -2.50259861e-002 -2.59191487e-002
      1.03512395e-003 -1.73623636e-002 4.92189452e-003 7.20062479e-003
      7.79768871e-003 1.49776731e-002 -5.45810489e-003 1.36087537e-002
      -2.22252719e-002 -4.16437583e-003 -1.73745919e-002
      -3.02735646e-003 -7.12477267e-002 1.41453873e-002 1.50701497e-002
      4.06141486e-003 -1.75862797e-002 2.34973244e-002 -1.87149551e-002
      -4.54470108e-004 1.11274654e-002 1.47528918e-002 3.15807424e-002
      8.09286314e-004 7.13471137e-003 4.90157166e-003 2.40292568e-002
      1.77454986e-002 1.01595819e-002 2.47267857e-002 2.22946033e-002
      2.18952727e-003 -4.56865020e-002 -4.01307503e-003 1.54227100e-003
      2.22125128e-002 -2.95038428e-002 -2.64712460e-002 1.27365272e-002
      1.64900720e-002 -1.06443586e-002 1.17464541e-002 7.72747165e-003
      -4.03174432e-003 -3.01156547e-002 -2.71051135e-002 1.31854378e-002
      1.85064673e-002 7.76748452e-003 -8.70932452e-003 -7.62166679e-002
      -1.68661214e-002 4.52820957e-003 -2.33757664e-002 2.40963697e-002
      -1.09464891e-001 -1.66534865e-003 6.30827062e-003 5.30728186e-003
      1.23214140e-003 -3.31731513e-002 1.14986869e-002 1.08183557e-002
      -5.08501604e-002 7.59166479e-003 -2.79663410e-003 1.04369204e-002
      8.49953759e-003 -3.34083033e-003 1.83038674e-002 -4.38867742e-003
      -1.99967865e-002 1.00268796e-002 6.01662369e-003 -1.62577499e-002
      5.80706298e-002 7.98080303e-003 9.55685601e-003 -1.83701050e-003
      2.24029236e-002 -1.81452185e-002 -6.79040700e-002 8.16057157e-003
      -5.34628294e-002 3.27155809e-003 3.56477732e-003 -2.60092355e-002
      1.19302534e-002 1.41034266e-002 1.95154082e-002 1.34048881e-002
      -8.68148729e-003 -5.51275909e-003 3.45887616e-003 2.18912470e-003
      -9.68571636e-004 4.64106118e-003 -4.55158157e-003 3.45242885e-003
      -1.11231487e-002 -7.83007033e-003 1.32541927e-002 1.39032991e-003
      -1.81666091e-002 -2.47786883e-002 9.74596292e-003 -2.36186218e-002
      8.78182333e-003 1.96248572e-002 -2.79327985e-002 9.18298867e-003
      -1.03515442e-002 1.28189707e-002 4.66395393e-002 -5.80051281e-002
      1.07697640e-002 2.17933320e-002 -2.34008320e-002 -3.91838839e-003
      8.55956785e-003 7.00719049e-003 -2.20598280e-003 2.86827167e-003
      2.96827778e-002 2.18566321e-002 1.08124884e-002 1.01980157e-002
      1.38632944e-002 -6.18135333e-002 -3.36415358e-002 2.43022051e-002
      -2.46337801e-002 -4.49656248e-002 1.45984720e-002 2.67473441e-002
      -1.74756180e-002 -5.48403040e-002 -5.65537577e-003
      -1.03936391e-002 1.50864385e-002 3.69787700e-002 1.15165049e-002
      2.31407080e-002 6.86678942e-003 3.69032845e-002 3.35023087e-003
      -1.80342980e-002 8.80102627e-003 -4.45387103e-002 -3.81782092e-002
      -4.66096811e-002 1.05430102e-002 5.54597750e-003 -2.98552634e-003
      3.57557461e-002 2.47858418e-003 -3.57644185e-002 5.14355814e-003
      1.43033331e-002 6.31859479e-003 1.22790539e-003 2.55051826e-004
      -1.55884968e-002 -7.04928534e-003 2.18887930e-004 -4.11102064e-002
      -1.07112480e-002 -1.26802898e-003 -4.71914858e-002
      -3.62521823e-004 -1.73161328e-002 6.70949882e-003 -1.02573279e-002
      2.93489713e-002 3.44965165e-003 -3.13781127e-002 1.35113792e-002
      1.86268575e-002 -4.51254025e-002 1.50779728e-002 -1.86195001e-002
      1.83254220e-002 -2.57649478e-002 9.58819408e-003 -3.74649093e-002
      1.58289820e-002 9.11542121e-003 -1.97980925e-002 -3.00506037e-002
      8.91738571e-003 9.90316644e-003 4.21447260e-003 -2.98589263e-002
      -2.35986942e-003 -4.39772941e-003 -1.07520595e-002
      -3.72235738e-002 -1.74265988e-002 2.37961859e-003 1.50924707e-002
      -1.22533962e-002 1.83227751e-002 -2.43922397e-002 1.36518627e-002
      1.62298977e-003 9.72947199e-003 1.20118493e-002 -2.47451775e-002
      8.69998243e-003 1.71833001e-002 3.74753075e-003 5.31841116e-003
      -4.16976446e-003 1.50507260e-002 -6.24846444e-002 -2.83110645e-002
      -7.43219070e-003 -3.07488767e-003 8.55196360e-003 2.17164680e-002
      2.27266066e-002 2.43148953e-002 1.23935565e-003 -1.76109504e-002
      -2.61479970e-002 -3.38633023e-002 3.08719277e-002 2.85042617e-002
      -4.77360860e-002 -1.60153769e-002 -4.78039496e-003 1.20657508e-003
      7.95722567e-003 4.73312335e-003 -1.71645042e-002 5.48818661e-003
      1.96549054e-002 -1.20401829e-002 -5.67236217e-003 -1.41197396e-002
      1.23584727e-002 -8.80433992e-003 1.74096087e-003 2.84041162e-003
      2.35452596e-002 3.49704102e-002 1.23822428e-002 -5.37248608e-003
      -7.29384972e-003 7.50136795e-003 7.93922867e-004 1.84805468e-002
      9.93719697e-003 1.91266946e-002 -4.15504053e-002 0.
      -3.56160775e-002 3.76320886e-003 1.42476382e-002 -7.98660156e-004
      -7.20451400e-003 -3.38734174e-003 3.11573595e-003 3.01273093e-002
      -1.00370161e-002 6.62214402e-003 -3.83671932e-002 -6.26036599e-002
      -6.03522267e-003 -6.77806046e-003 -1.66577902e-002 1.87232234e-002
      -1.81822386e-002 -3.70547064e-002 -7.43723242e-003
      -4.17760760e-002 -5.91743179e-003 -2.24872734e-002
      -2.54751258e-002 -2.15336401e-002 1.99004114e-002 1.29432837e-002
      3.82387824e-002 -3.29847410e-002 8.08587577e-003 -1.00973817e-002
      1.12830019e-002 5.42156631e-003 1.59005541e-003 1.88915972e-002
      3.39680053e-002 3.01058907e-002 3.01752728e-003 5.72358351e-003
      2.09567882e-003 2.58710068e-002 -2.13206955e-003 2.10144557e-002
      -3.49450554e-003 -1.10060733e-003 1.70337595e-002 2.81530921e-003
      -3.49343494e-002 -3.38719562e-002 4.04466428e-002 1.85721908e-002
      1.37157571e-002 -4.37952429e-002 5.23379818e-003 -4.67720034e-004
      -2.32570525e-002 2.44212933e-002 3.84706515e-003 7.93603156e-003
      1.25598593e-003 -9.75400396e-003 2.56968085e-002 -1.54151730e-002
      -3.19353491e-002 3.41546535e-003 -4.61234339e-003 4.52401722e-003
      -1.30914832e-002 -1.22624189e-002 2.27696877e-002 8.35816469e-003
      -4.97445511e-003 -1.60622597e-002 -1.45483622e-002
      -3.70967714e-003 -2.19261758e-002 -1.23396460e-002 1.53624574e-002
      1.94911398e-002 6.17667660e-003 1.72718260e-002 9.07117315e-003
      -6.32520881e-004 1.33587709e-002 -4.28305753e-002 2.91257240e-002
      -1.84701569e-002 1.73365325e-002 -6.70128316e-002 -8.28206073e-003
      -4.09535803e-002 -1.94612215e-003 -2.08694264e-002
      -1.73492229e-003 -1.42829306e-003 -1.11727873e-002
      -2.57200971e-002 6.94523146e-003 -3.39915417e-003 -2.57450761e-003
      1.40293194e-002 9.22421087e-003 4.02280176e-003 1.02660917e-002
      -2.34784652e-002 2.82383841e-002 -1.02654267e-002 -5.31344814e-003
      1.24901645e-002 7.92714208e-003 -7.58905858e-002 3.71596143e-002
      2.65245084e-002 4.42927796e-003 2.71273404e-003 8.48031230e-003
      4.12478996e-003 4.56591323e-002 -1.33678645e-001 -1.51878847e-002
      9.32842959e-003 -6.87270937e-003 1.88433770e-002 -1.32612521e-002
      3.33015865e-004 1.65968481e-002 1.44591909e-002 4.40566242e-002
      -9.41693690e-003 -1.40939781e-003 -3.47928554e-002 8.52785911e-003
      -4.41332860e-003 1.41267711e-002 1.35267247e-002 -6.07988797e-003
      -5.94307343e-003 -3.13735753e-002 -6.14106096e-003
      -9.44970734e-003 3.49442102e-002 -3.71373966e-002 5.82290068e-003
      -5.68433804e-003 -2.45127175e-002 3.70880291e-002 -2.92440038e-002
      -4.84239534e-002 2.16597295e-003 -6.59825932e-003 1.57058854e-002
      2.32374096e-005 2.68766861e-002 1.55457272e-003 1.48219531e-002
      -1.68026835e-002 1.14016957e-003 -2.08196826e-002 -4.28343900e-002
      3.91782215e-003 5.83995972e-003 8.73237103e-003 2.00404041e-002
      2.90289130e-002 1.65158398e-002 -4.66784947e-002 2.61433702e-003
      7.44757941e-003 1.93225723e-002 1.12179630e-002 3.55076417e-002
      1.23074688e-002 -2.70246365e-003 -4.32891212e-002 -2.25631148e-003
      2.67879292e-002 -3.47983725e-002 4.06345446e-003 1.00202411e-002
      2.07537971e-003 1.50245347e-003 3.59445042e-003 -5.28892875e-002
      4.68031922e-003 1.05104614e-002 2.48105871e-003 5.31162927e-003
      1.46347210e-002 9.07137711e-003 2.05930714e-002 9.92211606e-003
      8.43771361e-003 6.14229497e-003 -1.45490244e-002 -2.28412775e-003
      2.17735711e-002 1.69034209e-002 -1.80284046e-002 -4.37354064e-003
      2.04022434e-002 -1.17414808e-002 1.36733567e-002 5.47909783e-003
      1.56762265e-002 8.42197705e-003 1.58820860e-002 5.41785685e-003
      4.81084501e-003 -9.06556007e-003 -1.22404210e-002 -1.90209027e-003
      1.71981230e-002 4.72223908e-002 -5.02311299e-003 2.09849440e-002
      -2.59022713e-002 8.52953270e-003 8.02806026e-005 1.96872149e-002
      2.41232850e-002 5.96602540e-003 2.46348307e-002 -4.02694987e-003
      2.14917632e-003 -2.87892092e-002 7.26390164e-003 -1.74347833e-002
      -1.65535174e-002 5.95393917e-003 2.28206832e-002 6.27038581e-003
      2.33425237e-002 -5.81809282e-002 -2.66278419e-003 3.18280421e-002
      -6.64143078e-003 1.49604324e-002 1.03689712e-002 -1.16359433e-002
      2.60517299e-002 -4.33900300e-003 1.80364847e-002 1.46463960e-002
      5.35183959e-003 1.28287543e-002 3.70159447e-002 1.36865126e-002
      1.11323465e-002 -1.05530873e-003 2.66929623e-003 1.40277520e-002
      -3.35163856e-003 -3.11760381e-002 -4.31448891e-004 3.48997791e-003
      8.93030502e-003 -5.88263525e-003 -3.00583057e-003 -6.78254478e-003
      2.26808321e-002</_></support_vectors>
  <decision_functions>
    <_>
      <sv_count>1</sv_count>
      <rho>-9.9544333338624991e-001</rho>
      <alpha>
        1.</alpha>
      <index>
        0</index></_></decision_functions></my_svm>
</opencv_storage>
