<?xml version="1.0"?>
<opencv_storage>
<my_svm type_id="opencv-ml-svm">
  <svm_type>C_SVC</svm_type>
  <kernel><type>LINEAR</type></kernel>
  <C>1.</C>
  <term_criteria><epsilon>2.2204460492503131e-016</epsilon>
    <iterations>1000</iterations></term_criteria>
  <var_all>1000</var_all>
  <var_count>1000</var_count>
  <class_count>2</class_count>
  <class_labels type_id="opencv-matrix">
    <rows>1</rows>
    <cols>2</cols>
    <dt>i</dt>
    <data>
      -1 1</data></class_labels>
  <sv_total>1</sv_total>
  <support_vectors>
    <_>
      3.96095701e-002 -4.94450480e-002 -3.66780013e-002 1.02432398e-002
      3.54308810e-004 1.20490482e-002 -4.00552452e-002 1.69413295e-002
      1.20159248e-002 1.39637562e-002 -6.47176336e-003 1.32616535e-002
      -6.91474555e-003 -2.16204654e-002 8.42245296e-003 -1.23309702e-001
      1.87209863e-002 -5.93879772e-003 2.15215348e-002 1.04602547e-002
      4.17251559e-003 2.83197220e-003 -3.63393426e-002 -8.48773401e-003
      1.17993345e-002 5.31946728e-003 -5.62605076e-003 9.39594023e-003
      8.26614036e-004 2.80479193e-002 7.90772773e-003 2.01021023e-002
      2.03958079e-002 2.08026301e-002 1.22286659e-003 9.16698202e-003
      3.81846018e-002 1.47083104e-002 8.75506364e-003 -2.54356489e-002
      1.65930961e-003 3.01469881e-002 6.03794446e-003 -9.05570667e-003
      -1.72033347e-003 -1.05402209e-001 2.19803490e-002 -6.82466850e-002
      9.89689771e-003 1.85379870e-002 1.39190527e-002 -4.88836598e-003
      6.54634926e-003 5.93344448e-003 -7.41587079e-004 -2.38736649e-003
      -5.47007658e-002 -9.39759891e-003 -4.16127294e-002 9.54553019e-003
      -8.99231341e-003 -6.67095231e-003 -9.85322520e-003 5.95841603e-003
      1.03996145e-002 -1.13535672e-002 -7.46140163e-003 4.29538544e-003
      -9.13505070e-003 3.24681029e-002 9.03974380e-003 -4.25784327e-002
      6.44598808e-003 2.06300300e-002 9.07494500e-003 -3.53296511e-002
      1.27643067e-002 3.29178497e-002 1.35257784e-002 4.22558524e-002
      8.45802296e-003 1.84309820e-003 1.50017357e-002 -3.04065533e-002
      -2.90898560e-003 -5.68486415e-002 -3.79925258e-002 2.38511916e-002
      7.81394821e-003 8.01554509e-003 6.02236344e-003 1.77993681e-002
      1.75199769e-002 6.17441488e-003 1.12262890e-002 -1.76730077e-003
      -8.56941864e-002 -5.82206203e-003 -1.03275105e-002 9.44241695e-003
      -4.82963324e-002 1.11621935e-002 -8.95195233e-004 -6.22548535e-002
      -3.07900198e-002 2.53088623e-002 -1.03014722e-001 9.86638130e-004
      1.64676197e-002 -3.20619508e-003 -9.54926983e-002 -2.63048732e-003
      -5.02866916e-002 -2.74354499e-002 7.65063101e-003 -5.66801578e-002
      9.31625441e-003 1.86183602e-002 1.15489075e-002 1.90529209e-002
      6.53529819e-003 5.85676311e-003 -4.19863872e-003 3.54961638e-004
      3.78056243e-003 3.71306739e-003 -7.56796077e-002 2.95710587e-003
      3.68172606e-003 1.41061246e-002 3.39897256e-003 1.59103479e-002
      3.68968071e-003 8.92264210e-003 -2.40225330e-004 1.60673540e-002
      1.01114446e-002 2.01246492e-003 4.28010290e-003 1.31849367e-002
      -1.22340480e-002 1.28403800e-002 3.07732318e-002 1.96676813e-002
      1.08781178e-002 -5.41033642e-003 5.20076184e-003 3.93878203e-003
      8.61782208e-003 1.96933690e-002 -2.31500156e-002 1.10171521e-002
      2.62490660e-002 -7.00492598e-003 2.59159654e-002 -4.79162820e-002
      7.05512613e-003 6.93515455e-003 6.74755266e-003 1.63339395e-002
      1.72155518e-002 -1.57489274e-002 -5.42983823e-002 -8.00251728e-004
      1.40129486e-002 3.52024310e-003 8.90672207e-003 -1.71068199e-002
      6.59445487e-003 -5.49480459e-003 -1.16757990e-003 -6.91240802e-002
      -7.58403726e-003 1.69195198e-002 2.30496842e-002 1.00529492e-002
      1.09877028e-002 5.61006740e-003 7.14919949e-003 2.03032307e-002
      9.58148111e-003 1.19019218e-003 -2.91771512e-003 2.98622604e-002
      3.20236268e-003 -7.98092335e-002 -9.36227944e-003 3.78380567e-002
      4.98562446e-003 -1.14340568e-002 4.54557268e-003 -2.39090086e-003
      -5.77088166e-003 1.67989098e-002 4.48406721e-003 1.38549914e-003
      1.98609307e-002 1.98524594e-002 1.05521614e-002 -1.34996148e-002
      8.16688035e-003 1.59053914e-002 -1.27398496e-004 1.47184609e-002
      4.41901060e-003 -6.32634163e-002 1.29947839e-002 5.21786232e-003
      1.34372804e-003 4.04089428e-002 -5.80349304e-002 -5.53645054e-003
      8.89359880e-003 8.68462585e-003 8.19679350e-003 -6.35662079e-002
      5.67010976e-003 1.62414219e-002 1.57164484e-002 1.50919789e-002
      -5.18592633e-002 7.17310375e-003 -3.08732851e-003 -3.29379328e-002
      8.21907353e-003 1.66339353e-002 -9.38699618e-002 9.09984950e-003
      1.53229656e-002 -2.11432297e-002 4.67453757e-003 1.79150123e-002
      1.36561617e-002 9.66923498e-003 -1.92811694e-002 -6.09868858e-003
      2.04877984e-002 -2.54641902e-002 5.39451081e-004 1.56209180e-002
      7.90889282e-003 -2.48299167e-003 -1.67615118e-003 1.80277461e-003
      -8.59248103e-004 2.94843060e-003 6.08000048e-002 2.35014930e-002
      3.12531280e-004 -5.27313426e-002 2.58601271e-002 1.41322881e-003
      -5.22332564e-002 2.91183940e-003 2.90685077e-003 -1.93176176e-002
      -3.51375490e-002 -1.88650787e-002 1.09661324e-002 -2.97272316e-004
      2.92025344e-003 -2.20243330e-003 8.39761831e-003 2.39695664e-002
      4.18589823e-003 9.34336334e-003 -3.83522990e-003 2.51097623e-002
      1.28910914e-002 8.35060049e-003 1.12665584e-002 -1.63807552e-002
      1.71040073e-002 1.51764730e-003 -1.37954336e-002 -1.38813294e-002
      2.53514852e-003 1.32507719e-002 3.65492441e-002 1.65843288e-003
      -5.87480981e-003 8.01310129e-003 -6.02235598e-003 -9.39682778e-003
      1.78134218e-002 -3.40058468e-002 2.73944791e-002 -1.52440257e-002
      1.49247167e-003 9.75145865e-003 4.04794235e-003 7.26281665e-004
      1.68996840e-003 -5.58541995e-003 -5.18897995e-002 2.26823725e-002
      1.24832587e-002 -9.39686492e-004 1.23439729e-003 6.36858027e-003
      2.17808522e-002 -4.52145338e-002 3.79878026e-003 6.47651544e-003
      1.71464272e-002 4.43636486e-003 1.80482529e-002 -5.16883619e-002
      -4.01972234e-002 8.26939009e-003 1.95226185e-002 1.45528204e-004
      1.40557736e-002 0. -9.02005360e-002 9.71685629e-003
      -8.77140381e-004 3.25332076e-004 -6.38146186e-003 -2.31317189e-002
      -6.16053678e-003 -1.09617459e-002 -4.54838434e-003 3.29355523e-003
      9.40376194e-004 8.47764127e-003 7.60955224e-003 -5.78014739e-003
      8.61899555e-003 -1.17360447e-002 7.52823520e-003 5.79471374e-003
      -1.11675076e-002 1.23118116e-002 8.04980285e-003 -4.94147465e-003
      1.10951988e-002 -1.08593544e-002 1.12705631e-002 -7.22124055e-003
      6.78666774e-003 -1.06350584e-002 1.60691664e-002 5.34920662e-004
      1.38520775e-002 3.90331773e-003 -3.59391831e-002 1.07722590e-002
      6.88880170e-003 8.31309799e-003 5.46161504e-003 1.63012501e-002
      1.83279272e-002 1.22163836e-002 8.74427520e-003 -6.63716951e-003
      -5.22959158e-002 1.92387272e-002 -1.81083963e-003 -1.68004539e-003
      2.29221694e-002 -5.26700057e-002 1.49405077e-002 1.29392780e-002
      -7.61987176e-003 1.17641268e-002 -5.19120926e-003 1.10424520e-003
      -3.76793393e-003 6.63611153e-003 -6.47938717e-003 -7.41041899e-002
      -4.81616072e-002 5.34890627e-004 1.94736512e-003 2.94096842e-002
      3.29617597e-002 5.51634748e-003 1.05133159e-002 -4.09729546e-003
      -1.34359219e-003 1.41841685e-002 3.14864069e-002 1.06243265e-003
      1.40877981e-002 -3.14899022e-003 1.07524637e-002 7.88526889e-003
      3.41291050e-003 2.62030698e-002 6.32915227e-003 -6.75012404e-003
      3.07318498e-003 -2.13172045e-002 1.66383281e-003 -2.16449727e-003
      1.02834776e-002 1.51851745e-002 -1.74221676e-002 4.42067906e-003
      5.34878462e-004 -6.39313608e-002 8.94717406e-003 9.65856668e-003
      -4.92345802e-002 -7.10804984e-002 7.37271318e-003 -8.32352862e-002
      -3.12014273e-003 -5.78525616e-003 -1.45604769e-002 4.80059627e-003
      1.32402210e-002 3.10030533e-003 4.60727699e-003 2.02802494e-002
      1.17389509e-003 3.98131087e-003 -2.73778546e-003 -2.53013168e-002
      -1.79466535e-003 -7.75306346e-003 -1.25983423e-002
      -1.65716112e-002 -4.32122350e-002 8.76198523e-004 -4.88985814e-002
      1.48749352e-002 -7.56493246e-004 5.87294751e-004 2.16211993e-002
      7.70469196e-003 1.55249890e-002 -1.07535580e-002 1.10369725e-002
      -2.60504428e-002 2.32254174e-002 4.52670641e-003 -2.83633824e-002
      -1.46812983e-002 1.22778919e-002 2.38423739e-002 1.77296270e-002
      5.02263475e-003 -8.60338449e-004 4.23864182e-003 9.47859790e-003
      6.32050401e-003 6.63718535e-003 7.94229377e-003 1.63797587e-002
      1.94266159e-002 2.92863455e-002 1.70599233e-004 4.30244207e-003
      -5.31144813e-002 1.53672770e-002 -1.24965690e-003 5.92125522e-004
      1.45273749e-002 -4.81628440e-002 -6.29593730e-002 9.89737827e-003
      1.46801071e-003 9.80664790e-003 3.94475646e-002 -2.63159192e-004
      1.71071272e-002 6.91148033e-003 5.02918707e-003 4.12506796e-003
      -5.94050512e-002 1.03025986e-002 7.55834859e-003 -8.71852171e-005
      2.37328969e-002 8.57386459e-003 1.83747988e-002 2.03927886e-002
      4.68739215e-003 7.47947395e-003 5.25545236e-003 6.34469604e-003
      9.31082666e-003 1.52494079e-002 -2.64845323e-003 -1.97696853e-002
      1.91556532e-002 -5.64010488e-003 -5.25730029e-002 2.22759489e-002
      1.52056571e-002 1.88676012e-003 1.42363757e-002 8.33466370e-003
      -1.87524464e-002 8.33059847e-003 -3.76121374e-003 5.34936262e-004
      5.34851744e-004 1.21243782e-002 -4.81631197e-002 4.11374727e-003
      -3.75593081e-002 1.88765011e-003 2.31815502e-002 1.28655089e-002
      -7.00415624e-003 9.82409436e-003 -7.58972438e-003 3.90064088e-007
      6.85316452e-004 5.18188486e-003 -1.17919669e-002 1.89306270e-002
      -4.17218573e-004 3.44852707e-003 0. -2.86462950e-003
      5.25598507e-003 5.29108709e-003 -4.07977290e-002 3.60346487e-004
      5.11313509e-003 2.23115273e-003 5.34884981e-004 -2.55037652e-004
      1.04853064e-002 5.42080589e-003 1.07364263e-003 -6.66738767e-003
      8.80148169e-003 1.85026675e-002 1.02393134e-002 1.19815217e-002
      3.76305776e-003 2.92363949e-002 1.68683045e-002 7.66893104e-003
      2.64763786e-003 -1.72620025e-002 4.56076954e-003 4.39829752e-003
      2.71140598e-003 -7.78133108e-004 2.26642117e-002 5.11471555e-003
      2.54687257e-002 -1.48968073e-002 -3.81705770e-003 -1.18404627e-003
      7.94098061e-003 1.13146252e-003 1.39866886e-003 3.85398045e-003
      1.74391586e-002 1.88870747e-002 1.91605110e-002 2.49448419e-002
      8.63712002e-003 1.30329840e-003 1.10091427e-002 2.02118745e-003
      -1.70692541e-002 9.19513125e-003 -4.29195724e-003 3.25217098e-003
      -2.95440387e-002 1.11957220e-002 -5.77882715e-002 8.31505866e-004
      -3.18415510e-003 -3.05976756e-002 6.04012003e-003 1.08979419e-002
      1.29504940e-002 5.61322900e-004 -5.75207435e-002 1.40771409e-002
      1.39513034e-002 2.50994690e-005 7.80371251e-003 7.85803143e-003
      9.96713992e-003 1.62113924e-003 3.39085469e-003 1.93882808e-002
      -5.86924739e-002 1.38305118e-002 5.38422307e-003 1.12014264e-002
      1.32700456e-002 2.13021394e-002 -6.80204621e-003 -1.95009902e-003
      2.26028319e-002 8.13125540e-003 5.73077332e-003 7.56628672e-003
      -1.35728195e-002 1.22772967e-002 -7.04080521e-005 -1.52302217e-002
      4.19734092e-003 9.18626878e-003 1.72619373e-002 3.13534541e-003
      2.05228440e-002 1.39685394e-002 9.22926236e-003 -3.27275097e-002
      1.95935206e-003 1.30383968e-002 2.47934088e-002 1.01359258e-003
      -2.76719667e-002 6.28441107e-004 -2.17024479e-002 5.17171063e-003
      -5.20365126e-002 1.82712041e-002 -5.21405227e-003 6.82549179e-003
      3.79498862e-003 -5.60137630e-003 1.05959615e-002 2.24340819e-002
      3.01691261e-003 -8.72381032e-003 -5.84527664e-003 -4.92476719e-003
      -3.60830165e-002 -5.87875955e-004 1.60519853e-002 5.61773125e-003
      4.15694155e-003 -2.94006933e-002 5.34896913e-004 6.23388588e-003
      3.78110679e-003 -7.45613407e-003 -2.54236464e-003 1.60990134e-002
      2.33060727e-003 3.44799981e-002 7.52401119e-003 2.44831224e-003
      -9.81006678e-003 2.04364094e-003 1.75196417e-002 4.96369135e-003
      -3.55464630e-002 1.03686918e-002 1.79145373e-002 -1.12543246e-002
      -1.15570258e-002 -1.46358712e-002 1.37438448e-002 1.15278354e-002
      7.27250474e-003 1.15307514e-002 6.18704408e-003 5.34889987e-004
      1.37228006e-002 6.26168819e-003 -1.77329797e-002 -1.00038797e-002
      6.16418058e-003 1.89647228e-002 1.63867380e-002 -9.28142399e-004
      6.49091974e-003 3.21458746e-003 -8.89197690e-004 -5.27976938e-002
      3.82967573e-003 1.99266300e-002 3.99750192e-003 1.31711178e-003
      1.03970738e-002 -2.02354770e-002 1.78249739e-002 -1.01959603e-002
      1.49169853e-002 1.05809523e-002 2.49283426e-002 -7.57925306e-003
      2.20571458e-003 9.27846320e-003 -4.81647961e-002 5.50007308e-003
      -5.53560182e-002 -1.03408303e-002 1.27032073e-002 3.18716206e-002
      -2.45259237e-002 1.61588732e-002 8.09052959e-003 -1.05367281e-001
      8.00834130e-003 1.49159078e-002 2.95660575e-003 -4.66548130e-002
      1.63109659e-003 -5.60980104e-003 -7.86909740e-003 1.90436002e-002
      -5.15600387e-003 1.80737767e-002 0. 1.00730890e-002
      5.50883636e-003 1.16660213e-002 1.04171559e-002 8.12702812e-003
      1.21647061e-003 1.95746534e-002 -1.40084175e-003 1.99018270e-002
      -3.18250665e-003 1.17818369e-002 -2.08937153e-002 6.35256106e-003
      -6.16321224e-004 -4.66490872e-002 1.79299563e-002 4.54000104e-003
      1.44535629e-002 -2.66319122e-002 -1.88838895e-002 4.18475363e-003
      -8.56362225e-004 7.79240532e-003 1.81665015e-003 1.39099127e-002
      -2.55955826e-003 2.47772876e-002 8.02476611e-003 -1.16411492e-003
      -1.53767057e-002 -1.08665433e-002 1.10681569e-002 -5.49551584e-002
      -7.00472679e-004 2.71068211e-003 1.58672873e-002 1.66616403e-002
      1.22193352e-003 7.43277557e-003 7.63139408e-003 4.20783134e-003
      -3.78986774e-003 9.05158091e-003 1.94993038e-002 8.02095793e-003
      1.42021198e-002 5.05808182e-003 1.98670779e-003 9.40862857e-003
      1.56367160e-002 -1.15387673e-002 1.08327381e-002 1.99774373e-002
      1.27062229e-002 5.38457511e-003 8.74996092e-003 3.31298844e-003
      9.23689362e-003 7.10609602e-003 1.31944166e-002 1.47461062e-002
      -3.16253826e-002 3.93619481e-003 1.61818974e-002 4.70698019e-003
      1.03801338e-003 1.94375066e-003 -3.79585614e-003 7.80565059e-003
      1.39745455e-002 -5.51473768e-003 1.12075708e-004 1.93315987e-002
      2.74529867e-002 8.79639201e-003 8.17545038e-003 1.63967386e-002
      -2.57917978e-002 1.00034783e-002 1.53480330e-002 5.51943155e-003
      1.50693199e-002 4.75886883e-003 3.23534105e-003 4.84201545e-003
      3.39704715e-002 1.59978610e-003 -4.23652604e-002 -9.38728359e-003
      8.95164069e-003 1.75495655e-003 4.86330828e-003 -6.55771494e-002
      1.59328654e-002 2.11366778e-003 1.45923076e-002 -1.57198608e-002
      1.50278388e-002 2.06474587e-002 -6.37046900e-003 1.44988736e-002
      9.96067561e-003 -3.81239653e-002 5.65426517e-003 1.37216207e-002
      4.25262749e-003 1.25958642e-003 3.06382449e-003 1.26184151e-002
      1.58423688e-002 3.08766728e-003 6.15285290e-003 1.93754130e-003
      1.25573279e-004 -3.66762057e-002 1.63092017e-002 -6.30676299e-002
      3.86347529e-003 1.15751252e-002 2.01261304e-002 1.65116251e-003
      2.27396768e-002 1.20569551e-002 1.76818781e-002 2.00756229e-002
      5.87429246e-003 8.23639147e-003 3.92510556e-003 3.27969645e-003
      8.78581312e-003 -4.09722179e-002 9.85915214e-003 5.96865825e-003
      1.15741119e-002 1.91633571e-002 3.28302989e-003 2.12212689e-002
      -1.09474855e-002 3.20224673e-003 2.58082543e-002 -6.03443570e-002
      -1.88205801e-002 6.55149401e-004 1.17174974e-002 0.
      1.18441405e-002 8.22237134e-003 -3.89588997e-003 0.
      5.70638152e-003 2.46329233e-003 -5.64057119e-002 9.79403406e-003
      -1.36226034e-002 1.04864836e-002 -4.23093252e-002 -4.18253615e-002
      1.39435511e-002 -5.55588491e-003 0. 1.36125041e-002
      1.00994995e-002 1.05679259e-002 -7.12639242e-002 6.49144314e-003
      8.00423138e-003 1.57357622e-002 1.99184357e-003 5.84400608e-004
      8.81926622e-003 -7.58413179e-003 1.23024937e-002 1.54655566e-002
      1.33062769e-002 1.76443451e-003 1.54063664e-002 3.79123143e-004
      9.16434801e-004 1.07922172e-002 8.72739474e-004 2.76137888e-003
      1.67258810e-002 9.45149921e-003 6.52409811e-003 5.66524686e-003
      6.76618016e-004 7.45278457e-003 -1.07894400e-002 3.28339380e-003
      -1.07081812e-002 -1.65686104e-002 8.23721569e-003 1.60923656e-002
      2.89019686e-003 1.57563575e-002 5.34888590e-004 -2.84345858e-002
      7.20648514e-003 -4.80460413e-002 -1.88952554e-002 1.01644173e-002
      1.07771913e-002 1.14321411e-002 -4.81639728e-002 7.89126940e-003
      -1.66458413e-002 -4.31446508e-002 3.19510023e-003 1.58390459e-002
      1.89477031e-003 2.80878437e-003 1.36938982e-003 1.58709902e-002
      2.59425510e-002 -2.78916536e-003 9.33218747e-003 7.32709793e-003
      8.92086048e-003 2.37009693e-002 -1.11015630e-003 8.51874519e-003
      2.24010367e-002 7.26627791e-003 2.50765141e-002 -1.82680525e-002
      7.69316871e-003 5.28355129e-003 1.33175496e-002 1.45912739e-002
      -2.25816584e-005 1.22102620e-002 1.12470537e-002 8.10616184e-003
      1.09578213e-002 2.19780137e-003 -9.10026114e-003 2.80942349e-003
      -1.83252040e-002 -1.00518740e-003 1.34910988e-002 -2.16335766e-002
      -8.65107123e-003 6.56624651e-003 6.31767744e-003 7.79606542e-003
      2.02945666e-003 5.86944725e-003 1.58950835e-002 -2.98631527e-002
      -4.97469353e-003 1.10868998e-002 5.99465286e-003 8.48269835e-003
      1.11342436e-002 -3.52927819e-002 -1.31386258e-002 -6.52513886e-003
      7.16892583e-003 3.69372871e-003 1.83485332e-003 7.59205548e-003
      1.53385065e-002 2.38261390e-002 1.41721051e-002 -5.02495877e-002
      3.73818935e-003 -1.18204474e-003 1.33567210e-002 1.02719879e-002
      5.73841715e-003 2.99846064e-002 -5.76885790e-002 7.56586296e-003
      6.06521126e-003 -3.71902101e-002 -7.25345034e-003 7.45900162e-003
      8.78656469e-003 1.02846390e-002 -3.53825949e-002 1.10988494e-003
      -1.88727900e-002 7.01164128e-003 -4.15384881e-002 8.45618546e-003
      2.95689446e-003 1.94492750e-002 1.66147836e-002 2.30402197e-003
      1.65719911e-002</_></support_vectors>
  <decision_functions>
    <_>
      <sv_count>1</sv_count>
      <rho>-9.9541531704427166e-001</rho>
      <alpha>
        1.</alpha>
      <index>
        0</index></_></decision_functions></my_svm>
</opencv_storage>
