<?xml version="1.0"?>
<opencv_storage>
<my_svm type_id="opencv-ml-svm">
  <svm_type>C_SVC</svm_type>
  <kernel><type>LINEAR</type></kernel>
  <C>1.</C>
  <term_criteria><epsilon>2.2204460492503131e-016</epsilon>
    <iterations>1000</iterations></term_criteria>
  <var_all>1000</var_all>
  <var_count>1000</var_count>
  <class_count>2</class_count>
  <class_labels type_id="opencv-matrix">
    <rows>1</rows>
    <cols>2</cols>
    <dt>i</dt>
    <data>
      -1 1</data></class_labels>
  <sv_total>1</sv_total>
  <support_vectors>
    <_>
      4.79491008e-003 -2.45196521e-002 -1.65250562e-002 1.40108522e-002
      7.77148455e-003 1.64509681e-003 -1.30005963e-002 3.45160533e-003
      7.85832386e-003 1.41858319e-002 -7.54208583e-003 -1.61108430e-002
      1.82734989e-002 1.08551523e-002 1.22956624e-002 -7.82744586e-003
      5.34674013e-003 1.01207318e-002 2.19686958e-003 2.10045148e-002
      -7.97841058e-004 8.46839882e-003 1.53431958e-002 -1.68259547e-003
      -8.66401847e-003 1.42995443e-003 -7.04786601e-003 -1.69697907e-002
      2.89485771e-002 2.81133666e-003 1.37638217e-002 -5.29245473e-003
      -2.69154878e-003 -3.88079742e-003 4.37185680e-003 1.57442018e-002
      2.77530029e-002 -1.42290276e-002 -1.27500938e-002 1.09625096e-002
      5.00218943e-003 -6.08735112e-003 3.46857845e-003 2.35679429e-002
      3.18238791e-003 8.43532942e-003 1.71702858e-002 -1.04756178e-002
      -9.88853630e-003 7.21322186e-003 9.63145867e-003 3.40947695e-002
      8.83920304e-003 -2.51154508e-003 -3.65109229e-003 3.99057381e-003
      -9.94761009e-003 1.24778552e-002 -3.02176718e-002 -2.10909341e-002
      -2.06529368e-002 5.05179283e-004 2.09321547e-002 1.74804870e-002
      1.06780557e-002 1.03498017e-002 -1.00941211e-002 1.50882965e-002
      7.30108994e-004 -1.84608754e-002 2.02029804e-003 -3.65296914e-003
      -3.90800275e-003 -6.82567339e-003 4.43662293e-002 2.22951304e-002
      1.82689466e-002 2.57005522e-005 7.20187230e-003 1.24148251e-002
      9.32943821e-003 -1.67569090e-002 8.01555533e-003 -3.69012076e-003
      2.69227065e-002 2.14463472e-002 -1.11946100e-002 -2.85692438e-002
      6.99325092e-003 1.90001596e-002 -6.32932130e-003 -3.97541793e-003
      1.46461818e-002 -2.67398637e-002 -1.29155144e-002 -1.40269529e-002
      3.23632099e-002 -9.71606176e-004 -1.68771632e-002 -6.79044724e-002
      -3.41236452e-003 -3.10250055e-002 1.05490638e-002 -6.49779243e-003
      7.44530838e-003 2.14926023e-002 4.11207275e-003 -2.37120269e-003
      -3.53355310e-003 9.31544055e-004 4.88065742e-003 -2.04343852e-002
      1.22528356e-002 7.87542481e-003 -8.94194376e-003 -7.35241501e-003
      -4.88617178e-003 -1.08213844e-002 -6.63835369e-003 5.69606805e-003
      -9.87650082e-003 -2.87684659e-003 -3.42694409e-002
      -3.83024104e-002 -1.22408848e-003 1.80590816e-003 3.76781099e-003
      4.39895503e-003 5.76215237e-003 -3.84581042e-003 4.25731437e-003
      2.64076255e-002 1.74997337e-002 3.63647961e-003 2.09685485e-003
      1.07569387e-002 -4.00354387e-003 -1.51580451e-002 -8.77551641e-003
      2.53145979e-003 9.54615511e-003 -2.33422872e-003 -1.63977798e-002
      -4.08715918e-004 5.50202909e-004 4.71284892e-003 -9.03523900e-003
      1.27948876e-002 1.26177175e-002 -4.50326093e-002 1.52544919e-002
      -4.40241732e-002 -1.65476929e-002 2.15674471e-002 2.18312312e-002
      -1.09116808e-002 1.78453103e-002 1.26705170e-002 -1.38073252e-003
      -5.76187335e-002 -3.10766585e-002 6.43267715e-003 1.10938763e-002
      -1.72975156e-002 1.51083274e-002 6.25825813e-003 -3.93754952e-002
      1.52717093e-002 1.44265080e-002 8.99936724e-003 -1.58492867e-002
      8.87012761e-003 2.81057972e-002 -4.91094496e-003 -2.33502239e-002
      -1.63767450e-002 -1.73991360e-002 -4.94475663e-003 6.84577832e-003
      -7.50880037e-003 1.48768146e-002 1.12051098e-002 5.52647002e-003
      4.38649533e-003 1.59089193e-002 2.09795516e-002 -2.43468925e-001
      -8.47416092e-003 -4.48144041e-003 9.79940407e-004 4.90237027e-003
      1.23713110e-002 -1.12676471e-002 -1.98713392e-002 -1.18687432e-002
      -7.23358989e-002 -3.51299252e-003 7.84451899e-004 1.61157623e-002
      6.27271878e-003 3.13297808e-002 -4.14107889e-002 -2.34453101e-002
      7.02195941e-003 7.60280236e-004 3.67522836e-002 -3.38768959e-002
      5.36949513e-003 -7.00110570e-003 -8.80123395e-003 4.83911997e-003
      3.28339008e-003 7.48178735e-003 -2.25987122e-003 3.51932198e-002
      1.17459362e-002 -5.35580004e-003 -4.01666109e-003 1.89025886e-002
      -1.14857070e-002 8.53329198e-004 -7.97010027e-003 2.67049531e-003
      1.80278234e-002 -1.03821827e-003 -1.11517706e-003 -5.50423749e-003
      1.61010842e-003 -7.68561801e-003 1.83681643e-003 -2.90002730e-002
      -1.97739340e-002 3.03474884e-003 -1.10586677e-002 1.22600310e-002
      6.43123267e-003 -1.47801219e-002 1.40055111e-002 1.45896208e-002
      8.42978014e-004 2.69437814e-003 -2.60346627e-004 5.95664431e-004
      -3.75993513e-002 -4.48298827e-002 1.23134982e-002 6.25747675e-003
      4.33062157e-003 1.67731196e-003 -5.65433456e-003 3.64696071e-003
      1.45364255e-002 1.85384620e-002 -2.72434410e-002 4.08894196e-003
      3.12875840e-003 -3.17188492e-003 1.39676442e-003 -9.07154463e-004
      -2.84688659e-002 6.69443107e-004 -6.47079246e-003 1.00333160e-002
      2.05802470e-002 -6.57503027e-003 2.52138288e-003 -2.29402818e-002
      -1.28570537e-003 3.01848236e-003 5.99311385e-003 -4.68571763e-003
      -3.00785550e-003 -2.38895882e-002 -3.45136672e-002
      -4.32626856e-003 1.13878353e-002 -2.46611144e-003 -1.34817809e-002
      2.27563884e-002 1.68833360e-002 2.98543455e-004 5.74929826e-003
      2.21735090e-002 8.48751049e-003 -1.94767967e-003 2.61893030e-002
      1.00282952e-002 -2.85182777e-003 -8.21767258e-004 3.10359243e-002
      2.18648952e-003 9.93347261e-003 4.88069886e-003 1.01514598e-002
      1.09618157e-002 6.07109349e-003 1.25627564e-002 2.13204101e-002
      -1.58252828e-002 -6.54442469e-003 1.09069739e-002 2.40644746e-004
      1.20629184e-002 -8.39073677e-003 4.46967967e-003 -1.40370254e-003
      6.30012341e-003 2.17840704e-003 8.31827428e-003 6.52612327e-003
      6.98089693e-003 7.33097689e-003 -1.53717690e-003 4.37031500e-003
      1.39288194e-002 -1.56738458e-003 -5.59036573e-003 -1.41848354e-002
      1.05580995e-002 5.36936857e-002 -6.71428889e-002 5.81977598e-004
      -3.97957396e-003 1.20401448e-002 1.04813790e-002 1.07546104e-002
      6.96328143e-003 8.28214176e-003 -1.38415359e-002 -2.33499636e-003
      1.78420590e-003 9.21026245e-003 -4.63943370e-003 1.15966620e-002
      -1.40823973e-002 -9.41344444e-003 -1.87398319e-003
      -1.94406752e-002 2.75969598e-003 7.14076159e-004 -3.45589709e-003
      8.86123069e-003 1.03342335e-003 1.79373054e-003 -8.39681644e-003
      -5.42219459e-005 1.79038607e-002 -2.71377694e-002 -3.63085838e-003
      7.12489150e-003 -8.10315553e-003 -6.77102385e-003 -7.70695391e-004
      -1.56584214e-002 -2.82766687e-005 -4.51120688e-003 1.33963004e-002
      1.38757564e-002 9.40038357e-003 -6.03928696e-003 7.13933725e-003
      -3.56638199e-003 3.63706076e-003 5.35191549e-003 5.55061456e-003
      2.54950137e-003 7.84616079e-003 -6.63057389e-003 2.70368513e-002
      -1.38767101e-002 -9.67680849e-003 -1.16767753e-002
      -1.66055821e-002 -6.62720716e-003 2.48253029e-002 -1.66345965e-002
      8.33589397e-003 -7.84316659e-003 -2.59147258e-003 -1.63628161e-002
      1.56317353e-002 4.24815528e-003 1.25021236e-002 1.98282185e-003
      8.52406549e-004 -6.98885589e-004 -1.22001506e-002 1.61034819e-002
      -8.08172673e-003 1.84490047e-002 3.60171287e-003 -2.96318103e-002
      1.22501412e-002 -3.08134984e-002 1.90941710e-002 6.92215143e-003
      -1.21879801e-002 1.15884226e-002 -1.89197762e-003 5.57320798e-003
      -5.73313981e-003 2.93033593e-003 -3.93985631e-003 -1.18825082e-002
      1.50358258e-002 8.50361772e-003 8.92232545e-003 -7.61442212e-003
      1.47032235e-002 1.35095306e-002 5.17188236e-002 1.95520204e-002
      -1.78601183e-002 -5.18596440e-004 4.67327284e-003 -1.80989299e-002
      2.23549269e-002 -1.19590084e-003 2.98075769e-002 -1.77847396e-003
      -3.76918563e-003 4.18722769e-003 5.53796708e-005 -7.19219539e-003
      -2.09220517e-002 5.26188239e-002 -1.13650262e-002 7.99668487e-003
      -5.15790703e-003 5.12567163e-003 1.36153807e-003 -7.43454928e-003
      -1.55119859e-002 1.63556300e-002 -1.73338875e-003 -2.41733678e-002
      -3.07600796e-002 1.80191565e-002 -1.25716394e-003 8.05393327e-003
      1.14880353e-002 -1.01764752e-002 -2.90697720e-002 3.32231307e-003
      2.43418626e-002 9.46317520e-003 5.20479912e-003 -4.20211256e-003
      -5.51135803e-004 -1.11496076e-002 1.23059154e-002 -6.84271147e-003
      7.94249866e-003 -6.90134848e-003 -3.12610390e-003 1.65142510e-002
      2.53656860e-002 -8.95708334e-003 -3.23893037e-003 -4.32502013e-003
      -2.52792321e-004 6.84398320e-003 4.39667469e-003 3.47338468e-002
      8.66916962e-003 -1.28098938e-003 -1.24514373e-002 1.33944266e-002
      -4.29405086e-003 8.76396708e-003 9.82438400e-003 -1.59086864e-002
      4.68013482e-003 -9.04746447e-003 9.75968223e-003 -8.26076325e-003
      -1.82420239e-002 -2.66543683e-003 -1.72173530e-002
      -8.70651659e-003 -2.10965909e-002 3.64505383e-003 6.61859429e-003
      3.26273218e-003 -7.92270806e-003 1.02254208e-002 -3.23868264e-003
      -8.42273980e-003 -5.56954322e-003 -3.05875391e-002 1.17009841e-002
      -9.90269519e-003 2.14407556e-002 1.04918582e-002 -3.29582777e-004
      -3.18319118e-003 -1.50497071e-004 -1.93670280e-002
      -1.16587523e-002 5.99451642e-003 -8.34632665e-003 -7.70690106e-003
      -1.01973368e-002 -1.70126520e-002 9.05031990e-003 -6.04462763e-003
      -4.57806885e-003 9.35329706e-004 1.84472539e-002 4.72603645e-003
      1.13215214e-002 6.90860674e-003 1.36411777e-002 -3.73843983e-002
      -3.03123482e-002 2.73761433e-003 -5.81280980e-003 5.71953366e-003
      1.48295960e-003 1.14234332e-002 -1.08414178e-003 -3.20918038e-002
      -1.26881190e-002 -3.03664990e-003 -1.51650161e-002 1.16530098e-002
      -2.44355127e-002 2.97955726e-003 -1.06334742e-002 3.99840623e-003
      -1.56824719e-002 2.09009591e-002 -3.75092286e-003 6.30769832e-003
      1.06799835e-002 -3.46017703e-002 2.15401314e-002 2.14026100e-003
      1.37970718e-002 -1.57659762e-002 3.26769985e-003 4.08539642e-003
      3.57816025e-004 2.28223968e-002 6.06960338e-003 1.98129192e-002
      1.21773481e-002 8.41397047e-003 3.89403105e-002 1.36511791e-002
      3.67046706e-002 -3.41647789e-002 3.96039616e-003 -3.90519714e-003
      -9.04600322e-003 -3.51756666e-004 -1.39638335e-002 1.12022925e-002
      4.88594398e-002 1.03595303e-002 6.00262429e-004 -4.39321739e-004
      1.76193453e-002 -1.88292516e-003 1.27837702e-003 8.06291960e-003
      -2.48747300e-002 -2.40353700e-002 4.04250296e-003 -3.09854001e-003
      2.66519655e-002 -2.02827044e-002 -8.36726930e-003 7.00201467e-003
      2.09165979e-002 4.89887968e-003 -1.79080933e-003 6.76300889e-003
      -1.42072011e-002 1.49943661e-002 9.96636925e-004 -2.91252751e-002
      -3.20404842e-002 1.10995932e-003 8.72328319e-003 3.55200991e-002
      -6.95089111e-003 6.45341817e-003 -2.48372257e-002 5.71394991e-003
      -4.26683435e-003 3.01609444e-003 1.25069143e-002 3.87011212e-003
      -2.80968350e-004 4.22444986e-003 -9.23774205e-003 9.40194260e-003
      -1.30534323e-003 -6.74108230e-003 -1.40556623e-003
      -1.68130435e-002 1.04021989e-002 -2.49358304e-002 -1.99836809e-002
      9.85293649e-003 1.93115545e-003 6.69726264e-003 3.62358266e-003
      3.98030831e-003 -3.16475541e-003 -1.24967715e-003 -1.72796808e-002
      9.15203150e-003 1.31577030e-002 6.11943845e-003 -4.32767579e-003
      -4.75010928e-003 -5.18111233e-003 -7.07914960e-003 6.83749467e-003
      -9.33588669e-003 1.41224191e-002 -2.99400883e-003 4.96272650e-003
      8.27019569e-003 3.92526592e-004 1.47160469e-003 -2.94217118e-003
      2.64427029e-002 1.70157105e-002 2.25162925e-003 2.80762819e-004
      -9.84137319e-003 6.01358339e-003 1.33869657e-003 -1.51375737e-002
      -5.03345393e-003 -1.13142759e-003 -3.23453918e-003
      -5.82361920e-003 1.01757580e-002 9.73441079e-003 -1.43137982e-003
      -4.01341822e-003 -1.42563106e-002 2.10164692e-002 1.09916823e-002
      5.21171838e-003 1.57571007e-002 2.15182058e-003 -4.76200739e-003
      5.43588027e-003 -1.62665290e-003 -3.18640955e-002 1.21939033e-002
      -6.17541722e-004 3.58250760e-003 -2.65041337e-004 -1.89287569e-002
      6.87148375e-003 -7.64745474e-003 7.24812737e-003 -1.87439402e-003
      -9.61503107e-003 8.32562335e-003 1.03101656e-002 -7.27375457e-003
      1.96912941e-002 -1.31379850e-002 -7.39352126e-003 1.50484527e-002
      2.64532835e-004 6.23818440e-003 6.43082988e-003 3.89356655e-003
      2.74391230e-002 -1.64174251e-002 1.43572986e-002 7.30302092e-003
      -3.05991955e-002 -1.95148271e-002 8.39381944e-003 -3.48341593e-004
      1.88567955e-002 1.58794895e-002 4.87516588e-003 4.42593213e-004
      -3.98999080e-003 -9.20017343e-003 7.10585201e-003 3.31598567e-003
      1.51865780e-002 1.39259445e-002 9.85173043e-003 5.73746569e-004
      1.33737980e-003 -9.52704344e-003 -1.22290011e-002 1.39083471e-002
      9.78168286e-003 8.76781438e-003 1.51159521e-002 3.51478835e-003
      8.83394666e-003 4.80544334e-003 1.47983897e-003 -1.61590707e-002
      1.76802874e-002 7.53675913e-003 6.28074631e-003 2.35682670e-002
      -7.13817077e-003 -2.22818926e-002 7.51667982e-003 -1.63238719e-002
      5.04306331e-003 -1.74984857e-002 6.21656794e-003 -9.55072604e-003
      -1.88612402e-003 7.57439015e-003 3.39291198e-003 -4.39627748e-003
      -3.21653001e-002 -1.60831977e-002 1.47394864e-002 4.94005857e-003
      9.05629992e-003 2.43171901e-002 -2.26950739e-003 -1.39343610e-003
      -2.79169600e-003 -2.96359397e-002 -8.11467785e-003
      -5.48899034e-003 1.45408092e-002 1.06449518e-003 -1.54582923e-002
      -3.77556123e-003 2.49650087e-002 -1.38196424e-002 -2.81302375e-003
      2.44456669e-003 1.23831574e-002 1.29524712e-002 1.00026121e-002
      -1.56806584e-003 -2.53991373e-002 1.12619363e-002 6.91748923e-003
      1.04959430e-002 4.48454078e-003 -2.22658645e-002 1.02986731e-002
      -1.03372969e-002 -2.62515917e-002 -3.25892456e-002
      -1.17154839e-002 -5.79969899e-004 -1.76656563e-002
      -1.08986041e-002 1.46317966e-002 1.97408106e-002 -7.82842562e-003
      -3.10306363e-002 1.57049634e-002 -8.55346862e-003 1.11644510e-002
      2.03984529e-002 -9.52475891e-003 1.94168102e-003 -2.13614441e-002
      6.70179352e-003 1.81635711e-002 5.94427390e-003 -8.13977327e-003
      -1.78792663e-002 -4.68972651e-003 1.37762642e-002 -1.63468029e-002
      2.21104641e-003 6.52691862e-003 -2.16858517e-002 3.93916592e-002
      8.33339524e-003 -1.11822616e-002 -5.35143912e-003 2.72289123e-002
      2.12919942e-004 1.71766747e-002 -1.80252828e-002 -1.31656462e-002
      5.97980805e-003 -8.26004427e-003 -2.82667316e-002 1.23880450e-002
      -5.42443711e-003 1.18287781e-003 4.34941985e-003 -5.78821031e-003
      -6.81148283e-003 -7.83924107e-003 -1.03538437e-002 1.98584218e-002
      -5.32478001e-003 1.19528705e-002 5.20988321e-003 1.36320619e-002
      -1.80285815e-002 -5.82416691e-002 3.99414654e-004 -1.03623243e-002
      -6.12871815e-003 2.74689589e-002 -2.08492111e-002 -1.68001205e-002
      -2.77124774e-002 2.37696823e-002 -1.53611610e-002 4.29335237e-003
      -1.39242625e-002 9.16305371e-003 -1.99570898e-002 -1.68495364e-002
      7.15642702e-003 4.98509593e-003 2.58038510e-002 -7.36994902e-003
      1.92536619e-002 1.42945431e-003 1.55530646e-002 -1.28789246e-002
      1.37041416e-002 -4.04086942e-003 5.90142468e-003 4.29100450e-003
      2.31169667e-002 2.17567314e-003 2.40066703e-002 -2.75657587e-002
      4.42590471e-003 1.74113438e-002 -4.48196148e-003 -1.74971092e-002
      -4.43176590e-002 1.31426600e-003 6.68267719e-003 -3.88468243e-003
      -6.37778488e-004 1.08971884e-002 -2.08907183e-002 2.03937255e-002
      3.51499591e-004 -1.41534302e-002 1.08803287e-002 -1.58587042e-002
      2.21280493e-002 1.92866027e-002 0. 5.46160481e-005
      -7.90986419e-003 1.58131041e-003 2.09447704e-002 6.90510962e-003
      5.31705329e-003 -7.72004668e-003 5.32014295e-003 4.58354782e-003
      -6.13186182e-003 -1.17379734e-002 -4.99872770e-003
      -7.30282860e-003 -1.05239395e-002 5.55026671e-003 0.
      -7.98898283e-004 2.59988918e-003 1.04178246e-002 9.02038708e-004
      1.37527259e-002 7.97600579e-003 4.66346927e-003 -8.18581600e-003
      5.82812005e-004 9.05822683e-003 -5.41388243e-003 2.47413130e-003
      0. 3.25089530e-003 3.85072315e-003 1.32376393e-002 6.73679775e-003
      7.43091945e-003 1.49712199e-002 -1.35356318e-002 -1.24971103e-003
      -4.83535510e-003 -3.10920849e-002 -8.62930994e-003
      -9.88024939e-003 -1.14631536e-003 -9.45067499e-003
      -3.08472023e-004 -9.34418989e-004 1.44615620e-002 9.47331171e-003
      9.30131599e-003 8.06200551e-004 7.82949093e-004 2.86855903e-002
      -1.46150487e-002 2.33167894e-002 -4.09862772e-002 -7.60700693e-003
      8.50039721e-003 8.92494060e-003 1.48063479e-002 -1.69570819e-002
      1.45279337e-002 1.13891996e-003 -2.53064279e-002 8.53839330e-003
      7.74674525e-004 -8.04051291e-004 -3.56020313e-003 6.78553386e-003
      1.61141772e-002 9.19363741e-003 1.75314862e-002 2.53317063e-003
      3.94611852e-004 -1.80732403e-002 -5.78883849e-003 -1.02896756e-002
      1.14860013e-002 -2.31878627e-002 6.35403022e-003 -6.25469815e-003
      8.86646812e-005 2.01658681e-002 -5.76217601e-004 3.48074920e-002
      7.00215204e-003 -2.42568348e-002 -1.42987287e-002 1.05982483e-003
      -7.54728215e-003 2.44583236e-003 6.09097350e-003 1.19817182e-002
      3.48286936e-003 -1.16531076e-002 4.94903594e-004 3.95561149e-003
      1.57205947e-002 1.06481267e-002 1.10315960e-002 -1.55315408e-002
      -4.64209616e-002 -3.59096541e-003 -2.83147139e-003 3.35152121e-003
      -1.36681320e-002 4.84311394e-003 1.73788075e-003 -5.04183210e-002
      2.86608096e-002 -6.37295377e-003 -9.81230661e-003 -5.88577380e-003
      1.31980644e-003 -2.11103950e-002 -2.15671142e-003 -1.91461518e-002
      2.16187425e-002 3.99550656e-003 6.58426667e-003 2.35906541e-002
      6.60509942e-003 5.81398699e-003 1.57789863e-003 2.17754077e-002
      -1.95623878e-002 2.13194657e-002 -8.96050967e-003 1.18301408e-002
      -3.29828355e-003 6.03383454e-003 3.42048210e-004 6.02907455e-003
      3.63895111e-003 -4.30573784e-002 -5.30837849e-003 -6.91455934e-005
      1.16655352e-002 -1.26792230e-002 -7.47490255e-003 5.80718415e-003
      5.99011453e-003</_></support_vectors>
  <decision_functions>
    <_>
      <sv_count>1</sv_count>
      <rho>-9.9839855644368924e-001</rho>
      <alpha>
        1.</alpha>
      <index>
        0</index></_></decision_functions></my_svm>
</opencv_storage>
