<?xml version="1.0"?>
<opencv_storage>
<my_svm type_id="opencv-ml-svm">
  <svm_type>C_SVC</svm_type>
  <kernel><type>LINEAR</type></kernel>
  <C>1.</C>
  <term_criteria><epsilon>2.2204460492503131e-016</epsilon>
    <iterations>1000</iterations></term_criteria>
  <var_all>1000</var_all>
  <var_count>1000</var_count>
  <class_count>2</class_count>
  <class_labels type_id="opencv-matrix">
    <rows>1</rows>
    <cols>2</cols>
    <dt>i</dt>
    <data>
      -1 1</data></class_labels>
  <sv_total>1</sv_total>
  <support_vectors>
    <_>
      8.75344034e-003 1.91844404e-002 3.17158513e-002 3.02080363e-002
      -2.51957551e-002 3.28905173e-002 -7.80832022e-003 -3.55377124e-004
      -1.82343666e-002 6.98030973e-003 -1.16858063e-002 2.67880000e-002
      1.01954984e-002 3.86657193e-003 -1.69131104e-002 -6.57022512e-003
      -7.95223564e-003 -4.82863933e-003 1.02490578e-002 3.17283757e-002
      -3.25932913e-003 1.04546519e-002 -5.15390327e-003 1.05678779e-003
      -2.01731338e-003 -6.62727840e-003 -8.69722920e-004
      -1.79280881e-002 9.11619700e-003 -1.30270878e-002 -6.70004217e-003
      1.58073604e-002 -2.10342091e-003 -1.59541517e-002 -1.00303888e-002
      1.55620025e-002 2.22654082e-002 1.38045345e-002 3.36483568e-002
      2.24606190e-002 2.58216169e-002 -2.36897934e-002 -1.75509490e-002
      -2.99255569e-002 -1.20784184e-002 -1.81272265e-003
      -2.66249217e-002 1.37997570e-003 1.05831409e-002 1.33713596e-002
      -3.06584826e-003 1.57035738e-002 3.43980407e-003 -1.22394124e-002
      4.39037289e-003 1.24606835e-002 2.09736195e-003 1.04956655e-002
      1.63147207e-002 -2.97868885e-002 -1.68628003e-002 -4.02243510e-002
      4.59991954e-003 -1.57894399e-002 -9.64264851e-003 1.14624957e-002
      -2.52035614e-002 5.65060135e-003 -4.47375374e-003 2.41529476e-002
      7.70923030e-003 1.37579776e-002 -2.30208617e-002 -1.56456407e-003
      8.04495998e-003 3.84932687e-003 8.41962919e-003 -2.41791550e-002
      -5.77654224e-003 1.12856934e-002 1.33006051e-002 -5.33213392e-002
      3.21606658e-002 -3.36261024e-003 2.40109954e-002 4.95860204e-002
      -2.41970029e-002 -2.03369372e-002 7.36250263e-003 5.17306896e-003
      -1.51446555e-003 -2.24385597e-002 -4.21333825e-003
      -7.32038030e-003 5.05012311e-002 1.22463303e-002 1.64992940e-002
      1.36305587e-002 -9.19714011e-003 2.72267163e-002 -1.60697363e-002
      -1.55455228e-002 -1.51924193e-002 -1.81672741e-002 6.31207228e-003
      -1.70380455e-002 2.26174500e-002 -1.82874165e-002 2.58446503e-002
      -9.76901874e-003 1.23573579e-002 4.20872215e-003 -1.98971312e-002
      -1.00771617e-002 -3.22339647e-002 -1.78168938e-002
      -2.42144708e-003 -7.76440650e-003 -9.58650932e-003 1.26777282e-002
      -2.68039592e-002 2.27920152e-002 4.42739297e-003 1.14974973e-003
      1.06397737e-002 -3.55970173e-004 1.31764151e-002 -5.70642343e-003
      -2.07559019e-002 -1.36744427e-002 1.79155394e-002 4.07553790e-003
      -7.72798015e-003 2.05776244e-002 -1.99653371e-003 -2.73893364e-002
      -1.39079383e-002 4.63803532e-003 -1.47263957e-002 -2.26826873e-002
      -1.78145878e-002 -5.70262503e-003 -7.58761540e-004 6.68628421e-003
      -1.10041238e-002 2.18989216e-002 -2.30231415e-002 9.96194873e-003
      -2.66836560e-003 8.25589709e-003 -3.99999619e-002 6.09346852e-003
      2.19449196e-002 -1.66754965e-002 1.89352334e-002 2.29264461e-002
      -2.66225208e-002 1.60672385e-002 2.29894631e-002 7.46473717e-003
      7.21564889e-003 -1.55742082e-003 5.04777441e-003 4.02706768e-003
      7.76379416e-003 1.84404980e-002 -1.66021883e-002 -9.90097038e-003
      7.81468116e-003 2.98909452e-002 -2.24142782e-002 -9.74112132e-004
      6.56122994e-003 1.52161729e-003 1.14014810e-002 -1.79327920e-003
      1.72180943e-002 1.29037499e-002 -1.89725906e-002 2.33976692e-002
      2.90830657e-002 9.81394667e-003 -1.31069804e-002 1.20936427e-003
      5.72215812e-003 2.04492174e-002 -6.67371321e-003 -3.37725738e-003
      -1.08827315e-002 -2.46499144e-002 3.25608789e-003 5.71241369e-003
      3.00495373e-003 1.34756472e-002 -8.19624402e-003 -1.64326802e-002
      -1.21713644e-002 -5.37664583e-003 -1.27868971e-003
      -1.42181581e-002 1.86245050e-002 -1.33059742e-002 8.77300464e-003
      9.68986005e-003 -3.78243043e-003 8.97525623e-003 1.33740222e-002
      8.73806048e-003 -1.61750102e-003 1.41523452e-002 -1.17660745e-003
      4.09402372e-003 -1.64112113e-002 -7.09258672e-003 9.85385105e-003
      -6.78742025e-003 6.73613045e-003 -4.53416351e-003 6.36116695e-003
      1.18598081e-002 6.43359777e-003 -6.56875642e-003 5.83371753e-003
      -1.12292906e-002 1.07639434e-003 1.37444614e-002 5.26417652e-003
      7.24625913e-003 -6.31659012e-003 -1.71134472e-002 7.28395907e-003
      -1.05169863e-002 -1.65191591e-002 -3.30319116e-003
      -7.74292275e-003 2.86100041e-002 7.44712679e-003 1.38422812e-003
      1.01228589e-002 4.07407014e-003 -2.84679532e-002 1.84016488e-002
      2.94117201e-002 -3.58034763e-003 9.59208421e-003 1.56841837e-002
      1.55617464e-002 6.98572490e-003 2.42738556e-002 8.34923517e-003
      7.58116832e-003 1.44522227e-002 7.13463128e-003 -2.80316663e-003
      6.21913048e-003 -7.56533677e-003 1.19209732e-003 -1.65183619e-002
      3.60081391e-003 9.86607978e-004 1.03479568e-002 -2.77733691e-002
      -1.26821566e-002 2.72190408e-003 2.96440385e-002 6.69733295e-003
      2.29309369e-002 1.39013806e-003 1.91242248e-002 1.50844699e-003
      -2.95379083e-004 -2.26602871e-002 5.70244575e-003 -7.36476062e-003
      1.17790131e-002 -1.97797287e-002 -9.21946391e-003 9.51624534e-004
      1.09091364e-002 -2.31305752e-002 1.14933737e-002 -1.84835289e-002
      5.41157788e-004 3.49034708e-005 -1.86383016e-002 9.30055138e-003
      8.17498565e-003 1.99961732e-003 4.68858052e-003 1.36845438e-002
      1.28490338e-002 -1.11116786e-002 1.82568803e-002 -1.72708351e-002
      1.48401838e-002 -7.29080522e-003 1.85027719e-002 1.91130838e-003
      9.66228638e-003 -3.04492805e-002 8.72494280e-003 5.60473278e-003
      6.20224234e-003 4.63624485e-003 -1.76236276e-002 9.50999931e-003
      -3.57020786e-003 2.53504720e-002 8.96021817e-003 -3.52373570e-002
      6.82296092e-003 1.08325696e-002 5.73340710e-003 7.42673082e-003
      -9.02117696e-003 3.64442216e-003 5.71113219e-003 -1.03720343e-002
      2.52448339e-002 1.21438252e-002 -3.36047597e-002 1.22952973e-002
      1.31937405e-002 -1.31796300e-002 -5.06120175e-003 6.91527780e-003
      -1.55037008e-002 1.06080936e-003 -1.64243151e-002 7.83235021e-003
      2.41668839e-002 -4.13360586e-003 -1.86857153e-002 -3.40327844e-002
      -2.19501983e-002 3.72004439e-003 1.59278568e-002 1.36592090e-002
      -1.12673286e-002 2.61600828e-003 -2.60284380e-003 1.15755643e-003
      -1.44082857e-002 1.51171591e-002 -1.82002727e-002 -2.50895023e-002
      2.71690618e-002 -3.65541480e-003 1.65862869e-002 -4.78000409e-004
      -8.13419931e-003 1.42932972e-002 2.11205799e-003 -4.19046788e-004
      6.02130266e-003 1.18950922e-002 -6.42298837e-004 7.09245214e-003
      1.53498100e-002 5.41424006e-003 5.36775589e-003 -4.74931876e-004
      1.95227377e-002 -2.51670685e-002 2.57661622e-002 -8.26199446e-003
      8.32429063e-003 -1.99260898e-002 -1.65184438e-002 4.98260139e-003
      5.49595570e-003 1.53975002e-002 1.11022536e-002 4.21848008e-003
      -3.26155126e-002 -2.43487861e-003 -4.74884640e-003
      -8.39809421e-003 7.09581422e-003 -1.46562152e-003 -1.65365152e-002
      -7.62660103e-003 6.78310962e-003 -1.81156341e-002 -5.57281002e-002
      -1.82665233e-002 1.29606044e-002 -2.49180663e-002 4.80007799e-003
      -1.12312930e-002 -1.36947269e-002 -6.32384839e-003 8.65586102e-003
      2.37414823e-003 6.31238101e-003 -3.61769972e-003 2.08236859e-003
      1.32110938e-002 1.20745096e-002 2.08846107e-002 -1.84568148e-002
      1.34191439e-002 5.71488170e-003 -1.65186152e-002 2.10378245e-002
      2.64452561e-003 5.38372993e-003 1.15761021e-002 6.95043337e-003
      -4.19878721e-004 1.32484781e-002 -1.58858299e-003 -2.52045579e-002
      1.34162733e-003 -7.45318783e-003 2.69760122e-003 -1.48031591e-002
      4.51511284e-003 6.52993005e-003 8.54440778e-003 -1.12567395e-002
      -3.53394449e-002 1.84718147e-002 1.45522365e-002 -1.37173450e-002
      -8.80697183e-003 -1.01326760e-002 5.61486790e-003 4.21620440e-003
      -7.99490698e-003 4.99612978e-003 5.55814942e-003 -9.86093748e-003
      -2.12438647e-002 -4.98705916e-003 -6.33956352e-003
      -9.54295881e-003 -2.14999355e-002 -3.79299675e-003 2.03545578e-003
      -1.43890514e-003 -1.16407247e-002 8.71026516e-003 1.65443576e-003
      -1.01272240e-002 6.58639241e-003 2.42031086e-002 8.69526807e-003
      1.78632252e-002 1.36649609e-002 4.24959231e-003 9.37912799e-003
      1.25841508e-002 2.98099266e-003 -1.30260261e-002 3.73084098e-003
      8.84377304e-003 -2.98741572e-002 8.47539771e-003 -5.94888767e-003
      -3.97363827e-002 -1.23384187e-003 2.23644916e-002 -1.51638407e-002
      2.71803443e-003 -9.25309397e-003 1.05565030e-003 -5.90504799e-003
      5.22627821e-003 -8.49300623e-003 -1.37846777e-002 -7.56727206e-003
      -1.25373416e-002 -8.69572535e-003 -1.44056929e-002 9.93464421e-003
      -1.73219386e-002 1.09500475e-002 2.60360073e-002 -2.24153176e-002
      2.36969236e-002 2.32286286e-003 -1.30947437e-002 2.25687046e-002
      -9.64162289e-004 -1.59876365e-002 -5.45300497e-003
      -1.69538837e-002 3.72357806e-003 1.06269922e-002 2.75857989e-002
      1.89483836e-002 4.26721387e-003 -1.30725866e-002 2.17243121e-003
      1.64144475e-003 6.18840614e-003 3.11889895e-003 9.14416462e-003
      -1.09073427e-003 -2.57233754e-002 1.51838548e-003 -1.06415004e-002
      5.79877803e-003 1.42983999e-002 -1.09320618e-002 8.66257399e-003
      9.23418067e-003 -1.19106025e-002 1.28874937e-002 -7.76543235e-003
      6.49738545e-003 4.12646960e-003 -1.18742818e-002 -1.44003646e-003
      7.85653107e-003 -1.81148434e-003 1.97479855e-002 -3.29490961e-003
      3.25012486e-003 1.22302612e-002 1.33781228e-002 -1.91893950e-002
      1.16070146e-002 -1.47997858e-002 2.26862170e-002 2.85467715e-003
      6.71843765e-003 2.91793160e-002 1.20525174e-002 -6.97057694e-003
      7.21644424e-003 3.21335183e-003 6.39330689e-003 9.99808311e-003
      -1.87726226e-002 2.72605885e-002 1.12217981e-002 6.87043788e-003
      6.08800026e-003 -1.06468275e-002 2.50546355e-003 8.03172402e-003
      -3.23751904e-002 -2.17723195e-002 1.38222957e-002 -8.19118042e-003
      2.95964861e-003 -1.39567023e-003 -2.16516200e-002 4.34696116e-003
      7.21314596e-003 1.02641694e-002 -1.92218982e-002 -4.17712796e-003
      -1.23625482e-003 -5.06877247e-003 -3.03790551e-002 3.30315321e-003
      -1.26618543e-003 -3.61444708e-003 3.33903581e-002 4.87440964e-003
      6.89694239e-003 -3.05864476e-002 2.56269705e-003 -1.20031647e-002
      1.11391498e-002 -6.46693818e-003 1.17773898e-002 1.19965831e-002
      7.27529824e-003 2.15721456e-003 -2.00169161e-002 1.11372173e-002
      1.73009634e-002 -1.56532265e-002 3.84755293e-003 -2.56244955e-003
      -2.14234293e-002 -1.97357032e-002 8.85007251e-003 7.40935467e-003
      -3.39226127e-002 -5.90863219e-003 3.34257190e-003 -9.42620821e-003
      6.07801310e-004 -1.59897713e-003 -6.22339547e-003 1.03743291e-002
      2.59556156e-002 1.98831293e-003 -1.37160923e-002 -3.23838554e-002
      8.47504567e-003 -4.33970708e-003 1.14232264e-002 -3.60185932e-003
      8.57393444e-003 -1.40832469e-003 -1.16092749e-002 2.25496180e-002
      -1.04554230e-003 -5.98140154e-003 5.84919937e-003 4.34930064e-003
      1.60384718e-002 7.51754409e-003 -2.94172275e-003 -1.60647780e-002
      1.14713758e-002 3.92683223e-002 2.61459593e-002 -4.11574775e-003
      -1.59388259e-002 2.14020605e-003 -8.39741714e-003 -6.12935796e-003
      -5.81969414e-003 7.50018342e-004 -2.71316096e-002 1.20070381e-002
      -1.42906103e-002 -1.28805393e-003 1.75418966e-002 1.14224199e-002
      8.00542720e-003 6.21170038e-003 1.41400313e-002 -5.07980119e-003
      3.29127698e-003 1.08997365e-002 -2.09441292e-003 -1.69025585e-002
      8.14095046e-003 3.70524195e-003 -6.09357934e-003 1.53653631e-002
      1.44240493e-002 1.00406995e-002 -2.39680912e-002 2.41366471e-003
      9.34073795e-003 1.28827887e-002 -1.65182967e-002 -2.52857083e-003
      -6.32570358e-003 4.34690528e-003 7.82933552e-003 -6.57500746e-003
      -7.89268035e-003 4.09390545e-003 5.87006705e-003 -2.58890372e-002
      -1.62075600e-003 -9.68918111e-003 4.34716046e-003 -1.92691851e-002
      -2.28651296e-002 2.15112343e-002 6.14732457e-003 -1.65186971e-002
      2.55313166e-003 -1.65200271e-002 4.61118063e-003 -1.98861863e-003
      1.85535115e-003 -3.50998109e-003 -6.92367973e-003 9.66378953e-003
      8.05607066e-003 -1.48469247e-002 -2.96977698e-003 -2.73871399e-003
      -1.73152406e-002 -1.95205444e-003 8.38042703e-003 -1.11918664e-002
      6.57493994e-003 -2.72958969e-005 1.94464456e-002 -1.31393305e-003
      -1.45940268e-002 -6.49962807e-003 -2.56488565e-003
      -3.25709581e-002 5.88897988e-003 2.08144002e-002 6.82534464e-003
      -7.99486972e-003 -7.56998779e-003 1.97747983e-002 -1.53511658e-003
      -1.16271507e-002 -1.58023853e-002 -1.91199724e-002 2.19561718e-002
      -6.02568407e-003 1.35023240e-002 4.81062988e-003 8.50370992e-003
      -2.67327763e-002 4.75729443e-003 1.04722772e-002 1.39858164e-002
      5.96621353e-003 1.89515005e-003 1.24336174e-002 5.52824745e-003
      -1.61858052e-002 4.65292111e-003 -1.59715880e-002 -1.05093280e-002
      8.56242981e-003 6.49771513e-003 -9.74594150e-003 2.58823577e-003
      8.29131342e-003 -1.57506485e-002 2.39138654e-003 -2.00236235e-002
      2.48827180e-003 4.42820461e-003 6.49671257e-003 7.65643874e-003
      -5.61548537e-003 -1.03001110e-002 3.73501040e-004 1.02508981e-002
      -1.38121545e-002 -1.37714052e-003 -6.57477137e-003
      -1.08633125e-002 1.11809839e-002 2.31953785e-002 2.24524252e-002
      4.85725421e-003 5.11972699e-003 -7.89781380e-003 -1.93281751e-003
      1.39015575e-003 9.11822822e-003 8.06469191e-003 -1.18677933e-002
      -1.74197983e-002 1.11085577e-002 7.06380932e-003 -1.49512589e-002
      -1.54135786e-002 1.26828477e-002 8.46003927e-003 -4.60852589e-003
      3.43525759e-003 2.91879498e-003 7.42386095e-003 6.49675028e-003
      -8.25940538e-003 -2.79188361e-002 2.79822834e-002 -8.82026926e-003
      1.58897154e-002 1.44862328e-002 -1.22860959e-002 -6.02262653e-003
      -5.91251394e-003 -1.12774782e-002 1.57058632e-004 3.96740902e-003
      -2.84569114e-002 2.20630411e-002 1.00160576e-002 -6.82524685e-003
      -9.71339270e-003 -4.30170074e-002 5.55482460e-003 3.89594189e-003
      -1.73591319e-002 -3.54029634e-003 8.19201674e-003 1.29603976e-002
      -2.62248330e-002 3.47384554e-003 1.19217699e-002 -5.21753449e-003
      1.24291470e-002 8.46994482e-003 2.48938426e-003 -2.04186495e-002
      8.54530651e-003 -1.65166054e-002 7.11875549e-003 1.44665344e-002
      -3.31168901e-003 -1.70183498e-002 5.30408323e-003 -1.07450178e-002
      1.20558143e-002 -1.74974406e-003 2.67891563e-003 1.59634687e-002
      5.94592094e-003 -5.72584243e-003 2.56305560e-003 1.20585831e-003
      1.74494358e-004 -2.78847967e-003 -6.27680263e-003 -2.64590811e-002
      -2.10106070e-003 8.21125519e-004 1.89148784e-002 6.49688067e-003
      -2.44448129e-002 7.16379378e-003 -1.65178608e-002 2.75820456e-002
      -2.40066405e-002 -6.76346337e-003 1.48907164e-003 -3.18615930e-003
      1.05403485e-002 -3.25294510e-002 5.49654430e-003 6.02914020e-003
      -3.85984080e-003 -1.10390189e-003 2.09639002e-005 -3.62716219e-003
      -1.70052554e-002 9.87191033e-003 -1.58266153e-003 1.49221197e-002
      2.91436771e-003 1.92807689e-002 1.09407017e-002 -6.61357585e-003
      -6.41755818e-004 -1.08621195e-002 8.67684092e-003 -1.21597564e-002
      3.20472615e-003 6.30777888e-003 -1.26431650e-003 -1.81428138e-002
      4.50894143e-003 5.91004640e-003 -4.90340171e-003 -4.47939802e-003
      8.75824224e-003 2.20826175e-003 -9.57714766e-003 -2.07425691e-002
      1.07851978e-002 -9.25988518e-003 5.24273841e-003 5.13876369e-003
      1.34214200e-002 1.78260896e-002 1.07454257e-002 7.08506117e-003
      -6.23587240e-003 5.21332351e-003 -8.79234355e-003 -2.25295145e-002
      5.93224773e-003 1.06581952e-002 -8.94778036e-003 3.89577704e-003
      -1.60812177e-002 2.07830779e-003 1.00824879e-002 3.20269540e-003
      7.72149954e-003 6.49689371e-003 2.20207423e-002 -9.25565080e-004
      3.37432860e-003 -1.30513944e-002 2.72945389e-002 4.34970716e-003
      -6.11836649e-003 4.23166063e-003 1.53062968e-002 -3.10486350e-002
      5.14909113e-003 6.11891365e-003 -2.77890898e-002 1.81400366e-002
      -5.60389878e-003 -8.33717827e-003 4.53087821e-004 1.36630051e-002
      -1.89747743e-003 -3.36442366e-002 -3.16386903e-003 3.38911894e-003
      -1.53439352e-002 2.98522733e-004 1.29328091e-002 4.63756640e-003
      -8.19189660e-003 -2.17528152e-003 -7.99591653e-003
      -2.16425005e-002 -6.74777757e-003 2.20425855e-002 -1.53861465e-002
      -1.42914811e-002 -3.52729089e-003 -7.67031452e-003 7.00056227e-003
      2.56284536e-003 3.88500188e-003 -1.07455915e-002 1.04727801e-002
      1.54723600e-002 7.96748791e-003 -1.88154075e-002 9.19768773e-003
      -1.65156443e-002 -1.13325752e-002 5.30373259e-003 2.04317155e-003
      1.40657891e-002 -7.21457740e-003 8.17955751e-003 1.55915683e-002
      -5.15167182e-003 -7.59312359e-004 1.52342469e-002 -7.88528530e-004
      -1.22171324e-002 2.72726920e-003 0. -2.07488369e-002
      -5.18549792e-003 1.40485717e-002 7.08393054e-003 7.35285971e-003
      1.70003045e-002 -8.87186266e-003 -4.27281158e-003 -5.21917315e-003
      -2.04890352e-002 6.13130769e-003 8.25719535e-003 -1.61654055e-002
      1.41427834e-002 1.66625120e-002 1.21754324e-002 3.77438846e-004
      5.70094027e-003 1.16760796e-002 1.08240172e-002 -8.89163930e-004
      -5.69623150e-003 1.60844252e-003 3.06435162e-003 -1.39383134e-002
      -5.47253549e-005 -2.36644372e-002 1.14675215e-003 4.57105506e-003
      1.59223583e-002 -9.17273201e-003 -6.71853358e-003 -1.78555548e-002
      2.63089631e-002 -2.31760275e-002 -1.84954107e-002 1.38719361e-002
      5.50352642e-003 -2.44461149e-002 -1.40935439e-003 1.39544345e-003
      -4.22214577e-003 -2.94256229e-002 6.87022926e-003 5.34668844e-003
      1.40881799e-002 -1.34446910e-002 -1.37272039e-002 4.34654765e-003
      -3.22937057e-003 -1.40211626e-003 -6.48915581e-003
      -2.28949473e-003 5.79492701e-003 -1.98064931e-002 -8.64445139e-003
      -8.17571115e-003 -2.09778901e-002 3.98054486e-003 9.92612913e-003
      -1.65174026e-002 9.44872573e-003 5.84608456e-003 1.95389874e-002
      7.24540278e-003</_></support_vectors>
  <decision_functions>
    <_>
      <sv_count>1</sv_count>
      <rho>-9.9361100036065531e-001</rho>
      <alpha>
        1.</alpha>
      <index>
        0</index></_></decision_functions></my_svm>
</opencv_storage>
