<?xml version="1.0"?>
<opencv_storage>
<my_svm type_id="opencv-ml-svm">
  <svm_type>C_SVC</svm_type>
  <kernel><type>LINEAR</type></kernel>
  <C>1.</C>
  <term_criteria><epsilon>2.2204460492503131e-016</epsilon>
    <iterations>1000</iterations></term_criteria>
  <var_all>1000</var_all>
  <var_count>1000</var_count>
  <class_count>2</class_count>
  <class_labels type_id="opencv-matrix">
    <rows>1</rows>
    <cols>2</cols>
    <dt>i</dt>
    <data>
      -1 1</data></class_labels>
  <sv_total>1</sv_total>
  <support_vectors>
    <_>
      -5.48877567e-003 -6.42604707e-003 -5.72750019e-003
      -2.12678928e-002 1.04729244e-002 3.24161886e-003 1.88485738e-002
      4.54987981e-004 5.64869680e-003 -1.78904813e-002 -1.15994513e-002
      5.29856479e-004 2.79848203e-002 -2.38234941e-002 -2.88146693e-004
      4.80665313e-003 -1.30009502e-002 1.22590326e-002 -4.12750058e-002
      -5.65558076e-002 -5.91405900e-003 -3.49672437e-002
      -1.75348260e-002 9.60887223e-003 1.33381914e-002 -3.86913754e-002
      -2.25631148e-003 1.55724427e-002 4.94997129e-002 2.11706366e-002
      3.81483287e-002 7.34610076e-004 -2.01326120e-003 6.90943450e-002
      2.62324326e-003 1.27509991e-002 2.89341304e-002 3.54185551e-002
      1.41075673e-002 2.05944497e-002 -3.01382854e-004 -1.86492444e-003
      -1.88944358e-002 2.20010486e-002 -1.37024475e-002 -2.48280875e-002
      1.33461030e-002 1.30935879e-002 1.23698981e-002 3.82052138e-002
      -6.14158949e-003 -1.55171724e-002 -1.81983691e-002 8.66689533e-003
      -4.90243584e-002 3.75033356e-003 5.66008966e-003 3.41801308e-002
      4.47434001e-003 8.33411608e-003 -1.93769466e-002 -1.52351120e-002
      4.06577764e-003 1.26904985e-002 3.00064008e-003 1.83596136e-003
      4.48733056e-003 1.48213459e-002 4.30178046e-002 1.91626754e-002
      1.18720382e-002 1.98278576e-002 -2.78364634e-004 -2.45249178e-003
      2.82814563e-003 -1.28006376e-002 -1.03982016e-002 2.46820971e-003
      1.79998167e-002 1.23142479e-002 1.75171383e-002 8.09626002e-003
      -3.54743861e-002 2.22196095e-002 -4.16482659e-003 -2.21015997e-002
      2.52297204e-002 3.49538364e-002 1.16149159e-002 0. 5.98218013e-003
      -4.34892215e-002 7.90509221e-005 -3.00324783e-002 -4.07121703e-002
      -6.64925436e-003 8.52816179e-003 -7.08871754e-003 -3.47690424e-003
      -4.26144665e-003 -4.34308895e-004 -1.03793191e-002 2.34170891e-002
      3.49811614e-002 -2.78870575e-004 -2.27783136e-002 1.04193529e-003
      -2.25503854e-002 -1.93966524e-004 1.87139679e-002 -1.02888355e-002
      -1.56423207e-002 -1.31446058e-002 1.28753893e-002 2.19086725e-002
      1.72068807e-003 2.41973624e-002 4.20163013e-002 -3.49362986e-003
      -2.65591573e-002 1.15276920e-002 4.96852817e-003 2.19731056e-003
      -2.49364041e-002 -1.84068885e-002 2.39520869e-003 9.22294054e-003
      7.54217571e-003 -1.91099085e-002 -3.74327041e-003 -1.48997875e-002
      7.75431376e-003 1.62523668e-002 1.36551643e-002 -5.42352383e-004
      6.34228671e-003 -2.17936444e-003 6.29592873e-003 1.32517740e-002
      3.36077437e-003 -9.18375514e-003 -1.53983606e-003 1.32991560e-003
      1.49425827e-002 9.76267923e-003 3.71893719e-002 2.57878029e-003
      -4.50994857e-002 -4.99060191e-003 8.26291274e-003 -5.40949078e-003
      1.61134917e-002 3.17850756e-003 3.57128084e-002 6.00635214e-003
      -7.66669633e-003 7.58422026e-003 1.70325506e-002 -3.27880657e-003
      4.84381430e-003 2.30665747e-002 1.07732625e-003 -2.52270233e-002
      1.53999636e-002 -1.49342259e-002 1.63537264e-002 -2.16773190e-002
      -7.41861435e-003 -1.39020272e-002 2.16148160e-002 -1.60153229e-002
      1.14571741e-002 4.76227142e-003 -2.80933711e-003 -8.86843167e-003
      5.46150329e-003 -5.77197969e-002 -1.58557808e-003 1.59187969e-002
      -1.48902936e-005 1.08467769e-002 8.31102114e-003 -6.09976575e-002
      -7.06801936e-003 7.38246506e-003 3.00858840e-002 5.47892461e-003
      -1.34930443e-002 -5.50884120e-002 8.84125009e-003 1.35061517e-002
      -3.53565700e-002 1.09613184e-002 1.64195709e-002 4.89663007e-003
      1.67728290e-002 -3.99157181e-002 4.78666136e-003 -7.84883089e-003
      2.26135217e-002 -2.06484981e-002 2.90747080e-002 -3.65453656e-003
      2.52229497e-002 -7.03206984e-003 -7.80617073e-002 -9.59244266e-004
      -1.64072597e-004 -3.39843445e-002 1.60986762e-002 1.53045589e-002
      -2.82754898e-002 -3.75131494e-003 -1.28196017e-003 1.39415246e-002
      -5.97765073e-002 2.11872831e-002 2.28041913e-002 1.36393253e-002
      5.36874635e-003 3.02600511e-003 -2.51579238e-003 -2.78167650e-002
      9.27828811e-003 6.94096740e-003 2.76072207e-003 4.91603184e-003
      1.12847546e-002 -2.63780858e-002 1.87747981e-002 -2.32633706e-002
      1.83807928e-002 6.41589845e-003 -2.68688356e-003 1.26746101e-002
      0. 1.32763265e-002 2.13486124e-002 9.02399980e-003
      -1.67134311e-002 7.06132269e-003 7.69254169e-004 1.25043662e-002
      1.23378644e-002 -9.78937652e-003 1.17262974e-002 -1.02775339e-002
      8.57979059e-003 8.56085587e-003 -1.35858022e-002 1.08554447e-002
      -1.93811059e-002 1.27763664e-002 2.16330513e-002 -1.61825381e-002
      1.23507166e-002 7.46747572e-003 -6.54684426e-003 -5.28423525e-002
      1.66335870e-002 -4.91542136e-003 1.74170285e-002 -1.54842138e-002
      1.91890933e-002 5.21854125e-003 -5.26645381e-005 7.26283388e-003
      1.70326866e-002 1.38659226e-002 -1.29096746e-003 2.46348674e-003
      2.57117022e-002 1.52119175e-002 -1.23169636e-002 2.99138483e-002
      2.47769523e-002 2.09335871e-002 2.13491521e-003 -5.36671793e-003
      1.33427856e-002 5.89817623e-003 2.69472208e-002 1.04297111e-002
      1.30205194e-003 2.18661223e-003 -5.70298173e-003 8.73034168e-003
      1.91990356e-003 1.33515308e-002 1.04635675e-002 -3.04979235e-002
      1.16358243e-003 1.11650983e-002 0. 1.11134222e-003 1.02409096e-002
      2.11819839e-002 -2.96803843e-003 4.37770039e-002 -8.25983938e-003
      -8.44426360e-003 4.63917293e-003 -2.93604136e-002 -2.40584792e-004
      -3.32213901e-002 1.64307095e-003 2.07086047e-003 -7.61351036e-003
      8.30898155e-003 1.61857193e-003 -1.89924464e-002 1.19838063e-002
      7.44359510e-004 -2.46157516e-002 7.67762633e-003 6.61002938e-003
      -2.12668031e-002 -6.90798685e-002 -1.33727510e-002 1.97306573e-002
      2.33897027e-002 2.12003961e-002 3.81903723e-002 -6.08912949e-003
      -4.46468312e-003 1.75230987e-002 2.57864594e-003 2.80883745e-003
      2.67101661e-003 5.40312100e-003 1.45963682e-002 1.38001312e-002
      3.99452215e-003 -8.51384737e-003 8.71025026e-003 1.58109125e-002
      4.81935404e-003 -1.77003946e-002 -9.25348722e-004 1.17678298e-002
      3.13408556e-003 7.34761404e-003 1.65158659e-002 -3.56073827e-002
      6.15403848e-003 3.92873539e-003 -6.42077764e-003 -2.69880258e-002
      -8.22184701e-003 -1.91490122e-004 -6.32625073e-002
      -1.23961568e-002 1.56832282e-002 -3.95907648e-003 3.13650258e-002
      -1.97713566e-003 -7.16937426e-003 2.21221577e-002 7.85945635e-003
      5.91738895e-003 7.62861827e-003 -4.36199969e-003 1.61866974e-002
      2.63009779e-003 1.97161846e-002 1.71851050e-002 5.47051337e-003
      -3.61887589e-002 -9.64847580e-003 -2.64722761e-003
      -3.47725712e-002 1.90584492e-002 -7.95814674e-003 -8.91924277e-003
      5.06044889e-005 -5.21631315e-002 -2.71980856e-002 1.39885424e-002
      2.70549278e-003 -1.92605406e-002 -2.15269439e-002 8.01949389e-003
      1.21300397e-002 -6.86843246e-002 8.54478963e-003 -2.99554598e-003
      -1.94984078e-002 1.18806548e-002 -1.32272113e-002 -1.82026811e-002
      -5.21290936e-002 8.85567721e-003 -1.32231053e-003 -1.34616578e-002
      2.41476148e-002 5.27781015e-003 2.94226198e-003 -9.45068151e-003
      1.78594831e-002 0. 3.20162182e-003 -2.26795431e-002
      1.62065793e-002 3.03342175e-002 -1.74637865e-002 1.11344585e-003
      -2.23853756e-002 -8.99121631e-004 1.54197142e-002 2.21904535e-002
      -2.30133440e-002 -2.06585657e-002 6.84509007e-003 3.94920185e-002
      -2.07241289e-002 1.54184662e-002 3.81116867e-002 1.00549376e-002
      7.37214112e-004 -7.88120087e-003 1.67857055e-002 -9.34873521e-003
      1.74813885e-002 2.87139565e-002 8.60017072e-003 4.13964540e-002
      -6.03308640e-002 -1.77448504e-002 4.06895159e-003 9.10808146e-003
      -7.51821231e-003 -4.08557989e-002 -1.52683835e-002
      -2.97431238e-002 -1.22243604e-002 -1.40172779e-003 2.17246767e-002
      -1.05109848e-002 -6.99047116e-004 4.56263032e-003 3.69712547e-003
      2.05396935e-002 -4.28993953e-003 -8.73785838e-003 -3.71619035e-003
      2.17683637e-003 1.01846345e-002 8.40347260e-003 -1.12528251e-002
      3.62489140e-003 -8.94151814e-003 -2.43921131e-002 -9.68328677e-003
      -1.55999954e-003 3.90459481e-003 1.99243259e-002 2.10168376e-003
      1.40482439e-002 1.58593860e-002 4.19918783e-002 -6.08373806e-002
      -7.30993506e-003 8.17804970e-003 2.64705927e-003 -4.46226820e-003
      -2.12593544e-002 -2.46710461e-002 -4.46622167e-003
      -5.29886875e-003 -2.34436002e-002 -3.16829910e-003 1.01417173e-002
      3.22401002e-002 -4.50726645e-003 5.35835279e-003 -1.07663842e-002
      6.91610435e-003 5.66841196e-003 4.89644753e-003 5.89991629e-004
      -4.10774816e-003 8.67951568e-003 1.42156798e-003 -6.84338389e-003
      2.87134182e-002 -1.64401223e-004 -1.26124098e-004 -2.01097373e-002
      2.53223302e-003 2.78539099e-002 -7.31273228e-003 -2.58545578e-003
      1.17112640e-002 -5.44244831e-004 9.44145583e-003 1.70351677e-002
      8.45343713e-003 1.17779858e-002 4.83082654e-003 2.52245413e-003
      1.38666471e-002 2.39570066e-002 3.19949863e-003 -2.05465080e-003
      1.21422193e-003 4.86236019e-003 1.50737129e-002 5.50012290e-003
      1.57030728e-002 -1.38936331e-002 3.46236862e-003 3.48009664e-004
      -1.48773678e-002 1.22374706e-002 -1.57055780e-002 1.42980637e-002
      -2.27551796e-002 1.13716479e-002 4.70611779e-003 -1.09746866e-002
      1.01020942e-002 1.56873334e-002 -3.64640243e-002 1.22018466e-002
      2.42128316e-003 1.28424512e-002 -6.54313900e-003 -7.51196919e-003
      -2.94771465e-003 -3.51639697e-003 1.74032263e-002 1.40036652e-002
      8.06064066e-003 7.02886982e-003 -5.28044580e-003 -1.40562076e-002
      -2.09006798e-002 -7.66995596e-004 -7.59089971e-003
      -2.61555053e-003 1.58218723e-002 -1.20040309e-002 7.94340856e-003
      2.48152260e-002 1.29665723e-002 -4.81426204e-003 7.35683693e-003
      3.32411677e-002 -2.22159047e-002 -1.56080360e-002 -7.08639668e-003
      6.73284009e-003 4.79837740e-003 1.99583033e-003 1.23903854e-002
      -1.70606356e-002 -8.06923397e-003 1.36844558e-003 9.82142240e-003
      1.15102194e-002 7.66702648e-003 -3.29226698e-003 1.57406535e-002
      -6.04293495e-002 -4.29792330e-002 2.77178781e-003 -4.57992144e-002
      -9.16842744e-003 -5.09048346e-003 -2.00629178e-002 3.08738090e-003
      -1.71885826e-002 1.58529785e-002 7.22646713e-003 1.08098295e-002
      3.90990498e-003 6.27688784e-003 -6.63902238e-003 1.67561248e-002
      -1.50618544e-002 5.02350647e-003 -7.56047443e-002 -1.27334353e-002
      -1.89583586e-003 3.28780338e-002 4.17871736e-002 2.79056677e-003
      -1.37013281e-002 -4.46380489e-003 -3.84296924e-002
      -1.62451398e-002 2.43342742e-002 1.30057679e-002 2.27909833e-002
      -2.03695726e-002 1.42630907e-002 1.97303500e-002 -5.17664058e-003
      1.47423651e-002 -1.64691489e-002 -1.72366723e-002 1.68835223e-002
      2.39436217e-002 -9.37202666e-003 1.74992494e-002 1.42327156e-002
      2.22150236e-002 -2.51767645e-003 -4.59208764e-004 6.30920287e-003
      5.57949580e-003 -1.00869415e-002 1.78174712e-002 -3.67521029e-003
      -9.44436062e-003 9.00149532e-003 6.29925635e-003 -2.87591759e-002
      -2.11156090e-003 -3.79236639e-002 -1.73410084e-002
      -1.84304342e-002 7.24873785e-003 -9.89243481e-003 -2.08797548e-002
      -5.87060908e-003 -1.84555314e-002 -2.75600515e-003 3.38937528e-003
      -1.55295199e-002 8.44802707e-003 -4.32985881e-003 -4.68621999e-002
      9.40350350e-003 2.38128975e-002 -3.44460420e-002 2.27040388e-002
      -2.94163544e-003 -3.37049551e-002 5.37024252e-003 -1.10124089e-002
      -1.15796663e-002 -1.54853305e-002 -1.46611757e-003 1.99498553e-002
      2.64091361e-002 -1.28323324e-002 2.94618066e-002 -6.55592477e-004
      6.83793100e-003 -1.35012893e-002 -2.49686674e-003 1.01659279e-002
      -6.10349094e-003 1.32680906e-003 -3.57116759e-003 1.38195232e-002
      7.66498083e-003 -1.96449570e-002 -2.08496414e-002 -1.28259324e-002
      -5.08043692e-002 4.22019628e-004 -3.31035303e-003 2.82364711e-003
      -1.56730153e-002 3.74212512e-003 3.45208980e-002 1.41795808e-002
      1.23397179e-003 1.02024302e-002 1.58934165e-002 1.10666659e-002
      -1.04032615e-002 2.95713637e-002 -1.55249769e-002 1.30997435e-003
      6.93939859e-003 8.30995478e-003 3.13433632e-002 3.47579420e-002
      2.44905297e-002 2.26836465e-002 2.21645944e-002 7.61034200e-003
      5.32113295e-003 -6.77599665e-003 1.66854542e-002 1.55492304e-002
      9.11660586e-003 1.65299438e-002 -1.32346908e-002 -3.21780853e-002
      -1.02852374e-001 2.05170009e-002 1.87784173e-002 7.15171359e-003
      -2.06060968e-002 1.10290647e-002 -3.83937173e-002 -2.28965865e-003
      -9.19179898e-003 4.59211133e-003 1.14620272e-002 -2.11210232e-002
      1.52624585e-003 1.78453214e-002 -3.67082702e-003 2.16739886e-002
      -1.42374067e-002 2.41482742e-002 -1.56924427e-002 -1.11564798e-002
      -8.87979008e-003 1.72209460e-003 -4.75138752e-003 -6.71193972e-002
      1.39028765e-002 1.99283920e-002 4.52610012e-003 1.64032001e-002
      -1.06196739e-002 8.57326761e-003 8.97038914e-003 -2.95521924e-003
      -2.21847463e-002 -9.65179130e-003 6.50222704e-004 9.73097794e-003
      -8.41435231e-003 -1.09167956e-003 -3.54518928e-002 8.66886135e-003
      -3.87940579e-003 -3.08315706e-004 2.18761265e-002 -1.24249356e-002
      8.60928965e-004 1.60534994e-003 -3.48249357e-003 -5.72910113e-003
      1.00937728e-002 -2.89470982e-003 -9.14135948e-003 -6.23474177e-003
      2.75902264e-002 1.57927386e-002 -1.62554681e-002 1.68176014e-002
      -4.81734984e-003 1.74774404e-003 7.23525241e-004 8.65302142e-003
      2.69559622e-002 1.06572313e-002 -3.46089504e-003 8.42762366e-003
      1.68383657e-003 -2.29276083e-002 8.13919678e-003 3.07714306e-002
      -3.22019588e-003 5.72733488e-003 8.88518430e-003 -1.45541523e-002
      -2.00419920e-003 6.67095790e-003 8.87423567e-003 1.12889251e-002
      -1.68776084e-002 3.01065110e-003 2.22958345e-002 4.02959473e-002
      -2.94806603e-002 3.45472572e-003 2.81123109e-002 -1.32579869e-002
      2.70542852e-003 2.97946185e-002 1.90641116e-002 -6.30349964e-002
      -1.22794835e-003 4.42976244e-002 2.79811560e-003 1.01606753e-002
      2.12546531e-002 6.63396018e-003 1.47131765e-002 -5.12475800e-003
      2.83914041e-002 -2.80022621e-002 2.28380263e-002 1.91388873e-003
      6.49114745e-003 2.61690728e-002 -7.14350084e-004 -8.33762717e-003
      4.81840130e-003 -1.21151023e-002 5.31366142e-003 1.48945078e-002
      2.02099271e-002 -1.41555183e-002 -9.63753834e-003 9.41483676e-003
      -1.49887372e-002 2.61743795e-002 2.41958704e-002 -4.20372840e-003
      -7.69291166e-003 -4.62579913e-003 -1.67132337e-002 5.11693116e-003
      7.80793326e-003 -7.88737088e-003 4.70706541e-003 2.26702709e-002
      5.84259105e-004 -6.67427760e-003 -3.94042395e-003 3.87404626e-003
      -3.34994234e-002 1.64923184e-002 -1.57432538e-002 2.23114435e-002
      2.46587582e-003 2.31536478e-003 1.07676731e-002 -2.91168112e-002
      1.85650196e-002 1.07466839e-002 1.15311965e-002 -1.85360610e-002
      1.12300478e-002 2.24167365e-003 -2.05372684e-002 1.42097967e-002
      -9.85669531e-003 -2.73921378e-002 5.72016509e-003 9.19264799e-004
      -1.82262473e-002 2.46083289e-002 1.35380449e-003 -4.09272546e-003
      6.83261547e-004 1.74758292e-003 -1.42940597e-004 -1.82809625e-002
      1.35220829e-002 -3.60187404e-002 -3.47793624e-002 -2.82986648e-002
      4.63886280e-003 2.20615491e-002 1.34179937e-002 7.16992468e-003
      -4.32714149e-002 2.10703607e-003 1.62072424e-002 -1.08020995e-002
      -1.38343675e-002 1.50613496e-002 1.67730718e-003 1.54346703e-002
      -1.00653805e-002 8.84388201e-003 9.52353794e-003 -3.81511301e-002
      3.31176142e-003 3.72994877e-003 2.14069672e-002 -2.42522079e-002
      4.10074815e-002 -2.88630631e-002 1.54199125e-002 -1.38252154e-002
      9.37085226e-003 -2.61339154e-002 1.49889523e-002 -3.76270991e-003
      2.18600258e-002 1.57822482e-002 -4.49198069e-006 1.10717146e-002
      -9.15097296e-002 9.56712756e-003 -2.22760160e-002 8.53394810e-003
      -4.12280485e-002 7.41217379e-003 1.02577603e-003 -2.33110413e-003
      -1.84687935e-002 -3.61358491e-003 1.49353768e-003 9.83855501e-003
      1.62639301e-002 -8.52292310e-003 -1.40958223e-002 -5.95213771e-002
      -3.35464999e-003 1.90950409e-002 8.31494574e-003 -6.17516274e-003
      -3.11858021e-003 1.65807251e-002 -4.62972466e-003 2.66503878e-002
      -3.60503905e-002 -2.51887366e-002 1.36884646e-002 4.03099274e-003
      1.01665910e-002 7.96170847e-004 7.75345089e-003 5.47977490e-003
      9.52795614e-003 8.49632546e-003 5.70398103e-003 3.37416679e-002
      5.12416288e-003 -3.07146031e-002 -1.92907955e-002 2.85693333e-002
      -1.25485072e-002 -2.15064995e-002 1.21569801e-002 1.16164535e-002
      -2.83755232e-002 -7.00076483e-003 1.73005387e-002 1.44260535e-002
      1.57354362e-002 -2.18368191e-002 3.83635191e-003 2.39211004e-002
      3.90490703e-003 -3.98784243e-002 -2.83993483e-002 1.28456866e-002
      -4.13941890e-002 3.36661632e-003 -2.52040848e-002 1.16563938e-003
      2.27954183e-002 1.99300461e-002 8.71558394e-003 -1.46486619e-002
      -3.53402435e-003 1.60100907e-002 -2.14290842e-002 -1.84405129e-002
      -1.05273724e-002 1.30712579e-003 2.70103458e-002 5.16888034e-003
      -1.55392308e-002 1.19967256e-002 -2.20162012e-002 1.18173556e-002
      -1.83091927e-002 -6.74586836e-003 4.68473956e-002 -1.91126429e-002
      -6.01096451e-003 -2.96168718e-002 -4.08020914e-002
      -6.40583411e-002 9.52011347e-003 4.72284068e-004 -3.38406041e-002
      -2.03065644e-003 1.00007316e-003 1.19538959e-002 1.99615657e-002
      5.40262414e-003 1.38453869e-002 -8.54905404e-004 -7.41314515e-003
      7.24287890e-003 -1.03586819e-003 -2.40031723e-002 2.18469985e-002
      -1.65183395e-002 9.10544209e-003 -2.23549306e-002 -3.73953930e-003
      -1.46571202e-002 1.09152691e-002 -6.22627977e-003 -1.23051426e-003
      9.17430595e-003 -4.18147929e-002 9.62725002e-003 -5.14216116e-003
      -3.38895153e-003 3.62631422e-003 0. 0.</_></support_vectors>
  <decision_functions>
    <_>
      <sv_count>1</sv_count>
      <rho>-9.9646852273592934e-001</rho>
      <alpha>
        1.</alpha>
      <index>
        0</index></_></decision_functions></my_svm>
</opencv_storage>
