<?xml version="1.0"?>
<opencv_storage>
<my_svm type_id="opencv-ml-svm">
  <svm_type>C_SVC</svm_type>
  <kernel><type>LINEAR</type></kernel>
  <C>1.</C>
  <term_criteria><epsilon>2.2204460492503131e-016</epsilon>
    <iterations>1000</iterations></term_criteria>
  <var_all>1000</var_all>
  <var_count>1000</var_count>
  <class_count>2</class_count>
  <class_labels type_id="opencv-matrix">
    <rows>1</rows>
    <cols>2</cols>
    <dt>i</dt>
    <data>
      -1 1</data></class_labels>
  <sv_total>1</sv_total>
  <support_vectors>
    <_>
      7.24250393e-004 1.58866053e-004 -1.74696762e-002 9.12111136e-004
      7.44162593e-004 -1.39071461e-004 1.64278230e-004 6.32171461e-004
      -1.53453462e-003 1.69124134e-004 1.34695612e-003 3.20131099e-003
      9.28023015e-004 4.62676352e-003 1.71826291e-003 3.97519034e-004
      -6.00506598e-003 6.22723092e-005 3.15169571e-003 -7.52460735e-004
      1.27146835e-003 3.10264225e-003 1.33248966e-003 -1.91971179e-004
      1.90463732e-003 3.62199615e-003 2.55181734e-003 2.41972855e-003
      1.63395517e-003 1.16128230e-003 1.37200259e-004 1.84951772e-004
      6.14704448e-004 3.96848118e-005 5.77738625e-004 7.60558294e-004
      2.82799383e-003 9.12347226e-004 1.56124064e-003 9.45593754e-004
      -4.43758508e-005 4.95404145e-003 8.14241881e-004 4.57128510e-003
      -3.88699770e-003 -1.55133544e-003 3.05876019e-003 1.41158921e-003
      3.33265198e-004 4.69390419e-004 4.72403226e-005 1.97861649e-004
      6.12818694e-004 3.83089180e-003 2.75296392e-004 2.58239801e-003
      5.56704821e-004 8.47375311e-004 2.88600614e-003 2.74490635e-003
      6.88828237e-004 3.81286336e-005 -6.18353653e-008 1.17495214e-003
      5.90236392e-004 -2.09339038e-002 1.06812885e-003 4.62167409e-005
      -4.01767436e-004 -2.91536708e-004 1.31423050e-003 3.46908811e-003
      5.21052303e-003 7.44062825e-004 2.88558798e-003 -4.93020657e-003
      4.47377124e-006 9.78299417e-004 1.24478960e-004 -7.17534451e-004
      9.31093562e-003 1.12084555e-003 -1.88020635e-002 1.91869261e-003
      1.17930223e-003 8.93632474e-004 3.93736089e-004 1.05827115e-004
      2.77398562e-004 -1.71589851e-002 -3.10512469e-003 4.56086302e-004
      1.16703653e-004 3.45420645e-004 -5.54683560e-004 -1.44703286e-002
      -6.87364445e-005 -1.74638859e-004 1.10646815e-003 1.39728852e-003
      8.45272269e-004 7.85460088e-006 2.81268585e-004 2.37622095e-004
      1.83715863e-004 2.88251787e-003 2.76003173e-003 1.50346360e-003
      -2.99499929e-003 1.79966190e-003 7.45060854e-004 7.51663247e-005
      1.61523884e-003 4.56600043e-004 -2.22947262e-003 1.45397917e-003
      2.14601052e-003 1.26808917e-003 1.40067341e-003 1.40849181e-004
      9.05243738e-004 -1.24481472e-003 3.43252876e-004 5.68580348e-004
      -7.68794166e-003 3.89611628e-003 5.74676960e-004 1.84400717e-003
      1.74743147e-003 2.38218182e-003 5.78537118e-004 0. 6.22352643e-004
      1.04366441e-003 7.65906239e-004 -4.14300151e-002 1.74311543e-004
      1.86708698e-003 2.03486998e-005 1.17907755e-003 1.20225937e-004
      4.80105693e-004 2.38585053e-003 1.40918652e-003 6.00411382e-004
      7.22110344e-005 1.29619963e-004 0. 5.12750819e-004 3.36976931e-003
      3.83506459e-003 4.59198188e-003 1.09752361e-003 2.69595464e-003
      3.01811192e-003 2.94548552e-003 1.01006990e-002 9.28416208e-004
      3.88955139e-003 7.53127271e-004 1.68501562e-003 1.83771923e-003
      7.79371185e-004 -2.35571526e-003 2.11898494e-003 -1.54370079e-002
      8.11725273e-004 7.35957583e-004 2.25518295e-003 7.52733846e-004
      1.36251864e-003 8.72055825e-004 1.41833490e-003 2.39406829e-003
      3.80659621e-004 4.12897347e-003 1.35570462e-003 1.04317756e-003
      4.48347273e-005 -1.45448772e-002 -5.36879897e-003 1.95442379e-004
      7.35267648e-004 8.40596098e-004 2.28128373e-003 1.38604548e-003
      -1.36621972e-003 8.71022698e-004 4.02616606e-005 6.97412412e-004
      9.41600651e-004 2.11861683e-004 2.95245438e-004 4.83129261e-004
      6.21615072e-006 0. 9.24085252e-005 1.56462728e-003 1.36861589e-003
      8.02689989e-004 -6.90100528e-003 1.18283555e-003 5.33440441e-004
      2.79069622e-003 1.16882077e-003 1.66937200e-004 6.19236031e-004
      1.22359983e-004 1.11835927e-003 5.77290601e-004 4.47693572e-004
      -1.37935020e-002 1.08735031e-003 5.26369549e-005 7.04300983e-005
      1.44945952e-004 3.00628482e-004 6.70610403e-004 4.61903874e-005
      1.99798567e-004 1.03878358e-003 2.87679322e-005 4.42756136e-004
      2.00176844e-004 3.70426895e-003 -2.62533827e-003 1.12792337e-003
      3.59382830e-004 1.25941134e-003 5.90468771e-005 1.58246758e-003
      2.99892763e-005 0. 1.68260231e-004 2.77037942e-003 3.60385608e-003
      4.15620423e-004 -2.05067266e-002 0. 2.37981058e-005
      6.86964835e-004 -3.51955066e-004 -3.59517988e-003 1.46196267e-004
      7.10122928e-004 2.91918346e-004 1.24194904e-003 8.47501724e-005
      -1.44583611e-002 5.45025978e-005 -5.44969167e-004 1.44319871e-004
      0. 5.76407183e-004 9.56575241e-006 4.80155548e-004 4.37125156e-004
      0. 0. 2.25076824e-003 4.07587882e-004 1.16289163e-003
      4.41031298e-003 -1.57274376e-003 -4.15540533e-003 6.19248080e-004
      2.69392243e-004 0. 1.07514410e-004 3.06984968e-003
      -3.84861662e-004 1.45515928e-003 -1.87598225e-002 2.87769333e-004
      -1.53766638e-002 1.41664315e-003 1.08137698e-004 1.79583766e-003
      4.73231106e-004 6.04482775e-004 3.26966925e-004 0. 6.82885075e-005
      1.03765063e-003 2.38119101e-004 -4.68699407e-004 8.98786413e-004
      1.75002753e-003 1.33942300e-003 0. -3.34632496e-004
      1.14838465e-003 2.39988952e-003 9.36409459e-004 2.30665813e-004
      1.04330445e-003 1.75050925e-003 1.43204094e-003 2.33626881e-004
      -4.31920728e-003 9.59172248e-005 3.00451065e-003 1.34112791e-003
      3.45637882e-003 4.93834261e-004 -6.50970469e-005 -1.87669229e-006
      8.18240864e-004 1.29562744e-004 1.17170135e-003 2.47524609e-003
      3.39470513e-004 5.09676407e-004 6.75565214e-004 1.62698189e-003 0.
      1.87898579e-004 7.49968807e-004 2.86367303e-003 0.
      -7.70360421e-005 4.37178416e-004 1.07335822e-004 1.38377014e-003
      1.21936946e-005 -1.32242449e-005 1.03665318e-003 1.07261803e-004
      2.39507572e-004 1.12546387e-003 -1.52410171e-003 -1.04933533e-004
      2.68622534e-004 2.36825639e-004 1.66222348e-003 3.59652750e-003
      1.27281679e-003 7.79416005e-005 8.91591189e-004 2.79817474e-003
      4.17193398e-004 6.74122348e-005 4.76219255e-004 1.61992037e-004
      -3.58875212e-003 5.02858078e-004 1.57869887e-004 1.03792583e-003
      2.37250468e-003 1.81241392e-003 8.28997407e-004 2.39885485e-005
      4.91015846e-004 3.16337217e-004 -5.86324953e-004 1.76009955e-004
      2.84175650e-004 5.15241627e-005 -8.35285336e-003 0. 0.
      4.18372033e-003 -4.99898847e-003 2.28978359e-004 -1.04770772e-002
      0. -2.52543110e-003 5.51232661e-004 0. 2.54369254e-004
      1.71962474e-003 1.46283593e-003 1.04583181e-004 5.42328693e-004
      2.83354457e-004 0. 0. 7.06565042e-004 2.83044938e-005
      1.42303252e-004 4.49052965e-003 1.48727314e-003 4.01174679e-004
      4.32650879e-004 3.81253636e-003 7.46196834e-004 7.46933394e-004
      7.70262908e-003 4.54694685e-003 1.45339814e-003 0. 2.64024020e-005
      1.38998564e-006 7.65982142e-004 2.93226005e-003 -5.85714914e-003
      -2.34572357e-003 2.24075455e-004 -3.25622060e-003 1.20607307e-004
      6.97702708e-005 -3.61649654e-005 0. 0. 2.30017025e-003
      9.64356062e-004 1.16475718e-003 3.23518063e-004 1.25650578e-004
      -1.23406975e-002 8.26234027e-005 -2.71383976e-003 2.91180768e-004
      7.06908468e-004 2.04817648e-003 -2.28600409e-002 2.63186917e-003
      4.91737192e-005 3.59678199e-003 1.48688196e-004 2.31326296e-004
      -2.10105954e-005 3.71997361e-004 -2.78970274e-005 4.56451089e-004
      2.54147127e-003 1.18407246e-004 8.29071869e-005 3.58472788e-003
      2.87794624e-004 0. 5.76611841e-004 1.26973828e-004 1.79261726e-004
      2.50979676e-004 1.19812838e-004 2.56336015e-003 5.85885078e-004
      5.13132196e-004 0. 6.84659462e-004 0. 5.49810845e-003
      2.64527422e-004 3.56208329e-004 2.10864563e-003 -4.34427615e-003
      6.66226842e-004 1.05523702e-003 -1.50007997e-002 1.45169237e-004
      0. 3.72021350e-005 3.50100058e-003 1.84486504e-003 2.18545878e-003
      -7.45688239e-003 -2.88243429e-003 1.14201230e-003 -1.07360901e-002
      2.84591480e-003 1.66502985e-004 -3.82158831e-002 1.74624659e-003
      9.27126384e-004 0. 8.59918364e-004 -2.22800616e-002
      5.89122670e-003 2.64286427e-005 2.60372064e-003 5.99311024e-004
      2.19510938e-003 3.91370850e-004 -6.91417954e-005 6.22752937e-004
      8.98231985e-004 6.00731350e-004 1.48943078e-003 2.10552636e-004
      7.45962665e-004 1.34343514e-004 6.31268648e-003 -6.69609429e-003
      2.53077759e-003 0. -1.88586041e-002 3.89228412e-003
      3.57343699e-003 1.04395924e-002 2.74407415e-004 -6.81928723e-005
      5.42416063e-004 3.94911680e-004 5.35393227e-003 3.15531215e-004
      2.41703950e-004 1.31771332e-004 1.60792714e-003 2.58003455e-003
      3.90909147e-003 0. 0. 6.74472249e-005 1.41097116e-003
      1.36149593e-003 1.81555713e-003 0. 8.61237466e-004 1.38023077e-003
      6.50044240e-004 0. 5.55901963e-004 1.99863850e-003 7.35397625e-004
      0. 6.95500406e-004 -1.70176348e-003 1.23769254e-003
      -3.12121338e-005 -1.96455512e-002 3.68557259e-004 5.58224274e-005
      3.21762964e-005 2.29979341e-004 -6.31774636e-003 5.77656552e-004
      0. 7.55953370e-004 8.88495531e-004 3.26409849e-004 3.61241255e-004
      2.01998919e-004 3.60554550e-003 4.51454889e-006 9.98317148e-004
      1.36991497e-003 1.25149882e-003 0. 3.97622213e-003 7.73043430e-004
      -1.03612512e-003 5.20947142e-005 1.31380942e-003 1.16092735e-004
      1.25836290e-003 4.80112358e-004 1.02128550e-004 4.96239634e-004
      5.60451532e-004 0. 7.92696024e-004 7.22375291e-004 2.54826574e-003
      4.25229635e-004 0. 5.47152769e-004 2.14685842e-005 0.
      6.25025768e-006 4.94591834e-004 -7.82439485e-003 -2.08650134e-004
      0. 1.04333693e-003 0. 4.28180938e-004 4.80487291e-003
      3.55233351e-004 2.99783249e-004 0. 7.77353940e-004 4.08574357e-004
      -1.14879478e-003 0. 1.08526292e-004 -2.34370411e-004 0.
      -2.78356764e-003 -2.61317356e-004 6.08328788e-004 2.57240863e-005
      0. 8.64612986e-004 2.06188392e-003 3.82504601e-004 3.30234470e-004
      0. -9.63181315e-004 2.15209642e-004 0. 1.29896827e-004
      3.10742689e-005 2.50604699e-005 -1.31722074e-002 6.39221398e-004
      -1.30907021e-004 6.46520639e-004 2.17747765e-005 -4.04586922e-003
      6.37321442e-004 5.62899746e-004 2.63413647e-004 7.19671487e-004
      3.46560497e-004 4.76114248e-004 0. -1.75302406e-003
      -1.39081627e-002 1.24559039e-003 5.89833071e-004 -5.54334954e-004
      6.54299045e-003 3.08562536e-003 2.17606153e-004 0. 3.63669335e-003
      7.06508057e-004 0. -7.32820772e-005 3.07539216e-004
      2.32650386e-003 1.13069417e-003 2.41136807e-003 2.14083609e-003
      -1.27686199e-005 1.80793504e-004 2.06167391e-003 4.15501650e-003
      4.03005921e-004 5.23405557e-004 0. -7.67165693e-005
      5.98870742e-004 0. 1.02083373e-003 3.22670024e-003 5.50905766e-004
      1.86010730e-003 3.18439770e-003 -5.94979897e-003 1.91303247e-004
      4.38544946e-003 3.60313850e-003 2.94708385e-004 -8.23238952e-006
      8.69879848e-004 5.96268394e-004 0. 6.21403218e-004 0.
      1.86715217e-003 1.55197037e-003 8.21738358e-005 1.64600264e-003
      4.12637694e-003 5.05264383e-003 0. 5.35711297e-005 3.10824107e-004
      6.07110187e-003 4.54426103e-004 0. 0. 0. 5.86531933e-005 0.
      -2.87512480e-003 8.96358164e-004 2.23606778e-003 4.18152777e-004
      8.32069345e-005 -3.66124237e-004 2.06070647e-004 7.26612809e-004
      2.12488882e-003 8.87254719e-004 2.79757023e-005 1.18148001e-003 0.
      2.49070278e-003 4.38031391e-004 1.23170321e-004 1.11673944e-004
      4.20977332e-004 4.54284297e-003 6.23913715e-004 1.55095744e-003
      -2.65147276e-002 1.74575986e-003 2.87793286e-004 -3.83416638e-002
      0. 3.39110338e-005 9.65531275e-004 0. 1.19064316e-004
      -4.05839295e-004 1.53732486e-004 8.34919338e-005 1.85558485e-004
      1.36831182e-003 2.01742700e-003 7.81435054e-004 3.99042328e-004
      2.84628756e-003 1.04031104e-004 -1.14449142e-002 -1.50584543e-004
      2.72548728e-004 2.05980235e-004 7.10287932e-005 0. 0.
      1.79669383e-004 0. 2.02258525e-004 3.72570823e-004
      -2.20400840e-002 0. 2.13220995e-003 1.39708852e-003 0.
      4.12286445e-003 0. 8.74418110e-005 2.39008549e-003
      -5.45725698e-006 1.97226414e-003 1.28862492e-004 4.50067548e-003
      2.54285964e-003 0. 0. 1.11184036e-003 3.40729574e-004
      -1.98013764e-002 -3.14937029e-006 6.73249946e-004 5.15506508e-005
      2.50738021e-003 0. 3.96237522e-003 6.90247514e-004 2.10355051e-004
      8.23339389e-004 7.80153496e-004 0. 1.46972830e-003 6.49396388e-004
      -1.12803478e-004 -4.90254350e-003 9.06886475e-004 5.45745657e-004
      6.73223622e-005 2.32630133e-004 0. 2.23613926e-003 4.00039789e-005
      6.51779771e-003 0. 1.37027865e-003 0. 5.25914889e-004
      1.05530536e-003 5.42395341e-004 2.05381162e-004 3.27223889e-003 0.
      3.46368318e-003 3.62080568e-003 2.63139769e-003 1.74938585e-003 0.
      -2.13528820e-003 7.98880414e-004 0. 8.82589607e-004
      7.36875227e-004 1.77691443e-004 9.12706018e-004 1.01903628e-003
      -1.37757910e-002 3.27762013e-004 1.27092120e-003 4.20659198e-005
      8.32775113e-005 6.75042917e-004 5.32611273e-004 1.93420320e-003 0.
      3.43806896e-005 1.98612502e-003 1.12863909e-003 7.14832859e-004
      2.10013482e-008 0. 2.20681512e-004 1.27432833e-003 7.04455189e-004
      4.15551243e-003 1.03648978e-004 1.66805385e-005 0. 1.79012786e-004
      2.11413353e-004 5.78767096e-004 1.18280579e-004 -2.20496731e-004
      4.20885254e-003 1.29081728e-003 -1.52747808e-002 0.
      1.28681902e-004 6.51634124e-004 0. 1.12408819e-003 2.85197818e-003
      1.74797970e-004 2.04461068e-003 6.29961083e-004 3.87272827e-004
      3.03912279e-003 3.57832550e-003 -1.92964869e-003 9.90182394e-004
      4.47144412e-004 9.56141565e-004 2.36777076e-003 -2.76632537e-003
      1.38370160e-004 -4.23211465e-003 2.50819395e-003 3.58495978e-004
      1.45505625e-003 4.57234637e-005 5.22644666e-004 3.79583769e-004 0.
      2.71304487e-003 2.05733953e-003 3.65058775e-004 9.88480984e-004
      1.13977047e-004 1.57310360e-003 3.75977089e-003 2.73190090e-004
      3.87314649e-004 2.45849183e-003 3.45020613e-004 7.70711631e-004
      6.37229707e-004 -3.23153310e-003 4.63830587e-003 7.78701273e-004
      4.74679887e-008 0. 2.15438165e-004 8.20451358e-004 1.06304861e-003
      1.83760640e-004 3.65719665e-004 8.43959497e-005 2.80001404e-004
      1.06981734e-003 3.92469636e-004 5.24231000e-005 8.11761220e-006 0.
      -2.61257682e-003 -1.29808644e-002 8.23374256e-004 0.
      1.08359709e-004 0. 1.08830875e-003 2.27940781e-003 0.
      -6.37214258e-003 3.56215023e-005 0. -2.75790459e-004
      6.18490740e-005 4.34777612e-004 3.03336361e-004 0. 4.32476110e-004
      3.08390125e-003 1.26071181e-003 2.62576016e-003 2.91950279e-003
      4.48911829e-004 6.24036882e-004 4.04716266e-004 1.74057228e-003
      9.51987458e-004 0. -3.99131794e-003 1.18861011e-004
      -1.82527211e-003 1.08270487e-003 4.80154325e-004 4.33336681e-004
      2.87830946e-004 0. 1.97779853e-004 -2.99307634e-003
      -1.52736437e-004 1.09461427e-003 9.32427589e-004 2.88124778e-004
      7.96340115e-004 0. 1.06148989e-004 0. 7.84781514e-005
      1.78522035e-003 3.71463975e-004 4.70632949e-004 -2.63255667e-002
      1.95212905e-007 -1.47819833e-003 0. 5.21231676e-004
      4.77531087e-003 8.51150660e-004 3.46343033e-004 -1.59914847e-002
      6.73782313e-004 4.29171661e-004 1.44854269e-003 4.09214961e-004
      5.93630430e-005 2.58599641e-003 2.13960317e-004 9.67051485e-004
      -3.33473232e-004 1.36680101e-004 1.83731318e-004 3.29074683e-004
      7.70930710e-005 4.23021527e-004 -1.25977781e-003 8.14062631e-008
      8.57804844e-004 3.19216721e-004 3.52187169e-004 8.09581194e-004
      2.60190456e-004 -2.97293373e-005 5.65129973e-004 0.
      4.62248281e-004 2.67515861e-004 2.73457449e-003 2.57354090e-003
      6.33981486e-004 -3.32873478e-003 0. 1.77184376e-003 0.
      3.93361523e-004 1.00953341e-003 0. -7.25555886e-003
      -5.61412703e-003 8.78972583e-004 5.83572764e-005 2.66340561e-004
      3.70292505e-003 5.04331292e-005 3.05252906e-004 1.03164662e-003
      4.37931849e-005 6.98885240e-004 3.95446643e-003 2.45850370e-003
      1.82763120e-004 0. -3.67697736e-004 2.52383732e-004
      4.68126847e-004 -1.77400889e-005 0. 8.61315275e-005
      5.35610830e-004 6.63469036e-005 4.52649925e-004 0. 4.48084873e-004
      1.96008812e-004 1.71431131e-003 1.71510226e-004 0. 5.87319373e-004
      2.50729790e-004 4.16400318e-004 1.57588202e-005 7.03740632e-004
      1.52854584e-004</_></support_vectors>
  <decision_functions>
    <_>
      <sv_count>1</sv_count>
      <rho>-1.0001879356208616e+000</rho>
      <alpha>
        1.</alpha>
      <index>
        0</index></_></decision_functions></my_svm>
</opencv_storage>
