<?xml version="1.0"?>
<opencv_storage>
<my_svm type_id="opencv-ml-svm">
  <svm_type>C_SVC</svm_type>
  <kernel><type>LINEAR</type></kernel>
  <C>1.</C>
  <term_criteria><epsilon>2.2204460492503131e-016</epsilon>
    <iterations>1000</iterations></term_criteria>
  <var_all>1000</var_all>
  <var_count>1000</var_count>
  <class_count>2</class_count>
  <class_labels type_id="opencv-matrix">
    <rows>1</rows>
    <cols>2</cols>
    <dt>i</dt>
    <data>
      -1 1</data></class_labels>
  <sv_total>1</sv_total>
  <support_vectors>
    <_>
      -2.36984156e-002 1.78585295e-002 -4.89888825e-002 -9.66243073e-003
      2.57951003e-002 1.83948372e-002 1.37220025e-002 3.78756933e-002
      3.06531843e-002 2.37734299e-002 3.45139913e-002 7.91219791e-005
      -3.14727277e-002 1.97958411e-003 -2.27444451e-002 -1.60504431e-002
      1.55204171e-002 1.49460537e-002 5.16765565e-003 -9.68684349e-003
      1.09882327e-002 -1.32708224e-002 -1.24319363e-002 1.52285304e-002
      1.81976776e-003 2.93907616e-003 8.41494929e-003 -4.95948493e-002
      2.74007618e-002 -6.89584529e-003 1.07896393e-002 2.02275272e-002
      -1.87356584e-002 -6.28962601e-003 3.20483148e-002 8.03317595e-003
      1.41070550e-002 1.17879622e-002 -2.22949870e-002 7.05196010e-003
      -5.57535933e-003 8.02318007e-003 2.37626638e-002 3.27398591e-002
      4.98720736e-004 -1.85856968e-002 -4.61147986e-002 -2.30412167e-002
      -8.70785490e-003 -6.53971583e-002 2.36002933e-002 -9.12123360e-003
      2.46639866e-002 1.23082493e-002 8.56956374e-003 1.60010308e-002
      -1.55047392e-002 -5.31685948e-002 8.38795863e-003 2.24576288e-004
      6.68005692e-003 -1.21490816e-002 3.88302538e-003 1.30692776e-002
      -2.70297341e-002 -1.27206529e-002 4.38460935e-004 -1.89670955e-003
      9.79025941e-003 1.37770753e-002 2.46481299e-002 1.30477948e-002
      -1.95498555e-003 -2.35732477e-002 -5.66463955e-002
      -1.94734428e-002 -2.01631105e-003 -4.05007089e-003 2.09678411e-002
      -9.65410657e-003 -3.35805118e-003 2.71490426e-003 -1.28308358e-002
      4.34465967e-002 2.90354546e-002 4.34689559e-002 2.92737763e-002
      2.36345101e-002 4.53579761e-002 -1.66265182e-002 5.67039801e-003
      1.96921676e-002 2.20804121e-002 2.08005458e-002 -3.03441267e-002
      3.66604663e-002 4.28624800e-004 -2.73645809e-003 -4.14319038e-002
      5.73730608e-003 -7.61465030e-003 -5.46800755e-002 -7.26069286e-002
      1.77909043e-002 -4.12975112e-003 3.05496007e-002 4.59090620e-003
      -7.04308553e-003 -4.71967738e-003 2.05639545e-002 -4.75644600e-003
      -1.06765260e-003 4.04386083e-003 -3.10162846e-002 -1.31277721e-002
      -3.77864987e-002 1.75464097e-002 -8.55019025e-004 -1.83788966e-002
      7.64233386e-003 1.33023709e-002 7.33913062e-003 1.38310911e-002
      1.10730827e-002 2.80175568e-003 -6.39308020e-002 1.13505479e-002
      4.86463512e-004 -2.21808273e-002 -1.17402207e-002 2.70158388e-002
      6.96254848e-003 1.26926508e-002 -3.03234090e-003 1.98549265e-003
      -6.34941226e-003 1.16809155e-003 1.65718906e-002 2.10413150e-002
      3.20922956e-002 -2.16857381e-002 4.49308613e-003 -1.76857319e-002
      -1.08986879e-002 3.07972403e-003 -1.23059945e-002 2.77832383e-003
      -2.02012267e-002 8.52747913e-003 -9.45923571e-003 2.23575365e-002
      -2.43423507e-002 -6.93446724e-004 -2.29194341e-003 5.13714133e-003
      -1.58867352e-002 8.71515740e-003 2.94407327e-002 3.18696685e-002
      -3.35579901e-003 -2.07519089e-003 -3.68490443e-002 9.09599103e-003
      -2.19218191e-002 -7.91943690e-004 -2.16024406e-002 1.66491400e-002
      3.02006472e-002 5.64558385e-003 4.77035949e-003 -4.54374366e-002
      7.71746552e-003 2.44867653e-002 2.61395267e-004 1.71198417e-003
      7.42771488e-004 -1.62738934e-002 7.48406211e-003 -3.74956392e-002
      -1.85158569e-002 1.30448835e-002 -2.59267706e-002 9.18836426e-003
      -1.82498619e-002 -4.94682938e-002 4.61522536e-003 1.19532235e-002
      2.13441476e-002 -3.16932471e-003 -2.81880628e-002 3.02354749e-002
      -1.77897289e-002 -6.13081316e-003 -2.31409594e-002 2.96486309e-004
      8.87865084e-004 9.84038413e-003 -6.51128069e-002 9.08978563e-003
      1.94923375e-002 8.89855158e-003 5.07840130e-004 -1.88273529e-003
      -1.66590773e-002 -1.05889738e-002 5.55608375e-003 -1.75807662e-002
      2.27023270e-002 1.52100017e-002 -4.45791334e-002 1.81586128e-002
      1.71665996e-002 -1.40280537e-002 2.76735574e-002 -4.70212884e-002
      -1.05067696e-002 -6.97098766e-003 3.52335977e-003 1.84359774e-002
      -2.14754231e-002 1.27939777e-002 8.12571589e-003 2.61620563e-002
      -9.55362059e-003 -1.89521983e-002 3.53825912e-002 2.45120004e-002
      -3.38003412e-002 -1.48939807e-002 -2.16206405e-002 3.12321708e-002
      1.68953128e-002 -3.68387625e-002 5.86815104e-002 2.62965951e-002
      1.37149626e-002 -2.50881687e-002 -2.47709733e-002 -3.36501002e-002
      -8.41495395e-003 -1.63301674e-003 -1.63905599e-004
      -1.37566682e-002 2.43868912e-003 2.66380180e-002 -1.48994569e-003
      -4.33112588e-003 1.09213404e-003 2.53218543e-002 -1.77646875e-002
      1.46609573e-002 5.10233408e-003 5.17451018e-002 1.30204409e-002
      1.33527899e-002 -5.96192549e-004 -2.83309538e-002 2.60780621e-002
      -5.48531022e-003 1.00458264e-002 -2.67365500e-002 -6.16181456e-003
      5.11321879e-004 4.26546000e-002 3.19309672e-003 -6.41895691e-004
      -2.31723525e-002 -8.41407012e-003 7.22225010e-003 -3.48290987e-002
      7.48526584e-003 1.62376352e-002 1.65048614e-002 2.97082635e-003
      4.06112755e-003 -3.54420841e-002 4.04625870e-002 -6.96400031e-002
      -3.95402350e-002 -3.33334915e-002 -2.68007014e-002 2.86240643e-003
      8.32590833e-003 -7.28523452e-003 -2.90178374e-004 8.92542303e-003
      1.76118519e-002 2.00026296e-002 -2.24786475e-002 -1.11503592e-002
      2.36204192e-002 3.28199975e-002 -3.05495858e-002 3.23021375e-002
      -8.11552349e-003 -1.26563862e-003 2.52080280e-002 -9.52020288e-003
      1.71138812e-002 2.61234841e-003 -3.60433720e-002 8.69322941e-003
      3.14843915e-002 -7.87277333e-003 -5.18209906e-003 1.67515837e-002
      2.39438545e-002 1.10998908e-002 2.46657878e-002 1.96802188e-002
      -7.74917612e-003 2.16544587e-002 -7.38238730e-003 -1.35300390e-003
      -3.99483950e-004 -3.37265283e-002 -1.36162061e-002 1.93749703e-002
      5.12948318e-004 -1.73549410e-002 2.10781414e-002 2.98951194e-002
      2.87999287e-002 1.15173785e-002 -2.53035966e-002 3.02565880e-002
      4.07353771e-004 1.35743609e-002 1.82882342e-002 -1.49236815e-002
      -3.88738886e-002 5.94566390e-003 -3.53540364e-003 -8.65515508e-003
      1.84819829e-002 -4.94757527e-003 -5.92440320e-003 5.94411278e-003
      -2.97535248e-002 -2.01103836e-003 -6.34653214e-003
      -2.66289860e-002 3.31163546e-003 1.32231731e-002 4.98786010e-002
      1.48735801e-002 2.62319483e-003 2.27207923e-003 -6.07440844e-002
      -1.56851299e-002 -2.50257719e-002 -2.57924851e-002
      -1.52614694e-002 1.53057734e-002 1.86925265e-003 -2.37377989e-003
      -1.03133800e-003 5.91315469e-003 8.21587723e-003 -1.49377855e-002
      1.16810873e-002 -1.23053091e-002 1.78240065e-003 3.05408426e-003
      -3.03784721e-002 -2.04448905e-002 -1.18303401e-002
      -2.36642510e-002 -1.03377914e-002 1.00899786e-002 2.56489385e-002
      8.75325000e-004 -1.48706436e-002 -7.69877899e-003 -7.60818250e-004
      1.27493991e-002 -2.29070224e-002 -3.88637334e-002 -4.32118261e-003
      1.77741051e-002 9.30063799e-003 -3.61983404e-002 1.53140780e-002
      -6.22956129e-003 1.33226300e-002 1.52030708e-002 -2.36978829e-002
      -4.78039915e-003 -1.07725272e-002 2.69309040e-002 -4.15624902e-002
      1.13642618e-005 -1.27276275e-002 3.95470485e-003 2.04178151e-002
      -4.94122598e-003 -1.13975666e-002 -6.65766001e-003 3.18445787e-002
      -2.95841359e-002 -3.36463973e-002 -1.66551135e-002 1.87593475e-002
      -9.74508300e-002 -5.76523039e-003 4.92887758e-002 -1.58800525e-004
      2.27262899e-002 -1.61596462e-002 -9.46118124e-003 -3.91449928e-002
      -1.30873192e-002 -3.73852043e-003 4.04123068e-002 1.17370356e-002
      -3.59637453e-003 -4.48666327e-002 -5.12623088e-003
      -4.34493013e-002 2.12531593e-002 1.35103604e-002 -1.16108418e-001
      -2.87738368e-002 2.10620333e-002 3.57545204e-002 2.24297345e-002
      -2.43503917e-002 9.19691473e-003 1.04827993e-002 -5.24985008e-002
      6.28673565e-003 -1.17244180e-002 -9.22240317e-003 -8.32451880e-002
      -7.04393312e-002 -1.59030780e-002 -1.21033145e-002 2.64696497e-003
      2.36815959e-002 1.41320648e-002 1.43248653e-002 1.53479800e-002
      -2.37340312e-002 -2.73208302e-002 -3.38799022e-002
      -1.77513286e-002 9.44103859e-003 1.29653738e-004 5.32580598e-004
      5.43479919e-002 3.81442741e-003 -1.63033828e-002 -3.66856121e-002
      -3.96524603e-003 -1.48302205e-002 -6.00305852e-003 1.56431198e-002
      -8.24569818e-003 5.17826080e-002 -5.53479884e-003 -6.21433556e-003
      7.52326148e-003 -6.00223755e-003 -5.02470173e-002 9.41232126e-003
      -4.05875370e-002 3.69350947e-002 4.01224270e-002 2.33004037e-002
      2.24000588e-002 1.17295496e-002 -3.35791372e-002 1.76059902e-002
      1.61211360e-002 1.90559905e-002 -1.66166238e-002 9.12848674e-003
      -9.18169133e-003 -1.36158718e-002 -1.34628946e-002 1.72493178e-002
      1.27105759e-002 -4.36362773e-002 -5.09132026e-003 2.19869353e-002
      -2.77431011e-002 8.23315047e-003 -1.34634562e-002 1.27468416e-002
      -2.97912844e-002 -4.48049977e-002 8.50108080e-003 -3.73121281e-003
      6.01092819e-003 1.56881493e-002 9.08612087e-003 -1.03668151e-002
      1.92519184e-002 1.69849750e-002 3.02101881e-003 -4.72945459e-002
      -1.59765072e-002 -4.22212034e-002 2.23236103e-002 -6.08324781e-002
      1.69779900e-002 8.60983599e-003 -3.03997695e-002 -1.00051966e-002
      4.93574468e-003 -1.57542340e-003 4.94955899e-003 3.05000984e-004
      2.12834533e-002 6.64414512e-003 6.91221887e-003 -1.07424753e-002
      -3.08186505e-002 2.44360417e-003 -6.28541484e-002 6.64576236e-003
      -2.73794532e-002 7.33238785e-003 -1.28446501e-002 -3.39915119e-002
      -4.85356972e-002 2.44612601e-002 -6.43797917e-003 -3.46175320e-002
      -2.44363062e-002 1.82707161e-002 1.07423663e-002 4.34381980e-003
      -1.42409494e-002 -1.51427016e-002 -1.75441988e-002 3.15931067e-002
      2.21923832e-002 1.16754025e-002 9.70482640e-003 -5.66312391e-003
      -6.04370097e-003 -1.10053839e-002 1.89141817e-002 2.60764733e-002
      -7.06445985e-003 1.97732337e-002 2.80635506e-002 -2.85733119e-003
      1.07442914e-002 -2.91022379e-003 1.38242813e-002 1.65822413e-002
      9.36242566e-003 1.79239810e-002 -2.07631420e-002 3.47556919e-002
      -6.59320131e-003 6.98490394e-003 1.78281367e-002 2.73581780e-002
      6.24836003e-003 7.18544610e-003 -2.69393567e-002 3.56279910e-002
      2.90488452e-002 -4.02800031e-002 2.16706768e-002 -5.36306947e-002
      -3.28068398e-002 2.55743768e-002 -3.72573063e-002 -2.44327337e-002
      -5.19937016e-002 -2.58480315e-003 1.66313760e-002 7.16078375e-003
      -3.97632793e-002 1.57920551e-002 -5.86812347e-002 1.42350467e-002
      -6.76647015e-003 -2.91696060e-002 2.66485047e-002 1.26282545e-003
      -5.14418446e-003 -9.69189033e-003 1.63030270e-002 -1.22684026e-002
      2.18124986e-002 -1.52524002e-002 -1.48769561e-002 -2.07053218e-002
      3.36530060e-002 3.20409909e-002 8.59492086e-003 -4.65595499e-002
      -3.30790952e-002 -1.11760327e-003 1.89954955e-002 8.42268299e-003
      1.71674676e-002 -1.68950837e-002 1.52778542e-002 -2.59840153e-002
      -1.23002073e-002 6.95821783e-003 1.13640530e-002 2.56738514e-002
      4.42596944e-003 1.12191988e-002 -1.28844185e-002 2.20880788e-002
      7.53860408e-003 5.06627187e-003 -2.94480249e-002 -3.44292670e-002
      -6.62480132e-004 -2.90670129e-003 -7.48962257e-003
      -2.66557187e-002 -1.11203007e-002 2.74523608e-002 -3.36438854e-004
      5.37294243e-003 -1.12659363e-002 1.25769777e-002 4.53853421e-002
      7.59317586e-003 2.74321083e-002 2.42093438e-003 6.63804123e-003
      -2.71494482e-002 -2.45993733e-002 -5.23458198e-002 4.84589254e-003
      3.34713012e-002 -6.15475606e-003 -7.12707546e-003 1.75817218e-002
      -2.09216624e-002 1.67882293e-002 3.53163891e-002 -1.24170966e-002
      2.91889417e-003 4.63554859e-002 -2.72216275e-003 1.78038646e-002
      2.54895422e-003 -1.11316592e-002 -5.16489660e-003 9.34168138e-003
      1.02269957e-002 5.67865092e-003 -7.38175306e-003 9.22227278e-003
      -3.88605893e-003 7.94627517e-003 3.10745998e-003 3.51046100e-002
      -1.69362489e-003 1.01254927e-002 -3.91828418e-002 5.75390179e-003
      -2.26579774e-002 1.20279007e-002 3.66767533e-002 2.26184055e-002
      1.93581462e-003 1.03989812e-002 3.07098962e-002 1.52447838e-002
      2.30976809e-002 1.77176204e-002 1.74508039e-002 0.
      -2.17740685e-002 -1.54983466e-002 3.23279276e-002 -1.37538901e-002
      3.34019139e-002 -5.17950626e-003 5.00357943e-003 2.98895012e-003
      2.95759868e-002 5.05298190e-002 2.83874031e-002 9.41518694e-003
      -1.94185860e-002 1.07898274e-002 4.05743085e-002 2.65718065e-002
      -3.97776179e-002 -1.57225821e-002 1.36917634e-002 -2.78933272e-002
      -2.30959002e-002 -2.53958162e-002 7.75910448e-003 -2.98971999e-002
      -3.95150064e-003 2.65726540e-002 -1.63027886e-002 3.63607407e-002
      2.27899812e-002 9.95591469e-003 -1.04775699e-002 1.30166463e-003
      -1.63033679e-002 2.06305273e-002 1.09475404e-002 9.90524981e-003
      -6.64431974e-003 -9.76807065e-003 1.17662847e-002 -4.34060581e-003
      1.64162200e-002 1.68089150e-003 1.27825662e-002 -2.66087544e-003
      1.42064253e-002 4.50219177e-002 1.82220545e-002 1.05150128e-002
      -1.86964800e-003 -6.12105988e-003 2.66653020e-002 -5.07082616e-004
      -4.24955525e-002 1.08232033e-002 9.30240564e-003 1.70697495e-002
      -6.45864056e-003 -1.79761313e-002 1.49154458e-002 4.76138666e-004
      -6.90726703e-003 7.64721259e-003 1.63462088e-002 -2.01833937e-002
      1.40124455e-003 1.83956902e-002 -1.28172245e-002 3.92283984e-002
      8.40022136e-003 4.07182761e-002 1.02213863e-002 -1.56829078e-002
      -1.18881222e-002 2.86178757e-002 7.82341417e-003 2.55274377e-003
      4.93922420e-002 3.77015211e-002 -2.35715378e-002 2.46416108e-004
      -7.34072225e-003 -3.54651920e-002 -3.12334392e-002
      -2.98945443e-003 2.24864427e-002 2.34506950e-002 -3.42275836e-002
      2.11882889e-002 1.47688389e-003 8.32923502e-003 2.96030473e-002
      9.17763170e-003 -1.10003268e-002 7.19861547e-003 7.53862550e-003
      3.66026498e-002 1.44223655e-002 -6.92527369e-003 2.64596511e-002
      3.40370424e-002 3.84964654e-003 3.92326061e-003 2.74395291e-002
      -1.65331103e-002 1.15627469e-002 -3.72221023e-002 -2.21075751e-002
      -1.69995967e-002 -5.03227375e-002 -1.29488520e-002
      -1.03173219e-002 3.76146776e-003 -1.46923941e-002 1.27233295e-002
      1.81290265e-002 2.65818182e-003 4.47043544e-003 -8.16081744e-003
      -1.67211499e-002 -5.42855030e-003 5.22023402e-002 3.55160385e-002
      1.81533378e-002 1.98905766e-002 -3.79120000e-002 -7.87327159e-003
      3.96312261e-003 2.93753445e-002 1.62751954e-002 1.33632366e-002
      -6.01178501e-003 -1.15891173e-002 -1.88216306e-002 1.73262611e-003
      1.78392231e-002 1.11503778e-002 -1.00371437e-002 -6.16689995e-002
      -4.54812273e-002 1.21676829e-002 -7.74330599e-003 -7.76175782e-002
      1.46320388e-002 -1.23726940e-002 1.85156241e-002 4.02466394e-003
      4.16227616e-003 -6.51500374e-003 -1.41567038e-002 3.07462476e-002
      -2.85752676e-002 2.22061779e-002 1.20276092e-002 1.39662682e-003
      -1.15896314e-002 1.19975554e-002 4.87485342e-003 4.50018141e-003
      8.95493571e-003 6.05341140e-003 -5.62868565e-002 2.59147733e-002
      5.41980453e-002 8.79541319e-003 9.57824662e-003 3.77389863e-002
      -4.16559819e-003 -1.50653813e-003 -8.93754885e-003
      -1.30238505e-002 -4.08209935e-002 -9.89979226e-003
      -7.14319851e-003 -3.31701115e-002 1.33204814e-002 -2.93894354e-002
      1.17018353e-004 -5.98591240e-003 9.92702786e-003 -3.24706780e-003
      -4.58416268e-002 8.76718666e-004 3.56098823e-002 5.53038996e-003
      2.53977720e-002 -6.38534687e-003 -1.16834538e-002 1.88335273e-002
      6.41345372e-003 -5.05256141e-003 -3.09019182e-002 5.56304259e-003
      -1.01919957e-002 -4.39236723e-002 -2.25997041e-003 1.09111294e-002
      2.40880705e-004 -1.88564677e-002 1.00917360e-002 -3.38039291e-003
      1.65652093e-002 6.23946171e-003 3.52819599e-002 -9.61896218e-003
      -3.18574868e-002 1.35565577e-002 -5.35952917e-004 2.54943618e-003
      5.24522911e-004 1.76939014e-002 1.03831599e-002 4.27492370e-004
      1.18951472e-002 1.67484358e-002 1.55039756e-002 -4.28247498e-003
      1.21687567e-002 -2.02921685e-002 1.10293841e-002 2.61636600e-002
      -1.99505761e-002 -1.58167630e-002 4.87791793e-003 1.82450376e-002
      5.76017471e-003 7.49275554e-003 2.84227822e-002 -7.40241772e-003
      1.65647287e-002 -1.77353881e-002 -2.74694748e-002 -2.22826917e-002
      3.32168862e-002 -6.40422513e-005 2.40319092e-002 4.14167792e-002
      3.66342962e-002 -3.05191465e-002 8.94001033e-003 -5.79729825e-002
      5.64746559e-004 -2.52669118e-002 1.34460479e-002 1.47288619e-003
      -1.75262894e-002 2.92094871e-002 -7.85938129e-002 -5.21898502e-003
      2.47777198e-002 -6.96700299e-003 2.42343489e-002 9.30211693e-003
      -3.57675105e-002 -6.20154757e-003 2.56985147e-002 2.30288617e-002
      1.78040527e-002 3.71863581e-002 -7.26075051e-003 1.47612151e-002
      2.79339142e-002 2.05099080e-002 -7.93091836e-004 -4.32255585e-003
      2.99030896e-002 1.08165536e-002 4.56101168e-003 -4.27127583e-004
      9.93371941e-003 1.81941353e-002 7.44150393e-003 1.58915091e-002
      2.58331094e-002 -3.65008488e-002 1.15117866e-004 3.31341885e-002
      2.28744913e-002 -6.61721569e-005 5.59132174e-003 -1.65843386e-002
      -1.05139671e-003 -4.51553054e-003 -3.34852301e-002 2.79556774e-002
      1.65043604e-002 8.51489080e-004 -1.56809145e-003 -1.21785831e-002
      -3.06460150e-002 -1.41614107e-002 3.75865144e-003 2.00141035e-002
      -7.36690199e-005 1.12174302e-002 8.00482929e-003 -3.37486863e-002
      -1.50819588e-002 -2.25572605e-002 -1.87451467e-002
      -2.13388601e-004 -7.10659428e-003 2.90096868e-002 1.34362979e-002
      3.30986083e-003 1.76124647e-003 3.46059236e-003 -9.04524140e-003
      2.95455707e-003 -2.20237933e-002 2.37519145e-002 1.14659211e-002
      4.95770760e-003 1.32919304e-004 2.31551030e-003 2.65645795e-002
      1.82565991e-002 2.50778198e-002 1.86524428e-002 7.38812843e-003
      1.29495598e-002 -4.76192199e-002 1.60926916e-002 -7.86677096e-003
      2.49290559e-002</_></support_vectors>
  <decision_functions>
    <_>
      <sv_count>1</sv_count>
      <rho>-9.9841397404880838e-001</rho>
      <alpha>
        1.</alpha>
      <index>
        0</index></_></decision_functions></my_svm>
</opencv_storage>
