<?xml version="1.0"?>
<opencv_storage>
<my_svm type_id="opencv-ml-svm">
  <svm_type>C_SVC</svm_type>
  <kernel><type>LINEAR</type></kernel>
  <C>1.</C>
  <term_criteria><epsilon>2.2204460492503131e-016</epsilon>
    <iterations>1000</iterations></term_criteria>
  <var_all>1000</var_all>
  <var_count>1000</var_count>
  <class_count>2</class_count>
  <class_labels type_id="opencv-matrix">
    <rows>1</rows>
    <cols>2</cols>
    <dt>i</dt>
    <data>
      -1 1</data></class_labels>
  <sv_total>1</sv_total>
  <support_vectors>
    <_>
      -4.40751621e-003 3.60769406e-003 6.14506053e-003 5.72510588e-004
      3.67321190e-003 -5.56842936e-003 -4.18464467e-003 -3.92653234e-003
      -9.02625150e-004 -7.73690525e-004 -9.85616725e-003 5.97939920e-003
      -5.36235422e-003 5.32003643e-004 -3.80641519e-004 -2.91142743e-002
      -1.04877464e-002 -2.12148745e-002 6.88951323e-003 2.36564074e-002
      -6.30127499e-003 3.48109975e-002 -3.38000171e-002 7.75867654e-003
      3.70788417e-004 -5.17257350e-003 -6.26061391e-003 -5.79790119e-003
      -9.93598029e-002 3.51726683e-003 -8.91388208e-003 -1.17164599e-002
      -1.46930087e-002 -7.28842616e-003 -1.00877611e-002 5.56824356e-003
      -2.94993129e-002 1.47510273e-002 8.80658813e-003 -1.36585692e-002
      -2.94314772e-002 2.20981855e-002 3.92961688e-003 -2.00540461e-002
      -4.58283909e-003 -2.99456194e-002 8.13137088e-003 4.05951729e-003
      -8.73923823e-002 3.12956609e-002 1.04456479e-002 -1.49401790e-002
      -1.50791267e-002 1.32933548e-002 -1.63053181e-002 1.20814396e-002
      4.68433276e-003 -1.50852026e-002 3.66032403e-003 9.15091671e-003
      1.73059404e-002 9.50121041e-003 -9.02147498e-003 7.41205784e-003
      1.14176488e-002 -5.59515972e-003 -3.02724796e-003 4.85287607e-003
      1.38528191e-003 1.87359080e-002 1.09441523e-002 2.06755381e-002
      -2.53796042e-003 2.94647533e-002 -1.31718339e-002 1.22402189e-002
      -1.48069970e-002 -9.76066198e-003 1.44117568e-002 -4.37184796e-002
      -3.81472819e-002 9.75306425e-003 2.09207907e-002 -2.73031220e-002
      8.42547044e-003 2.84917951e-002 6.92863762e-003 1.60861332e-002
      -6.38311636e-003 -9.95059498e-003 3.14654447e-002 5.94045175e-003
      -2.57938664e-005 5.54570812e-004 3.51674668e-002 -1.34676520e-003
      -1.01177944e-002 -2.24723220e-002 1.49040381e-004 -2.29259767e-002
      3.09654288e-002 -2.41405517e-002 1.38424523e-002 8.74727499e-003
      -2.36242381e-003 2.88072117e-002 1.12179546e-002 -1.39422063e-002
      7.37429317e-003 5.32806525e-003 -7.66092539e-003 2.22591078e-003
      9.54798330e-003 -1.49616483e-003 9.53206979e-003 -4.64203535e-003
      1.02907112e-002 6.14761515e-003 -4.37683193e-004 1.28439637e-002
      1.20631224e-002 1.34695750e-002 -1.73539873e-002 1.20645743e-002
      9.65389307e-004 -3.36243436e-002 -1.44647025e-002 -7.87287857e-003
      1.74449999e-002 1.54531281e-002 8.32927413e-003 1.14864698e-002
      -1.16360113e-002 3.40354425e-004 -9.81431804e-004 1.96183231e-002
      -8.09041969e-003 -1.14792651e-002 2.24074554e-002 8.95680580e-003
      2.48262705e-003 -1.30759447e-003 -2.57320330e-002 3.05853016e-003
      -5.67582611e-004 4.54270374e-003 8.98529589e-003 4.77624917e-003
      1.08053647e-002 1.07841119e-002 -9.30214766e-003 1.58395933e-003
      1.95571017e-002 1.15845595e-002 -8.40531662e-003 2.58047767e-002
      -6.41593710e-004 4.65684803e-003 4.18728363e-004 1.37756225e-002
      -3.04948203e-002 -1.55311394e-002 -1.90521032e-002
      -2.78903078e-002 -3.10803652e-002 2.25960892e-002 2.24461174e-003
      7.42769381e-003 1.49967410e-002 -7.78579786e-002 4.20277053e-003
      4.96450486e-003 -7.61390477e-003 -1.13613773e-002 2.17550676e-002
      2.71421974e-004 5.72614558e-003 2.09847670e-002 9.30803921e-003
      1.42821372e-002 1.62417646e-002 8.44424218e-003 2.07701698e-002
      4.91233263e-003 -1.30803054e-002 -1.16147371e-002 -8.36445838e-002
      1.26363952e-002 -1.58363804e-002 3.03313322e-003 -1.60101533e-003
      9.84747428e-004 7.50071183e-003 1.12542510e-002 -6.27334323e-003
      -1.61948835e-003 1.77773852e-002 -2.23588839e-004 -7.47181708e-003
      6.17004186e-003 -4.11637407e-003 2.22081842e-004 6.67662499e-003
      -3.23794223e-002 -2.05272641e-002 3.22019379e-003 -4.37833229e-003
      9.96965356e-003 2.88284058e-003 -1.52494339e-002 -1.42501658e-002
      -6.10166565e-002 -8.05399788e-004 1.85007753e-003 1.28741069e-002
      1.20527018e-002 9.09449998e-003 3.05111539e-002 -1.90322194e-003
      -3.53258848e-002 3.18189058e-003 2.30867192e-002 -1.79957354e-003
      1.28469896e-002 6.82625594e-003 -4.26428206e-003 -1.15807150e-002
      5.55001851e-003 -2.60133762e-004 2.22944450e-002 3.08853798e-002
      3.29776015e-003 -4.01596352e-003 1.63054764e-002 2.30366718e-002
      -6.03205618e-003 -2.70935055e-002 4.79310937e-003 -1.78948175e-002
      -2.90904148e-003 8.32247175e-003 -5.79533051e-004 9.04163066e-003
      5.28307771e-003 -5.23107173e-003 -8.43423884e-003 8.35699309e-003
      -2.27219667e-002 8.52339342e-003 1.32671343e-002 4.21980117e-003
      1.89123135e-002 8.48327577e-003 1.03371739e-002 -4.35437541e-003
      -9.31915012e-004 -4.97448910e-003 -1.57831199e-002 1.03982976e-002
      -1.51856020e-002 3.05263698e-002 1.41232007e-003 2.20852974e-003
      -1.67569090e-002 1.81797203e-002 1.74484532e-002 1.66664049e-002
      1.65294912e-002 -6.60498906e-003 -7.11270282e-003 -1.29934819e-003
      5.62454388e-003 2.58270977e-003 1.04213376e-002 8.57535377e-003
      -1.88727416e-002 -1.92997158e-002 -4.16894862e-003
      -6.55932992e-004 2.48343404e-003 -2.27493476e-002 -3.13929655e-003
      2.35946733e-003 4.98535670e-003 6.25718106e-003 8.21495429e-003
      -4.03383300e-002 4.34975984e-004 -2.67848209e-003 -2.92865057e-002
      2.36542872e-003 1.16556752e-002 -1.35184983e-002 6.02648687e-003
      -4.13164198e-002 -9.60910972e-003 -2.10107391e-005 1.14267264e-002
      -2.40977537e-002 1.46081429e-002 1.78531911e-002 1.06060635e-002
      -3.97291174e-003 -1.06711388e-002 -1.79068372e-002 8.49786308e-003
      1.63310282e-002 7.58659211e-004 1.07623753e-003 -1.50206285e-002
      1.11837359e-002 3.48721035e-002 2.86662616e-002 1.62670948e-002
      -2.73834355e-003 -4.17080335e-002 -1.51108736e-002
      -2.67345016e-003 -2.22606864e-003 6.40986115e-003 -2.46554613e-002
      1.98413469e-002 5.80851163e-004 4.73377760e-003 -1.41975498e-002
      -3.62789817e-003 5.94005594e-003 4.85331751e-003 -6.86964765e-003
      -3.29606868e-002 -1.86561216e-002 -3.82836126e-002 1.51679888e-002
      1.73710976e-002 7.37778260e-004 1.15946634e-002 5.79427183e-003
      1.26511995e-002 -1.53008115e-003 1.98747143e-002 -1.56366210e-002
      1.86257865e-002 -2.85560265e-002 1.27447434e-002 1.71191618e-002
      1.08723631e-002 2.52212980e-003 1.90020690e-003 1.08213425e-002
      1.66393518e-002 1.16149178e-002 9.22323857e-003 1.99553221e-002
      -2.22922792e-003 -4.10664752e-002 1.72943454e-002 8.84974003e-003
      -1.04517946e-002 2.60902308e-002 -2.28287596e-002 -3.18719074e-002
      -2.15732884e-002 -1.51676051e-002 9.24254023e-003 1.38740586e-002
      1.97494496e-002 1.09676579e-002 1.95589121e-002 -2.32166462e-002
      1.42278208e-003 1.10553205e-002 -2.51217522e-002 -6.42776536e-003
      -1.72838190e-004 -3.84824350e-003 -3.82021040e-004
      -1.13392882e-002 3.76366312e-003 -4.36722148e-005 -1.92609860e-003
      1.25447763e-002 1.15592824e-003 -1.02932123e-003 -7.21747130e-002
      1.56349107e-003 -1.73587576e-002 8.23556632e-003 5.93122561e-003
      1.53941091e-003 -7.93740340e-003 -9.59480274e-003 1.83308106e-002
      -4.26567532e-003 6.41170843e-003 2.84247361e-002 3.94023908e-003
      1.68386698e-002 -2.72911768e-002 -2.14533601e-002 1.09039871e-002
      -2.78595500e-002 -8.22531059e-004 1.82904466e-003 -3.62144597e-002
      -5.44647360e-003 -1.89069360e-002 -2.70453319e-002
      -7.13451998e-003 4.37215809e-003 1.52348354e-002 1.95492269e-003
      -2.86271819e-003 1.49811720e-002 4.22985759e-003 -1.55805727e-003
      9.23521729e-005 1.50311389e-003 -1.39880171e-002 8.36580526e-003
      6.97879167e-003 9.64731816e-003 3.14933481e-003 -1.76648721e-002
      8.87718517e-003 -2.68308297e-002 2.13099290e-002 -1.26443077e-002
      1.12903118e-002 -1.93002131e-002 3.29369446e-003 2.14100163e-003
      -4.81819827e-003 6.66336995e-003 -6.93287924e-002 5.81278279e-003
      4.46535228e-003 9.04562883e-003 3.06506502e-003 -6.48705801e-003
      1.16128484e-002 -1.28943147e-002 -6.18910231e-002 -2.83770803e-002
      9.75187216e-003 1.78352427e-002 9.72033292e-003 1.17702521e-002
      -3.18252333e-002 2.75927857e-002 -7.53031345e-003 1.58249289e-002
      -1.22849050e-003 1.56616550e-002 -1.24865221e-002 -1.27565023e-002
      2.91055371e-003 -4.62798728e-003 1.02217849e-002 -6.54451735e-003
      -4.27251123e-003 -1.21859065e-003 -2.11423505e-002
      -4.92859446e-003 -2.41185278e-002 1.19989254e-002 -7.26158498e-004
      -2.12335354e-003 1.71294771e-002 -7.51785934e-003 -7.31653627e-003
      -1.27906799e-002 4.89182677e-003 -1.35346176e-002 -2.50461744e-004
      -7.50861242e-002 1.41556943e-002 2.49225218e-002 7.44555751e-003
      2.53225714e-002 5.44407871e-003 7.00701773e-003 9.28845163e-003
      -1.35572422e-002 1.06380098e-002 4.16749204e-003 6.25962159e-003
      6.12353766e-003 4.92029684e-003 2.24010423e-002 1.55407116e-002
      -1.34836780e-002 -3.62720639e-002 1.82643142e-002 9.06855613e-003
      7.06483284e-003 1.85206272e-002 1.57319363e-002 7.23613286e-003
      -1.01238838e-003 1.11243790e-002 8.61353613e-003 -2.18007620e-002
      9.64447949e-003 3.74567993e-002 2.73668822e-002 6.10114681e-003
      -1.55693591e-002 1.26026534e-002 -2.99917050e-002 3.00840121e-002
      -2.86869016e-002 1.58658791e-002 -3.40889506e-002 1.15855290e-002
      5.17372834e-003 -1.43661136e-002 -4.57708761e-002 6.07323553e-003
      -1.83799565e-002 -3.40731861e-003 1.87555142e-002 7.15978770e-003
      -1.22284079e-002 -1.18410233e-002 -4.70613688e-002 3.55302310e-003
      -1.77806634e-002 -5.75792044e-003 -1.16048791e-002 1.02254620e-004
      3.62805137e-003 3.03572672e-003 1.98448962e-003 4.34124144e-003
      1.73911117e-002 1.38357037e-003 -5.74377738e-003 -6.10637665e-003
      -2.13061133e-003 -2.68227253e-002 1.89804286e-002 -6.14381814e-003
      1.85339227e-002 1.50399366e-002 -5.02258800e-002 -1.95713732e-002
      -2.60031242e-002 5.75426221e-003 -1.45775592e-002 -7.51033705e-003
      1.32106068e-002 4.24272614e-003 1.52081307e-002 -2.03930773e-002
      1.32319657e-002 7.24843983e-003 1.75764393e-002 -3.20051820e-003
      -1.32945133e-002 2.16111948e-005 1.46319848e-002 -2.85241473e-002
      -7.61017650e-002 -2.08806582e-002 -1.65983085e-002 1.13414815e-002
      -6.37414493e-003 5.93432644e-003 1.34300767e-002 2.94129439e-002
      1.32020516e-002 2.62237657e-002 -1.19851157e-002 -1.54992556e-002
      -1.59417950e-002 -1.29489312e-002 -5.86439157e-003
      -1.58169717e-002 7.63517222e-004 -1.30727934e-003 5.31100249e-003
      -2.29594437e-003 -1.73836686e-002 -1.77339499e-003 1.40857380e-002
      6.48727501e-003 8.88483319e-003 1.03117386e-002 -2.52120029e-002
      7.47831631e-003 1.60835553e-002 -4.14458849e-002 -5.93827805e-003
      1.50766699e-002 -3.70104262e-003 7.23249000e-003 1.50364619e-002
      1.56391729e-002 1.44371428e-002 9.29117296e-003 -7.43302749e-003
      -2.18714084e-002 -1.52272005e-002 -2.16324162e-002 1.53238175e-003
      9.10064112e-003 1.98669266e-002 -3.14678773e-002 -5.41239185e-003
      9.69569478e-003 -4.55862656e-003 1.69041939e-003 2.18819100e-002
      6.30361214e-003 -1.19508533e-002 3.69959846e-002 9.49734449e-003
      -1.36969229e-002 8.21690354e-003 7.01628253e-003 -1.54731041e-002
      1.50501290e-002 -4.48855245e-003 1.46592110e-002 7.63228815e-003
      7.94323161e-004 1.46571640e-002 -6.05017273e-003 1.60788503e-002
      -6.00614911e-003 4.35487181e-003 2.19440949e-003 1.04201427e-002
      -1.16226673e-002 3.61762661e-003 1.63093135e-002 9.88498982e-003
      5.44335478e-007 1.39356602e-003 -7.02001154e-003 6.20312477e-003
      7.30467867e-003 -1.93935318e-003 -2.66855210e-003 4.89252200e-003
      -7.07408600e-003 3.88703845e-003 -8.47685710e-003 1.82093754e-002
      1.91753847e-003 1.31464172e-002 2.14237906e-002 1.22196916e-002
      7.64348637e-003 -7.70575693e-003 1.23783322e-002 -1.46953636e-004
      -4.60786105e-005 1.24024814e-002 1.44309131e-002 3.23482067e-003
      1.30654883e-003 2.06372645e-002 -2.27631237e-002 1.64992437e-002
      1.60263665e-002 -7.99942572e-005 -1.32777570e-002 1.25807757e-002
      1.18534863e-002 1.54166380e-002 1.05997213e-004 2.60816142e-003
      6.62433635e-003 6.62718480e-003 5.66825503e-003 8.63662735e-003
      7.05019804e-003 -1.13078495e-002 2.86420761e-003 2.65496653e-002
      5.32713300e-003 -5.18599199e-003 -7.37740099e-003 -8.44580587e-003
      3.11309081e-002 1.11124711e-002 -2.43103802e-002 -7.57782208e-003
      -2.93535879e-003 -1.46992831e-002 1.13099376e-002 -5.71765713e-002
      4.22785943e-003 3.24632749e-002 -2.29008291e-002 -2.99025942e-002
      1.42192310e-002 -7.75404228e-003 -9.20294225e-003 -5.23789367e-003
      7.35473761e-004 1.24994190e-002 1.92253757e-002 1.97733641e-002
      8.05844646e-003 6.84309518e-003 1.12779560e-002 -4.08713985e-003
      9.84705705e-003 -9.27410368e-003 3.18851694e-002 1.40450867e-002
      2.74735373e-002 6.16052514e-003 6.79572904e-003 -8.90656747e-003
      -5.40668750e-003 -1.59627683e-002 -3.98442335e-003 9.45233740e-003
      -1.09755509e-002 -9.59901232e-003 3.63416690e-003 -7.87678920e-003
      1.09694898e-002 1.02881230e-002 4.51314123e-003 -1.93456151e-002
      1.01857558e-002 -5.75355021e-003 1.57608315e-002 2.17029154e-002
      1.49046686e-002 3.61628346e-002 -6.22987598e-002 -1.75415725e-002
      -6.18794933e-003 2.02866308e-002 -2.66442876e-002 2.36913711e-002
      1.02364458e-002 1.24773867e-002 1.89841434e-004 2.54370756e-002
      1.35994554e-002 1.89480477e-003 2.41801329e-002 9.24901012e-003
      -1.07377423e-002 1.99378915e-002 1.43560534e-002 5.27212769e-003
      6.20604074e-003 -1.51086496e-002 2.20206726e-004 1.47527959e-002
      -4.07941313e-003 -3.53122130e-003 -1.00239720e-002 6.31340034e-003
      -3.94226387e-002 -6.57268940e-003 1.88774394e-003 9.91388151e-005
      2.54144799e-002 1.24220666e-003 -1.43433758e-003 -3.23674344e-002
      -1.44939292e-002 -9.61647183e-003 8.81564338e-003 -2.42063049e-002
      1.35907764e-002 6.66293176e-003 6.48543006e-004 -3.39768664e-003
      -2.86773941e-003 -1.60941221e-002 5.43836225e-003 8.33891518e-003
      5.90456044e-003 2.36356654e-003 -2.86627579e-002 1.82528477e-002
      -3.15564014e-002 -1.62844677e-002 -3.78611428e-003 9.27831233e-003
      -8.00571963e-003 1.08778826e-003 -1.16877933e-003 -2.36998647e-002
      -8.77079368e-003 2.34281365e-002 6.22819178e-003 8.84602219e-003
      1.29091199e-002 2.24724580e-002 5.49798412e-003 7.61094363e-003
      -3.09109502e-002 7.50468718e-003 -8.32956098e-003 -5.04798675e-003
      3.78976297e-003 -3.19142407e-003 2.15625716e-003 1.41508868e-002
      2.53857691e-002 1.02196652e-002 1.28635182e-003 1.15742926e-002
      -1.07065421e-002 6.44554803e-003 -2.10429244e-002 -4.69254144e-003
      8.28838907e-003 -1.99799659e-003 3.19380569e-003 -1.90871127e-004
      2.29912642e-002 7.22338865e-003 -2.54594963e-002 1.40105207e-002
      2.14080159e-002 -2.31621228e-003 1.08451638e-002 -2.31900923e-002
      5.07786451e-003 1.66544691e-002 1.40032992e-002 -5.77742001e-004
      -6.57168264e-003 7.34418063e-006 3.09779588e-003 8.04563891e-003
      5.76442108e-003 1.07989777e-002 1.05342333e-004 2.94411257e-002
      -6.05256809e-003 2.26495471e-002 -4.72576264e-003 4.30268701e-003
      -3.46128450e-004 1.10828616e-002 2.11180132e-002 9.76680685e-003
      2.88203601e-002 -3.62647115e-004 -1.61739867e-002 1.75358802e-002
      -7.59697147e-003 5.30714169e-003 1.29264006e-002 1.18178520e-002
      7.86808133e-003 1.18335048e-002 9.33651999e-003 -1.37511420e-003
      -1.53732859e-002 2.01972704e-002 -6.94019394e-003 9.48417466e-003
      3.27262050e-003 -7.40505056e-003 4.04899148e-003 9.50202253e-003
      3.19545646e-003 -3.59406807e-002 -1.20440284e-002 1.68450028e-002
      -1.67505145e-002 3.73728271e-003 1.35709820e-002 1.29615348e-002
      1.19040906e-003 4.98808129e-003 -1.10402948e-003 -3.44484150e-002
      5.76873729e-003 -6.85097091e-003 5.00481483e-003 2.20252853e-003
      -7.32534425e-003 2.32872758e-002 -1.52623393e-002 3.10593620e-002
      1.86652895e-002 1.56356278e-003 4.84098820e-003 -7.13438913e-003
      1.65339932e-002 9.85931233e-003 1.56887919e-002 -3.52368504e-002
      1.08969689e-003 -1.22381840e-002 3.18448222e-003 1.15607064e-002
      1.47449458e-002 9.71698016e-003 -1.88087430e-002 1.82047486e-002
      2.01059878e-002 -1.16362341e-003 -9.90467984e-003 1.09260762e-002
      -2.01624800e-002 3.87671404e-003 3.31795588e-003 -7.72691285e-003
      -7.23508245e-004 -1.57148205e-002 1.30599020e-002 3.04711293e-002
      -3.05068819e-003 -4.82501287e-004 1.78485420e-002 2.93861981e-003
      5.96679223e-004 -2.07917020e-003 -9.33674350e-003 3.70655418e-003
      -2.00865585e-002 -2.53837351e-002 -2.84540914e-002
      -5.42902621e-003 5.71579393e-003 -3.84844728e-002 1.48501322e-002
      -4.94928053e-003 -3.93294394e-002 1.88838337e-002 -2.96836570e-002
      1.74991146e-003 5.38827432e-003 9.75157507e-003 -1.69840921e-002
      -1.02709467e-002 -4.32036445e-003 5.23264473e-003 2.35965033e-003
      -3.00363800e-003 -3.72243277e-003 -1.63634531e-002 6.25827489e-003
      2.27449881e-003 -5.25887823e-004 1.45471133e-002 -1.09175444e-002
      1.83387361e-002 3.70374508e-003 8.04505218e-003 5.28937322e-004
      -2.80498993e-002 -2.66474374e-002 -6.35725306e-003 1.75655931e-002
      9.94626712e-003 -2.96335085e-003 2.39694808e-002 -3.14152502e-002
      5.61738759e-003 -1.99173223e-002 1.23353312e-002 -2.04863884e-002
      -1.45403566e-002 1.55520765e-002 1.18065318e-002 1.23310788e-002
      1.00679165e-002 3.94249195e-003 2.47476064e-003 -3.27797122e-002
      8.87861382e-003 5.54349367e-003 -1.91597473e-002 -7.85648008e-004
      2.44276226e-003 9.65285823e-002 9.69236530e-003 5.18464344e-003
      -9.49662644e-003 1.74107794e-002 -7.77456313e-002 -3.71710910e-003
      -5.94218820e-003 -2.55778385e-003 4.99046920e-003 -8.61526001e-003
      -2.69087963e-003 4.74936888e-003 8.54505226e-003 2.46494636e-002
      2.29564905e-002 1.03977472e-002 -2.81960778e-002 1.56355568e-003</_></support_vectors>
  <decision_functions>
    <_>
      <sv_count>1</sv_count>
      <rho>-9.9771179430822932e-001</rho>
      <alpha>
        1.</alpha>
      <index>
        0</index></_></decision_functions></my_svm>
</opencv_storage>
