<?xml version="1.0"?>
<opencv_storage>
<my_svm type_id="opencv-ml-svm">
  <svm_type>C_SVC</svm_type>
  <kernel><type>LINEAR</type></kernel>
  <C>1.</C>
  <term_criteria><epsilon>2.2204460492503131e-016</epsilon>
    <iterations>1000</iterations></term_criteria>
  <var_all>1000</var_all>
  <var_count>1000</var_count>
  <class_count>2</class_count>
  <class_labels type_id="opencv-matrix">
    <rows>1</rows>
    <cols>2</cols>
    <dt>i</dt>
    <data>
      -1 1</data></class_labels>
  <sv_total>1</sv_total>
  <support_vectors>
    <_>
      -3.55503410e-002 4.21057781e-003 2.01067189e-003 -1.22941693e-003
      1.03632696e-002 -3.55685987e-002 -5.07037854e-003 -9.39322077e-003
      7.04640802e-003 6.74579386e-003 -8.38801265e-003 1.62288155e-002
      1.38877872e-002 4.73759649e-003 -1.43941157e-002 1.82268396e-002
      2.25830544e-002 -4.34282795e-003 -1.07227592e-002 1.71481594e-002
      1.03380475e-002 2.39268821e-002 1.95807256e-002 -4.50226618e-003
      3.44948843e-003 1.25298658e-002 -5.31463139e-002 1.18442001e-002
      8.75262823e-003 -1.05574180e-003 -9.28124599e-003 -2.13045180e-002
      -8.64035042e-004 2.12580506e-002 8.93491507e-003 -8.26857926e-004
      3.01940497e-002 -1.22829871e-002 -3.09274085e-002 1.64474770e-002
      5.43524162e-004 -2.82036141e-002 1.67549588e-002 -1.05350902e-002
      7.80108944e-003 3.98083683e-003 -2.60206629e-002 7.47819850e-003
      2.57700775e-003 4.02545324e-003 -1.98652241e-002 5.93464449e-003
      1.79618131e-003 -1.65716670e-002 -1.52158020e-002 1.31655708e-002
      2.51814583e-003 4.47668135e-003 -1.42266806e-002 -1.48742115e-002
      6.93520065e-003 -2.43394915e-003 1.02773830e-002 -1.75273102e-002
      6.52580662e-003 -5.23767341e-003 -3.00224423e-002 -1.43979327e-003
      9.30990931e-003 -7.20221316e-003 -8.05717893e-003 8.75825901e-003
      -2.60570999e-002 -9.81261954e-003 -8.99196882e-003
      -5.36687300e-003 2.90056206e-002 -9.56053613e-004 -1.49823288e-002
      4.83456533e-003 -2.88712815e-003 3.41670820e-003 9.36941616e-003
      9.11054108e-003 -8.97913519e-003 1.92051660e-002 -5.06022153e-003
      -6.71826079e-002 1.86346453e-002 2.44440581e-003 4.54245135e-003
      1.17371427e-002 -1.77338289e-003 1.79039687e-002 -6.28973183e-004
      -2.35490389e-002 3.13113518e-002 1.27679473e-002 -2.71883677e-003
      -7.57631799e-003 2.25097217e-004 -1.54319564e-002 -6.53473288e-003
      -3.32239270e-003 3.45371920e-003 1.61546152e-002 7.50207622e-003
      2.82521534e-004 6.77496335e-003 -2.51427130e-003 -7.98503496e-003
      5.30414842e-003 5.65837044e-003 1.14304600e-002 -2.72237137e-002
      5.21885836e-003 7.55170081e-003 1.95961613e-002 -4.53667454e-002
      5.69103519e-003 -2.50310674e-002 -3.43226246e-003 5.58729097e-003
      8.50389060e-003 1.66044105e-002 -2.15198454e-002 1.08441282e-002
      -8.61607585e-003 -9.04026092e-005 1.46461772e-002 8.16902239e-003
      -1.16262920e-002 -1.10083716e-002 -1.40377991e-002 1.48001453e-002
      -1.45608792e-002 -2.13899966e-002 -6.56895572e-005
      -1.23656932e-002 9.08619817e-003 3.16061936e-002 -3.18639586e-003
      9.94841009e-003 6.02366682e-003 1.44952927e-002 -1.89775543e-003
      1.74183343e-002 1.59229133e-002 -8.56229942e-003 -8.05083755e-003
      1.14409439e-002 5.52157965e-003 -6.47375546e-003 3.05709634e-002
      6.57580444e-004 -3.75757017e-003 -6.33787969e-003 1.84059273e-002
      5.30479616e-003 1.06843635e-002 -1.83551554e-002 1.21903419e-002
      -5.18077658e-003 1.29482094e-002 4.76326793e-003 1.89951174e-002
      -1.42368590e-002 -1.25265459e-003 -6.38975669e-003 2.08434388e-002
      -1.65918097e-002 1.49033349e-002 1.04459114e-002 2.32119542e-002
      1.40397856e-003 9.00439452e-003 -5.82757518e-002 -8.26382136e-004
      1.04042599e-002 1.39515353e-002 -2.22699214e-002 2.25404054e-002
      1.27690043e-002 4.53088712e-003 -2.43022689e-003 -5.24494518e-003
      -3.13478988e-003 -3.49028176e-003 -1.19527476e-002 4.00565984e-003
      1.74950734e-002 -1.20267225e-002 -2.53152773e-002 -8.50152131e-003
      -5.88539941e-003 4.56564547e-003 1.36049101e-002 -9.16678365e-003
      6.04802137e-003 8.26573931e-003 -1.50788771e-002 -1.93999205e-002
      3.66510078e-003 2.00024750e-002 2.22488344e-002 7.30332965e-003
      1.22444180e-003 6.00979058e-003 -4.09986824e-003 1.68065559e-002
      5.37324091e-003 7.42500322e-003 -1.61669850e-002 -1.03926780e-002
      -1.60352159e-002 4.15120833e-003 -1.08709950e-002 -1.96204428e-002
      1.67866573e-002 9.51417815e-003 3.53324250e-003 1.51665192e-002
      9.56590008e-003 2.55566444e-002 -2.45239772e-002 1.93580873e-002
      8.73320922e-003 -1.27285125e-003 6.47101901e-004 8.61470029e-003
      1.61596220e-002 -9.44649987e-003 3.29425000e-002 2.93151848e-002
      8.06894433e-003 -6.87268842e-003 -1.75519753e-002 3.52019491e-003
      -9.67285945e-004 -2.02944074e-002 1.84043944e-002 -1.02918281e-003
      -2.41497764e-003 8.20607785e-003 2.09313701e-003 -5.47607010e-003
      1.69090480e-002 -5.50413737e-003 6.19269256e-003 -4.99844830e-003
      2.75065415e-002 4.88606934e-003 -2.68894574e-003 4.95479209e-003
      7.08211958e-003 1.12405010e-002 1.06657930e-002 -3.73590994e-003
      -1.37874146e-003 2.74063111e-003 2.19722744e-002 -6.12247549e-003
      -3.20262052e-002 5.48545597e-003 -1.62429996e-002 -1.01599703e-002
      -8.32904538e-004 6.55163499e-003 -2.24563619e-003 1.28311217e-002
      1.97384097e-002 2.14857347e-002 3.15789669e-003 1.71669852e-002
      -9.44598205e-003 6.76168874e-003 -2.27571931e-002 4.85703023e-003
      -2.50361282e-002 1.97838470e-002 -7.77410762e-003 8.31508916e-003
      -5.87192178e-003 1.40599078e-002 9.67428845e-004 -3.51981968e-002
      7.12014548e-003 2.08726618e-003 -3.12591018e-003 5.24769118e-003
      1.05937114e-002 1.04834102e-002 8.31959397e-003 8.39642528e-003
      6.31043175e-003 -1.75694637e-002 -1.49769410e-002 1.91295259e-002
      -1.31512422e-003 9.57761705e-003 -1.51470266e-002 1.57349147e-002
      3.31315794e-003 1.51781337e-002 1.33295693e-002 4.15003533e-003
      1.43527463e-002 4.85238852e-003 1.46179413e-003 1.62916258e-002
      -2.12441161e-002 1.01367279e-003 4.88002505e-003 -8.78823921e-003
      9.35694203e-003 -2.79202964e-002 1.52069740e-002 1.82009190e-002
      3.35262716e-003 2.28238106e-003 9.56364349e-003 1.68726407e-003
      1.97104458e-002 -5.01910271e-003 -3.40791908e-003 3.30563961e-003
      4.99750860e-003 2.16312353e-002 1.11917006e-002 4.17165644e-003
      -3.64607871e-002 -7.00452598e-003 3.93841788e-003 6.78087864e-003
      5.93951391e-003 -1.72747392e-002 1.13649457e-005 -5.30553609e-003
      -2.11428422e-002 1.67962667e-002 -1.59859471e-003 -5.94078423e-003
      5.07779326e-003 2.18631071e-003 1.75501239e-002 3.72316362e-003
      -6.57157274e-003 1.35238301e-002 -7.93593749e-003 1.51438145e-002
      1.88085530e-003 4.98407707e-003 1.78134385e-002 1.23175778e-004
      7.91547261e-003 3.42682726e-003 1.13951303e-002 1.43772867e-002
      7.17622507e-003 2.74882168e-002 1.48092059e-003 1.24567952e-002
      -1.01785827e-002 2.13376079e-002 3.33092064e-002 -4.23057191e-002
      -1.73408061e-003 8.46617855e-004 -1.40736867e-002 -5.73885720e-003
      -2.29615849e-002 5.76086296e-003 1.72696332e-003 2.18618801e-003
      -9.48664919e-003 -2.40564924e-002 -4.92439568e-002 1.25797873e-003
      -2.75226571e-002 3.02502653e-003 1.44008007e-002 -8.67266033e-004
      2.09981278e-002 2.74934084e-003 4.26859455e-003 1.42305000e-002
      8.24342016e-003 2.15005949e-002 1.73240006e-002 -3.76011878e-002
      1.01429047e-002 2.58276868e-003 -2.26315241e-002 -9.39025485e-004
      -1.40643236e-003 9.57137812e-003 3.74926790e-003 1.23069612e-002
      2.99924682e-003 6.67671952e-003 2.18613818e-003 2.86811916e-003
      -1.35746449e-002 -3.49800359e-003 1.80514518e-003 1.11835747e-004
      -1.74200884e-003 1.83796920e-002 7.49230245e-003 -5.67568094e-003
      1.64791588e-002 6.87653059e-003 -1.13513945e-002 -1.86828947e-005
      2.04133545e-003 -4.57864143e-002 8.27173144e-003 2.91574653e-003
      5.69334486e-004 3.65020311e-003 9.17879515e-005 1.53557491e-002
      8.54662899e-003 1.12203686e-002 -1.09960539e-002 -1.98099799e-002
      1.93313148e-003 -6.82399841e-003 1.68878082e-002 1.70066841e-002
      7.39587005e-003 -4.34728712e-003 -9.51841846e-003 9.83341224e-003
      -1.56725303e-003 -1.57116000e-002 -2.22452134e-002
      -8.65028147e-003 -4.05587442e-002 7.29455147e-003 -8.59497674e-003
      -2.94886879e-003 -1.23715941e-002 -6.14906661e-003 1.30269025e-002
      -6.12153253e-003 9.23328847e-003 -2.31983303e-003 -1.18736215e-002
      -1.19340625e-002 -1.89870298e-002 1.38364881e-002 6.82225265e-003
      -2.65079159e-002 -1.03253759e-002 -1.06853193e-004
      -2.70462893e-002 1.90006383e-002 1.92659872e-003 -1.28316293e-002
      1.72700768e-003 6.61434093e-003 9.27173253e-003 0.
      -1.21858148e-002 -7.49403052e-003 -4.97237407e-003 8.30721855e-003
      3.97460349e-003 0. 4.07834817e-003 2.81922054e-003 3.34057421e-003
      -4.82747855e-004 1.48399994e-002 -2.66843084e-002 1.59423985e-002
      1.79767627e-002 -1.35463588e-002 1.24990623e-002 -5.35534602e-003
      5.39258262e-003 -1.77159405e-003 8.12414661e-003 1.18699223e-002
      8.73931590e-003 2.75838245e-002 7.35996664e-003 -1.90934595e-002
      -5.66140283e-003 1.41923213e-002 -2.39399821e-002 6.23334199e-003
      -2.36848416e-003 -1.73278619e-002 -2.11751275e-002 2.76108384e-002
      3.96914734e-003 2.18637451e-003 2.18602899e-003 8.71944521e-003
      1.72701757e-003 3.91649781e-003 -1.89897493e-002 1.61140487e-002
      -3.96319246e-003 1.56310517e-002 5.25081856e-003 5.21257194e-003
      -1.50919482e-002 9.87160951e-003 -2.82566212e-002 7.51345791e-003
      3.44647514e-003 5.28766820e-003 -7.54816923e-003 4.80189337e-004
      -2.03965362e-002 1.28320502e-002 -3.44340503e-002 1.17989201e-002
      -7.32889352e-003 5.20506734e-003 -4.17470094e-003 -6.50104228e-003
      2.18616473e-003 1.18113765e-002 8.66582524e-003 -3.95766608e-002
      7.06288218e-003 -1.80321524e-003 2.35091290e-003 -5.70137054e-004
      7.34472461e-003 7.04658870e-003 2.19696341e-003 -2.77389660e-002
      1.77252423e-002 -2.63126753e-003 4.04143287e-003 -1.49870180e-002
      -1.32751258e-004 -1.87343899e-002 -6.29266677e-003 1.43100042e-002
      -7.83617236e-003 -6.91045448e-003 -1.84973069e-002 8.21943395e-003
      -2.85283295e-005 4.23828466e-003 -2.24345922e-002 -2.86682043e-002
      1.33589236e-002 3.93203367e-003 -8.80302954e-003 -8.32340121e-003
      -2.44877348e-003 -3.87147740e-002 -1.79264005e-002 1.15182390e-003
      7.91164953e-003 3.93891241e-003 2.03606822e-002 1.40982063e-003
      -1.99866239e-002 -7.40239490e-003 7.56287808e-003 5.23649668e-003
      2.02317033e-002 -5.11407340e-003 -5.13067469e-003 1.29111167e-002
      -1.34179518e-002 -5.88129368e-003 -1.46995317e-002 5.08623384e-003
      2.61925720e-003 -7.68238446e-003 1.58506110e-002 3.58300144e-003
      -5.50203677e-003 -3.35940197e-002 7.49984244e-003 4.45242226e-003
      3.96919204e-003 3.89624340e-003 -4.08014562e-003 -3.18864994e-002
      -4.80587827e-003 1.58131383e-002 -2.80821677e-002 4.08755476e-003
      2.05658730e-002 4.90366481e-003 1.06786778e-002 -1.60825662e-002
      2.29370352e-002 1.16438409e-002 8.04407173e-004 -1.44267064e-002
      2.20733825e-002 8.17111600e-003 1.25028112e-003 -7.48075487e-004
      -5.29370131e-003 1.04733650e-002 3.08135105e-003 -8.89531244e-003
      1.07414965e-002 1.22640971e-002 1.96242537e-002 2.21409043e-003
      -5.33177797e-003 -2.31170142e-003 1.77642843e-003 1.26252500e-002
      1.03776781e-002 1.60644343e-003 8.11254649e-005 -2.70811375e-003
      1.79843996e-002 -8.84340797e-003 4.07735910e-003 1.50012793e-002
      1.60132837e-003 1.41378697e-002 5.76622784e-004 -1.40392664e-003
      1.33240856e-002 -4.38468531e-003 1.21063832e-002 -4.61697578e-003
      -2.92564053e-002 4.88108769e-003 3.25958757e-003 7.53419707e-003
      2.18621385e-003 8.76771659e-003 -3.56128858e-003 1.47373835e-003
      1.63459722e-002 1.00994576e-002 2.27357335e-002 -4.35223430e-003
      -1.40480651e-002 -5.38044190e-003 1.53654721e-003 -1.13068055e-003
      -6.52335444e-003 1.66938324e-002 2.37570480e-002 -3.08288727e-003
      -2.89087649e-003 5.20983292e-003 -2.16038607e-004 9.79523268e-003
      -1.39888711e-002 5.71391452e-003 7.87763204e-003 1.01937982e-003
      -1.31819323e-002 2.18618545e-003 -4.56540249e-002 9.99655854e-003
      6.74855476e-003 -1.68180894e-002 -2.18735803e-002 1.17856422e-002
      3.89204081e-003 -7.23474147e-003 -2.17435276e-003 1.49927530e-002
      -4.89849225e-003 1.69571601e-002 1.31948823e-002 -2.62428876e-002
      -5.36814285e-003 2.69725965e-003 4.00359044e-003 -1.62536353e-002
      1.58239864e-002 2.52048974e-003 8.88823532e-003 6.64431043e-003
      -9.66607500e-003 1.69369150e-002 -6.84500206e-003 -1.58665404e-002
      1.72707764e-003 -2.80529372e-002 -6.82317652e-004 7.83525035e-003
      -7.78374495e-003 -4.94558737e-002 -4.06148098e-003
      -2.73992028e-002 -9.54216998e-003 7.85470754e-003 7.80494977e-003
      -4.82553430e-003 -8.61461833e-003 2.10647145e-003 9.22224764e-003
      -3.27422023e-002 -3.25639136e-002 -2.18552002e-003 1.28377543e-003
      7.92729389e-003 9.81540978e-003 -7.39128841e-003 -1.11042513e-002
      3.47147416e-003 2.35327575e-002 -4.97905817e-003 -3.47544886e-002
      -8.42763204e-003 1.14153596e-002 -3.42915719e-003 -1.72423292e-003
      -2.10511722e-002 9.34005622e-003 4.01802873e-003 1.58941909e-003
      8.97601061e-003 -1.99929369e-003 4.64430591e-003 3.16901685e-004
      6.61087362e-003 3.53944413e-002 -1.78999268e-003 2.45518889e-003
      2.07294617e-002 1.35198962e-002 1.34736821e-002 -1.40500925e-002
      1.44358361e-002 -8.32175277e-003 -4.03075293e-003 -2.92981155e-002
      -6.43491629e-004 4.10387758e-003 3.96092981e-003 -1.50366761e-002
      1.90508887e-002 -1.25785200e-002 -5.59085864e-004 2.18610000e-003
      -2.19479110e-002 -1.29463687e-003 4.15450381e-003 2.70333583e-003
      1.21198054e-002 1.06863806e-003 1.20727690e-002 1.23931805e-003
      1.45404814e-002 4.00371989e-003 -8.42832308e-003 -6.41227840e-003
      -4.09698226e-002 7.07060192e-003 -7.76001066e-003 -4.07588109e-002
      6.72444794e-003 -6.01263717e-003 -1.97526552e-002 1.54297361e-002
      -2.61740503e-003 8.23394395e-003 1.32549424e-002 1.54183153e-002
      2.11384357e-003 -9.70041961e-004 -1.77785568e-002 2.56435643e-003
      -6.43942179e-003 6.24287454e-003 3.20227793e-003 1.14063257e-002
      2.02900805e-002 -3.17246304e-003 -3.54659185e-003 -3.84508073e-002
      -1.80306491e-002 4.89875162e-003 -6.13964582e-003 5.55247068e-004
      1.71720274e-002 2.21089944e-002 8.34243931e-003 1.34022282e-002
      1.43148901e-003 5.40594850e-003 5.08979894e-003 -1.20065445e-002
      -1.33514460e-002 -2.00594263e-003 7.70551199e-003 1.75827015e-002
      -1.57506950e-002 -3.69396177e-003 -4.69074920e-002 6.36238372e-004
      9.70607158e-003 -1.37858214e-002 2.62551866e-002 -1.74741820e-002
      3.38910706e-003 4.97801229e-003 1.98172056e-003 1.10444129e-002
      -8.87643732e-003 5.25927218e-003 -1.02973375e-002 -3.18037681e-002
      1.64050586e-003 -2.06053369e-002 3.59995198e-003 -8.47941451e-003
      2.63226428e-003 1.00800907e-002 1.02910530e-002 -1.70263834e-002
      -1.11801736e-002 1.15400450e-002 1.24922153e-002 1.13529246e-003
      -8.35208688e-003 7.06276344e-003 -7.95019511e-003 -6.23867922e-002
      -4.12646419e-004 -2.16775406e-002 -1.51000628e-002 9.23951250e-003
      1.49920592e-002 -1.46621764e-002 9.19081387e-004 1.11599993e-002
      1.16369901e-002 -4.57826722e-003 9.92833264e-003 -7.09278928e-003
      -3.07461452e-002 1.93246303e-003 3.21877678e-003 1.13618858e-002
      1.34325996e-002 2.55712699e-002 1.03274537e-002 6.75487565e-004
      1.49052439e-003 -9.31002293e-003 -9.60871484e-003 1.11614112e-002
      1.46638518e-002 6.49830792e-003 4.22365358e-003 -1.20834447e-002
      8.90465599e-005 -1.89254666e-003 1.28332814e-002 -6.55952841e-003
      5.64932218e-003 9.12634563e-003 3.41276033e-003 -4.13120091e-002
      -9.34668817e-003 -1.04327137e-002 -2.67891935e-003 9.65511519e-003
      -1.44704408e-003 3.19259614e-003 3.47366813e-003 -8.95978324e-003
      -1.56378727e-002 -5.58828353e-004 1.17312539e-002 -1.70259795e-004
      -1.14320097e-002 1.78879796e-004 -3.21028754e-002 -6.86014071e-003
      8.20066035e-003 6.50245976e-003 -5.83348842e-003 6.00749627e-003
      9.22276545e-003 6.64301496e-003 -1.55728208e-002 -2.29141489e-002
      4.65323869e-003 1.67622697e-002 5.74097794e-004 3.21905408e-003
      1.88724082e-002 1.20469416e-002 1.93267711e-003 -3.02342232e-003
      -4.48587583e-003 2.31556855e-002 -5.06543042e-003 2.53148563e-003
      1.10304337e-002 2.18617963e-003 7.09667895e-003 1.72651152e-003
      -9.86261480e-003 -2.12776809e-004 -7.14017591e-003 2.43177311e-003
      -5.19254594e-004 1.72704819e-003 1.25880830e-003 -3.25992182e-002
      1.62663186e-004 -1.36990892e-002 -8.21136683e-003 0.
      2.39313375e-002 -5.03888214e-003 -1.26334745e-002 7.76566798e-003
      1.06473248e-002 6.27519004e-003 2.05728546e-004 -1.45128919e-002
      -4.64244559e-002 8.11977591e-003 -7.47884065e-003 1.83500275e-002
      -1.73659669e-003 6.98881224e-003 6.45149499e-003 -7.19969347e-003
      -1.17697325e-002 5.75761870e-003 -1.19138537e-002 2.44253734e-003
      1.16894883e-003 -2.01850701e-002 3.78835341e-003 -3.50524373e-002
      3.89239751e-003 -1.74296014e-002 6.63760304e-003 -3.53339687e-003
      5.45588729e-004 -2.17450690e-003 7.62206689e-003 6.51667314e-003
      8.91352817e-003 1.15046352e-002 3.50828329e-003 6.57202210e-003
      -1.31656816e-002 8.36308673e-003 2.76621245e-003 4.13949275e-003
      1.12640867e-002 -1.72113301e-003 -7.26303365e-003 5.83176548e-003
      4.68353368e-003 1.36242351e-002 2.33113393e-002 5.89298143e-005
      1.29248304e-002 -5.94701571e-003 -1.03347637e-002 -7.47896079e-003
      -8.28420930e-003 2.00141165e-002 8.56208429e-003 1.31096253e-002
      3.15600471e-003 1.73428170e-002 3.59753240e-003 -6.74001465e-004
      -5.29446080e-003 9.17161256e-003 -1.40478984e-002 -8.29528924e-003
      1.77128147e-002 -1.41332787e-003 1.97217856e-002 8.71035829e-003
      -7.25815911e-003 8.01619980e-003 2.68823025e-003 5.30172780e-004
      -1.35838948e-002 1.17319552e-002 -4.00513597e-002 -8.61545932e-003
      -3.00671607e-002 1.19783310e-002 7.66629213e-003 -3.79731948e-003</_></support_vectors>
  <decision_functions>
    <_>
      <sv_count>1</sv_count>
      <rho>-9.9776677394509683e-001</rho>
      <alpha>
        1.</alpha>
      <index>
        0</index></_></decision_functions></my_svm>
</opencv_storage>
