<?xml version="1.0"?>
<opencv_storage>
<my_svm type_id="opencv-ml-svm">
  <svm_type>C_SVC</svm_type>
  <kernel><type>LINEAR</type></kernel>
  <C>1.</C>
  <term_criteria><epsilon>2.2204460492503131e-016</epsilon>
    <iterations>1000</iterations></term_criteria>
  <var_all>1000</var_all>
  <var_count>1000</var_count>
  <class_count>2</class_count>
  <class_labels type_id="opencv-matrix">
    <rows>1</rows>
    <cols>2</cols>
    <dt>i</dt>
    <data>
      -1 1</data></class_labels>
  <sv_total>1</sv_total>
  <support_vectors>
    <_>
      9.26441047e-003 -2.84170080e-002 7.28948694e-003 7.41699943e-004
      1.51571054e-002 3.87956551e-003 -2.89577246e-002 1.09913794e-003
      6.57620421e-003 5.59473922e-003 2.10471191e-002 6.00114185e-003
      -1.65763777e-003 6.74371189e-003 5.55281574e-003 -2.03894195e-003
      2.80062538e-002 -3.84119935e-002 1.36180921e-002 3.54190473e-003
      -3.04662697e-002 3.40432227e-002 2.18971092e-002 2.07182067e-003
      1.30823336e-003 1.77982897e-002 1.67304147e-002 2.41104048e-003
      -8.42317473e-003 1.92970019e-002 -7.02207023e-003 1.43170794e-002
      -2.11288016e-002 -1.54182669e-002 -1.89015828e-003
      -3.42530049e-002 2.21912516e-003 -7.76412711e-003 -2.09257919e-002
      1.03225894e-002 7.07084173e-003 1.69511605e-002 1.13321305e-003
      -2.45163571e-002 -2.64491104e-002 2.99729686e-002 -7.40955409e-004
      6.91832649e-003 2.23903302e-002 1.86765715e-002 1.48576144e-002
      1.10485768e-002 6.42534159e-003 4.46906406e-003 -7.27184862e-003
      1.31803434e-002 3.29892780e-003 2.57846825e-002 5.96998213e-003
      -6.24383427e-003 -1.29923746e-002 -7.05741392e-003
      -3.73134110e-003 -9.31251794e-004 1.23141333e-002 4.89922427e-003
      1.65208466e-002 -1.23558026e-002 2.12433990e-002 6.65422343e-003
      2.00439189e-002 -4.04265802e-003 2.01024432e-002 -1.67572615e-003
      -5.43154543e-003 -2.97389016e-003 -1.31354816e-002 1.89035351e-003
      8.50660633e-003 -2.97395643e-002 1.15982285e-002 -3.63709331e-002
      -2.93626692e-002 5.85063361e-004 -2.85257753e-002 1.12193748e-002
      4.15600091e-003 -1.27550866e-002 1.21803051e-002 -8.80730618e-003
      -1.13834878e-002 5.32682112e-004 9.54794325e-003 -1.95622128e-002
      1.05110062e-002 1.99956466e-002 -4.27768100e-003 -1.10968817e-002
      -7.72358989e-003 -3.10284947e-003 -1.06563633e-002 1.47421740e-003
      -9.34935268e-003 -1.77451614e-002 -1.54596716e-002 7.32070021e-003
      7.77449738e-003 1.95014346e-002 7.69640040e-003 -1.71556789e-002
      -6.92605972e-003 1.34885730e-002 1.36317285e-002 7.03639630e-003
      6.99775573e-003 -8.87126569e-003 -1.76647082e-002 -2.87101907e-003
      1.63665675e-002 2.52622720e-002 -3.52045409e-002 1.39371948e-002
      -4.27445490e-003 1.51220560e-002 -7.87544006e-004 -1.70258377e-002
      -2.76143616e-003 -1.10264998e-002 6.74358616e-003 -9.25351400e-003
      -3.51576571e-004 -4.99577932e-002 -1.37170637e-002 7.06098368e-003
      -1.85533206e-003 -5.10731945e-003 1.13833612e-002 2.47182734e-002
      3.78698716e-003 -1.32976379e-002 -8.87152087e-003 1.46199865e-002
      1.19320853e-002 -1.33316442e-002 1.46749699e-002 -2.79215258e-002
      9.59004834e-003 1.65875647e-002 2.93997396e-003 1.04756898e-003
      -1.13063296e-002 -1.66256968e-002 1.89160835e-002 -5.09707630e-003
      5.52214449e-003 7.51133868e-003 -5.70854917e-003 -2.73149963e-002
      -1.39824292e-002 -2.46747211e-002 -1.03090722e-002
      -3.90085950e-002 -2.54343431e-002 5.43462019e-003 -1.13763837e-002
      8.48384388e-003 8.30397289e-003 1.68917216e-002 -1.39052607e-003
      1.44167608e-002 1.05319815e-002 1.63200423e-002 2.78376807e-002
      -4.48074229e-002 1.45349810e-002 -1.22447172e-002 1.73214567e-003
      -5.73088182e-003 2.83041410e-003 3.40822828e-003 2.46894173e-003
      -2.33842507e-002 -2.69868830e-003 3.15159708e-002 -2.57530413e-003
      -4.78454458e-004 4.86440770e-003 -1.36722559e-002 3.47040431e-003
      -2.42951047e-002 -2.19192659e-003 1.85028315e-002 4.63504717e-003
      -1.75583474e-002 -2.36517424e-003 -2.22595269e-003 1.90045033e-002
      -4.16272739e-003 1.58610996e-002 6.74435543e-003 5.83261135e-004
      -3.50086167e-002 -1.25816651e-002 -3.23805846e-002 7.66174216e-003
      -3.00076511e-002 1.62642673e-002 -1.34655274e-003 3.49754794e-003
      3.87289235e-003 1.75936650e-002 7.88798928e-003 3.44197173e-003
      2.57941857e-002 6.45857258e-003 1.43119162e-002 2.00437289e-003
      -8.22850387e-004 -5.32172248e-003 7.95010012e-003 -3.64789274e-003
      -9.23268963e-003 3.36499093e-003 1.43075939e-002 -1.90722626e-002
      -6.38911780e-003 -1.24354633e-002 1.54664787e-002 8.43933411e-003
      -1.22794206e-003 5.23740100e-003 4.28999262e-003 -1.07957684e-002
      -6.15654606e-003 1.43983599e-003 1.09938974e-003 -3.04277875e-002
      -6.51266612e-003 1.29093844e-002 7.35776965e-003 -4.32149926e-003
      1.92385563e-003 -3.18240710e-002 -1.85015034e-002 -3.05335037e-002
      5.66862640e-004 1.00617018e-002 -1.66324247e-003 -1.53035438e-002
      5.90104470e-003 -1.90997962e-002 5.47722355e-003 -3.30764316e-002
      -1.39707606e-002 4.55012266e-003 -1.89610186e-003 -3.03311087e-002
      8.85440502e-003 9.24159074e-004 1.50040863e-002 1.71447359e-002
      3.04526626e-003 9.01416223e-003 6.58430532e-003 -1.70591362e-002
      7.25485431e-003 1.34498915e-002 1.37339933e-002 -1.93132330e-002
      6.53705560e-003 -2.56495271e-003 -5.05957715e-002 -6.90306583e-003
      -3.46954819e-003 -4.63000685e-003 4.87608695e-003 8.29879194e-003
      -1.78563502e-002 8.66045523e-003 -1.16028208e-002 3.85934277e-003
      1.97922010e-002 -1.77685823e-002 1.27718030e-002 3.34843830e-003
      1.14406142e-002 -2.60506687e-003 -7.66648166e-003 -3.22075449e-002
      7.17392366e-004 1.70186011e-003 -6.96981605e-003 4.63463506e-003
      1.09942257e-003 -3.20211123e-003 -4.02599461e-002 2.41710525e-002
      -1.79853849e-002 -1.02626346e-002 1.19009456e-002 6.60867023e-004
      1.41408443e-002 8.30887258e-003 3.09298886e-003 1.09539200e-002
      1.56211285e-002 -6.40876300e-004 -2.13361494e-002 1.04708818e-003
      3.68807319e-004 -1.03912745e-002 -9.84106865e-003 -9.37440724e-004
      -2.68570445e-002 2.41353433e-003 1.10739470e-002 -3.11809164e-002
      2.63866317e-002 3.83776351e-004 1.61134396e-002 -7.84189720e-003
      -4.15807078e-003 -2.45834216e-002 -5.30415494e-003 5.08500170e-003
      5.57128852e-003 2.72041606e-003 -6.60222303e-003 3.10900691e-003
      -7.07752863e-003 8.65352526e-003 -1.30742956e-002 1.59896240e-002
      5.72343869e-003 2.26865406e-003 1.48338899e-002 3.46374735e-002
      1.74573977e-002 2.42235214e-002 2.50252653e-002 5.71726263e-003
      9.83461458e-003 7.78826838e-003 -5.94129506e-003 -1.99810439e-003
      1.82785504e-002 2.83687636e-002 -3.24381585e-003 -1.80928007e-004
      1.33242607e-002 6.10692939e-003 -1.21645592e-002 6.97063608e-003
      -3.70130991e-003 2.88291369e-003 -1.01905754e-002 9.44255851e-003
      -8.24632775e-003 -1.90290138e-002 -2.34951004e-002 2.07206719e-002
      -2.52397489e-002 -3.66545923e-004 1.63200963e-002 1.03755109e-002
      -7.62310438e-003 1.39256632e-002 1.90197565e-002 3.93772637e-003
      1.47771742e-002 -1.20973876e-002 1.98435541e-002 1.38480728e-002
      -3.59718502e-003 1.39888320e-002 1.35564329e-002 1.30389417e-002
      7.60131702e-003 2.10164245e-002 -7.07690930e-003 8.36834032e-003
      2.17317487e-003 1.43582113e-002 -1.64985824e-002 9.47485771e-003
      1.06677003e-002 2.01251525e-002 -3.17646228e-002 8.29158351e-004
      7.20051583e-004 1.18583376e-002 -2.15727906e-003 -2.77909450e-002
      -7.74699450e-003 -8.44803231e-004 1.56167010e-002 -1.05787506e-002
      1.81040708e-002 -1.09334951e-002 1.09941361e-003 1.22375609e-002
      -5.71659859e-003 5.11649589e-004 1.07497582e-002 -2.05913950e-002
      9.58658475e-003 1.56674590e-002 5.71544887e-003 1.30559271e-002
      -7.51937623e-004 -1.94501388e-003 -7.34232832e-004
      -1.97291048e-003 3.40723731e-002 -1.50252972e-003 6.27966691e-003
      9.23288055e-003 -2.89556454e-003 2.23984686e-003 1.90012250e-002
      -2.21028384e-002 -3.77980550e-003 1.50728496e-002 -1.33737717e-002
      -8.16172827e-003 -3.43561769e-002 -4.86051803e-003
      -3.00187953e-002 2.63690157e-003 -9.68843978e-003 -2.99310614e-003
      1.51157975e-002 -1.50974309e-002 1.67171180e-003 -1.92229450e-002
      5.36496425e-003 -3.00708916e-002 -1.15849944e-002 2.31339466e-002
      2.13664514e-003 -1.52499992e-002 -1.36662237e-002 1.95835065e-003
      -5.54838125e-003 -2.04422437e-002 1.61954283e-003 -3.29342261e-002
      7.05480436e-003 3.02252662e-003 -1.05668157e-002 4.54072934e-003
      8.35583173e-003 2.45608035e-002 2.35427245e-002 -8.61347001e-003
      -3.16132233e-002 7.48440111e-003 -1.56992394e-002 -2.12511458e-002
      -3.56316529e-002 -1.02352360e-002 -2.04091258e-002
      -1.34958019e-002 -3.67374229e-003 -3.62883252e-003
      -9.19841509e-003 -2.45583542e-002 -8.17490369e-003 1.16071459e-002
      5.11102285e-003 9.83808935e-003 -1.12187089e-002 3.26715270e-003
      -9.39800963e-003 -3.27047966e-002 -5.82432970e-002
      -6.50518015e-003 1.21578434e-003 4.14013304e-003 -7.91506749e-003
      -9.61490907e-003 7.46079627e-003 1.71072241e-002 -7.70956650e-003
      -4.36646007e-002 -1.70363281e-002 1.89368650e-002 -4.01676307e-003
      3.46110901e-003 -1.17223120e-004 1.46794086e-002 1.04447184e-002
      -3.87986116e-002 -2.11079931e-003 1.43349124e-002 5.83963818e-004
      -4.48587760e-002 1.50241712e-002 4.97664418e-003 6.03811641e-004
      -7.28847645e-003 1.12593556e-002 1.87542960e-002 2.19760519e-002
      9.54215229e-003 9.62281134e-003 -7.14291632e-003 1.17265934e-003
      1.91806746e-003 9.18904040e-003 -7.08582625e-003 -1.44751901e-002
      8.76176637e-003 -2.17773635e-002 1.45801343e-002 1.55693153e-002
      -6.49097422e-003 1.56855993e-002 -7.49312155e-003 5.84774185e-003
      1.33050664e-003 6.97520142e-003 2.65201973e-003 -5.29762218e-003
      9.29424819e-003 1.51219321e-002 -1.16648069e-002 1.43711343e-002
      1.09835546e-002 -1.82807911e-003 -1.52561665e-002 4.21001663e-004
      -1.57416463e-002 1.45929893e-002 6.81650639e-003 -9.37209406e-004
      7.21612200e-003 1.18280252e-004 1.82456840e-002 -1.47048607e-002
      -1.76823717e-002 1.32098505e-002 3.48564680e-003 -9.14546021e-004
      -3.21413279e-002 1.79663557e-003 1.80893596e-002 4.06554667e-003
      -1.73137076e-002 1.98143106e-002 -1.62337106e-002 3.62401421e-004
      2.95442995e-003 6.99118571e-003 1.65416789e-003 2.04113200e-002
      3.09611118e-004 -1.88921355e-002 -1.16627908e-003 -3.92949732e-004
      2.13422999e-003 -3.83757381e-003 -1.44216735e-002 1.97723769e-002
      1.09805204e-002 -1.79619284e-003 1.50353219e-002 1.40801154e-003
      2.70859171e-002 2.36971769e-003 -2.30797250e-002 -1.27110118e-002
      -2.35576350e-002 6.74786337e-004 8.47189408e-003 -7.67317507e-003
      -1.77843124e-002 3.71559960e-004 1.15018366e-002 -1.31626951e-003
      -2.01166840e-003 2.21743267e-002 1.77527592e-002 2.56813411e-003
      4.15184069e-003 6.40101498e-003 6.82770181e-003 1.49074951e-002
      2.51620752e-003 2.96185892e-002 -1.04357935e-002 4.86934296e-005
      -5.44755720e-003 -1.63398236e-002 -5.07703424e-003 7.89192040e-003
      1.50079466e-002 -1.10431286e-002 -1.50483660e-002 4.47294535e-003
      1.86710095e-003 1.69586856e-002 -8.65231175e-003 -7.43705593e-003
      -4.29238332e-003 9.73189902e-003 3.41651030e-002 1.37116322e-002
      6.52587926e-003 -1.18755568e-002 2.45043840e-002 -7.85723049e-003
      -1.72231707e-003 -5.71829267e-003 -1.30232237e-002 1.41311586e-002
      -1.59290433e-002 4.63240640e-003 -1.46816345e-002 1.15255816e-002
      3.67654748e-002 -2.85267131e-003 1.39981555e-002 1.96544211e-002
      7.55229639e-003 4.06283373e-003 1.29626691e-002 -2.52623856e-002
      1.73857156e-002 4.79379902e-003 -3.73620167e-003 -1.38879882e-003
      -5.70271024e-003 -5.53809060e-003 -1.37777794e-002
      -3.68959946e-003 9.23717115e-003 6.25888025e-003 -3.83939524e-003
      3.40721081e-003 -4.09013778e-003 -1.58361290e-002 -5.62542351e-003
      6.43782783e-004 3.20017594e-003 -4.25679871e-004 9.98078100e-003
      -2.38460414e-002 -8.34813807e-003 -6.96790125e-003 9.35865846e-003
      1.35880504e-002 4.75064712e-003 -4.40394506e-002 -1.53127898e-004
      9.17085260e-003 2.86711147e-004 -2.29417626e-003 5.13506075e-003
      -1.42094819e-003 1.19386688e-002 -8.06631404e-004 -1.01970844e-002
      1.56156644e-002 -5.47685008e-003 -1.06064221e-002 1.52553264e-002
      -3.69335935e-002 3.17167467e-003 -7.16665760e-003 -3.22226289e-004
      1.34337955e-004 1.39211668e-002 8.46055709e-003 3.79620050e-003
      2.26323903e-002 -1.32589051e-002 8.28683004e-003 -2.60413215e-002
      -9.40399896e-003 -7.31752161e-003 -1.77228022e-002
      -7.34945713e-003 1.15995388e-002 -3.37612331e-002 -1.61276050e-002
      6.39267452e-003 -6.42796140e-003 3.94706009e-003 1.21597922e-003
      -9.86096356e-003 -9.91498306e-003 -6.65819272e-003 1.13103623e-002
      7.34882988e-003 9.99153499e-003 -2.43549198e-002 1.27593651e-002
      -1.80767626e-002 1.27932744e-003 5.02440752e-003 -3.78712290e-003
      5.90693438e-003 1.45726418e-002 -4.72030049e-004 7.21440045e-003
      1.10055134e-002 2.41215881e-002 -8.97788163e-003 6.17916882e-003
      6.91584777e-003 2.56750565e-002 9.30428877e-003 1.92013732e-003
      -1.51006859e-002 1.47893317e-002 3.27883251e-002 -2.00392082e-002
      -5.76475076e-003 1.70642685e-003 -5.02143726e-002 -1.02705248e-002
      -8.01560469e-003 -1.29174278e-003 7.12070521e-003 7.24100554e-003
      1.46186911e-003 1.14491871e-002 2.00015381e-002 -4.15729210e-002
      2.68878951e-003 6.03922550e-003 1.15008326e-002 -1.48582156e-003
      2.02201103e-004 8.74777231e-003 -2.11824896e-003 2.15091892e-002
      -2.45612003e-002 -8.98602232e-003 1.11201108e-002 1.26425410e-002
      1.44001367e-002 -2.05308897e-003 -5.91263361e-003 1.03144543e-002
      1.04594417e-002 8.99122655e-003 1.09614618e-002 -1.72991131e-003
      -6.16934244e-003 1.95441814e-003 -6.26665959e-003 8.15680716e-003
      1.72122680e-002 -4.29351535e-003 3.03484201e-002 -6.82442030e-003
      -1.38647351e-002 1.09013189e-002 -2.66372296e-003 -7.70556368e-003
      5.37733966e-003 2.66333367e-003 -2.59761624e-002 1.61266979e-002
      -1.58348493e-002 1.15580326e-002 -2.83435010e-003 -6.07357826e-004
      -2.46353797e-003 -8.67606513e-003 1.12469885e-002 -6.84764562e-003
      2.38962639e-002 8.04771762e-003 2.23460793e-003 3.01661226e-003
      -4.14273207e-004 3.98979336e-003 -3.44380154e-003 -3.59651223e-002
      8.20604898e-003 -2.55517550e-002 -3.82384402e-003 -3.99401635e-002
      -1.63059693e-003 6.70685945e-003 -1.24052251e-002 4.52217972e-003
      1.14061907e-002 1.74562039e-003 -2.77210469e-003 -7.59048387e-003
      2.91077662e-002 -2.14613462e-003 4.85784607e-003 2.31134221e-002
      1.23197408e-002 6.06870046e-003 6.03578286e-003 1.00437403e-002
      -4.50361008e-003 -1.24995690e-002 1.41503047e-002 -9.34259221e-003
      -1.13192236e-003 -7.38748489e-003 6.39379490e-003 3.37770209e-002
      1.40594169e-002 -1.69811584e-002 -4.27044090e-003 -2.73724981e-002
      -1.64158605e-002 3.88145330e-003 7.27914230e-005 1.31825414e-002
      1.87470403e-003 8.34083091e-003 1.81313895e-003 1.58351362e-002
      8.24809168e-003 -6.10789191e-003 -1.63517296e-002 -8.37759208e-003
      2.00437033e-003 1.49737122e-002 1.86673459e-003 1.11436227e-003
      9.50985495e-003 -1.41222752e-003 1.33680189e-002 5.69367874e-003
      -3.59595893e-003 1.95296053e-002 -8.97008926e-003 -7.60593405e-003
      1.34191604e-003 8.16506613e-003 1.21085299e-002 1.00105600e-002
      -5.39080240e-004 6.09531160e-003 -3.21424915e-004 -5.76696284e-002
      -6.16877340e-003 1.10118957e-002 8.65114201e-003 -2.15960499e-002
      9.25605372e-003 -6.52861828e-003 2.17807852e-002 8.17456935e-003
      1.21582188e-002 2.12624073e-002 1.59339271e-002 9.10550263e-003
      1.80405378e-002 -2.70489547e-002 -1.19493799e-002 -8.10477883e-003
      1.87350623e-002 1.03397267e-002 7.44563062e-003 3.83568928e-003
      -2.28302907e-002 3.38047906e-003 -1.16148102e-003 1.44897485e-002
      1.85986422e-003 1.82989631e-002 6.17079670e-003 -2.07791794e-002
      -1.27155781e-002 8.54539406e-003 -2.51400340e-002 1.21237058e-003
      9.24907997e-003 2.29351744e-002 8.14907253e-003 6.38412125e-003
      5.91621036e-003 5.37392125e-003 1.71550512e-002 3.55569832e-002
      1.55487824e-002 -1.07236551e-002 -4.86177998e-003 -1.15274787e-002
      7.97793642e-003 8.46956566e-004 1.63625814e-002 2.48452462e-002
      6.99088117e-003 1.71342189e-003 7.05247512e-003 -1.02191074e-002
      1.19228773e-002 8.01148731e-003 9.66983754e-003 1.99306030e-002
      1.00512290e-002 -1.10306432e-002 9.94658750e-003 -6.11702353e-003
      -1.25433877e-002 1.85897946e-002 2.78958445e-003 2.10118685e-002
      -2.15469440e-003 -9.58888233e-003 -2.70537799e-003 6.79042842e-003
      8.68335646e-003 6.91200700e-003 -5.12652583e-002 -1.73082575e-002
      -2.19969880e-002 -1.39187612e-002 -3.96285318e-002 7.01962085e-003
      7.33242370e-003 1.91995930e-002 1.81289054e-002 -1.00766132e-002
      6.44216489e-004 8.43652431e-003 -1.69611070e-002 -2.51911599e-002
      2.79840771e-002 -1.93752311e-002 5.95242134e-004 -3.58739123e-002
      2.08744546e-003 -4.62353323e-003 1.11961048e-002 -8.61612707e-003
      2.98357680e-002 8.17014184e-003 -7.11722150e-002 9.45760868e-003
      7.85214081e-003 -9.73428972e-003 -2.43518152e-003 -1.12034408e-002
      8.29986855e-003 -1.54632423e-002 -8.57777428e-003 -2.14635208e-003
      1.19905698e-003 1.31804142e-002 1.63627472e-002 2.16773003e-002
      4.81312210e-003 1.10105798e-002 -5.61203947e-003 -3.47668454e-002
      -1.42366439e-002 1.20201614e-003 7.76973786e-004 2.48037372e-003
      -6.12370064e-003 -1.57722458e-002 3.02249496e-003 1.32398279e-002
      1.24421043e-004 -8.03571660e-003 2.41118297e-002 1.25450408e-002
      -2.21334007e-002 6.25229534e-003 1.80048514e-002 -1.68971159e-003
      -1.21243652e-002 1.70823664e-003 -2.18389928e-003 8.20247829e-003
      2.72872322e-003 2.72083320e-002 9.97669296e-004 -2.24065017e-002
      1.19437166e-002 1.87627506e-002 2.82929069e-003 1.10878935e-002
      8.04669224e-003 -3.24818282e-003 -6.46032579e-003 8.12510122e-003
      -1.25270830e-002 1.01693552e-002 -1.31485499e-002 1.12636928e-002
      -4.80907112e-002 1.66122825e-003 -1.54817495e-002 1.32826995e-002
      1.09938532e-003 1.26161694e-005</_></support_vectors>
  <decision_functions>
    <_>
      <sv_count>1</sv_count>
      <rho>-9.9854158077579291e-001</rho>
      <alpha>
        1.</alpha>
      <index>
        0</index></_></decision_functions></my_svm>
</opencv_storage>
