<?xml version="1.0"?>
<opencv_storage>
<my_svm type_id="opencv-ml-svm">
  <svm_type>C_SVC</svm_type>
  <kernel><type>LINEAR</type></kernel>
  <C>1.</C>
  <term_criteria><epsilon>2.2204460492503131e-016</epsilon>
    <iterations>1000</iterations></term_criteria>
  <var_all>1000</var_all>
  <var_count>1000</var_count>
  <class_count>2</class_count>
  <class_labels type_id="opencv-matrix">
    <rows>1</rows>
    <cols>2</cols>
    <dt>i</dt>
    <data>
      -1 1</data></class_labels>
  <sv_total>1</sv_total>
  <support_vectors>
    <_>
      2.00468898e-002 1.21341608e-002 3.90421739e-003 6.60939282e-003
      1.78991649e-002 -3.73901683e-003 1.45688774e-002 2.80752964e-003
      1.10146375e-002 2.08945852e-003 -3.27257439e-002 -8.77949782e-003
      -3.49771716e-002 -7.82677147e-004 3.69260972e-003 1.25972461e-003
      -1.89398587e-001 -1.25259431e-002 -3.87632498e-003 1.54375741e-002
      -2.49113254e-002 1.51579864e-002 1.51715754e-002 1.69180930e-002
      2.17349976e-002 1.00109391e-002 1.08310049e-002 1.45485578e-002
      2.10043713e-002 1.66808702e-002 -4.66365442e-002 1.09577281e-002
      -2.25187689e-002 -1.50389317e-002 -1.64763145e-002 1.47467982e-002
      2.84529626e-002 -7.94801582e-003 1.27802789e-002 5.07711060e-003
      -2.02235598e-002 -1.91230662e-002 -1.69063993e-002 8.43952131e-003
      7.48897716e-003 1.84870362e-002 -7.80312438e-003 1.35344760e-002
      1.84645522e-002 7.09105097e-003 2.16096896e-003 -1.37910782e-003
      4.43364913e-003 1.04328366e-002 9.82120540e-003 5.09053469e-003
      7.83090759e-003 2.94042211e-002 1.68482158e-002 -1.62864476e-002
      -1.57754347e-002 -9.26670339e-003 2.20117136e-003 -3.15560843e-003
      -4.07487378e-002 -7.42309019e-002 -2.01921538e-002 2.21919287e-002
      -2.50647590e-002 1.52367232e-002 1.05876615e-002 5.15653577e-004
      -3.97885181e-002 -3.24952602e-003 3.81434220e-003 2.20577791e-003
      -1.06403111e-002 -1.46105075e-002 -2.69393511e-002
      -1.27895335e-002 -5.33984043e-003 -3.53939855e-003 1.42702814e-002
      9.05778445e-003 -1.44755337e-002 2.06786692e-002 2.75153164e-002
      -2.29393970e-002 4.50623548e-003 4.10666503e-003 8.60404782e-003
      -9.81383305e-003 2.69634463e-003 1.11195249e-002 -1.43546751e-003
      3.50800455e-002 1.10964850e-002 -4.43145214e-003 7.52308173e-003
      3.34301405e-002 8.98537599e-003 1.51508804e-002 1.98328961e-002
      -4.35362244e-003 -1.47090570e-004 -2.19209567e-002 1.32392906e-003
      4.66717966e-003 5.66910487e-003 1.75600145e-002 -2.42625666e-003
      1.78625764e-004 1.80212839e-003 4.82406700e-003 -2.16708034e-002
      1.02850702e-002 -1.51870900e-003 -9.54142027e-003 2.19515413e-002
      1.15146721e-002 -2.59160809e-002 -9.37863532e-003 1.40921976e-002
      1.15874140e-002 -1.34861469e-002 2.32956093e-002 -6.84628403e-003
      -1.11357458e-002 1.09932330e-002 8.04820750e-003 1.71173327e-002
      4.12215851e-003 4.46692780e-002 2.14030663e-003 -2.54485346e-002
      -1.95474341e-003 9.90460627e-003 9.13520344e-003 1.74586773e-002
      1.79327168e-002 5.56689501e-003 -8.72006547e-003 -7.01115094e-003
      -2.62248912e-004 1.04364064e-002 5.46185346e-003 -5.08977212e-002
      1.78932305e-002 -1.55679462e-002 2.21699313e-003 9.59106255e-003
      -5.93024073e-004 2.62054527e-004 1.02778776e-002 1.36344004e-002
      -8.46447144e-003 -7.51640415e-003 1.83514529e-003 1.85988639e-002
      6.37896312e-003 -6.97791725e-002 -1.33270666e-003 8.39571748e-003
      1.68675426e-002 -2.63008475e-002 -1.32563626e-002 -2.17354065e-003
      2.30496880e-002 -2.48593441e-003 1.33240987e-002 -4.17543203e-003
      -5.57710323e-003 4.82016848e-003 1.36596831e-002 -1.08648967e-002
      2.85229161e-002 2.25889939e-003 -3.41894962e-002 -3.43644177e-003
      -8.95923376e-003 1.24730803e-002 1.85338445e-002 -1.33234933e-002
      5.56314550e-003 1.08161122e-002 1.54071325e-003 7.73301767e-003
      -2.51114834e-002 8.08266830e-003 -7.70119252e-003 1.87172927e-002
      -2.08149217e-002 2.82093952e-003 -6.45143613e-002 -9.22924280e-003
      -2.48807762e-003 1.31773381e-002 1.77561585e-003 1.65083352e-002
      3.29410122e-003 2.36006957e-002 2.20313249e-003 -7.19456293e-004
      3.65951611e-003 -2.40230542e-002 2.42506079e-002 7.24789780e-003
      4.81012883e-003 4.91802581e-003 1.22022983e-002 -1.33979842e-002
      6.68920111e-003 -3.78570631e-002 -8.36448558e-003 -1.32112224e-002
      5.66104753e-003 -3.29768844e-002 4.89781471e-003 1.51492516e-002
      3.62488907e-003 1.28555214e-002 -1.01110293e-002 2.12469604e-003
      1.97451729e-002 -6.64784759e-002 -2.20700186e-002 2.96389274e-002
      1.20369950e-002 1.99652952e-003 3.53780463e-002 2.35945303e-002
      -4.41588797e-002 -1.34297647e-002 -2.53181215e-002 2.46977573e-003
      9.41412058e-004 1.44013930e-002 3.32640344e-003 3.24414037e-002
      9.75222606e-003 2.22290289e-002 1.39571792e-002 1.35401869e-002
      1.04111573e-002 -7.86523335e-003 -7.95957353e-003 8.30894150e-003
      -1.06251016e-002 2.45212950e-002 -6.39498606e-002 -2.55006906e-002
      3.64595850e-004 1.75787266e-002 -3.99879087e-003 1.41649228e-002
      6.25960948e-003 -4.32523107e-003 1.09354114e-004 -3.53012159e-002
      -6.96704760e-002 -3.83691974e-002 -1.89051626e-003 3.47712706e-003
      -2.68221758e-002 -1.24287615e-002 1.69045012e-002 -1.60029344e-003
      1.27313603e-002 3.39159109e-002 3.39511223e-002 -3.54386983e-004
      4.92853625e-003 1.41248470e-002 -4.65300158e-002 -7.00601423e-003
      -1.44745326e-002 -1.58137362e-002 1.90686882e-002 2.53332825e-003
      -4.77781370e-002 9.03490558e-003 5.17541450e-003 1.60934858e-003
      3.90173532e-002 -1.33661786e-002 7.14579085e-003 1.64248757e-002
      1.36152441e-002 6.35439157e-003 2.21590791e-002 -7.59408297e-003
      -1.74444728e-002 2.20643170e-002 -1.93109233e-002 1.81260575e-002
      1.05425119e-002 9.64905322e-003 1.15492614e-002 -2.89415214e-002
      2.11992413e-002 1.23406909e-002 -4.98491945e-003 1.85728054e-002
      6.73993770e-003 1.30021758e-003 4.93048038e-003 -2.89330054e-002
      -5.06652705e-003 2.38077156e-003 8.83393735e-003 -1.98890008e-002
      -5.17520448e-003 -2.43283287e-002 8.22888594e-003 3.64640690e-002
      -3.43726501e-002 -4.45392681e-003 -1.31974434e-002
      -2.24092044e-002 1.40344268e-002 1.14016952e-002 -2.77276766e-002
      8.10338766e-004 9.23895929e-003 -6.08701864e-003 1.12857064e-002
      -5.01551740e-002 -1.77619234e-002 2.30986788e-003 -2.63113752e-002
      1.38978213e-002 1.85484868e-002 -1.19550480e-002 -1.29768346e-002
      3.74006778e-002 -2.03033984e-002 8.76685977e-003 -2.54834667e-002
      6.93383440e-003 1.07132411e-002 1.79412831e-002 7.01590115e-003
      -2.88086664e-003 5.92933875e-003 -5.69023844e-003 -3.02330051e-002
      1.49584962e-002 -1.36581678e-002 -4.12504142e-003 -1.05950860e-002
      -1.31780026e-003 5.95541717e-003 -1.49544347e-002 -1.70496162e-002
      -6.28389744e-003 1.41182114e-004 1.11807715e-002 -2.52095051e-002
      3.17790247e-002 1.34097328e-002 -9.19939848e-005 -3.17704603e-002
      -1.03646005e-002 -1.12044276e-003 -1.59318727e-002
      -7.80169852e-003 -3.37880780e-003 1.06395846e-002 6.89478684e-003
      -7.39906505e-002 1.28762927e-002 -8.25793482e-004 1.80507042e-002
      1.05948411e-002 -1.42840995e-002 -9.60895093e-004 -2.05837097e-002
      1.59447324e-002 9.00371280e-003 8.78128281e-004 -6.90996647e-003
      -2.17673071e-002 1.44162457e-002 -2.60438561e-003 3.21749877e-003
      1.57535635e-002 5.68795716e-003 1.74731277e-002 -3.88809899e-003
      1.18806502e-002 1.36640680e-003 1.88415535e-002 -4.11437936e-002
      -1.02646919e-002 1.89853068e-002 1.18687609e-002 -6.71257731e-003
      5.61250700e-003 7.58658908e-003 1.05555449e-002 1.39172170e-002
      2.76155341e-002 1.37344645e-002 2.05386877e-002 1.06273275e-002
      -3.69540835e-003 2.20637638e-002 7.74701918e-003 -1.03034836e-003
      -7.90892169e-003 -2.19420865e-002 2.13578604e-002 -1.84158701e-002
      -1.14182299e-002 1.68335326e-002 -1.87492631e-002 -4.47949320e-002
      1.22585380e-002 7.25454127e-004 -1.78718884e-002 1.37946391e-002
      -5.98704210e-003 7.36443186e-003 -4.50903587e-002 1.06593575e-002
      -1.02567505e-002 -9.57713556e-003 7.37915630e-004 1.54548883e-002
      1.44813471e-002 2.90774694e-003 2.01423913e-002 -1.91270362e-003
      7.25560542e-003 -1.97160244e-003 7.82572757e-003 -2.55674962e-002
      -2.23991834e-003 3.54007538e-003 1.06732016e-002 2.67856149e-003
      -1.10711309e-003 -4.00895951e-003 4.81375167e-003 1.54867908e-002
      2.46976409e-003 -4.12830897e-003 5.58250211e-003 1.07956110e-002
      1.24449674e-002 1.72568727e-002 1.68350190e-002 -1.65800452e-002
      1.78557970e-002 6.15965948e-003 2.01528668e-002 -8.17751139e-003
      -2.05023400e-002 -2.23723007e-003 -2.13281326e-002
      -1.41101824e-002 3.55507550e-003 1.15856547e-002 3.30271176e-003
      -2.20592618e-002 9.76530463e-003 1.35375112e-002 -7.96391964e-002
      -2.94803996e-002 1.02083273e-002 2.46687066e-002 8.30435660e-003
      3.49099040e-002 9.41409264e-003 1.87603235e-002 3.77629162e-003
      2.24917522e-003 1.38782319e-002 -6.96716178e-003 -2.02967247e-004
      -1.20762736e-002 -2.49973107e-002 6.22034213e-003 -1.14960643e-003
      -5.60665620e-004 1.28652686e-002 -2.45482475e-002 5.27767185e-003
      1.26987137e-002 3.58880055e-003 4.21716087e-003 2.17513815e-002
      1.54847084e-002 -1.28395599e-003 1.10421535e-002 4.83176019e-003
      1.14548169e-002 -6.79924851e-003 2.03261934e-002 1.49541125e-002
      -1.57782622e-002 1.34740574e-002 -2.96460371e-002 8.79566371e-003
      -3.37588927e-003 -2.94869393e-002 -1.25772720e-002 1.12497024e-002
      7.45827239e-003 1.53021989e-002 -1.05874045e-002 4.81016561e-003
      4.11699573e-003 -2.10434315e-003 1.79232098e-002 -8.29922874e-003
      -2.28329543e-002 -2.23781541e-002 1.90590359e-002 -3.18248384e-002
      1.34036830e-002 -2.48291949e-003 1.11345351e-002 -1.45833837e-002
      2.36376785e-002 1.64108742e-002 -1.13761909e-002 -1.25507111e-004
      -2.84702107e-002 8.01203586e-003 -1.39302798e-002 -2.69273319e-003
      1.44165820e-002 1.70876347e-002 -4.74547129e-003 2.38758307e-002
      -2.41173655e-002 -2.94543547e-003 1.22410674e-002 -1.63697160e-003
      5.68561442e-002 3.20959976e-003 1.99536271e-002 -3.01843043e-002
      -1.66494530e-002 3.09838192e-003 -1.00518661e-002 1.88773889e-002
      6.26723142e-003 -8.76341481e-003 2.47044899e-002 -2.37272494e-002
      -1.91783514e-002 -7.50969537e-003 1.00422557e-002 9.07958392e-003
      -1.11397747e-002 -1.34637172e-003 -2.50951922e-003 2.95501505e-003
      3.42127820e-003 1.79893933e-002 -4.03556693e-003 1.77072641e-002
      2.16960572e-002 1.75162423e-002 1.68470554e-002 -9.18737613e-003
      -1.61022358e-002 3.95874446e-003 -1.37084387e-002 1.35450112e-002
      -8.87939800e-003 6.05317624e-003 7.27112638e-003 2.20835786e-002
      1.45482635e-002 -7.89576152e-005 1.60127990e-002 -6.57640537e-003
      1.63414739e-002 6.85221143e-003 9.00668371e-003 1.09534087e-002
      3.30767967e-003 2.05650665e-002 8.61680042e-003 3.10550518e-002
      -2.06581294e-003 -1.41724627e-002 -1.67975388e-002
      -3.17206047e-003 -3.00663970e-002 1.13706039e-002 8.18712637e-003
      4.53175139e-003 8.48498475e-003 -8.33774079e-003 -9.89000034e-003
      -1.24915401e-002 1.31441085e-002 1.10801086e-002 5.02918614e-003
      2.48164274e-002 6.59883069e-003 1.61374398e-002 1.67908370e-002
      1.17558539e-002 -6.31921589e-002 -9.18324199e-003 -2.58749705e-002
      9.94065660e-004 2.00836267e-002 7.78905116e-003 9.57413390e-003
      -8.91963113e-003 6.98214769e-003 1.38880285e-002 9.49926022e-003
      -1.62955206e-002 2.67657405e-003 1.55600822e-002 5.00769028e-003
      -1.79162920e-002 -1.50411827e-002 -6.90671615e-003
      -5.78780053e-003 9.80642159e-003 3.64773124e-002 -7.96759408e-003
      -9.44344793e-003 7.58479116e-003 -2.00478882e-002 7.34372018e-003
      -4.64786030e-003 -3.90538853e-003 1.55530889e-002 1.01561574e-002
      9.04489309e-003 1.49111561e-002 3.05574457e-003 4.25439002e-003
      6.95530651e-003 9.79187060e-003 1.58424340e-002 -6.56147348e-003
      -6.16896292e-003 9.27720405e-003 8.55471939e-003 1.73869133e-002
      1.40453514e-003 1.87116973e-002 1.66730992e-002 1.35549391e-002
      -7.84559269e-003 -7.13860989e-003 1.16883824e-003 1.91031639e-002
      1.83225877e-003 -3.42945941e-002 2.70139705e-002 3.72189423e-003
      1.59694143e-002 4.40710597e-003 8.56071245e-003 3.94290360e-003
      1.28795218e-004 7.34696491e-003 -1.37094818e-002 1.23485019e-002
      -4.46006376e-003 1.89636964e-002 -8.97479057e-003 4.87593329e-003
      -3.51718403e-002 -1.82163641e-002 -2.87734740e-003 9.88328736e-003
      -1.02368079e-003 1.28256259e-002 -8.06011446e-003 1.02638360e-002
      1.47982165e-002 -8.06832407e-003 4.71716048e-003 9.04653873e-003
      -1.38328690e-002 3.21230013e-003 -5.83609752e-003 9.83963814e-003
      -1.65444333e-002 -2.34443508e-002 1.39620313e-002 1.53315589e-002
      -1.72466915e-002 -7.24218367e-003 -2.01829523e-002 2.08806377e-002
      1.36153847e-002 3.50705418e-003 -1.87440999e-002 7.71654677e-003
      3.36140837e-003 4.95268637e-003 -9.33973351e-004 1.50991213e-002
      -1.57673028e-003 -8.05621594e-003 1.04618603e-002 8.37823004e-003
      8.27794615e-003 -2.50261147e-002 -4.42033671e-002 -2.52064085e-003
      1.17756799e-002 -3.84179987e-002 -7.22450763e-003 2.01522354e-002
      5.88120334e-003 1.46414945e-002 -7.72428699e-003 -7.34365126e-003
      4.67466936e-003 2.57324823e-003 -6.95533759e-004 1.30896252e-002
      -1.74341883e-004 1.47778075e-002 1.15857879e-002 4.89353377e-004
      1.38871521e-002 -3.79036344e-003 3.73898190e-003 -1.75520591e-002
      -1.80796422e-002 7.97623396e-003 -2.20536944e-002 6.02371152e-003
      5.82713075e-003 1.02661513e-002 3.70812532e-003 2.83461576e-003
      -1.89305339e-002 -1.03072403e-002 -1.82471680e-003
      -1.23585863e-002 2.63165440e-002 -8.03431321e-004 -4.36604582e-003
      1.63451079e-002 -3.95669078e-004 9.31369979e-003 7.49770226e-003
      -1.00491429e-002 -6.82505313e-003 -1.65255694e-003 3.47725791e-003
      -1.23293521e-002 1.65718999e-002 -9.60561354e-003 -1.44330151e-002
      7.12703867e-003 1.16743334e-002 3.80028505e-003 -6.42566057e-003
      2.15900000e-002 -3.37052904e-002 2.63988376e-002 1.24616958e-002
      7.98887480e-003 1.47285499e-002 2.44055339e-003 2.17139069e-002
      -2.05452759e-002 -4.97872243e-003 1.14839962e-002 -7.11417794e-002
      8.15043598e-003 -1.70194041e-002 -1.53433206e-003 1.00786416e-002
      8.56928620e-003 -1.58739816e-002 -2.29855962e-002 5.17750392e-003
      -9.03599486e-002 2.09341547e-003 5.84033364e-003 6.14526449e-003
      -5.81848696e-002 2.01371666e-002 9.54747107e-003 2.69905222e-003
      -2.27134284e-002 4.48243469e-002 1.44045206e-003 1.07770748e-002
      -6.02295436e-003 4.24201088e-003 5.46442252e-003 -7.54690729e-004
      3.45969759e-003 2.36488436e-003 -2.10563163e-003 6.19207276e-003
      8.07975233e-003 2.44766716e-002 8.24612286e-003 -1.71213541e-002
      -4.55230735e-002 -2.42633447e-002 1.27366986e-002 1.03722271e-002
      9.17369220e-003 6.68227859e-003 1.66408310e-003 -1.48330759e-002
      -1.62262339e-002 3.83558436e-005 -2.29173712e-002 1.43275026e-003
      -1.00010075e-002 -1.45228514e-002 9.85330343e-003 -1.07053537e-002
      -1.51058575e-002 1.57564378e-003 1.78814847e-002 5.29556908e-003
      -2.97361566e-003 -1.89770907e-002 4.50793607e-003 6.33454788e-003
      1.04061775e-002 1.48800500e-002 3.97588359e-003 -9.63477418e-003
      -9.50237736e-003 6.52840221e-003 2.13745143e-003 1.89026154e-003
      1.54281966e-003 -1.28727499e-002 2.94946018e-003 4.63659875e-003
      3.06629911e-002 1.50400139e-002 -2.60832403e-002 2.14556847e-002
      3.73852835e-003 5.67049440e-003 -2.47831852e-003 1.21619098e-003
      1.60168968e-002 1.88819841e-002 1.74891739e-003 5.82053047e-003
      1.72756240e-002 -3.37922648e-002 -3.78876226e-003 1.01045519e-002
      1.64856352e-002 8.39003548e-003 -1.67492824e-003 8.60860478e-003
      1.74791412e-003 -2.39206059e-003 2.01915875e-002 -1.18467845e-002
      -1.82813182e-002 -3.66021344e-003 2.07233448e-002 -4.67989082e-003
      2.84920610e-003 7.52308592e-003 1.09276967e-002 5.22933854e-003
      1.42873768e-002 4.72292956e-003 -7.55862379e-003 -9.90260951e-003
      -3.28705553e-003 1.01974634e-002 3.78856523e-004 1.10733137e-002
      -2.33410932e-002 7.06366077e-003 2.44046338e-002 -6.25439128e-003
      1.73579678e-002 -1.27042122e-002 -1.11763226e-002 -3.63559183e-003
      -1.17652975e-002 -2.36445628e-002 1.56434290e-002 -1.33853860e-003
      1.02204252e-002 1.80417001e-002 8.42293911e-003 1.07781887e-002
      -1.18779922e-002 1.41762365e-002 -6.73324335e-003 3.37613834e-004
      4.06875741e-003 1.58207752e-002 -2.00144500e-002 1.35365063e-002
      -8.22317600e-003 -5.79869524e-002 4.86594345e-003 -4.77088336e-003
      1.89682804e-002 -2.09915871e-003 -4.66043735e-003 1.17177768e-002
      1.95916668e-002 -2.25604288e-002 -1.29263913e-002 -2.22109761e-002
      -8.31101649e-003 2.93642562e-003 4.31686779e-003 -1.48195717e-002
      -2.01895051e-002 8.37051496e-003 1.32299513e-002 -1.90819912e-002
      1.44419726e-002 5.37832594e-003 5.05440775e-003 -2.05999147e-003
      -1.13911638e-002 -7.95175135e-002 -3.71863204e-003
      -6.29439391e-003 3.35904304e-003 5.45003405e-003 6.74416823e-003
      -6.26751175e-003 2.34416630e-002 5.65093569e-003 -2.28811381e-003
      1.15850819e-002 -3.57293990e-003 -6.57669688e-003 -1.26068983e-002
      -2.30776705e-003 -7.31063727e-003 -2.47270111e-002
      -5.48619106e-002 -5.48396306e-003 -3.28766019e-003 6.24213414e-003
      2.23246384e-002 -1.52705389e-003 -1.47600016e-002 1.00127244e-002
      -8.90906621e-003 2.83513730e-003 -6.91624032e-003 -1.32557768e-002
      3.58280800e-002 -2.22503748e-002 1.98794380e-002 -4.85154893e-003
      -3.66563257e-003 -5.42307878e-003 1.91127472e-002 2.29364261e-003
      -1.44301932e-002 3.27234901e-002 -1.12283705e-002 1.63906049e-002
      7.06731249e-003 -5.98699450e-002 -7.97049142e-003 1.00657474e-002
      -9.62097105e-003 5.77148702e-003 6.95057167e-003 -4.35074419e-002
      -2.21160240e-002 -4.21387842e-003 1.91998426e-002 2.04221206e-003
      6.70917239e-003 -3.39187272e-002 1.16701461e-002 -1.38285467e-002
      1.64011139e-002 -1.50292367e-003 -2.60950095e-004 4.91812127e-003
      1.61192939e-002 6.24149898e-003 5.42083848e-003 8.49214103e-003
      1.47640053e-002</_></support_vectors>
  <decision_functions>
    <_>
      <sv_count>1</sv_count>
      <rho>-9.9821547804377553e-001</rho>
      <alpha>
        1.</alpha>
      <index>
        0</index></_></decision_functions></my_svm>
</opencv_storage>
